13478 32
2562 0.421775 0.413452 0.354427 -0.516224 -0.0149511 0.131471 0.0557258 0.749652 -0.523514 0.207097 -0.0510486 0.0328916 0.536544 -0.26953 -0.869898 -0.218115 0.152688 0.206058 0.150771 0.177788 0.306586 -0.595036 0.895299 0.65698 0.232411 0.311295 -0.0843521 -0.108586 -0.459693 -0.848119 0.462964 0.819543
2561 0.469956 0.344773 0.453932 -0.474264 -0.0202369 0.0617378 0.0384836 0.70019 -0.494487 0.234675 -0.150128 0.176478 0.56002 -0.301688 -0.934459 -0.278487 0.0847234 0.0989019 0.0907276 0.152879 0.258289 -0.584168 0.842818 0.519208 0.298469 0.349861 -0.115456 -0.0115132 -0.449741 -0.875968 0.433309 0.859174
2734 0.430789 0.497418 0.363683 -0.486714 0.0246601 0.145008 0.0510146 0.903896 -0.548321 0.205441 0.0462204 -0.00568502 0.482528 -0.267347 -0.930102 -0.264411 0.227485 0.220723 0.294781 0.170512 0.379991 -0.626392 0.96473 0.809921 0.21254 0.256064 -0.0622265 -0.0923675 -0.609 -0.853928 0.456803 0.940646
10508 0.376277 0.575626 0.304161 -0.385045 0.0634946 0.130017 0.0254796 0.858155 -0.521014 0.101488 0.144399 0.00618614 0.348347 -0.163651 -0.861041 -0.253092 0.264675 0.246588 0.419695 0.092708 0.473389 -0.580898 0.959458 0.849224 0.252873 0.263351 0.0411333 -0.0269388 -0.601671 -0.746492 0.424522 0.938559
12614 0.29487 0.493728 0.240349 -0.239037 0.088224 0.0827538 -0.0431196 0.633439 -0.400949 0.11947 0.208455 -0.0156813 0.256856 -0.096444 -0.736209 -0.18561 0.168521 0.156006 0.384667 0.112948 0.467167 -0.459788 0.781332 0.680283 0.268776 0.268212 0.0584653 -0.00538 -0.433909 -0.576062 0.328882 0.812661
4786 0.500943 0.446269 0.422449 -0.627931 -0.0112365 0.0819806 0.0269578 0.863134 -0.549373 0.281065 -0.09657 -0.00788567 0.633316 -0.355874 -0.949117 -0.23792 0.19029 0.216276 0.138515 0.248811 0.305272 -0.679764 1.02405 0.726906 0.230832 0.275089 -0.09198 -0.147432 -0.559051 -1.02507 0.553408 0.869547
9203 0.522284 0.315028 0.403268 -0.757099 -0.0690808 -0.0542986 -0.0651864 0.618104 -0.347117 0.262571 0.0164758 -0.118211 0.665839 -0.378857 -0.973655 -0.198541 0.322798 0.121367 -0.183153 0.37748 0.154106 -0.547823 0.931793 0.509885 0.201145 0.0575468 -0.123064 -0.215716 -0.390734 -1.11775 0.666712 0.635101
569 -0.0923243 0.331746 0.598226 0.315483 0.687808 -0.438494 -0.827003 -0.0469274 0.104055 0.260597 -0.405382 -0.0466673 0.277823 0.999257 -0.518083 0.933768 -0.152125 -0.0799773 -0.104156 0.380421 0.461155 -0.356289 0.855583 0.531993 1.66463 0.376691 0.185869 -0.354794 -0.137671 -0.218973 0.260934 1.03772
12973 0.146794 0.36513 0.524489 0.276723 0.580737 -0.342702 -0.742371 -0.135135 0.0337428 0.0463125 -0.194316 -0.00648691 0.194955 0.783555 -0.418901 0.726927 -0.103225 -0.00640678 -0.0628482 0.325729 0.46181 -0.318489 0.771241 0.360654 1.34192 0.350724 0.0655753 -0.311993 -0.0722351 -0.0915799 0.183242 0.770956
10690 -0.182401 0.229793 0.505946 0.21063 0.577955 -0.32462 -0.620042 -0.00833598 0.0956853 0.371937 -0.44731 -0.012986 0.201434 0.847424 -0.56358 0.815697 -0.139285 -0.205108 -0.117719 0.293556 0.415685 -0.304216 0.600695 0.474876 1.34689 0.354896 0.207099 -0.257015 -0.050976 -0.33417 0.282251 0.959283
10369 -0.269328 0.197003 0.578791 0.161588 0.565632 -0.280629 -0.61332 0.00992106 0.139474 0.582531 -0.617218 -0.00292657 0.234224 0.888866 -0.754081 0.846729 -0.206664 -0.280376 -0.212814 0.333474 0.495559 -0.34029 0.533288 0.56803 1.50122 0.520538 0.272769 -0.221001 -0.0351967 -0.473153 0.387419 1.0855
3868 -0.273721 0.100907 0.622361 0.0268033 0.462047 -0.0488705 -0.446362 -0.000844765 0.091699 0.810269 -0.773706 0.00399016 0.203424 0.82353 -1.00078 0.801064 -0.215036 -0.341276 -0.318914 0.301007 0.620677 -0.332873 0.406974 0.563818 1.37949 0.561578 0.22195 -0.16155 0.0983489 -0.672633 0.509082 1.06784
7483 -0.187674 0.185451 0.425476 0.120632 0.475906 -0.282473 -0.495067 0.0142309 0.126208 0.38418 -0.303544 -0.00649685 0.186608 0.697981 -0.685328 0.589748 -0.16402 -0.228844 -0.145373 0.28247 0.4018 -0.259583 0.504014 0.421906 1.17113 0.343621 0.245443 -0.165321 0.001639 -0.421114 0.313004 0.883605
7482 -0.0801141 0.113468 0.247166 0.0664539 0.250104 -0.177498 -0.335025 -0.0632639 0.0619381 0.196096 -0.0641146 0.0153802 0.103864 0.376843 -0.647085 0.367004 -0.105367 -0.146547 -0.0868429 0.280127 0.429451 -0.203016 0.469987 0.315196 0.839834 0.26964 0.198588 -0.117012 -0.00592239 -0.356761 0.276338 0.654833
12152 0.333161 0.120607 0.369672 -0.0898129 -0.0472158 -0.281127 0.146459 -0.336521 -0.0124549 0.23769 0.720032 0.30854 0.0765499 0.293733 -0.691537 0.0627809 0.256612 -0.103037 -0.0789474 0.0454276 0.337643 -0.0943571 0.109945 -0.0746112 0.650501 -0.293255 0.179578 -0.14387 -0.333693 -0.912863 -0.0287035 0.259236
3884 0.632321 0.17888 0.701391 -0.192903 -0.0463204 -0.491909 0.323204 -0.536809 0.0184287 0.42588 1.25885 0.591922 0.118776 0.468188 -1.21206 0.109768 0.445163 -0.201662 -0.178389 0.100612 0.542865 -0.127723 0.174998 -0.0758731 1.08347 -0.4816 0.282229 -0.256182 -0.602669 -1.6083 -0.0642458 0.375959
3885 0.52109 0.149627 0.584524 -0.139114 -0.0634787 -0.384596 0.29416 -0.485661 0.034332 0.381368 1.07289 0.497301 0.109098 0.403785 -1.07414 0.114545 0.35267 -0.172517 -0.12607 0.102967 0.453138 -0.126316 0.139655 -0.0882683 0.92159 -0.403426 0.298751 -0.264664 -0.58059 -1.36619 -0.0555689 0.370037
897 0.180251 -0.223806 -0.150826 -0.194515 0.127986 -0.0722632 -0.604191 -0.487459 0.00755531 -0.559794 0.151784 0.197626 -0.192687 -0.0801066 -1.0137 0.276279 -0.358448 0.0506137 0.290199 -0.376175 0.207123 -0.112989 0.597318 0.0917398 0.222445 -0.0167665 0.141017 0.108048 -0.1385 -0.584144 0.48557 0.574782
3602 0.427261 -0.331413 -0.326578 -0.499257 0.289367 0.0592261 -0.930511 -0.912197 -0.22371 -0.994952 0.201356 0.268079 -0.0976278 -0.295196 -1.69252 0.561655 -0.469857 -0.0088153 0.432169 -0.614759 0.373711 -0.16396 0.891915 0.179884 0.171615 -0.101246 0.218029 0.0970066 -0.299978 -0.947611 0.761593 0.703343
9866 0.482001 -0.119611 -0.195945 -0.252069 0.162372 0.0180617 -0.579098 -0.489103 -0.0246273 -0.678286 0.19546 0.141997 0.169658 -0.188476 -1.08696 0.289159 -0.250152 -0.143689 0.226536 -0.403944 0.0862784 -0.166086 0.646678 0.0868509 0.163467 -0.116364 0.144773 0.127138 -0.10662 -0.501508 0.404391 0.575317
3601 0.297304 -0.133066 -0.242292 -0.342663 0.224821 0.0233482 -0.630336 -0.574609 -0.15658 -0.59108 0.189213 0.188349 -0.0196894 -0.211744 -1.11495 0.378262 -0.290784 -0.0203613 0.270327 -0.339896 0.31789 -0.122397 0.589992 0.14248 0.12138 -0.0541158 0.149487 0.0618892 -0.218486 -0.609352 0.472604 0.480036
9551 0.585816 -0.0943299 -0.268921 -0.304133 0.25345 -0.0305234 -0.859744 -0.601381 -0.167643 -0.721906 0.342158 0.205781 0.0828997 -0.185186 -1.24516 0.351157 -0.229161 -0.0665708 0.243256 -0.356636 0.339049 -0.0346087 0.730186 0.149512 0.182632 -0.0787366 0.122936 0.083672 -0.263911 -0.679433 0.542411 0.570967
6508 0.139571 0.0662116 -0.384804 0.541532 -0.265986 -0.418869 0.352919 -0.019528 -0.176135 -0.458257 0.00786279 0.0792963 -0.282989 -0.00110983 -1.14477 -0.0874243 0.0335511 0.0143153 -0.586624 0.445378 0.704804 -0.218077 0.687277 -0.0737897 0.197295 0.273712 0.237574 -0.260396 0.232041 -0.371895 0.0985639 0.590283
6507 0.126438 -0.0485128 -0.256585 0.377968 -0.239742 -0.0898418 0.452548 0.128142 -0.2271 -0.404406 -0.105285 0.10243 -0.467664 0.0890874 -1.09191 -0.0420758 0.180251 -0.126157 -0.51055 0.758213 0.746362 -0.097959 0.61829 -0.181466 0.397063 0.400837 0.248675 -0.104517 0.170598 -0.329818 0.114493 0.667079
7428 0.225172 -0.0335202 -0.180544 0.319322 -0.256044 0.133732 0.488368 0.176399 -0.273489 -0.550329 -0.191119 0.112214 -0.664813 0.284263 -1.16312 -0.0230076 0.288842 -0.238908 -0.58801 1.2251 0.922027 -0.0399394 0.627557 -0.324401 0.65441 0.53527 0.32545 0.0421689 0.151241 -0.381265 0.116048 0.817006
8948 0.168461 -0.0521504 -0.150679 0.172917 -0.158764 0.217988 0.422179 0.157909 -0.300646 -0.575456 -0.236071 0.0709201 -0.564885 0.295874 -1.02755 0.0176401 0.223733 -0.22813 -0.484946 1.30777 0.921517 -0.0741491 0.621586 -0.338082 0.652281 0.556386 0.247164 0.109402 0.0889969 -0.417374 0.0622481 0.83027
8947 0.142064 -0.135175 -0.183818 0.169571 -0.0493662 0.101649 0.318459 0.165314 -0.18644 -0.459226 -0.366083 0.0500477 -0.448217 0.251292 -0.939357 -0.0194319 0.0251641 -0.208714 -0.36396 1.14033 0.729888 -0.203763 0.569922 -0.268778 0.59696 0.44112 0.261886 0.0644499 0.0298545 -0.387622 -0.0358182 0.759528
12554 0.197334 0.0949092 -0.0579261 0.0642019 -0.213702 0.295008 0.235135 0.00708543 -0.386249 -0.58137 0.0163091 0.0516135 -0.451948 0.320402 -0.833859 0.0617449 0.261743 -0.203643 -0.465205 1.19697 0.86057 -0.0746396 0.437812 -0.40315 0.545254 0.510795 0.131937 0.218902 0.0850743 -0.378457 0.0995899 0.740712
4120 1.08057 0.253298 -0.0377933 0.076042 0.182748 -0.171925 -0.653161 -0.301991 0.246335 -0.492732 0.902566 0.1564 0.405237 0.0223828 -1.01629 -0.175659 0.151763 -0.243854 0.0655562 0.00850978 0.244488 -0.265234 0.827085 0.216326 0.450036 -0.0815666 0.0315543 0.278995 0.173993 -0.356359 0.369753 0.868949
5294 1.2661 0.289671 -0.0288101 0.0956079 0.192211 -0.171739 -0.729522 -0.351219 0.275859 -0.564526 0.996054 0.192729 0.497912 0.0178413 -1.12987 -0.201292 0.189246 -0.292079 0.0774527 0.00990303 0.248325 -0.277864 0.938506 0.222217 0.487078 -0.0910892 0.0223502 0.303587 0.185279 -0.420581 0.405593 0.997088
5295 1.1649 0.245734 0.000219107 0.0670169 0.178299 -0.139087 -0.691859 -0.340045 0.277095 -0.539806 0.949529 0.158501 0.460943 0.0310842 -1.06757 -0.19485 0.155935 -0.28193 0.0823693 0.0131388 0.251352 -0.272349 0.90125 0.216939 0.489185 -0.0971646 0.0243969 0.29212 0.192592 -0.391489 0.421036 0.956217
7064 1.18586 0.255067 0.0220494 0.0386573 0.15924 -0.20612 -0.705666 -0.341735 0.308883 -0.541079 0.990345 0.163143 0.454457 0.0385088 -1.12406 -0.134593 0.180808 -0.312201 0.1021 0.0352381 0.305984 -0.278124 0.93498 0.243206 0.511268 -0.10906 -0.00439264 0.296813 0.196034 -0.366241 0.403914 0.995242
11149 0.95187 0.208311 0.0218187 0.0192657 0.119945 -0.177024 -0.560403 -0.268274 0.244489 -0.43188 0.862661 0.10315 0.374166 0.032658 -1.04556 -0.0829353 0.106698 -0.25621 0.0892794 0.0823599 0.35051 -0.247091 0.868141 0.214868 0.530264 -0.0510407 0.0540085 0.193019 0.14522 -0.417338 0.371046 0.875967
2343 1.46305 0.275333 -0.0142897 0.0615652 0.189355 -0.219975 -0.834096 -0.355359 0.371326 -0.651315 1.12132 0.180161 0.57181 0.0544135 -1.27026 -0.187322 0.22424 -0.396069 0.0898713 -0.0529619 0.25819 -0.315698 1.05257 0.249839 0.557928 -0.168804 0.00140181 0.34556 0.197215 -0.417535 0.472333 1.15063
2344 1.44073 0.219579 -0.0242602 0.052248 0.203785 -0.236228 -0.726988 -0.306215 0.433743 -0.679404 1.07997 0.136107 0.557776 0.0171356 -1.23559 -0.201865 0.2794 -0.376103 0.130713 -0.0340499 0.226973 -0.328681 1.0065 0.213254 0.551152 -0.164622 -0.0580544 0.364633 0.211667 -0.402432 0.438499 1.15461
3522 1.27262 0.206059 -0.0452057 0.012804 0.154447 -0.193879 -0.712809 -0.27668 0.344389 -0.590582 0.966195 0.115438 0.50987 0.0221258 -1.14677 -0.162539 0.212045 -0.33187 0.112233 -0.0290116 0.226138 -0.259635 0.933178 0.214609 0.471739 -0.153213 -0.0572641 0.31543 0.196829 -0.359935 0.407016 1.05196
2654 1.27463 0.222029 -0.033704 0.0733369 0.186506 -0.183122 -0.700765 -0.264906 0.316608 -0.566548 0.955315 0.172424 0.510611 0.00498546 -1.09549 -0.195111 0.198835 -0.339727 0.0754446 -0.079241 0.177661 -0.295001 0.892881 0.203073 0.448354 -0.187402 -0.00670499 0.337139 0.193896 -0.352608 0.383521 0.995885
12943 0.18466 -0.0184667 -0.174829 0.0605874 0.293817 -0.356117 -0.571812 -0.716691 -0.0808098 -0.540865 0.782797 -0.0927773 0.0404257 0.606997 -1.02359 0.0876232 -0.417575 0.195244 0.315681 0.0605032 0.742995 -0.357302 -0.318586 0.596897 0.857831 0.25757 0.133815 -0.553081 -0.278081 -0.331002 0.275278 0.611753
12942 0.236307 -0.0704355 -0.149116 0.124113 0.209583 -0.388055 -0.633979 -0.666777 -0.136005 -0.411388 0.778491 -0.161396 0.185936 0.494124 -0.883929 0.05165 -0.301855 0.0836658 0.200867 0.0429622 0.574203 -0.338323 -0.296181 0.489637 0.721749 0.236624 0.0577383 -0.487525 -0.217534 -0.3965 0.241988 0.63074
6958 0.354305 -0.23167 -0.138488 0.267841 0.197737 -0.574258 -0.76484 -0.716447 -0.216541 -0.420083 1.00173 -0.175261 0.310813 0.443096 -0.958349 0.030822 -0.218332 0.0326856 0.191257 0.0692616 0.492454 -0.341651 -0.357191 0.449047 0.739332 0.312357 -0.0287768 -0.479273 -0.127329 -0.584396 0.253119 0.70667
4640 0.221829 0.0552055 -0.152564 0.0330891 0.433647 -0.357006 -0.581144 -0.822213 -0.00255786 -0.711497 0.870608 -0.0644187 -0.0415624 0.663747 -1.10613 0.0595276 -0.550186 0.296526 0.294709 0.0281906 0.839961 -0.33654 -0.358049 0.704539 0.994242 0.329756 0.194337 -0.575692 -0.360001 -0.243551 0.240014 0.678326
233 0.220191 -0.226949 -0.332121 -0.132927 -0.173267 0.0525378 0.104696 -0.14466 -0.399124 0.07415 0.0410586 0.129127 0.157606 0.430991 -0.938488 0.0861715 -0.269335 -0.371249 -0.0731622 0.504612 0.192667 0.204008 0.69398 -0.162514 1.0154 0.13875 0.12232 -0.0675696 -0.00200419 -0.223369 0.264676 0.702371
5096 0.122114 -0.050424 -0.102975 -0.0977858 -0.0858945 0.0641426 0.0456079 -0.0557213 -0.305823 -0.177992 0.00341229 0.000315127 0.0359481 0.225029 -0.857486 0.121983 -0.277121 -0.353725 0.0529671 0.562543 0.262373 0.0339573 0.737098 -0.184075 0.945383 0.0895445 -0.0309975 -0.0667974 0.0201862 -0.451013 0.287726 0.559646
5097 -0.0539894 0.0490085 0.0662597 -0.00781922 0.0667139 0.164965 0.0978263 0.10867 -0.349892 -0.482044 -0.192282 -0.197567 -0.100883 0.0466033 -0.859912 0.177524 -0.315492 -0.371971 0.226604 0.725795 0.17656 -0.100872 0.771473 -0.377887 1.07022 0.00441834 -0.216882 -0.125262 0.0674594 -0.712266 0.436049 0.49248
11406 -0.152004 0.150493 0.176392 0.0112171 0.118465 0.219293 0.0408536 0.251923 -0.438039 -0.720195 -0.30446 -0.292472 -0.187464 -0.0286641 -0.939395 0.274967 -0.351797 -0.48995 0.329134 0.891502 0.166722 -0.172225 0.911367 -0.558228 1.27357 -0.0158791 -0.357419 -0.206567 0.0793958 -0.941027 0.587237 0.495546
10841 -0.351231 0.101514 -0.0935495 0.268693 0.0144714 0.190257 -0.0293476 0.322134 -0.490613 -0.639754 -0.207894 -0.259286 -0.235615 0.206214 -0.716487 0.292397 -0.139143 -0.358647 0.241141 1.05725 0.266345 -0.0950109 0.916392 -0.478544 1.25814 0.123779 -0.305304 -0.363632 -0.00523107 -0.885854 0.787797 0.422956
4129 0.29518 0.093954 0.288919 -0.18117 -0.220514 0.365185 -0.00825287 0.183811 0.206992 -0.0905918 0.129882 0.134718 0.0182386 -0.169801 -1.26041 -0.149008 -0.170095 -0.383967 -0.232778 0.2866 0.500105 -0.278669 0.366122 -0.135095 0.492273 -0.00597349 0.297788 0.380592 0.101148 -0.812067 0.281004 0.455372
8964 0.295639 0.220537 0.441897 -0.239491 -0.271602 0.36002 -0.175657 0.240938 0.253473 -0.161522 -0.0456387 0.395614 0.225674 -0.407093 -1.32127 -0.195277 -0.16149 -0.489134 -0.534156 0.376834 0.737557 -0.57923 0.32684 -0.257757 0.406691 0.0555931 0.390015 0.537854 0.183745 -0.931147 0.298154 0.401763
6232 0.234208 0.179236 0.465944 -0.25555 -0.107435 0.299827 -0.0542402 0.161354 0.181148 0.0634659 0.00668665 0.201024 0.126059 -0.305177 -1.00886 -0.262507 -0.035186 -0.328525 -0.33304 0.301828 0.87989 -0.521874 0.291012 -0.175943 0.369534 0.051104 0.280799 0.306091 0.221718 -0.719764 0.153232 0.258823
5669 0.243393 0.141785 0.58649 -0.273604 -0.0032857 0.325028 0.0749122 0.229406 0.166946 0.198298 0.0383912 0.112021 0.0624789 -0.351024 -0.932036 -0.335107 0.00618245 -0.270112 -0.360932 0.289931 1.07664 -0.582509 0.362104 -0.15574 0.463523 0.0953051 0.271885 0.250798 0.298992 -0.732347 0.131195 0.228499
51 0.055587 0.0593613 0.407598 -0.525292 -0.130667 -0.087188 -0.0672069 -0.52328 -0.0327355 0.065329 0.140373 0.0373282 -0.0862882 0.0976535 -0.548183 0.575603 0.115491 0.432657 0.412154 0.656786 0.529249 -0.126022 1.03803 0.616527 0.302255 0.587391 -0.268973 -0.328643 -0.484143 -0.685402 0.361585 0.192195
50 0.286964 0.103905 0.402808 -0.558741 -0.0469535 -0.303867 -0.139221 -0.664649 -0.307958 0.206295 0.343662 0.0646967 0.0439625 0.168493 -0.601757 0.628997 -0.0654531 0.211314 0.321558 0.71796 0.360265 -0.135247 1.11277 0.451731 0.311535 0.646441 -0.249628 -0.293876 -0.543788 -0.613264 0.254753 0.164659
89 0.271711 0.125134 0.475052 -0.55234 -0.0545249 -0.318949 -0.200146 -0.728821 -0.403667 0.258166 0.457741 0.0821877 0.0155728 0.116691 -0.566982 0.659777 -0.0902452 0.160861 0.307824 0.745369 0.36687 -0.12694 1.16706 0.406462 0.349517 0.671969 -0.208583 -0.28268 -0.613091 -0.65973 0.227132 0.155228
1397 0.341406 0.15278 0.479642 -0.566381 -0.0565816 -0.389717 -0.192576 -0.708711 -0.471917 0.269123 0.441535 0.147543 0.128204 0.148045 -0.567997 0.660159 -0.135339 0.131804 0.271317 0.780734 0.29416 -0.0896521 1.20533 0.367517 0.335876 0.762217 -0.196335 -0.311881 -0.599929 -0.672397 0.200652 0.139223
88 0.413005 0.14662 0.698826 -0.827306 -0.0610252 -0.501795 -0.197615 -1.02391 -0.899682 0.583612 0.631371 0.177217 0.0865679 0.143657 -0.830284 1.07276 -0.145587 0.0765506 0.50487 1.21469 0.318563 -0.101813 1.89102 0.533011 0.500123 1.22318 -0.239418 -0.414138 -0.998571 -0.994568 0.354532 0.191151
3537 0.66767 0.197763 0.605925 -0.637205 -0.127652 -0.500578 -0.287134 -1.11253 -0.984091 0.378536 0.833409 -0.117766 0.140049 0.0401682 -0.640476 0.762124 -0.344698 -0.107011 0.412709 0.672115 0.480981 -0.367465 1.72501 0.348746 0.811728 0.890461 -0.0904726 -0.228093 -1.02381 -0.775342 0.481466 0.194299
7648 0.372021 0.211616 0.315527 -0.257901 0.0582769 -0.315536 -0.136649 -0.589831 -0.549514 0.0301554 0.472721 -0.334005 -0.0574793 -0.00248838 -0.365353 0.30782 -0.224892 -0.0480168 0.281253 0.243415 0.52561 -0.31278 1.00166 0.257046 0.470235 0.386631 0.144773 -0.0790074 -0.625167 -0.516978 0.281144 0.145283
9833 0.428453 0.327369 0.462085 -0.216614 0.273742 -0.462127 -0.0972943 -0.663813 -0.760415 -0.236622 0.598241 -0.780033 -0.29581 0.0511712 -0.396395 0.36606 -0.328992 0.00901902 0.506509 0.156357 0.93568 -0.516883 1.32357 0.41195 0.580926 0.527664 0.45265 -0.0228236 -0.959482 -0.838454 0.361812 0.166761
77 0.251945 0.277151 0.410709 -0.109738 0.256547 -0.37277 0.0305025 -0.416512 -0.629955 -0.358934 0.470159 -0.732401 -0.320297 0.0468206 -0.375396 0.19821 -0.297874 0.0528564 0.429932 0.0410117 0.907018 -0.473865 0.974985 0.412985 0.479272 0.400411 0.526107 -0.036417 -0.755749 -0.715698 0.288634 0.214747
2314 0.1288 0.0501345 0.146489 -0.318585 -0.206983 0.436961 -0.266602 0.317719 -0.198806 -0.0337364 0.250918 0.0864903 0.3192 -0.42213 -0.887328 0.0594605 -0.0428155 -0.114071 0.131463 0.338332 0.425101 -0.210263 0.950329 0.576323 0.621435 -0.370377 0.117415 -0.0565087 0.319941 -0.293182 0.077075 0.58415
2313 0.0990333 0.0560112 0.0748537 -0.411732 -0.170181 0.592197 -0.282526 0.56222 -0.295858 -0.0632018 0.094181 0.0259293 0.363667 -0.515435 -0.933939 0.137168 -0.0356133 -0.167157 0.174985 0.298014 0.410175 -0.296358 1.05018 0.688166 0.569872 -0.477163 0.118866 -0.151334 0.390755 -0.327174 0.0509872 0.663468
9183 0.126348 0.15096 0.0984809 -0.582081 -0.224545 0.734899 -0.374849 0.723845 -0.389442 -0.161666 0.100944 -0.0991012 0.489298 -0.556544 -1.00474 0.190701 0.0740204 -0.148192 0.246649 0.410089 0.438707 -0.357321 1.27509 0.844675 0.573964 -0.613825 0.0589519 -0.229942 0.402324 -0.242628 0.0652578 0.757484
5769 0.291963 0.261377 0.162731 -0.936395 -0.453045 0.930857 -0.502554 0.814611 -0.45201 -0.438473 0.460068 -0.391844 0.860727 -0.291268 -1.27528 0.3486 0.133651 0.0729686 0.430056 0.910603 0.567564 -0.488549 1.61926 1.22575 0.56264 -0.906411 -0.0662256 -0.435693 0.357565 0.1442 0.0352458 1.00207
3245 0.288823 0.03291 -0.077987 -0.651762 -0.264468 0.800201 -0.433223 0.648227 -0.350307 -0.0016173 0.205842 -0.091536 0.417912 -0.239817 -1.0624 0.182703 0.0397887 0.0203349 0.245323 0.401305 0.574782 -0.480943 1.23964 0.73073 0.41264 -0.573699 -0.0196268 -0.10082 0.501217 -0.00362678 0.102008 0.66332
3244 0.549588 -0.178366 -0.332923 -0.787946 -0.329725 1.08116 -0.59071 0.983629 -0.354495 0.553176 0.15891 0.0400239 0.273852 -0.528779 -1.54073 0.112427 0.154229 -0.0489109 0.360554 0.245821 0.95386 -0.812183 1.78308 0.706831 0.625766 -0.700993 0.0180308 0.284057 0.990556 -0.303767 0.262921 0.795394
9416 0.378696 -0.0888291 -0.189207 -0.451725 -0.205168 0.593365 -0.374746 0.441336 -0.264663 0.270637 0.177942 0.200845 0.0639644 -0.271398 -0.947019 0.13327 -0.0385137 -0.00819092 0.12757 0.0657738 0.655241 -0.493694 1.16453 0.454466 0.40032 -0.381686 0.080783 0.127045 0.603105 -0.154496 0.170185 0.506975
3430 0.552068 -0.183758 -0.293455 -0.636993 -0.218418 0.899052 -0.560627 0.557551 -0.395997 0.348189 0.200061 0.321902 0.0542312 -0.318539 -1.33431 0.185792 -0.146764 0.0612854 0.138968 0.0848855 0.938033 -0.675995 1.65205 0.634085 0.492424 -0.554782 0.0394908 0.142588 0.864951 -0.0852273 0.22226 0.73852
9377 0.519246 -0.16228 -0.261046 -0.518428 -0.172989 0.667796 -0.555074 0.351656 -0.339964 0.319599 0.26393 0.330976 -0.0426675 -0.212141 -1.1514 0.135302 -0.195872 0.0531207 0.0748712 0.021524 0.900689 -0.503822 1.4879 0.549271 0.487124 -0.42014 0.0582761 0.102075 0.74885 -0.0929873 0.239889 0.601331
1715 0.0632637 0.0236054 0.532594 -0.627018 0.466202 -0.981996 -0.197043 0.19634 -1.02846 -0.081902 0.267624 0.567148 -0.284271 -0.144803 -0.918066 -0.422677 0.114391 0.791757 0.552887 0.202439 0.690698 -0.502717 0.443344 0.215187 1.18103 0.317393 0.258512 -0.569151 -0.473937 -1.16034 0.599062 0.763676
5417 0.161901 -0.0729633 0.605278 -0.639317 0.520547 -1.05533 -0.187034 0.238844 -1.08305 -0.0786109 0.308986 0.658837 -0.210034 -0.169636 -0.987944 -0.511497 0.0484795 0.850716 0.533912 0.117419 0.833026 -0.532597 0.559919 0.266536 1.15506 0.24087 0.213398 -0.577442 -0.491587 -1.2908 0.639114 0.834578
10792 0.0471831 -0.018034 0.37842 -0.4325 0.327286 -0.647144 -0.100756 0.134016 -0.666461 -0.0601896 0.215278 0.393197 -0.139964 -0.0592364 -0.629499 -0.270283 0.0404937 0.514408 0.331574 0.101484 0.472755 -0.344763 0.3568 0.158328 0.731495 0.17793 0.13618 -0.354307 -0.30781 -0.828633 0.380779 0.536268
5416 0.118129 -0.0800755 0.349838 -0.363606 0.2934 -0.621625 -0.106221 0.106678 -0.624603 -0.0554722 0.144286 0.401078 -0.121064 -0.0762554 -0.605539 -0.302789 0.0259039 0.516021 0.30003 0.0815653 0.51561 -0.353433 0.378492 0.173222 0.728492 0.143737 0.138353 -0.335225 -0.249705 -0.781989 0.377269 0.522684
12422 0.150185 -0.00399886 0.141459 -0.0775056 -0.16157 -0.126432 -0.522012 -0.359247 0.0631413 -0.0477785 0.578258 0.0159286 -0.186645 0.291672 -0.871476 0.0557037 -0.0902187 -0.0440445 0.22191 0.407658 0.740365 -0.0334697 0.385652 0.374759 0.613045 0.230786 0.0854585 0.0953819 -0.145552 -0.291217 0.187043 0.609029
10062 0.176287 -0.154084 0.224539 -0.186644 -0.354091 -0.135763 -0.834276 -0.640827 0.136992 0.00579387 0.732627 0.0509889 -0.447844 0.687573 -0.895445 0.0537071 -0.105305 0.0110273 0.526079 0.454776 0.979412 0.152059 0.113162 0.629805 0.672993 0.383623 -0.0187981 0.317239 -0.320657 -0.152623 0.0754862 0.700957
5380 0.134639 -0.215133 0.302489 -0.261982 -0.430386 -0.121066 -1.02156 -0.778454 0.202506 0.019817 0.886371 0.0208575 -0.640815 0.965618 -1.04256 0.0274303 -0.165241 0.0824497 0.714496 0.616529 1.21813 0.286006 0.0785198 0.864809 0.808794 0.505769 -0.0150584 0.445441 -0.443209 -0.163867 0.115528 0.914185
8180 0.173363 0.297925 -0.387517 0.410646 -0.28492 -0.140757 -0.426498 -0.578012 0.23489 0.0918281 0.160577 0.388145 0.111492 0.0687933 -0.762476 -0.0464088 0.497027 -0.139969 0.9816 0.1203 0.492906 -0.567835 0.743525 0.303107 0.564778 -0.220563 -0.349186 -0.585515 0.469349 -0.855865 0.50168 0.309005
8468 0.216428 0.350088 -0.43247 0.462127 -0.297999 -0.0947221 -0.408116 -0.622414 0.315526 0.075259 0.190039 0.3588 0.176633 0.161519 -0.792382 0.0654285 0.549364 -0.162596 1.04546 0.146199 0.479942 -0.601156 0.750681 0.338966 0.534271 -0.189143 -0.420701 -0.605083 0.422343 -0.895573 0.515311 0.36552
3341 0.164972 0.343915 -0.424862 0.518172 -0.272505 -0.046192 -0.470768 -0.582068 0.333895 0.0814722 0.262137 0.334536 0.217714 0.177792 -0.871889 0.127636 0.571119 -0.144555 1.05716 0.142959 0.467913 -0.564818 0.82363 0.340605 0.487528 -0.168737 -0.434824 -0.587316 0.395369 -0.924657 0.530469 0.390908
4334 0.277737 0.513124 -0.544545 0.758047 -0.270771 -0.0577616 -0.542514 -0.783145 0.543588 0.107502 0.465646 0.411191 0.366612 0.313416 -1.1201 0.301359 0.766583 -0.187396 1.33494 0.219321 0.577901 -0.700331 1.00017 0.473957 0.720183 -0.172509 -0.631152 -0.679434 0.428175 -1.18176 0.706796 0.413185
704 -0.00506755 0.320726 -0.363863 0.856172 -0.248975 0.0909255 -0.380629 -0.359873 0.434144 0.0623651 0.492566 0.302908 0.50044 0.152493 -1.17231 0.361166 0.644444 -0.218209 1.2821 0.194423 0.550315 -0.48501 0.972799 0.409374 0.528826 -0.0930722 -0.619392 -0.600097 0.459583 -0.898851 0.814865 0.393933
11142 0.0896698 0.301357 -0.264238 0.624015 -0.193422 -0.0192246 -0.342821 -0.348937 0.295526 0.0136738 0.488818 0.198699 0.438 0.162625 -0.963399 0.274935 0.466277 -0.181958 0.936698 0.194776 0.515509 -0.365015 0.814816 0.29127 0.456238 -0.0454463 -0.406892 -0.451312 0.273145 -0.746368 0.600016 0.406148
5015 0.20286 0.42631 -0.487364 0.594837 -0.0737415 -0.0915928 -0.351345 -0.617602 0.440261 0.0607988 0.485047 0.371908 0.320072 0.295846 -0.83417 0.415453 0.605353 -0.132523 0.922962 0.219742 0.460219 -0.517411 0.816109 0.421738 0.639967 -0.136901 -0.533349 -0.434573 0.390503 -0.931929 0.657092 0.281972
9949 0.197263 0.358388 -0.506527 0.541093 0.0879786 -0.101746 -0.252935 -0.564341 0.373363 0.0238743 0.45373 0.358924 0.160943 0.348018 -0.629455 0.475915 0.4642 -0.0859897 0.59354 0.263773 0.485056 -0.397287 0.701646 0.315323 0.683875 -0.0500582 -0.439534 -0.219961 0.3408 -0.840671 0.674168 0.17851
8737 -0.136269 0.642747 0.349116 0.526501 0.0375224 -0.0415963 -0.400605 -0.239407 0.0965311 0.330173 0.265222 -0.232524 0.313804 -0.362858 -0.577742 0.487139 0.0783253 -0.0664285 0.392568 -0.0599713 0.56465 -0.940292 0.949414 -0.00566679 1.03063 -0.444194 0.507752 -0.0701514 0.101594 -0.31035 0.513087 0.485456
1746 -0.14339 0.942313 0.504174 0.760084 0.074588 -0.0867394 -0.629192 -0.388078 0.107055 0.446747 0.468975 -0.312093 0.489367 -0.533911 -0.829994 0.699851 0.0992078 -0.144849 0.561812 -0.0669099 0.844783 -1.29855 1.4008 0.00174295 1.47173 -0.716265 0.760721 -0.0888198 0.133372 -0.473936 0.731288 0.650673
9273 -0.0740583 0.574295 0.295591 0.430637 0.0417068 -0.063733 -0.366644 -0.212218 0.0633832 0.287865 0.267316 -0.205506 0.301351 -0.298307 -0.502555 0.403413 0.0557081 -0.0638225 0.32766 -0.0339993 0.478759 -0.758072 0.775797 0.00621559 0.868505 -0.381622 0.439542 -0.0603773 0.0820072 -0.268659 0.389341 0.407867
1745 -0.00653639 1.03723 0.35874 0.797495 0.0955913 -0.103136 -0.570081 -0.48257 0.0472657 0.476859 0.492864 -0.378949 0.639247 -0.481925 -0.793971 0.695664 0.0208228 -0.211051 0.478774 -0.144324 0.934176 -1.24776 1.34156 -0.0573295 1.37036 -0.869775 0.851855 -0.103171 0.280577 -0.476155 0.689152 0.720789
6892 0.00481477 0.88507 0.362021 0.582733 0.178792 -0.279225 -0.644632 -0.426671 -0.126127 0.499195 0.495576 -0.34546 0.611955 -0.468272 -0.748656 0.574634 0.0260087 -0.173477 0.410556 -0.0156108 0.85393 -0.973874 1.22917 -0.072934 1.07056 -0.741478 0.673864 -0.0490161 0.192956 -0.229106 0.603161 0.448248
6891 0.00837347 0.694627 0.272713 0.460059 0.130818 -0.233423 -0.516081 -0.304104 -0.0860618 0.357605 0.358763 -0.279167 0.44076 -0.326695 -0.536505 0.430348 0.0478023 -0.123523 0.339817 -0.0332054 0.632097 -0.748521 0.934388 -0.0680899 0.807929 -0.56895 0.542247 -0.050421 0.127488 -0.192117 0.419648 0.35466
4720 0.241595 -0.579619 0.0830716 -0.222176 -0.318994 -0.40329 -0.423211 -0.00842817 0.0276354 -0.0595849 0.587823 0.0905752 0.0895755 0.192771 -0.85773 -0.247329 0.0540244 0.0342589 -0.311872 0.414095 0.27941 -0.451836 0.4026 0.491732 0.159569 -0.0104596 0.303983 -0.269889 0.385537 -0.450304 -0.152199 0.702409
8975 0.506313 -0.660878 0.026271 -0.35855 -0.503638 -0.470194 -0.592939 0.126339 -0.037273 -0.097237 0.744127 0.204993 -0.0118696 0.241843 -1.21549 -0.470329 0.136954 0.0214515 -0.43755 0.456371 0.273436 -0.718058 0.418773 0.765662 -0.136695 0.119806 0.511267 -0.216567 0.67039 -0.496742 -0.143218 0.805474
1545 0.455237 -0.55255 0.0269889 -0.350567 -0.429979 -0.343398 -0.593686 0.105567 -0.0870315 -0.104635 0.752372 0.174558 -0.0631532 0.196467 -1.16935 -0.463216 0.115211 0.0652105 -0.462296 0.381383 0.295262 -0.680646 0.391631 0.76589 -0.139591 0.140583 0.524669 -0.194055 0.619736 -0.395965 -0.105486 0.757972
1546 0.365674 -0.511096 0.0996683 -0.360373 -0.490383 -0.107248 -0.600707 0.166757 -0.169242 -0.181557 0.760426 0.154481 -0.124948 0.213717 -1.10139 -0.439766 0.222735 0.113673 -0.460886 0.218911 0.364691 -0.664522 0.425744 0.71496 -0.106431 0.21523 0.536285 -0.183841 0.587823 -0.291628 -0.015097 0.752363
11089 0.48323 -0.556158 0.0421229 -0.373854 -0.523502 -0.358188 -0.621639 0.137803 -0.0803635 -0.113014 0.746193 0.184457 -0.0744397 0.213021 -1.20721 -0.456771 0.135089 0.0326549 -0.473674 0.392648 0.292985 -0.701234 0.381853 0.773045 -0.12706 0.178613 0.547331 -0.193074 0.646419 -0.408333 -0.0757238 0.793304
4721 0.0953137 -0.62748 0.172786 -0.108191 -0.114491 -0.50113 -0.393782 -0.290887 0.119095 -0.00691229 0.686452 -0.0295924 0.169037 0.110579 -0.705614 -0.00210105 0.0646891 0.0357893 -0.177235 0.507596 0.387761 -0.231103 0.583238 0.307516 0.560482 -0.223089 0.0671356 -0.445294 0.18142 -0.685146 -0.167306 0.788391
2076 -0.032101 -0.798782 0.173659 -0.0705553 -0.0343918 -0.552684 -0.478956 -0.482705 0.141915 0.085771 0.792857 -0.0873772 0.249733 0.0669062 -0.472402 0.145113 0.0541544 0.0579119 -0.148229 0.5932 0.412671 -0.0877232 0.679599 0.167849 0.916222 -0.47003 -0.128724 -0.585606 0.00753305 -0.876978 -0.195987 0.861762
13161 -0.400705 -0.0806362 0.36877 0.167232 -0.0911858 0.268953 -0.209508 -0.243455 -0.187175 0.096068 0.666725 -0.585624 -0.0228845 0.405461 -0.545573 0.133586 -0.30983 0.0778153 0.279589 0.308294 0.306562 0.303849 0.664213 -0.0396501 0.694385 0.265703 0.324684 0.158984 0.49269 -0.791244 0.065464 0.722446
3698 -0.531404 -0.0989942 0.497399 0.27072 -0.150098 0.315083 -0.297517 -0.322304 -0.232572 0.112425 0.806779 -0.763771 -0.0536166 0.535591 -0.589566 0.171629 -0.339471 0.122016 0.365513 0.379953 0.332693 0.426094 0.836477 -0.0716075 0.832674 0.31421 0.419066 0.244297 0.609583 -0.981475 0.0544511 0.926847
413 -0.594064 -0.0836096 0.523817 0.25492 -0.114367 0.284447 -0.316133 -0.34503 -0.253666 0.181815 0.847458 -0.839977 0.00826688 0.577101 -0.541498 0.179877 -0.350695 0.205755 0.341913 0.345518 0.250416 0.507212 0.812225 -0.108948 0.822001 0.317852 0.443891 0.205144 0.642193 -1.00396 0.0466861 0.954078
412 -0.53128 -0.117378 0.516329 0.293684 -0.0727745 0.174108 -0.377123 -0.438343 -0.301704 0.0967818 0.801585 -0.790838 -0.0582881 0.601245 -0.475449 0.144025 -0.207646 0.312456 0.297031 0.381612 0.221648 0.500081 0.83031 -0.0256209 0.743537 0.319566 0.396416 0.229728 0.565439 -0.909832 0.121046 0.893577
6522 -0.449163 -0.0974293 0.64883 0.486125 -0.0697358 -0.0996952 -0.644686 -0.652745 -0.365625 -0.107796 0.760149 -0.898913 -0.208715 0.66227 -0.522409 0.13216 0.101118 0.638675 0.227385 0.433961 0.242368 0.466077 0.845736 0.215413 0.760316 0.298421 0.379931 0.338312 0.432452 -0.852623 0.313079 0.86476
6929 -0.311279 -0.0584656 0.581089 0.551028 -0.0604595 -0.255445 -0.688641 -0.643294 -0.31734 -0.187195 0.633533 -0.757128 -0.280115 0.60306 -0.545387 0.0711099 0.293722 0.651842 0.123275 0.42059 0.191039 0.32381 0.755606 0.298625 0.620041 0.296997 0.364828 0.324502 0.271579 -0.759938 0.395013 0.808579
7588 -0.0314789 -0.0162875 0.169964 -0.314743 -0.398175 -0.248349 -0.0793027 0.0919168 -0.279841 -0.421167 0.851601 0.361978 0.09055 0.259459 -1.1071 -0.121333 -0.584872 0.102599 0.112167 0.306958 0.305998 -0.0914312 0.493715 0.609673 1.21394 -0.0592407 -0.376544 -0.108062 0.186585 -0.539769 0.0764969 0.271295
10780 0.039839 -0.0868579 0.0781185 -0.318884 -0.347161 -0.152092 0.01756 0.132857 -0.17365 -0.244511 0.715422 0.207897 0.115558 0.217218 -0.943574 -0.0469212 -0.489047 0.0041228 -0.00695192 0.291944 0.369629 -0.0700388 0.533904 0.468678 0.924933 -0.0830754 -0.0439663 -0.0204607 0.0729352 -0.546415 0.0286566 0.30634
9263 0.153133 -0.125327 -0.0829747 -0.339834 -0.286307 -0.112133 0.101751 0.188158 -0.119169 -0.115044 0.697178 0.0784508 0.140843 0.214136 -0.970805 0.0531987 -0.46801 -0.100593 -0.0867926 0.348591 0.617634 -0.0832482 0.691896 0.357226 0.853298 -0.087835 0.316669 0.0230694 0.0591175 -0.679935 0.0696993 0.432216
3604 0.152471 -0.206712 -0.0910279 -0.364857 -0.343317 -0.0565919 0.18378 0.302266 -0.0898117 -0.0603323 0.648243 -0.0201264 0.215484 0.206529 -0.885599 0.121376 -0.427885 -0.180819 -0.156791 0.339163 0.690635 -0.0580825 0.717985 0.375375 0.76928 -0.0737061 0.450041 0.0866192 0.043327 -0.754747 0.0719015 0.471651
7877 -0.0252287 0.0224604 0.173741 -0.256897 -0.3282 -0.233544 -0.117366 -0.000696444 -0.256582 -0.364313 0.762997 0.346797 0.0618769 0.215618 -0.983725 -0.101333 -0.497642 0.0725643 0.0942308 0.291275 0.295372 -0.0849849 0.428701 0.547451 1.1038 -0.0450158 -0.336493 -0.0772244 0.143872 -0.441455 0.0787933 0.278805
7631 0.12641 -0.0506064 0.036094 -0.181001 -0.430983 0.445646 0.565175 0.379451 0.0216086 0.209854 -0.460043 0.0558279 0.526752 -0.00438038 -1.13879 -0.398584 -0.00399607 -0.511834 0.241229 0.430607 1.03311 -0.298164 0.789156 0.303572 0.827256 -0.0546281 -0.0932488 0.263873 0.558481 -1.00377 0.0351964 0.464897
7630 0.0632106 -0.0691457 0.0177476 -0.0906144 -0.367433 0.407561 0.557464 0.384414 -0.0119466 0.236945 -0.42406 0.0850935 0.489204 0.0269408 -1.12024 -0.338335 -0.0135739 -0.456363 0.238331 0.354798 0.999967 -0.258483 0.794985 0.313634 0.794321 -0.0250984 -0.0737472 0.151887 0.469987 -0.893315 0.0498918 0.484542
3775 0.132626 -0.0715912 -0.00582342 -0.155831 -0.463025 0.448447 0.485095 0.314757 0.0538445 0.217638 -0.433882 0.0349652 0.506201 -0.00648212 -1.10135 -0.423829 0.0600646 -0.482292 0.170376 0.387367 1.01987 -0.336646 0.767318 0.298932 0.756455 -0.0529159 -0.14017 0.271874 0.593756 -0.921105 0.0562318 0.416614
5865 0.0915749 -0.085464 0.0181796 -0.013342 -0.2364 0.38282 0.594531 0.469348 -0.0990746 0.212096 -0.415317 0.107538 0.43014 0.102926 -1.13702 -0.271521 -0.108296 -0.418943 0.231317 0.369414 1.02727 -0.221407 0.848819 0.30249 0.846546 -0.0728427 -0.0451422 0.0647148 0.41659 -0.762712 0.0275932 0.498583
3855 0.43823 0.481093 -0.1929 0.315218 -0.0930433 -0.113981 -0.643543 0.0564685 0.339177 -0.134662 0.0629356 0.0445663 -0.279178 0.397894 -1.1736 0.150073 -0.116299 -0.169668 -0.298001 -0.0915875 0.615781 -0.0599209 0.153578 0.489444 0.253273 0.0758466 0.929213 0.168424 -0.0676393 -0.113933 0.241217 0.642809
2965 0.464115 0.496306 -0.127795 0.312994 0.131749 -0.12334 -0.573461 0.00273024 0.339652 -0.223522 0.15477 -0.00359313 -0.376303 0.294881 -1.13842 0.194495 -0.00398216 -0.17562 -0.137581 0.08761 0.563755 -0.152766 0.229508 0.535089 0.230174 0.0902524 1.02876 0.127907 -0.156688 -0.00409008 0.175459 0.812221
7250 0.469343 0.554987 -0.255688 0.217158 -0.458248 -0.122238 -0.814058 0.13365 0.506138 -0.0528522 -0.131578 0.0409665 -0.170547 0.614073 -1.57375 0.113466 -0.291732 -0.243882 -0.709902 -0.330688 0.78135 0.0789108 0.0894725 0.562269 0.366509 0.126348 1.06587 0.241388 -0.137002 -0.191118 0.511225 0.616997
8243 0.781621 0.540469 -0.232364 0.209365 -0.696352 -0.240837 -1.07768 0.0856962 0.428756 0.0433922 0.120183 0.314634 -0.132376 0.755087 -1.5187 0.091761 -0.41512 -0.152595 -0.662749 -0.406217 0.919676 0.14197 0.147166 0.588499 0.525073 0.051009 0.771549 0.0765636 0.0988447 -0.513351 0.471456 0.522006
8207 0.626582 0.416865 -0.135982 0.0759017 -0.618904 -0.236807 -0.969616 0.0150253 0.356925 0.0330116 0.135482 0.241946 -0.105167 0.710178 -1.30803 0.0782123 -0.379971 -0.114612 -0.524122 -0.30633 0.838332 0.137152 0.148748 0.487099 0.498126 0.0367597 0.582761 0.0529459 0.130326 -0.471987 0.404547 0.464443
8206 0.532247 0.349047 -0.142174 0.0449964 -0.441489 -0.188126 -0.746558 0.035451 0.252706 0.00911176 0.130531 0.192219 -0.0778817 0.531421 -1.06083 0.0331225 -0.314657 -0.103531 -0.386679 -0.228226 0.627067 0.0779 0.156946 0.366474 0.405822 0.0111164 0.443085 0.0424934 0.0762268 -0.390325 0.348396 0.360239
2383 0.697675 0.470263 0.466497 -0.164974 0.211927 0.678845 -0.690305 0.0286101 -0.0603264 -0.0102329 1.33892 0.116426 -0.128442 0.336506 -0.612689 0.294387 -0.0535818 -0.122258 -0.18285 0.694474 0.835949 -0.288453 0.374954 -0.107877 1.38604 0.504077 0.379651 -0.0454386 -0.0550819 0.531628 0.14875 0.481389
9633 0.856163 0.649708 0.454188 -0.182739 0.22669 0.779941 -0.66714 0.155236 -0.0156075 0.0529416 1.56497 0.0932888 -0.154234 0.468467 -0.759652 0.16287 -0.13066 -0.149764 -0.220588 0.730719 0.928585 -0.260754 0.431267 0.0997281 1.68812 0.455337 0.435959 -0.0110736 -0.0440467 0.588852 0.124628 0.605472
12678 0.455444 0.330142 0.259634 -0.0500755 0.124131 0.373769 -0.413278 0.0449291 -0.0134733 0.0120549 0.871267 0.0518782 -0.0693265 0.220086 -0.494764 0.103319 -0.0927455 -0.0733204 -0.11347 0.402006 0.53442 -0.196444 0.296625 0.0693146 0.936915 0.249478 0.252095 0.00448533 -0.00594628 0.246913 0.0891945 0.351567
13158 0.59838 0.407506 0.350308 -0.127156 0.133783 0.512895 -0.572012 -0.0260008 -0.0361151 -0.0461222 1.15777 0.0414945 -0.0994909 0.316603 -0.516051 0.188602 -0.0221411 -0.0658735 -0.0826114 0.620469 0.652489 -0.27104 0.34346 -0.0344516 1.16349 0.393916 0.319846 -0.0605199 0.000519307 0.438493 0.0904866 0.380618
2384 0.663303 0.365258 0.37658 -0.146672 0.172403 0.674402 -0.57868 -0.0304392 -0.0719304 -0.0243904 1.37965 0.0264416 -0.161582 0.337903 -0.634088 0.31911 0.0264542 -0.103274 -0.0441718 0.702005 0.815004 -0.349009 0.31036 -0.177853 1.43713 0.571837 0.410584 -0.0609541 -0.0305111 0.569949 0.137431 0.443852
11538 0.181632 0.125148 0.0480699 -0.212738 0.0730497 -0.11129 -0.312063 -0.20831 0.00377935 -0.170779 0.515203 0.0535211 0.0825611 -0.0654463 -0.781685 0.0425446 -0.0241344 -0.00810178 -0.0796594 0.37729 0.613676 -0.21818 0.685602 0.270927 0.591317 0.305441 0.200289 -0.257455 0.0351004 -0.499434 0.575333 0.465847
5304 0.066537 -0.0447168 -0.0503972 -0.295418 0.0945737 0.0652787 -0.180099 -0.10249 0.141282 -0.213218 0.386218 0.145772 0.043424 -0.184549 -0.601127 0.0432037 0.00828179 0.0978361 -0.177029 0.325111 0.566427 -0.200869 0.784322 0.2947 0.511112 0.375113 0.201232 -0.483983 0.160602 -0.482375 0.759645 0.295852
2528 0.0888903 -0.0468966 -0.0482956 -0.391644 0.172005 0.032593 -0.229527 -0.0787534 0.129554 -0.258892 0.398095 0.162435 0.0595103 -0.220385 -0.54144 0.0207562 0.0276408 0.0893854 -0.204364 0.314336 0.543939 -0.215656 0.695528 0.287498 0.440762 0.450827 0.19844 -0.534801 0.140174 -0.46941 0.888693 0.288939
11796 0.0149782 -0.12355 -0.167221 -0.325362 0.0698456 0.12589 -0.200492 -0.185213 0.252519 -0.201773 0.456352 0.266194 -0.0797136 -0.238517 -0.467867 -0.0500787 0.06672 0.0920874 -0.306452 0.205814 0.489678 -0.244017 0.937386 0.310616 0.627334 0.491822 0.219849 -0.665311 0.298033 -0.428162 0.893347 0.206174
10087 0.0870177 -0.0273657 -0.137033 -0.238266 0.0138947 0.06521 -0.284648 -0.236303 0.181651 -0.184074 0.560383 0.203974 -0.0471277 -0.18578 -0.554382 -0.026735 0.0450936 0.0547749 -0.245677 0.233959 0.558668 -0.206009 0.895915 0.298796 0.607264 0.402158 0.198568 -0.538875 0.236079 -0.394272 0.733512 0.281171
6133 0.132724 0.00833613 -0.0350604 -0.249878 0.0723533 -0.026544 -0.245504 -0.17931 0.109035 -0.180026 0.50308 0.123595 0.0195676 -0.153845 -0.71 0.0386301 0.00601791 0.0242506 -0.110327 0.342382 0.627764 -0.197839 0.789266 0.289997 0.581872 0.360213 0.19272 -0.385914 0.134275 -0.493917 0.645973 0.419341
1172 -0.432238 -0.426149 -0.629322 -0.056161 -0.387983 -0.299552 -0.445466 0.217977 0.808304 0.0534918 0.295822 0.182965 -0.224194 0.0572476 -1.30696 -0.914034 0.445134 0.0438705 0.0165481 0.793182 0.326901 -0.153378 0.987756 0.0647944 0.264467 0.315361 0.324904 -0.286979 0.00658887 -0.952486 -0.107503 1.12098
8588 -0.25519 -0.265106 -0.360189 -0.0407194 -0.227943 -0.191675 -0.294927 0.118683 0.484479 0.00493988 0.21247 0.104843 -0.118319 0.0350833 -0.946022 -0.595994 0.249234 0.0164392 -0.000393466 0.512813 0.298112 -0.111743 0.697807 0.0605742 0.237174 0.194607 0.227626 -0.173195 0.0233625 -0.63836 -0.0454237 0.756281
1173 -0.260542 -0.246527 -0.371218 0.00174149 -0.222342 -0.208575 -0.276115 0.133239 0.493573 0.0176778 0.214242 0.116771 -0.141742 0.0371247 -0.899276 -0.56009 0.241322 0.0262281 -0.0113188 0.477956 0.265494 -0.0839799 0.666678 0.0480506 0.219631 0.201328 0.209456 -0.186954 0.0379873 -0.618699 -0.0486398 0.728133
55 -0.41128 -0.457789 -0.682984 -0.0894314 -0.403508 -0.296625 -0.501613 0.247503 0.850008 0.0386031 0.324794 0.182499 -0.275591 0.122291 -1.29091 -0.944159 0.429803 0.0686931 -0.0269146 0.790014 0.273853 -0.114397 1.04582 0.014778 0.231906 0.284447 0.331394 -0.280553 5.10435e-05 -0.901602 -0.201473 1.06613
2735 0.030127 -0.145021 -0.260542 0.0896868 0.298728 -0.00293482 0.0668168 0.243909 -0.0544253 0.232593 0.512366 -0.142964 -0.319112 0.0623515 -0.857335 -0.0410407 -0.413298 -0.293691 0.048191 -0.0206403 0.416239 -0.451598 0.576334 0.400831 0.525243 0.106747 0.413893 -0.088093 0.157306 -0.561922 0.029731 0.830607
3292 -0.014982 -0.231956 -0.437727 0.0874621 0.424568 0.016377 0.110696 0.430918 -0.113506 0.347001 0.578592 -0.268055 -0.543309 0.0582728 -0.952385 -0.0352106 -0.616143 -0.449261 0.0610548 -0.169197 0.418038 -0.585875 0.625533 0.57315 0.627533 0.0614309 0.540695 -0.106804 0.268857 -0.71992 -0.0277159 0.95543
2736 0.0591376 -0.133575 -0.335005 0.111607 0.358222 0.0582754 0.122056 0.277575 -0.0103297 0.28739 0.584188 -0.187348 -0.366898 0.0741099 -0.899374 -0.057734 -0.466027 -0.349323 0.112349 -0.0666612 0.422326 -0.543787 0.649661 0.430786 0.519535 0.102616 0.492892 -0.109284 0.146352 -0.599173 0.013935 0.971483
3631 0.237006 0.108708 -0.154033 0.0939769 0.284844 0.220042 0.0955186 -0.121713 0.375669 0.139317 0.620397 -0.0369412 0.027933 0.0085061 -0.773805 0.00716687 -0.118693 -0.144791 0.124403 0.20983 0.591789 -0.417337 0.694867 0.00365775 0.153083 0.228379 0.351509 -0.0809128 -0.0886826 -0.288501 0.0569157 1.04248
4752 0.392891 0.166287 -0.024811 0.123414 0.342348 0.363124 0.209728 -0.275442 0.583255 0.0576965 0.614771 0.152537 0.223211 0.0280306 -0.732075 -0.0163166 0.0265939 -0.0890885 0.151497 0.309078 0.647545 -0.385029 0.789755 -0.1519 -0.0890448 0.247205 0.302472 -0.0394007 -0.159258 -0.169445 0.0542814 1.15744
1462 0.0927145 0.170449 -0.156429 0.0486758 0.128576 0.148838 -0.016844 -0.181185 0.3271 0.100617 0.487335 -0.102847 0.0237566 -0.0379855 -0.744425 0.185107 -0.00848013 -0.0027695 0.163748 0.283186 0.623038 -0.397727 0.642807 -0.010559 0.307376 0.243054 0.193103 -0.122094 -0.12858 -0.286846 0.189765 0.931879
1461 -0.0336658 0.231838 -0.305801 0.0647091 0.191734 0.308072 0.110667 -0.191013 0.603339 0.238484 0.474452 -0.222205 -0.0283915 -0.137278 -0.727047 0.325692 0.0774334 0.0800521 0.293923 0.300134 0.747364 -0.556613 0.733475 -0.164504 0.189747 0.318508 0.215025 -0.243237 -0.247117 -0.263664 0.244522 1.21253
7818 -0.097358 0.102334 -0.111508 0.079997 0.202127 0.519987 0.176007 -0.0959663 0.637219 0.201207 0.469272 -0.083247 -0.0209086 -0.0822839 -0.725462 0.276382 0.161445 -0.0700763 0.235972 0.205244 0.740752 -0.490918 0.789592 -0.203957 0.0730209 0.227555 0.381648 -0.125323 -0.312901 -0.237675 0.184098 1.27264
5469 -0.395173 -0.0555256 0.145902 0.0683749 0.0535105 0.558323 -0.0586662 0.0436816 0.575832 0.159897 0.391407 -0.0930604 -0.172933 -0.0568442 -0.659224 0.338656 0.300614 -0.303474 0.175499 0.0817947 0.684239 -0.331984 0.808055 -0.117886 0.281264 -0.0215735 0.509361 0.0102757 -0.41207 -0.428715 0.272994 1.07677
7288 0.223654 0.118951 0.0384035 -0.0632 0.0712191 -0.119829 -0.116918 -0.255037 0.0562044 -0.278793 0.534576 0.0482169 -0.0759187 -0.128078 -1.13722 0.0775892 -0.0394323 -0.0641589 -0.0825036 0.295051 0.658538 -0.238149 0.764387 0.374687 0.760034 0.12874 0.168434 -0.183364 -0.0971014 -0.497405 0.19725 0.629687
7144 0.270435 0.101022 -0.0191873 -0.0851529 0.1558 -0.0826534 0.0992741 -0.265631 0.121207 -0.450467 0.538005 0.0612909 -0.218713 -0.299395 -1.22806 0.103528 -0.00590226 -0.0340626 -0.212933 0.127746 0.594072 -0.254591 0.746345 0.505755 0.73267 0.0446429 0.0953834 -0.226127 -0.211162 -0.463459 0.0407358 0.583502
10470 0.420364 0.00581757 -0.0666584 -0.0603697 0.181021 -0.0578499 0.432475 -0.341381 0.0777545 -0.692171 0.642111 -0.0765136 -0.291459 -0.535088 -1.38152 0.157794 0.113005 -0.0647078 -0.394042 -0.132587 0.536552 -0.268352 0.721518 0.622074 0.767599 -0.135122 0.121508 -0.191292 -0.312507 -0.282594 -0.221499 0.471105
12926 0.337815 0.0336016 -0.0312068 -0.0322894 0.143393 -0.0710517 0.251937 -0.255587 0.0985654 -0.498264 0.492357 -0.0274837 -0.199011 -0.39388 -1.06052 0.114119 0.0596507 -0.0574629 -0.28284 -0.06154 0.386554 -0.214565 0.574442 0.484079 0.572329 -0.060227 0.109933 -0.129882 -0.228441 -0.251605 -0.104199 0.410767
4529 0.55222 -0.016571 -0.0937024 -0.160723 0.288199 -0.0149531 0.809826 -0.404463 0.104075 -1.03452 0.782363 -0.155746 -0.485572 -0.956395 -1.86384 0.227036 0.153069 -0.0590131 -0.736807 -0.307244 0.697618 -0.311213 1.01621 0.852355 0.987743 -0.154678 0.104289 -0.301706 -0.453695 -0.227435 -0.423118 0.533314
4530 0.738085 -0.102791 -0.175612 -0.27799 0.0193036 -0.196388 0.770448 -0.451575 -0.0461382 -1.00706 0.906885 -0.488917 -0.240755 -0.767903 -1.60898 -0.0293366 0.241574 0.00160137 -0.780635 -0.341807 0.773482 -0.130627 0.901358 0.716491 1.20712 -0.249289 0.263934 -0.242621 -0.321266 -0.0698614 -0.418331 0.526728
10663 0.370396 0.0100851 -0.0276582 -0.10589 0.00301353 -0.119091 0.229564 -0.273591 -0.0483551 -0.44604 0.488098 -0.187168 -0.0715824 -0.296349 -0.832747 0.0090905 0.0694149 -0.0383746 -0.33196 -0.0988025 0.393525 -0.0988165 0.475291 0.359005 0.591812 -0.0818971 0.170577 -0.12733 -0.13658 -0.0955525 -0.108294 0.27688
3539 -0.0889357 -0.63215 -0.0618575 -0.0575938 -0.354137 -0.074785 -0.198392 0.44493 -0.0850922 -0.269495 0.487372 -0.264192 0.526518 -0.322204 -0.956737 0.0792707 -0.0911961 -0.225097 0.262633 0.583042 0.561862 -0.0497012 0.484174 0.472705 0.352846 0.168727 -0.0317434 0.110766 -0.0571312 -0.732547 -0.041024 0.12356
3540 -0.1623 -1.07892 -0.104774 -0.110875 -0.61135 -0.130754 -0.399026 0.723931 -0.154124 -0.458679 0.805861 -0.416606 0.845624 -0.542552 -1.53339 0.0743088 -0.17169 -0.397608 0.417847 0.995205 0.862947 -0.102706 0.78749 0.766435 0.473625 0.293299 -0.0404899 0.21734 -0.104838 -1.22367 -0.0848863 0.149253
5509 -0.153656 -1.00607 -0.0908449 -0.0865657 -0.738624 -0.178394 -0.48577 0.616597 -0.0711611 -0.495306 0.868806 -0.347421 0.854932 -0.482287 -1.37697 0.0926885 -0.124541 -0.392805 0.427758 0.983808 0.821199 -0.0473324 0.641804 0.812981 0.428953 0.400761 -0.0353681 0.259506 -0.145095 -1.16551 -0.130164 0.124933
9697 -0.145219 -0.755643 -0.0784699 -0.0555852 -0.494519 -0.119041 -0.339197 0.501001 -0.0447725 -0.356894 0.699904 -0.284262 0.651946 -0.395129 -1.12974 0.071041 -0.109603 -0.258625 0.330104 0.724253 0.647254 -0.0344379 0.574983 0.598385 0.394202 0.281883 0.00342018 0.137884 -0.090647 -0.929646 -0.017119 0.12696
9914 -0.0516177 -0.484193 -0.0362824 -0.0490679 -0.318794 -0.0765443 -0.264056 0.283528 -0.0521096 -0.233906 0.54641 -0.192285 0.429976 -0.266124 -0.921144 0.0498704 -0.0856437 -0.183087 0.195423 0.556682 0.541712 -0.048768 0.506757 0.413412 0.409493 0.180438 0.021956 0.100091 -0.0526523 -0.692711 0.0321675 0.21489
6093 0.39052 0.250804 0.0858029 -0.0814867 -0.00657068 -0.110619 -0.453953 -0.264274 -0.0517458 -0.219496 0.636486 -0.0563753 0.1842 0.0467704 -1.0531 -0.0889151 -0.0244209 -0.154434 0.188926 0.451564 0.826358 -0.287592 0.878197 0.272461 0.68357 0.289123 0.265802 -0.154499 0.0152413 -0.431216 0.350705 0.596248
6092 0.31045 0.2225 0.0895435 -0.0434148 -0.0166663 -0.168539 -0.401249 -0.302959 -0.0200136 -0.16007 0.72632 -0.0266123 0.135297 0.0136665 -1.24921 0.0181163 -0.0481477 -0.153979 0.110129 0.483706 0.925572 -0.271806 0.951632 0.323608 0.886945 0.248268 0.301149 -0.0966101 -0.00928874 -0.621756 0.411526 0.764712
2070 0.254825 0.127992 0.080773 -0.0622426 -0.0446024 -0.134555 -0.331743 -0.283231 0.00893378 -0.148098 0.709929 0.0258411 0.0849978 0.00134846 -1.18991 0.072888 -0.0214976 -0.137287 0.0521484 0.451913 0.880335 -0.229424 0.908959 0.304615 0.862067 0.218805 0.265979 -0.058053 -0.00531295 -0.649256 0.425989 0.74525
2071 0.222987 0.0865618 0.112111 -0.118423 -0.0876692 -0.0814255 -0.269487 -0.297398 0.0418868 -0.156678 0.716801 0.0300635 0.104092 -0.0236109 -1.16148 0.0744578 0.0367735 -0.115451 0.00845816 0.410214 0.802283 -0.159732 0.89259 0.298999 0.814721 0.228712 0.274276 -0.0212965 -0.0349502 -0.67605 0.484684 0.718366
3952 -0.175189 0.329762 1.10374 -0.190943 0.042902 -0.803497 -0.781513 -1.17714 0.131622 -0.499649 0.602198 -0.555814 0.0771857 -0.351302 -0.573789 -0.31734 -0.0261697 -0.511757 -0.628025 0.530133 0.568148 -0.409892 0.822321 -0.413994 0.749367 0.158623 -0.157989 -0.294094 -0.412694 -0.93559 0.300906 1.06158
3953 -0.0839124 0.269246 0.755826 -0.14964 0.0504515 -0.568583 -0.553135 -0.814276 0.0800043 -0.380516 0.449489 -0.354646 0.0723302 -0.260809 -0.440732 -0.149822 -0.0467705 -0.342961 -0.3996 0.324711 0.435208 -0.260456 0.605229 -0.221815 0.540041 0.0934189 -0.0585268 -0.189502 -0.281617 -0.631556 0.205933 0.690018
4483 -0.135325 0.241296 0.913872 -0.0482476 -0.011884 -0.769317 -0.737508 -1.08889 0.10159 -0.45697 0.503649 -0.474482 -0.0127152 -0.258985 -0.441241 -0.267778 0.0189638 -0.504805 -0.691366 0.651926 0.485887 -0.472712 0.807187 -0.436553 0.603854 0.204356 -0.231543 -0.340017 -0.327794 -0.916336 0.299234 1.03909
4484 -0.0841357 0.119398 0.636238 -0.0645939 -0.00649839 -0.495783 -0.664697 -0.799109 0.0288938 -0.295558 0.597615 -0.386732 -0.0810177 -0.237593 -0.489971 -0.055147 -0.0571094 -0.381464 -0.381973 0.42087 0.379281 -0.377443 0.620562 -0.207732 0.508952 0.138685 -0.0886369 -0.191892 -0.195036 -0.633283 0.277741 0.739079
1077 0.112366 0.251506 0.853859 0.148197 -0.0824588 -0.643996 -0.654871 -1.03375 -0.00868254 -0.270252 0.48522 -0.505379 -0.0689364 -0.106617 -0.376263 -0.301374 0.150964 -0.434036 -0.554752 0.66311 0.560205 -0.272975 0.728586 -0.38707 0.67106 0.221606 -0.281821 -0.384417 -0.382777 -0.749509 0.406033 0.797224
1078 0.27823 0.191041 0.728026 0.254542 -0.0348202 -0.665557 -0.618227 -1.02998 -0.134022 -0.20633 0.47511 -0.502572 -0.132381 0.0209527 -0.340839 -0.221989 0.146395 -0.423988 -0.570983 0.654822 0.519175 -0.266339 0.734364 -0.437616 0.742672 0.198182 -0.318395 -0.37332 -0.370283 -0.636305 0.465315 0.69795
12627 0.221416 0.171855 0.431606 0.147051 -0.0394622 -0.382335 -0.432541 -0.645785 -0.0626205 -0.122671 0.385147 -0.289525 -0.0826911 0.00226975 -0.299089 -0.135437 0.100892 -0.267125 -0.305443 0.426622 0.403643 -0.212778 0.485597 -0.195544 0.497871 0.137772 -0.182603 -0.22205 -0.238223 -0.428476 0.32308 0.426578
1941 0.0344357 -0.264643 -0.0335471 0.30932 0.345819 -0.206646 -0.691841 0.00703121 -0.0430632 0.408104 0.838934 0.634474 -0.397608 -0.156662 -1.28931 -0.398018 -0.201006 -0.0800093 0.569946 0.631195 0.793031 -0.0729432 0.974142 0.251522 -0.0933232 -0.241955 -0.791253 0.617597 -0.176877 -0.778449 0.215266 0.593718
7924 0.0185389 -0.419 -0.0583583 0.242741 0.443503 -0.178358 -0.519278 0.0207825 0.00332936 0.44995 0.802625 0.482509 -0.443872 -0.0655087 -1.31784 -0.354304 -0.188922 -0.0944188 0.670905 0.593022 0.747379 -0.0650271 1.03477 0.272465 -0.0909818 -0.246697 -0.775668 0.723562 -0.166202 -0.816702 0.225933 0.569875
9498 -0.074277 -0.668116 -0.0622207 0.118989 0.542091 -0.104433 -0.179713 0.0764901 0.0824453 0.503041 0.692226 0.203528 -0.518738 0.0634828 -1.42863 -0.228581 -0.171424 -0.0834374 0.814524 0.540856 0.649269 -0.0711433 1.05749 0.269184 0.0337012 -0.14499 -0.714616 0.754332 -0.197046 -0.842217 0.274156 0.578072
2436 -0.0433159 -0.500116 -0.0550375 0.0270929 0.413152 -0.115573 -0.101887 0.0461338 0.0629949 0.416316 0.612306 0.0458421 -0.371468 0.0910215 -1.25088 -0.147984 -0.119599 -0.0933976 0.619862 0.485305 0.58027 -0.100866 0.882774 0.238212 0.134616 -0.0591565 -0.458643 0.563879 -0.159462 -0.631988 0.265342 0.540766
2435 0.0546384 -0.182181 -0.00267589 0.042906 0.212481 -0.10173 -0.169325 -0.0473717 0.0220915 0.18698 0.487247 0.0671646 -0.15854 0.0575867 -0.93689 -0.0625224 -0.0646291 -0.0712681 0.319203 0.373611 0.538529 -0.107497 0.686798 0.201032 0.273103 0.0217939 -0.185849 0.256481 -0.0834669 -0.480311 0.217383 0.440718
593 -0.0826501 -0.0680544 -0.144388 0.295629 -0.202667 0.357805 0.174512 0.534573 0.309807 -0.502016 0.0431148 -0.0460696 -0.420975 -0.00299397 -0.701874 0.387174 -0.23549 -0.211607 -0.228972 0.459189 0.595658 0.446753 0.955467 0.337469 0.521536 0.164023 0.484118 0.00500634 -0.194932 -0.533387 0.241782 0.552319
594 -0.0373133 -0.0292336 -0.179103 0.268894 -0.273587 0.392694 0.0367543 0.554401 0.221362 -0.63226 0.139763 -0.0960665 -0.509795 -0.134297 -0.623049 0.422603 -0.271928 -0.347561 -0.221138 0.41032 0.604046 0.434739 0.865413 0.404158 0.501347 0.201844 0.599098 -0.0819221 -0.276868 -0.538745 0.249066 0.625721
9569 -0.121296 -0.0966133 -0.241174 0.390359 -0.206941 0.312998 0.276167 0.5671 0.421266 -0.479223 0.0439009 -0.00484655 -0.421933 0.057603 -0.69181 0.413059 -0.239585 -0.0455588 -0.20828 0.607432 0.60732 0.548639 1.05173 0.328878 0.550544 0.160768 0.419311 0.0715887 -0.250149 -0.503994 0.294958 0.533932
9856 -0.036583 0.0336953 -0.210519 0.461113 -0.104397 0.181379 0.231329 0.306246 0.417433 -0.337978 0.0754993 0.128765 -0.311259 0.134357 -0.673536 0.384324 -0.331208 0.0777653 -0.132313 0.564739 0.475143 0.378129 0.892497 0.281827 0.531477 0.0808648 0.212034 0.227094 -0.263109 -0.365141 0.342727 0.467188
1257 0.0983405 0.188052 -0.278221 0.530216 -0.0422527 -0.116356 0.0874362 -0.068687 0.405296 -0.171776 0.355148 0.232222 -0.277458 0.0751276 -0.771397 0.39773 -0.388004 0.267224 -0.0794218 0.725463 0.318328 0.301948 0.740617 0.246925 0.557728 0.107968 0.135507 0.500068 -0.457827 -0.240839 0.50437 0.568548
3432 -0.167039 0.0195846 -0.104485 0.496516 -0.252264 0.28523 0.274693 0.329383 0.500522 -0.397112 0.00420453 0.233615 -0.259105 0.193177 -0.797889 0.443084 -0.437856 0.0770286 -0.216905 0.612573 0.594266 0.336196 0.937508 0.377602 0.677724 -0.00860984 0.142321 0.311284 -0.118198 -0.383442 0.281771 0.492943
3431 -0.193253 0.0414727 -0.0122866 0.380679 -0.205944 0.221835 0.169725 0.250538 0.419382 -0.311539 0.0223445 0.202174 -0.190763 0.182942 -0.764166 0.354396 -0.378514 0.0565497 -0.194369 0.520045 0.567074 0.147236 0.768105 0.331931 0.602524 0.00154276 0.132766 0.191347 -0.0325652 -0.367052 0.198831 0.431477
1230 -0.025615 0.589483 -0.212557 0.0908378 0.0685154 -0.11457 -0.773635 -0.286622 -0.36605 -0.275376 0.726631 -0.589712 -0.094187 0.372227 -0.773871 -0.527164 -0.0203042 -0.345393 -0.117166 0.72974 0.33646 -0.142986 1.01271 -0.11226 0.365761 0.190343 0.204018 0.766434 0.228816 -0.253246 0.410362 0.266839
1229 -0.0188294 0.659617 -0.220582 0.065022 0.0711953 -0.100553 -0.83673 -0.295709 -0.435258 -0.283101 0.781793 -0.686576 -0.141461 0.421869 -0.853587 -0.63348 -0.0119084 -0.336803 -0.14931 0.775285 0.358556 -0.176376 1.13828 -0.147132 0.353277 0.235301 0.214036 0.85518 0.248708 -0.239067 0.418867 0.269258
7463 -0.0512304 0.670029 -0.283337 0.0848718 0.0622175 -0.123104 -0.846209 -0.25946 -0.444447 -0.280478 0.792448 -0.680607 -0.134497 0.437012 -0.853829 -0.662078 -0.0203217 -0.410503 -0.14206 0.79603 0.354703 -0.159126 1.14925 -0.155995 0.378774 0.262527 0.230227 0.891216 0.270513 -0.229867 0.4442 0.27373
11533 -0.0493443 0.514288 -0.174428 0.0796658 0.0247248 -0.132515 -0.643746 -0.243667 -0.305447 -0.262039 0.668264 -0.49175 -0.119531 0.346397 -0.801217 -0.472861 -0.0368268 -0.345752 -0.121034 0.623014 0.324726 -0.144918 0.889198 -0.103458 0.366629 0.171082 0.183814 0.612543 0.202098 -0.287905 0.37265 0.302817
6381 -0.0179479 0.37836 -0.0406846 0.00773458 0.00350291 -0.160751 -0.543348 -0.269486 -0.229163 -0.189452 0.557419 -0.378049 -0.0776437 0.188475 -0.8944 -0.195356 -0.0277037 -0.228102 -0.104433 0.552169 0.460977 -0.131708 0.890262 0.0255487 0.467742 0.165773 0.1876 0.352297 0.115517 -0.365976 0.355681 0.419368
3852 -0.0764481 0.148409 0.0556987 -0.0954996 -0.095997 -0.175877 -0.260047 -0.209846 -0.091135 -0.0737689 0.3258 -0.207879 0.015331 0.00358054 -1.04151 0.145451 0.00236191 -0.0747924 -0.128391 0.439296 0.593168 -0.146004 0.800437 0.184467 0.466955 0.0934728 0.163236 0.0917663 0.000713352 -0.534203 0.322482 0.536559
3851 -0.13366 -0.0747326 0.0820036 -0.0124238 -0.197607 -0.210215 -0.0488313 -0.103543 0.028528 -0.0296439 0.235689 -0.0461314 0.0522423 -0.105235 -1.07501 0.265109 -0.0195446 0.0720402 -0.189503 0.26614 0.56187 -0.154851 0.72459 0.233243 0.457919 0.0350217 0.128459 -0.0300376 -0.147635 -0.597809 0.392823 0.509653
1290 0.0855465 0.192863 0.476601 -0.201492 -0.0795939 -0.109216 -0.426937 -0.269906 -0.204159 -0.407464 0.632359 -0.0625916 -0.235802 -0.271025 -0.66872 0.0498043 0.00237409 -0.126379 -0.0727199 0.277397 0.7126 0.107889 0.875311 -0.245708 0.629336 -0.0919353 0.194237 0.118822 0.134976 -0.136778 0.180565 0.822916
1289 0.13208 0.149427 0.222924 -0.0881956 -0.0392321 -0.138479 -0.317488 -0.21645 -0.104543 -0.224767 0.515583 -0.0293909 -0.0504001 -0.115663 -0.751336 0.0619852 -0.0529752 -0.100988 -0.0260371 0.29847 0.62748 -0.0510086 0.705607 0.000599629 0.618195 0.0587859 0.182212 -0.0115416 0.0576458 -0.333551 0.210207 0.653276
6506 -0.00106243 0.244676 0.731025 -0.323942 -0.0635317 -0.102687 -0.467739 -0.255573 -0.33571 -0.604933 0.715424 -0.109585 -0.451153 -0.46138 -0.632851 0.0255768 0.0445639 -0.140842 -0.154507 0.31674 0.857136 0.292006 1.05499 -0.548784 0.698139 -0.203631 0.182114 0.201086 0.195657 0.0102335 0.161811 1.07034
6755 0.0257524 0.270145 0.774527 -0.241723 -0.0945065 -0.133393 -0.519027 -0.308742 -0.372657 -0.589209 0.747786 -0.0779514 -0.450099 -0.622112 -0.665267 0.136317 0.120205 -0.00600085 -0.294686 0.20061 0.78509 0.31479 0.94552 -0.449218 0.773465 -0.222516 0.0955674 0.199302 0.0973461 0.0223291 0.217432 0.993504
5179 -0.132603 0.415225 0.870266 -0.128182 -0.0704482 -0.168596 -0.550345 -0.393646 -0.408444 -0.619601 0.746995 -0.0511233 -0.535784 -0.831403 -0.882108 0.280008 0.200158 0.0736137 -0.434416 0.152151 0.919084 0.353511 1.03629 -0.461978 0.970917 -0.169546 0.0515041 0.251303 0.0282141 0.0955986 0.281556 1.10626
11297 0.54558 0.216449 0.128507 0.144106 0.0387003 0.215124 -0.406605 -0.103441 -0.132414 -0.0848469 0.792506 -0.0507368 -0.0334112 0.184808 -0.597175 0.23131 -0.472702 -0.0401459 0.026211 0.265815 0.344664 0.286941 0.811276 0.118571 0.38569 -0.291254 0.402583 -0.339058 -0.453322 -0.600484 0.343686 0.429583
12544 0.587252 0.215905 0.109591 0.1666 0.037626 0.22961 -0.403938 -0.051586 -0.152627 -0.108504 0.799275 -0.0761546 -0.0325477 0.174982 -0.583348 0.267555 -0.507604 -0.0469278 0.0249497 0.297673 0.344275 0.298746 0.842204 0.0806553 0.387975 -0.319004 0.433506 -0.357444 -0.478129 -0.633494 0.367328 0.479122
2248 0.651061 0.264509 0.145105 0.241791 0.057516 0.283739 -0.504435 -0.104182 -0.147573 -0.13199 0.958587 -0.0326362 -0.0347874 0.214921 -0.61385 0.299728 -0.599613 -0.027883 0.024433 0.292939 0.345266 0.41366 0.95167 0.0901559 0.391541 -0.422022 0.479413 -0.440732 -0.614233 -0.695593 0.395949 0.503932
9756 0.73979 0.200851 0.081955 0.270917 0.0819222 0.393151 -0.466002 0.00741558 -0.127368 -0.119233 0.920581 -0.0630928 -0.0496746 0.210809 -0.613067 0.339468 -0.692357 -0.0979219 0.00837734 0.267844 0.323638 0.52498 1.01479 0.0903966 0.390298 -0.422673 0.582223 -0.508636 -0.638431 -0.75645 0.404662 0.557437
2249 0.689215 0.256744 0.128296 0.249844 0.049296 0.354926 -0.467907 -0.0263897 -0.162726 -0.113381 0.92646 -0.075745 -0.0382456 0.219564 -0.595577 0.320674 -0.634452 -0.0791704 -0.0011814 0.295682 0.306761 0.461461 0.951701 0.0591704 0.370713 -0.430228 0.522325 -0.476714 -0.641061 -0.747357 0.423794 0.51347
8408 0.423521 0.531326 0.0526422 0.132976 0.0542515 -0.136817 -0.954049 0.0681642 -0.0238865 0.0158519 0.805568 -0.404279 0.0604052 -0.286499 -0.860646 0.105425 -0.108338 -0.0753294 -0.335413 -0.161623 0.77511 -0.396433 0.225418 -0.12331 0.718322 0.620404 0.384853 -0.112743 -0.418225 -0.490964 0.218467 0.66714
13058 0.380184 0.467165 0.0530509 0.12203 0.0326916 -0.120624 -0.80322 0.010785 -0.0424658 -0.0386476 0.698073 -0.332999 0.024478 -0.252908 -0.835907 0.110269 -0.123095 -0.0540085 -0.262144 -0.105617 0.684528 -0.344273 0.248905 -0.10802 0.66364 0.521961 0.312393 -0.078763 -0.359244 -0.458092 0.192292 0.610906
2338 0.377708 0.492862 -0.0192902 0.185407 0.040573 -0.100926 -0.701652 0.0295545 -0.0611096 -0.0523023 0.592355 -0.394824 -0.00986664 -0.268072 -0.942868 0.177611 -0.210707 0.000763492 -0.313654 -0.262079 0.67943 -0.3955 0.235416 -0.189427 0.685705 0.647745 0.278837 -0.0696059 -0.442933 -0.365687 0.127983 0.677376
2337 0.41388 0.5702 -0.0506456 0.340693 0.0124358 -0.0343811 -0.756636 0.10902 -0.0231521 -0.0485503 0.537907 -0.516851 -0.0633973 -0.352584 -1.05413 0.240606 -0.3002 0.044026 -0.421166 -0.440393 0.745099 -0.479011 0.217538 -0.287338 0.771551 0.823518 0.335488 -0.0595377 -0.616727 -0.327114 0.106187 0.824139
6513 0.424862 0.668309 -0.225751 0.308102 0.0398746 -0.246758 -1.14188 0.162441 0.0279967 0.101719 0.905506 -0.583079 0.169557 -0.357516 -1.11279 0.0839363 -0.0451312 0.108565 -0.630066 -0.44894 0.795174 -0.562581 0.287183 -0.275849 0.702853 0.903205 0.63139 -0.238168 -0.706804 -0.60524 0.124397 0.83806
4525 0.41371 0.809395 -0.454082 0.258133 -0.0376352 -0.199569 -1.25168 0.149151 0.164861 0.149084 1.07377 -0.636401 0.441515 -0.159332 -0.985584 0.0142336 0.16256 0.157529 -0.791425 -0.310473 0.78353 -0.665047 0.380092 -0.157199 0.649424 0.906566 0.781928 -0.416035 -0.600518 -0.726245 0.211272 1.00932
4096 0.218188 0.465349 -0.334867 0.204361 -0.0117496 -0.18109 -0.850025 0.194891 0.0577646 0.18138 0.687035 -0.433266 0.323021 -0.145929 -0.893271 0.0359765 0.0740256 0.0910365 -0.572801 -0.253994 0.595432 -0.504582 0.423808 -0.212157 0.445704 0.694587 0.564098 -0.282695 -0.502427 -0.565689 0.172279 0.750155
2362 0.221085 0.578286 -0.41236 0.263623 -0.012533 -0.257926 -0.990207 0.27371 0.0477608 0.209551 0.748699 -0.528953 0.365474 -0.200928 -1.0869 0.000979665 0.0458107 0.172925 -0.688968 -0.309446 0.658155 -0.588753 0.531526 -0.295236 0.523928 0.828815 0.716247 -0.291241 -0.65731 -0.648342 0.129227 0.867076
4097 0.211341 0.463732 -0.341168 0.209103 -0.0283411 -0.208499 -0.785629 0.204427 0.0452605 0.215101 0.638391 -0.428434 0.330639 -0.1413 -0.898588 0.0581881 0.0613827 0.130031 -0.549025 -0.230469 0.582906 -0.48107 0.458574 -0.240807 0.457333 0.706516 0.604204 -0.279147 -0.501239 -0.530202 0.150377 0.771058
11721 0.119255 0.0169359 0.155378 0.0805189 0.144437 -0.054393 -0.368176 -0.257618 0.10579 -0.158617 0.178775 -0.143537 0.211733 -0.217511 -0.897439 0.180435 0.0435807 -0.111566 -0.101951 0.345892 0.722613 -0.0251486 0.668138 0.127192 0.552107 0.0876491 0.093036 0.0385903 0.133259 -0.54139 0.222686 0.549331
3183 0.0402748 -0.0416631 0.228638 0.115492 0.26468 0.0350285 -0.48154 -0.301203 0.200196 -0.197791 -0.0728116 -0.233672 0.382953 -0.473871 -0.875326 0.33016 0.176471 -0.124735 -0.205397 0.383752 0.795914 0.10644 0.747729 0.0472931 0.4898 0.0601349 -0.0170333 0.097409 0.223566 -0.634879 0.194728 0.529527
3057 0.120581 -0.124593 0.251237 0.152981 0.417326 0.111238 -0.685637 -0.405101 0.282394 -0.218239 -0.195079 -0.38496 0.515256 -0.709243 -0.953526 0.366766 0.30724 -0.178003 -0.324061 0.339899 0.883124 0.256556 0.865961 -0.0342303 0.470128 0.0149567 -0.0898624 0.169503 0.316353 -0.764737 0.181429 0.544832
3056 0.202776 -0.223791 0.316524 0.203759 0.515162 0.171052 -0.858188 -0.479587 0.30087 -0.243078 -0.242324 -0.476395 0.632299 -0.9477 -1.0747 0.385217 0.438432 -0.214638 -0.441777 0.278746 1.02882 0.382723 0.988649 -0.0640745 0.554564 -0.0456855 -0.114672 0.229448 0.370567 -0.873412 0.165798 0.585032
758 0.200211 -0.398969 0.303496 0.0490511 0.584559 0.239875 -0.841499 -0.561467 0.319465 0.0788313 -0.285293 -0.471428 0.858085 -0.995129 -1.08296 0.531476 0.43125 -0.3561 -0.505136 0.486447 1.05178 0.302854 1.14923 -0.0626043 0.733017 0.0565609 -0.283972 0.239818 0.608974 -1.05712 0.329944 0.684385
12383 0.115723 -0.147238 0.133485 -0.00941138 0.259052 0.0715226 -0.401812 -0.285526 0.142742 0.0306953 -0.0639331 -0.182243 0.389434 -0.437955 -0.609674 0.233938 0.156451 -0.176858 -0.251963 0.230298 0.523733 0.124809 0.59847 -0.0186276 0.407355 0.048118 -0.125877 0.104585 0.280376 -0.542206 0.172928 0.364827
4502 0.166302 -0.31172 0.140849 0.20069 0.468591 0.202237 -0.663756 -0.515127 0.100874 -0.0833035 -0.0471691 -0.504038 0.590778 -0.752555 -0.910533 0.257918 0.349908 -0.309492 -0.367194 0.149476 0.863696 0.279106 0.827788 -0.102588 0.563652 -0.0228389 -0.25145 0.058821 0.296424 -0.730427 0.13857 0.463253
6981 0.213252 -0.415453 0.209164 0.226297 0.651772 0.24422 -0.893142 -0.553473 0.249838 -0.168508 -0.121178 -0.530437 0.693063 -0.966694 -1.13945 0.316154 0.438907 -0.295754 -0.457826 0.290059 1.08727 0.348093 1.04072 -0.112032 0.606658 -0.105769 -0.286372 0.0502067 0.389575 -0.952294 0.16183 0.614875
9648 0.287573 0.0235863 0.0509818 0.105681 0.034503 -0.248797 -0.451303 -0.218189 0.127661 -0.210084 0.558353 -0.198245 0.0480796 -0.0949331 -1.22502 0.173909 -0.00696011 0.125762 -0.123136 0.344523 0.675725 -0.194711 0.809672 0.321441 0.685188 0.186062 0.176285 -0.129216 0.0698628 -0.490115 0.328123 0.570574
9647 0.341998 -0.139374 0.0537106 0.240084 0.081496 -0.359783 -0.535564 -0.161551 0.232752 -0.320279 0.462535 -0.407486 0.0200813 -0.241123 -1.14655 0.253393 0.0540767 0.338042 -0.248068 0.199816 0.462485 -0.136988 0.666581 0.314878 0.481774 0.132895 0.0829828 -0.136531 0.0709754 -0.314523 0.274568 0.367459
5302 0.468495 -0.220481 0.0623363 0.403942 0.0395737 -0.494849 -0.72574 -0.137603 0.423354 -0.46746 0.503474 -0.704191 0.0692365 -0.419788 -1.35794 0.378153 0.0982733 0.621167 -0.386643 0.233316 0.432046 -0.181764 0.652946 0.398398 0.512019 0.081747 0.11145 -0.143383 0.151414 -0.295497 0.280334 0.321591
5420 0.298065 -0.201214 0.00559105 0.299494 0.190843 -0.257416 -0.661267 -0.164851 0.374421 -0.445368 0.275984 -0.55268 0.0659431 -0.427256 -1.26155 0.396255 0.163951 0.525235 -0.260464 0.278306 0.362301 -0.230613 0.569355 0.441227 0.513773 0.0594654 0.0691628 0.0518275 0.0991619 -0.188611 0.187173 0.243924
5421 0.186575 -0.250839 -0.140627 0.274416 0.141376 -0.111346 -0.661295 -0.167481 0.0998129 -0.448221 0.0336965 -0.36821 0.101977 -0.346575 -1.16554 0.451079 0.174306 0.499102 -0.124616 0.347051 0.371145 -0.265123 0.502366 0.523638 0.581056 0.176749 0.245446 -0.0234408 0.059569 -0.159598 0.226314 0.247517
10535 0.287287 -0.0422007 0.0812808 0.118209 0.0440312 -0.217441 -0.243961 -0.174121 0.00262564 -0.0472653 0.32376 -0.066184 0.161552 0.116056 -0.953115 0.117843 -0.13001 -0.166808 0.0238461 0.414456 0.645291 -0.0132081 0.624856 0.329263 0.718518 0.273056 0.0775425 -0.16788 -0.0201357 -0.629194 0.309146 0.728434
12069 0.379064 -0.16563 0.0437573 0.177469 0.0121948 -0.379788 -0.272964 -0.264814 0.0347895 -0.00509668 0.222272 -0.206007 0.2115 0.148429 -0.917791 0.0954444 -0.289638 -0.157638 0.0655574 0.422871 0.573683 0.0943429 0.62325 0.426043 0.787077 0.189936 -0.0496007 -0.175957 0.0284447 -0.713606 0.345473 0.890133
12209 0.493854 -0.38198 0.003223 0.309668 0.0165411 -0.554035 -0.266299 -0.320302 0.101599 0.0526619 -0.00154089 -0.358684 0.304206 0.221147 -0.740363 0.126096 -0.447744 -0.193439 0.0463777 0.386885 0.389753 0.307314 0.520272 0.569984 0.795441 0.164654 -0.242404 -0.230886 0.0226059 -0.826602 0.386157 0.987797
10536 0.267766 -0.00320151 0.288649 0.0779412 0.190811 0.0757521 -0.129002 0.0366405 -0.0232685 -0.0793223 0.247716 0.161389 0.091962 0.110859 -0.885134 0.218692 0.208449 -0.236779 -0.0174077 0.473232 0.61896 -0.0371776 0.365841 0.237849 0.428056 0.552922 0.211828 -0.172733 -0.171579 -0.520036 0.244706 0.450476
7075 0.378836 -0.0409379 0.456942 0.109082 0.327567 0.229313 -0.107599 0.196656 -0.0778627 -0.130373 0.198026 0.380778 0.0568503 0.191292 -1.02334 0.311772 0.469366 -0.386515 -0.0615276 0.613852 0.710908 -0.0446699 0.264023 0.270705 0.37747 0.871752 0.349812 -0.242069 -0.360506 -0.610861 0.304247 0.399481
3328 0.53606 -0.0807472 0.666563 0.141933 0.494919 0.31777 -0.120929 0.384081 -0.14403 -0.190858 0.338403 0.607829 0.137446 0.283935 -1.36969 0.450561 0.766699 -0.585949 -0.0545448 0.785344 0.873701 -0.0389619 0.235699 0.398361 0.411538 1.24098 0.566129 -0.322281 -0.531109 -0.811486 0.390924 0.498864
3329 0.303566 -0.0583313 0.399982 0.0604682 0.287295 0.187425 -0.058415 0.22976 -0.107447 -0.0913881 0.220296 0.372047 0.0803579 0.178439 -0.91667 0.297371 0.440773 -0.35945 -0.0689896 0.489241 0.5671 -0.0635578 0.19753 0.275648 0.329686 0.767754 0.376057 -0.207276 -0.293546 -0.506778 0.232719 0.372497
5442 0.0281325 0.0180992 -0.179234 -0.195768 -0.138847 0.158912 0.27486 0.0423819 0.000986927 0.33874 0.40802 0.00478079 0.270819 -0.257982 -0.674048 0.0577911 0.0147086 0.258782 0.19773 0.299255 0.455059 -0.72778 0.670722 -0.201966 0.541053 0.0450301 0.174394 0.165911 0.0883579 -0.285771 0.183786 0.419126
5441 0.103109 0.0293104 -0.280343 -0.330743 -0.180497 0.273462 0.484159 0.109693 -0.0265472 0.568917 0.646232 0.0360819 0.455123 -0.435447 -0.96444 0.0779331 0.0229827 0.470938 0.326472 0.454896 0.720204 -1.16421 1.0301 -0.342165 0.820224 0.0992241 0.271455 0.272862 0.148318 -0.386982 0.313114 0.613445
2462 0.128736 0.171352 -0.433446 -0.555303 -0.232291 0.36741 0.727534 0.1601 -0.049303 0.940063 0.982844 0.0347035 0.696793 -0.74828 -1.33201 0.122523 0.112338 0.642162 0.492997 0.725891 1.05922 -1.87281 1.52444 -0.543552 1.09046 0.0236579 0.358911 0.368906 0.307083 -0.608181 0.433128 0.94676
13149 0.0589582 0.0428272 -0.264284 -0.36393 -0.154993 0.230528 0.457821 0.0691709 -0.00550674 0.579513 0.656571 0.0409481 0.406976 -0.471075 -0.90287 0.101697 0.0109773 0.381747 0.282717 0.470296 0.699322 -1.13815 0.968292 -0.333224 0.678519 0.0108219 0.208863 0.197758 0.180461 -0.352356 0.257828 0.574429
13403 0.0738104 0.0763219 -0.169788 -0.238495 -0.146201 0.148053 0.320338 0.0157513 -0.0107801 0.427611 0.531438 -4.90176e-05 0.336103 -0.339639 -0.760781 0.101026 0.0378332 0.274011 0.200921 0.373083 0.614259 -0.855184 0.797538 -0.215449 0.588091 0.055106 0.168902 0.133992 0.14647 -0.326022 0.24497 0.481829
9369 0.193297 0.224162 -0.305313 -0.133482 -0.130373 -0.0574179 0.449584 0.0832382 -0.328995 0.797293 0.644417 -0.124239 0.721174 -0.328664 -0.803892 -0.189472 0.299458 0.527874 0.488317 0.590393 0.768536 -1.36424 1.00743 -0.292397 0.54743 -0.07265 0.185383 0.123845 0.362204 -0.487219 0.482039 0.768814
4899 0.198031 0.249386 -0.212982 -0.32505 0.0909073 -0.152688 0.239736 0.0994488 -0.280056 0.5472 0.718647 -0.221643 0.681685 -0.387773 -0.735978 -0.115284 0.224921 0.274903 0.609662 0.717901 0.723383 -1.05177 0.792867 -0.144013 0.465444 -0.0105568 0.0936149 0.105144 0.355945 -0.486612 0.460341 0.737151
7749 0.0957424 0.193819 -0.110731 -0.265906 0.0508093 -0.0352914 0.123179 0.0290677 -0.15492 0.327849 0.489334 -0.0635855 0.414421 -0.267312 -0.626977 -0.0244391 0.0854293 0.201565 0.405194 0.521848 0.607392 -0.690296 0.610631 -0.0208201 0.447202 0.00968543 0.148686 0.0715315 0.291992 -0.315427 0.331255 0.559938
12555 -0.105525 0.0519732 -0.8291 0.584405 -0.493979 0.311752 0.0332813 0.0402516 -0.283306 -0.0103459 0.11378 0.158095 -0.431298 -0.109264 -0.799955 -0.555345 0.127074 0.299391 -0.518191 0.111212 0.949317 -0.708689 0.394829 0.362552 1.22501 0.178599 0.922481 -0.167492 -0.602374 -1.05023 0.132081 0.332983
3695 -0.00773206 0.0421286 -0.888964 0.401287 -0.397093 0.28898 -0.218692 0.0359829 -0.279479 -0.00380208 0.0217383 0.0231387 -0.450393 -0.00764244 -0.752407 -0.567088 0.174516 0.290177 -0.260853 0.0261221 0.978095 -0.667489 0.303308 0.324765 0.956925 0.140545 0.82392 -0.0914547 -0.756608 -1.07625 0.164139 0.459076
2566 -0.00194853 -0.118242 -0.651558 0.220477 -0.293624 0.224044 -0.246107 -0.11279 -0.0761831 -0.000105973 0.0278013 -0.161863 -0.356435 0.110382 -0.779665 -0.343989 0.277484 0.08871 -0.13042 0.161252 0.80027 -0.445451 0.267752 0.279953 0.505537 0.275102 0.447443 0.0886721 -0.793066 -0.741668 0.121853 0.427509
2565 0.0312727 -0.293937 -0.500998 0.035455 -0.2005 0.143876 -0.368245 -0.217974 0.0551391 0.0270782 0.0708333 -0.362692 -0.356292 0.282125 -1.13995 -0.203547 0.43579 0.00987708 0.0242307 0.343499 0.939203 -0.369153 0.451827 0.382485 0.205257 0.469538 0.1388 0.272261 -1.01603 -0.640034 0.156192 0.604905
11119 0.389517 0.0738645 0.102622 -0.121323 -0.0467405 -0.154386 -0.247033 -0.386363 -0.0727718 -0.0306786 0.625664 0.00422646 -0.0263327 -0.138698 -0.977219 0.120904 -0.0879509 -0.217876 0.0671665 0.419975 0.600775 -0.279895 0.712591 0.393554 0.467443 0.00917561 0.0621931 -0.0263138 0.0398367 -0.377907 0.397871 0.583219
7559 0.377208 0.17044 0.0508379 -0.139699 -0.0237733 -0.181835 -0.315079 -0.338448 -0.0228462 -0.0677137 0.702258 -0.083887 0.00312944 -0.109504 -1.18622 0.136904 -0.109574 -0.130587 0.103886 0.461949 0.764745 -0.276061 0.803141 0.367748 0.642404 0.0684791 0.094037 -0.0720187 0.0599003 -0.507969 0.418218 0.708062
7560 0.516358 0.223818 -0.0481973 -0.207627 -0.0349775 -0.185663 -0.376064 -0.337225 0.048534 -0.0643303 0.814304 -0.217925 -0.0331031 -0.114594 -1.16993 0.155872 -0.161927 -0.00870851 0.241157 0.377844 0.720208 -0.205712 0.741634 0.355991 0.551161 -0.0787221 0.0110865 -0.126842 0.107507 -0.443441 0.464727 0.69342
11120 0.623583 -0.0147751 0.136256 -0.242143 -0.118236 -0.174337 -0.151037 -0.565251 -0.135888 0.0644228 0.644985 0.0204294 -0.140779 -0.30282 -0.88306 0.12067 -0.0620977 -0.412188 0.0981368 0.418535 0.404296 -0.384389 0.70531 0.542792 0.139162 -0.205973 -0.166564 0.0630858 0.048785 -0.186489 0.476212 0.451822
7645 0.523319 0.305497 0.162777 0.391479 -0.486765 -0.0383238 -0.65957 -0.248802 0.460184 0.0648042 0.461612 0.204764 0.159035 -0.166937 -0.439302 -0.223075 -0.538535 0.0445295 0.0622022 0.453654 0.682655 -0.462594 0.125251 0.191918 0.633166 -0.00174389 0.497161 -0.263896 -0.370099 -0.516134 0.713137 0.396531
6228 0.537287 0.288517 0.214843 0.395311 -0.541681 -0.0810712 -0.722108 -0.263957 0.503794 0.0201424 0.417042 0.224415 0.112033 -0.0674043 -0.420954 -0.198127 -0.563585 0.0434534 0.0367559 0.479818 0.650235 -0.521985 0.108829 0.144952 0.603559 0.0261643 0.489319 -0.400535 -0.366402 -0.530306 0.707707 0.489508
967 0.581405 0.249635 0.229905 0.329264 -0.500259 -0.155117 -0.734379 -0.345916 0.501987 -0.0166196 0.362852 0.114136 0.00428902 -0.010258 -0.494382 -0.121392 -0.463303 -0.00866968 -0.0623262 0.569005 0.539604 -0.528435 0.150694 0.0639617 0.523367 0.0849869 0.453472 -0.485735 -0.214455 -0.496702 0.605603 0.577135
1968 0.44961 0.170583 0.205014 0.251636 -0.364425 -0.157628 -0.829669 -0.239604 0.477653 -0.125765 0.337357 0.37037 0.0233215 0.259449 -0.564384 -0.345537 -0.536555 -0.151725 0.2322 0.572171 0.465914 -0.718509 0.102678 0.0980837 0.664683 0.211882 0.422782 -0.394404 -0.334257 -0.594854 0.827224 0.513796
966 0.580184 0.265244 0.265195 0.259075 -0.543794 -0.202609 -0.545404 -0.327771 0.470586 -0.0839682 0.41944 -0.0499983 -0.0499039 -0.028507 -0.579536 0.0336317 -0.375074 0.0234695 -0.14272 0.554463 0.560443 -0.427447 0.212885 0.0205373 0.407365 0.0932508 0.430637 -0.530048 -0.0783492 -0.433013 0.467489 0.662405
2410 0.721086 0.344915 0.289656 0.299621 -0.664488 -0.258617 -0.446386 -0.388846 0.516813 -0.161821 0.513933 -0.223242 -0.096331 -0.0689696 -0.711906 0.226502 -0.344017 0.0135721 -0.249927 0.580175 0.628369 -0.373504 0.181042 -0.026983 0.383225 0.0745384 0.480043 -0.63493 0.0300751 -0.442124 0.454131 0.829963
2578 0.819814 0.467426 0.326167 0.31435 -0.770026 -0.364376 -0.361801 -0.45908 0.551252 -0.198611 0.731526 -0.453852 -0.134721 -0.120925 -0.941158 0.40059 -0.285361 0.0417484 -0.389477 0.583914 0.711443 -0.345448 0.197521 -0.0601389 0.354428 0.103098 0.568359 -0.739786 0.112668 -0.425448 0.442952 1.00274
8021 -0.644621 -0.472049 0.573204 -0.166177 -0.0742908 0.275042 0.156266 0.273548 0.590671 0.295241 0.0993832 -0.107109 -0.0832083 -0.0450609 -0.935115 0.621301 0.567398 -0.362548 0.155788 -0.401295 0.888605 -0.208429 1.13528 -0.183322 0.713245 -0.0215892 0.627909 -0.119617 -0.348649 -0.801663 0.756538 0.877312
1334 -0.660976 -0.373812 0.446804 -0.122427 -0.15741 0.355793 0.121005 0.298797 0.620221 0.240769 0.149899 -0.0782608 -0.173166 -0.165498 -0.909419 0.526185 0.642475 -0.374616 0.123632 -0.356277 0.849852 -0.270269 1.15527 -0.155056 0.693362 -0.0456473 0.714993 -0.0322537 -0.33028 -0.75507 0.654585 0.858124
7058 -0.632791 -0.368715 0.450086 -0.187798 -0.133298 0.224344 0.149961 0.263488 0.590183 0.293801 0.184139 -0.0876247 -0.113369 -0.136154 -0.933736 0.575335 0.563235 -0.362644 0.0563767 -0.382099 0.820343 -0.226767 1.15105 -0.143807 0.746236 0.0223611 0.597877 -0.113244 -0.311599 -0.72228 0.684606 0.762089
3564 -0.354586 -0.457472 0.553068 -0.139453 0.0369217 0.112059 0.0272467 0.136675 0.384417 0.216464 0.0314317 -0.139731 -0.09772 -0.000770989 -0.84378 0.567707 0.420378 -0.298057 0.150392 -0.340227 0.767928 -0.113392 0.845595 -0.178679 0.601043 -0.00882184 0.493979 -0.143148 -0.254526 -0.682709 0.642457 0.836741
4223 -0.210829 -0.351375 0.449966 -0.106943 0.0751585 0.0551603 -0.059605 0.0496953 0.268957 0.124367 0.0729553 -0.136133 -0.0560475 0.0493846 -0.75543 0.443082 0.256436 -0.18499 0.13452 -0.179315 0.671039 -0.0620109 0.597196 -0.106493 0.475372 -0.0189323 0.398629 -0.103266 -0.1821 -0.547916 0.489728 0.702045
8068 -0.344267 -0.2941 0.35995 -0.0504784 0.0402351 0.248847 -0.102154 0.100889 0.303471 0.0797657 0.168889 -0.117658 -0.127666 -0.0104506 -0.625992 0.375511 0.296329 -0.279616 0.113886 -0.129599 0.610021 -0.0896206 0.600958 -0.0582909 0.427071 -0.0806694 0.467778 -0.0405761 -0.27326 -0.502658 0.429875 0.765929
11282 0.0642937 0.237713 -0.135347 -0.537687 0.0809723 0.249872 -0.207189 -0.624646 -0.0219344 -0.330019 0.854122 -0.388023 -0.387226 0.325733 -1.02438 -0.669506 -0.565721 -0.0226423 0.087254 -0.194168 0.0683432 -0.617762 0.869923 0.445483 0.728706 0.225497 0.0346748 0.414297 0.372709 -0.685995 0.0968298 0.510639
7027 0.0956524 0.193155 -0.153186 -0.612445 0.0938364 0.216631 -0.352368 -0.699228 -0.0665295 -0.3769 0.882004 -0.25983 -0.412522 0.463621 -1.08075 -0.622576 -0.511477 -0.0015556 -0.0252589 -0.140255 0.150329 -0.622534 0.918098 0.520576 0.590254 0.22373 -0.107046 0.269914 0.455476 -0.680633 -0.0482201 0.48235
320 0.0294689 -0.021996 -0.187864 -0.596463 0.0909552 0.264874 -0.298518 -0.557059 -0.0631828 -0.389362 0.599289 -0.0754079 -0.316891 0.516527 -1.018 -0.434324 -0.372812 0.0292345 -0.0871591 -0.0678991 0.254451 -0.477343 0.82109 0.527512 0.392996 0.249223 -0.232459 0.0460415 0.50927 -0.554758 -0.167505 0.397646
321 0.0568412 -0.116106 -0.290936 -0.856805 0.161409 0.351423 -0.625828 -0.656989 -0.0759254 -0.561285 0.814946 0.122677 -0.465301 0.836063 -1.37647 -0.571493 -0.385201 0.0789636 -0.195315 0.0288561 0.442856 -0.546343 1.12972 0.75474 0.324712 0.487072 -0.546596 -0.15373 0.861794 -0.797265 -0.347728 0.563834
625 -0.146056 -0.709743 -0.119968 -0.862833 0.446608 0.491269 -0.391249 -0.847312 -0.302774 -0.842443 0.591782 0.213729 -0.132238 1.22313 -1.74765 -0.397821 -0.616212 0.167086 -0.537677 -0.0358866 0.674039 -0.575711 1.47765 0.985824 0.615164 0.718363 -0.510476 -0.470459 0.786064 -0.982846 -0.523054 0.424186
7835 -0.30941 -0.513259 -0.0399696 -0.429682 0.347487 0.340226 -0.41242 -0.346841 -0.354371 -0.610217 0.415146 0.114895 -0.150486 0.893309 -1.31629 -0.0719901 -0.282022 0.0621277 -0.370306 0.0653576 0.509666 -0.530352 1.26991 0.626394 0.380987 0.639365 -0.419044 -0.41159 0.437176 -0.663887 -0.412491 0.214819
9250 -0.351775 -0.477047 -0.0812165 -0.363195 0.368326 0.383524 -0.545673 -0.233558 -0.449427 -0.691937 0.445689 0.104577 -0.214901 0.917232 -1.33669 -0.0413929 -0.22302 0.00746937 -0.324159 0.0937444 0.536904 -0.547046 1.39032 0.648136 0.36608 0.732351 -0.446227 -0.392254 0.380502 -0.646363 -0.479359 0.204783
13226 -0.243057 -0.296392 -0.0368862 -0.203383 0.25644 0.211882 -0.409012 -0.0798077 -0.291743 -0.431961 0.305983 0.0452728 -0.103648 0.556321 -0.934855 0.00725046 -0.140682 0.00381876 -0.190559 0.0745305 0.370585 -0.372814 0.934242 0.411628 0.285478 0.483523 -0.309462 -0.265481 0.20749 -0.450174 -0.273084 0.122089
10109 -0.326964 -0.349333 -0.0650997 -0.273515 0.30285 0.297737 -0.508472 -0.119435 -0.412712 -0.531065 0.446154 0.0499683 -0.087096 0.717721 -1.13074 0.0432783 -0.203006 -0.0330835 -0.215412 0.0676727 0.417578 -0.544061 1.17577 0.468922 0.272127 0.572812 -0.363085 -0.354443 0.293609 -0.530276 -0.328029 0.168652
6118 0.354632 -0.27284 0.320456 -0.116975 0.000845611 -0.485411 -1.10004 -0.668055 0.985713 -0.304982 0.899475 -0.294176 0.343783 -0.0229437 -1.30314 -0.385318 0.236373 0.0227974 0.0603107 0.617232 0.265653 -0.00343546 0.733927 0.455638 0.410834 0.25332 0.562294 -0.507338 -0.0666462 -0.554552 0.267562 0.131079
6117 0.345468 -0.199949 0.264161 0.029472 -0.0403473 -0.352456 -0.8105 -0.531796 0.880446 -0.199322 0.708321 -0.193266 0.292732 -0.0436172 -1.05503 -0.404238 0.184675 0.0893644 0.0276916 0.546443 0.135884 0.040159 0.646767 0.423092 0.372901 0.156942 0.512316 -0.386286 -0.125615 -0.504257 0.249344 0.107527
2099 0.593 0.018731 0.295296 0.293957 -0.115052 -0.314448 -0.630702 -0.631451 1.12404 -0.239422 0.762983 -0.053376 0.286105 -0.125506 -1.04801 -0.482203 0.098357 0.245358 0.0053931 0.4612 0.187078 0.152587 0.888148 0.498671 0.490498 0.0429405 0.652706 -0.259639 -0.307172 -0.735877 0.370313 0.21192
5997 0.38643 0.0474186 0.164486 0.179674 -0.0661127 -0.181251 -0.364109 -0.372241 0.560385 -0.121594 0.496381 -0.0122827 0.185708 -0.047335 -0.732571 -0.216246 0.00872436 0.101948 0.00786016 0.301244 0.173266 0.0592988 0.578307 0.30083 0.35568 0.0527727 0.385475 -0.137849 -0.169397 -0.447131 0.236009 0.218925
274 -0.105049 0.391814 -0.0941726 -0.136416 -0.427372 -0.243816 -0.207335 0.0173617 -0.0712209 0.29086 0.537413 -0.137937 0.418103 0.0489803 -0.414896 0.0863504 -0.741106 0.0825701 -0.168497 0.454631 0.181385 0.239043 0.947505 -0.248414 0.716215 0.132255 0.0110206 -0.643444 -0.0906423 -0.496816 0.611529 0.796702
7243 0.0220267 0.242726 -0.0161053 -0.0649547 -0.20143 -0.153897 -0.24528 -0.0914895 -0.0419295 0.083731 0.452982 -0.0629324 0.185643 0.0124462 -0.582789 0.053088 -0.362362 -0.0145179 -0.0540789 0.373333 0.393637 0.0216422 0.708618 0.0172883 0.559713 0.123046 0.111379 -0.313457 -0.021772 -0.436474 0.369503 0.611754
275 -0.252185 0.501922 -0.10401 -0.200105 -0.598992 -0.311646 -0.27927 0.0999126 -0.0755125 0.419895 0.685961 -0.214467 0.625058 0.0906679 -0.523802 0.1201 -1.00223 0.0831367 -0.239 0.509508 0.142687 0.346176 1.18683 -0.349408 0.816545 0.112618 -0.0167757 -0.889994 -0.102728 -0.585782 0.743821 0.992929
331 -0.345811 0.474254 -0.0419456 -0.295874 -0.560961 -0.393454 -0.346833 0.0120999 0.0125826 0.467041 0.854746 -0.32653 0.656424 0.139924 -0.627873 0.13587 -0.970225 -0.0159403 -0.291571 0.383319 0.0269851 0.447685 1.09135 -0.300039 0.891336 0.0973488 -0.0736056 -0.958147 -0.0788737 -0.700809 0.712165 0.972332
8454 -0.491412 0.50735 -0.179648 -0.0754834 -0.520424 -0.3841 -0.447149 0.15656 -0.0026495 0.416431 0.571789 -0.244026 0.864533 0.287609 -0.62923 0.104413 -1.02545 0.033476 -0.0957287 0.462611 0.306927 0.332087 1.13374 -0.194989 0.56636 0.128072 -0.0183398 -0.865699 -0.160601 -0.720442 0.656234 1.04035
8275 -0.50826 0.437277 -0.137147 0.0778493 -0.241007 -0.358292 -0.533155 0.0447319 0.0978756 0.243689 0.398217 -0.246939 0.741156 0.432073 -0.597989 0.192929 -0.770324 -0.0173996 0.00932168 0.303273 0.437466 0.208319 0.80325 0.0657328 0.149313 0.122739 0.0905025 -0.597988 -0.154947 -0.734373 0.387958 0.889585
8274 -0.470882 0.410393 -0.118842 0.16454 -0.296314 -0.372694 -0.422998 0.0840102 0.116615 0.288732 0.380214 -0.267045 0.69065 0.420023 -0.596936 0.150214 -0.856972 -0.0203588 -0.068464 0.38232 0.389533 0.250643 0.882381 -0.00140603 0.275714 0.0873639 0.0881876 -0.61942 -0.175469 -0.735088 0.411673 0.885858
11307 -0.475641 0.425999 -0.0511949 0.432102 -0.118298 -0.420936 -0.434113 0.0314677 0.358779 0.221622 0.226056 -0.315858 0.549599 0.537677 -0.729072 0.210902 -0.905856 -0.0468528 -0.144558 0.352681 0.465446 0.298318 0.838787 0.178909 -0.0628915 0.0795803 0.18308 -0.375552 -0.282661 -0.939209 0.270964 0.861142
11333 -0.144503 0.294932 0.137626 0.602034 -0.0119388 -0.391385 -0.125591 -0.0902073 0.512981 0.198328 0.159275 -0.251968 0.0496838 0.383333 -0.806401 0.197209 -0.870144 -0.157105 -0.348211 0.447944 0.43777 0.286182 0.821095 0.248825 0.0644339 0.076749 0.257678 -0.135639 -0.306233 -0.916384 0.155175 0.723463
13003 0.301871 -0.157081 0.134523 -0.0292399 0.226686 -0.34863 -0.202693 0.0244447 0.0390359 0.13226 0.542314 -0.00386717 -0.0416535 -0.143822 -1.41723 0.0819397 0.0591311 0.0106486 -0.350972 0.318909 0.64596 -0.497109 0.388142 0.0443837 0.64283 0.0871414 0.343968 -0.029911 0.215639 -0.431177 0.185865 0.630436
13092 0.160637 -0.092552 0.112348 -0.203649 0.21114 -0.190666 -0.177844 0.0930785 -0.0433206 0.0373638 0.318341 -0.02336 0.0852603 -0.151971 -1.17004 0.16892 -0.143027 -0.144511 -0.100865 0.391833 0.750312 -0.36452 0.280216 0.0881408 0.606325 -0.0126645 0.215293 -0.109835 0.0518452 -0.526247 0.150669 0.644454
7096 0.252174 -0.0295172 0.11041 -0.0421194 0.0801635 -0.295129 -0.18523 -0.0168823 0.07308 0.00020213 0.458397 -0.00689071 0.015222 -0.0308982 -1.10813 0.0688834 0.029391 -0.0590636 -0.240063 0.30937 0.529204 -0.367465 0.452901 0.0861943 0.604373 0.127435 0.286265 0.00110788 0.138643 -0.433021 0.210312 0.560928
4539 0.0328311 -0.241221 0.125601 0.176449 0.114658 -0.18108 -0.123562 0.0508618 -0.0607741 0.221362 0.394581 0.0502718 -0.145995 -0.153175 -1.39627 0.0572554 0.0178494 0.283321 -0.397089 0.269211 0.629663 -0.558352 0.35875 0.0732335 0.429493 -0.00516613 0.419771 -0.0175022 0.265072 -0.418074 0.165034 0.46026
4169 -0.132611 -0.340284 0.106169 0.297047 0.130342 -0.134257 -0.130762 0.102207 -0.135755 0.353117 0.379081 0.0497023 -0.243306 -0.225515 -1.61458 0.0773636 0.0380955 0.465672 -0.436675 0.244329 0.690832 -0.655907 0.372294 0.0719278 0.390543 -0.11145 0.496995 0.0371506 0.337688 -0.428369 0.144243 0.412704
1734 0.0874145 -0.293493 0.233803 -0.201417 0.0835626 0.0483026 0.179226 0.273561 -0.113664 -0.294341 0.0358241 0.0882897 -0.0788271 -0.132253 -0.833648 0.478448 -0.186645 -0.2184 0.0878994 0.259498 0.0866945 -0.434429 0.394466 0.405307 0.847997 0.486348 0.637886 -0.205578 0.432339 -0.0571607 0.0131018 0.827347
1733 0.00104639 -0.443163 0.403927 -0.114801 0.0225439 0.0438363 0.147315 0.271651 -0.138158 -0.382578 0.0319949 -0.0137691 -0.0294486 -0.246153 -0.77789 0.458789 -0.145343 -0.367133 -0.025465 0.311154 0.11195 -0.582644 0.514951 0.536824 0.86572 0.593433 0.822137 -0.463937 0.570357 -0.0911529 -0.0502677 0.870986
2157 -0.00820116 -0.474718 0.548931 -0.133184 0.0393724 0.0152504 0.243357 0.192196 -0.232526 -0.401042 -0.0823325 -0.137669 -0.0215767 -0.293674 -0.787908 0.585768 -0.353535 -0.338752 -0.115103 0.420547 0.130468 -0.620262 0.567685 0.698422 1.08523 0.4411 0.822792 -0.4797 0.392081 -0.0378356 -0.139078 0.896473
2746 -0.0339507 -0.546224 0.519229 -0.189625 -0.0322979 0.0343849 0.0224313 0.318653 -0.17595 -0.458711 0.0957784 0.0269771 -0.00674412 -0.366689 -0.747281 0.502244 -0.0428602 -0.450506 -0.0656065 0.264608 0.137 -0.714782 0.595667 0.558225 0.86585 0.696376 0.989179 -0.569031 0.697111 -0.199901 -0.0460983 0.995674
2795 -0.026918 -0.523785 0.480901 -0.296872 -0.0783433 -0.010704 -0.13041 0.273089 -0.157867 -0.439776 0.243592 0.163642 0.101833 -0.371752 -0.800916 0.445543 0.208942 -0.442117 0.0312948 0.244232 0.210076 -0.770232 0.634778 0.423079 0.815367 0.86433 1.04137 -0.521108 0.93518 -0.345452 -0.00512781 1.03089
10157 0.00186349 -0.290985 0.278799 -0.180654 -0.053958 -0.0196634 -0.117317 0.145103 -0.0751988 -0.267682 0.180898 0.0989754 0.101995 -0.201235 -0.541004 0.293481 0.124431 -0.30227 0.0306901 0.178541 0.206747 -0.473674 0.454598 0.284906 0.523948 0.525047 0.649093 -0.3108 0.54061 -0.293746 0.0434177 0.67987
2794 0.027468 -0.515123 0.568556 -0.608095 -0.176781 -0.0625393 -0.353414 0.340966 -0.215048 -0.49553 0.422983 0.415371 0.315162 -0.479217 -0.821152 0.433399 0.508536 -0.524993 0.174974 0.20749 0.283482 -1.02119 0.814674 0.437556 0.982474 1.18409 1.26161 -0.606104 1.35647 -0.648312 0.0703449 1.35973
8668 0.385943 -0.0807532 -0.0300044 0.269612 -0.172777 -0.194214 -0.519447 -0.519826 -0.0534376 0.194682 0.447436 0.429375 0.462743 0.29541 -1.1462 0.213477 0.132978 -0.261944 -0.12976 -0.198469 1.15384 -0.390595 0.858781 0.077401 1.01767 -0.0788896 -0.0444828 0.776159 0.0330608 -0.196088 -0.479962 -0.0770745
6881 0.609518 -0.0764288 -0.0731455 0.579806 -0.28911 -0.334413 -0.724601 -0.627147 -0.213388 0.314233 0.678721 0.594794 0.692233 0.507198 -1.7194 0.243853 0.0721002 -0.273118 -0.241023 -0.15902 1.68655 -0.644494 1.38773 0.198336 1.40601 -0.0996913 -0.0946931 1.20605 0.17779 -0.347881 -0.844757 -0.407346
6882 0.435323 0.167067 0.0971906 0.33627 -0.121851 -0.213707 -0.431865 -0.476398 -0.192112 0.112096 0.592561 0.426712 0.541937 0.33651 -1.1423 0.0988055 0.0882019 -0.138748 -0.0622735 -0.175246 0.843249 -0.477999 0.804701 0.123616 0.858917 -0.133107 -0.0895161 0.693648 0.139536 -0.314674 -0.444204 -0.0711225
2032 0.393808 -0.0633916 -0.107285 0.332999 -0.223571 -0.107312 -0.530319 -0.426372 -0.0585968 0.23878 0.56131 0.434196 0.525806 0.127003 -1.38951 0.224856 -0.0898929 -0.122899 -0.244321 -0.0827985 1.0695 -0.461075 0.949954 0.231949 0.874276 -0.0360757 0.0793429 0.77772 0.151312 -0.275139 -0.586766 -0.115079
6396 0.314958 -0.161215 -0.310179 0.462797 -0.131107 -0.146559 -0.496789 -0.346222 -0.131161 0.357628 0.484524 0.486131 0.652733 0.0518841 -1.46953 0.201052 -0.118202 -0.16372 -0.329611 -0.169766 1.02281 -0.609928 1.06632 0.30889 0.737153 0.00196138 0.228827 0.829078 0.204693 -0.396085 -0.581655 -0.229838
5012 0.412103 0.0567498 0.0133902 0.221293 -0.15927 -0.180712 -0.581986 -0.506451 -0.0721699 0.143868 0.636712 0.339399 0.373618 0.194002 -1.13649 0.173881 -0.0138128 -0.150215 -0.143956 -0.0585806 0.93989 -0.390415 0.835438 0.138078 0.877147 -0.0363286 0.0133536 0.594824 0.0808294 -0.231098 -0.416555 -0.0113358
13248 -0.125879 -0.0335236 -0.104487 -0.0270602 -0.16382 -0.078726 -0.141032 -0.183744 -0.1726 0.176783 0.395434 0.284956 -0.0316766 0.142929 -0.769606 -0.00415487 0.251775 0.0938243 -0.0281515 0.394296 0.638166 -0.0677497 0.331377 0.152751 0.714967 0.0996613 0.274908 -0.383536 -0.232824 -0.564446 0.454763 0.687779
2988 -0.347357 -0.17114 -0.262591 -0.0430036 -0.272423 -0.0533281 -0.133376 -0.228509 -0.29527 0.38716 0.35546 0.468818 -0.0354608 0.261407 -0.768436 -0.0433506 0.519039 0.189845 -0.102813 0.427351 0.7473 0.0108572 0.120091 0.159072 0.824891 0.101549 0.341297 -0.664691 -0.392703 -0.691059 0.618307 0.853674
2989 -0.631433 -0.291896 -0.483696 -0.138678 -0.425005 -0.0885032 -0.052804 -0.278254 -0.463009 0.664391 0.368241 0.768021 -0.0967511 0.471772 -1.06888 -0.0768283 0.900857 0.25933 -0.142339 0.643762 1.02161 0.0977616 0.0444274 0.223855 1.11552 0.0170012 0.491692 -0.988432 -0.675869 -0.995531 0.961646 1.19603
9717 -0.339188 -0.0853328 -0.358748 0.0291005 -0.276457 -0.0997499 -0.111509 -0.201041 -0.310221 0.375907 0.323592 0.491821 -0.221038 0.387343 -0.707046 0.0422293 0.508169 0.182937 -0.181506 0.451592 0.61313 0.0227618 0.237036 -0.0283269 0.793518 -0.0703558 0.359987 -0.634938 -0.596822 -0.528402 0.629474 0.662769
1355 -0.564654 -0.0317233 -0.749383 0.0843262 -0.372506 -0.0586885 0.0108517 -0.0966729 -0.516647 0.543885 0.515906 0.92868 -0.374093 0.533001 -1.21926 -0.031591 0.873222 0.267678 -0.21793 0.802706 0.852842 0.179442 0.432408 0.0259342 1.26142 -0.3883 0.514006 -0.880143 -1.04402 -0.660392 1.20219 0.970948
750 -0.394886 -0.107168 -0.56831 -0.0559662 -0.148718 0.0377163 -0.0496251 0.158317 -0.261517 0.416896 0.435551 0.82011 -0.137309 0.0920202 -1.09238 -0.184173 0.633729 0.152618 -0.00167232 0.561908 0.723609 0.206163 0.255848 0.22227 1.13474 -0.474166 0.381093 -0.46882 -0.660016 -0.454892 0.950906 0.782875
751 -0.262111 -0.128454 -0.591935 -0.13026 -0.0631537 0.053983 -0.0481617 0.260624 -0.211137 0.317576 0.444307 0.951535 -0.0918938 -0.0864768 -1.1781 -0.284283 0.520425 0.0409391 0.169477 0.5498 0.734138 0.223208 0.17163 0.422176 1.18164 -0.615684 0.296769 -0.171211 -0.483388 -0.348344 0.990462 0.750256
12003 -0.121891 -0.0508785 -0.305322 -0.108329 -0.0100695 0.0149382 -0.01492 0.127204 -0.112408 0.163178 0.285964 0.527224 -0.0455492 -0.0576771 -0.801929 -0.158514 0.299934 0.0119135 0.118208 0.363808 0.506768 0.109615 0.181057 0.292163 0.731181 -0.320074 0.187247 -0.104252 -0.259271 -0.261159 0.566545 0.485175
7258 0.0773852 0.210344 0.283264 0.34807 0.00227169 0.266698 0.0550498 -0.0487346 0.0403069 -0.0630416 0.106566 0.29812 -0.283914 0.116156 -0.813526 0.0601652 0.141098 0.0956174 -0.0152629 0.0370635 0.340596 -0.509453 0.377216 0.408797 0.712467 0.259175 0.259178 0.138045 0.36774 -0.746175 0.157601 0.731423
7257 0.0821376 0.574844 0.557177 0.65507 0.172871 0.629066 0.0732517 -0.00139417 -0.11177 -0.00549685 0.293392 0.611 -0.150994 -0.107137 -0.896488 -0.118205 0.124322 0.115152 -0.191976 0.0785027 0.640875 -0.675661 0.554451 0.519829 0.918444 0.130967 0.189711 0.281017 0.512275 -0.862686 0.279108 1.01341
7170 0.0176383 0.445799 0.440446 0.452542 0.167483 0.456183 0.0772139 0.0320454 -0.175198 -0.0260786 0.239403 0.464748 -0.0307404 -0.110031 -0.793804 -0.0536282 0.0413563 0.0519674 -0.0966891 0.155417 0.639184 -0.535002 0.486694 0.417993 0.782289 0.0842371 0.147988 0.139009 0.388441 -0.701665 0.272129 0.864538
7171 0.0769981 0.521024 0.48379 0.499302 0.182792 0.509739 0.051954 -0.0225437 -0.214455 0.0115431 0.302435 0.511961 -0.030136 -0.120018 -0.768208 -0.0677099 0.0850946 0.0688532 -0.166687 0.193104 0.669308 -0.561896 0.520235 0.406617 0.794826 0.0894992 0.120895 0.189531 0.400487 -0.687942 0.284135 0.88077
10341 0.095753 -0.0532473 0.00923293 0.0912112 -0.0476551 -0.0357161 -0.30593 -0.205306 -0.0960473 0.00213981 0.350344 0.223157 -0.0331023 -0.51536 -0.353583 0.188534 -0.0481132 -0.0331435 -0.0865602 0.208904 0.631353 -0.173941 0.467537 0.186069 0.461286 0.346228 -0.085281 0.0278406 0.0562161 -0.445711 0.414737 0.43835
9698 0.167875 -0.178435 0.040945 0.17364 -0.0830988 -0.0673561 -0.432541 -0.334243 -0.15381 0.0578068 0.503814 0.382968 -0.0168747 -0.935808 -0.277084 0.303937 -0.0529256 0.00226285 -0.169089 0.289843 0.882444 -0.228902 0.663766 0.267047 0.617799 0.528906 -0.252211 0.0818292 0.0439679 -0.662643 0.642515 0.597951
5336 0.211139 -0.331899 -0.0118025 0.265306 -0.158319 -0.0615531 -0.547236 -0.381542 -0.239553 -0.00188813 0.536974 0.502554 -0.0504686 -1.12789 -0.216243 0.241668 -0.0180285 0.0423681 -0.233616 0.370932 0.964467 -0.329025 0.760549 0.354379 0.641293 0.58195 -0.354395 0.0319145 0.0210638 -0.759537 0.754549 0.640171
10742 0.115728 -0.129153 0.103788 0.179803 -0.0928579 -0.142766 -0.460347 -0.362818 -0.0916269 0.0427542 0.576157 0.389097 0.0485832 -0.861072 -0.339902 0.296787 -0.0738187 -0.0652516 -0.117176 0.299481 0.875335 -0.238147 0.502613 0.224005 0.615675 0.539541 -0.272542 0.0606539 0.0931737 -0.601296 0.550379 0.589212
509 0.120801 -0.281219 0.14724 0.25629 -0.128979 -0.221465 -0.634621 -0.444093 -0.162387 0.0296908 0.770091 0.508527 0.195831 -1.24445 -0.339871 0.319794 -0.13446 -0.154854 -0.133405 0.42209 0.993153 -0.315446 0.468231 0.327578 0.660178 0.696558 -0.502034 0.0163316 0.131607 -0.808772 0.637163 0.673624
10579 0.124117 -0.26512 0.0653548 0.256412 -0.236266 -0.244655 -0.569472 -0.511768 0.0108699 -0.0387063 0.781734 0.411302 0.36623 -0.962649 -0.219586 0.145885 -0.177852 -0.0302122 -0.0761702 0.464126 0.804846 -0.337048 0.522203 0.376759 0.577053 0.594384 -0.516007 0.0215299 0.0641267 -0.642318 0.695633 0.635332
6249 0.329887 -0.459918 0.196498 -0.313172 0.124516 -0.380556 -0.121387 -0.466999 0.208516 -0.122536 0.718967 -0.517135 0.0779611 0.0535821 -0.965389 -0.240096 -0.208862 -0.0885456 -0.266397 0.482654 1.31106 0.191049 0.397564 0.0456573 0.101501 0.0343177 -0.0679039 -0.176718 -0.130597 -0.349563 -0.333548 1.25506
588 0.124595 -0.248937 0.088786 -0.141281 -0.0485094 -0.158032 -0.0648453 -0.370966 0.167964 -0.0321482 0.659405 -0.412887 -0.0537219 -0.0311496 -0.703564 -0.0628657 -0.147408 -0.0870362 -0.282095 0.482772 0.884966 -0.0104739 0.447446 0.0841899 0.275193 0.00206827 -0.0558163 -0.203929 -0.105527 -0.254227 -0.243858 0.841191
587 -0.103944 -0.167383 0.0059056 -0.0132374 -0.275125 -0.0164382 0.0263161 -0.238005 0.115441 0.157592 0.556516 -0.370942 -0.198342 -0.160951 -0.650274 0.00125873 -0.0766319 -0.17752 -0.379185 0.599577 0.804425 -0.224099 0.553597 0.0626012 0.574616 -0.0619105 -0.0559637 -0.351914 -0.160276 -0.227747 -0.221707 0.616871
7220 -0.195874 -0.0810482 0.000518335 0.0376218 -0.384884 0.0151354 0.0234603 -0.215524 0.0655222 0.187967 0.529643 -0.268298 -0.283185 -0.267323 -0.628989 0.0541222 -0.0133898 -0.204956 -0.371704 0.639168 0.754708 -0.299632 0.626106 0.0980266 0.715823 -0.085674 -0.0140899 -0.423278 -0.174849 -0.265099 -0.181228 0.520273
7219 -0.275536 -0.018668 -0.0164527 0.0606815 -0.4966 0.0874818 0.0714523 -0.0694558 0.00801284 0.266457 0.400977 -0.22934 -0.313264 -0.329312 -0.581484 0.029852 0.0731662 -0.22685 -0.405429 0.643548 0.72783 -0.334014 0.652076 0.115553 0.850602 -0.0873845 0.0181307 -0.518852 -0.152078 -0.270666 -0.129971 0.350634
4766 -0.477356 0.135831 -0.111226 0.359869 -0.186591 0.140556 0.260287 -0.331321 0.384702 -0.0303516 0.464614 0.0737007 -0.301446 -0.314214 -1.14185 0.0632857 -0.19223 -0.0658773 0.165822 0.472259 0.326875 -0.431081 0.456316 -0.147471 0.738585 -0.220455 0.428149 -0.236776 -0.622738 -0.271092 0.153487 0.605094
3568 -0.873323 0.208099 -0.234734 0.491462 -0.306189 0.362141 0.580523 -0.586327 0.713585 0.0108905 0.808511 0.11895 -0.501911 -0.745884 -1.94628 0.106115 -0.293872 -0.102344 0.306866 0.876248 0.401677 -0.944558 0.685269 -0.379312 1.19896 -0.420112 0.722445 -0.389424 -1.24379 -0.36776 0.197659 0.99067
3041 -0.704026 0.183117 -0.164551 0.540917 -0.205671 0.213282 0.359587 -0.402278 0.532022 -0.124419 0.49759 0.0609199 -0.48041 -0.408082 -1.5137 0.0675654 -0.221016 -0.160587 0.203687 0.552889 0.452339 -0.4743 0.556739 -0.108146 0.908436 -0.282562 0.572828 -0.313189 -0.885842 -0.316421 0.201591 0.7488
6897 -0.584185 0.158471 -0.141717 0.473317 -0.153663 0.176979 0.261555 -0.37592 0.461512 -0.106314 0.432405 0.0639383 -0.415978 -0.320964 -1.27074 0.0446331 -0.202628 -0.115026 0.135653 0.465752 0.374372 -0.407377 0.493868 -0.111832 0.778728 -0.244064 0.484784 -0.253251 -0.762151 -0.267591 0.165248 0.631111
3233 0.143619 0.274776 0.355397 -0.403531 0.746018 0.158444 -0.760279 -0.413898 -0.326605 -0.382748 0.157637 0.0420711 -0.243422 0.465824 -0.564557 -0.0433776 -0.00949299 0.63157 0.274507 0.794561 0.581633 -0.89058 0.277189 -0.109624 1.18268 -0.507983 -0.337302 0.498222 -0.133122 -1.18848 0.604326 0.519646
2460 0.10187 0.322489 0.525986 -0.425166 0.890026 -0.0335721 -0.739149 -0.125563 -0.361912 -0.399061 -0.0548744 0.0994012 -0.227305 0.402212 -0.674652 -0.091305 0.00879387 0.610444 0.401815 0.824761 0.550418 -1.04506 0.314614 -0.286851 1.44666 -0.517653 -0.431425 0.520234 -0.300447 -1.33785 0.581137 0.768585
329 0.22949 0.431128 0.442049 -0.417604 0.589279 0.0725691 -0.934953 -0.623839 -0.210351 -0.38934 0.391343 -0.0400771 -0.261571 0.564989 -0.622403 -0.143604 0.00855745 0.666436 0.321762 0.875279 0.730748 -0.988759 0.363529 -0.0893921 1.06283 -0.499137 -0.367923 0.499055 -0.115305 -1.03377 0.694813 0.495333
328 0.151378 0.268314 0.265587 -0.240457 0.35875 -0.0036104 -0.644982 -0.458104 -0.154945 -0.248362 0.300601 -0.00569853 -0.13206 0.346407 -0.476029 -0.0920453 0.010844 0.443124 0.191954 0.549096 0.527573 -0.654291 0.247918 -0.0534947 0.69119 -0.286232 -0.212429 0.289734 -0.0220874 -0.698702 0.437701 0.332087
