300 16
0 -0.012813512472903467 0.014451065601485366 0.002817756908335913 -0.006059746251732856 -0.01346503655821822 -0.0074483402578400726 -0.012791192158744566 -0.013672164065995005 0.005747816624312659 -0.012690009785939812 0.007720716087032691 0.011647535217521229 -0.009244855977796626 0.011665690992220906 0.009237767218383604 -0.010524308803173676 
0 -0.01003385339433982 0.010852275740582262 0.0010903308618052943 -0.00524893091647197 -0.009557343664374362 -0.004850343525886776 -0.009762809948012208 -0.009809481735379337 0.004750482357236314 -0.009077197443300869 0.006030134500750903 0.008352007786214616 -0.006998367087652753 0.008630984276908933 0.0066501444042260304 -0.007704328758467423 
0 -0.014026762631600666 0.014722778392095355 0.00011334650481664535 -0.00811149705001416 -0.012338206910128756 -0.005694384931388893 -0.013662589421176851 -0.012987040886077253 0.0071625578683586115 -0.012036006457982777 0.008705191198772177 0.01114056143714578 -0.009849889824703743 0.011906839902156435 0.008924788683853527 -0.010524308803173338 
1 -0.014673828938145873 0.014275457633418642 -0.0036033817962253375 -0.010591020135187538 -0.01028873299515461 -0.0031310967824337487 -0.014466810373316935 -0.011813204022767464 0.008967367334436642 -0.011018516894417714 0.009961831694581834 0.010397003229849142 -0.010631780778973839 0.012222715618754779 0.008487043796874821 -0.01052430880317285 
1 -0.010856993515253143 0.010283672972810284 -0.0036341134167938893 -0.008398625403489034 -0.006953933060988922 -0.001596076629775372 -0.010783822596463538 -0.008319901906888546 0.007040756124375235 -0.007786480791020577 0.007624221429945762 0.007409021733432248 -0.007989967015456723 0.009031519023085776 0.006095077876528424 -0.007704328758466786 
1 -0.014368322796061785 0.013369828771151898 -0.00616609516979537 -0.01208387612217721 -0.008485733439921567 -0.0011937095769783764 -0.01475355641478711 -0.010797773407050975 0.010167278674465758 -0.010191625522816555 0.01080632104216738 0.009818196240708947 -0.011168503090056379 0.012443736591617231 0.008159540988650665 -0.010524308803172476 
2 -0.012904036167732953 0.011382574904614041 -0.009338631567512707 -0.0136348167147998 -0.0056674074587365324 0.0014926402616711766 -0.01472631639235408 -0.009211976924864052 0.0116234653752678 -0.00895668754871045 0.011850044447952788 0.008982504290373545 -0.011851036046148662 0.012731502770769301 0.007702825890861132 -0.010524308803171973 
2 -0.008994258490878716 0.007757615268442488 -0.007666819124295085 -0.010368757911423616 -0.0033738632247224884 0.0018144253673781372 -0.010749239553862817 -0.006307552043129077 0.008888633290129901 -0.006219924174825768 0.008948216513985498 0.006349190981978524 -0.008855560390451987 0.009396410489787255 0.005515956861028284 -0.007704328758466145 
2 -0.011155351862830351 0.0094719871258581 -0.011271845940238643 -0.014359110703559497 -0.0034414639257806775 0.003423814387890295 -0.014400342512445877 -0.007930042113426905 0.012533151968820858 -0.007986201172544755 0.012524631575232238 0.008340992224449855 -0.012310982389938475 0.012931523537753623 0.007362091312905139 -0.01052430880317163 
3 -0.0051826959152142995 0.0037711916130205923 -0.014232047106119021 -0.014617650858694556 0.002086148969474455 0.0077061915453544875 -0.012637522751900334 -0.004564037109161411 0.014111521231266284 -0.00549786166427391 0.013799250790681835 0.006732245778143813 -0.013259310143306738 0.013368275668337787 0.006535586826166971 -0.010524308803170996 
3 -0.007941957248478227 0.006323065767412525 -0.01329631115437204 -0.014763643806446273 -0.0002501113870072352 0.005970267277127283 -0.013544307958627861 -0.006031927437490164 0.013549218338455475 -0.006577563081299595 0.013318463469002792 0.007426345892350622 -0.012883393395409889 0.013190044497818094 0.006888208450142444 -0.010524308803171243 
3 -0.004906464079943423 0.0037549273422100805 -0.010240177283258232 -0.010882629184329803 0.0006800556750887639 0.005047318767727626 -0.009662446049374043 -0.0038988754869460547 0.010178004936159155 -0.004433023643840432 0.009955216566949993 0.005189229695916043 -0.009581496288034418 0.009724218617097281 0.004915066883798514 -0.007704328758465654 
4 -0.0010151442111956985 5.998701713922578e-05 -0.014723092493450244 -0.013818960999727058 0.005202312085752029 0.00986348293419985 -0.011036488293168523 -0.002472869765341486 0.01462362408289863 -0.003965425162538227 0.014315069281841697 0.005753069583321216 -0.013712571934659204 0.013596531145192242 0.006046406397593924 -0.010524308803170769 
4 0.0003951239935792266 -0.0009624955898905005 -0.010864359731584889 -0.009868067529038536 0.004638462776307226 0.007786145440354045 -0.007629825003352236 -0.0012452182448572766 0.010827855099965797 -0.0024890810402209136 0.010609548109930502 0.003947431157653317 -0.010156326265445994 0.010013649696098583 0.00429477938305869 -0.007704328758465352 
4 0.0020720897605535065 -0.0026474347428701943 -0.014483236526935724 -0.01282318539111728 0.007320768441535327 0.011234232982165509 -0.00963765421360019 -0.0009112568679730671 0.014803211716206533 -0.0028147576656279223 0.014585024667356858 0.005017327794267653 -0.013998530654986968 0.013752269322243311 0.005683289364051312 -0.010524308803170642 
5 0.008814268112861219 -0.00856213276299545 -0.01197760132755167 -0.009227741642998612 0.011527207741670077 0.013662589421178277 -0.005694384931387463 0.0027987809935982057 0.01456476196661318 -3.1939473400602925e-05 0.014854116773934334 0.0032232835538694355 -0.014516985975920972 0.014081989051948149 0.004808562555263466 -0.010524308803170497 
5 0.00616280194152079 -0.006214510015604002 -0.013347393613694155 -0.010933446187459749 0.009924086286176161 0.01279119215874616 -0.0074483402578383135 0.0012415674087422803 0.014779173744286033 -0.0012128100804606836 0.014804556628699173 0.00398906393024556 -0.014325495023005362 0.01394935849580056 0.005180741941334223 -0.010524308803170544 
5 0.005598963669981473 -0.00549671143743448 -0.009420555902462623 -0.007467565114985022 0.007945411565067957 0.009762809948013316 -0.004850343525885597 0.0014866806391481537 0.01079735130577615 -0.00045696149983870973 0.010888031121804793 0.0026433792719532433 -0.010570984910556134 0.010263561474550785 0.0036575423501918436 -0.007704328758465219 
6 0.01337591429344221 -0.012847063958657812 -0.007192078882707504 -0.004336289003906633 0.014114684970772307 0.014753556414788224 -0.0011937095769778293 0.0063329611521450654 0.013411154657210095 0.0027520101905949192 0.014596994388384917 0.0013784062063303324 -0.014806499755987532 0.014356133604313703 0.003914858546893111 -0.01052430880317053 
6 0.011816153229479473 -0.011306100577018433 -0.009431073149714931 -0.006512361349922241 0.01325205205987318 0.014466810373318163 -0.0031310967824327977 0.004877992336369083 0.014006093565321124 0.0015827694033544923 0.014769585176282542 0.0021621483560385225 -0.014712496497202658 0.014247134101281596 0.004294631463487763 -0.010524308803170502 
6 0.009417694537076037 -0.008984650826489837 -0.006183587928048264 -0.004018265372466423 0.01013645091150221 0.010783822596464378 -0.0015960766297748207 0.004125165910966852 0.010088410219164306 0.001591346129489909 0.010780800203041601 0.0012976397160561557 -0.010818932808826407 0.01047296766483808 0.0030058706686408206 -0.0077043287584652115 
7 0.014546346073308633 -0.014245621304372095 -0.0037195866256017006 -0.0011766347140706346 0.014718806503897851 0.014726316392355108 0.0014926402616712374 0.008207915065500808 0.012352959016838316 0.0043222784919776346 0.014211393805728447 0.0003011344106518235 -0.014867473112819522 0.014488682777361215 0.0033915720372852455 -0.010524308803170592 
7 0.010906613596923149 -0.01076239881210403 -0.0017695993747380292 -4.612199771575432e-06 0.010903855850682577 0.010749239553863562 0.0018144253673780385 0.006504451837300428 0.008745577215905046 0.0035832795288273304 0.010291654062397298 -6.856439333560545e-05 -0.010896259673784195 0.01064104183639599 0.002342336188812265 -0.007704328758465282 
7 0.014628537981213897 -0.014686609266114294 -0.0010375737455348847 0.001164182539302223 0.014719796641418639 0.014400342512446903 0.0034238143878899995 0.009469218070500635 0.011414875177917986 0.005438468521594096 0.013822766199403144 -0.0004882094305026722 -0.014862506189927804 0.014573621056036474 0.003005704380366778 -0.010524308803170577 
8 0.013677967239060777 -0.01447354649374599 0.002699907944044684 0.004324346770676758 0.014118348315453309 0.013544307958628888 0.00597026727712655 0.01102210430446691 0.009923642622322374 0.0069086687101822634 0.013149756724620891 -0.0015646286042798848 -0.014787980796049153 0.014673051241767954 0.0024751276257133415 -0.010524308803170594 
8 0.009697382166205849 -0.010491568362750026 0.002981225155468566 0.004009688742674745 0.010139846639457105 0.009662446049374836 0.005047318767726976 0.008475039132995802 0.0068532274321874784 0.005448273464438382 0.009437920945764391 -0.0014336872012861192 -0.010801746014576296 0.010767120677255115 0.00166955757815801 -0.007704328758465281 
8 0.012262256810983953 -0.013730618787298959 0.005314429294930831 0.006501148104556378 0.013257556617723381 0.012637522751901404 0.0077061915453534805 0.012010489192138485 0.008701357110223134 0.007932266393907277 0.012558859626569446 -0.0023471257129744705 -0.014684122022821926 0.014733593083505109 0.0020846880718267853 -0.01052430880317058 
9 0.00608914794544568 -0.0082237109427217 0.007164585715058567 0.007460840817111196 0.007951726101077779 0.0076298250033530616 0.0077861454403529975 0.009913108550951332 0.004530264164498248 0.007120259596375109 0.008249844774421965 -0.0027761999056291117 -0.010536882368068176 0.010850706611830588 0.0009901899864910469 -0.007704328758465226 
9 0.009425842048711485 -0.01194649152096012 0.008605486119481039 0.009217986602474741 0.011535010062679023 0.011036488293169631 0.009863482934198522 0.013143734193519182 0.006870787265241465 0.009250315895062809 0.011622282955829524 -0.0034057164914582765 -0.014475273188213478 0.014799511876402821 0.0015489150161809692 -0.010524308803170533 
9 0.006862457130543277 -0.01016106138557829 0.010654852534477786 0.010925046738484795 0.009933332165564024 0.009637654213601299 0.011234232982163962 0.013797097106344794 0.00544110077394017 0.01014505977464338 0.010850049190337793 -0.0041690264208477336 -0.014274160479546808 0.014835418350211411 0.0011554444518706566 -0.010524308803170483 
10 0.002841889465587653 -0.007145470926695343 0.012873045337010117 0.01281698760975118 0.007331613926073256 0.0074483402578393925 0.012791192158744396 0.014439494923919601 0.0033862150752975964 0.011264266027684001 0.009683084019124539 -0.005193094195089965 -0.013934281875090654 0.014867565598915238 0.0006165895467117218 -0.010524308803170441 
10 0.0009745398745329893 -0.004390503902520854 0.009984196793924824 0.009864139970735859 0.004646809262554836 0.004850343525886388 0.009762809948011961 0.0107283009007876 0.0019226477382075617 0.008540006982357365 0.0067695137390464555 -0.004074930279038914 -0.010105845792187226 0.01089146976462538 0.0003069145673222293 -0.007704328758465143 
10 -0.00023502276096450074 -0.004657387659579249 0.013967168331532748 0.013814555024790271 0.005214000730394298 0.005694384931388506 0.013662589421176353 0.014716782667185742 0.001838960065061816 0.011998459355118035 0.008756870352326513 -0.005925179091608574 -0.013639086898539163 0.014878694998347285 0.00022164082053543032 -0.010524308803170382 
11 -0.004381156341400954 0.00027841753280474036 0.010903356997517034 0.010882049979490105 0.0006892618723846763 0.0015960766297754526 0.010783822596462765 0.010869394649096633 -0.0008057757164783835 0.009657220363432145 0.005049369304574146 -0.005309396567702908 -0.009515433991223909 0.010889249262098381 -0.00037757210342780827 -0.007704328758465011 
11 -0.007274361161334432 0.0017328006891609326 0.014620890970957541 0.014763850111634039 -0.00023762161251440582 0.0011937095769785858 0.014753556414785938 0.014711758648506832 -0.0018787292679262996 0.013426807531194223 0.006353475016411026 -0.007587888148564315 -0.012788916769546039 0.014863252234753732 -0.0007130375258602678 -0.010524308803170183 
11 -0.004445108603429997 -0.0009843392732066176 0.014690273217615929 0.014615880796460763 0.002098514401468516 0.003131096782433716 0.014466810373316027 0.014827969083502575 -0.0003111254614550078 0.012879173920557747 0.007400857003612045 -0.006898573701060961 -0.013173538612861187 0.014876943832353273 -0.0003181693200053273 -0.01052430880317027 
12 -0.012514119796493594 0.007793157539748498 0.012491587031824666 0.013639606325161716 -0.00565587070610374 -0.0034238143878896955 0.01440034251244421 0.013782340727878607 -0.005478371131527604 0.014379504356642037 0.0037250046605611137 -0.009130931676632504 -0.011737057783368785 0.014789151004963584 -0.0016449018388970732 -0.010524308803169978 
12 -0.010632446191000065 0.005364157320291259 0.01371126789382202 0.014362016960438607 -0.0034293152345066186 -0.0014926402616707033 0.01472631639235258 0.0142847474121134 -0.003988916841224895 0.01403783065647859 0.004856450939103985 -0.008495258578758047 -0.012205040777216515 0.014827609565114051 -0.0012516725177738938 -0.010524308803170061 
12 -0.008653013011105458 0.00489434333364606 0.009747107954171583 0.010371608407645444 -0.0033650902994296367 -0.0018144253673777221 0.010749239553861657 0.010327524356765656 -0.0034835693194621535 0.010432321898596345 0.0031503484451615065 -0.006460130500814444 -0.008774958111974337 0.010844053867558575 -0.0010605686695817707 -0.00770432875846484 
13 -0.014189458641330715 0.010691608587373051 0.010122379010262174 0.012091050523027402 -0.0084755077369537 -0.005970267277126622 0.013544307958626023 0.012843962525194971 -0.007416069905650595 0.014699190242936767 0.002140002678930373 -0.009957968153846626 -0.011044062157577377 0.014719757497011687 -0.0021802359359493735 -0.010524308803169867 
13 -0.010784229866875505 0.008578650971874708 0.00673553692296541 0.00840450525704915 -0.006946825538985311 -0.005047318767727111 0.009662446049372659 0.009136737727121287 -0.005942477450432264 0.01083785322954566 0.0011397249214960398 -0.007508984316833211 -0.00789609590139318 0.010756061946580426 -0.00173937965572448 -0.0077043287584647084 
13 -0.014658052383738686 0.012370118843027125 0.00798456077829988 0.010599720364182011 -0.010279769567004434 -0.007706191545353863 0.012637522751898384 0.011986927651414105 -0.008733786788895288 0.01482280007145999 0.0009645741575372 -0.010529974957606 -0.010500098384569511 0.014656683752677164 -0.0025702744758596932 -0.010524308803169806 
14 -0.014236188596208522 0.013983956048175188 0.00460673683377685 0.008121931971556794 -0.01233134036506036 -0.009863482934199383 0.011036488293166525 0.01059614423602848 -0.010377244023506964 0.014839823686866068 -0.0006522562430269769 -0.011263634622547184 -0.00970891208031047 0.014553813270886104 -0.0031001949589404944 -0.010524308803169779 
14 -0.01024757233183772 0.01063004761238636 0.002441884087394079 0.00525701431941151 -0.009552899776003385 -0.007786145440353766 0.007629825003350766 0.0073718562635109374 -0.00802799786828841 0.01085944820670655 -0.0009112739257149465 -0.008439416964525737 -0.006892707541548137 0.010625620763076382 -0.0024113261050128423 -0.0077043287584646555 
14 -0.013175778644112752 0.01459247880303293 0.0019577061567050314 0.006071135178052818 -0.013459905341396997 -0.011234232982165252 0.009637654213598178 0.009438331825774988 -0.011440426501695694 0.014740990703948818 -0.0018300268658989133 -0.011762954243195909 -0.009097546161791013 0.014466373265620744 -0.0034855034137126007 -0.010524308803169721 
15 -0.00843399329749204 0.0140372203240153 -0.004441789795567981 0.000689877098222843 -0.014749637410420787 -0.013662589421178744 0.00569438493138557 0.006296690899765861 -0.013428222142448992 0.01413697439173813 -0.004559798275264325 -0.012810424713522261 -0.007551520201430537 0.014218970612342133 -0.004386976661966427 -0.010524308803169692 
15 -0.007175802310368802 0.010658058325503424 -0.002316571360444572 0.0013711913432840712 -0.010817297628564884 -0.009762809948013521 0.004850343525884202 0.005143773959073224 -0.00960908965516907 0.010496341817247054 -0.0029299904397987082 -0.009236754965224282 -0.005780617066269062 0.010453245108804765 -0.003073756151794693 -0.007704328758464615 
15 -0.010761075689113078 0.014614514878396581 -0.0017857787886763625 0.003012112211247567 -0.014455272884881827 -0.0127911921587463 0.007448340257836358 0.007682531234619611 -0.012686377734532487 0.01445474897840349 -0.0034214086623976982 -0.012391666844680956 -0.008220646659714247 0.01433043179278507 -0.004007918928772826 -0.010524308803169711 
16 -0.004623816425446456 0.012463260793105651 -0.007838378749205701 -0.002520749757807237 -0.014549005285861982 -0.0144668103733191 0.003131096782431015 0.00428619654136592 -0.01419837967526365 0.01355760758107251 -0.006069355974185108 -0.013324275078251072 -0.006602736730518177 0.01405049464734935 -0.004899825473637108 -0.010524308803169671 
16 -0.0023288346666631033 0.008657351386966076 -0.00663407695919068 -0.0027072113821334843 -0.010562438175785394 -0.0107838225964652 0.001596076629773559 0.002592489419309445 -0.010586406999255697 0.009761397286037822 -0.004844910581827603 -0.00988842382235127 -0.0045773628066817385 0.010239615271722069 -0.003724055487310909 -0.007704328758464589 
16 -0.0016057506879622895 0.010810034578156926 -0.009995809293500005 -0.0047882721698920975 -0.013967826737776879 -0.014753556414789516 0.0011937095769761243 0.0027594057269150025 -0.01457227320044568 0.013032148713815807 -0.007128036557474873 -0.013655867133539553 -0.00588640225643408 0.01391545217808625 -0.005271136517554338 -0.010524308803169643 
17 0.002657313247282454 0.007939676176685697 -0.01239897549083589 -0.0076995799144830394 -0.012599373130834896 -0.01472631639235681 -0.0014926402616727986 0.0006205443558897348 -0.01481824520301016 0.01218018117613692 -0.008502293324754514 -0.014046751534301054 -0.004880697698798203 0.013715106618600878 -0.005772394645874158 -0.010524308803169622 
17 0.003094255560139537 0.0050087531497589 -0.009688813241189965 -0.006405394314157684 -0.008824115670422438 -0.010749239553864916 -0.0018144253673791492 -0.00012169076517887185 -0.010898541457497555 0.008680650389498187 -0.006588197351100942 -0.010384146328741703 -0.0033019208012491433 0.009985574351197032 -0.00435965767717774 -0.007704328758464554 
17 0.005619733188799188 0.005525203124803751 -0.013647167524532157 -0.009593922841420575 -0.011224276309071572 -0.014400342512448849 -0.0034238143878914744 -0.0009512630561425738 -0.01480069474018632 0.011465652670625126 -0.009443760591006989 -0.014285948371241322 -0.004128452231487547 0.013557015811448764 -0.006134493605460534 -0.010524308803169584 
18 0.011454970154779984 -0.0008113280627723763 -0.014700843437964798 -0.01305213556086611 -0.006904309628797842 -0.012637522751903708 -0.0077061915453547495 -0.004602160482882184 -0.014099134196253414 0.00949298016546123 -0.011424934697485631 -0.01469073166911677 -0.0023053940486328535 0.013145076097014758 -0.0069736406496894695 -0.010524308803169416 
18 0.007751868300889281 0.0004067593110864665 -0.01089932369464859 -0.009203958650158838 -0.0058464723424483216 -0.009662446049376503 -0.0050473187677279215 -0.00282822467134388 -0.0105258804739331 0.0072923871252364965 -0.008098093944714436 -0.010716104644339572 -0.0019744055323091003 0.009692124930682736 -0.004978054289930818 -0.007704328758464452 
18 0.009281059124571642 0.0019048067918648595 -0.014599478144737204 -0.011797026953600513 -0.008880196462103154 -0.013544307958631116 -0.005970267277127906 -0.00308409891366976 -0.014507025886957802 0.010371265780697352 -0.010634032695539026 -0.014547702327532492 -0.00308168714878088 0.01332559132986486 -0.006622182813600113 -0.01052430880316951 
19 0.013608794970205774 -0.004492634746684935 -0.014021030063653305 -0.014237616615212443 -0.003913822590228322 -0.011036488293172043 -0.009863482934199677 -0.006594956905961239 -0.013284276781318738 0.008194943124458754 -0.012389056156565608 -0.014819227164682668 -0.001234076551516864 0.012883486020033334 -0.007445836251148316 -0.01052430880316927 
19 0.010491772389639428 -0.004272659492731869 -0.01003519262381384 -0.010709854345853339 -0.002047709348386578 -0.007629825003354827 -0.00778614544035381 -0.005357050819925767 -0.009491839708710917 0.0056457874114976625 -0.009321111523091497 -0.010879063588205605 -0.000615752708672056 0.009360425120977635 -0.005576804796658228 -0.007704328758464253 
19 0.014456400543874247 -0.0069934262840462506 -0.012956274148943946 -0.014677214628817931 -0.0016146531792247194 -0.009637654213603694 -0.011234232982165073 -0.007963887240920212 -0.012511673197781433 0.0071840141052807735 -0.013001374796488989 -0.014863833352752555 -0.0004459784244557931 0.012681258772639698 -0.00778526592022747 -0.010524308803169116 
20 0.014569896754905495 -0.010034921703163509 -0.010773736465328376 -0.01467857533423241 0.0016022360334379039 -0.007448340257841745 -0.012791192158745458 -0.009691429501296495 -0.011226827709356879 0.005728310522507873 -0.013705191126773323 -0.014857043936868626 0.0006329961701659658 0.012390535476785482 -0.008240104374692352 -0.01052430880316888 
20 0.01063615216019226 -0.008138795101085521 -0.007260903830819737 -0.010711582825966324 0.002038648338321418 -0.004850343525888093 -0.009762809948012702 -0.007549273763637103 -0.007861391746045832 0.0037991828640408965 -0.010213924078791644 -0.010870453200448098 0.0007526109030134339 0.008991783989691372 -0.006153546202653056 -0.007704328758463949 
20 0.0138815105771934 -0.011844354519691524 -0.008745531260296356 -0.014240922519553943 0.0039017765109819807 -0.005694384931390771 -0.013662589421177396 -0.010825213674482935 -0.010138057757577576 0.004620550763883596 -0.01411723471158722 -0.014802523505191819 0.0014204705458893045 0.012167394313404967 -0.008566166302928125 -0.010524308803168675 
21 0.011926600737540382 -0.013667102506116533 -0.005475706356284089 -0.013057971769004804 0.006893265367695064 -0.003131096782435862 -0.014466810373317072 -0.012178953938480936 -0.008463955763032036 0.0030587496644901985 -0.014535812868693057 -0.014660556251002307 0.0024900861641115137 0.011848685150707835 -0.009001852570815167 -0.010524308803168349 
21 0.008149289986239414 -0.010455744471148299 -0.003104531799145802 -0.00920890133060254 0.005838683924319338 -0.0015960766297769874 -0.01078382259646353 -0.009267148072492423 -0.005736983627800278 0.001817990369570892 -0.010744903281924022 -0.01069040927202555 0.002109105391170342 0.008587656394953059 -0.006706002373073959 -0.0077043287584635575 
21 0.009872520351913964 -0.014440758492783853 -0.0028701123960627422 -0.011804535163257584 0.00887021328542894 -0.0011937095769806324 -0.014753556414787 -0.013006352120526971 -0.007127430863296809 0.0018934021081342637 -0.014732984548984113 -0.01450776901935526 0.0032645178471776295 0.011605510707568791 -0.009313259940740346 -0.010524308803168096 
22 0.003421200489309031 -0.01428842336510696 0.003551620581145084 -0.007710235923722012 0.012592854964228836 0.00342381438788791 -0.014400342512445364 -0.014370253628821246 -0.0036689612750179738 -0.0009008212612374842 -0.014826811063712305 -0.013984218349562327 0.005057081751887411 0.01099782545302331 -0.010023598396390363 -0.010524308803167461 
22 0.006332823038139914 -0.014697806449557189 0.0008646019802764407 -0.009603414874194218 0.011216156066303452 0.0014926402616688111 -0.014726316392353698 -0.013901229908651246 -0.005169262347864042 0.00028083107469077363 -0.01485149619301691 -0.01423286283526587 0.004307906011743537 0.011260073477489628 -0.009728074567396366 -0.010524308803167733 
22 0.0036464023449200877 -0.010782485801248473 0.0016427751166035052 -0.006412857010152287 0.008818693704410274 0.0018144253673763886 -0.01074923955386247 -0.010402733385766525 -0.0032520997290701355 -0.0002276053400869399 -0.010895238929501838 -0.010341771203242178 0.003432338027389904 0.008149637243750863 -0.007231993015809491 -0.007704328758463077 
23 -0.001758556520277228 -0.009056825220452402 0.006077386532387475 -0.002716145980203959 0.01056014416090361 0.005047318767725967 -0.009662446049373545 -0.010884676701835698 -0.0005628744439763278 -0.00226513801710132 -0.010659605306260908 -0.009830037224708993 0.0047014406425381055 0.007679455197562638 -0.007729442286095085 -0.007704328758462638 
23 -0.0038764786668122426 -0.011416345502888833 0.009297317159892973 -0.002533056961797702 0.014546867586453394 0.0077061915453523425 -0.012637522751899612 -0.014831219251520695 2.0042643665974848e-05 -0.0036631325883321997 -0.014395390404710997 -0.01324012820262963 0.0067698924564156176 0.010346736805843245 -0.010694378288516519 -0.010524308803166873 
23 -0.0008276104738249859 -0.01293084326882124 0.007040336879023668 -0.004800086899505792 0.013963770977308667 0.005970267277124984 -0.013544307958627204 -0.014750040478513604 -0.001549765168162636 -0.002507036095935948 -0.01464105786059907 -0.013580708670317137 0.006057787608151929 0.010627023438493942 -0.010415904297994738 -0.010524308803167105 
24 -0.01021516879085919 -0.006371213137518308 0.013273307582110257 0.00299988232273185 0.014457815886200067 0.011234232982163934 -0.0096376542135995 -0.014360284823238173 0.003707787209336743 -0.006295675617257624 -0.0134540058639069 -0.012287233324672188 0.008375937912768378 0.009654814315464935 -0.011322952355334748 -0.010524308803166318 
24 -0.006728471996827291 -0.005607235136595288 0.009355192368990147 0.0013620396808851345 0.010818453752386461 0.0077861454403527815 -0.007629825003351723 -0.010682695749687828 0.002161718312539951 -0.004222427050592092 -0.010046349850777939 -0.009163277686962502 0.005896398730248935 0.007178965850119026 -0.008196386978923859 -0.007704328758462233 
24 -0.007783304211514064 -0.008702547152098028 0.011875972552953088 0.000677399015432664 0.01475021575175754 0.009863482934197997 -0.011036488293167829 -0.014672051758256666 0.0021671094566920552 -0.005206090262999896 -0.013911952754277906 -0.012714378616915318 0.007712134275232793 0.009952033393011758 -0.011062627212903133 -0.010524308803166552 
25 -0.012813512472901592 -0.0028177569083376736 0.014451065601488079 0.006059746251732004 0.013465036558216823 0.012791192158745014 -0.0074483402578376995 -0.013672164065996535 0.005747816624311768 -0.007720716087039259 -0.012690009785934825 -0.011647535217523047 0.009244855977787531 0.009237767218378969 -0.011665690992235913 -0.010524308803166068 
25 -0.010033853394338408 -0.0010903308618064834 0.010852275740584408 0.005248930916471372 0.00955734366437343 0.009762809948012593 -0.004850343525885174 -0.009809481735380278 0.004750482357235548 -0.006030134500755874 -0.009077197443297417 -0.008352007786215794 0.006998367087645855 0.006650144404222522 -0.008630984276919907 -0.0077043287584618895 
25 -0.014026762631598712 -0.00011334650481817214 0.0147227783920984 0.008111497050013428 0.012338206910127634 0.013662589421177452 -0.005694384931386922 -0.012987040886078216 0.007162557868357447 -0.008705191198779152 -0.012036006457978338 -0.011140561437147223 0.009849889824694012 0.008924788683848656 -0.011906839902171399 -0.01052430880316587 
26 -0.014673828938143969 0.0036033817962240725 0.01427545763342193 0.010591020135187028 0.010288732995153971 0.014466810373317745 -0.003131096782432383 -0.011813204022767587 0.008967367334435197 -0.009961831694589274 -0.011018516894414052 -0.010397003229850146 0.010631780778963262 0.00848704379686971 -0.012222715618769642 -0.01052430880316571 
26 -0.010856993515251795 0.0036341134167930276 0.010283672972812748 0.008398625403488706 0.006953933060988584 0.010783822596464179 -0.0015960766297745377 -0.008319901906888418 0.0070407561243741035 -0.007624221429951332 -0.007786480791018121 -0.007409021733432852 0.007989967015448756 0.0060950778765246115 -0.009031519023096615 -0.007704328758461643 
26 -0.014368322796059995 0.006166095169794283 0.013369828771155255 0.01208387612217687 0.008485733439921315 0.014753556414788059 -0.0011937095769774698 -0.010797773407050482 0.010167278674464172 -0.010806321042175129 -0.010191625522813495 -0.009818196240709624 0.011168503090045216 0.00815954098864541 -0.012443736591631947 -0.010524308803165601 
27 -0.011155351862829122 0.011271845940237925 0.009471987125861137 0.014359110703559658 0.003441463925781408 0.014400342512447165 0.003423814387890188 -0.007930042113424907 0.01253315196881915 -0.012524631575240487 -0.00798620117254316 -0.008340992224449843 0.012310982389926046 0.00736209131289973 -0.01293152353776785 -0.010524308803165431 
27 -0.008994258490877687 0.007666819124294512 0.0077576152684448105 0.010368757911423635 0.003373863224722867 0.010749239553863709 0.0018144253673781988 -0.006307552043127841 0.00888863329012865 -0.008948216513991468 -0.0062199241748243745 -0.006349190981978615 0.008855560390443057 0.005515956861024321 -0.00939641048979778 -0.007704328758461521 
27 -0.012904036167731467 0.009338631567511822 0.011382574904617287 0.013634816714799755 0.005667407458736839 0.014726316392355212 0.0014926402616714783 -0.009211976924862685 0.01162346537526611 -0.01185004444796083 -0.008956687548708233 -0.00898250429037381 0.011851036046136729 0.007702825890855742 -0.012731502770783755 -0.010524308803165499 
28 -0.007941957248477474 0.013296311154371541 0.006323065767415097 0.01476364380644674 0.0002501113870085682 0.013544307958629346 0.005970267277126693 -0.0060319274374873175 0.013549218338453793 -0.013318463469011221 -0.006577563081298804 -0.007426345892350279 0.012883393395396863 0.006888208450137076 -0.013190044497831949 -0.01052430880316539 
28 -0.004906464079942985 0.010240177283257922 0.0037549273422118478 0.010882629184330217 -0.0006800556750876289 0.009662446049375181 0.0050473187677270645 -0.0038988754869437553 0.01017800493615793 -0.009955216566956197 -0.004433023643840086 -0.0051892296959156715 0.009581496288024719 0.0049150668837945975 -0.009724218617107311 -0.007704328758461434 
28 -0.0051826959152138745 0.014232047106118714 0.003771191613022713 0.014617650858695215 -0.002086148969472708 0.012637522751901923 0.007706191545353613 -0.004564037109157943 0.01411152123126466 -0.013799250790690363 -0.00549786166427371 -0.00673224577814321 0.01325931014329333 0.006535586826161684 -0.013368275668351302 -0.010524308803165319 
29 -0.0010151442111956954 0.014723092493450182 5.998701714060813e-05 0.013818960999727981 -0.005202312085749795 0.011036488293170296 0.009863482934198652 -0.0024728697653371573 0.014623624082897153 -0.014315069281850258 -0.003965425162538769 -0.005753069583320296 0.013712571934645415 0.00604640639758885 -0.013596531145205211 -0.010524308803165253 
29 0.00039512399357910554 0.010864359731584939 -0.0009624955898896872 0.009868067529039277 -0.004638462776305462 0.007629825003353588 0.007786145440353096 -0.0012452182448538717 0.010827855099964756 -0.0106095481099368 -0.002489081040221487 -0.003947431157652565 0.010156326265435807 0.0042947793830550186 -0.010013649696107923 -0.007704328758461366 
29 0.0020720897605532545 0.014483236526935861 -0.0026474347428694367 0.012823185391118354 -0.007320768441532789 0.00963765421360206 0.01123423298216414 -0.0009112568679681006 0.014803211716205196 -0.014585024667365432 -0.002814757665628931 -0.005017327794266552 0.013998530654972976 0.00568328936404642 -0.01375226932225584 -0.010524308803165202 
30 0.008814268112860627 0.011977601327552342 -0.008562132762996293 0.009227741642999958 -0.011527207741667156 0.005694384931389511 0.013662589421176652 0.0027987809936047166 0.014564761966612284 -0.01485411677394285 -3.193947340250142e-05 -0.0032232835538679575 0.014516985975906808 0.004808562555259153 -0.0140819890519595 -0.010524308803165084 
30 0.005598963669981047 0.009420555902463048 -0.005496711437434871 0.007467565114985973 -0.00794541156506581 0.004850343525887099 0.009762809948012149 0.0014866806391526945 0.010797351305775395 -0.010888031121811047 -0.00045696149983999874 -0.0026433792719522168 0.010570984910545755 0.0036575423501885754 -0.010263561474559268 -0.007704328758461265 
30 0.006162801941520291 0.013347393613694625 -0.0062145100156041615 0.010933446187461018 -0.009924086286173323 0.007448340257840308 0.01279119215874462 0.0012415674087481528 0.014779173744284923 -0.014804556628707723 -0.0012128100804622418 -0.003989063930244228 0.014325495022991228 0.005180741941329663 -0.013949358495812416 -0.010524308803165152 
31 0.011816153229478859 0.009431073149715901 -0.011306100577020113 0.006512361349923643 -0.01325205205987022 0.0031310967824348785 0.014466810373316414 0.00487799233637645 0.014006093565320505 -0.014769585176290958 0.0015827694033522183 -0.002162148356036837 0.014712496497188546 0.004294631463483832 -0.014247134101292242 -0.010524308803165017 
31 0.009417694537075565 0.006183587928049047 -0.008984650826491304 0.004018265372467455 -0.010136450911500065 0.001596076629776345 0.010783822596463075 0.004125165910972457 0.010088410219163941 -0.01078080020304773 0.0015913461294881377 -0.0012976397160548879 0.010818932808816108 0.003005870668638054 -0.010472967664845676 -0.0077043287584611575 
31 0.013375914293441628 0.007192078882708662 -0.012847063958660029 0.004336289003908017 -0.014114684970769486 0.0011937095769798676 0.014753556414786376 0.006332961152152957 0.013411154657209698 -0.014596994388393217 0.0027520101905924303 -0.001378406206328514 0.014806499755973543 0.003914858546889458 -0.014356133604323819 -0.010524308803164946 
32 0.014546346073308139 0.0037195866256030893 -0.014245621304374824 0.0011766347140719573 -0.014718806503895367 -0.0014926402616692697 0.014726316392353092 0.00820791506550933 0.012352959016838218 -0.014211393805736609 0.004322278491974961 -0.0003011344106498407 0.014867473112805852 0.003391572037281987 -0.014488682777370612 -0.010524308803164892 
32 0.0109066135969228 0.001769599374739112 -0.010762398812106154 4.612199772515124e-06 -0.010903855850680856 -0.0018144253673766269 0.01074923955386205 0.006504451837306839 0.008745577215905062 -0.010291654062403238 0.003583279528825318 6.856439333709566e-05 0.010896259673774283 0.0023423361888099885 -0.010641041836402682 -0.007704328758461082 
32 0.014628537981213507 0.0010375737455364405 -0.014686609266117256 -0.0011641825393009803 -0.014719796641416488 -0.003423814387888118 0.014400342512444746 0.009469218070509515 0.011414875177918124 -0.01382276619941117 0.005438468521591331 0.00048820943050474684 0.014862506189914436 0.0030057043803638213 -0.014573621056045387 -0.010524308803164836 
33 0.012262256810983833 -0.005314429294928916 -0.013730618787301946 -0.00650114810455545 -0.013257556617722382 -0.0077061915453518585 0.012637522751898833 0.012010489192147845 0.008701357110223759 -0.012558859626577075 0.007932266393904484 0.002347125712976811 0.01468412202280955 0.0020846880718244213 -0.01473359308351279 -0.010524308803164845 
33 0.009697382166205724 -0.002981225155467212 -0.01049156836275228 -0.0040096887426740195 -0.010139846639456157 -0.0050473187677257435 0.009662446049373026 0.008475039133002637 0.0068532274321878636 -0.00943792094577006 0.005448273464436314 0.0014336872012877936 0.01080174601456705 0.0016695575781562014 -0.010767120677260935 -0.007704328758461059 
33 0.013677967239060545 -0.0026999079440429025 -0.014473546493749042 -0.0043243467706756845 -0.014118348315451777 -0.0059702672771248235 0.013544307958626529 0.01102210430447615 0.009923642622322792 -0.013149756724628722 0.006908668710179471 0.0015646286042821165 0.014787980796036332 0.0024751276257107546 -0.014673051241776163 -0.010524308803164852 
34 0.009425842048711492 -0.008605486119478938 -0.011946491520962837 -0.00921798660247402 -0.01153501006267878 -0.009863482934197077 0.011036488293166828 0.013143734193528503 0.006870787265242361 -0.01162228295583682 0.009250315895060078 0.0034057164914607675 0.014475273188201809 0.0015489150161789424 -0.014799511876409814 -0.01052430880316488 
34 0.006089147945445721 -0.007164585715056997 -0.008223710942723606 -0.007460840817110744 -0.007951726101077822 -0.007786145440351994 0.0076298250033509435 0.009913108550958147 0.0045302641644989795 -0.00824984477442723 0.0071202595963731335 0.0027761999056309656 0.010536882368059825 0.0009901899864896493 -0.010850706611835502 -0.0077043287584611046 
34 0.006862457130543333 -0.010654852534475607 -0.010161061385580676 -0.010925046738484247 -0.009933332165564373 -0.011234232982162686 0.00963765421359831 0.01379709710635396 0.005441100773941246 -0.010850049190344786 0.010145059774640731 0.004169026420850308 0.014274160479535688 0.0011554444518688623 -0.01483541835021789 -0.01052430880316491 
35 0.0028418894655877322 -0.012873045337007854 -0.007145470926697148 -0.012816987609750875 -0.007331613926074363 -0.012791192158743305 0.007448340257836203 0.014439494923928362 0.003386215075298943 -0.009683084019131082 0.011264266027681482 0.005193094195092683 0.01393428187508032 0.000616589546710207 -0.014867565598921058 -0.010524308803164954 
35 0.0009745398745330422 -0.009984196793923124 -0.004390503902522015 -0.009864139970735705 -0.0046468092625558495 -0.009762809948011215 0.004850343525884004 0.010728300900793868 0.001922647738208604 -0.00676951373905112 0.008540006982355568 0.004074930279040935 0.01010584579217989 0.0003069145673211906 -0.01089146976462947 -0.007704328758461152 
35 -0.00023502276096445672 -0.013967168331530421 -0.00465738765958057 -0.013814555024790114 -0.005214000730395939 -0.013662589421175438 0.0056943849313851646 0.014716782667194034 0.0018389600650633425 -0.008756870352332649 0.011998459355115646 0.00592517909161138 0.01363908689852944 0.0002216408205341165 -0.014878694998352633 -0.010524308803164975 
36 -0.004381156341400948 -0.010903356997515313 0.0002784175328044475 -0.01088204997949021 -0.0006892618723864992 -0.010783822596462364 0.0015960766297728364 0.010869394649101938 -0.0008057757164769904 -0.005049369304578047 0.009657220363430585 0.005309396567705124 0.009515433991217688 -0.00037757210342853853 -0.010889249262101698 -0.007704328758461188 
36 -0.007274361161334462 -0.014620890970955227 0.0017328006891607665 -0.014763850111634239 0.0002376216125117634 -0.014753556414785488 0.001193709576974973 0.014711758648513705 -0.001878729267924288 -0.006353475016416091 0.013426807531192195 0.007587888148567391 0.012788916769537882 -0.0007130375258612065 -0.014863252234758071 -0.010524308803165043 
36 -0.004445108603429992 -0.014690273217613554 -0.0009843392732072564 -0.014615880796460819 -0.0020985144014707877 -0.014466810373315384 0.003131096782430193 0.014827969083510096 -0.00031112546145320555 -0.007400857003617604 0.012879173920555561 0.006898573701063936 0.013173538612852365 -0.0003181693200064196 -0.014876943832358018 -0.010524308803165017 
37 -0.010632446191000162 -0.013711267893819809 0.005364157320291658 -0.014362016960438958 0.0034293152345036123 -0.014726316392352414 -0.0014926402616744897 0.014284747412119292 -0.003988916841222601 -0.004856450939108361 0.014037830656476801 0.008495258578761291 0.012205040777209313 -0.001251672517774664 -0.014827609565117871 -0.010524308803165093 
37 -0.00865301301110555 -0.00974710795416998 0.0048943433336464965 -0.010371608407645762 0.0033650902994273473 -0.010749239553861565 -0.0018144253673805439 0.010327524356769683 -0.003483569319460385 -0.0031503484451645154 0.01043232189859509 0.006460130500816847 0.008774958111969303 -0.0010605686695822852 -0.010844053867561241 -0.007704328758461263 
37 -0.012514119796493717 -0.012491587031822618 0.007793157539749243 -0.013639606325162193 0.005655870706100594 -0.01440034251244422 -0.00342381438789358 0.013782340727883717 -0.005478371131525103 -0.0037250046605649518 0.014379504356640397 0.009130931676635838 0.011737057783362231 -0.0016449018388977473 -0.014789151004967053 -0.010524308803165136 
38 -0.014189458641330891 -0.0101223790102605 0.010691608587374116 -0.012091050523028004 0.008475507736950534 -0.01354430795862627 -0.005970267277130605 0.012843962525198994 -0.007416069905647824 -0.002140002678933479 0.01469919024293539 0.009957968153850102 0.011044062157571746 -0.002180235935949986 -0.014719757497014731 -0.010524308803165227 
38 -0.010784229866875638 -0.006735536922964272 0.008578650971875575 -0.008404505257049633 0.006946825538983001 -0.0096624460493729 -0.005047318767730057 0.00913673772712394 -0.005942477450430186 -0.0011397249214981353 0.010837853229544706 0.007508984316835805 0.007896095901389321 -0.0017393796557249124 -0.010756061946582535 -0.007704328758461364 
38 -0.01465805238373888 -0.007984560778298554 0.01237011884302835 -0.010599720364182708 0.010279769567001393 -0.012637522751898791 -0.0077061915453578815 0.011986927651417338 -0.008733786788892346 -0.0009645741575398066 0.014822800071458756 0.010529974957609562 0.01050009838456454 -0.0025702744758603095 -0.014656683752679934 -0.01052430880316528 
39 -0.013175778644112896 -0.001957706156704934 0.014592478803034175 -0.00607113517805364 0.013459905341394745 -0.00963765421359892 -0.011234232982169185 0.009438331825776395 -0.011440426501692356 0.0018300268658973972 0.014740990703947994 0.011762954243199633 0.009097546161787528 -0.0034855034137133765 -0.014466373265623007 -0.010524308803165478 
39 -0.01024757233183787 -0.0024418840873937793 0.010630047612387302 -0.00525701431941211 0.009552899776001562 -0.007629825003351268 -0.007786145440356688 0.007371856263512249 -0.008027997868286027 0.0009112739257137014 0.01085944820670589 0.008439416964528457 0.0068927075415453854 -0.002411326105013375 -0.010625620763078065 -0.007704328758461506 
39 -0.01423618859620872 -0.004606736833776194 0.013983956048176472 -0.008121931971557588 0.012331340365057696 -0.011036488293167135 -0.009863482934203388 0.010596144236030638 -0.010377244023503795 0.000652256243025026 0.014839823686865072 0.011263634622550853 0.009708912080306388 -0.0031001949589411753 -0.014553813270888543 -0.010524308803165405 
40 -0.010761075689113074 0.0017857787886755992 0.014614514878397725 -0.0030121122112484484 0.014455272884880315 -0.007448340257837271 -0.012791192158750006 0.007682531234620098 -0.012686377734528947 0.003421408662396682 0.01445474897840284 0.01239166684468479 0.008220646659711594 -0.004007918928773794 -0.014330431792787104 -0.010524308803165612 
40 -0.007175802310368748 0.0023165713604437837 0.010658058325504226 -0.001371191343284734 0.010817297628564001 -0.004850343525884917 -0.009762809948016165 0.0051437739590733415 -0.00960908965516643 0.0029299904397980833 0.010496341817246645 0.009236754965227127 0.005780617066267325 -0.0030737561517954607 -0.010453245108806207 -0.007704328758461657 
40 -0.008433993297491869 0.004441789795566584 0.014037220324016324 -0.0006898770982237243 0.014749637410419934 -0.005694384931386609 -0.013662589421182227 0.006296690899765762 -0.01342822214244538 0.0045597982752636 0.014136974391737589 0.012810424713526135 0.007551520201428414 -0.004386976661967575 -0.01421897061234405 -0.010524308803165697 
41 -0.0046238164254459955 0.00783837874920343 0.012463260793106454 0.002520749757806349 0.014549005285862107 -0.0031310967824322348 -0.014466810373322161 0.004286196541365152 -0.01419837967525994 0.006069355974184705 0.013557607581072165 0.013324275078254953 0.006602736730516786 -0.004899825473638532 -0.014050494647351166 -0.010524308803165796 
41 -0.0023288346666626917 0.006634076959188788 0.008657351386966616 0.0027072113821328308 0.010562438175785761 -0.0015960766297744805 -0.010783822596467313 0.002592489419308715 -0.01058640699925297 0.004844910581827386 0.009761397286037603 0.00988842382235411 0.004577362806680904 -0.003724055487312033 -0.010239615271723356 -0.0077043287584617984 
41 -0.0016057506879616009 0.009995809293497119 0.010810034578157568 0.0047882721698912275 0.013967826737777777 -0.0011937095769774778 -0.01475355641479219 0.00275940572691388 -0.014572273200441969 0.007128036557474653 0.013032148713815547 0.013655867133543408 0.005886402256433145 -0.005271136517555986 -0.013915452178088027 -0.010524308803165848 
42 0.005619733188800421 0.013647167524528225 0.005525203124803934 0.009593922841419775 0.011224276309074086 0.0034238143878898173 -0.014400342512450507 -0.0009512630561440539 -0.014800694740182797 0.009443760591007048 0.011465652670624908 0.014285948371244925 0.004128452231487543 -0.006134493605462803 -0.01355701581145054 -0.01052430880316585 
42 0.0030942555601403514 0.009688813241187179 0.005008753149759108 0.006405394314157075 0.00882411567042407 0.001814425367377985 -0.010749239553866308 -0.00012169076517997075 -0.010898541457494913 0.006588197351100967 0.00868065038949803 0.010384146328744407 0.003301920801249044 -0.00435965767717929 -0.009985574351198316 -0.007704328758461826 
42 0.002657313247283465 0.012398975490832326 0.00793967617668608 0.007699579914482198 0.012599373130836774 0.0014926402616712673 -0.01472631639235891 0.0006205443558883356 -0.01481824520300653 0.008502293324754492 0.012180181176136685 0.014046751534304777 0.004880697698797847 -0.005772394645876151 -0.013715106618602601 -0.010524308803165888 
43 0.009281059124573207 0.014599478144732983 0.0019048067918647394 0.01179702695359979 0.008880196462106412 0.005970267277126085 -0.013544307958632146 -0.0030840989136711543 -0.014507025886954494 0.010634032695539154 0.010371265780697027 0.014547702327535843 0.003081687148781276 -0.006622182813602747 -0.013325591329866734 -0.010524308803165773 
43 0.007751868300890493 0.010899323694645427 0.00040675931108629103 0.009203958650158318 0.0058464723424509184 0.005047318767726547 -0.00966244604937708 -0.002828224671344868 -0.010525880473930735 0.008098093944714557 0.0072923871252362224 0.010716104644341971 0.001974405532309508 -0.004978054289932849 -0.009692124930684136 -0.007704328758461711 
43 0.011454970154781752 0.014700843437960558 -0.0008113280627727357 0.013052135560865458 0.006904309628801533 0.007706191545352802 -0.012637522751904278 -0.004602160482883405 -0.01409913419625031 0.011424934697485773 0.009492980165460754 0.014690731669119893 0.0023053940486334563 -0.006973640649692384 -0.013145076097016753 -0.010524308803165664 
44 0.01360879497020773 0.0140210300636493 -0.004492634746685639 0.014237616615211857 0.003913822590232373 0.009863482934197601 -0.011036488293171961 -0.006594956905962137 -0.01328427678131599 0.012389056156565702 0.00819494312445804 0.014819227164685452 0.0012340765515176432 -0.0074458362511516185 -0.012883486020035558 -0.010524308803165454 
44 0.010491772389640924 0.01003519262381101 -0.004272659492732489 0.010709854345852933 0.002047709348389632 0.00778614544035226 -0.0076298250033546055 -0.005357050819926318 -0.009491839708709027 0.009321111523091546 0.005645787411497062 0.010879063588207567 0.0006157527086726784 -0.005576804796660735 -0.0093604251209793 -0.007704328758461451 
44 0.014456400543876334 0.01295627414894034 -0.006993426284047189 0.014677214628817398 0.0016146531792288889 0.011234232982162922 -0.00963765421360319 -0.007963887240920805 -0.01251167319777905 0.013001374796489018 0.007184014105279858 0.01486383335275509 0.0004459784244566607 -0.007785265920231013 -0.012681258772642135 -0.01052430880316524 
45 0.013881510577195399 0.008745531260294254 -0.011844354519693012 0.01424092251955355 -0.0039017765109780806 0.01366258942117508 -0.00569438493138923 -0.010825213674482699 -0.010138057757576143 0.01411723471158694 0.0046205507638821565 0.014802523505193598 -0.001420470545888499 -0.008566166302932226 -0.012167394313407904 -0.010524308803164581 
45 0.010636152160193795 0.007260903830817904 -0.008138795101086527 0.010711582825966019 -0.0020386483383184576 0.009762809948011033 -0.004850343525887107 -0.007549273763637064 -0.007861391746044612 0.01021392407879148 0.0037991828640399363 0.010870453200449541 -0.0007526109030128212 -0.006153546202655993 -0.008991783989693438 -0.007704328758461007 
45 0.014569896754907587 0.010773736465325541 -0.010034921703164789 0.014678575334231971 -0.001602236033433801 0.012791192158743189 -0.007448340257840623 -0.009691429501296627 -0.01122682770935501 0.01370519112677319 0.00572831052250666 0.01485704393687072 -0.0006329961701651233 -0.008240104374696222 -0.012390535476788204 -0.0105243088031649 
46 0.011926600737542132 0.005475706356283118 -0.01366710250611826 0.013057971769004511 -0.0068932653676916054 0.014466810373314702 -0.003131096782433768 -0.012178953938480237 -0.008463955763031241 0.014535812868692561 0.0030587496644884967 0.014660556251003624 -0.0024900861641108368 -0.009001852570819594 -0.01184868515071114 -0.01052430880316415 
46 0.008149289986240621 0.0031045317991454054 -0.010455744471149638 0.009208901330602327 -0.0058386839243169345 0.010783822596461797 -0.0015960766297753108 -0.009267148072491776 -0.005736983627799866 0.010744903281923597 0.0018179903695695826 0.010690409272026396 -0.00210910539116989 -0.006706002373077274 -0.00858765639495557 -0.007704328758460438 
46 0.009872520351915435 0.002870112396062646 -0.014440758492785727 0.011804535163257343 -0.008870213285425912 0.01475355641478463 -0.0011937095769781747 -0.013006352120525947 -0.0071274308632965026 0.014732984548983464 0.001893402108132396 0.014507769019356248 -0.0032645178471770774 -0.009313259940744984 -0.011605510707572344 -0.010524308803163794 
47 0.006332823038140875 -0.0008646019802753549 -0.014697806449559246 0.00960341487419405 -0.01121615606630112 0.01472631639235134 0.0014926402616717415 -0.0139012299086498 -0.00516926234786442 0.014851496193016052 0.00028083107468872807 0.014232862835266376 -0.004307906011743251 -0.009728074567401268 -0.011260073477493563 -0.01052430880316333 
47 0.0036464023449206424 -0.0016427751166023868 -0.010782485801250012 0.006412857010152161 -0.008818693704408756 0.010749239553860762 0.001814425367378637 -0.010402733385765355 -0.0032520997290706047 0.010895238929501148 -0.00022760534008849168 0.010341771203242422 -0.003432338027389752 -0.007231993015813144 -0.008149637243753846 -0.007704328758459804 
47 0.0034212004893095847 -0.0035516205811432114 -0.014288423365109102 0.0077102359237218865 -0.012592854964227023 0.01440034251244304 0.0034238143878911496 -0.014370253628819532 -0.0036689612750188685 0.014826811063711304 -0.000900821261239634 0.013984218349562485 -0.005057081751887352 -0.010023598396395423 -0.010997825453027526 -0.010524308803162942 
48 -0.001758556520277441 -0.006077386532385169 -0.009056825220454015 0.0027161459802039437 -0.010560144160903043 0.009662446049371904 0.005047318767728691 -0.010884676701834116 -0.0005628744439776955 0.010659605306260025 -0.0022651380171029765 0.009830037224708618 -0.004701440642538448 -0.0077294422860989375 -0.007679455197566114 -0.0077043287584591695 
48 -0.0038764786668127565 -0.009297317159889611 -0.01141634550289098 0.002533056961797696 -0.014546867586452877 0.012637522751897372 0.007706191545356145 -0.014831219251518417 2.0042643663851543e-05 0.014395390404709753 -0.003663132588334482 0.013240128202628963 -0.006769892456416254 -0.010694378288521798 -0.010346736805848116 -0.010524308803162056 
48 -0.0008276104738250437 -0.007040336879020844 -0.012930843268823416 0.004800086899505753 -0.013963770977307605 0.013544307958624938 0.005970267277128584 -0.014750040478511538 -0.001549765168164257 0.01464105786059791 -0.0025070360959381817 0.01358070867031681 -0.006057787608152254 -0.010415904297999962 -0.010627023438498567 -0.010524308803162444 
49 -0.006728471996828207 -0.009355192368987193 -0.0056072351365967325 -0.0013620396808851109 -0.010818453752386737 0.007629825003350048 0.007786145440355757 -0.010682695749685866 0.0021617183125377535 0.010046349850776898 -0.004222427050593769 0.009163277686961515 -0.00589639873024988 -0.00819638697892773 -0.007178965850122922 -0.007704328758458486 
49 -0.010215168790860582 -0.013273307582106184 -0.0063712131375201625 -0.0029998823227318063 -0.01445781588620065 0.009637654213597177 0.011234232982168002 -0.014360284823235411 0.003707787209333517 0.01345400586390545 -0.006295675617259878 0.012287233324670688 -0.00837593791276988 -0.011322952355339986 -0.009654814315470403 -0.01052430880316109 
49 -0.007783304211515128 -0.011875972552949202 -0.008702547152100063 -0.0006773990154326245 -0.01475021575175767 0.011036488293165532 0.009863482934201986 -0.014672051758254073 0.002167109456689289 0.013911952754276516 -0.005206090263002163 0.012714378616914152 -0.007712134275233929 -0.011062627212908415 -0.009952033393016995 -0.010524308803161516 
50 -0.012813512472903318 -0.014451065601483973 -0.002817756908339247 -0.006059746251731972 -0.013465036558217926 0.007448340257835255 0.012791192158749076 -0.013672164065993588 0.005747816624308003 0.01269000978593329 -0.00772071608704144 0.011647535217521038 -0.009244855977789587 -0.011665690992241035 -0.0092377672183847 -0.010524308803160517 
50 -0.010033853394339761 -0.01085227574058143 -0.001090330861807576 -0.005248930916471353 -0.009557343664374373 0.004850343525883339 0.009762809948015564 -0.009809481735378052 0.004750482357232637 0.00907719744329625 -0.006030134500757459 0.008352007786214196 -0.006998367087647514 -0.008630984276923622 -0.006650144404226787 -0.007704328758457735 
50 -0.01402676263160058 -0.014722778392094488 -0.00011334650481954353 -0.008111497050013428 -0.012338206910129029 0.005694384931384355 0.013662589421181454 -0.012987040886075161 0.007162557868353304 0.012036006457976743 -0.008705191198781274 0.011140561437144845 -0.00984988982469651 -0.011906839902176397 -0.008924788683854542 -0.010524308803160033 
51 -0.014673828938145886 -0.01427545763341851 0.003603381796223053 -0.010591020135187095 -0.010288732995155633 0.0031310967824296617 0.014466810373321558 -0.011813204022764492 0.008967367334430576 0.01101851689441242 -0.009961831694591292 0.010397003229847185 -0.01063178077896646 -0.012222715618774402 -0.00848704379687577 -0.010524308803159407 
51 -0.010856993515253177 -0.010283672972810382 0.003634113416792388 -0.008398625403488793 -0.006953933060989878 0.0015960766297725114 0.010783822596466933 -0.008319901906886147 0.007040756124370601 0.00778648079101692 -0.007624221429952779 0.007409021733430547 -0.007989967015451268 -0.00903151902310003 -0.0060950778765291 -0.007704328758456908 
51 -0.014368322796061834 -0.013369828771152337 0.006166095169793553 -0.012083876122177007 -0.008485733439923092 0.001193709576974685 0.014753556414791705 -0.010797773407047417 0.010167278674459232 0.010191625522811857 -0.010806321042177032 0.009818196240706236 -0.011168503090048978 -0.012443736591636494 -0.00815954098865158 -0.01052430880315892 
52 -0.011155351862830402 -0.009471987125859777 0.0112718459402378 -0.014359110703559965 -0.003441463925783072 -0.0034238143878930075 0.01440034251245022 -0.007930042113421996 0.012533151968813536 0.007986201172541564 -0.012524631575242117 0.008340992224445338 -0.012310982389931271 -0.012931523537771734 -0.007362091312906084 -0.010524308803157639 
52 -0.008994258490878752 -0.007757615268443539 0.007666819124294328 -0.010368757911423852 -0.003373863224724139 -0.001814425367380281 0.010749239553866058 -0.006307552043125668 0.008888633290124638 0.006219924174823191 -0.008948216513992725 0.006349190981975499 -0.008855560390446642 -0.009396410489800723 -0.005515956861028955 -0.007704328758456012 
52 -0.012904036167733016 -0.011382574904615224 0.00933863156751145 -0.013634816714799963 -0.0056674074587385985 -0.0014926402616743052 0.014726316392358534 -0.009211976924859684 0.011623465375260766 0.0089566875487066 -0.011850044447962607 0.008982504290369774 -0.011851036046141324 -0.012731502770787924 -0.00770282589086204 -0.0105243088031582 
53 -0.007941957248478227 -0.006323065767414766 0.013296311154371765 -0.014763643806447171 -0.00025011138700995215 -0.005970267277129385 0.013544307958631922 -0.006031927437484557 0.013549218338447909 0.00657756308129735 -0.01331846346901268 0.007426345892345051 -0.012883393395403018 -0.013190044497835379 -0.006888208450143492 -0.010524308803156853 
53 -0.004906464079943402 -0.003754927342211878 0.010240177283258173 -0.010882629184330571 0.0006800556750866998 -0.005047318767729003 0.009662446049376938 -0.003898875486941762 0.010178004936153562 0.00443302364383905 -0.009955216566957217 0.005189229695911686 -0.00958149628802946 -0.009724218617109696 -0.004915066883799317 -0.007704328758454988 
53 -0.005182695915214215 -0.0037711916130231376 0.014232047106119174 -0.014617650858695751 0.002086148969471622 -0.007706191545356156 0.012637522751904108 -0.004564037109155339 0.01411152123125863 0.0054978616642724016 -0.013799250790691647 0.006732245778137474 -0.013259310143300175 -0.013368275668354418 -0.006535586826168141 -0.01052430880315624 
54 -0.001015144211195398 -5.998701714199525e-05 0.014723092493450975 -0.013818960999728652 0.005202312085749206 -0.009863482934200944 0.011036488293171913 -0.0024728697653347985 0.014623624082890974 0.0039654251625376785 -0.014315069281851342 0.005753069583313821 -0.013712571934653181 -0.0135965311452079 -0.0060464063975953115 -0.010524308803155398 
54 0.000395123993579483 0.0009624955898883993 0.010864359731585569 -0.009868067529039817 0.0046384627763051646 -0.00778614544035469 0.0076298250033546 -0.0012452182448522242 0.01082785509996019 0.002489081040220777 -0.010609548109937503 0.003947431157647622 -0.010156326265441749 -0.010013649696109768 -0.004294779383059758 -0.007704328758453931 
54 0.0020720897605539888 0.0026474347428673763 0.014483236526936824 -0.012823185391119122 0.00732076844153266 -0.01123423298216621 0.009637654213603217 -0.0009112568679659785 0.014803211716198927 0.0028147576656280906 -0.01458502466736631 0.005017327794259515 -0.01399853065498141 -0.013752269322258232 -0.005683289364052906 -0.010524308803154787 
55 0.008814268112862256 0.008562132762993046 0.011977601327553648 -0.009227741643000864 0.011527207741668277 -0.013662589421178109 0.005694384931389595 0.0027987809936060376 0.014564761966605872 3.193947340237656e-05 -0.01485411677394312 0.0032232835538596144 -0.014516985975916781 -0.014081989051961268 -0.004808562555265626 -0.010524308803153465 
55 0.005598963669982133 0.005496711437432602 0.00942055590246398 -0.007467565114986629 0.007945411565066425 -0.009762809948013316 0.004850343525887328 0.0014866806391538039 0.010797351305770723 0.0004569614998397629 -0.010888031121811359 0.0026433792719462914 -0.010570984910552831 -0.010263561474560666 -0.003657542350193313 -0.007704328758452927 
55 0.0061628019415215715 0.006214510015601359 0.013347393613695796 -0.010933446187461875 0.009924086286173908 -0.012791192158746335 0.0074483402578408514 0.0012415674087498474 0.014779173744278565 0.0012128100804618001 -0.014804556628708275 0.00398906393023642 -0.014325495023000569 -0.01394935849581443 -0.005180741941336127 -0.010524308803154005 
56 0.011816153229480812 0.011306100577016509 0.009431073149717313 -0.006512361349924585 0.013252052059872104 -0.014466810373317507 0.003131096782434358 0.004877992336377216 0.014006093565314048 -0.0015827694033518358 -0.014769585176290808 0.002162148356027823 -0.014712496497199317 -0.014247134101293697 -0.004294631463490311 -0.010524308803152778 
56 0.009417694537077085 0.00898465082648856 0.006183587928050096 -0.004018265372468142 0.010136450911501638 -0.010783822596463776 0.0015960766297758084 0.00412516591097287 0.010088410219159199 -0.001591346129487743 -0.010780800203047508 0.0012976397160480988 -0.010818932808824212 -0.010472967664846651 -0.003005870668642804 -0.007704328758452063 
56 0.013375914293443689 0.012847063958656316 0.007192078882710121 -0.004336289003908937 0.014114684970771844 -0.014753556414787214 0.0011937095769789313 0.006332961152153286 0.013411154657203236 -0.002752010190591682 -0.014596994388392737 0.001378406206319029 -0.014806499755984859 -0.014356133604325076 -0.003914858546895996 -0.010524308803152332 
57 0.014546346073310233 0.014245621304371264 0.0037195866256045412 -0.001176634714072833 0.014718806503898276 -0.014726316392353611 -0.0014926402616707406 0.008207915065509054 0.012352959016831758 -0.004322278491973626 -0.014211393805735564 0.00030113441063979034 -0.014867473112817808 -0.014488682777371606 -0.0033915720372886316 -0.010524308803151795 
57 0.010906613596924339 0.010762398812103589 0.001769599374740163 -4.612199773138962e-06 0.010903855850683115 -0.010749239553862328 -0.0018144253673778627 0.006504451837306487 0.00874557721590033 -0.0035832795288241923 -0.010291654062402318 -6.856439334460284e-05 -0.010896259673783194 -0.010641041836403324 -0.0023423361888148747 -0.007704328758451369 
57 0.014628537981215505 0.014686609266113947 0.0010375737455378235 0.001164182539300172 0.014719796641419685 -0.014400342512445055 -0.003423814387889974 0.00946921807050881 0.011414875177911685 -0.005438468521589566 -0.013822766199409696 -0.00048820943051517 -0.0148625061899268 -0.014573621056046215 -0.00300570438037055 -0.010524308803151448 
58 0.01226225681098516 0.013730618787299816 -0.005314429294927685 0.006501148104554856 0.01325755661772593 -0.012637522751898755 -0.007706191545354532 0.012010489192146184 0.008701357110217465 -0.007932266393901728 -0.012558859626574475 -0.0023471257129879693 -0.014684122022822689 -0.014733593083513363 -0.0020846880718315398 -0.010524308803150868 
58 0.009697382166206841 0.010491568362750494 -0.002981225155466279 0.004009688742673543 0.010139846639458742 -0.009662446049373009 -0.005047318767727588 0.008475039133001542 0.006853227432183225 -0.005448273464434436 -0.009437920945768329 -0.0014336872012958714 -0.01080174601457658 -0.010767120677261356 -0.0016695575781613319 -0.007704328758450889 
58 0.013677967239062202 0.014473546493746344 -0.0026999079440416006 0.004324346770674995 0.014118348315455234 -0.013544307958626583 -0.005970267277127152 0.011022104304474865 0.009923642622316426 -0.006908668710177135 -0.013149756724626595 -0.0015646286042929891 -0.014787980796049177 -0.014673051241776817 -0.0024751276257176723 -0.01052430880315109 
59 0.009425842048712232 0.01194649152096162 -0.008605486119477845 0.009217986602473593 0.011535010062682313 -0.011036488293166603 -0.00986348293420012 0.013143734193526347 0.006870787265236198 -0.009250315895056751 -0.011622282955833549 -0.003405716491472227 -0.014475273188215235 -0.014799511876410314 -0.0015489150161863102 -0.010524308803150691 
59 0.006089147945446081 0.008223710942722964 -0.007164585715056216 0.00746084081711047 0.007951726101080397 -0.007629825003350736 -0.007786145440354326 0.009913108550956439 0.004530264164494505 -0.007120259596370545 -0.008249844774424642 -0.0027761999056394467 -0.010536882368069721 -0.010850706611835884 -0.0009901899864951224 -0.007704328758450684 
59 0.0068624571305435774 0.010161061385580197 -0.010654852534474601 0.010925046738483926 0.0099333321655678 -0.009637654213598018 -0.011234232982165972 0.013797097106351497 0.005441100773935193 -0.010145059774636972 -0.010850049190341025 -0.004169026420861959 -0.01427416047954927 -0.014835418350218411 -0.001155444451876446 -0.010524308803150653 
60 0.0028418894655872634 0.007145470926697668 -0.012873045337006978 0.012816987609750707 0.007331613926077541 -0.007448340257835841 -0.012791192158746868 0.014439494923925534 0.0033862150752930692 -0.011264266027677173 -0.009683084019126662 -0.005193094195104448 -0.01393428187509394 -0.014867565598921622 -0.0006165895467181094 -0.010524308803150681 
60 0.0009745398745325177 0.004390503902522656 -0.00998419679392254 0.009864139970735628 0.004646809262558099 -0.004850343525883707 -0.00976280994801389 0.010728300900791719 0.0019226477382043735 -0.008540006982352267 -0.0067695137390477 -0.0040749302790495864 -0.010105845792189885 -0.010891469764629907 -0.00030691456732705907 -0.007704328758450736 
60 -0.0002350227609654232 0.004657387659581762 -0.013967168331529658 0.013814555024790042 0.005214000730398817 -0.005694384931384757 -0.013662589421179124 0.014716782667191007 0.0018389600650576122 -0.011998459355110945 -0.008756870352327764 -0.0059251790916231865 -0.01363908689854304 -0.014878694998353254 -0.00022164082054224073 -0.010524308803150762 
61 -0.004381156341402334 -0.00027841753280278024 -0.010903356997514928 0.010882049979490266 0.0006892618723880898 -0.001596076629772547 -0.010783822596465133 0.010869394649099485 -0.000805775716480957 -0.009657220363426618 -0.005049369304573836 -0.005309396567713681 -0.009515433991227434 -0.010889249262102269 0.0003775721034222602 -0.00770432875845095 
61 -0.007274361161336482 -0.0017328006891583244 -0.014620890970954785 0.014763850111634336 -0.00023762161250981197 -0.0011937095769746007 -0.014753556414789247 0.014711758648510318 -0.001878729267929631 -0.013426807531186627 -0.006353475016410133 -0.007587888148579002 -0.012788916769551066 -0.014863252234758914 0.0007130375258524905 -0.010524308803151139 
61 -0.004445108603431634 0.0009843392732092552 -0.014690273217612982 0.014615880796460838 0.002098514401473155 -0.0031310967824297897 -0.01446681037331914 0.014827969083506833 -0.00031112546145870083 -0.012879173920550303 -0.0074008570036120614 -0.006898573701075662 -0.013173538612865767 -0.014876943832358755 0.0003181693199979613 -0.01052430880315097 
62 -0.010632446191002577 -0.005364157320288841 -0.013711267893819566 0.01436201696043907 -0.0034293152345023126 0.0014926402616747398 -0.014726316392356074 0.0142847474121158 -0.00398891684122768 -0.014037830656470789 -0.00485645093910182 -0.008495258578772652 -0.012205040777222046 -0.014827609565118869 0.0012516725177656068 -0.010524308803151475 
62 -0.008653013011107406 -0.004894343333644345 -0.009747107954169864 0.010371608407645847 -0.003365090299426578 0.0018144253673806913 -0.010749239553864257 0.010327524356767098 -0.0034835693194640487 -0.010432321898590575 -0.0031503484451595857 -0.006460130500825096 -0.00877495811197851 -0.010844053867562002 0.0010605686695755769 -0.007704328758451387 
62 -0.012514119796496262 -0.007793157539746328 -0.012491587031822519 0.013639606325162305 -0.005655870706099771 0.00342381438789369 -0.014400342512447786 0.013782340727880189 -0.005478371131529992 -0.014379504356634135 -0.0037250046605580315 -0.009130931676646956 -0.011737057783374569 -0.014789151004968169 0.0016449018388884325 -0.010524308803151736 
63 -0.014189458641333388 -0.010691608587371336 -0.010122379010260592 0.012091050523028089 -0.008475507736950386 0.005970267277130447 -0.013544307958629641 0.012843962525195506 -0.007416069905652429 -0.014699190242928852 -0.0021400026789260436 -0.009957968153860785 -0.011044062157583441 -0.014719757497016019 0.002180235935940275 -0.01052430880315221 
63 -0.01078422986687744 -0.008578650971873566 -0.006735536922964405 0.008404505257049687 -0.0069468255389830876 0.0050473187677298826 -0.009662446049375323 0.009136737727121385 -0.00594247745043346 -0.01083785322953987 -0.0011397249214925404 -0.007508984316843509 -0.007896095901397684 -0.010756061946583533 0.0017393796557177007 -0.007704328758451947 
63 -0.014658052383741172 -0.012370118843025786 -0.00798456077829878 0.01059972036418275 -0.010279769567001721 0.007706191545357504 -0.012637522751901976 0.01198692765141388 -0.00873378678889671 -0.014822800071452091 -0.0009645741575319899 -0.010529974957619904 -0.010500098384575704 -0.014656683752681327 0.0025702744758502845 -0.010524308803152582 
64 -0.013175778644114249 -0.014592478803032513 -0.0019577061567054013 0.006071135178053559 -0.013459905341395966 0.011234232982168163 -0.00963765421360152 0.009438331825773302 -0.011440426501696134 -0.014740990703941284 0.0018300268659060372 -0.011762954243209032 -0.009097546161797304 -0.01446637326562462 0.003485503413702552 -0.010524308803153507 
64 -0.010247572331839056 -0.010630047612385915 -0.002441884087394108 0.005257014319412065 -0.009552899776002339 0.007786145440356038 -0.007629825003353275 0.007371856263509896 -0.008027997868288865 -0.010859448206700938 0.000911273925719893 -0.008439416964535484 -0.006892707541552765 -0.010625620763079229 0.002411326105005571 -0.007704328758452632 
64 -0.01423618859621052 -0.013983956048174366 -0.004606736833776553 0.008121931971557543 -0.012331340365058573 0.009863482934202654 -0.011036488293170004 0.010596144236027366 -0.010377244023507814 -0.01483982368685832 0.0006522562430333223 -0.011263634622560668 -0.00970891208031677 -0.014553813270890064 0.0031001949589307054 -0.010524308803153125 
65 -0.010761075689113697 -0.01461451487839667 0.0017857787886750688 0.003012112211248294 -0.014455272884881867 0.012791192158748629 -0.007448340257839406 0.007682531234617324 -0.012686377734532364 -0.014454748978396296 0.0034214086624057834 -0.01239166684469361 -0.008220646659720552 -0.014330431792788775 0.004007918928762451 -0.010524308803154055 
65 -0.00717580231036901 -0.01065805832550363 0.0023165713604433725 0.0013711913432846122 -0.01081729762856521 0.00976280994801507 -0.00485034352588634 0.005143773959071403 -0.009609089655168844 -0.01049634181724188 0.0029299904398048713 -0.009236754965233426 -0.005780617066273656 -0.01045324510880744 0.0030737561517870347 -0.007704328758453313 
65 -0.008433993297491959 -0.014037220324015724 0.004441789795566029 0.0006898770982235605 -0.0147496374104216 0.013662589421180605 -0.005694384931388368 0.006296690899763277 -0.013428222142448508 -0.014136974391731222 0.004559798275273038 -0.012810424713534543 -0.007551520201436772 -0.014218970612345757 0.004386976661955875 -0.010524308803154418 
66 -0.004623816425445378 -0.012463260793106458 0.007838378749202877 -0.0025207497578065064 -0.014549005285863798 0.014466810373320272 -0.003131096782433402 0.004286196541363117 -0.014198379675262666 -0.013557607581066155 0.006069355974194547 -0.013324275078262861 -0.006602736730524341 -0.014050494647352892 0.004899825473626322 -0.010524308803154933 
66 -0.002328834666662052 -0.008657351386966765 0.006634076959188382 -0.0027072113821329496 -0.010562438175786991 0.01078382259646588 -0.0015960766297751876 0.0025924894193073405 -0.010586406999254838 -0.00976139728603332 0.004844910581834707 -0.009888423822359762 -0.004577362806686237 -0.010239615271724638 0.0037240554873029436 -0.007704328758453958 
66 -0.0016057506879605201 -0.01081003457815792 0.009995809293496631 -0.004788272169891368 -0.013967826737779382 0.01475355641479017 -0.001193709576978186 0.0027594057269121584 -0.014572273200444366 -0.013032148713809883 0.007128036557484755 -0.013655867133550955 -0.005886402256440182 -0.013915452178089763 0.005271136517543378 -0.010524308803155318 
67 0.00561973318880233 -0.005525203124804884 0.013647167524527869 -0.009593922841419737 -0.011224276309075217 0.014400342512448254 0.003423814387890262 -0.0009512630561450358 -0.014800694740184377 -0.01146565267062035 0.009443760591017536 -0.014285948371251737 -0.004128452231493326 -0.013557015811452243 0.006134493605449323 -0.010524308803156218 
67 0.003094255560141675 -0.005008753149759752 0.009688813241186891 -0.006405394314157085 -0.008824115670425008 0.010749239553864674 0.0018144253673781274 -0.00012169076518080183 -0.010898541457496202 -0.008680650389494482 0.00658819735110861 -0.010384146328749497 -0.003301920801253447 -0.009985574351199568 0.0043596576771695456 -0.007704328758454615 
67 0.0026573132472850727 -0.00793967617668683 0.012398975490831925 -0.007699579914482265 -0.012599373130838141 0.014726316392356737 0.001492640261671219 0.0006205443558870411 -0.014818245203008465 -0.012180181176131616 0.008502293324764843 -0.014046751534311903 -0.00488069769880414 -0.013715106618604334 0.005772394645863044 -0.010524308803155842 
68 0.009281059124575355 -0.0019048067918658622 0.014599478144732692 -0.011797026953599568 -0.00888019646210711 0.013544307958629813 0.005970267277127222 -0.003084098913671748 -0.014507025886955554 -0.010371265780693256 0.010634032695549706 -0.014547702327542267 -0.0030816871487863726 -0.013325591329868379 0.0066221828135887995 -0.010524308803156796 
68 0.00775186830089213 -0.0004067593110871481 0.010899323694645231 -0.009203958650158122 -0.0058464723424512975 0.009662446049375365 0.005047318767727563 -0.0028282246713451967 -0.010525880473931376 -0.007292387125233679 0.008098093944722287 -0.010716104644346554 -0.0019744055323130567 -0.009692124930685322 0.004978054289922507 -0.00770432875845533 
68 0.01145497015478399 0.0008113280627715518 0.01470084343796026 -0.01305213556086511 -0.0069043096288018465 0.012637522751901931 0.007706191545354439 -0.004602160482883716 -0.014099134196250978 -0.009492980165457627 0.011424934697496284 -0.014690731669126034 -0.0023053940486380624 -0.013145076097018333 0.0069736406496780975 -0.010524308803157205 
69 0.013608794970209954 0.004492634746684449 0.014021030063648958 -0.014237616615211255 -0.003913822590232122 0.011036488293169625 0.009863482934199898 -0.006594956905962028 -0.013284276781316086 -0.008194943124455846 0.012389056156576097 -0.014819227164691225 -0.0012340765515215862 -0.012883486020037034 0.00744583625113692 -0.010524308803157814 
69 0.010491772389642539 0.004272659492731626 0.010035192623810738 -0.010709854345852417 -0.002047709348389291 0.00762982500335289 0.00778614544035411 -0.005357050819926136 -0.009491839708708929 -0.00564578741149574 0.009321111523099113 -0.010879063588211682 -0.0006157527086753777 -0.009360425120980375 0.005576804796649875 -0.007704328758456072 
69 0.0144564005438784 0.006993426284046075 0.01295627414893993 -0.014677214628816609 -0.0016146531792282015 0.00963765421360085 0.011234232982165655 -0.007963887240920366 -0.01251167319777867 -0.007184014105278386 0.01300137479649924 -0.014863833352760555 -0.0004459784244601055 -0.012681258772643537 0.00778526592021604 -0.010524308803158258 
70 0.013881510577196901 0.011844354519692056 0.00874553126029358 -0.01424092251955229 0.003901776510979828 0.005694384931387065 0.013662589421178754 -0.010825213674481393 -0.010138057757574604 -0.0046205507638823785 0.014117234711596554 -0.014802523505198431 0.0014204705458861911 -0.012167394313409163 0.00856616630291673 -0.010524308803159322 
70 0.010636152160195022 0.00813879510108581 0.007260903830817433 -0.010711582825965162 0.0020386483383195925 0.004850343525885492 0.009762809948013597 -0.0075492737636362415 -0.007861391746043679 -0.0037991828640398496 0.010213924078798666 -0.010870453200453172 0.0007526109030109484 -0.00899178398969439 0.006153546202644722 -0.007704328758456864 
70 0.014569896754909401 0.010034921703163759 0.010773736465324988 -0.014678575334230908 0.0016022360334351166 0.007448340257838372 0.012791192158746495 -0.009691429501295696 -0.011226827709353985 -0.005728310522506189 0.0137051911267831 -0.014857043936875836 0.0006329961701623191 -0.012390535476789522 0.008240104374680953 -0.01052430880315888 
71 0.01192660073754312 0.013667102506117456 0.005475706356282301 -0.01305797176900299 0.0068932653676939265 0.003131096782431751 0.014466810373318826 -0.012178953938478398 -0.008463955763028977 -0.003058749664489668 0.014535812868701684 -0.014660556251008103 0.002490086164109162 -0.01184868515071236 0.009001852570803865 -0.010524308803159943 
71 0.008149289986241197 0.010455744471149086 0.0031045317991447584 -0.009208901330601158 0.005838683924318779 0.001596076629773874 0.010783822596464914 -0.009267148072490286 -0.0057369836277980195 -0.0018179903695706913 0.010744903281930132 -0.01069040927202957 0.002109105391168823 -0.008587656394956454 0.0067060023730657016 -0.0077043287584576455 
71 0.009872520351915996 0.014440758492785009 0.0028701123960617387 -0.011804535163255673 0.008870213285428603 0.0011937095769763218 0.01475355641478899 -0.013006352120523755 -0.007127430863293703 -0.0018934021081341956 0.014732984548992136 -0.014507769019360447 0.0032645178471758457 -0.011605510707573525 0.009313259940729107 -0.010524308803160395 
72 0.006332823038140779 0.014697806449558586 -0.0008646019802763074 -0.009603414874192192 0.011216156066304252 -0.0014926402616733314 0.01472631639235597 -0.01390122990864716 -0.00516926234786089 -0.0002808310746913557 0.014851496193024028 -0.01423286283527023 0.0043079060117425525 -0.011260073477494689 0.00972807456738525 -0.010524308803161058 
72 0.003646402344920398 0.010782485801249554 -0.0016427751166030967 -0.006412857010150759 0.008818693704411146 -0.0018144253673797212 0.010749239553864214 -0.010402733385763304 -0.0032520997290678153 0.00022760534008635215 0.010895238929506789 -0.010341771203245158 0.0034323380273893903 -0.00814963724375467 0.007231993015801376 -0.007704328758458475 
72 0.0034212004893089958 0.014288423365108454 -0.003551620581144154 -0.00771023592371992 0.012592854964230415 -0.0034238143878925166 0.014400342512447779 -0.014370253628816616 -0.0036689612750148114 0.0009008212612364327 0.01482681106371871 -0.01398421834956612 0.005057081751887014 -0.010997825453028645 0.010023598396379344 -0.010524308803161544 
73 -0.0017585565202785326 0.009056825220453498 -0.006077386532385816 -0.002716145980202407 0.010560144160905765 -0.005047318767729327 0.00966244604937545 -0.010884676701831708 -0.0005628744439740108 0.002265138017099917 0.010659605306264572 -0.009830037224711038 0.0047014406425385956 -0.007679455197566938 0.007729442286087163 -0.007704328758459362 
73 -0.003876478666814439 0.011416345502890238 -0.009297317159890427 -0.0025330569617956046 0.01454686758645659 -0.007706191545356873 0.012637522751902228 -0.014831219251515114 2.0042643669112238e-05 0.003663132588330053 0.014395390404715628 -0.013240128202632205 0.006769892456416556 -0.010346736805849258 0.010694378288505776 -0.01052430880316279 
73 -0.000827610473826302 0.012930843268822732 -0.0070403368790217455 -0.004800086899503677 0.013963770977311251 -0.005970267277129583 0.013544307958629766 -0.01475004047850836 -0.0015497651681594742 0.002507036095934272 0.014641057860604451 -0.013580708670320196 0.006057787608152317 -0.010627023438499684 0.010415904297983876 -0.010524308803162265 
74 -0.010215168790863018 0.006371213137519197 -0.013273307582106684 0.0029998823227337804 0.014457815886204253 -0.011234232982168156 0.009637654213602052 -0.014360284823232136 0.0037077872093397887 0.006295675617254375 0.013454005863909727 -0.012287233324673722 0.00837593791277057 -0.009654814315471681 0.011322952355324375 -0.01052430880316411 
74 -0.007783304211517303 0.008702547152099177 -0.011875972552949848 0.0006773990154346884 0.014750215751761395 -0.009863482934202352 0.01103648829317042 -0.014672051758250742 0.002167109456695155 0.00520609026299712 0.013911952754281478 -0.01271437861691726 0.00771213427523447 -0.009952033393018188 0.011062627212892613 -0.010524308803163551 
74 -0.006728471996829944 0.00560723513659606 -0.009355192368987615 0.0013620396808865954 0.01081845375238947 -0.007786145440355939 0.007629825003353613 -0.010682695749683422 0.002161718312542212 0.004222427050589887 0.01004634985078029 -0.009163277686963761 0.005896398730250358 -0.0071789658501238375 0.008196386978916207 -0.00770432875846032 
75 -0.012813512472905953 0.002817756908338118 -0.014451065601484233 0.006059746251733746 0.013465036558221257 -0.012791192158749005 0.007448340257840135 -0.013672164065990564 0.005747816624314732 0.007720716087035367 0.012690009785936648 -0.011647535217524036 0.009244855977790404 -0.009237767218386109 0.011665690992225794 -0.01052430880316492 
75 -0.010033853394341728 0.001090330861806679 -0.010852275740581539 0.0052489309164726085 0.009557343664376716 -0.00976280994801545 0.004850343525886934 -0.009809481735375918 0.0047504823572376955 0.00603013450075284 0.009077197443298478 -0.008352007786216383 0.006998367087648152 -0.006650144404227873 0.00863098427691258 -0.007704328758461325 
75 -0.014026762631603237 0.00011334650481826256 -0.014722778392094548 0.008111497050014994 0.01233820691013205 -0.013662589421181282 0.005694384931389232 -0.012987040886072405 0.007162557868360325 0.008705191198774788 0.012036006457979462 -0.011140561437147858 0.009849889824697368 -0.008924788683856096 0.011906839902161482 -0.010524308803165502 
76 -0.014673828938148326 -0.0036033817962245005 -0.014275457633418349 0.010591020135188332 0.010288732995158131 -0.014466810373321343 0.0031310967824344535 -0.011813204022762215 0.008967367334437917 0.0099618316945843 0.01101851689441426 -0.010397003229850313 0.01063178077896725 -0.008487043796877501 0.012222715618759995 -0.010524308803166389 
76 -0.010856993515254891 -0.003634113416793482 -0.010283672972810212 0.008398625403489587 0.006953933060991549 -0.01078382259646676 0.0015960766297760014 -0.008319901906884617 0.007040756124376042 0.007624221429947513 0.007786480791018035 -0.0074090217334328605 0.007989967015451837 -0.006095077876530421 0.009031519023089643 -0.00770432875846244 
76 -0.014368322796063968 -0.006166095169795067 -0.013369828771152044 0.012083876122177943 0.008485733439925132 -0.014753556414791485 0.001193709576979356 -0.010797773407045545 0.010167278674466717 0.010806321042169704 0.0101916255228131 -0.0098181962407095 0.011168503090049648 -0.00815954098865345 0.012443736591622501 -0.010524308803167048 
77 -0.01115535186283154 -0.01127184594023941 -0.009471987125859324 0.01435911070356013 0.003441463925783931 -0.01440034251245016 -0.0034238143878888576 -0.007930042113421321 0.012533151968821168 0.01252463157523412 0.007986201172541538 -0.008340992224449256 0.012310982389931424 -0.007362091312908283 0.012931523537758888 -0.010524308803168647 
77 -0.008994258490879774 -0.00766681912429552 -0.007757615268443218 0.010368757911424087 0.0033738632247249634 -0.01074923955386598 -0.0018144253673771323 -0.00630755204312496 0.008888633290130229 0.008948216513986968 0.0062199241748233354 -0.006349190981978222 0.008855560390446866 -0.005515956861030506 0.00939641048979113 -0.007704328758463611 
77 -0.012904036167734615 -0.009338631567513054 -0.011382574904614811 0.013634816714800473 0.005667407458739982 -0.0147263163923584 -0.0014926402616699086 -0.009211976924858466 0.011623465375268385 0.011850044447954858 0.008956687548707081 -0.008982504290373375 0.01185103604614174 -0.007702825890864103 0.012731502770774583 -0.01052430880316799 
78 -0.00794195724847864 -0.01329631115437327 -0.006323065767414311 0.014763643806446864 0.00025011138701009977 -0.013544307958632028 -0.005970267277125717 -0.006031927437484655 0.013549218338455444 0.013318463469004367 0.0065775630812966775 -0.007426345892349564 0.012883393395402723 -0.006888208450145839 0.013190044497823279 -0.010524308803169569 
78 -0.0049064640799435085 -0.010240177283259232 -0.0037549273422115515 0.01088262918433021 -0.000680055675086777 -0.009662446049377047 -0.005047318767726448 -0.0038988754869420613 0.010178004936159052 0.00995521656695107 0.0044330236438383935 -0.005189229695915137 0.009581496288029134 -0.004915066883801059 0.009724218617101044 -0.007704328758464766 
78 -0.005182695915214126 -0.014232047106120527 -0.003771191613022724 0.01461765085869511 -0.0020861489694719727 -0.01263752275190432 -0.007706191545352894 -0.00456403710915606 0.014111521231266019 0.013799250790683167 0.005497861664271297 -0.0067322457781424745 0.013259310143299516 -0.006535586826170592 0.013368275668342854 -0.010524308803170195 
79 -0.0010151442111947136 -0.014723092493452043 -5.998701714174178e-05 0.013818960999727592 -0.005202312085750162 -0.011036488293172221 -0.009863482934198297 -0.0024728697653364036 0.01462362408289811 0.01431506928184267 0.003965425162536116 -0.005753069583319631 0.013712571934651982 -0.006046406397597895 0.0135965311451971 -0.010524308803171031 
79 0.00039512399358015716 -0.01086435973158628 0.0009624955898885538 0.00986806752903893 -0.004638462776306022 -0.007629825003354854 -0.00778614544035293 -0.0012452182448536248 0.010827855099965334 0.010609548109931116 0.002489081040219499 -0.003947431157652086 0.010156326265440711 -0.0042947793830616955 0.010013649696102082 -0.007704328758465811 
79 0.0020720897605550443 -0.01448323652693764 0.0026474347428674617 0.012823185391117793 -0.007320768441533952 -0.009637654213603577 -0.011234232982164043 -0.0009112568679682335 0.014803211716205815 0.014585024667357569 0.002814757665626212 -0.005017327794265945 0.01399853065497977 -0.005683289364055578 0.013752269322247969 -0.010524308803171597 
80 0.008814268112863722 -0.01197760132755369 0.008562132762992466 0.00922774164299912 -0.011527207741670022 -0.005694384931389906 -0.013662589421177136 0.0027987809936023617 0.014564761966612067 0.014854116773934377 3.193947339995724e-05 -0.00322328355386773 0.014516985975914073 -0.004808562555268547 0.01408198905195222 -0.010524308803172877 
80 0.0055989636699831915 -0.00942055590246413 0.005496711437432314 0.007467565114985394 -0.00794541156506771 -0.004850343525887559 -0.009762809948012414 0.0014866806391512992 0.010797351305775381 0.01088803112180494 0.0004569614998380616 -0.002643379271951956 0.01057098491055099 -0.0036575423501954184 0.010263561474553849 -0.007704328758466787 
80 0.006162801941522927 -0.013347393613696192 0.006214510015601094 0.010933446187460297 -0.009924086286175526 -0.0074483402578411914 -0.012791192158744873 0.0012415674087467308 0.014779173744285074 0.014804556628699495 0.0012128100804595751 -0.003989063930243807 0.014325495022998284 -0.00518074194133894 0.013949358495804882 -0.010524308803172365 
81 0.011816153229482268 -0.009431073149716815 0.011306100577015437 0.006512361349922722 -0.01325205205987385 -0.0031310967824345437 -0.014466810373317198 0.0048779923363728266 0.01400609356531974 0.014769585176282215 -0.0015827694033544702 -0.0021621483560369426 0.014712496497196007 -0.004294631463493354 0.014247134101285286 -0.010524308803173591 
81 0.009417694537078136 -0.006183587928049603 0.008984650826487665 0.004018265372466759 -0.010136450911502894 -0.0015960766297759225 -0.01078382259646373 0.004125165910969457 0.010088410219163214 0.010780800203041242 -0.0015913461294897121 -0.0012976397160550407 0.010818932808821615 -0.0030058706686450524 0.010472967664840677 -0.007704328758467643 
81 0.013375914293445094 -0.007192078882709242 0.012847063958654864 0.00433628900390705 -0.01411468497077346 -0.001193709576979032 -0.014753556414787365 0.006332961152148472 0.01341115465720851 0.0145969943883843 -0.0027520101905944127 -0.001378406206328917 0.01480649975598116 -0.003914858546899105 0.014356133604317119 -0.010524308803174062 
82 0.014546346073311435 -0.003719586625603131 0.014245621304369304 0.0011766347140709848 -0.014718806503899598 0.0014926402616708139 -0.014726316392354355 0.008207915065503765 0.012352959016836425 0.014211393805727418 -0.004322278491976441 -0.00030113441065067627 0.014867473112813615 -0.003391572037291789 0.014488682777364197 -0.010524308803174702 
82 0.010906613596925163 -0.0017695993747389818 0.010762398812102019 4.612199771803913e-06 -0.01090385585068399 0.0018144253673779483 -0.010749239553863019 0.006504451837302497 0.008745577215903591 0.010291654062396462 -0.0035832795288262644 6.856439333636703e-05 0.010896259673780008 -0.0023423361888172136 0.010641041836398066 -0.007704328758468438 
82 0.014628537981216603 -0.0010375737455360808 0.014686609266111648 -0.0011641825393019544 -0.014719796641420717 0.003423814387890176 -0.014400342512446172 0.009469218070503322 0.011414875177915895 0.013822766199401855 -0.005438468521592374 0.00048820943050355655 0.014862506189922287 -0.003005704380373764 0.014573621056039186 -0.010524308803175089 
83 0.012262256810986022 0.005314429294930083 0.013730618787296922 -0.006501148104556323 -0.013257556617726016 0.007706191545355089 -0.012637522751900639 0.01201048919214063 0.008701357110220624 0.012558859626567484 -0.00793226639390443 0.0023471257129747264 0.014684122022817573 -0.0020846880718347807 0.014733593083507008 -0.0105243088031759 
83 0.009697382166207502 0.0029812251554679784 0.01049156836274842 -0.004009688742674687 -0.010139846639458995 0.005047318767727929 -0.00966244604937428 0.008475039132997436 0.006853227432185697 0.009437920945763071 -0.005448273464436462 0.0014336872012864136 0.010801746014572917 -0.001669557578163703 0.010767120677256657 -0.007704328758469072 
83 0.013677967239063138 0.0026999079440437656 0.014473546493743671 -0.0043243467706766126 -0.014118348315455767 0.0059702672771275505 -0.013544307958628179 0.011022104304469262 0.009923642622320037 0.01314975672461922 -0.0069086687101799025 0.001564628604280425 0.0147879807960443 -0.0024751276257209244 0.014673051241770233 -0.01052430880317559 
84 0.009425842048713017 0.008605486119480477 0.011946491520958575 -0.009217986602474838 -0.01153501006268179 0.009863482934200944 -0.011036488293168804 0.013143734193521122 0.006870787265238745 0.011622282955827113 -0.009250315895059327 0.0034057164914581147 0.01447527318820985 -0.0015489150161895479 0.014799511876404284 -0.010524308803176244 
84 0.006089147945446649 0.007164585715058212 0.008223710942720694 -0.007460840817111316 -0.007951726101079836 0.007786145440354996 -0.0076298250033524214 0.009913108550952688 0.004530264164496206 0.00824984477442008 -0.007120259596372391 0.0027761999056288783 0.010536882368065695 -0.0009901899864974888 0.010850706611831521 -0.007704328758469499 
84 0.006862457130544342 0.010654852534477314 0.01016106138557711 -0.010925046738485015 -0.009933332165566784 0.011234232982166989 -0.009637654213600405 0.01379709710634661 0.005441100773937288 0.010850049190335014 -0.010145059774639451 0.004169026420847228 0.014274160479543673 -0.0011554444518796678 0.014835418350212537 -0.010524308803176428 
85 0.0028418894655880232 0.012873045337009703 0.00714547092669474 -0.01281698760975154 -0.007331613926075851 0.012791192158748193 -0.007448340257838428 0.014439494923921312 0.00338621507529452 0.009683084019121196 -0.011264266027679513 0.005193094195088934 0.013934281875088123 -0.0006165895467212701 0.014867565598915942 -0.010524308803176645 
85 0.0009745398745330642 0.009984196793924528 0.004390503902520577 -0.009864139970736175 -0.004646809262556696 0.009762809948014938 -0.004850343525885664 0.010728300900788806 0.0019226477382052476 0.006769513739043869 -0.008540006982353942 0.004074930279038028 0.010105845792185573 -0.00030691456732937124 0.010891469764625803 -0.007704328758469755 
85 -0.00023502276096467887 0.013967168331532304 0.004657387659579109 -0.013814555024790731 -0.005214000730396679 0.01366258942118066 -0.005694384931387481 0.014716782667187378 0.0018389600650585767 0.008756870352322725 -0.01199845935511319 0.0059251790916071325 0.013639086898537064 -0.00022164082054537703 0.014878694998347692 -0.010524308803176757 
86 -0.00727436116133577 0.014620890970956877 -0.0017328006891598438 -0.014763850111634707 0.00023762161251275854 0.014753556414791228 -0.001193709576977442 0.01471175864850839 -0.0018787292679298313 0.006353475016406024 -0.013426807531188759 0.007587888148561809 0.012788916769544776 0.0007130375258494798 0.014863252234753512 -0.010524308803176901 
86 -0.004445108603430891 0.01469027321761537 0.000984339273207158 -0.014615880796461351 -0.0020985144014705253 0.01446681037332097 -0.003131096782432619 0.014827969083504158 -0.00031112546145841585 0.0074008570036075685 -0.012879173920552508 0.006898573701058916 0.0131735386128596 0.0003181693199948776 0.014876943832353313 -0.010524308803176853 
86 -0.004381156341401796 0.010903356997516595 -0.0002784175328041452 -0.010882049979490585 -0.0006892618723860214 0.010783822596466548 -0.00159607662977463 0.010869394649097783 -0.0008057757164809247 0.005049369304570688 -0.0096572203634282 0.00530939656770125 0.00951543399122288 0.00037757210342001984 0.010889249262098322 -0.007704328758469891 
87 -0.010632446191001947 0.013711267893821174 -0.005364157320289426 -0.014362016960439341 0.0034293152345054837 0.01472631639235824 0.0014926402616719514 0.014284747412115033 -0.003988916841228571 0.004856450939098201 -0.014037830656472928 0.008495258578754928 0.012205040777215598 0.0012516725177626929 0.014827609565113494 -0.01052430880317692 
87 -0.008653013011106962 0.009747107954170924 -0.004894343333644504 -0.010371608407646013 0.003365090299428959 0.01074923955386587 0.0018144253673786604 0.010327524356766867 -0.0034835693194648736 0.003150348445157056 -0.010432321898592146 0.0064601305008119775 0.008774958111973761 0.0010605686695734542 0.01084405386755809 -0.007704328758469899 
87 -0.012514119796495743 0.0124915870318237 -0.0077931575397461456 -0.013639606325162493 0.005655870706103011 0.014400342512450016 0.0034238143878910048 0.013782340727880336 -0.0054783711315313606 0.003725004660554724 -0.01437950435663628 0.009130931676628914 0.01173705778336804 0.0016449018388856027 0.014789151004962794 -0.01052430880317688 
88 -0.014189458641333027 0.010122379010261109 -0.010691608587370007 -0.012091050523028184 0.008475507736953524 0.013544307958631817 0.0059702672771280215 0.012843962525196912 -0.007416069905654441 0.002140002678923158 -0.014699190242931037 0.009957968153842436 0.011044062157576829 0.0021802359359375865 0.01471975749701062 -0.010524308803176771 
88 -0.010784229866877227 0.006735536922964612 -0.008578650971872305 -0.008404505257049727 0.006946825538985334 0.009662446049376909 0.005047318767728172 0.00913673772712277 -0.005942477450435113 0.00113972492149055 -0.010837853229541483 0.007508984316829997 0.007896095901392827 0.0017393796557157693 0.010756061946579567 -0.0077043287584697764 
88 -0.01465805238374097 0.007984560778298799 -0.012370118843023702 -0.010599720364182776 0.010279769567004668 0.012637522751904077 0.0077061915453553375 0.01198692765141626 -0.008733786788899186 0.0009645741575294261 -0.014822800071454336 0.010529974957601392 0.010500098384569034 0.0025702744758477024 0.0146566837526759 -0.010524308803176688 
89 -0.013175778644114374 0.0019577061567042663 -0.014592478803028974 -0.006071135178053458 0.013459905341398183 0.009637654213603271 0.011234232982166767 0.009438331825777843 -0.011440426501699704 -0.0018300268659078682 -0.014740990703943632 0.01176295424319038 0.009097546161790582 0.003485503413700235 0.014466373265619172 -0.01052430880317653 
89 -0.010247572331839113 0.002441884087393417 -0.010630047612383469 -0.005257014319412018 0.009552899776004129 0.007629825003354637 0.007786145440354884 0.007371856263512916 -0.00802799786829132 -0.0009112739257213575 -0.01085944820670265 0.00843941696452181 0.006892707541547823 0.002411326105003849 0.01062562076307525 -0.007704328758469641 
89 -0.014236188596210526 0.004606736833775884 -0.013983956048171384 -0.00812193197155751 0.012331340365061155 0.011036488293171932 0.0098634829342009 0.010596144236031006 -0.010377244023510927 -0.000652256243035466 -0.014839823686860645 0.011263634622542039 0.009708912080310033 0.003100194958928284 0.014553813270884636 -0.010524308803176601 
90 -0.010761075689114007 -0.0017857787886767448 -0.014614514878392661 -0.003012112211248119 0.014455272884883526 0.00744834025784086 0.012791192158747718 0.007682531234622921 -0.012686377734536522 -0.0034214086624072214 -0.014454748978398723 0.012391666844675023 0.008220646659713785 0.004007918928760249 0.0143304317927834 -0.010524308803176485 
90 -0.007175802310369268 -0.002316571360444746 -0.010658058325500576 -0.0013711913432844659 0.010817297628566269 0.004850343525887332 0.009762809948014546 0.005143773959075771 -0.009609089655172038 -0.0029299904398057976 -0.010496341817243689 0.009236754965219845 0.00578061706626871 0.0030737561517854427 0.010453245108803511 -0.00770432875846956 
90 -0.008433993297492393 -0.004441789795568011 -0.014037220324011558 -0.000689877098223329 0.014749637410422822 0.0056943849313895924 0.01366258942118008 0.006296690899769502 -0.013428222142453063 -0.004559798275274168 -0.014136974391733708 0.012810424713516101 0.007551520201430025 0.00438697666195373 0.01421897061234043 -0.010524308803176442 
91 -0.0046238164254459695 -0.007838378749205097 -0.012463260793102343 0.002520749757806844 0.014549005285864393 0.003131096782434285 0.014466810373320272 0.004286196541369981 -0.014198379675267731 -0.006069355974195313 -0.013557607581068705 0.013324275078244706 0.006602736730517627 0.0048998254736242015 0.014050494647347667 -0.010524308803176414 
91 -0.0023288346666625226 -0.006634076959190053 -0.008657351386963786 0.002707211382133224 0.010562438175787257 0.0015960766297757364 0.010783822596466005 0.002592489419312532 -0.010586406999258693 -0.004844910581835165 -0.009761397286035199 0.009888423822346558 0.0045773628066813395 0.0037240554873014067 0.01023961527172085 -0.007704328758469516 
91 -0.001605750687961251 -0.009995809293498872 -0.010810034578154055 0.004788272169891787 0.013967826737779522 0.0011937095769788298 0.014753556414790498 0.0027594057269193515 -0.01457227320044976 -0.007128036557485278 -0.013032148713812485 0.013655867133533112 0.005886402256433501 0.005271136517541287 0.013915452178084617 -0.010524308803176388 
92 0.0056197331888012455 -0.013647167524529817 -0.005525203124802212 0.009593922841420372 0.011224276309074502 -0.003423814387890188 0.014400342512449453 -0.0009512630561376296 -0.014800694740190348 -0.009443760591017657 -0.011465652670622974 0.014285948371234893 0.004128452231486799 0.006134493605447173 0.013557015811447385 -0.010524308803176374 
92 0.0026573132472841473 -0.012398975490834033 -0.007939676176683558 0.007699579914482796 0.01259937313083775 -0.0014926402616709108 0.014726316392357561 0.0006205443558944551 -0.014818245203014243 -0.00850229332476511 -0.012180181176134227 0.01404675153429458 0.004880697698797555 0.005772394645860929 0.013715106618599348 -0.010524308803176374 
92 0.0030942555601409286 -0.009688813241188393 -0.005008753149757532 0.006405394314157515 0.00882411567042458 -0.0018144253673779951 0.010749239553865425 -0.00012169076517533631 -0.010898541457500528 -0.00658819735110873 -0.008680650389496421 0.010384146328736979 0.003301920801248647 0.004359657677168008 0.009985574351195957 -0.007704328758469505 
93 0.009281059124574054 -0.014599478144734274 -0.0019048067918642155 0.01179702695360033 0.008880196462106056 -0.005970267277127394 0.013544307958631506 -0.003084098913664535 -0.01450702588696171 -0.010634032695549673 -0.010371265780695837 0.014547702327526165 0.003081687148779951 0.006622182813586569 0.013325591329863684 -0.010524308803176365 
93 0.007751868300891124 -0.010899323694646279 -0.000406759311086235 0.0092039586501587 0.005846472342450443 -0.005047318767727754 0.009662446049376737 -0.0028282246713399787 -0.010525880473935925 -0.008098093944722225 -0.007292387125235581 0.010716104644334961 0.001974405532308383 0.0049780542899208685 0.00969212493068194 -0.0077043287584695015 
93 0.011454970154782518 -0.014700843437961512 0.0008113280627723747 0.013052135560865924 0.006904309628800623 -0.007706191545354795 0.012637522751903968 -0.004602160482876787 -0.014099134196257218 -0.011424934697496211 -0.009492980165460175 0.014690731669110524 0.0023053940486317303 0.006973640649675788 0.01314507609701378 -0.010524308803176344 
94 0.013608794970208291 -0.014021030063649725 0.004492634746684093 0.014237616615212185 0.003913822590230732 -0.00986348293420042 0.011036488293172147 -0.006594956905955705 -0.013284276781322324 -0.012389056156575987 -0.008194943124458332 0.014819227164676605 0.0012340765515153997 0.007445836251134501 0.012883486020032728 -0.010524308803176327 
94 0.010491772389641265 -0.010035192623811149 0.004272659492731023 0.010709854345853129 0.0020477093483882466 -0.007786145440354558 0.007629825003354889 -0.005357050819921681 -0.0094918397087135 -0.009321111523099047 -0.0056457874114975125 0.01087906358820123 0.0006157527086708974 0.005576804796648073 0.009360425120977288 -0.007704328758469475 
94 0.014456400543876638 -0.01295627414894035 0.006993426284044811 0.01467721462881761 0.001614653179226786 -0.011234232982166324 0.009637654213603753 -0.007963887240914624 -0.012511673197784852 -0.013001374796499196 -0.007184014105280814 0.014863833352746665 0.00044597842445401873 0.007785265920213527 0.012681258772639412 -0.010524308803176272 
95 0.01456989675490757 -0.010773736465324894 0.010034921703161429 0.014678575334231945 -0.001602236033436496 -0.012791192158747295 0.007448340257841722 -0.00969142950129094 -0.011226827709360003 -0.013705191126783197 -0.005728310522508557 0.014857043936863018 -0.0006329961701682551 0.008240104374678254 0.012390535476785645 -0.010524308803176164 
