300 64
0 -0.007531969223436986 0.0022415715300704657 -0.011555922278072802 0.007707515679467687 -0.009151667849452462 -0.0027730142061768125 0.011832444623799428 -0.009472719322444522 -0.007901445234157842 0.010186693545886201 -0.007265424863616174 0.010563184624955467 -0.007019654002766906 -0.003676092729263924 -0.012310426143831425 -0.0007718739208337334 -0.012983166275887728 -0.011976752260689295 -0.005449822550829365 0.005602595252535778 0.012067239762454865 0.008323177565959376 0.010557884856352381 0.01155843175180478 -0.007123909839525316 0.010396030883766583 -0.00892936737159027 -0.013824931763758378 2.7696229770307893e-05 -0.008939714229950756 0.010694813733100581 -0.0024252671083511337 0.01383576172971205 0.011952998368840784 0.007568937255866176 -0.013312491258029543 0.005062517826028334 -0.013898428074495199 -0.0034936383951390064 0.012382362503219663 -0.007375451065010168 -0.009663703480246666 0.010793795709230284 -0.014155880010665006 0.003390983217496769 0.01269994108917909 0.007239638185375906 0.005395054589866531 -0.013646371997930909 0.009390233255909701 0.011340042787069217 -0.013638521373225233 -0.005658486449708623 0.0004891643366097659 -0.014793684047267061 -0.013562245457918702 -0.006002579806499595 -0.0002776796056354086 0.014851555450532584 0.013308935204369177 0.0066336025219726515 -0.013168519768210046 -0.006929269559022832 -0.010524308803159825 
0 -0.009789905505723801 0.005713821741995546 -0.009660681778854137 0.003966469515377429 -0.010468911587204545 -0.005954087178516886 0.009448980894803614 -0.010390897250443313 -0.004026489816415043 0.006579157108466607 -0.00896601012465425 0.0069280505605027335 -0.008672211552149945 0.00012663639972782385 -0.011079526132231175 0.0025553415951536824 -0.010763018483515902 -0.01093096261861892 -0.0015867892421761738 0.0017772500749227804 0.010886024988259307 0.008830606956225088 0.006585708489293849 0.010509144665570224 -0.003258965180025288 0.006391232341925721 -0.008941474018433997 -0.010697523820948443 -0.002473270666644804 -0.008686362138486848 0.006699064969412427 0.0003534420284244563 0.010954469671406062 0.007951359990306838 0.0075308487147354945 -0.009358694136852775 0.005672881152035434 -0.010904203757834451 -0.0008423147120244457 0.008402932101688517 -0.006990059441360006 -0.008379577567419751 0.007008978669032751 -0.010860377113730122 0.0011319833664162058 0.008777216075024862 0.006487549168581265 0.0029210106954334998 -0.010512191949335578 0.006151142101978397 0.009006895190859399 -0.010370962849052201 -0.0033670793379998276 0.001080280790318913 -0.010847639550346047 -0.00971889649672274 -0.004933159781433401 0.00022991728649952547 0.01089519038673003 0.009877787668992222 0.004600270287802735 -0.009574137779793239 -0.0052013648169501785 -0.007704328758457779 
0 -0.011406167723854011 0.00904723619626517 -0.007530703807099673 0.000291797805341866 -0.011961340912152917 -0.009477024073399475 0.007608046285028898 -0.012323499152681277 -0.0005446253612094238 0.003874600595824812 -0.011897167480938197 0.0045134918218692815 -0.011852628540259551 0.003956506209411546 -0.012223187318035393 0.006525434258866177 -0.011250649031510383 -0.013031991736346454 0.0018194372572926194 -0.001473793036211335 0.013222529377344 0.012493110133183128 0.004966529636944157 0.01356112363544396 -0.000665854118426521 0.005083428995130426 -0.012726736009067914 -0.012409785540830989 -0.006093170618347722 -0.012615342506423028 0.005928799604011909 0.0033121062254028812 0.013650647440317963 0.0082066086174049 0.011524519781296828 -0.010646574195617754 0.009460547982604503 -0.014270089352623042 0.0013177109114168154 0.009506299183593706 -0.010832841520371951 -0.01233176293586239 0.007603999846161375 -0.014550897475876151 -0.0003988592536711055 0.010647105930315906 0.010016985576130762 0.002418566714672376 -0.014473445262971394 0.007145695645564707 0.012872920599222876 -0.014361359011194669 -0.003432069565296656 0.0024380166926491124 -0.014599604242750272 -0.012850776208621935 -0.007404256683162085 0.0009039674655454233 0.014826619577128032 0.01364218671709319 0.005918038549180403 -0.012979906802904928 -0.007276448920677119 -0.010524308803160895 
1 -0.0047428496210209685 0.009919247290086437 0.006338179219570493 -0.011085506672557484 -0.004502262119049438 -0.010771086027558413 -0.005628504184050209 -0.005986478316502627 0.010785514615272178 -0.008484866059923681 -0.009195769233283985 -0.007669070169564679 -0.01010157287127818 0.012310426143832114 -0.0036760927292649103 0.012909080598464757 -0.0015855705595669365 -0.006907934160661845 0.011199268109183712 -0.010803674106634317 0.00776453313766908 0.012296079578729312 -0.005436050443845191 0.010346992714011183 0.008791312628898599 -0.004475281597180037 -0.012953104431717339 -0.005911429950255974 -0.012497379777254071 -0.013678676891838815 -0.002681665487634432 0.0103823968973518 0.009461292610106784 0.0009023972925273829 0.01411908850865492 -0.00458496426444397 0.013484421119488568 -0.012060881500965464 0.0077399579842255565 0.003977510116731752 -0.01385278285561469 -0.014326235831297357 0.002156886105653468 -0.013445517424977259 -0.005577254452895786 0.006843722788147585 0.012917597420680708 -0.0018464674718595847 -0.014557494310797586 0.003668181694716782 0.01425894435319347 -0.014763804268280705 -0.00024045306685695154 0.005036722709891011 -0.013918469520109802 -0.011643381682857232 -0.00918679101653787 0.002510142847560945 0.014640525542086794 0.014035401129355102 0.0049132427002654975 -0.012707442266938545 -0.007742454426066708 -0.010524308803162394 
1 -0.0008558703957012364 0.006878876682735663 0.008868911258734348 -0.011182233071450378 -0.0005372650862309037 -0.00767140251593782 -0.00811689457355486 -0.0020081096253399757 0.010961334847708183 -0.009719897491335332 -0.0054035394484744665 -0.009090114817649268 -0.0063698469664563735 0.011079526132231444 0.0001266363997269021 0.010902231351451496 0.0018744836899445348 -0.0029442898260109694 0.010645891286743914 -0.010360180101694781 0.003785607762866617 0.008574888994372469 -0.0069153780992411975 0.006346964368848757 0.008987714890174943 -0.005960802744545806 -0.00923399367074822 -0.0023169019067328877 -0.010732476379886023 -0.01005512225753783 -0.00438461800517574 0.009438548361934331 0.0055712774000791125 -0.0014188924543165748 0.010859307172319603 -0.001594426103213392 0.010827028304833045 -0.008078462124363936 0.007372218348073914 0.0013404489196284408 -0.010847736888089841 -0.0109242666318412 5.9167117390921044e-05 -0.009451592778948864 -0.005467775721004885 0.003934645962039656 0.01018068648941932 -0.0025045859095662276 -0.010619111661721251 0.0017307703238673869 0.010768711353911449 -0.010882181968224625 0.0006871748651246233 0.004379513054972017 -0.009982893157871837 -0.008186732542067088 -0.007195166768590099 0.0022673999165781274 0.010659124407757084 0.010376465113309748 0.0033259807135335947 -0.0092286490067697 -0.005792266196860832 -0.007704328758459653 
1 0.003087206392039216 0.0036713615442479407 0.01118414444795405 -0.011466081698902604 0.003418741413156511 -0.005012185473293981 -0.01107133010727428 0.0017742149227860647 0.01220726871818478 -0.0122889709832838 -0.0023529377421977406 -0.012112644581697139 -0.0037603527729368432 0.012223187318035386 0.003956506209410467 0.011638183852882324 0.005806123707219502 0.00017174878698160184 0.013157266543762472 -0.01326448330630357 0.0010299668271923905 0.007917407124949394 -0.010865490410113381 0.004823882564404278 0.012691634763404663 -0.009961684858402532 -0.009411476747828424 0.00022943591472292455 -0.01382305554191019 -0.011272934300157649 -0.008198687917174532 0.013300338098430311 0.004517878888996857 -0.004499808838431726 0.01341322860486487 0.0005030957035872568 0.014233706648198353 -0.008807978453248478 0.011304482639422747 -0.00048579644403583673 -0.014404311208402796 -0.014348758568840698 -0.002001578951678345 -0.011537479754343953 -0.00887548685852345 0.0036222795861355272 0.014162625297721186 -0.004853229264146549 -0.013848330168044104 0.0009845957156844692 0.014690256032131272 -0.014616282987516067 0.002095711282194875 0.006830217484538684 -0.013131660159799042 -0.010605681684028787 -0.010367496429287613 0.0036661871837038885 0.014394612769981519 0.014276340907831612 0.004161553673447343 -0.012497401913747815 -0.008077105602474863 -0.010524308803163428 
2 0.01157078352671263 -0.009544608473333957 0.006889443497993101 -0.0008562957733135823 0.011934218865286093 0.008130334543849592 -0.009032940482922516 0.011716227675814967 0.0038594374199712347 -0.008059822146585755 0.009570495849853358 -0.009600094824448008 0.008288220020068363 0.0036760927292642616 0.01231042614383164 0.002393009675680514 0.012784048677516454 0.010245164809478987 0.008257103522184355 -0.009651408565449916 -0.009157382909493078 -0.002207356279950676 -0.013261666399357002 -0.005163638573198113 0.012557239849910931 -0.013690952955966356 -0.0006073441780175699 0.008791002851045232 -0.01066994724572805 -0.004239791469036429 -0.01327861813585991 0.013551600015766685 -0.003696533538447876 -0.010892166728328259 0.009029046746532704 0.007467358829435662 0.012128069192843456 -0.002614054978374419 0.014090370071361553 -0.00658340232252228 -0.012821037143438177 -0.012413405374040721 -0.007469977094100381 -0.007599424179277396 -0.012415170486188915 -0.0011432485603241169 0.014573738279971257 -0.008631198150015227 -0.011867287020574144 -0.002752093194428902 0.014463714393684856 -0.013815554728582868 0.005211351234661768 0.009091251571417238 -0.011680818220644804 -0.008992921415299471 -0.011793762360353142 0.005209042238969404 0.013910847717386649 0.014540520394188898 0.003115398106146102 -0.01219621429651773 -0.008525083362681759 -0.010524308803164833 
2 0.010518729287230149 -0.010778388545605866 0.003130953799010762 0.0029445305929019635 0.010800959671463854 0.009769687630686346 -0.005411801703550841 0.011143461693300147 -8.140885034072926e-05 -0.004142704743461349 0.010320496268193386 -0.005786504496540051 0.009472143552841903 -0.00012663639972763523 0.011079526132231305 -0.0011862280539808657 0.010998418092997547 0.010192927889729846 0.004255357200459231 -0.005659858408524012 -0.009467320670035523 -0.0045656306033016346 -0.010025277687699041 -0.00658650496023702 0.00881367846334703 -0.010779868029880775 0.0021429544393592698 0.008724546115999415 -0.006666061712888658 -0.0010018220437346948 -0.010923676636464331 0.009761412207634396 -0.004983990244959321 -0.00961936810877954 0.005235032497271097 0.007326043240713419 0.00812993400634198 -0.0001559719773413456 0.010935576180921239 -0.006448641683548429 -0.008825260298518805 -0.008455006647474948 -0.006917800574059841 -0.004432621250432396 -0.009979030325863614 -0.0021329531495972447 0.010704126639014456 -0.0073105814220268675 -0.008099005021260632 -0.0030190464806972147 0.010480747515574745 -0.00986503096937263 0.004644917400572262 0.0072500480679425945 -0.008140951628198632 -0.0061401660730972 -0.009005074965703928 0.004224558774216538 0.01004545363261155 0.01071149950419063 0.0019992384365673565 -0.008846738972285268 -0.00636030814832713 -0.007704328758461435 
2 0.008777230622818925 -0.011750272848705248 -0.0007036125370279392 0.00679463040236316 0.009848442520075279 0.011969983753004992 -0.0021013906147433273 0.011658589703502684 -0.004030202758619931 -0.0007941676547990566 0.012486970072148478 -0.0029923733295517227 0.012324857548711814 -0.003956506209411454 0.012223187318035475 -0.005063899037865916 0.011979788079565942 0.013075043398012508 0.0014786482643013238 -0.003497239602260231 -0.01283653630122595 -0.008555151964099133 -0.01037080480510798 -0.01057980025290401 0.008509715775010461 -0.012417710560100733 0.005797544673274669 0.012605163663291591 -0.005677970973450603 0.001753787472406696 -0.013828295657836224 0.010941248845434732 -0.008809046309928835 -0.013496451164135878 0.004243676137837274 0.011287944736829897 0.00868526417860971 0.0022111370341159624 0.014159190838259119 -0.010214559917623739 -0.010167740420708397 -0.009780054053506335 -0.010688486023620544 -0.00411713691116639 -0.013961980150122979 -0.004530322313215699 0.013898814498443946 -0.010924401162584457 -0.009797323204448784 -0.005363917966977847 0.013711361531826172 -0.012818393454567218 0.007329155708087484 0.010553829000117964 -0.010378297686750476 -0.007694193174259299 -0.012679308245776299 0.006298530393129127 0.013452669629130502 0.014685348674181012 0.002339438610292169 -0.011965575488757136 -0.008845885638538081 -0.010524308803165744 
3 -0.010561532465013328 0.0049797663284570515 -0.010666110347040462 0.007266769169248993 -0.009505413626812734 -0.0009414423445059036 0.012116519297013665 -0.006143418652501788 -0.010696899336270427 0.012488042183620129 -0.0007771269309282705 0.012488429933673663 0.002212584355720087 -0.012223187318035726 -0.003956506209410468 -0.012274113555745647 -0.004301689472485405 0.0031057261491515198 -0.012786619007224534 0.011953848598117902 -0.005840620920894479 -0.012172566678209247 0.005707261856531361 -0.011362558714883736 -0.007432341179847003 0.0008191565677928451 0.013679913826865807 0.010504599394513354 0.00898793062470435 0.012962721417008815 -0.0051249765622802205 -0.0015751094945967538 -0.013958124991138316 -0.011366221066697588 -0.008424488106212456 0.01388731783683825 -0.0031613151586966514 0.011835233368280088 0.008080783581821743 -0.014406391001692092 -0.0004196163485192342 -0.0007225637577385814 -0.01446966110116905 0.004875812295739879 -0.013715471574627073 -0.01127243486728117 0.009307689127095876 -0.014293022164357095 -0.003322589373170561 -0.010691431883144626 0.010122565648145431 -0.00922019865432499 0.011533241995391758 0.01324435820031531 -0.006609035126270889 -0.0042992502100878665 -0.014194432493949055 0.00870774502329206 0.012034158959938266 0.014862759719336585 0.00048042920273964586 -0.01138652640386368 -0.009579755005286645 -0.01052430880316758 
3 -0.005110350404692288 -0.00289203784049366 -0.01141052583146087 0.011614726564888038 -0.0028734907688776515 0.00672722206691348 0.010121306082980105 0.0015956740287429475 -0.012231887529903307 0.0105051932030933 0.006796766849932248 0.008874660052680184 0.00906072958921159 -0.012310426143832242 0.003676092729265098 -0.012608563956915612 0.0031910046758654347 0.009476053428604202 -0.009129489140562918 0.00718668685743808 -0.011196378033160318 -0.01339397394711623 -0.0011600341971028368 -0.013538296857867525 -0.0010305115967689158 -0.005604670268304084 0.01250594782400058 0.013397483882385158 0.0034112946186084354 0.009593606656572077 -0.01011238066025392 0.004140223909218983 -0.013422696046984508 -0.013706907229371623 -0.0035048074689124995 0.014104711580331879 0.001977023386212515 0.008481993960596032 0.011551086123403926 -0.013575697626355797 -0.00483948484152743 -0.004803150625987676 -0.013668318654126013 0.0011493908079785223 -0.014510913369882604 -0.008774276158690787 0.01169243099679425 -0.01328068571942175 -0.006241271469456562 -0.008648518441170544 0.011915375771903108 -0.010926951583996538 0.009931236742243176 0.012255865386658833 -0.008299767048697062 -0.005777402821566871 -0.01365968824064354 0.007723408712132873 0.012688371177147583 0.014816326966320634 0.0012684218228439295 -0.01163685344018886 -0.00927406769000434 -0.010524308803166833 
3 -0.008101443812462012 0.0010567022412898345 -0.011174073192208773 0.009362413084123097 -0.006138095101850682 0.00281215748691531 0.010808615283584103 -0.002168043376912487 -0.010930825852916664 0.010758334653735773 0.0028165371099124854 0.009816790064842216 0.005180325336978116 -0.011079526132231635 -0.0001266363997268574 -0.011051199103031043 -0.0004932909178247132 0.005499315049826212 -0.009579215930934819 0.008239076683777982 -0.007333605748378286 -0.010845741313515294 0.0019290077453408127 -0.01041764830134501 -0.003540562033913456 -0.0019758654484535866 0.01081174195957377 0.009746364035727009 0.005055934312600368 0.009089859356807381 -0.006140424703455746 0.0010223040734365903 -0.010912388438405333 -0.009889352967109771 -0.004705157377984086 0.010934017526347253 -0.0004625983634008059 0.00786492179297389 0.007599615704550696 -0.010742163873206059 -0.0020189388848060193 -0.002105122547432335 -0.01071968102378124 0.0022794609364941223 -0.01067863452100854 -0.0075364697780244535 0.007894899589440577 -0.010308036760687306 -0.0035753127419578513 -0.00719420018064173 0.008197816410404785 -0.007462365687539516 0.007950295090765816 0.009410897861967806 -0.0055021170318121015 -0.003707790387803327 -0.010249161184373497 0.006032060531155788 0.009075917654443915 0.010877607149150885 0.0006409669751691296 -0.00842991490076775 -0.006903248869280299 -0.007704328758462824 
4 -0.007219020776794318 0.01167386874609161 0.0015115459372138185 -0.006322000013823667 -0.010158303903760543 -0.011476318737356758 0.003998807547448017 -0.012314226670127312 0.0007246169104647996 0.005426522479862938 -0.011274217384022714 0.008485605793740183 -0.009426075856510624 -0.003676092729264567 -0.012310426143831595 -0.00397640623842716 -0.01238331899468029 -0.007869835974208534 -0.010545560311738159 0.012344710227175652 0.004961398840588547 -0.004454535459243954 0.012684688852187384 -0.0032034890347499663 -0.013194131042515125 0.00956451948503732 0.009814837075233796 0.0026177395413477284 0.013574864457789533 0.013483301978417147 0.0035352650618750954 -0.009114714200222439 -0.01068794686721805 -0.005221269119603111 -0.013149195031235216 0.010514004230143476 -0.009607664923511283 0.01422670381483568 0.0017241550808568527 -0.013209113007423232 0.005765371898728102 0.0050116230453001774 -0.013593263964866757 0.009459177572943268 -0.011063980554086637 -0.013673484213373954 0.005170753735226322 -0.014644709072969726 0.0009287512592699639 -0.0128987337042158 0.00709899428374754 -0.006503690561896033 0.013256309562792475 0.014220789706219122 -0.0041062768501454 -0.002198868760753775 -0.014667325671955122 0.009964169581220704 0.011016402762264142 0.014858471211348867 -0.000598558230323063 -0.011031567239704086 -0.009986451509072876 -0.010524308803168505 
4 -0.003619875272981425 0.010000392465814356 0.005095947592084703 -0.008730820095606759 -0.007007408272340807 -0.011168397886907853 3.5815072985048406e-05 -0.01033096005721066 0.004177873885994998 0.0014459510036221401 -0.011026507675071741 0.004553701799976701 -0.010122694191321256 0.00012663639972736708 -0.01107952613223132 -0.00020159301222151297 -0.011060366079016073 -0.008814434014562436 -0.006656545415728609 0.008747556448482215 0.006718959298466497 -0.0008288217636530087 0.010984727124757005 0.00014804422716314014 -0.011001866139583113 0.009325138861126675 0.005817180905861231 -0.0004249461670649986 0.010971485972525548 0.009759968328154487 0.005007332313594884 -0.00866585637730753 -0.006710310000073875 -0.0020062635487842232 -0.010766276730259391 0.006613166910539083 -0.008719676595242275 0.010923790880812878 -0.0005309863074804104 -0.009212759224825463 0.00588177408310919 0.005210957046550006 -0.00960151180025186 0.008120866521707492 -0.007299363282566326 -0.01059355063697855 0.002627641745783805 -0.010755421521029223 0.0018328641432132364 -0.009999967407903843 0.004354464602993647 -0.0040116333213746245 0.010139077461961394 0.010650543403682773 -0.002324696884848205 -0.0010424405961444313 -0.010849254912050828 0.007625873536539657 0.007784862768635792 0.010872168431401544 -0.0007274129183227187 -0.007979821806398626 -0.007418945620740777 -0.007704328758464003 
4 0.00021653299877078796 0.00808392434443032 0.008556526737807244 -0.011285740737358685 -0.003973773821578537 -0.01150172937215017 -0.003925121018867106 -0.009356265977190078 0.00803900087786286 -0.002336165760722071 -0.012292170409862104 0.0014240633222701434 -0.012602716191108037 0.003956506209411159 -0.012223187318035528 0.0035225031040118874 -0.012519998713228106 -0.012296541996335454 -0.004683824877361601 0.007977095331608834 0.010647689848917829 0.0025007634966780594 0.013209481419350185 0.003557352767939436 -0.013103155240141539 0.013020813850295753 0.004274279643285093 -0.003659881886549861 0.013331720441495717 0.010735889865595446 0.008890343080708964 -0.012629220589896371 -0.006149228445906915 0.0001346569295343246 -0.014147255871727262 0.006416274348101063 -0.012715460421228592 0.013992412466377651 -0.0030958368091147646 -0.010789054231575676 0.00955596611346096 0.008666564165331592 -0.011609644970236581 0.01200636692843812 -0.00823011902935695 -0.014504940780480188 0.0018186692053532116 -0.014125740438697807 0.003974108678944347 -0.013983875627955986 0.004606980945784386 -0.004327054353452698 0.014117518718660807 0.014638437340996223 -0.002192834159776399 -0.0006341695436801392 -0.014817668345056042 0.010808483444822952 0.010189332210049012 0.014805776165136076 -0.001386156860334732 -0.010762539901263225 -0.010275817455602992 -0.010524308803169156 
5 0.010377141931378958 -0.010931548394917228 0.004366375191260767 -0.0002917978053419877 0.011961340912152826 0.006662169904027319 -0.010164243490432734 0.009649797489340965 0.0076841822313708985 -0.011902443765753147 0.0038583618609112713 -0.012667265285369536 -0.0006299221614799549 0.012223187318035723 0.003956506209410396 0.012716473155634931 0.0027294150250655124 -0.006188056889271484 0.011612541172567421 -0.008964331378492561 0.00983097716327707 0.013416395861838999 0.0008628670308376128 0.013561123635443817 -0.000665854118426833 0.008767405980668311 -0.010532979263398716 -0.013621203228247315 0.002364810345143049 -0.002618612642004943 0.013690887448592837 -0.01195904008893694 0.007368282251610373 0.011524519781296408 -0.008206608617406285 -0.005707543448260591 -0.013048963867685698 0.007321697549358606 -0.012319275838035755 -0.0013233731070416063 0.014351615351349288 0.014077968675246804 -0.003421109285816175 0.014550897475875497 0.00039885925367002617 -0.013221418250143491 -0.006236582732435373 -0.010463939249636043 0.010287665338328998 -0.014614546049844935 -0.0017855236682629704 0.0011738118723234223 0.014719031892004285 0.014599604242750301 0.0024380166926510306 0.00307075832746968 -0.014509855598470945 0.012526325951831492 0.007983543286802222 0.014515296676269714 -0.003230882401671659 -0.010096078570609589 -0.010931325948996371 -0.010524308803170717 
5 0.01125776950896651 -0.005702837580015634 0.010297651487462629 -0.007707515679467958 0.009151667849452462 -0.001019133243191126 -0.012110232078517615 0.003019237934367027 0.01196032819139548 -0.011865440421914482 -0.003970698608639394 -0.009940291245300143 -0.007876993188905569 0.012310426143832154 -0.003676092729265142 0.012109202729774931 -0.004746114742211743 -0.011448757409140512 0.00648607079332811 -0.002560350796341561 0.013055724907027454 0.011178378105653811 0.007469141875846517 0.011558431751804456 -0.007123909839525638 0.01264653918245061 -0.005279782808013772 -0.01116832530755121 0.008148497725250572 0.0033976538776787023 0.013518634525217477 -0.01390804010332841 0.001968919417449998 0.007568937255866278 -0.01195299836884249 -0.0007009545311065852 -0.01422533560163885 0.010995703886104822 -0.009190555381858251 -0.005682360330595458 0.013245035320706849 0.01252619447439595 -0.007279261140827593 0.014155880010664309 -0.0033909832174977444 -0.014315532961834132 -0.0029608074477033234 -0.012385827056462902 0.007869013334651323 -0.01469372795508866 0.0009313483745698136 -0.001167005527892177 0.014719573100036859 0.014793684047266777 0.0004891643366117212 0.0015178283111713397 -0.014753361088647278 0.011851944775330726 0.00895417278738108 0.014666288489353904 -0.0024560986626366026 -0.010382744483168047 -0.010659423366410672 -0.010524308803170079 
5 0.011183979671030027 -0.008419482247588117 0.007422186336527336 -0.0039664695153775326 0.010468911587204473 0.0027427777336992915 -0.010826428976503004 0.006039701129817967 0.009365114851054422 -0.011120786083454839 -5.256138623577167e-05 -0.010388648668446462 -0.003909106882359339 0.011079526132231628 0.00012663639972677483 0.011025882843089503 -0.0008956813467468756 -0.007708798083994743 0.007910643208293182 -0.004960819430318778 0.009851620600367513 0.010433502131750011 0.003534573353044335 0.01050914466557003 -0.003258965180025584 0.008841490592403115 -0.006528847721861789 -0.0101082305916594 0.004286928736995771 0.0003139418456021736 0.010965026182500962 -0.010309100170238467 0.0037212606370951398 0.0075308487147353696 -0.007951359990308039 -0.0025032350523674896 -0.010653663725914517 0.007090777073487473 -0.008326585984697573 -0.0026894610205638104 0.010594196445139741 0.010135345371237588 -0.00407650296174294 0.010860377113729624 -0.0011319833664169509 -0.010352391488016708 -0.0034577169810803476 -0.008542058690443464 0.006787614926579092 -0.01090228188825798 -0.00031774166681602315 2.521023099582714e-06 0.010903856534696676 0.01084763955034598 0.0010802807903203203 0.0016884095719987054 -0.01076765005283553 0.008949536170068748 0.006218025238162741 0.010695269122770624 -0.002084321075557242 -0.007498236000993629 -0.007905363183229925 -0.007704328758465168 
6 -0.009053277278796557 -3.558161837045327e-05 -0.011771266566080102 0.011466081698902631 -0.003418741413156597 0.008188100808738824 0.008980610152370828 0.005739882499112667 -0.010918745213923896 0.005319709289680387 0.011325008473283748 0.00016670501429811105 0.01268182247067267 -0.003956506209411009 0.012223187318035601 -0.0019255551919660629 0.012862761488097927 0.01074540363751067 0.007594699547474438 -0.011336591727777064 -0.006963406999883816 0.0041722804494015294 -0.012780308810275596 0.004823882564404392 0.01269163476340483 -0.006565819040618803 -0.0120291762028364 -0.007939370635024133 -0.011317945894613931 -0.013258942388265747 0.00430092757943632 -0.00018672765386429819 0.014045474572669001 0.013413228604863534 0.004499808838431664 -0.013692524581009098 -0.003919984800025045 -0.003968318730580412 -0.013770412435014406 0.008859659276762858 0.011367788574445101 0.013027958425989045 0.0063376249508275305 0.01153747975434335 0.008875486858522207 -0.007821484506196156 -0.012350111126751004 -0.004213499289360407 0.014056191037122637 -0.012463397622864246 -0.007838161181509927 0.006509819708938348 0.0132533007777887 0.013131660159799687 0.006830217484540412 0.006582739159445636 -0.013290335261117501 0.013800417117089066 0.005494933362483818 0.013995902287800939 -0.005024654997498778 -0.009389772630297655 -0.0115436934929167 -0.010524308803172282 
6 -0.0023676294754665624 -0.0074751596797385305 -0.009093182632263459 0.011085506672557434 0.004502262119049214 0.01198321499986696 0.002024576950845594 0.011182729123749688 -0.005206900949225452 -0.0024522544483766015 0.012269538376282753 -0.007237293690609983 0.010415276845831132 0.003676092729264684 0.012310426143831585 0.005497092499404014 0.011787296973861798 0.005000016401446584 0.012171400763047673 -0.013304234023213807 -6.860104869189011e-05 0.010014434638806288 -0.00896968875154212 0.01034699271401116 0.008791312628898554 -0.0002535163259395626 -0.013702072444178464 -0.012128222816182515 -0.006635941280235689 -0.010209637500621989 0.009490038640848493 -0.005789886905789011 0.012797946429266405 0.01411908850865382 -0.0009023972925280841 -0.011407614697843805 -0.008527475425910326 0.0008274507309281268 -0.014306891257913627 0.00492458818600734 0.013545058537039193 0.01429157440291374 0.0023757297516051414 0.013445517424976607 0.005577254452894584 -0.010500524282868302 -0.01017053855548695 -0.0070628569019229644 0.012862586641748526 -0.013691831406465078 -0.005413575874585579 0.0043335819644245025 0.014115516338662308 0.013918469520110286 0.005036722709892785 0.005139154648123738 -0.01391238856907286 0.013319858917075144 0.006574736777468137 0.014242809636666126 -0.004274904951838237 -0.009692945777582125 -0.01129032734954845 -0.010524308803171635 
6 -0.005903938609437136 -0.0038015561933544585 -0.010560525642237662 0.011182233071450397 0.0005372650862307726 0.009804195716683879 0.0053490317281447005 0.008067505782390332 -0.007687568950068696 0.0013416571556105 0.011039683052066842 -0.003249084505778036 0.010613603895399164 -0.0001266363997272601 0.011079526132231338 0.0015862348361954364 0.010947885484826043 0.006882096833039488 0.008639478401466262 -0.01060668618103343 -0.003026940060673259 0.006018234699411445 -0.009226701828067965 0.006346964368848815 0.008987714890174995 -0.002815599322338306 -0.010624039200174707 -0.008182804353521214 -0.007320915011269312 -0.009457483053008347 0.005557550986487748 -0.0023819278293649537 0.010698212320986299 0.010859307172318646 0.0014188924543162803 -0.009804411059256442 -0.004862125079984515 -0.0012158490319301768 -0.010868894368701828 0.005291693807498048 0.009563899599383216 0.01040787861073956 0.003319512767776637 0.009451592778948404 0.005467775721003967 -0.0068880758211451835 -0.008466535757001186 -0.004215504662495318 0.010063200460240231 -0.009729391764308431 -0.004929467114655302 0.004016321297371389 0.010137221360958295 0.009982893157872265 0.004379513054973315 0.004313170757197319 -0.010009474140153532 0.009956157023048013 0.004430911063677104 0.010349699031029787 -0.003408358244317238 -0.00698705808371117 -0.008360581888851673 -0.0077043287584662706 
7 -0.00924159430746054 0.011206417206715969 -0.003602803909498467 0.0008562957733137203 -0.011934218865286056 -0.0049410755291872015 0.011103248451592919 -0.007210106902095634 -0.010008976301828326 0.012480138380989526 0.0008951367705576775 0.010849158106939476 0.00656903190052304 -0.012310426143832072 0.003676092729265204 -0.011418872141898422 0.00622637574388184 0.01270209385607612 -0.0034351087640486612 -0.00242557892531059 -0.013081434016399331 -0.006197400864964656 -0.011930483642896174 -0.0051636385731980055 0.012557239849911283 -0.012833190350620189 -0.004808355770718779 0.0008404330703161492 -0.013799390479582785 -0.013234714632021295 -0.004374912560025521 0.007703287015288987 0.011746045817563607 0.009029046746531268 0.01089216672832908 -0.013842020017323915 0.003354100784703366 -0.009862845879793903 -0.01039692662902419 0.012862100911734523 0.00650281013946936 0.00949750020072501 0.010940323610564122 0.007599424179276748 0.012415170486187671 -0.003416238807041379 -0.014213731991881803 7.369689765093626e-06 0.014674127858963212 -0.010083750953658242 -0.010728048178374822 0.009225530748274972 0.011528977255682206 0.011680818220645659 0.009091251571418699 0.008437568998045967 -0.012197249509517276 0.014315910416164842 0.003962387439426966 0.01359471316776612 -0.006026293436244969 -0.008964893443297938 -0.011876673568697198 -0.010524308803173224 
7 -0.006156430073890293 0.01121837459395667 0.0003529912198001961 -0.0029445305929018963 -0.010800959671463746 -0.007619186386747852 0.008165928782675948 -0.009063100807682432 -0.00648410129938982 0.010784477624160146 -0.002714716962645377 0.010796672076671456 0.0025762394770185632 -0.0110795261322316 -0.00012663639972669428 -0.01082668182416913 0.002270528181426139 0.00943390898356973 -0.00574501567956376 0.0009858298303180232 -0.010986004615849932 -0.007440153915093507 -0.008123748226096256 -0.00658650496023691 0.008813678463347336 -0.010914473074553293 -0.0012930916346758693 0.0031400933103436918 -0.01052111675120837 -0.009426296262685124 -0.005610284969004854 0.007756498660878751 0.007743517002822806 0.0052350324972700755 0.0096193681087804 -0.009995898576687173 0.004455193391632606 -0.008755388945595419 -0.006553954384781305 0.01040441856373632 0.00334936908237741 0.005903471226317815 0.009191960056013465 0.004432621250431899 0.009979030325862729 -0.0012791980495195775 -0.010839348162714542 0.001153908899442236 0.010849284645279036 -0.00670455185651476 -0.008602888732347562 0.0074660411810367295 0.007946843572629366 0.008140951628199288 0.007250048067943634 0.006666919560988846 -0.008622366154974715 0.010610076049917164 0.0024868296557627543 0.00984090800295907 -0.004678643567509822 -0.00644830544025563 -0.00878280519734446 -0.007704328758467448 
7 -0.0026677459591628668 0.010957745329610332 0.004300209287079899 -0.006794630402363073 -0.00984844252007512 -0.010734765636466803 0.005697469639503432 -0.01180089094584356 -0.0035922445677475244 0.010568971031957764 -0.006697161725110809 0.01264633029645791 -0.0009626742815441188 -0.012223187318035688 -0.003956506209410311 -0.012958286377406808 -0.00111409607222695 0.008881569256957258 -0.009708804668098727 0.004715800456747355 -0.012440601878544524 -0.011341187953475381 -0.007219534142756431 -0.01057980025290387 0.008509715775010807 -0.013601484375341026 0.0016765090457299564 0.006860364019341073 -0.012002704315104064 -0.010156475778495032 -0.009546912121715222 0.01175893272832892 0.00768360099685424 0.0042436761378360655 0.01349645116413725 -0.011748343848056913 0.00805157916571323 -0.01275469975420134 -0.006533716121631356 0.014240200431847977 0.0022219071165109345 0.005998460311867192 0.013187557190534029 0.004117136911165747 0.013961980150121824 1.3622675217934665e-05 -0.014618504682302639 0.0030793041023830492 0.014347402865277649 -0.007939892619771523 -0.012398836888975662 0.010931542713162308 0.00992618295518029 0.01037829768675129 0.010553829000119289 0.009681102280412607 -0.011235734280873884 0.014585621625877638 0.002811662684341028 0.013255784159506722 -0.0067391857824319 -0.008646409547193113 -0.01211050335243214 -0.01052430880317392 
8 0.010237388429791749 -0.0007755549631020657 0.011745743787452828 -0.011614726564888104 0.0028734907688776606 -0.009525623968213841 -0.007547108160025519 -0.008480650504513205 0.008957891223413368 -0.0006760977488622346 -0.0124939191481554 0.005874845142629125 -0.011240222697507901 -0.0036760927292647134 -0.012310426143831625 -0.006931086327861183 -0.011005382238375664 -0.0018160274094076619 -0.013032467341134103 0.01239521768790171 -0.004833831556626802 -0.013096896482453194 0.003035707489594187 -0.013538296857867567 -0.001030511596768768 -0.009194908588739156 0.010161924809689082 0.012843900810756604 -0.005115048124617501 -0.002542107298705873 -0.013705299040180545 0.014045142090200299 -0.00021025426106316522 -0.003504807468913216 0.013706907229373448 -0.006238856553403845 0.012803444034319924 -0.014330615937395147 7.251918901063747e-05 0.013827547908758158 -0.004064369373536886 0.00034432495293507315 0.014483598692779438 -0.0011493908079790542 0.014510913369881624 0.004731672632930806 -0.01383156313720743 0.007075773118665202 0.012855485891506056 -0.0045562698999348505 -0.014000480549319315 0.012821781154745908 0.007323227578685179 0.008299767048697834 0.012255865386659771 0.01120581985661294 -0.009715712404933002 0.014804813651670343 0.0012096685509251303 0.01273221995112226 -0.007682643673228742 -0.008201460770263225 -0.012416147983206097 -0.01052430880317491 
8 0.011146499480299036 -0.0044579620651443875 0.010300636172456494 -0.009362413084123182 0.006138095101850676 -0.0060145665110672535 -0.00941059954326449 -0.004670994295257406 0.010117567800842036 -0.004044964061486268 -0.010359194541786427 0.0018932272080143461 -0.010937130725786956 0.00012663639972724077 -0.011079526132231357 -0.002945860789231711 -0.010662750196590654 -0.004517332196914924 -0.01007956118546075 0.010976138360159237 -0.0010902039132523584 -0.009718816774679008 0.005186113768660822 -0.010417648301345025 -0.0035405620339134117 -0.005220171714379432 0.009672001640983944 0.010856777763773862 -0.001638432262336643 0.0003751773375687828 -0.010963101779639132 0.010694207464800052 -0.002399844526010425 -0.004705157377984473 0.009889352967111215 -0.0029388400444939813 0.010541819373577394 -0.010771103296044412 0.0018959133557203056 0.009877295631551295 -0.004680729633966208 -0.0013104730942920173 0.010845541132672259 -0.002279460936494514 0.010678634521007875 0.0047279505502310125 -0.009837392939036507 0.006237860815982052 0.00895140075647053 -0.002403528024563126 -0.010638785794111193 0.00986717776823141 0.004640355220767642 0.005502117031812657 0.00941089786196842 0.008601761289548513 -0.006693483193434413 0.010888127843142869 0.0004546510675025243 0.009176919977008032 -0.005875143886756441 -0.005884104281177888 -0.00917036678620517 -0.007704328758468692 
8 0.011325019247932302 -0.008032048577420296 0.008605241325566644 -0.00726676916924898 0.009505413626812797 -0.0028488454989907095 -0.011814416315917496 -0.0013173495816827213 0.012264984232759851 -0.007968995919445833 -0.009646254603861312 -0.0017548443132058271 -0.012560928834121469 0.003956506209411004 -0.012223187318035667 0.00029824012427214863 -0.013002670830459261 -0.008519092049310744 -0.010028371313668225 0.013103897505595964 0.002301134331405188 -0.00981315795433198 0.009189458547585782 -0.011362558714883727 -0.007432341179847017 -0.0034482616624212604 0.013263504487898661 0.013781372499091239 0.0010969400143137134 0.0034731033438357524 -0.01349944756136126 0.012788230126252555 -0.005811315980585256 -0.008424488106212744 0.011366221066699411 -0.0012848278361267547 0.014184524231197707 -0.013494066876875136 0.004825139510969364 0.011901659449257045 -0.008128387412483125 -0.0037841722128715313 0.01398474995951155 -0.004875812295740345 0.013715471574626343 0.007844488516409278 -0.012335512337949224 0.00961032879897007 0.011089258907123926 -0.0019050616492248447 -0.014599444891007814 0.0138179630294246 0.0052049622349140835 0.006609035126271619 0.013244358200315998 0.012171166140497706 -0.008475150793622965 0.014854123217015352 2.878745387181692e-05 0.012306614396395212 -0.008347435581781406 -0.007868923035774519 -0.012629518587977943 -0.010524308803175642 
9 -0.003335467230413936 -0.007936204011723633 -0.007936825386506514 0.008730820095606716 0.007007408272340741 0.010610710120713483 -0.0034852869055397705 0.010813614910617959 0.002692414989525815 -0.009770540773205176 0.005311419660732862 -0.011034425516628078 -0.0012027432361543019 0.011079526132231619 0.00012663639972657634 0.010456737565335479 -0.003609567430336593 -0.010566252686216561 0.0032184076869978154 0.003127616639685156 0.010577436930986565 0.002606211020951842 0.010703216322000992 0.00014804422716305042 -0.01100186613958332 0.007071126319967102 0.00841409418998136 0.0061050889795345505 0.009125895695338268 0.00978778238431212 -0.00495274415477941 0.0037039871605298188 -0.010315319004462954 -0.010766276730258996 0.0020062635487851904 0.006249324283898144 0.008984023736998926 -0.005991266232336779 0.009149638386280618 0.003996058714598481 -0.010173579195583463 -0.007922944973224327 0.007521306079573479 -0.008120866521707553 0.0072993632825661195 0.009263079409424906 -0.005772622982415312 0.009778649305015678 0.00483905991201051 0.0023549975005448384 -0.010649633651458568 0.010882498560925153 0.0006821427682477845 0.002324696884848651 0.010650543403682775 0.009996122721220815 -0.0043440240659414825 0.010780462279329312 -0.001593633761487042 0.008368206440993215 -0.006978989677267925 -0.005296681250693838 -0.009521737126902718 -0.007704328758469939 
9 0.0005238583212345729 -0.010635415558967432 -0.005044989445911481 0.006322000013823504 0.010158303903760442 0.009678928228847087 -0.00734946949811743 0.010388337782251058 0.006651893435110004 -0.012310663346848646 0.002236669802900802 -0.011586927264259562 -0.0051574730549196176 0.012310426143832062 -0.003676092729265377 0.01054845911904073 -0.007608443080614442 -0.013157311031000811 0.00016830621767784378 0.007070843295181439 0.011269894593266078 -0.00031673055189753113 0.013440383149001558 -0.003203489034750102 -0.013194131042515347 0.006063447128208094 0.012290063820683159 0.010096900905955969 0.009443627345940935 0.010785375569796758 -0.008830243774513719 0.007348239927144311 -0.011971365551235937 -0.013149195031234866 0.005221269119604584 0.005888426345843099 0.012968343973057255 -0.00975711745244469 0.01049621223094669 0.007297596327567796 -0.012428405666590765 -0.008966886328615534 0.01137928558110911 -0.00945917757294344 0.011063980554086233 0.01140640548367564 -0.00914301802829531 0.012393724810957242 0.007856568464909546 0.0018384784260628035 -0.014607978918722229 0.01461725050150095 0.002088952351257527 0.0041062768501460645 0.014220789706219294 0.013269967841466416 -0.006623701358056205 0.014769248982734703 -0.0015859034490646052 0.011668932019989498 -0.009217834030096598 -0.007405660678459291 -0.012906621534023555 -0.010524308803176624 
9 -0.006976171385528145 -0.00504415675020151 -0.01063581051451559 0.011285740737358826 0.003973773821578556 0.012151723767854934 0.00017878208154468466 0.012294584338613022 -0.0010042131700679705 -0.008571410978267937 0.009115154287683737 -0.012425955124219349 0.0025400887760743066 0.01222318731803572 0.003956506209410158 0.012995739682102016 -0.000518792841199434 -0.011017019964101296 0.007195028259847725 0.0001950506248432982 0.013302981030658722 0.00646032166468796 0.011790184961366917 0.003557352767939381 -0.01310315524014176 0.011062704811304008 0.008088734267548036 0.004875282019573951 0.01293681299947178 0.013502836371350758 -0.0034599048003430702 0.00194561999567864 -0.013911318629828763 -0.014147255871726638 -0.00013465692953333247 0.010110383677168875 0.010031532890560895 -0.005719949101344628 0.013139786697503278 0.0031116722736758487 -0.014072585946965406 -0.011829969917790308 0.008363312890889476 -0.012006366928438055 0.008230119029356794 0.013233018756150454 -0.006211930402307783 0.013763886545527702 0.005087780448819511 0.0044923899861031786 -0.014021108487765896 0.014763691502102182 -0.00024727996326124246 0.002192834159777021 0.014638437340996062 0.013896470869557555 -0.005182042412584464 0.014596410087776698 -0.0027551075865027063 0.011163361972637372 -0.009824041335489699 -0.007060381480102619 -0.013098690883535062 -0.010524308803177352 
10 -0.010683484479582844 0.008605870153623085 -0.008031374821302806 0.007707515679467898 -0.009151667849452485 0.004711520829996415 0.011202585640442395 0.004587489724515642 -0.011450772296123544 0.003761968238026425 0.011933261030528917 -0.004419746777286813 0.011887903522661681 0.003676092729264756 0.012310426143831429 0.008255772784497899 0.010049906050693615 -0.0014820692636458264 0.013074656066115098 -0.00974532986414022 0.009057366884884385 0.012939361112027144 0.0036492672479611623 0.011558431751804307 -0.007123909839525722 0.013659116112336863 -0.0011133763167786293 -0.004245798181275129 0.013156850046936 0.012933895913338784 0.005197294277009168 -0.00617037439240336 -0.012618902608618345 -0.01195299836884157 -0.007568937255866056 0.013745704982821178 0.0037292230771592445 0.0009722029088405518 0.0142977842228047 -0.0031881103519929683 -0.014055466266085302 -0.014162534278261727 0.003052181774364801 -0.01415588001066389 0.0033909832174980263 0.014529820726002441 -0.0016078477521087266 0.014645634566269047 0.0009140409645382035 0.00788327993048843 -0.0124349084657071 0.01435977045452172 -0.003438710026004634 -0.0004891643366111174 0.014793684047266055 0.014500314943312794 -0.003115498794583023 0.014210476305485529 -0.004325294028730928 0.010421618060219384 -0.010607653637842569 -0.006580633827281984 -0.013346158546120528 -0.01052430880317838 
10 -0.008306153731490623 0.01030098516880454 -0.004457155582168256 0.003966469515377641 -0.010468911587204411 0.0007370139057487606 0.011144110757816137 0.0006184555405066984 -0.011126584321137377 0.00649411099904163 0.009027799739993052 -0.0005075125862211582 0.01108817247110397 -0.0001266363997272042 0.011079526132231236 0.004259028757849998 0.010209456968136757 0.001868726965272599 0.010886308070139942 -0.00980402452523053 0.005054231987404121 0.011015093424135706 0.00013744955017818788 0.01050914466556994 -0.003258965180025592 0.010426282141408963 -0.0034771323211165326 -0.005657936842477866 0.009409667070452323 0.009055422912331993 0.006191096392737685 -0.006724816327059909 -0.008654604116684282 -0.007951359990307334 -0.007530848714735452 0.010905778481045503 0.0009114451352922663 0.0025684953756555926 0.010630803599524329 -0.0040512927589989095 -0.010151710490368678 -0.010898994953014284 0.0007449907418904961 -0.010860377113729221 0.0011319833664172989 0.010914202692809228 8.941936414065225e-05 0.010900330599600876 -0.0004703997044160548 0.006665258918528786 -0.008633367459273214 0.010369404771090412 -0.003371874608896598 -0.0010802807903198797 0.010847639550345286 0.010762390999151139 -0.001721613930182394 0.010290893464750553 -0.0035854633199816897 0.007427521290479696 -0.007972772631522467 -0.004688354639136777 -0.00983552952122811 -0.007704328758471275 
10 -0.00538440062719918 0.011745804472098947 -0.000774635349376446 0.00029179780534217397 -0.011961340912152642 -0.003195176126381991 0.011725493724544416 -0.0032902011696258424 -0.01188864266489658 0.010117561227675605 0.007361391081235465 0.0033153086690013546 0.012241941846320804 -0.003956506209410904 0.012223187318035525 0.001333778368341717 0.012937520286405206 0.00575749457662377 0.011831923628454533 -0.013030799820608225 0.0026843258154623847 0.013026391286011902 -0.003325259012195427 0.013561123635443763 -0.0006658541184267704 0.011593168182709111 -0.0073081811198458715 -0.009629784250142865 0.009919514133736011 0.009536978721549147 0.010165803862146551 -0.01070319947318944 -0.009096798570120326 -0.008206608617405279 -0.01152451978129682 0.014174030038908837 -0.0013958447944045162 0.005662917670105361 0.013164466401622716 -0.007365036516603624 -0.01238855991157509 -0.014446124753721565 -0.0010966632876960518 -0.014550897475874834 -0.00039885925366943425 0.014501526032610209 0.0018456997180625052 0.014512442647453348 -0.002172346919329862 0.010034733628532027 -0.010773911639575143 0.013635903377700842 -0.005664792425457223 -0.0024380166926504603 0.014599604242749179 0.01474860922623836 -0.001563327248544282 0.013821611854245975 -0.005441401567086955 0.00984405666190176 -0.01114571608873937 -0.006223975824310216 -0.013516168630397401 -0.01052430880317918 
11 0.01040864373326328 0.0003521128967682506 0.011218402196369937 -0.011182233071450427 -0.0005372650862307857 -0.010977285930832683 -0.002057568388288141 -0.011045388935003852 0.0014774130043614677 0.008142684911934291 -0.00757438632750145 0.011098159474541115 -0.0001897209840281148 -0.011079526132231505 -0.00012663639972657176 -0.009921884308544118 0.004891681644619508 0.011034679872629181 -0.0004895753029822432 -0.0068017986472220055 -0.008683299662944628 0.002872473660565491 -0.010634851695751556 0.006346964368848805 0.008987714890175158 0.0006052145789737053 -0.01097412975065433 -0.010923153660554866 -0.0011130129370976079 -0.0010628158671907627 0.010917911022617978 -0.010910660719231751 0.0010405814331529795 0.0014188924543169798 -0.01085930717231967 0.007653885377508647 -0.007822069747848746 0.009507778384329162 0.005404933289220766 -0.009902589358218004 -0.00462697772870339 -0.00887269491526363 -0.006373255614829713 -0.00945159277894767 -0.0054677757210031975 0.009167252826831274 0.005923621514864659 0.00932541573321762 -0.005663488718551452 0.009706815661805698 -0.004973775210601731 0.008399958896709114 -0.006952322217679112 -0.004379513054973037 0.009982893157870917 0.010852418669299488 0.0010089715404633171 0.009436764618734085 -0.005450276052859727 0.0063696996922290305 -0.008840820198674344 -0.004061525233724532 -0.01011050557395924 -0.007704328758472651 
11 0.011561303954630443 -0.003603681284224501 0.011206135097481553 -0.01146608169890262 0.0034187414131566403 -0.010562507787171353 -0.006010805504163166 -0.011061539897780977 0.005459632152444472 0.006035277649369012 -0.010960408183168992 0.012009615216766297 -0.004077444553230579 -0.012223187318035558 -0.003956506209410082 -0.012828242408731786 0.002143500081608208 0.012460230789135565 -0.004229161764567574 -0.00507850742582127 -0.012296996030503354 1.874189347921875e-05 -0.013444101538440459 0.004823882564404434 0.012691634763405044 -0.002527245108388042 -0.013469376078911846 -0.013075607451474578 -0.004489765598408242 -0.00431388729347867 0.013254731521916106 -0.013415742135158707 0.004162701785034524 0.004499808838432539 -0.013413228604865083 0.007959349879269101 -0.011811022806399335 0.01347301690571058 0.004883608055149379 -0.013849433394510153 -0.00398915708197173 -0.01043189094127692 -0.010053300062961458 -0.011537479754342323 -0.008875486858521082 0.011255068027303963 0.00932868203041069 0.01167081432590555 -0.008895064682382488 0.013667006916669432 -0.005475944936966121 0.010592993146758151 -0.01028670162599475 -0.006830217484540122 0.013131660159797642 0.014674038223644256 0.002153617516037507 0.012557176130116117 -0.007934931184386552 0.00836950469705342 -0.01229161624114153 -0.0053630069794034325 -0.013880304234625631 -0.010524308803181068 
11 0.008573754585092285 0.004299351357437576 0.010958081972981561 -0.011085506672557558 -0.004502262119049288 -0.012022343396020478 0.0017775299803650599 -0.01210755749270762 -0.002360571903371138 0.01136766405917241 -0.005227938186746987 0.012141963656927206 0.0036645777783153094 -0.012310426143831942 0.003676092729265338 -0.009511690594531547 0.008870520724902057 0.012785805964642507 0.0031090716273367534 -0.01072302873720984 -0.007875531966116416 0.006752507061768317 -0.01162531142874171 0.010346992714011077 0.008791312628898738 0.003993064889636041 -0.013109786137850857 -0.013712446789459124 0.0017602012384835334 0.0016765281836032184 0.013837875001187763 -0.013960743796148247 -0.0015517267306202267 -0.0009023972925271088 -0.014119088508654927 0.011635257878273509 -0.008214151468045657 0.011088154827689104 0.009078801390880926 -0.011945661182288458 -0.008063582236921097 -0.012857954096717809 -0.006675792628095403 -0.013445517424975718 -0.005577254452893637 0.013129461299327917 0.00642791651417341 0.013274409996848245 -0.0062546080587924996 0.012427531460473935 -0.007894904230698666 0.012085503321232961 -0.008483415799192076 -0.005036722709892357 0.013918469520108584 0.014819553928842958 0.0005884620161570032 0.013148290420586463 -0.006911458911086118 0.009009948958066552 -0.011830184211014587 -0.005729636220794044 -0.013733024367715807 -0.010524308803180277 
12 -0.004460726987543417 -0.0090925973505521 -0.007475871590792494 0.006794630402363119 0.009848442520075095 0.008448753865921144 -0.008735840639344074 0.00743565294440315 0.009842576565137488 -0.011630402954183255 -0.004613984283672982 -0.004823488626617056 -0.011729892122622303 0.003956506209411073 -0.01222318731803538 -0.0029447623793261747 -0.01266833731893466 -0.002634132545103725 -0.01289203266689392 0.011127565025441028 -0.007292780378764743 -0.013017069447262688 -0.0033615651770598984 -0.010579800252903688 0.008509715775010942 -0.013453850132808833 -0.0026086349681362737 -0.0015048615048007402 -0.013742812565303021 -0.013693440828137489 0.002605227357683193 -0.0036738287479042633 0.013557772881977015 0.013496451164137474 -0.004243676137837917 -0.004027068927210006 -0.013661413766131125 0.012782911791759369 -0.00647834688033767 -0.012826568387717162 0.006572619186348616 -0.0016296954811719428 -0.014395738376525214 -0.004117136911164632 -0.013961980150120486 0.004504410445145079 0.0139072337747465 0.005941982463231658 -0.013417262281858246 0.014697821540353288 0.0008643454060129316 0.006062328508360972 -0.013463874152939415 -0.010553829000119332 0.010378297686748469 0.013677443432121296 0.005735242571635498 0.010847896181289469 -0.010147361908578042 0.0067629606434326875 -0.013243670262765333 -0.004480872796073944 -0.014189660619347892 -0.010524308803182942 
12 0.003382430172996567 -0.011771263744205217 -3.650322786900557e-05 -0.0008562957733139246 0.011934218865285817 0.0012681496152304745 -0.012086693100940592 -5.002964570411671e-05 0.012335426428979246 -0.006611460427244144 -0.010622792234890417 0.002894946365037722 -0.0123481050077735 -0.0036760927292645695 -0.012310426143831297 -0.009450260772563314 -0.008935936841069365 0.004687042074194785 -0.01229531606524058 0.005726739421902613 -0.01200882195063005 -0.009580800673485018 -0.009431462022901278 -0.005163638573197917 0.012557239849911448 -0.010719225659660533 -0.008538691998797598 -0.007431153578004168 -0.011657935574269132 -0.011318548688967244 0.00813559997015577 -0.00879070681522285 0.010955989087115345 0.01089216672832965 -0.009029046746533136 0.0010874800142266266 -0.01420101747948262 0.014208525685926798 -0.0018680497879468942 -0.014227914119395254 0.00229926931538957 -0.005651913534786997 -0.013339755026310117 -0.007599424179275607 -0.012415170486186396 0.0076413209176386465 0.01246238658353305 0.008619273741488907 -0.01187595061049034 0.014606253391130234 -0.0018521373834217514 0.008113863161891288 -0.012336651034198674 -0.009091251571418657 0.011680818220643084 0.014207625838517248 0.004255447594210098 0.011620319792555043 -0.009252781915859324 0.007456187578562314 -0.01286614571216941 -0.00485602635776457 -0.014065692216153948 -0.010524308803182185 
12 -0.0005574161783135329 -0.010560227974039212 -0.0038023829985827165 0.002944530592901825 0.010800959671463623 0.004722866093281502 -0.010120717857181457 0.003520943456996587 0.010572905139250813 -0.008535209058857707 -0.007129155078611086 -0.0008862058122300262 -0.011064347112798478 0.00012663639972735371 -0.011079526132231126 -0.005505029298736422 -0.009595154504461441 0.0008972972542947316 -0.011009028181731705 0.007254964581103002 -0.008308408198972867 -0.009586383123075578 -0.0054270096866410765 -0.006586504960236811 0.008813678463347454 -0.009980693449083096 -0.004602560890009907 -0.0036437684120170545 -0.010357462790172741 -0.010079453810157717 0.004328391104585921 -0.004967632401518605 0.009769746945166254 0.009619368108780738 -0.0052350324972715604 -0.001148238172224159 -0.010883394948824805 0.010448548977951975 -0.003230940717776937 -0.010386061185757281 0.003405867282364232 -0.002774062909625922 -0.010566346443533665 -0.0044326212504310555 -0.00997903032586173 0.0045661324308526865 0.009913538766068817 0.0054435176028083815 -0.00945550628842337 0.010900719889676447 -0.0003674452676011661 0.005250763758085124 -0.009556336831736411 -0.007250048067943657 0.008140951628197262 0.010260548962051964 0.0036761596184840127 0.008248333681469685 -0.007122010039370355 0.005211424124757665 -0.009569442750043138 -0.0034186668437493255 -0.010345580080240774 -0.007704328758474048 
13 -0.01145409203074537 0.00436723104329994 -0.010931206504119967 0.011614726564888024 -0.0028734907688777976 0.011391591426580737 0.004234146706573327 0.012126306734268236 -0.0022622849371040626 -0.009710392631314525 0.007890715987308033 -0.012505514029467747 -0.0021138899210340883 0.012310426143831994 -0.003676092729265299 0.008324917027338152 -0.009992704958365862 -0.011610921686620642 -0.006191095067640022 0.012869196659541957 0.0033750742786465564 -0.011517803538644147 0.006934292976191707 -0.013538296857867334 -0.001030511596768698 -0.011885085191813229 0.006823181792711828 0.00738438417755139 -0.011687616338330554 -0.012582033016421638 -0.0059991646478991505 0.004540151279346362 0.013292751767367815 0.013706907229373096 0.0035048074689116543 -0.010248886179392987 -0.009889986972479836 0.00836465544793991 -0.0116363375430205 -0.008797744871082274 0.011415772630744477 0.0041482056455634025 -0.01388112317821842 0.0011493908079800972 -0.014510913369880364 -0.00022590002235786677 0.014616765507583621 0.0018318443167382984 -0.014559341644894929 0.014004734946462417 0.004543176211891742 0.0030026550340495088 -0.014457240293221705 -0.012255865386660035 0.008299767048694697 0.012702980364765028 0.007655047749477383 0.00968069354264776 -0.011266320508357254 0.005784837666833598 -0.013699200409580498 -0.003963251977208692 -0.014342849203418656 -0.01052430880318401 
13 -0.009933971202244839 0.00742284550161454 -0.00841890111539179 0.009362413084123217 -0.006138095101850662 0.008628227859166879 0.007091408752147749 0.009725870907895845 -0.0054397427323274366 -0.006003194210946324 0.009361426444668839 -0.010986868827821496 0.0015791931909585485 0.011079526132231511 0.00012663639972657209 0.009230557009160674 -0.006096651117217889 -0.010809757539930714 -0.0022700188978516567 0.009520688248181981 0.0055696187620680095 -0.007640546734958934 0.007935566842524737 -0.010417648301344845 -0.0035405620339133913 -0.007953491201826824 0.007585498412976722 0.007820271394363237 -0.007706973401324983 -0.008648811944773313 -0.006747474387451122 0.005587079622552595 0.009429202953615394 0.009889352967110797 0.004705157377983426 -0.009117714491350407 -0.0060526043127326285 0.004797269543693047 -0.00982839552478351 -0.0052396361755747065 0.009592518524712356 0.004597790498943652 -0.009909764110169412 0.0022794609364952113 -0.010678634521006982 -0.0014566265810125845 0.01081693372661256 0.00021496594333689066 -0.010908357928932902 0.010019716833261628 0.004308826373749664 0.001364114453734149 -0.010818192337073514 -0.009410897861968626 0.005502117031810276 0.009023971227859518 0.006112361067705874 0.006767701411393321 -0.008541443269610921 0.003970961285685093 -0.010147149472735815 -0.0027623165375823505 -0.010539825308391692 -0.007704328758475395 
13 -0.007762733601388103 0.010298097949052423 -0.0057020313269044555 0.007266769169249187 -0.009505413626812625 0.0063602684959722005 0.010355835949940368 0.008274935050730015 -0.009148262023816741 -0.003119925629561747 0.012116979322944327 -0.011403876503148218 0.005550496594034894 0.012223187318035511 0.003956506209410044 0.012458436089355302 -0.0037344030452652723 -0.013120519488165056 0.0009975614818506485 0.009248702951031853 0.009563934481787623 -0.0064931689575928545 0.0117721270092796 -0.01136255871488354 -0.00743234117984698 -0.007378140015665796 0.011548770917386436 0.011794129720639375 -0.0072130443979242145 -0.008879843566620589 -0.010744575819047782 0.009478670368576095 0.01036653419577103 0.011366221066698714 0.008424488106211683 -0.013093250564419501 -0.0056052029304307655 0.004027993639070343 -0.01375307527142399 -0.004850898509732141 0.013571623455643942 0.007920487041407014 -0.012130914054335178 0.004875812295741223 -0.013715471574625158 -0.003648668973786012 0.014155849654595674 -0.0012568164754389302 -0.014620208448603409 0.012930966167389469 0.007040111149036874 0.0006802278468495805 -0.01475008556672856 -0.01324435820031623 0.006609035126268354 0.011821444567640196 0.008956501243710707 0.008754324102102072 -0.012000317278265935 0.0050497606604682265 -0.013986863692960292 -0.003581054654934664 -0.014443016896245012 -0.010524308803184827 
14 0.006371400207747689 0.00855589379563412 0.008084594237135017 -0.006322000013823581 -0.010158303903760478 -0.006934096788239599 0.009980714167546341 -0.0044944569481696 -0.011487606578015104 0.009045530242567492 0.008644854335236658 -0.0013244909192550243 0.012613569500512485 0.003676092729264444 0.012310426143831191 0.010495712502933253 0.007681042569391425 -0.007597510793487107 0.010743416136977803 -0.0009038454464485567 0.013273673660944717 0.00385207814866027 0.012880439098535583 -0.00320348903474989 -0.01319413104251527 0.0019688423199495544 0.013562253489454236 0.013719389305528453 0.0017052455650317974 -0.000804332577692914 -0.01391583919148882 0.013656176232686688 0.003289236064804661 0.005221269119603509 0.013149195031234663 -0.014153251852124408 0.0015927875703611568 -0.002756524327971195 -0.014063192589421082 0.0014013541132417877 0.014344210895787557 0.012044408302114574 -0.00805142344052822 0.009459177572944032 -0.011063980554085284 -0.008022788312135275 0.01222030001360172 -0.005408758918372663 -0.013640946070434099 0.010737472693220722 0.010073714864701447 -0.0025302670701050863 -0.014547353116748617 -0.014220789706219603 0.004106276850142772 0.01040015991640104 0.010573653101348422 0.007398123897753867 -0.012880744080105772 0.004022257409404367 -0.014316210533026943 -0.0030548364517365236 -0.01456340151750204 -0.01052430880318589 
14 0.009016774620152731 0.005095164614180609 0.010000791412982985 -0.008730820095606684 -0.0070074082723406836 -0.009014372118739362 0.006593594572358491 -0.007165836409421709 -0.00853429285086752 0.010040008543202575 0.004782559384441722 0.0022659482156286927 0.010866030391003522 -0.00012663639972747146 0.011079526132230995 0.0066642122390366465 0.008829530722383256 -0.003606940987346203 0.010440010564291934 -0.003686966421692886 0.010395693169728226 0.005786129712286112 0.009374000131954323 0.00014804422716315472 -0.011001866139583243 0.004124942667175095 0.010187377310344636 0.010303187640294201 0.0037945234403188423 0.0017462599481393002 -0.01082963225870952 0.010955046336408194 0.00033509225051806023 0.0020062635487842857 0.010766276730259098 -0.010475461724707912 0.0031672445700403674 -0.0038806350129622935 -0.010225058707049062 0.0027470004035645506 0.010579422842583635 0.009859379843515346 -0.004704862515805728 0.008120866521707897 -0.007299363282565484 -0.007025873429607658 0.00835253966129819 -0.005066765418552324 -0.009662627554443281 0.007231501807892135 0.008164930602296758 -0.00271412067180058 -0.010560664877918359 -0.010650543403682954 0.0023246968848462616 0.007220384193576145 0.008164500391352015 0.005047319944830835 -0.009658291613752076 0.0026678740149998982 -0.01056482958663022 -0.002095064630024009 -0.010692474661238538 -0.007704328758476768 
14 0.011071149414357854 0.0015106319485563241 0.011673987054013886 -0.011285740737358623 -0.0039737738215783885 -0.011612222775124277 0.0035850572915671498 -0.010536789360237811 -0.006414149836742662 0.012412463689449555 0.0015766638845203685 0.006255599287178659 0.011032854993051906 -0.003956506209411237 0.012223187318035216 0.0045093057284727855 0.012199367104246524 -0.0006547417218869623 0.013142087879292762 -0.007661496791086931 0.010876985610383057 0.009787498536450428 0.009216783052316001 0.0035573527679394383 -0.013103155240141677 0.008021701146985112 0.01111140722417761 0.011548253898961509 0.007600482697752016 0.0051376463008020005 -0.012957705112664591 0.013831679876417246 -0.002448439295656847 -0.0001346569295345051 0.014147255871727108 -0.012664835099893128 0.006515632135598526 -0.007268209015109999 -0.012350908869007627 0.005754262730916881 0.013213956258333083 0.013835375790448037 -0.004298321475155008 0.012006366928438409 -0.00823011902935605 -0.010665756656105845 0.00999712457041965 -0.008144695809264352 -0.012206310372431542 0.00870275446520046 0.011875820634019577 -0.004797408794266824 -0.013964691296628242 -0.014638437340996287 0.002192834159773829 0.009222660864742499 0.011614990002935874 0.006350625727194145 -0.013428155425701686 0.003256922935307308 -0.014509475927369925 -0.00266710372710076 -0.014639373183839448 -0.01052430880318669 
15 -0.0016649987075247888 -0.01141029936971939 -0.00289293119770671 -0.0002917978053419959 0.01196134091215274 -0.0005845837526145735 -0.012138970936579138 -0.004326140167061743 0.011552045680534062 8.53720816528798e-06 -0.012512196088726188 0.010618291844729894 -0.006936013987845488 -0.01222318731803565 -0.003956506209410091 -0.011892152790540731 0.005266412242074221 0.012956397693857733 0.00229671925754529 -0.012119945631848334 -0.005487646756980487 0.011361272770904814 -0.007187885534672809 0.013561123635443633 -0.0006658541184267627 0.013284110308673863 -0.0033680072891912032 -0.0019601149928125034 0.013685300675127153 0.013830003529913646 -0.0017402682728576094 0.00534409902613617 -0.01299041295675594 -0.011524519781297581 0.008206608617406902 -0.0030524888733467837 0.013911643393646684 -0.013978856532227102 -0.0031564825723122848 0.013240252519289323 0.005693495657243193 0.013400193489232427 0.00550708681770622 0.014550897475874505 0.0003988592536697823 -0.014362123408932425 0.002725853244459549 -0.013017686213728293 -0.006772734187497503 0.0028180091747761955 0.014451016410753352 -0.009601263627055117 -0.011217997633857923 -0.014599604242749283 -0.002438016692653263 0.006044383461138936 0.013543666223331292 0.003721953269842908 -0.01438029447267411 0.0014127215898650995 -0.014803265058864137 -0.00174262695933993 -0.014777954553570689 -0.010524308803188423 
15 0.002255659382303705 -0.011174155890514606 0.00105582738459755 -0.003966469515377602 0.010468911587204354 -0.0041446614890243 -0.010370929332569 -0.007040383214888497 0.008638076759237657 0.0034865007394806985 -0.010560253709399522 0.010702308696449767 -0.002943760577903393 -0.011079526132231614 -0.00012663639972664982 -0.008393658311675318 0.0072054727597348584 0.009905618385491022 0.0048869794627879335 -0.010902425478042627 -0.0016737014577210046 0.010518450625498124 -0.0032731287723266 0.01050914466556995 -0.003258965180025555 0.010990476550234381 -8.505098217548403e-05 0.000953496474329711 0.01093823240581706 0.010331346236679048 -0.003686955872156313 0.006152935112015407 -0.009070100140380646 -0.0075308487147361545 0.00795135999030845 -0.004236906722695596 0.010090359653422578 -0.010110224478270877 -0.00417067316693921 0.009244590402999589 0.00583161617222533 0.010595774971026798 0.0026594463624339797 0.010860377113729095 -0.001131983366416983 -0.010407655694308276 0.0032876312431817565 -0.00909504670832215 -0.006026492216536203 0.003066800098213885 0.010466873807181986 -0.006411165614740949 -0.008819923420595281 -0.01084763955034537 -0.001080280790322041 0.004963113865694836 0.009703634128477353 0.0031481346529187103 -0.01043299016240599 0.0013227127773874229 -0.010815896026820202 -0.0014195444595150564 -0.010802925701524512 -0.007704328758478096 
15 0.006028471497280971 -0.010666500195970903 0.004978931229755136 -0.007707515679467992 0.00915166784945232 -0.007942711930865841 -0.009198352066876758 -0.010441952231674228 0.0065674105811682724 0.007442981522105199 -0.010057691082363209 0.012671844975331437 0.0005298647569215346 -0.012310426143832136 0.003676092729265175 -0.007006854545559289 0.01095729826528358 0.009706480497045401 0.008884109235588595 -0.013207924155417992 0.0015994025612929175 0.0134337492989251 -0.000527823084094444 0.011558431751804397 -0.007123909839525655 0.013334643588489447 0.0031620152056911605 0.004298479540875264 0.013139732835578089 0.01180705266741534 -0.007408848669517527 0.010094539005511376 -0.009767830130300654 -0.007568937255867151 0.011952998368842789 -0.007794358347605353 0.011920548988323182 -0.01213859695020942 -0.007617498031391445 0.010840831240004501 0.009497186825546358 0.014412546550792332 0.0014736664099736932 0.014155880010663861 -0.003390983217497525 -0.013321828402296265 0.006019115611409429 -0.0113113074585719 -0.009347962682384008 0.005426376589420168 0.013686763244930213 -0.007707820683651609 -0.01259433342651033 -0.014793684047266218 -0.0004891643366141226 0.007443859171377017 0.012827876941685586 0.004853472025502182 -0.014038860871216656 0.0021962437498486563 -0.014707445464277909 -0.002134364882411511 -0.014726478739181119 -0.01052430880318772 
16 -0.01150499685441255 -0.0007026925689285163 -0.011750327900737703 0.01108550667255743 0.004502262119049189 0.010884641055979605 -0.0054056398923178015 0.008407710420194578 0.009026386521768142 -0.010911236125617167 -0.0061237284441498525 -0.00026685253953699607 -0.012680110467247164 -0.0036760927292644463 -0.01231042614383105 -0.01137564057729722 -0.00630501366796181 0.010030599967934288 -0.008516467861308042 -0.00404599093593281 -0.012674277351971137 0.0028295970460409403 -0.013142967624988431 0.01034699271401092 0.008791312628898618 0.00784877709249493 -0.011234222623099952 -0.010058982158086722 0.009484006711141729 0.012180514583372404 0.006777359056681577 -0.00283832726845943 -0.013756966290041172 -0.014119088508655116 0.0009023972925288703 0.004216629861201116 0.013604100221902131 -0.013862358496630122 0.0036341201258081996 0.014403897625024621 -0.0004979084066211517 0.010165707656901482 0.010322382409165306 0.013445517424975026 0.005577254452893778 -0.01447319516547404 -0.0020560852185256247 -0.0144155896535803 -0.002742418216313618 -0.0009176080232692962 0.01469459242471959 -0.01180283378809945 -0.008872477034062772 -0.013918469520108702 -0.005036722709894797 0.004019833378016252 0.014276078096145447 0.002136883487084507 -0.01469964401699411 0.000335594014385441 -0.01486673519475524 -0.0012054699499944254 -0.014831437277164742 -0.010524308803189303 
16 -0.01093760072777154 0.0031317976634685015 -0.010778143380317386 0.011182233071450446 0.000537265086230829 0.011075842914823346 -0.0014353040813358693 0.0098043089334078 0.005297064493590852 -0.010913957366209537 -0.002135457895124796 -0.0036099552620550528 -0.010496349878890539 0.00012663639972749377 -0.011079526132230866 -0.007718296571319854 -0.007924659966307104 0.006089947352761594 -0.009215008687424654 -0.0003988552148039629 -0.011022933928471946 -0.0005544651138776678 -0.01100198818208621 0.006346964368848588 0.008987714890175021 0.003966785860517742 -0.010249996019882222 -0.009491229533594332 0.005520022249126944 0.008208068067734692 0.007277223183385174 -0.004361231334838286 -0.010055097627235462 -0.010859307172319626 -0.0014188924543156584 0.005074049749960498 0.009696430046527272 -0.009961214800817063 0.004515014214643809 0.010731032350730963 -0.0020772923691524513 0.006468990021781496 0.008803139797220196 0.009451592778947072 0.005467775721003234 -0.010549075253821417 -0.002800861926555735 -0.010873334953074947 -0.0008994832187227463 -0.0016816544211533118 0.010776490548675851 -0.009207781399642073 -0.00584044992969076 -0.009982893157871018 -0.004379513054974706 0.0023939928405758587 0.010633052845840586 0.001137425121447759 -0.010838094833266395 -4.330843087469613e-05 -0.010896389325564176 -0.0007384219955527282 -0.010870742529453756 -0.007704328758479241 
16 -0.009653305474064568 0.006890190754396115 -0.009544069047807153 0.011466081698902718 -0.0034187414131565306 0.011902982910076666 0.002452621333463491 0.012158065023409895 0.0020848748251970895 -0.012414603681259555 0.0015597241050609805 -0.007589055410067612 -0.010161823149533032 0.003956506209411299 -0.012223187318035022 -0.006002734632552738 -0.011538005582775767 0.0039024761585197405 -0.012566377377017327 0.0031193941006806207 -0.01293355053699336 -0.004136631249559481 -0.012791891937459436 0.004823882564404068 0.012691634763404786 0.0017587131834037267 -0.01359109957772227 -0.013217406645012968 0.004053352554869202 0.008187663725949073 0.011280943843921058 -0.008104656969967398 -0.01147278338448749 -0.013413228604864751 -0.004499808838430914 0.00877337582726868 0.011219598336279986 -0.011870162551546689 0.008029386849426388 0.013549194680481524 -0.004913196829352459 0.006814677287975055 0.012784888119472084 0.011537479754341407 0.008875486858521043 -0.01358692707122981 -0.005394096540184869 -0.014670274966345499 0.0003363259511005593 -0.003603132594330345 0.014275520534140636 -0.013056649516232838 -0.006895769540794032 -0.01313166015979787 -0.006830217484542185 0.0024863152149845716 0.014621344084794917 0.0009614287623552487 -0.014823004418762296 -0.00045375921896811705 -0.014863597857338304 -0.0008112728391013684 -0.014858214088084043 -0.010524308803189926 
17 0.003768707322979282 0.01118385697119426 0.0036722371749595803 0.0008562957733136916 -0.01193421886528585 0.0025289116187828336 0.01188700801662557 0.007291056569289979 -0.009950162925983826 -0.004707900510490855 0.011592704457113183 -0.01263833335614094 0.0010625166909335505 0.01231042614383225 -0.0036760927292648956 0.005578289781904935 -0.011749088432985161 -0.007192145439902711 -0.011018902146796778 0.011691637954664135 -0.006349248064565748 -0.012026364958721093 -0.006009223187244964 -0.005163638573198357 0.012557239849911066 -0.007555988475896726 -0.011433201561468877 -0.012864292135146886 -0.005063545518241551 -7.103736143713717e-05 0.013938883922043326 -0.013136242612231598 -0.004974872181353118 -0.009029046746532102 -0.010892166728328634 0.01316992040644587 0.005422610692448578 -0.006840277830218588 0.012592950860830066 0.010159147722460925 -0.010223106041058787 0.0012530781928674429 0.01443339827654156 0.007599424179274546 0.012415170486186119 -0.01111841729660457 -0.009491135945835751 -0.013953647561835156 0.004541563877524839 -0.0070869297154477345 0.012905366256766889 -0.014240173962392473 -0.0039045076091998553 -0.011680818220643565 -0.009091251571420284 0.0003432266696016832 0.014827260760082275 -0.0006554052141905765 -0.014839684945070472 -0.001530348239158523 -0.01479156763025427 -0.00027181757841176406 -0.014877862908054313 -0.010524308803190684 
17 0.0070583483962805655 0.008868372662588147 0.006879571036703792 -0.0029445305929019137 -0.010800959671463592 -0.001364238760461784 0.011084820552638337 0.0033660946217954043 -0.01062321857574648 -0.0007507376041008026 0.011095541395672327 -0.010248966763685743 0.004261903102017363 0.011079526132231711 0.0001266363997268427 0.007424386608486437 -0.008200659792490099 -0.008379072797574858 -0.007196873135023882 0.010752949449083997 -0.0024572822424962578 -0.01079423035871217 -0.0021990376268576023 -0.006586504960237159 0.008813678463347139 -0.008069934009236475 -0.007461499417502427 -0.009035834448120186 -0.006237610080503729 -0.002422812338862802 0.010698613883864306 -0.010826664328632158 -0.0017054813292243967 -0.005235032497270546 -0.009619368108780162 0.010705548794301911 0.0022711145997303677 -0.003527617048595617 0.010352152994661978 0.006400581444054601 -0.008860178106413406 -0.0006268900126925535 0.010906425221095355 0.0044326212504302515 0.00997903032586147 -0.0074061019557389585 -0.008017323123314638 -0.00996170539914566 0.004450045910228039 -0.006110012924530854 0.009034846550990612 -0.010711191650431605 -0.0020407026026730175 -0.008140951628197732 -0.007250048067944722 -0.0003255515592062979 0.01089435774726707 -0.000913578262005396 -0.010859254591406098 -0.0014086466393105452 -0.010805040055456646 -5.4385317327066664e-05 -0.010895657502988943 -0.0077043287584801605 
17 0.009885353839541807 0.006337402590971046 0.009919743495738183 -0.006794630402363061 -0.009848442520075029 -0.00533571920104963 0.01091908669122466 -0.0002302482467489187 -0.012333378851518247 0.0031033876374177475 0.012121225557615245 -0.009665250380860106 0.00821214629769389 0.012223187318035716 0.0039565062094102784 0.011138323138191646 -0.006715366971823535 -0.011978177782147813 -0.0054466886792468305 0.013288977966441197 0.0006406353532151654 -0.013418749488295764 0.0008254572095691035 -0.010579800252904028 0.008509715775010541 -0.01198925930079173 -0.006638427615892813 -0.00929528108246959 -0.010233633516575876 -0.005941129365343064 0.012609540561145789 -0.014029483763379829 0.0006955634559594283 -0.0042436761378364845 -0.013496451164137089 0.014237209320111379 0.00039163887613199565 -0.00227251431090141 0.014149469632625833 0.006513623178502857 -0.012856628355131718 -0.0028985952979759724 0.014194764389213738 0.004117136911163586 0.013961980150120012 -0.008581520487064639 -0.011834625927923415 -0.01269363368844911 0.007362183542740616 -0.009338432864720268 0.011382737923895889 -0.014678267782299526 -0.0016050511084114906 -0.010378297686749227 -0.010553829000120647 -0.0012279773601550014 0.014780309123869177 -0.0018331548383520358 -0.014740602043416387 -0.0023130839738553614 -0.014689522838519398 0.00012328300439764343 -0.014879835039663853 -0.010524308803191187 
18 0.00123534756472464 -0.011556097742364092 0.0022406667735765844 -0.007266769169249054 0.009505413626812585 -0.009249104097971755 -0.007883554207831591 -0.0120717765850962 0.002537214659765478 0.011636688466057477 -0.004598108892857241 0.00880282759565777 0.009130533284567222 -0.0039565062094114025 0.012223187318034847 0.007401496825617527 0.010694682820794183 -0.006905003665809461 0.011201075168241006 0.0018608182210236974 0.013173636726304698 -0.0025375833427158812 0.013202457658073593 -0.011362558714883224 -0.007432341179847094 -0.010585794617652787 0.008703563184462013 0.005301930256628562 -0.012767891012517737 -0.013911985526084154 0.0008684411442120087 -0.006930089670316086 0.012218186459110002 0.008424488106213157 -0.011366221066699966 0.00937690170815652 -0.010720318306350484 0.008758876362128638 0.011342570125453155 -0.004052740784534472 -0.01383096062126245 -0.011281489413051377 0.0090896197604705 -0.004875812295741928 0.01371547157462418 -0.0009043077097625173 -0.01459051377744692 -0.007576757024089617 0.012566735285324572 -0.013296200772942803 0.00632329787520318 -0.014238366958873348 0.003911091982294485 -0.006609035126269854 -0.013244358200316789 -0.0048651116015710925 0.014010572982516352 -0.0045627980150048635 -0.01413600649186396 -0.004135930012705341 -0.014283785269441417 0.0010573523062007678 -0.014842732080292001 -0.010524308803192235 
18 0.0049270035681958846 -0.009661129102381054 0.005713065359219326 -0.00936241308412323 0.006138095101850607 -0.010397298148012933 -0.004078061463620724 -0.011065795403911756 -0.0013158791698811235 0.01110214210917006 -0.0006458222674075464 0.004897031157516044 0.009961135658972012 -0.00012663639972756681 0.011079526132230778 0.008650658755986512 0.006894812588599841 -0.008190299928743334 0.007410993924295294 0.004428658821689957 0.010102036374657931 -0.004814366746001394 0.009908231343497186 -0.010417648301344796 -0.0035405620339135444 -0.009908267555207835 0.004756473749032082 0.0017966871535545006 -0.010831712651399065 -0.01054246555954686 0.0030309699093092196 -0.007241202360210574 0.00822741243816579 0.004705157377984664 -0.009889352967111485 0.008573897499865852 -0.006801104187854038 0.005131574717935535 0.009658058530609805 -0.0013993862107880945 -0.010840291376730227 -0.0074350441348684845 0.008003950331175298 -0.002279460936495825 0.010678634521006355 -0.001957282146869359 -0.010737637675019384 -0.006585683018725465 0.008698693133992172 -0.009375355548911607 0.00557345659975542 -0.010710246865185478 0.002045655340378216 -0.00550211703181128 -0.009410897861969154 -0.003024640357228548 0.0104711300847878 -0.002932217680069297 -0.010495719841843987 -0.002751769648759577 -0.010543288849056488 0.0006298659948996635 -0.010877572294112136 -0.007704328758480995 
18 0.008295721786223861 -0.007531412120692 0.009046646565969608 -0.011614726564888218 0.0028734907688776705 -0.012142470546229552 -0.0005067174724467414 -0.011140125949539415 -0.005297437302942158 0.012091348914174817 0.003217826173419269 0.0018539875743704716 0.012546678517182558 0.0036760927292644437 0.012310426143830999 0.012076168004278954 0.004829550934555778 -0.01183342965643001 0.0057543985885345214 0.00842757991514305 0.010294816454032954 -0.008811267735216233 0.010154101552219665 -0.013538296857867371 -0.001030511596768952 -0.013411866848055046 0.00281653820196092 -0.0008957162254912613 -0.013795912358270563 -0.012248959603114016 0.006652858027961741 -0.01123917428549776 0.008425626657311901 0.0035048074689133005 -0.01370690722937369 0.012573016559097658 -0.006691095937033204 0.004497373711781763 0.013606816007958536 0.00040750231700275165 -0.014406738750847012 -0.008234680973225612 0.011919866611499517 -0.0011493908079809973 0.014510913369879601 -0.004301985256341418 -0.013971177029084583 -0.010039759485247095 0.01070202374375546 -0.01190728342765528 0.008659656597490087 -0.014677524022281563 0.001611838306051362 -0.008299767048695918 -0.012255865386660876 -0.003354946232763276 0.014446792099612764 -0.0034244758590054837 -0.014454022635752259 -0.003372155986785027 -0.014483128208170002 0.0006629075329711098 -0.014865572411094664 -0.010524308803191818 
19 -0.010833000413298372 -0.0056388615351667315 -0.010332822615747564 0.006322000013823492 0.010158303903760412 0.0035105076413060794 -0.01163497699453081 -0.0031161536791394634 0.01193544445750543 0.0016770047953554264 -0.012399305575838146 0.01240550767014974 -0.002638141615855878 -0.01231042614383237 0.003676092729264685 -0.00406175205608112 0.012355588457533295 0.004225901433910125 0.012461336911434246 -0.008533295948113074 0.010207360545716799 0.007643818601020594 0.011059667925808921 -0.0032034890347493322 -0.013194131042515142 -0.0023184864923166413 0.01350687529290138 0.012101537295280558 -0.006684482062554922 -0.011730925224010126 -0.0075288063255480485 0.001091741141014184 0.014004225236307236 0.013149195031235544 -0.005221269119605471 0.0028587643501067697 -0.013952740828398492 0.012997606147578512 0.006036062177473976 -0.009565034913067833 -0.010781015104588603 -0.013942939672675923 0.003935431876021007 -0.009459177572944408 0.011063980554084057 0.0038538447225509777 -0.014101373889740832 -0.003642169044076038 0.014214945915756892 -0.014461134617998021 0.0027656168521828827 -0.013053459451562173 0.0069018063212410875 -0.004106276850144706 -0.014220789706219828 -0.006842315524694391 0.01315857835993991 -0.0060722327392679415 -0.013556319368616069 -0.005160782820071405 -0.013946281202441483 0.0015950164511748352 -0.0147946142912624 -0.010524308803192793 
19 -0.01125398057389062 -0.0017553750041022459 -0.011085810296345661 0.008730820095606736 0.007007408272340698 0.006535644566959287 -0.00905647526215994 0.0007809519576479053 0.011116360913123126 -0.0020321971359645156 -0.01093365540950824 0.009633992502622405 -0.005512832868274988 -0.011079526132231772 -0.00012663639972702786 -0.006338027893368113 0.00906651752148103 0.006326039249712793 0.009054560799938384 -0.009093253625364523 0.006243147954248746 0.008399661713045507 0.0071271914964927225 0.00014804422716368476 -0.011001866139583096 0.0007749808859545746 0.010963448959940262 0.010565818814928931 -0.002986227797794451 -0.007734930695942107 -0.007778252104061386 0.003066603823700088 0.01052241740464985 0.010766276730259518 -0.002006263548785907 0.00022486710981962547 -0.010941488531967225 0.010553226292634822 0.002870639037375444 -0.008440798734675875 -0.006944286545072824 -0.010830709920384842 0.00142787422828504 -0.008120866521708077 0.007299363282564515 0.004100926006362613 -0.010114851562568057 -0.0015804506447751935 0.010795399891709818 -0.010856137729754557 0.0010511820634173778 -0.009205079736184025 0.005844707070103982 -0.0023246968848477404 -0.010650543403683023 -0.00553367987775689 0.009389962808958645 -0.004846981824981241 -0.009760368984320802 -0.0040514956070200605 -0.010115263679251254 0.0013116315138028678 -0.010816558276880548 -0.007704328758481679 
19 -0.010937324661431401 0.0021707640334051818 -0.0115694324032147 0.011285740737358791 0.003973773821578412 0.009936036510050903 -0.006997966278417612 0.004754298978549928 0.011382525614852274 -0.006020315224280528 -0.010968633845969975 0.008559782144743419 -0.00935876815472913 -0.012223187318035796 -0.003956506209410492 -0.01020883547624161 0.008058416352861428 0.010247324907729047 0.008254422619711677 -0.012591612837520588 0.0042963513820844035 0.012156606857952881 0.0057411782010009715 0.00355735276794009 -0.013103155240141471 0.004195477483921134 0.01304641822397875 0.013810185299658788 -0.0006389736636037629 -0.00746317091713863 -0.0117727911372153 0.006602828289454615 0.01239809992572196 0.014147255871727332 0.0001346569295323009 -0.002283085123522659 -0.014058415008551647 0.014264241240666168 0.0013795774737182121 -0.012422264952496617 -0.007308044404870603 -0.01448647868400611 -0.0001874195947357356 -0.012006366928438542 0.008230119029354693 0.007054455981866544 -0.012803730531517147 -0.0005854918981085981 0.014662444611004804 -0.014723091444036456 6.0244032673596773e-05 -0.011798729809317825 0.00887793382697869 -0.002192834159775969 -0.014638437340996286 -0.008196552988431404 0.012360501013388956 -0.0071308017972268834 -0.013030635862935425 -0.005893549964569913 -0.013652783873944576 0.001987248721509531 -0.01474705163839847 -0.010524308803193135 
20 0.0009292126967722155 0.011683018881260339 -0.0014391151591854065 0.007707515679468002 -0.009151667849452313 0.010396415047814083 0.006293719704318125 0.012307943895236038 0.0008244787577177785 -0.012511717781584258 -0.00010973604987597162 -0.00341188411763756 -0.012215377951879556 -0.003676092729264375 -0.012310426143831049 -0.012586247047880219 -0.0032779232978779006 0.01289272143930204 -0.002630759289245922 -0.011625540340155812 -0.00646947917901929 0.012613148506009034 -0.00465324641511926 0.01155843175180475 -0.007123909839525442 0.01170488324227599 0.0071278866487731974 0.011200884178356772 0.008103684284122574 0.0009461269485553473 -0.013906918245827604 0.012409142598570273 0.0065820515917570065 0.011952998368842178 0.007568937255865074 -0.008928526603505014 -0.01109652751650113 0.013297573632869934 -0.0053428782183679475 -0.014352723060636762 -0.0013113048151557481 -0.013251758348816145 -0.005855261858467053 -0.01415588001066359 0.003390983217496083 0.01080980269593852 -0.009841190497021786 0.0036564453589016436 0.014211280381124205 -0.014262368195779864 -0.003654846708268103 -0.009596075292835108 0.011222436149238525 0.0004891643366115406 -0.014793684047265885 -0.00989975696793254 0.011043562748046078 -0.00850487774747508 -0.012178376729443531 -0.006868021025382913 -0.01318949301104591 0.0025208305681394924 -0.014665268587838778 -0.01052430880319353 
20 0.004656420183880591 0.010953522378739039 0.002448852553759521 0.003966469515377676 -0.010468911587204328 0.007146600728199539 0.008582569085736381 0.010773123795007071 -0.0028501174727395434 -0.010592738432589004 0.0033865230417105415 -0.006106877946278288 -0.009268828379217425 0.00012663639972761915 -0.011079526132230781 -0.009446594884418303 -0.0057562298976089775 0.009776025838385891 -0.005141319157173408 -0.007836470458054155 -0.00776233783301738 0.00899218859328182 -0.006363310445367004 0.010509144665570173 -0.0032589651800254017 0.010478846539170195 0.0033153557394865044 0.007200726546096117 0.00828876473900546 0.0030898029961624177 -0.010525372967751011 0.010527539356857562 0.003048973948563632 0.007951359990307752 0.007530848714734701 -0.008287226119256964 -0.007147630359818077 0.009316786315731922 -0.005727883240207466 -0.01090676872512613 0.0007159573143649266 -0.009255366709771017 -0.005803558327351374 -0.010860377113728807 0.0011319833664159005 0.008882334842048431 -0.006342865598148398 0.003815764103733267 0.010221468943707832 -0.010270498657446458 -0.003671180663661276 -0.006407086513675364 0.008822887060996886 0.0010802807903200554 -0.010847639550345055 -0.007695017940114654 0.0077187896359751885 -0.006590039222316235 -0.00867925218956796 -0.005287327059311563 -0.009527714758658566 0.001988220622348555 -0.010712856245745445 -0.0077043287584822135 
20 0.008078425127198781 0.009957874664801471 0.006277317482921553 0.0002917978053420556 -0.011961340912152727 0.004307120500870801 0.011364201096157631 0.0102900430000277 -0.0068029598857987745 -0.010127597317786593 0.007347577588253831 -0.00987777393151013 -0.007955249455387418 0.003956506209411539 -0.012223187318034871 -0.008683532992302581 -0.009682698522034782 0.00947366439794912 -0.009131968211971191 -0.006579684153521578 -0.011563524786510479 0.008584033718339396 -0.010346911740073097 0.013561123635443768 -0.0006658541184265889 0.013674711161786935 0.0009018505612167216 0.006458251569913583 0.012223767504881975 0.0067211655065230295 -0.012211611913782942 0.014006034310586219 0.001068281834947767 0.008206608617405815 0.01152451978129588 -0.012287488164899949 -0.007202023662237132 0.010770213757004769 -0.00945379859137697 -0.014058142079238832 0.003176290423356072 -0.011042557921380715 -0.00937843831986941 -0.014550897475874052 -0.0003988592536711842 0.012816856079192097 -0.007030580699278457 0.0065506161012414904 0.013130861031468473 -0.013347502096047714 -0.006214277014177749 -0.007701996121231822 0.012597896248899036 0.002438016692650388 -0.014599604242748749 -0.011012974806215183 0.009933773306847601 -0.009446193370773523 -0.011463648462234877 -0.007558225112857012 -0.012806469920977904 0.00290930237400216 -0.014593171320975071 -0.010524308803193865 
21 0.010041721365808024 -0.0029627506641743905 0.011392369864221152 -0.0110855066725574 -0.004502262119049256 -0.00868147421162589 0.008504608108302815 -0.0014964037347338377 -0.012244428284443595 0.0014592632986644336 0.012426812723777119 -0.01197703971750906 0.004172161471546835 0.012310426143832605 -0.0036760927292645534 0.0024811580739598125 -0.012767233471235373 -0.0009941284990467587 -0.013120780048335142 0.004176477884697935 -0.012631879572216143 -0.0013702936435147346 -0.01337409857766134 0.010346992714010699 0.008791312628898679 0.010936196307895024 -0.00825897512456805 -0.0025633282345541497 0.013585243969676426 0.012642525491276332 -0.005870611595171075 0.012206561073044252 -0.006950546018712208 0.0009023972925274996 0.014119088508654344 -0.014241278450473778 -0.00019364485545002137 0.005208024944931069 -0.013350965820900614 -0.011360334745476467 0.008869214962118389 -0.006478370922979209 -0.012958545479758552 -0.013445517424974266 -0.0055772544528949804 0.014400191848144887 -0.0025170100239002187 0.010050504030517928 0.010691933944153853 -0.011348818533547207 -0.009379625200697655 -0.004790950876620527 0.013966908170647616 0.005036722709891595 -0.013918469520107862 -0.012335160272116055 0.008234639473309978 -0.010636233221433904 -0.01036900902319053 -0.008466946436367102 -0.012224698635844944 0.003436696118509658 -0.014478045769222693 -0.010524308803194266 
21 0.007288765999646761 -0.006309146047887584 0.009282844794458801 -0.011182233071450437 -0.0005372650862308667 -0.010090219224375812 0.004787678987127229 -0.00481831615545424 -0.010048243395591681 0.004687441456078947 0.010084767642793053 -0.008867084424724522 0.0066768219669932774 0.011079526132231971 0.0001266363997271181 0.005151714692217002 -0.009789390853083172 -0.003875517390246422 -0.010343317109447584 0.006156437353079994 -0.009152182089067444 -0.003927128979788813 -0.010292173409799174 0.0063469643688483495 0.008987714890175054 0.006940060503812196 -0.008522521262762288 -0.004433978319827594 0.010044596554841089 0.010711978587245471 -0.0023630220929484126 0.008215271521500344 -0.007254973526983282 -0.0014188924543167242 0.010859307172319326 -0.010789820583592267 0.00182934640955906 0.0022023319253458495 -0.010712650827738509 -0.0074605857196403036 0.007988107386562747 -0.0034320553128648168 -0.010371311321176796 -0.009451592778946449 -0.005467775721004047 0.01089828069523953 -0.0005960655418774356 0.008268009791921353 0.007118883138754206 -0.007729912325392412 -0.007694749221359134 -0.002709237030750179 0.010561918783821372 0.00437951305497228 -0.009982893157870296 -0.009372849724998567 0.005562616522441006 -0.008099641194785264 -0.007290668559022501 -0.006439774205381558 -0.008789908084740974 0.0026569631324294854 -0.010566875465246713 -0.007704328758482695 
21 0.0040580724061914574 -0.009502240346745567 0.00694776302229436 -0.011466081698902742 0.0034187414131564473 -0.012078311132785024 0.0013456425017731937 -0.008610622547527633 -0.008833030481902327 0.008558964264431193 0.00912684252996905 -0.0073193210308382 0.010357796647307417 0.012223187318035992 0.003956506209410555 0.009118348380368431 -0.009274379694150084 -0.007872594922332856 -0.010543500829337145 0.010125793105029285 -0.008629928333566347 -0.007887082104286583 -0.010887522827287886 0.004823882564403646 0.012691634763404831 0.005872516375128762 -0.012382431555106222 -0.00831060574328496 0.011048227800573391 0.013939063271164872 6.81332487689552e-06 0.00840678866055988 -0.011253271862213263 -0.004499808838432208 0.013413228604864692 -0.013381594336598052 0.004876929694456376 0.000481196074515819 -0.014322718405238077 -0.008073624118699546 0.011938876545281972 -0.002530395541079133 -0.014265002249294726 -0.011537479754340522 -0.008875486858522009 0.01458880302773789 0.0009314992977245286 0.012066189193950288 0.008350877862202018 -0.00943127051466529 -0.011305935940565262 -0.0025235399665299047 0.01454852158079368 0.006830217484538791 -0.013131660159796794 -0.013137410914036207 0.006882870089574565 -0.011426948834830496 -0.009490555599642273 -0.009103702536049432 -0.011758190287143117 0.0038198743391584713 -0.014381698423333457 -0.010524308803194524 
22 -0.011534111515654475 -0.00296185871050567 -0.011392601792404176 0.006794630402362964 0.00984844252007509 0.0017003871646378483 -0.012033496460018025 -0.007063103455313411 0.010113249612748064 0.00798215198334178 -0.009635370961280332 0.01079694187176635 0.006654506590060641 -0.003956506209411461 0.01222318731803486 0.009828624656407855 0.008518012283419113 -0.01144705995426508 0.00648906610791345 0.010374453000008034 0.00832935015466204 -0.012506908835489387 0.00493167809322713 -0.010579800252904326 0.008509715775010631 -0.009351076234331512 -0.010018404715960933 -0.013535219221618407 -0.002815554292926624 0.006709224382316793 0.012218176602367318 -0.0049968690624790585 -0.01312789102486179 -0.013496451164137337 0.004243676137838013 -0.004772010337565791 0.013419367629365637 -0.01011141099661671 -0.010155352275297628 0.002287304694988931 0.014229842472979514 0.007143151373656036 -0.012604307962746407 -0.00411713691116252 -0.013961980150120264 0.011818611512742676 0.00860356243858706 0.014596748285422005 0.0015049990782875276 -0.003719835305540856 -0.01424555637076484 0.003009339877074475 0.014455850291620626 0.010553829000116935 -0.010378297686747529 -0.014436375178110732 0.0033994908311481844 -0.013002898939592474 -0.007181255073485932 -0.010505609131960048 -0.010524476968477765 0.004715371005432723 -0.014113467532388036 -0.010524308803195026 
22 -0.009480326715227588 -0.009501696355329391 -0.006948506961384292 -0.0008562957733138322 0.011934218865285921 -0.006078425363586383 -0.010523739765988244 -0.011747147697305166 0.0037642753788616136 0.01214592940589771 -0.0030052491932620836 0.004915973210208794 0.011691433579162339 0.003676092729264574 0.012310426143831203 0.012897833456876884 0.0016746008526559797 -0.013141916118030022 -0.0006581802914419468 0.013190728172901438 0.0017355227791584621 -0.013294704849185828 -0.0019987597173010737 -0.005163638573198541 0.012557239849911162 -0.003653118494444613 -0.013208549695504201 -0.013383708337871097 0.0034649468221724647 0.011235039262138329 0.008250540835431882 0.0006720623963990914 -0.014030629184878109 -0.010892166728329421 0.009029046746533098 -0.009226938454541117 0.01084965976379066 -0.00616729682555597 -0.012935851809732942 -0.0022099321922790685 0.014242063729637431 0.0032684171732778123 -0.014114199940065377 -0.007599424179273559 -0.012415170486186674 0.013507165524011879 0.005590826793126824 0.013958202280599713 0.00452754589457513 -0.006275067849582632 -0.013319030538898432 0.0006870483525802381 0.014749769446018923 0.009091251571416692 -0.011680818220642132 -0.01399550009085631 0.004908303515580416 -0.012390794830907742 -0.008192314002898092 -0.009932343044141098 -0.011067113460475736 0.004338998599377247 -0.01423368471834545 -0.010524308803194838 
22 -0.010863231431306805 -0.006308419245337167 -0.009283338728962387 0.0029445305929017653 0.010800959671463642 -0.002127929767442203 -0.0109638637799168 -0.00896739896440979 0.006615823586226159 0.009417754042921592 -0.005914436118542372 0.0072204156217557346 0.008430346138992992 -0.00012663639972751328 0.01107952613223083 0.01009355256840056 0.004526868022527711 -0.01074748809089454 0.002548596398957129 0.010143673106823452 0.004332442010662651 -0.010945463119012842 0.0012441915574389402 -0.006586504960237337 0.00881367846334723 -0.005369233202029287 -0.009590054394686541 -0.01097651884175816 0.00026479767134893287 0.007231267086446251 0.00824858381722802 -0.00172361413836203 -0.010823792373805392 -0.009619368108780581 0.005235032497271541 -0.005468154850874958 0.009479768933845254 -0.006301586424152227 -0.008938745001698585 2.970286151395008e-05 0.010930202040189931 0.003966478572768232 -0.01017890710848292 -0.004432621250429469 -0.009979030325861771 0.009521110619852008 0.005336316033275094 0.010674860318924293 0.002255180754175971 -0.0037179689129647198 -0.010253653851193933 0.0013691167418969925 0.010817560401120313 0.00725004806794201 -0.008140951628196577 -0.010461750890730759 0.003056923754929433 -0.009322309339912575 -0.0056438093600647225 -0.0074906622652980166 -0.007913479309490446 0.003315219822877732 -0.010379192054832877 -0.007704328758483106 
23 0.0019619119662118204 0.010953714073561995 -0.0024479949604195974 0.009362413084123186 -0.006138095101850484 0.011148608451895737 0.0006655251055094853 0.008178962168185783 0.007568879954283029 -0.007048156590304134 -0.008602216835900197 0.007960337128509319 -0.007735513594751949 -0.011079526132232011 -0.00012663639972720022 -0.003884155872884456 0.01035787964303355 0.0011814825199950568 0.010982164764910691 -0.0023549677501114234 0.010775819447716271 -0.0015169229962800463 0.010911009125861137 -0.010417648301344765 -0.003540562033913559 -0.010893153645325714 0.001461852294230964 -0.0049131705127613 -0.009819105825011044 -0.0037445996126328584 0.010310593213119397 -0.010062388800578428 -0.004344382427365212 -0.009889352967110852 -0.004705157377983208 0.0038187544203753697 0.010255917861855627 -0.01082979742417177 -0.0015253332153559273 0.007503890628016818 0.007947441370788923 0.009544503847873441 -0.005314654126964346 0.0022794609364965497 -0.010678634521006102 0.005179598461029975 0.00960726683427404 0.010440893020095729 -0.003166423219572765 0.0010016746200360936 -0.010860817561006214 0.0052551821368538075 0.009553907807453767 0.009410897861966349 -0.005502117031809632 -0.010893301772370014 0.00035915322531651086 -0.010214730029104916 -0.0037970154008470677 -0.008423418106586103 -0.006912250238245904 0.003960392855264988 -0.01015054671518048 -0.007704328758483345 
23 0.005763899253744403 0.011682906172585503 0.0014400298551922822 0.007266769169249138 -0.009505413626812582 0.011232572948564369 0.004639575251907928 0.01125760976855077 0.0050429624675616454 -0.010559822102178922 -0.006711578131631376 0.005963429851926204 -0.011193476499309702 -0.01222318731803613 -0.003956506209410725 -0.007884059483499522 0.010344080527416099 0.005003200844587879 0.01217009210557168 -0.006237835822530911 0.011751457496817162 0.001666398610128483 0.013340439764364017 -0.011362558714883316 -0.007432341179847189 -0.01275723788689602 0.00500639004575199 -0.0032154263594322907 -0.013445837224984008 -0.007474676278056909 0.011765489613151119 -0.013761701329915702 -0.0028152796831572196 -0.01136622106669889 -0.008424488106211344 0.007298006599611527 0.012230724013973012 -0.014324670343694867 0.0004190843857557184 0.01140837084670071 0.008807340926619271 0.01353818099818715 -0.00515857015334579 0.004875812295742822 -0.013715471574623729 0.005368764453998286 0.013596956753673997 0.013516266864917966 -0.005713196370675647 0.0026996552843221696 -0.014473593622830195 0.008119566878029416 0.01233289778854575 0.01324435820031305 -0.006609035126267451 -0.014828248896470633 -0.00029749093865189387 -0.014118214866920055 -0.004617555006189577 -0.011741835996113142 -0.009124786361001707 0.0055922582565966885 -0.013789537232922268 -0.010524308803195357 
23 -0.001968667780578025 0.00995836610527718 -0.0062765378302492335 0.011614726564888087 -0.002873490768877453 0.011704760047246547 -0.0032703127983909346 0.005898795691041373 0.010833718546535948 -0.004503840512834096 -0.011673497525660978 0.011359686693786718 -0.005640383848503025 -0.0123104261438326 0.003676092729264546 -0.000861434746840161 0.012977531586320435 -0.0023001091855604093 0.012955796319945477 0.0007669140860640959 0.013282288651920573 -0.005242223654153515 0.01237995592053093 -0.013538296857867291 -0.0010305115967689305 -0.013625801531238145 -0.0014658077719734773 -0.008833683474670432 -0.010634638763165973 -0.0018174826048520504 0.013820068316761943 -0.011486342993267472 -0.008085428116631798 -0.01370690722937313 -0.003504807468911391 0.002478334604755139 0.014025311683552597 -0.013651635331606201 -0.0043594340172493995 0.008138392271676134 0.011894820335165415 0.011515088352831836 -0.00879181045025241 0.0011493908079820176 -0.0145109133698794 0.008408762244457454 0.011957992400063892 0.014412827769268083 -0.002756896520911175 -6.883759177086185e-06 -0.014723213087735113 0.0060685536824154045 0.013461069435715225 0.012255865386657112 -0.00829976704869378 -0.014776451167039286 0.0012735607964893916 -0.013706406356157249 -0.005725402174835287 -0.011241100668814966 -0.009734993294661756 0.0052241770350730755 -0.013933149816636908 -0.010524308803195194 
