300 128
43 -0.00879597 0.0180994 -0.607304 -0.114035 -0.101031 -0.141744 0.0459357 -0.0499963 -0.134145 0.345594 0.400451 -0.0516092 0.208409 -0.0598735 -0.027421 -0.330482 0.0246508 -0.135435 0.0459628 0.274371 -0.0664319 -0.184502 0.307725 -0.176698 0.33216 0.168553 0.0723143 -0.0614507 0.0988694 0.255188 -0.326106 -0.233534 0.137641 -0.0714297 0.0217828 0.415081 0.0551877 0.17709 -0.0275845 -0.235724 -0.186949 0.356656 0.172367 -0.0613827 0.305884 -0.342908 -0.0466454 -0.177158 0.510796 -0.0997068 0.00749386 0.299054 -0.178176 0.137636 -0.0469852 -0.390651 0.427211 0.112079 0.0092524 0.354494 -0.00531997 0.23326 -0.00025343 -0.109134 0.114516 0.110833 0.29135 0.0026741 -0.137568 0.00401299 -0.477961 -0.0860005 0.0580425 -0.241173 -0.109628 0.124745 -0.248751 0.0935983 -0.0870228 0.268845 0.105863 -0.165206 -0.0230316 -0.0340392 0.242818 -0.120519 -0.202783 -0.140134 0.24426 -0.162338 -0.016115 0.223772 0.0771737 -0.0771396 -0.0996449 -0.0463856 -0.290541 0.0758896 0.225602 -0.331498 -0.11858 -0.124571 0.0294076 -0.0439851 0.28542 -0.0191292 -0.241536 -0.219299 0.0335587 -0.155004 -0.200842 0.0597544 0.0182512 0.265523 -0.104575 0.260981 -0.138475 -0.39648 0.196627 -0.227001 -0.170104 0.00319108 0.0637077 0.253705 0.171815 0.0435073 -0.087955 -0.252979
44 0.0304089 0.0116718 -0.809343 -0.0876362 -0.142533 -0.15022 0.0520764 -0.0369851 -0.194703 0.438136 0.478317 -0.0735155 0.293851 -0.0758337 -0.0236766 -0.365691 0.0199056 -0.12626 0.0274289 0.356397 -0.0974869 -0.193662 0.394884 -0.236679 0.357259 0.189769 0.0537245 -0.0433436 0.115432 0.314589 -0.38366 -0.241761 0.189351 -0.0946615 0.0262761 0.534014 0.100499 0.192647 -0.0324836 -0.24926 -0.227339 0.330388 0.233609 -0.067537 0.406325 -0.393984 -0.12105 -0.235879 0.570398 -0.171033 0.0279411 0.344483 -0.215484 0.180094 -0.0596421 -0.463363 0.457679 0.111204 -0.0106325 0.407917 0.014588 0.283567 -0.0122875 -0.107724 0.131386 0.112548 0.357724 -0.0105708 -0.13645 0.0492512 -0.631472 -0.148806 0.0812892 -0.32873 -0.100612 0.158836 -0.267048 0.126075 -0.129289 0.285228 0.0970508 -0.192685 -0.0101135 -0.00657679 0.303347 -0.183374 -0.283686 -0.109055 0.326509 -0.179562 0.0149822 0.304319 0.109871 -0.0785552 -0.160393 -0.0597568 -0.340113 0.0385514 0.226129 -0.407313 -0.165631 -0.135237 0.0358858 -0.0323701 0.347008 -0.0337902 -0.273372 -0.312072 0.0655102 -0.192051 -0.208452 0.055303 0.0159103 0.363791 -0.114947 0.3589 -0.13748 -0.42581 0.207852 -0.250778 -0.225793 0.0376551 0.0427087 0.302716 0.210083 0.0316753 -0.108075 -0.322502
45 0.0636271 -0.0239894 -0.793034 -0.0272977 -0.115847 -0.150779 0.0148891 0.00139878 -0.19993 0.417137 0.409151 -0.108662 0.320454 -0.0518775 -0.0323416 -0.268264 -0.0221208 -0.040915 -0.0141885 0.352477 -0.082361 -0.132542 0.340158 -0.211411 0.260604 0.174197 0.00473461 0.0296784 0.115353 0.28892 -0.326614 -0.134266 0.205744 -0.0614114 0.0315156 0.567341 0.163489 0.169793 -0.0257944 -0.241461 -0.274506 0.225923 0.21237 -0.0459073 0.368625 -0.364055 -0.151969 -0.183573 0.450646 -0.180091 0.0111776 0.291761 -0.15105 0.180907 -0.0791418 -0.392223 0.359719 0.0805813 -0.104244 0.312105 0.0228999 0.276502 -0.00564834 -0.0660245 0.121241 0.0670647 0.349413 -0.0171217 -0.0820435 0.164993 -0.717607 -0.161161 0.119483 -0.301137 -0.133832 0.133154 -0.190022 0.0901165 -0.127943 0.227359 0.0561811 -0.219343 0.0312631 0.0438585 0.301508 -0.253668 -0.299537 0.00792771 0.374172 -0.160806 0.0481733 0.376872 0.0822021 -0.0305856 -0.255465 -0.0184375 -0.313153 0.0118884 0.11303 -0.395061 -0.198346 -0.0590701 0.0936899 0.0402837 0.30578 -0.0116951 -0.259069 -0.31851 0.0919865 -0.185166 -0.128033 0.0120028 -0.00830433 0.349795 -0.0580801 0.336952 -0.137043 -0.383881 0.0965571 -0.217933 -0.204191 0.0964122 -0.0380684 0.239765 0.237416 -0.0155059 -0.120078 -0.264904
42 -0.0186315 0.0306513 -0.772723 -0.140488 -0.152601 -0.152535 0.0596196 -0.0555879 -0.162163 0.454927 0.50751 -0.0587085 0.257076 -0.0846646 -0.0427553 -0.422331 0.0290014 -0.170263 0.0706644 0.335226 -0.0936675 -0.232672 0.407485 -0.240106 0.416536 0.213804 0.107704 -0.0846743 0.142851 0.32449 -0.426352 -0.306472 0.2075 -0.102224 0.0264553 0.511671 0.0778338 0.227665 -0.0257261 -0.282119 -0.216477 0.436488 0.244166 -0.06455 0.411544 -0.430393 -0.0735104 -0.225941 0.660012 -0.135529 0.0196842 0.377377 -0.248575 0.146298 -0.0419049 -0.506125 0.522731 0.130496 0.0129191 0.446367 0.0138366 0.281532 -0.000369765 -0.112416 0.127885 0.145075 0.370971 0.0124194 -0.15779 -0.0235999 -0.576471 -0.109479 0.0385831 -0.290437 -0.127901 0.167956 -0.288046 0.11109 -0.124193 0.327415 0.140689 -0.191371 -0.0306767 -0.0355259 0.330751 -0.147659 -0.278812 -0.161241 0.302607 -0.217566 -0.0417321 0.276727 0.100924 -0.0978107 -0.133618 -0.0562021 -0.363403 0.0736312 0.29227 -0.411705 -0.159632 -0.165867 0.0320096 -0.0483904 0.360378 -0.0286254 -0.304802 -0.291344 0.0511494 -0.191551 -0.242888 0.0848088 0.0241714 0.349702 -0.158046 0.342479 -0.17626 -0.499463 0.248612 -0.290262 -0.208683 0.0173081 0.0832064 0.320767 0.19311 0.0673147 -0.112978 -0.314156
47 0.106106 -0.0171966 -0.852722 0.0399674 -0.103315 -0.15289 -0.00335205 0.0322256 -0.24675 0.418496 0.369175 -0.1327 0.374229 -0.0340881 -0.0127411 -0.194653 -0.0628356 0.0154449 -0.0490606 0.369288 -0.0840195 -0.103686 0.33311 -0.222801 0.18694 0.167144 -0.0271045 0.0728281 0.101719 0.293577 -0.283964 -0.0603314 0.196465 -0.0600558 0.00345715 0.633919 0.216083 0.170084 -0.00674805 -0.223564 -0.310723 0.127955 0.238158 -0.0233883 0.380503 -0.350432 -0.195504 -0.193907 0.392119 -0.216017 -0.0139063 0.256502 -0.100953 0.156923 -0.0994907 -0.34142 0.29525 0.0663777 -0.189187 0.250312 0.0349596 0.289903 0.00881982 -0.0197662 0.122678 0.0290044 0.382592 -0.000309529 -0.0394749 0.274729 -0.816152 -0.168901 0.156506 -0.310903 -0.14339 0.147786 -0.160907 0.0553951 -0.122353 0.176376 0.0140899 -0.249059 0.0875347 0.0852062 0.300545 -0.332553 -0.342993 0.0813019 0.404622 -0.129428 0.070156 0.461779 0.0899362 0.0111145 -0.328906 0.0059839 -0.284457 -0.0177734 0.0541296 -0.432265 -0.219896 -0.0309467 0.134698 0.0622279 0.308102 0.00458723 -0.247878 -0.365492 0.136536 -0.197186 -0.053326 -0.0375385 -0.0432323 0.380846 -0.0363129 0.348229 -0.140265 -0.340719 0.0431611 -0.185257 -0.225567 0.133724 -0.105622 0.205361 0.25633 -0.0517446 -0.131464 -0.256217
211 -0.263528 -0.208546 -0.111878 -0.0485559 -0.020472 -0.0481471 -0.0202242 -0.0169251 0.306567 0.0657407 0.224661 -0.0875258 -0.0976096 0.268487 -0.254301 -0.260657 -0.38276 -0.312768 0.0751644 0.109251 0.0964371 -0.139183 0.026746 -0.0328979 0.335365 0.134288 0.12036 0.0471639 0.369598 0.0590888 -0.506234 0.0406398 0.0182079 -0.189957 0.0642907 0.240961 0.278444 0.214345 -0.275949 -0.124862 -0.322156 0.607729 -0.15723 0.106169 0.101188 -0.163112 0.11767 0.00503455 0.266437 0.180611 -0.234144 0.168515 -0.0159552 0.129378 -0.142389 -0.261064 0.211486 0.0608318 -0.355913 0.010819 -0.136817 0.139626 -0.249897 -0.302393 -0.0903144 0.190626 0.208738 0.0409301 -0.059979 0.0994111 -0.582567 0.384193 0.0449599 0.0298865 -0.292533 0.128831 0.0306801 -0.29745 -0.228909 0.287022 0.0267616 -0.236293 0.0218096 0.393796 0.0842921 0.0248279 -0.0152622 -0.023242 0.37085 -0.207601 -0.106627 0.539605 0.00191215 0.156289 -0.0219102 0.138401 -0.577266 0.0559503 0.0304653 -0.0466752 -0.0917306 0.062993 0.104996 -0.207695 -0.161073 -0.202779 -0.0267814 0.13714 -0.242519 -0.220301 -0.127873 -0.285411 0.245508 0.0903513 0.0235803 -0.0162811 -0.15913 -0.349699 -0.198107 -0.222906 -0.222611 0.0351315 -0.0426344 0.0826905 0.147158 0.119139 -0.0206623 0.282229
210 -0.347984 -0.28101 -0.117407 -0.074515 -0.0375206 -0.06835 -0.00749398 -0.0134807 0.372429 0.0353445 0.27739 -0.0983281 -0.100461 0.318942 -0.292818 -0.222007 -0.502621 -0.385032 0.00917057 0.0970322 0.0849852 -0.187432 0.0215662 -0.0506202 0.368519 0.12861 0.147994 0.0544801 0.421146 0.0640558 -0.579879 0.0181174 -0.0294211 -0.231312 0.108954 0.271899 0.327369 0.240962 -0.345686 -0.117435 -0.358629 0.678431 -0.203834 0.141733 0.111748 -0.202451 0.0901753 -0.0120079 0.273259 0.227755 -0.29262 0.190634 -0.00778297 0.0963226 -0.142842 -0.260868 0.230317 0.0617445 -0.395433 0.00869165 -0.168709 0.229498 -0.260601 -0.38555 -0.0882101 0.203756 0.257937 0.0358837 -0.114528 0.131149 -0.6874 0.436462 0.099235 0.0017481 -0.346569 0.125767 0.0216892 -0.36305 -0.264834 0.372511 0.0237021 -0.230221 0.0382231 0.411745 0.0724697 0.0211848 0.0136991 -0.0151854 0.444647 -0.214842 -0.114198 0.583344 -0.000367224 0.188041 0.0292191 0.144605 -0.66488 0.0366402 0.0350741 -0.0707265 -0.0457624 0.075719 0.0770402 -0.30675 -0.176872 -0.192055 -0.0201705 0.19778 -0.277713 -0.285685 -0.153942 -0.362952 0.252174 0.175317 0.0588497 -0.0715063 -0.16902 -0.425832 -0.192835 -0.266296 -0.260379 -0.00555452 -0.0346414 0.11966 0.214173 0.139038 -0.021163 0.338901
209 -0.377223 -0.337923 -0.104609 -0.0956002 -0.0577499 -0.105599 0.0145233 -0.0290714 0.371443 -0.0230312 0.338196 -0.0961913 -0.0548267 0.367858 -0.325015 -0.0828292 -0.54315 -0.370353 -0.0713228 0.000365699 0.0413353 -0.216491 -0.0383262 -0.0905894 0.342838 0.0997754 0.174052 0.0857239 0.426196 0.0778567 -0.55276 -0.0437701 -0.0739554 -0.240814 0.167193 0.251705 0.302423 0.270431 -0.356156 -0.0816138 -0.337138 0.66351 -0.238599 0.21932 0.0795382 -0.214831 0.061076 -0.014932 0.240166 0.265856 -0.305992 0.169286 -0.00212803 0.0642892 -0.140736 -0.213382 0.189679 0.0796478 -0.372026 0.00948247 -0.192441 0.32719 -0.195317 -0.428498 -0.0581211 0.190757 0.280025 0.00028213 -0.184199 0.141024 -0.744168 0.39718 0.154767 0.00845701 -0.362363 0.107314 0.0482505 -0.37426 -0.21433 0.43034 0.00674435 -0.226336 0.069828 0.32551 0.0558767 0.0298216 0.055103 0.0500815 0.458271 -0.217247 -0.158248 0.509879 -0.00635084 0.221742 0.0711999 0.173173 -0.716147 0.0361251 0.0423832 -0.0854647 -0.0149947 0.131521 0.0456294 -0.364234 -0.168011 -0.127447 -0.0282021 0.26686 -0.273642 -0.301824 -0.153855 -0.424827 0.256384 0.354955 0.103342 -0.130079 -0.200399 -0.460083 -0.204531 -0.292337 -0.278714 -0.0742306 0.0501503 0.117065 0.314171 0.144882 -0.0261938 0.368641
207 -0.352858 -0.365072 -0.141165 -0.133033 -0.0544419 -0.119753 0.00890049 -0.0466054 0.303669 -0.0636708 0.365112 -0.0712108 0.00260967 0.379916 -0.304901 0.0161819 -0.549242 -0.329018 -0.127271 -0.0600889 0.000357987 -0.239201 -0.0523462 -0.112854 0.319839 0.0764885 0.194096 0.102527 0.376356 0.0913867 -0.450799 -0.1023 -0.0750684 -0.226512 0.19258 0.230226 0.251564 0.280987 -0.316724 -0.0433071 -0.277971 0.606351 -0.248841 0.239376 0.0682653 -0.229862 0.027054 -0.0323404 0.19508 0.273818 -0.303511 0.136314 0.0241605 0.0487557 -0.105816 -0.168273 0.170773 0.0831665 -0.334694 0.00859085 -0.193332 0.38315 -0.0953458 -0.39677 -0.0204602 0.126441 0.306556 -0.0198601 -0.216177 0.128161 -0.750552 0.330609 0.208228 -0.00315647 -0.356937 0.0604298 0.0629156 -0.381172 -0.137832 0.444388 -0.023688 -0.245118 0.068149 0.212582 0.081059 0.0116393 0.0543381 0.089263 0.45532 -0.230397 -0.196568 0.418072 -0.0052931 0.216069 0.0948714 0.182595 -0.694278 0.0344581 0.0641177 -0.14803 -0.00602827 0.157004 0.0288086 -0.360797 -0.114904 -0.0438164 -0.0225698 0.292529 -0.229211 -0.293692 -0.127224 -0.452546 0.211466 0.48062 0.147747 -0.149244 -0.236147 -0.480011 -0.167706 -0.292949 -0.294972 -0.126029 0.100598 0.116918 0.400715 0.14616 -0.0312867 0.362072
206 -0.255941 -0.400723 -0.184554 -0.147855 -0.0264796 -0.1515 -0.026351 -0.147572 0.198712 -0.0974339 0.420874 -0.049788 0.0631526 0.367574 -0.316152 0.128418 -0.52685 -0.313055 -0.19216 -0.135714 -0.0274269 -0.279604 -0.0925945 -0.14537 0.295238 0.0573809 0.203281 0.155571 0.292254 0.105128 -0.349856 -0.147674 -0.0314056 -0.168811 0.190379 0.234083 0.129654 0.291178 -0.25745 -0.00513982 -0.225919 0.530216 -0.259199 0.302311 0.0498427 -0.238349 -0.00767541 -0.0640595 0.181338 0.293554 -0.231015 0.115861 0.0147385 0.0623781 -0.0934564 -0.170336 0.139094 0.111681 -0.289419 0.0409054 -0.223703 0.444362 -0.0419879 -0.345951 0.0560552 0.0418206 0.348897 -0.0241767 -0.271574 0.0971335 -0.744498 0.233322 0.262179 0.00050935 -0.359747 0.0032353 0.124984 -0.382797 -0.0363905 0.465625 -0.0785259 -0.283736 0.0851607 0.0402109 0.117023 0.0528182 0.0427591 0.130988 0.401484 -0.235498 -0.250698 0.302917 -0.0024941 0.187562 0.0771172 0.212104 -0.69767 0.0391272 0.134594 -0.179041 -0.050422 0.144237 0.0300012 -0.382594 -0.0522387 -0.0037402 -0.0490113 0.298196 -0.199278 -0.284382 -0.137543 -0.431029 0.219058 0.600567 0.200415 -0.13477 -0.28322 -0.467767 -0.138401 -0.290401 -0.32752 -0.172948 0.126679 0.122949 0.534354 0.172021 -0.0298777 0.310306
51 0.0520114 -0.0883601 -0.728869 0.155683 -0.0561087 -0.256583 -0.105472 0.010652 -0.176806 0.386723 0.251055 -0.116689 0.437502 0.102235 -0.0441253 -0.104813 -0.185495 0.220406 0.132001 0.330847 0.0552567 -0.157983 0.0951214 -0.36197 0.126295 0.130355 -0.0134331 0.129275 0.0411926 0.0710096 -0.0545444 0.0114914 0.210055 -0.0296538 -0.0535304 0.580816 0.1232 0.277964 0.0540707 -0.00615302 -0.498708 0.11915 0.189941 0.120917 0.398129 -0.342895 -0.221544 -0.1398 0.264257 -0.131687 -0.243421 0.208043 0.0939626 0.110885 -0.209455 -0.196431 0.14841 0.108037 -0.33844 -0.0509159 0.0229501 0.227753 0.00608048 0.0743924 0.0102949 -0.096933 0.393442 0.0351098 0.0644279 0.426009 -0.944309 0.0288573 0.103431 -0.173063 -0.175279 0.110295 0.0827662 -0.195509 -0.0275601 0.0901757 -0.101422 -0.352076 0.141886 0.163718 0.291863 -0.409639 -0.39421 0.240756 0.268684 -0.184363 -0.00590675 0.55444 0.0729252 0.151325 -0.448337 0.269781 -0.258461 -0.0210778 -0.103126 -0.477577 -0.133932 0.194499 0.150275 0.0983031 0.30695 0.030416 -0.252044 -0.19009 0.176985 0.0768057 0.047741 -0.0272813 -0.239665 0.42068 0.170653 0.20207 -0.240915 -0.418514 -0.152435 -0.258103 -0.332182 0.174253 -0.199438 -0.0264125 0.294243 -0.0484712 -0.156864 0.00323126
53 -0.0127008 -0.104691 -0.550461 0.122714 -0.0445223 -0.274792 -0.0846647 -0.0543037 -0.0886017 0.323108 0.185478 -0.0818875 0.340308 0.0759859 -0.0193666 -0.119476 -0.182468 0.27439 0.218687 0.284366 0.075467 -0.138134 -0.00731362 -0.376539 0.171734 0.0543453 0.0232045 0.122631 -0.0720492 -0.0770761 0.0487213 -0.0450387 0.201053 -0.0401393 -0.00409523 0.384468 0.0467469 0.285451 0.0871522 0.0754018 -0.486623 0.142733 0.101948 0.148484 0.35526 -0.297344 -0.180934 -0.114243 0.206876 -0.131129 -0.298591 0.162182 0.153471 0.0947549 -0.211365 -0.122983 0.133042 0.123578 -0.247206 -0.159683 -0.0489062 0.134542 0.0130255 0.0526707 -0.0706591 -0.150342 0.297754 -0.0146742 0.0834128 0.306353 -0.766754 0.0742796 0.0489046 -0.117246 -0.0961199 0.0539253 0.142751 -0.253512 0.00536417 0.0246784 -0.0840229 -0.307898 0.0689716 0.110194 0.248595 -0.319549 -0.343717 0.184738 0.144162 -0.23726 -0.0259237 0.422458 0.0781792 0.166764 -0.400386 0.30438 -0.149507 -0.0349224 -0.123314 -0.395619 -0.0502944 0.25119 0.0464474 0.0389205 0.273404 0.0178504 -0.21701 -0.0700392 0.133202 0.248345 0.027835 0.0277467 -0.302786 0.355936 0.181183 0.14954 -0.176527 -0.395472 -0.136398 -0.265592 -0.321795 0.13252 -0.153841 -0.0741823 0.257669 -0.0737752 -0.146651 0.0825387
52 0.0529021 -0.0759076 -0.615063 0.121422 -0.0526143 -0.234288 -0.0918419 -0.00293586 -0.14748 0.325555 0.224638 -0.0857177 0.371378 0.10436 -0.0390445 -0.100876 -0.153115 0.217498 0.142999 0.271132 0.0598997 -0.129264 0.0686914 -0.315415 0.132482 0.0991816 -0.00290715 0.110444 0.0227657 0.0416437 -0.0325616 -0.00227925 0.185528 -0.0286505 -0.0337552 0.485821 0.0921005 0.261942 0.0554029 0.0017387 -0.438802 0.131339 0.156831 0.115938 0.330833 -0.294048 -0.180155 -0.117036 0.218772 -0.10988 -0.230231 0.177139 0.0985105 0.11715 -0.190011 -0.15581 0.132287 0.105282 -0.274049 -0.0528089 0.00343001 0.190255 0.0157951 0.0571186 0.00206161 -0.103486 0.325612 0.0222046 0.0542388 0.351008 -0.822102 0.0196374 0.0726081 -0.142311 -0.139899 0.0794939 0.0822807 -0.177351 -0.0018261 0.0717641 -0.0897231 -0.314251 0.0942563 0.131771 0.265905 -0.342473 -0.338211 0.212987 0.207844 -0.170817 -0.0161378 0.453598 0.0577123 0.136328 -0.386974 0.239547 -0.211878 -0.0080238 -0.0934589 -0.419153 -0.0996014 0.198669 0.125042 0.0903838 0.264015 0.0354943 -0.204733 -0.140128 0.147053 0.104743 0.0309828 -0.00227961 -0.228687 0.368691 0.169692 0.170002 -0.20471 -0.380356 -0.135951 -0.223083 -0.292981 0.135429 -0.152511 -0.0408122 0.257617 -0.049146 -0.139155 0.0112872
54 -0.0847755 -0.155859 -0.502154 0.0419971 -0.0315073 -0.338255 -0.0756981 -0.139938 -0.0160531 0.325962 0.227352 -0.0912761 0.259094 0.100898 -0.0332011 -0.21163 -0.245025 0.335023 0.361266 0.253694 0.121687 -0.191555 -0.109047 -0.452868 0.306746 0.0138189 0.0820251 0.151039 -0.166091 -0.197944 0.118215 -0.1386 0.247155 -0.0759126 0.0716256 0.259336 -0.0154093 0.3711 0.11859 0.143953 -0.602388 0.309818 0.0158151 0.249851 0.353162 -0.320787 -0.159742 -0.0613697 0.225968 -0.132196 -0.414026 0.174395 0.209214 0.156695 -0.304813 -0.0925932 0.185753 0.187151 -0.245403 -0.282617 -0.138396 0.0627375 0.0492583 0.0213058 -0.198758 -0.208128 0.244097 -0.0682988 0.105529 0.208836 -0.758654 0.155842 0.0279838 -0.0415378 -0.0402244 -0.0238827 0.207153 -0.406537 0.0406079 -0.0273173 -0.050248 -0.356612 -0.00604602 0.0798143 0.278482 -0.273021 -0.350411 0.156863 0.118931 -0.421779 -0.103201 0.38033 0.0658981 0.240159 -0.444842 0.381172 -0.138414 -0.0432315 -0.1143 -0.457041 -0.0302009 0.364272 -0.0373034 0.00412592 0.271913 -0.0254423 -0.280948 0.0623572 0.103753 0.470217 -0.000850766 0.0299527 -0.352213 0.334156 0.216947 0.100661 -0.227588 -0.508315 -0.127161 -0.309574 -0.377944 0.0922356 -0.0870745 -0.101062 0.279285 -0.0747206 -0.185727 0.201661
56 -0.122238 -0.158116 -0.469323 -0.0356866 -0.0246641 -0.356822 -0.0502062 -0.183843 0.0503084 0.30082 0.261363 -0.097142 0.178905 0.124119 -0.0366094 -0.272593 -0.269807 0.35653 0.472607 0.218876 0.160072 -0.189331 -0.193655 -0.481912 0.400868 -0.00588713 0.140853 0.163769 -0.172863 -0.274454 0.174897 -0.207253 0.264551 -0.103367 0.119379 0.145522 -0.0721906 0.42225 0.144404 0.176054 -0.650429 0.429101 -0.0800435 0.273842 0.342049 -0.324973 -0.105278 0.00119681 0.222737 -0.112943 -0.43824 0.153395 0.25081 0.220275 -0.345592 -0.0819166 0.217355 0.247911 -0.235405 -0.389964 -0.215357 -0.00216351 0.0919246 -0.00859045 -0.293187 -0.260473 0.170453 -0.108648 0.107365 0.111524 -0.753596 0.215535 0.0180108 0.0669869 -0.0166684 -0.0906008 0.238087 -0.4875 0.100649 -0.0632417 0.00469261 -0.387183 -0.0890781 0.0288838 0.302953 -0.23992 -0.383479 0.152311 0.0828548 -0.557777 -0.180104 0.292185 0.0312369 0.259005 -0.446951 0.435608 -0.10438 -0.0280533 -0.114178 -0.492112 -0.00649468 0.434709 -0.0673344 -0.0163566 0.259095 0.00472123 -0.23051 0.199175 0.064103 0.599418 0.013336 0.0279736 -0.37465 0.3282 0.226458 0.0685524 -0.245101 -0.535976 -0.16783 -0.318553 -0.369486 0.0667855 -0.0338826 -0.147978 0.270141 -0.0620926 -0.185646 0.291289
55 -0.111834 -0.151777 -0.400306 0.000467419 -0.0301423 -0.285151 -0.0648366 -0.143227 0.0334305 0.260979 0.195169 -0.0845652 0.19508 0.0935669 -0.0404484 -0.215255 -0.209969 0.302345 0.368312 0.205871 0.135791 -0.154455 -0.151641 -0.413897 0.322678 -0.0094018 0.0940884 0.147104 -0.12715 -0.209947 0.12598 -0.1719 0.222717 -0.0814813 0.0966768 0.145537 -0.0457463 0.348038 0.104158 0.132906 -0.544609 0.337573 -0.0333996 0.238981 0.29245 -0.273111 -0.0914245 -0.0158019 0.197205 -0.0958515 -0.380296 0.136372 0.216129 0.170664 -0.280457 -0.0791178 0.176082 0.180175 -0.204159 -0.289816 -0.170972 0.0249988 0.0432898 -0.000781214 -0.202157 -0.192649 0.183532 -0.0864793 0.0955187 0.128895 -0.664537 0.175658 0.0155217 0.0197328 -0.0250815 -0.0501762 0.194808 -0.390647 0.0554744 -0.0291376 -0.0123365 -0.325503 -0.0542165 0.0426373 0.245474 -0.206832 -0.302282 0.128257 0.0972127 -0.447315 -0.136623 0.291362 0.0379953 0.224621 -0.386532 0.363032 -0.120738 -0.0191434 -0.108935 -0.39189 0.00243191 0.367447 -0.0491906 0.000120077 0.222108 -0.00854923 -0.209342 0.136095 0.0694542 0.47805 0.00540933 0.0235928 -0.314767 0.303292 0.180563 0.0663558 -0.190332 -0.459808 -0.128693 -0.296253 -0.323781 0.0743524 -0.0317781 -0.122131 0.240666 -0.067697 -0.145458 0.246773
290 0.28086 -0.0797272 -0.0165735 -0.330731 -0.0125558 -0.0838946 0.00283892 0.0717067 -0.0619821 0.143864 0.1714 0.013629 -0.0265528 0.325245 -0.323847 -0.0411415 -0.0839332 0.29727 0.105746 -0.067571 -0.100439 -0.201197 -0.0758697 -0.120697 0.216528 0.217149 0.00328312 0.0209659 0.124325 0.203768 -0.0575428 0.0308762 0.299438 -0.0520545 -0.0911756 -0.00859166 0.0120107 0.180053 0.181199 -0.542317 -0.150092 0.640885 0.0694772 0.168453 -0.0123044 0.0783923 0.0889708 0.369162 0.151477 -0.191454 -0.277075 0.156479 0.167623 0.240524 -0.340322 -0.145823 0.373958 0.0777842 -0.368037 -0.158444 -0.115643 0.255092 0.0659844 0.128751 -0.0948342 0.136972 0.0350965 0.0627933 0.0438803 0.175166 -0.416424 0.0892781 0.213773 0.264174 -0.222909 -0.00491513 -0.130076 -0.164743 0.112949 0.0317552 0.0100705 -0.374229 0.189802 0.257269 0.380208 -0.0650382 -0.20734 0.0217558 0.121419 -0.35058 -0.422885 0.342381 -0.119736 0.452936 0.108579 0.137392 -0.346537 0.290623 0.10255 -0.393699 -0.415702 0.33128 0.161269 0.268123 -0.163392 -0.0385648 -0.370807 -0.0683454 0.0988851 0.00728819 -0.0282915 -0.330031 0.454607 0.0601353 -0.0860741 0.116756 -0.609522 -0.451208 -0.280621 -0.29744 0.0944312 0.0696637 0.00568107 0.168911 0.208993 -0.00654849 -0.0201103 -0.0158945
291 0.398009 -0.0563243 -0.00939306 -0.309437 0.0177313 -0.0388079 0.00518945 0.0568218 -0.136265 0.188337 0.178792 0.0301057 -0.119195 0.319635 -0.339073 -0.0399402 -0.150969 0.309977 0.0589709 -0.0218416 -0.149922 -0.269571 -0.108929 -0.119754 0.183154 0.267048 -0.0492924 0.0524631 0.0534535 0.0990853 -0.0307235 0.0292621 0.297745 -0.0501842 -0.137587 -0.104126 -0.0688626 0.102277 0.192637 -0.627135 -0.117009 0.674129 0.0369146 0.148498 0.0672357 0.109094 0.0301777 0.401688 0.205566 -0.214552 -0.303207 0.227919 0.183292 0.268937 -0.454495 -0.133373 0.407665 0.104106 -0.408088 -0.238375 -0.187064 0.272894 0.0132945 0.103398 -0.171467 0.0994154 0.0475433 0.103495 0.0256923 0.229077 -0.462401 0.174552 0.287423 0.214643 -0.258577 -0.0386199 -0.175084 -0.122571 0.201718 -0.0960854 0.0388135 -0.415766 0.258143 0.296386 0.351798 -0.0815069 -0.191464 0.0426946 0.0861924 -0.342284 -0.426442 0.278101 -0.0900247 0.525237 0.158552 0.203135 -0.307613 0.461968 0.109435 -0.534914 -0.39098 0.376408 0.124034 0.277674 -0.216593 -0.111449 -0.493337 -0.0554264 0.155184 -0.0431422 -0.0668839 -0.433257 0.568775 -0.0253792 -0.0933769 0.161511 -0.609782 -0.398978 -0.26954 -0.350875 0.016816 0.0650022 -0.02364 0.174325 0.180173 0.0274751 -0.0362593 -0.0926045
288 0.15089 -0.10429 0.018976 -0.380799 -0.0555575 -0.164712 0.0136198 0.0771915 0.0476874 0.0747463 0.143073 0.0106756 0.0895831 0.338269 -0.302743 -0.0288556 0.00535489 0.31809 0.169556 -0.147764 -0.0407342 -0.128539 -0.0591519 -0.130995 0.255515 0.14657 0.0609119 -0.0162187 0.209552 0.338313 -0.0964352 0.0597863 0.316476 -0.0450201 -0.00960795 0.108233 0.119923 0.284201 0.213934 -0.504412 -0.171465 0.638708 0.0964959 0.191013 -0.0913993 0.0788862 0.186366 0.367538 0.081966 -0.213474 -0.258596 0.0857114 0.174128 0.190089 -0.242884 -0.146527 0.348676 0.0408662 -0.312039 -0.0774277 -0.0211084 0.27232 0.165976 0.198216 -0.00744852 0.178869 0.0184678 -0.00996217 0.0659857 0.126583 -0.347671 -0.0466932 0.165826 0.349986 -0.193031 0.0408894 -0.0968598 -0.205215 -0.00135162 0.202948 -0.018497 -0.32717 0.138945 0.219613 0.419268 -0.00362584 -0.218315 -0.0553057 0.157685 -0.379981 -0.462718 0.492716 -0.165924 0.404878 0.0850151 0.0541563 -0.387781 0.079689 0.114315 -0.226627 -0.467292 0.317667 0.238997 0.290721 -0.136588 0.0657704 -0.248625 -0.0937438 0.0436878 0.0648769 0.032028 -0.194983 0.342068 0.146996 -0.109854 0.0925968 -0.66511 -0.54865 -0.343537 -0.274695 0.244332 0.0718889 -0.00283881 0.182851 0.246478 -0.0740995 -0.00569285 0.0677323
289 0.199793 -0.0742445 -0.0596246 -0.30173 -0.0313515 -0.092108 -0.0181155 0.0675589 -0.0266749 0.101221 0.181649 -0.00851213 0.0248003 0.313492 -0.280944 -0.0589712 -0.0448258 0.246006 0.14571 -0.0844707 -0.0290836 -0.165359 -0.0351481 -0.122473 0.21792 0.176754 0.0401086 0.00278102 0.168475 0.232808 -0.0821899 0.0274412 0.268514 -0.0536228 -0.0601458 0.0774099 0.0301584 0.220206 0.153332 -0.433612 -0.166243 0.585885 0.0664859 0.152456 -0.0394824 0.0272907 0.109186 0.307581 0.144366 -0.134523 -0.207995 0.134203 0.135264 0.232344 -0.255816 -0.160688 0.330762 0.0851044 -0.314542 -0.0879849 -0.0586406 0.224426 0.113835 0.13294 -0.0406473 0.120209 0.051229 0.0345888 0.0394658 0.13961 -0.411734 0.041177 0.173074 0.254308 -0.188932 0.0110869 -0.0910382 -0.171626 0.0655938 0.116966 0.00617839 -0.32509 0.127466 0.19742 0.353439 -0.0576406 -0.200481 0.0122646 0.144571 -0.330432 -0.37517 0.361586 -0.122094 0.351817 0.0481319 0.0959314 -0.34635 0.177004 0.106125 -0.297218 -0.372041 0.276198 0.199653 0.25378 -0.10385 0.015331 -0.264846 -0.056206 0.0823813 0.0386036 0.00891786 -0.22979 0.330618 0.114067 -0.0469529 0.0774188 -0.550703 -0.446839 -0.247372 -0.237965 0.120555 0.0536598 0.0196954 0.133268 0.202757 0.000898064 -0.0170667 0.0253373
264 0.341317 -0.19459 -0.434054 -0.25667 -0.168978 -0.15591 -0.336686 0.238018 -0.0618952 0.106451 0.660709 -0.244521 0.133879 0.31797 -0.291249 0.104359 -0.0443731 0.126294 0.22056 -0.211368 0.206714 -0.322026 0.205204 -0.499031 0.277548 0.404569 0.0350301 -0.0699391 0.541329 0.368379 -0.00995849 0.0850152 0.140638 -0.205106 -0.00880439 0.327563 -0.153955 0.0340201 -0.144458 0.167088 -0.44718 0.203832 0.0598592 0.157706 -0.166871 -0.402421 -0.242645 0.295064 0.355738 0.0503694 0.0170024 0.394798 -0.102046 0.37785 -0.296911 -0.0598574 -0.0361334 0.394598 -0.192076 -0.153942 0.123294 0.0238166 0.132305 0.0166947 -0.0347591 0.171393 0.0152276 0.22175 -0.105984 0.122539 -0.472357 0.327622 -0.110105 0.0556533 -0.212261 -0.0849403 0.0114424 -0.308679 -0.00239123 0.225897 -0.150047 0.0639184 0.0546755 -0.0781123 0.289291 -0.263218 -0.362641 0.146784 0.233636 -0.275848 -0.164801 -0.131477 0.0720059 0.109098 -0.135876 -0.137369 -0.323279 -0.048318 0.0524761 -0.354903 0.0109591 -0.17196 0.0290121 0.159876 -0.0300872 -0.112163 -0.249575 0.181338 -0.0282805 0.320116 -0.1789 -0.0323696 0.242122 -0.00778509 0.406281 -0.191872 -0.433719 -0.324694 0.159914 0.106407 0.0693898 0.152556 0.0305649 0.055931 0.089895 0.188427 -0.07806 -0.050364
265 0.332585 -0.146151 -0.422288 -0.202252 -0.212009 -0.0872754 -0.333204 0.15204 0.01641 0.020427 0.652109 -0.18276 0.178937 0.351014 -0.309429 0.0180385 0.0241405 0.137746 0.263039 -0.207368 0.176552 -0.260669 0.135354 -0.394322 0.216253 0.386892 -0.0324274 -0.0306991 0.515052 0.26929 -0.0208078 0.080227 0.158784 -0.178339 0.000137241 0.351546 -0.175437 0.037748 -0.170165 0.110287 -0.331583 0.23362 -0.0381676 0.155118 -0.118375 -0.299022 -0.237366 0.277057 0.340129 0.0928903 0.0575006 0.347749 -0.0663364 0.358428 -0.300129 -0.100274 -4.28623e-05 0.392179 -0.199254 -0.0799115 0.140014 0.0768196 0.130442 -0.0235028 -0.0124187 0.107843 0.0592548 0.107544 -0.0948481 0.161194 -0.511955 0.182873 -0.0790579 0.0348909 -0.216701 -0.0816379 -0.0120193 -0.203684 0.0479694 0.229633 -0.136189 0.0333041 0.0380987 -0.0505267 0.269103 -0.120956 -0.256354 0.153627 0.205655 -0.287929 -0.117858 -0.0346864 0.0392528 0.0854375 -0.120021 -0.0819532 -0.346461 0.00567481 0.0438162 -0.36881 -0.0574135 -0.0854967 0.0417251 0.186003 -0.0483286 -0.0673598 -0.241393 0.165557 -0.0293654 0.264713 -0.174533 0.0641513 0.252524 -0.00545922 0.397758 -0.165176 -0.400166 -0.3008 -0.000874175 0.0611027 0.106971 0.130857 -0.049406 -0.0200262 0.168707 0.201352 -0.0184308 -0.043177
266 0.411239 -0.190352 -0.503611 -0.24176 -0.264188 -0.115071 -0.400165 0.178114 0.0263434 0.0309067 0.789862 -0.237116 0.239881 0.393468 -0.366711 0.0392675 0.0396209 0.17261 0.301329 -0.259158 0.20807 -0.319097 0.177425 -0.498555 0.259199 0.459686 -0.0452969 -0.0341179 0.628173 0.335376 -0.00931235 0.108641 0.187599 -0.221755 -0.00544726 0.434505 -0.209184 0.0242348 -0.215141 0.168091 -0.406282 0.235679 -0.0385495 0.197452 -0.152494 -0.380663 -0.312656 0.326491 0.407746 0.114057 0.0684484 0.409892 -0.0884063 0.432788 -0.364112 -0.110235 -0.0422583 0.468264 -0.207873 -0.0995553 0.178929 0.0706724 0.130941 -0.0235123 0.00076666 0.140144 0.0519398 0.143531 -0.116372 0.174966 -0.569795 0.224554 -0.132561 0.0232116 -0.238568 -0.0944697 -0.00480181 -0.244534 0.0407651 0.266283 -0.180496 0.0622077 0.0452793 -0.0799933 0.32214 -0.156589 -0.318795 0.187868 0.233298 -0.330387 -0.118274 -0.0949716 0.062878 0.0956766 -0.152779 -0.119288 -0.405301 -0.0105098 0.0423456 -0.42484 -0.0402987 -0.126525 0.0255595 0.214951 -0.0601156 -0.101516 -0.299176 0.192344 -0.055195 0.328589 -0.23677 0.096425 0.295588 -0.0261738 0.476747 -0.217293 -0.471957 -0.339111 0.0419282 0.11375 0.125327 0.166652 -0.0612402 -0.0180641 0.178326 0.231716 -0.0306943 -0.0624213
267 0.412867 -0.179286 -0.508842 -0.217204 -0.308824 -0.0678523 -0.414594 0.152991 0.082241 -0.0105648 0.818685 -0.186612 0.272363 0.441494 -0.392892 -0.0195798 0.0781365 0.174431 0.335328 -0.26219 0.188678 -0.284093 0.123666 -0.455787 0.231199 0.467155 -0.0988246 -0.0199382 0.649107 0.274331 -0.0286724 0.116424 0.198225 -0.229477 0.0283787 0.448455 -0.242595 0.0185912 -0.2454 0.146643 -0.319454 0.238154 -0.0971437 0.196285 -0.141692 -0.319911 -0.305222 0.306481 0.386778 0.137646 0.118434 0.419407 -0.049465 0.414501 -0.365763 -0.133377 -0.0339335 0.481148 -0.223295 -0.0584996 0.184052 0.103172 0.124201 -0.0412575 -0.0169972 0.113482 0.0886589 0.0787456 -0.126691 0.19922 -0.59007 0.144432 -0.127451 -0.0160744 -0.249648 -0.082147 0.0191846 -0.17888 0.0486874 0.275617 -0.170922 0.0477536 0.0427932 -0.0509958 0.297367 -0.0262079 -0.254126 0.219662 0.233219 -0.326882 -0.098847 -0.0323868 0.0505949 0.0954628 -0.134863 -0.0563004 -0.43227 0.0241892 0.0509355 -0.432305 -0.0778667 -0.0653096 0.0218339 0.245597 -0.0950093 -0.0829444 -0.30275 0.187846 -0.0557979 0.328352 -0.238374 0.145023 0.313575 -0.0218448 0.506188 -0.213968 -0.46231 -0.354917 -0.0616676 0.087359 0.137386 0.157783 -0.115031 -0.0581111 0.243548 0.246891 0.0304027 -0.0548577
268 0.388786 -0.157715 -0.465671 -0.188716 -0.289345 -0.0408149 -0.374599 0.134887 0.0859592 -0.0301476 0.742774 -0.166528 0.24904 0.418878 -0.35565 -0.041324 0.0816576 0.15863 0.316813 -0.239575 0.154391 -0.24825 0.105447 -0.393392 0.203921 0.42025 -0.0884646 -0.0139039 0.581806 0.226559 -0.0283931 0.104594 0.180882 -0.212349 0.0194394 0.417392 -0.210001 0.0211241 -0.2318 0.118277 -0.247196 0.222345 -0.0998337 0.186535 -0.126065 -0.2724 -0.270644 0.266472 0.348225 0.136792 0.111762 0.370492 -0.0312931 0.366397 -0.317602 -0.124891 -0.0236434 0.434601 -0.203394 -0.0440232 0.177964 0.0888139 0.111582 -0.0369449 -0.00483652 0.0809483 0.0865141 0.0412618 -0.110819 0.193849 -0.520741 0.09847 -0.125682 -0.0343674 -0.223235 -0.0765827 0.0235243 -0.132771 0.0612139 0.25102 -0.165891 0.0373815 0.0431298 -0.0361119 0.279916 0.00307213 -0.206272 0.201217 0.199577 -0.278986 -0.0637705 -0.0257013 0.0389624 0.0850558 -0.116845 -0.0394855 -0.39455 0.0432157 0.0544938 -0.387845 -0.0805538 -0.0378573 0.0260552 0.234515 -0.0913168 -0.0680419 -0.269309 0.157131 -0.0558193 0.275036 -0.214633 0.156515 0.285481 -0.0278474 0.467685 -0.193413 -0.418483 -0.315655 -0.0830009 0.0864813 0.113904 0.129675 -0.112822 -0.0722003 0.232465 0.220301 0.0398855 -0.0475069
269 0.462388 -0.176024 -0.537351 -0.219565 -0.327599 -0.0133485 -0.415801 0.155127 0.0879368 -0.0155666 0.832324 -0.14996 0.273063 0.477193 -0.39585 -0.0715613 0.100936 0.16587 0.349194 -0.261945 0.161287 -0.251271 0.0965163 -0.418434 0.203592 0.463083 -0.112218 0.00154591 0.633437 0.220729 -0.0586807 0.136075 0.181628 -0.23711 0.0580273 0.455076 -0.241468 0.0298638 -0.248029 0.0827844 -0.223913 0.248483 -0.113306 0.208226 -0.138451 -0.268017 -0.247814 0.254141 0.328556 0.166914 0.140013 0.394809 -0.021181 0.397422 -0.333876 -0.157209 -0.0146346 0.469121 -0.249487 -0.0316902 0.178492 0.113201 0.0968279 -0.0347252 -0.0364144 0.0877988 0.120461 0.0168945 -0.138126 0.235186 -0.612997 0.0769048 -0.132975 -0.0675175 -0.228826 -0.0682898 0.0570974 -0.119168 0.0538511 0.283312 -0.175586 0.00767903 0.0571028 0.00941758 0.28832 0.0999122 -0.210445 0.251292 0.216803 -0.275517 -0.0690922 0.035837 0.0156097 0.130465 -0.0940779 0.027175 -0.468128 0.0762861 0.0658239 -0.417016 -0.112064 0.0181159 0.0381683 0.287243 -0.135129 -0.0669165 -0.276192 0.143798 -0.0734915 0.300529 -0.210483 0.183246 0.328362 -0.0146489 0.522672 -0.203771 -0.430125 -0.361164 -0.138778 0.0711979 0.106384 0.141726 -0.122441 -0.0906216 0.27172 0.251165 0.0659588 -0.0210782
281 0.192855 -0.114173 0.0519659 -0.179613 -0.116473 -0.0821273 -0.0557445 0.196393 0.0477732 -0.0635829 0.246857 0.0748584 0.152095 0.44546 -0.194588 -0.113124 0.089186 0.460041 0.255361 -0.289735 0.0096007 -0.15847 0.0612399 -0.195769 0.363749 0.256918 0.0350497 -0.0947962 0.430302 0.266468 -0.18369 0.166856 0.205386 -0.172638 0.230752 0.237556 0.198513 0.382436 0.179893 -0.450225 0.0671654 0.468659 0.157231 0.171684 -0.129033 0.200452 0.312131 0.383233 0.0206578 -0.100977 -0.181915 0.199003 -0.000941581 0.143004 -0.0627714 -0.136497 0.332915 0.0476666 -0.295073 -0.00548114 0.0883257 0.234654 0.328635 0.308116 -0.0638196 0.140803 0.0780627 -0.132964 0.0239902 0.122573 -0.460658 -0.263608 0.125851 0.209969 -0.13151 0.165454 0.0572104 -0.0722991 -0.121224 0.331253 -0.0574565 -0.330574 0.15391 0.325923 0.384178 0.251011 -0.298197 0.0589131 0.21364 -0.254023 -0.407785 0.710971 -0.126859 0.379455 0.202915 0.109871 -0.473589 -0.0364241 0.0827866 -0.117838 -0.511739 0.464556 0.238493 0.360603 -0.236998 0.0746394 -0.107361 -0.192842 0.0803992 0.254708 0.0179093 -0.0631432 0.279238 0.149239 0.118026 0.062356 -0.480951 -0.686481 -0.343971 -0.18731 0.344811 -0.0139012 0.050483 0.153131 0.245467 0.0775566 0.0129315 0.213067
282 0.114361 -0.125116 0.129265 -0.270875 -0.107933 -0.142645 0.00840072 0.131765 0.117197 -0.0421128 0.1361 0.0628343 0.182784 0.429808 -0.2687 -0.0684941 0.105043 0.474122 0.265321 -0.278644 -0.016859 -0.143947 0.0150434 -0.171347 0.361782 0.203278 0.0710621 -0.0747676 0.37797 0.349385 -0.16178 0.160376 0.308313 -0.110646 0.186221 0.224966 0.253881 0.427529 0.228912 -0.524251 -0.0214494 0.579913 0.15757 0.179542 -0.143264 0.193009 0.307859 0.445461 0.0160863 -0.186021 -0.246524 0.142755 0.0635791 0.16154 -0.130229 -0.167327 0.397922 0.0326652 -0.298 -0.000864937 0.0771756 0.309344 0.30431 0.34927 0.00194164 0.20226 0.048696 -0.121455 0.0899464 0.0863655 -0.421037 -0.258232 0.151461 0.324489 -0.170736 0.14987 0.0051254 -0.171679 -0.115801 0.385344 -0.0470709 -0.370494 0.143864 0.300063 0.467595 0.174542 -0.293298 -0.0269432 0.211007 -0.376496 -0.50373 0.765312 -0.171193 0.431106 0.200319 0.0524888 -0.513 -0.0514245 0.0954092 -0.104493 -0.608634 0.446597 0.300263 0.390049 -0.238636 0.133076 -0.173113 -0.167301 0.0745998 0.203767 0.0306977 -0.102724 0.320263 0.207763 -0.0322917 0.0940664 -0.654226 -0.750621 -0.430728 -0.248613 0.403533 0.0179569 0.0354753 0.230405 0.283321 -0.0209331 0.00502447 0.197289
283 0.0535283 -0.123398 0.129603 -0.262606 -0.0872971 -0.162202 0.0190496 0.0983169 0.123854 -0.047438 0.0953129 0.0432914 0.17433 0.373192 -0.256918 -0.041073 0.0889903 0.407317 0.225415 -0.251033 -0.0255302 -0.12324 2.84643e-05 -0.148066 0.316802 0.154689 0.0825973 -0.0672206 0.322021 0.344293 -0.146512 0.138392 0.304095 -0.0788565 0.16707 0.187811 0.247958 0.389347 0.220791 -0.487761 -0.0435418 0.53476 0.127621 0.168344 -0.132673 0.154732 0.274916 0.416025 0.0185659 -0.188981 -0.241527 0.101433 0.0967035 0.15597 -0.133111 -0.162924 0.373262 0.0302156 -0.265062 0.0137194 0.0580705 0.299521 0.275953 0.320098 0.0272359 0.197406 0.0319704 -0.108324 0.0928008 0.0626513 -0.355646 -0.223181 0.150127 0.322375 -0.165375 0.10764 -0.0119221 -0.178973 -0.104847 0.37498 -0.0331294 -0.345462 0.129425 0.243404 0.430659 0.128925 -0.250912 -0.0573824 0.203103 -0.372286 -0.484294 0.682202 -0.161901 0.391487 0.17195 0.0219043 -0.469792 -0.056328 0.0952327 -0.0926392 -0.577557 0.394776 0.294406 0.34902 -0.207161 0.141179 -0.167553 -0.137103 0.069172 0.172596 0.0279638 -0.102882 0.287635 0.203239 -0.0744989 0.0917389 -0.635703 -0.693634 -0.414802 -0.243858 0.381541 0.0204963 0.0222172 0.225033 0.282107 -0.0531879 -0.00757636 0.169767
284 0.0749462 -0.130045 0.138738 -0.339902 -0.103339 -0.197967 0.0185542 0.110317 0.151911 -0.0263683 0.115188 0.0551254 0.190236 0.414467 -0.306759 -0.0385273 0.0942187 0.453958 0.243288 -0.26539 -0.0197496 -0.118483 -0.017885 -0.156986 0.352677 0.154856 0.0941892 -0.0567394 0.348263 0.422445 -0.147648 0.134732 0.354464 -0.0799308 0.134077 0.20823 0.257562 0.425125 0.265581 -0.563976 -0.10334 0.644291 0.137891 0.218701 -0.155383 0.178092 0.322677 0.472062 0.0233985 -0.245475 -0.294348 0.0904632 0.142264 0.16576 -0.177045 -0.169443 0.411833 0.0194677 -0.317904 -0.017277 0.0454273 0.327205 0.28755 0.330675 0.0402529 0.239432 0.0255514 -0.10386 0.113404 0.0814421 -0.382103 -0.216562 0.161568 0.406574 -0.178701 0.125214 -0.0474591 -0.213857 -0.110959 0.391073 -0.038106 -0.36634 0.133758 0.270263 0.487525 0.121736 -0.285619 -0.0886068 0.219372 -0.42479 -0.549541 0.738642 -0.202945 0.446995 0.170852 0.023107 -0.506647 -0.0565198 0.105647 -0.112483 -0.632912 0.429339 0.328595 0.38446 -0.209888 0.152833 -0.17929 -0.150701 0.0508471 0.177723 0.0518563 -0.108096 0.331494 0.233923 -0.119157 0.108324 -0.733676 -0.74939 -0.46995 -0.28253 0.424193 0.0549862 0.00828101 0.249761 0.300712 -0.102062 0.00634186 0.176894
285 0.0809 -0.142973 0.109558 -0.469237 -0.0952606 -0.239367 0.0421962 0.091773 0.145972 0.0392696 0.11483 0.0440073 0.184309 0.41327 -0.351923 -0.00872395 0.0601833 0.431589 0.237658 -0.245562 -0.0600649 -0.104569 -0.0699046 -0.161928 0.326954 0.126885 0.106724 -0.0381417 0.294492 0.482219 -0.134136 0.113408 0.399479 -0.0533287 0.0536588 0.183532 0.246371 0.417215 0.288785 -0.608314 -0.20454 0.75945 0.136765 0.264451 -0.166459 0.136863 0.291212 0.482814 0.0425767 -0.299198 -0.328215 0.0511295 0.212037 0.18194 -0.239533 -0.161531 0.413826 0.0153615 -0.352578 -0.0506184 0.0355659 0.341755 0.25219 0.312464 0.0479895 0.2673 0.00414789 -0.0499907 0.111594 0.101083 -0.357091 -0.138997 0.171309 0.479422 -0.210565 0.0823149 -0.0945932 -0.276817 -0.0836948 0.343516 -0.0399865 -0.375011 0.142732 0.263503 0.534814 0.056815 -0.25526 -0.123689 0.21154 -0.478899 -0.616766 0.703583 -0.221429 0.493438 0.118702 0.0162532 -0.508018 -0.0151435 0.140386 -0.165258 -0.640412 0.40719 0.340818 0.37492 -0.193296 0.15092 -0.246642 -0.140987 0.0265983 0.117757 0.0631858 -0.160395 0.377347 0.23373 -0.195128 0.111461 -0.849527 -0.731467 -0.46898 -0.316283 0.407424 0.0859563 0.000942135 0.265658 0.319564 -0.140123 -0.0137451 0.126724
287 0.103121 -0.133721 0.0841704 -0.438649 -0.095325 -0.221337 0.0306274 0.101389 0.133234 0.0532865 0.13886 0.0241044 0.167199 0.399023 -0.330929 -0.00886909 0.0558953 0.408539 0.210736 -0.220058 -0.0492545 -0.101525 -0.0702869 -0.149783 0.304894 0.142026 0.0884418 -0.0447467 0.285126 0.443366 -0.114369 0.095912 0.369722 -0.0572933 0.0442908 0.160749 0.204955 0.376786 0.267169 -0.564063 -0.204604 0.706605 0.113739 0.24606 -0.150426 0.125091 0.271922 0.445456 0.0516131 -0.27996 -0.306769 0.0650776 0.199904 0.170636 -0.234275 -0.172697 0.394892 0.0333201 -0.346682 -0.0543661 0.0164063 0.319678 0.233489 0.275339 0.0241831 0.240248 0.0188671 -0.0474956 0.0941561 0.107056 -0.364031 -0.120631 0.160291 0.454422 -0.194216 0.0799781 -0.0916714 -0.257901 -0.0617992 0.320019 -0.0312496 -0.36151 0.144088 0.259613 0.498711 0.0463415 -0.248517 -0.0956021 0.199447 -0.450076 -0.568102 0.646746 -0.204873 0.457856 0.126214 0.0348025 -0.482845 0.00721365 0.13076 -0.164681 -0.599436 0.370515 0.30608 0.355872 -0.165397 0.142965 -0.229514 -0.115867 0.0315285 0.116496 0.0578677 -0.158798 0.370874 0.231991 -0.161764 0.103144 -0.791676 -0.683169 -0.457764 -0.298948 0.363974 0.0957144 0.00503065 0.238816 0.307436 -0.135197 0.00585958 0.124439
286 0.0771392 -0.125986 0.0825592 -0.418359 -0.0901443 -0.211048 0.0298845 0.0927963 0.127642 0.0438772 0.11831 0.020247 0.168976 0.368278 -0.311903 -0.0130254 0.0556729 0.376525 0.202056 -0.204371 -0.037368 -0.0951917 -0.0607467 -0.142707 0.28532 0.117358 0.0808553 -0.0402123 0.254235 0.430347 -0.114929 0.0865017 0.353354 -0.0367414 0.0394316 0.162974 0.200349 0.358232 0.247471 -0.528072 -0.197241 0.672798 0.109147 0.229025 -0.147943 0.118442 0.261933 0.413144 0.0337146 -0.26123 -0.288198 0.0489245 0.188007 0.162916 -0.217018 -0.150624 0.369012 0.0254921 -0.307878 -0.0432849 0.0270228 0.299796 0.21862 0.255049 0.0383207 0.236921 0.000560695 -0.0473672 0.0977946 0.0996892 -0.323224 -0.112677 0.151716 0.431699 -0.183378 0.0665177 -0.087019 -0.245356 -0.0564546 0.299703 -0.0336159 -0.32931 0.118262 0.230466 0.471409 0.0435675 -0.212552 -0.106437 0.185408 -0.413952 -0.53104 0.602931 -0.197865 0.428288 0.103596 0.0195621 -0.444397 -0.00422986 0.116005 -0.140442 -0.55238 0.342593 0.298615 0.327992 -0.155628 0.135994 -0.209741 -0.115292 0.0213612 0.104833 0.0516394 -0.138276 0.338166 0.208521 -0.161404 0.0956992 -0.75402 -0.646793 -0.429129 -0.276433 0.353393 0.0839863 0.00503975 0.217191 0.280742 -0.133231 -0.00142439 0.115652
28 0.354685 -0.0102439 -0.241981 -0.244796 0.00770831 -0.0339228 -0.0147075 -0.0452428 -0.243291 0.128166 0.356219 -0.0836556 0.189955 0.260944 -0.18554 -0.0753483 -0.0335483 0.107718 0.136905 -0.102822 -0.0206115 -0.17127 0.0785259 -0.0988077 0.464444 0.229966 0.163281 0.141153 0.0967052 0.0473453 0.241699 -0.125572 0.00570872 -0.0681755 -0.216586 0.430952 -0.0345905 0.347553 0.108697 -0.217497 -0.247601 0.462189 0.262087 0.199881 -0.313704 -0.312222 0.244729 -0.0813885 0.426173 0.276085 -0.228514 0.18281 -0.0639557 0.156464 0.0198929 0.0911776 0.303268 0.246078 -0.153141 -0.0849672 -0.222452 0.23529 -0.00663887 -0.118007 0.145397 0.0238602 0.185662 0.0513694 0.0528784 -0.047056 -0.549683 0.0152695 0.00900154 0.100118 -0.277578 0.103353 -0.104082 -0.168971 0.256913 0.285261 0.165211 -0.235695 0.0780267 -0.0666815 0.266685 -0.234689 -0.216254 0.20208 -0.0622939 0.0138987 0.0635835 0.117325 -0.212332 0.320374 -0.124873 0.141426 -0.331975 0.253114 -0.0404161 -0.119563 -0.244272 0.150443 0.130385 0.146445 0.296569 0.113013 -0.163495 -0.0766806 -0.206569 0.0827366 0.0556103 -0.0409021 0.112293 0.208145 0.0706411 -0.00181156 -0.351852 -0.332147 0.102734 -0.101489 -0.102778 0.212573 0.0956521 -0.0163371 0.103311 -0.0382508 0.111836 0.112569
29 0.387978 -0.0277989 -0.202272 -0.266852 -0.00260412 -0.0341611 -0.0800458 -0.0334612 -0.288931 0.17417 0.345808 -0.12682 0.259476 0.21048 -0.189011 -0.0637818 -0.0832132 0.0702132 0.134372 -0.158768 -0.0273884 -0.229975 0.126186 -0.161346 0.546518 0.263869 0.205096 0.191094 0.11007 0.0662492 0.303801 -0.136881 -0.00519592 -0.0540944 -0.22316 0.557799 0.014805 0.378971 0.132811 -0.246257 -0.263433 0.537765 0.29165 0.221841 -0.34959 -0.449177 0.315899 -0.0940834 0.520807 0.382602 -0.299373 0.216409 -0.167328 0.0697902 0.0476334 0.19846 0.338503 0.238697 -0.0685599 -0.0663272 -0.164974 0.265168 0.0431938 -0.141352 0.168156 0.0233736 0.254789 0.0651057 0.0754045 -0.0549036 -0.542816 0.0119921 -0.0301558 0.115531 -0.404693 0.144229 -0.157195 -0.200362 0.270859 0.334579 0.205515 -0.273039 0.149788 -0.144898 0.344865 -0.341249 -0.170159 0.2144 -0.0354526 0.0358037 0.0934028 0.11726 -0.251914 0.350907 -0.205414 0.0947702 -0.379255 0.335066 -0.0266762 -0.129776 -0.243272 0.126448 0.17273 0.156806 0.326004 0.0939941 -0.303047 -0.119981 -0.261527 0.0695043 0.0337496 -0.0149798 0.107517 0.158581 0.0824189 -0.0162642 -0.492277 -0.490948 0.201454 -0.119335 -0.0909614 0.235428 0.0916372 -0.0376465 0.131508 -0.0427853 0.0676816 0.149232
27 0.415362 0.00488556 -0.278979 -0.276795 0.0238549 -0.0549408 0.0631736 -0.091331 -0.276328 0.120029 0.422325 -0.0497239 0.209514 0.322036 -0.18389 -0.0738785 0.00516261 0.168138 0.143127 -0.117479 -0.0297157 -0.137785 0.0397445 -0.0617837 0.519092 0.242193 0.161227 0.151351 0.0624596 0.0174074 0.325146 -0.153865 -0.0418604 -0.0980026 -0.253897 0.456088 -0.0770035 0.405184 0.116991 -0.238203 -0.281959 0.47558 0.320111 0.252463 -0.392646 -0.292885 0.28052 -0.121899 0.438576 0.31188 -0.221655 0.161953 -0.0194433 0.230147 0.0101611 0.112809 0.301655 0.301531 -0.200454 -0.129277 -0.32805 0.250408 -0.0603832 -0.161173 0.172315 0.0276841 0.165947 0.0696605 0.0380216 -0.0764001 -0.655832 -0.0097776 0.0167708 0.082993 -0.226739 0.11678 -0.0772187 -0.154941 0.315614 0.284728 0.175193 -0.233361 0.0399863 -0.0507251 0.25494 -0.218279 -0.289297 0.247074 -0.121972 0.0524808 0.0901393 0.103459 -0.244256 0.368954 -0.0838739 0.221804 -0.342629 0.278981 -0.101107 -0.119867 -0.267609 0.207809 0.108179 0.159008 0.349397 0.164264 -0.0845749 -0.0695654 -0.257029 0.0853971 0.0868503 -0.0225287 0.102037 0.263356 0.0475869 0.00310903 -0.295893 -0.254479 0.086669 -0.0872945 -0.144615 0.252511 0.142582 -0.0218645 0.0724259 -0.0482156 0.179507 0.125131
87 0.123213 0.286881 -0.595813 -0.450028 0.0522631 -0.0412434 -0.149282 0.0429372 -0.228305 0.134596 0.436658 -0.0265957 0.122962 0.156458 -0.0408503 -0.0221088 0.0147668 -0.210192 0.298343 -0.279253 0.30488 0.345694 -0.199584 -0.212766 -0.0747597 -0.0293009 0.212951 0.23718 0.371314 0.364753 -0.409031 0.031855 -0.384982 -0.293197 -0.0596275 0.190226 0.0246054 0.428541 -0.0957082 -0.247472 -0.339175 0.570044 -0.154669 0.11165 0.0195388 -0.288507 0.254839 0.13446 0.315527 0.108766 0.126051 0.0877792 0.306135 0.496542 -0.463953 -0.232803 0.289959 0.350664 -0.35276 0.244668 -0.129431 0.0577981 0.368474 -0.0841488 0.0638687 -0.154785 0.292424 -0.00853406 -0.58243 0.329539 -0.501645 0.16927 0.301867 -0.0236704 -0.207438 -0.0213611 0.134748 -0.1494 0.265315 0.194893 0.117072 -0.0837544 0.354777 0.144557 -0.14548 0.0256478 0.209605 -0.159552 0.0935007 -0.365948 -0.402387 0.0867519 -0.0126164 0.0479887 -0.479203 0.090324 -0.287557 0.37719 0.460611 -0.413589 0.224288 0.10048 0.640822 0.257312 -0.116748 0.164207 -0.148792 0.165498 0.109128 0.000126523 0.348633 -0.0871471 0.243867 0.0326324 0.150693 -0.0314032 -0.337974 -0.0585064 -0.213513 -0.143977 -0.134212 -0.156604 0.464019 -0.168819 0.247996 0.144498 -0.395118 0.00224594
86 0.138736 0.305472 -0.614789 -0.48107 0.0537893 -0.0229958 -0.209721 0.0361013 -0.254041 0.147855 0.442287 -0.0391136 0.165871 0.131264 -0.0888368 -0.000786508 0.0660641 -0.264177 0.355196 -0.283392 0.298242 0.33098 -0.209838 -0.248511 -0.0463373 0.00240659 0.139254 0.28552 0.411026 0.373952 -0.397777 0.0097563 -0.363752 -0.242806 -0.0462653 0.202214 -0.0294733 0.404421 -0.105639 -0.197434 -0.353831 0.675472 -0.126528 0.088822 0.044193 -0.302002 0.259819 0.0784483 0.345446 0.0632984 0.100661 0.142471 0.266406 0.560336 -0.524749 -0.225081 0.294327 0.354298 -0.360784 0.16756 -0.0876381 0.0439482 0.372173 -0.0971436 0.0799846 -0.178687 0.328083 0.0196473 -0.539038 0.350515 -0.554974 0.186624 0.247499 0.0540336 -0.246902 0.0146728 0.0883901 -0.150721 0.30079 0.186748 0.0961482 -0.0881684 0.33421 0.163142 -0.177556 0.0177247 0.193354 -0.125026 0.126812 -0.388574 -0.374787 0.160918 -0.0106636 0.0596474 -0.476319 0.0933461 -0.271059 0.407025 0.44662 -0.458085 0.21079 0.148798 0.57516 0.297373 -0.105764 0.173898 -0.142193 0.160828 0.110228 0.0686921 0.355552 -0.14451 0.234339 -0.00770888 0.190712 -0.0465377 -0.406063 -0.0982242 -0.204369 -0.130755 -0.167515 -0.201518 0.431381 -0.160981 0.290515 0.152864 -0.290795 0.0192923
84 0.0995809 0.328817 -0.542327 -0.4598 0.0555904 -0.0100364 -0.223739 0.0209107 -0.258666 0.134493 0.435349 -0.0300201 0.15421 0.107448 -0.0976562 0.0398957 0.115397 -0.290859 0.411423 -0.255855 0.226494 0.332943 -0.223644 -0.246034 -0.0392205 0.0152436 0.0911333 0.315084 0.391228 0.340427 -0.374338 0.00814679 -0.346496 -0.19728 -0.0202404 0.176273 -0.0760468 0.37993 -0.103625 -0.147633 -0.318479 0.708543 -0.105705 0.0493466 0.0509432 -0.306998 0.259889 0.0140789 0.352213 0.0185729 0.0741032 0.18859 0.23832 0.556784 -0.535798 -0.215099 0.26156 0.334433 -0.349508 0.0948334 -0.04345 0.0133683 0.348128 -0.112724 0.0939593 -0.195278 0.354986 0.0140046 -0.517125 0.308375 -0.514676 0.158739 0.172825 0.123318 -0.274204 0.0398881 0.0634934 -0.118469 0.303024 0.158797 0.0882042 -0.0617104 0.314774 0.15331 -0.184019 0.0246008 0.186242 -0.103507 0.157815 -0.359287 -0.322797 0.22979 0.00435632 0.0639839 -0.449612 0.10326 -0.229101 0.381799 0.406374 -0.439416 0.195611 0.186376 0.493454 0.299063 -0.092484 0.178779 -0.128604 0.150942 0.112791 0.115939 0.329068 -0.184174 0.208458 -0.0548477 0.188088 -0.0414478 -0.387029 -0.0965845 -0.182625 -0.11713 -0.172174 -0.237581 0.386681 -0.140501 0.286 0.148538 -0.229412 0.0308176
85 0.114548 0.263212 -0.517727 -0.39402 0.041679 -0.00718414 -0.166427 0.0136452 -0.214338 0.12291 0.372675 -0.0340174 0.132165 0.116991 -0.073303 -0.00808311 0.0624335 -0.203427 0.299221 -0.229419 0.247705 0.282236 -0.18105 -0.191511 -0.0579145 -0.00558252 0.110198 0.232229 0.323751 0.302153 -0.326531 0.00497276 -0.301565 -0.198979 -0.0504092 0.170534 -0.0293639 0.334232 -0.0752011 -0.16314 -0.279434 0.548104 -0.116468 0.0762546 0.0355814 -0.24196 0.220033 0.0720953 0.278717 0.0628064 0.0919831 0.112437 0.227225 0.471656 -0.42889 -0.203374 0.258181 0.297662 -0.303412 0.143387 -0.0761618 0.0380715 0.319558 -0.0823348 0.0716762 -0.153173 0.268506 0.00337934 -0.45436 0.298098 -0.462488 0.146265 0.208093 0.0459404 -0.203628 0.00101586 0.0695336 -0.120409 0.263951 0.156258 0.0792943 -0.0676323 0.288832 0.132951 -0.152933 0.0337279 0.171629 -0.0929781 0.0830793 -0.315718 -0.307511 0.136732 -0.00837122 0.0512664 -0.397498 0.0884029 -0.219819 0.343564 0.368635 -0.376628 0.159248 0.130008 0.475312 0.250532 -0.0925251 0.136719 -0.122623 0.130175 0.097343 0.0634957 0.303422 -0.106914 0.191761 -0.000548543 0.161115 -0.0387686 -0.319917 -0.0615695 -0.163712 -0.106261 -0.132929 -0.159989 0.356073 -0.150679 0.247548 0.132124 -0.242068 0.00798621
89 0.127337 0.220554 -0.548717 -0.389122 0.0203792 -0.0815818 -0.067405 0.0699779 -0.176394 0.105702 0.423668 -0.0144326 0.0473057 0.222623 -0.0119201 -0.0611528 -0.0529005 -0.111196 0.212898 -0.212166 0.278985 0.273755 -0.139365 -0.150704 -0.0642234 -0.00148711 0.293105 0.139798 0.309101 0.320321 -0.363615 0.0670831 -0.28715 -0.317167 -0.124922 0.190303 0.0170323 0.446092 -0.099471 -0.312798 -0.330519 0.47295 -0.120469 0.0903162 -0.0453037 -0.281593 0.196009 0.190869 0.302617 0.165484 0.123664 0.0694117 0.316845 0.409023 -0.353313 -0.245518 0.289888 0.329789 -0.360349 0.330743 -0.174875 0.0992136 0.333714 -0.0445571 0.0736987 -0.106892 0.245934 -0.0276866 -0.529468 0.304677 -0.526079 0.128612 0.347801 -0.0922784 -0.163439 -0.0624125 0.148993 -0.156791 0.198225 0.179022 0.118041 -0.139615 0.301417 0.091155 -0.018422 -0.0563656 0.12577 -0.156666 0.117535 -0.309572 -0.396924 0.0475824 -0.0249042 0.0389077 -0.446663 0.0971922 -0.306286 0.30021 0.421984 -0.394835 0.199482 0.0639354 0.675152 0.211762 -0.0804456 0.120749 -0.162291 0.152728 0.120112 -0.0712844 0.286525 -0.0458569 0.229231 0.105041 0.0962031 -0.0483918 -0.275201 -0.100649 -0.178497 -0.161152 -0.0980476 -0.0849809 0.460252 -0.126861 0.167726 0.141866 -0.452153 -0.0499376
90 0.0991999 0.21844 -0.516201 -0.326166 -0.0308003 -0.10215 -0.0131724 0.0815158 -0.125369 0.0500963 0.422488 -0.00597196 -0.000644164 0.257113 0.00642848 -0.043627 -0.0665015 -0.0380424 0.193112 -0.167259 0.248825 0.272202 -0.160647 -0.0837549 -0.0395193 0.0208361 0.364106 0.0643549 0.307237 0.295171 -0.330265 0.122728 -0.236147 -0.33326 -0.165981 0.174802 -0.0306703 0.475378 -0.132946 -0.374499 -0.312163 0.405418 -0.115339 0.04812 -0.111465 -0.301435 0.167136 0.236195 0.33494 0.236202 0.133278 0.074677 0.356801 0.315769 -0.28913 -0.271097 0.220562 0.346872 -0.371633 0.433036 -0.204355 0.119646 0.316469 -0.048328 0.104218 -0.0822226 0.221168 -0.0685552 -0.535913 0.286738 -0.520384 0.102722 0.364077 -0.11927 -0.165226 -0.0956619 0.154692 -0.133358 0.162452 0.152214 0.120904 -0.180132 0.263678 0.0133481 0.104836 -0.135451 0.0797991 -0.162948 0.187904 -0.240936 -0.392702 0.0476523 -0.0245398 0.0305077 -0.445083 0.133585 -0.293941 0.232182 0.396391 -0.390174 0.226809 0.0519653 0.743855 0.179569 -0.0482995 0.0914612 -0.150763 0.174331 0.147934 -0.1439 0.226073 -0.0248387 0.219038 0.131357 0.0225324 -0.0840923 -0.220497 -0.122622 -0.180762 -0.186525 -0.0444472 -0.0453436 0.472769 -0.110467 0.071067 0.163817 -0.512163 -0.0522578
19 0.31561 0.126331 -0.337957 -0.184656 -0.0221643 -0.0579216 0.0802975 -0.098387 -0.153327 0.0603589 0.403133 -0.0324308 0.0174282 0.365929 -0.217217 -0.14956 0.108184 0.160521 0.258292 -0.0291731 0.0319741 0.0582296 -0.135065 0.0983623 0.364488 0.198711 0.0363596 0.0453377 0.213399 0.051043 0.106926 -0.115201 0.0507985 -0.136056 -0.192132 0.287423 -0.131586 0.475871 -0.0571309 -0.199908 -0.315673 0.480449 0.352809 0.189282 -0.30688 0.015786 0.0787459 -0.0502518 0.199216 0.18052 -0.0543863 0.0753614 0.143876 0.361114 -0.0393152 -0.204324 0.278266 0.318208 -0.395231 -0.065563 -0.357428 0.125583 -0.160685 -0.0751468 0.134669 -0.00365185 0.116493 0.0715503 0.0676198 0.0374454 -0.766066 0.0663124 0.00444588 0.0996539 -0.042043 0.0721728 -0.0878839 -0.205771 0.285569 0.255905 0.084835 -0.186035 -0.138454 0.108189 0.23666 0.00138723 -0.390471 0.304865 -0.120775 -0.118366 -0.0423048 0.18682 -0.161238 0.292851 -0.0223608 0.282916 -0.314332 0.156308 -0.0169146 -0.21173 -0.173725 0.27995 0.0723946 0.257211 0.218234 0.185835 0.106846 0.0110013 -0.00543568 0.115727 0.119757 -0.0401963 0.120186 0.373982 0.0796949 -0.000176894 -0.0993015 -0.0497749 -0.1927 -0.00612683 -0.151885 0.110178 0.195805 -0.0295091 0.113104 0.0670992 0.285467 0.114738
20 0.395574 0.153798 -0.398178 -0.252569 0.000913081 -0.0803626 0.153764 -0.154151 -0.201724 0.0647721 0.496506 0.00618089 0.0455671 0.477396 -0.253827 -0.179486 0.153995 0.243927 0.308951 -0.0386354 0.0290913 0.0873379 -0.171801 0.140774 0.4738 0.240012 0.0447867 0.0589175 0.228922 0.0490809 0.187647 -0.163181 0.0308115 -0.150971 -0.263392 0.365355 -0.176131 0.601342 -0.0519228 -0.25962 -0.363242 0.564771 0.453031 0.234342 -0.422304 0.0318239 0.119472 -0.0854169 0.250766 0.232902 -0.060697 0.0664763 0.189207 0.460304 -0.0360796 -0.222235 0.32954 0.397745 -0.479848 -0.110835 -0.486226 0.163095 -0.223598 -0.109682 0.180747 0.0124552 0.124113 0.0908386 0.0760472 0.00914698 -0.934352 0.0400238 0.0201821 0.0956133 -0.0267303 0.0919588 -0.0770799 -0.232883 0.363017 0.313492 0.0952378 -0.216276 -0.182514 0.140302 0.28309 0.0227144 -0.501804 0.369092 -0.183635 -0.0986495 -0.028609 0.220064 -0.202973 0.36439 -0.00279031 0.395666 -0.383095 0.205973 -0.0757425 -0.234329 -0.236429 0.363905 0.0579714 0.323978 0.291825 0.254365 0.173386 0.0031963 -0.0346766 0.129903 0.149462 -0.0377811 0.127135 0.470084 0.0697532 -0.00103162 -0.0906825 -0.021759 -0.209082 -0.00329811 -0.182543 0.16681 0.256691 -0.011214 0.10201 0.0625801 0.395238 0.149939
21 0.40242 0.0973837 -0.394029 -0.30068 0.0366086 -0.115208 0.242853 -0.18613 -0.23718 0.0447634 0.568501 0.0604657 0.085104 0.573229 -0.263674 -0.185418 0.1766 0.273514 0.251085 -0.0501372 0.0059499 0.0593779 -0.135427 0.129438 0.49277 0.260184 0.0701362 0.0682459 0.168352 0.0506312 0.212603 -0.180065 -0.0142812 -0.168287 -0.328707 0.414163 -0.228192 0.603877 -0.0389438 -0.260382 -0.385921 0.609668 0.440601 0.294424 -0.472732 -0.0493966 0.17712 -0.125612 0.345023 0.247995 -0.0719602 0.0837399 0.199091 0.557821 -0.062787 -0.194445 0.332043 0.454714 -0.540846 -0.167332 -0.553152 0.183527 -0.222767 -0.164181 0.219779 0.0542399 0.120682 0.107472 -0.00971541 -0.0326396 -1.03951 0.0100677 0.0689429 0.0831049 -0.0126172 0.0843442 0.0134861 -0.202516 0.380784 0.282609 0.0913834 -0.241912 -0.180151 0.183573 0.262668 -0.0107675 -0.525818 0.366973 -0.143237 -0.0623592 -0.0098133 0.199298 -0.222754 0.373606 0.0073633 0.458695 -0.424666 0.242433 -0.126112 -0.249686 -0.323418 0.385444 0.0506953 0.323332 0.345211 0.272054 0.207184 0.0234338 -0.123184 0.105535 0.190274 -0.0549229 0.137913 0.51106 0.0500324 -0.0069444 -0.104018 -0.00557849 -0.16149 -0.0114342 -0.223955 0.196512 0.296172 0.0307275 0.0826332 0.0685443 0.382637 0.14882
22 0.376065 0.0934708 -0.345639 -0.267062 0.0299844 -0.100271 0.250141 -0.173748 -0.213046 0.0635097 0.508258 0.0564942 0.0929022 0.520831 -0.233802 -0.149149 0.162894 0.265318 0.213546 -0.0406198 -0.00977741 0.0625594 -0.121195 0.109611 0.446577 0.242091 0.049768 0.0620736 0.13224 0.0361362 0.216193 -0.170758 -0.0231683 -0.165646 -0.313485 0.390078 -0.202574 0.549297 -0.0301234 -0.229129 -0.348848 0.528343 0.43046 0.268893 -0.429085 -0.0407522 0.153093 -0.131021 0.314794 0.213011 -0.057666 0.0691595 0.167527 0.498806 -0.0420063 -0.163485 0.293329 0.424953 -0.471307 -0.16408 -0.517204 0.171237 -0.222343 -0.160128 0.198837 0.0623694 0.103876 0.103803 -0.000902791 -0.038004 -0.923937 -0.00633155 0.0567659 0.069297 -0.00517941 0.0863028 0.0188868 -0.181304 0.360295 0.252669 0.0766246 -0.197265 -0.161286 0.170586 0.243568 -0.0195798 -0.485594 0.336543 -0.160923 -0.0238285 -0.00040799 0.169609 -0.200734 0.345811 0.0223063 0.427139 -0.386334 0.2091 -0.139183 -0.195287 -0.286771 0.347973 0.0244688 0.279324 0.324147 0.257221 0.193872 0.00606582 -0.107146 0.100859 0.171697 -0.0421878 0.123139 0.47094 0.0289313 -0.00367324 -0.0667982 0.0263371 -0.133719 -0.00191173 -0.207259 0.18943 0.284753 0.0221162 0.0381699 0.0494097 0.368193 0.134377
23 0.41443 0.0829348 -0.408075 -0.305403 0.0403316 -0.100859 0.257159 -0.196091 -0.237392 0.0580947 0.569476 0.0686665 0.110533 0.563327 -0.252269 -0.172895 0.155531 0.293131 0.232251 -0.0484926 -0.0020917 0.0314775 -0.120957 0.111233 0.514026 0.260349 0.0720324 0.0618676 0.122919 0.0331049 0.251957 -0.201346 -0.0271011 -0.172948 -0.332713 0.423688 -0.223338 0.598426 -0.00939598 -0.250771 -0.373689 0.581697 0.439547 0.293669 -0.472006 -0.0594305 0.177524 -0.1425 0.353608 0.241332 -0.0705297 0.0779786 0.182918 0.529725 -0.0494145 -0.150976 0.315781 0.456858 -0.518721 -0.184249 -0.56423 0.200541 -0.211964 -0.168807 0.19648 0.0512508 0.111041 0.109441 0.00498724 -0.0529737 -0.993852 -0.00592742 0.0877954 0.0592663 -0.00270819 0.0946537 0.01481 -0.186224 0.397605 0.274567 0.0823189 -0.226531 -0.165096 0.162941 0.265232 -0.0237866 -0.525003 0.357348 -0.162822 -0.0363894 0.00184472 0.193556 -0.220887 0.379509 0.0284348 0.46824 -0.412895 0.241187 -0.155635 -0.213413 -0.33337 0.381566 0.0348926 0.287995 0.361222 0.267187 0.207921 0.01271 -0.132309 0.113553 0.183951 -0.0555622 0.140775 0.507788 0.0296333 -0.00560349 -0.108826 -0.00124445 -0.143635 -0.0179286 -0.222127 0.216953 0.287096 0.0362835 0.0492653 0.0499435 0.398988 0.145822
24 0.394508 0.0538826 -0.391234 -0.298146 0.0457284 -0.104756 0.235317 -0.17073 -0.230888 0.0567696 0.545729 0.0470941 0.124769 0.51984 -0.230106 -0.149211 0.1375 0.254538 0.20776 -0.0484279 -0.00695104 0.00543643 -0.0943741 0.077201 0.484883 0.253657 0.0959125 0.0742978 0.101434 0.0352027 0.254011 -0.179911 -0.0336403 -0.159102 -0.308317 0.400249 -0.203192 0.536891 0.00749332 -0.242501 -0.370926 0.554592 0.401019 0.286944 -0.444049 -0.101948 0.198504 -0.123715 0.359966 0.231777 -0.0900489 0.107837 0.164049 0.493332 -0.055812 -0.112045 0.309083 0.433285 -0.471651 -0.184713 -0.527253 0.205394 -0.184935 -0.174782 0.195034 0.0529388 0.124028 0.110071 -0.011995 -0.0560978 -0.941388 -0.000880341 0.0705646 0.0763235 -0.0399292 0.0928092 0.0270248 -0.176401 0.36702 0.263974 0.110567 -0.219236 -0.125716 0.126623 0.219807 -0.0582354 -0.473099 0.335616 -0.133037 -0.022809 0.016665 0.163797 -0.214425 0.362381 0.0124739 0.423268 -0.387263 0.232916 -0.14152 -0.199354 -0.313349 0.350441 0.0425594 0.242402 0.359092 0.258701 0.170073 0.0130806 -0.156469 0.110303 0.171038 -0.0601912 0.115753 0.456934 0.0336168 -0.00534781 -0.119434 -0.0318424 -0.104386 -0.0301875 -0.221337 0.22192 0.262997 0.0344518 0.0571685 0.0288643 0.338218 0.123153
26 0.393958 0.0290232 -0.377255 -0.29029 0.0409507 -0.0828365 0.189576 -0.153047 -0.239956 0.0663503 0.532583 0.0256602 0.146522 0.476884 -0.222824 -0.135692 0.0985213 0.231112 0.175961 -0.0657634 -0.0112641 -0.0481057 -0.0324849 0.036917 0.485491 0.250262 0.119127 0.0895785 0.0779401 0.0343472 0.258587 -0.170315 -0.0456896 -0.143932 -0.296098 0.422965 -0.168318 0.48785 0.0376611 -0.238723 -0.342082 0.530857 0.356227 0.274636 -0.423116 -0.16782 0.218278 -0.12652 0.385538 0.248988 -0.120795 0.121326 0.115984 0.418548 -0.0344792 -0.0391626 0.300103 0.399408 -0.399095 -0.164101 -0.466958 0.220947 -0.134691 -0.181069 0.186057 0.0390155 0.125203 0.0943937 -0.0114479 -0.0640982 -0.848375 -0.0179677 0.0697632 0.0571202 -0.0838051 0.086229 -0.000277984 -0.146949 0.342142 0.268207 0.111927 -0.216556 -0.079996 0.0774327 0.222734 -0.101661 -0.408067 0.295223 -0.123751 0.00402511 0.0400055 0.143083 -0.216393 0.350304 -0.00292686 0.355616 -0.371635 0.242008 -0.132414 -0.1699 -0.314285 0.306109 0.0651142 0.212149 0.356694 0.233532 0.105339 -0.00339729 -0.198337 0.0964395 0.149089 -0.0509453 0.111366 0.397435 0.0370839 0.00142895 -0.173022 -0.0868675 -0.0419268 -0.0462151 -0.20456 0.232564 0.213737 0.0189137 0.0541138 0.0106369 0.276126 0.114412
25 0.354577 0.0421195 -0.329725 -0.246212 0.0339415 -0.0671744 0.181689 -0.143939 -0.20823 0.0541227 0.466057 0.0223575 0.10874 0.432653 -0.202493 -0.114484 0.111958 0.220349 0.168416 -0.0449182 -0.000983762 -0.0180184 -0.058899 0.0566832 0.420338 0.218835 0.081864 0.0653612 0.0770851 0.0332059 0.220824 -0.149852 -0.0378004 -0.13436 -0.263186 0.336206 -0.168982 0.436766 0.0204321 -0.214951 -0.298315 0.461891 0.334036 0.238838 -0.37936 -0.0944791 0.169602 -0.109282 0.306787 0.206669 -0.0794301 0.0902612 0.119921 0.39278 -0.0379397 -0.0699999 0.252196 0.359654 -0.366673 -0.147268 -0.428183 0.185627 -0.148 -0.153404 0.161558 0.0407666 0.0974781 0.097198 0.00133023 -0.0516259 -0.759282 -0.000158049 0.0570293 0.0527938 -0.0485229 0.0838572 -0.00560276 -0.131626 0.31324 0.230241 0.0944287 -0.179519 -0.0926298 0.0834051 0.190967 -0.05549 -0.378744 0.278371 -0.133248 0.00299246 0.03235 0.12291 -0.177855 0.310789 0.0258364 0.338984 -0.320123 0.205088 -0.124816 -0.139041 -0.264187 0.281012 0.0471823 0.195365 0.30274 0.217025 0.126304 0.00591393 -0.148271 0.087415 0.136994 -0.047851 0.11237 0.364124 0.0295126 -0.00533401 -0.113393 -0.0319581 -0.0707402 -0.0312506 -0.177636 0.196295 0.205243 0.0163636 0.0349328 0.0138219 0.278136 0.0990217
147 0.115383 -0.0142744 -0.0391118 0.0817476 -0.348477 0.141239 0.276638 0.0783317 -0.074639 0.326129 0.303773 -0.468984 0.0647538 0.342913 -0.355983 -0.122535 0.0670489 0.038462 0.12308 -0.0459525 0.0746631 -0.0181962 0.155404 -0.384061 -0.0183074 0.123416 -0.00524937 -0.022856 0.285281 0.223698 -0.23464 -0.0504109 0.269857 -0.357406 -0.17461 0.0781504 -0.143064 0.225196 -0.231293 -0.0928524 -0.313585 0.855159 0.16481 0.422278 0.365541 -0.217234 0.127446 0.1223 0.114048 0.0274947 -0.254028 -0.0813019 -0.358802 0.61381 -0.0518603 -0.320735 -0.189343 0.271984 -0.0817946 0.108924 0.413882 -0.264083 -0.0388154 -0.198487 0.0695254 0.130858 0.0265469 0.0263516 0.0261282 0.00146056 -0.78899 0.0866842 -0.177455 0.484844 -0.0304151 -0.0421963 -0.0347852 -0.169954 0.241764 -0.332385 -0.120657 -0.382244 -0.185284 0.305472 0.769672 -0.39464 -0.224258 0.528642 0.19138 -0.397842 -0.404408 -0.00560246 -0.128254 0.403656 -0.0281231 0.108488 -0.764575 0.0769774 -0.0964713 -0.224881 -0.318447 0.603968 0.440271 0.336325 -0.103916 0.16948 0.0615495 0.157354 -0.126927 -0.206435 0.0914067 -0.169699 0.246506 0.588682 -0.209054 0.276197 -0.360509 0.0363024 -0.332707 0.152297 -0.392307 -0.124507 0.641407 -0.490825 -0.230596 0.309139 -0.423977 0.304962
148 0.107587 -0.0248444 -0.0259492 0.0593667 -0.302101 0.106238 0.217828 0.0797673 -0.0580262 0.275121 0.256459 -0.409009 0.0447037 0.31943 -0.321399 -0.109374 0.0464557 0.0442582 0.115971 -0.0362035 0.0894268 -0.0362945 0.137785 -0.350969 0.00232139 0.11356 0.00684009 -0.0175375 0.259879 0.201895 -0.208228 -0.0341655 0.260032 -0.304043 -0.164488 0.0895816 -0.137993 0.198382 -0.194935 -0.0945891 -0.282611 0.764543 0.148266 0.357391 0.311407 -0.193555 0.109229 0.126024 0.0975301 0.0385365 -0.22428 -0.0578763 -0.316119 0.53819 -0.0457153 -0.278313 -0.142229 0.232145 -0.0878069 0.0702961 0.359483 -0.221052 -0.0325787 -0.158849 0.0635948 0.109121 0.0135716 0.0295728 0.0408567 0.0118133 -0.69604 0.081716 -0.144825 0.421084 -0.0320917 -0.0304241 -0.0217467 -0.164726 0.208202 -0.268368 -0.109868 -0.345329 -0.152072 0.265193 0.686264 -0.357742 -0.232134 0.461898 0.173381 -0.369186 -0.355116 0.0104679 -0.113253 0.361762 -0.0265604 0.0887764 -0.680658 0.0699463 -0.0840683 -0.194828 -0.276725 0.513176 0.381518 0.295091 -0.0980842 0.134464 0.0458808 0.143971 -0.112674 -0.172237 0.0869038 -0.14788 0.22856 0.520315 -0.157261 0.226772 -0.330137 0.000754472 -0.27191 0.115782 -0.340731 -0.0974651 0.546381 -0.41331 -0.184864 0.262488 -0.36262 0.27376
149 0.0931083 -0.0369459 -0.0636905 0.0651228 -0.313264 0.0990679 0.238808 0.114904 -0.120047 0.29925 0.267656 -0.476102 0.0403959 0.319455 -0.337294 -0.139999 0.0526016 0.0361162 0.150187 -0.0092884 0.0954332 -0.059872 0.132578 -0.359853 0.00776472 0.101758 0.00550376 -0.0558916 0.261285 0.206699 -0.2333 -0.0531994 0.299295 -0.306771 -0.182112 0.0354576 -0.191595 0.236367 -0.245539 -0.114397 -0.289013 0.800366 0.125936 0.356028 0.286402 -0.179931 0.123665 0.151629 0.0923826 0.0320729 -0.270251 -0.06906 -0.345023 0.59173 -0.0596629 -0.297143 -0.162776 0.271409 -0.0996833 0.101929 0.404049 -0.228045 -0.0325674 -0.207307 0.0787074 0.12136 0.0167877 0.00173309 0.0171139 0.00766207 -0.744798 0.108149 -0.155431 0.395403 -0.00588056 -0.0372874 -0.0490879 -0.217651 0.268978 -0.265533 -0.148377 -0.350802 -0.160795 0.265473 0.740599 -0.361695 -0.226018 0.489991 0.161466 -0.375716 -0.366302 -0.016901 -0.109799 0.430743 -0.0140682 0.0945477 -0.735983 0.0972715 -0.102141 -0.194444 -0.308908 0.564737 0.435996 0.310489 -0.130816 0.134855 0.0306789 0.179058 -0.131822 -0.181903 0.100528 -0.168018 0.275522 0.558284 -0.154137 0.252113 -0.374593 0.0180295 -0.35169 0.131144 -0.404862 -0.135202 0.617723 -0.430356 -0.183147 0.286658 -0.410212 0.307977
146 0.154514 -0.0105001 0.0114837 0.0463381 -0.329259 0.189848 0.225997 -0.0329628 0.0450213 0.301115 0.302781 -0.308799 0.0401753 0.37473 -0.366402 -0.0799332 0.0345815 0.0635831 0.0546999 -0.0899003 0.0492268 0.0470701 0.148761 -0.322115 -0.0151287 0.166239 0.0257234 0.0898013 0.291045 0.211539 -0.221874 -0.0177721 0.198943 -0.366276 -0.143903 0.183637 -0.0146799 0.17895 -0.125779 -0.0316739 -0.306996 0.843249 0.187207 0.460027 0.433015 -0.24852 0.105742 0.0733722 0.128146 0.0452619 -0.179639 -0.065113 -0.264503 0.531985 -0.0293183 -0.308397 -0.149971 0.152994 -0.0965381 0.0770277 0.297217 -0.243797 -0.0396412 -0.0950736 0.0401395 0.0983803 0.0265896 0.0967764 0.0696114 -0.0229577 -0.741643 0.0461122 -0.142961 0.572731 -0.102004 -0.048185 0.0325282 -0.0571439 0.106144 -0.364086 -0.0299609 -0.413468 -0.178309 0.354689 0.670895 -0.376314 -0.222529 0.506876 0.232239 -0.414905 -0.403027 0.081084 -0.134554 0.262013 -0.0655801 0.123892 -0.678802 0.038575 -0.0465727 -0.258097 -0.306336 0.534266 0.351781 0.315778 -0.0317178 0.148996 0.105185 0.0818718 -0.0822237 -0.213746 0.0711157 -0.175135 0.155827 0.566655 -0.24499 0.221132 -0.301201 -0.0125152 -0.191495 0.121729 -0.281019 -0.0659088 0.502566 -0.44548 -0.21511 0.278185 -0.346596 0.274471
83 0.0783412 0.341812 -0.437947 -0.414334 0.0254209 0.00673209 -0.241849 0.0624796 -0.263762 0.0718732 0.414142 -0.0354206 0.129314 0.101133 -0.124089 0.14405 0.218046 -0.312982 0.506228 -0.190194 0.107614 0.319267 -0.264625 -0.229328 0.0392702 0.138469 -0.00551655 0.327104 0.413365 0.276725 -0.329401 0.0213311 -0.271119 -0.074744 0.0321779 0.101541 -0.25046 0.315844 -0.148902 -0.072125 -0.327999 0.769849 -0.04323 -0.0868346 0.0850118 -0.31937 0.231757 -0.132054 0.403572 -0.0596085 0.0124152 0.350167 0.211921 0.51374 -0.558709 -0.205175 0.143822 0.351097 -0.311079 -0.014994 0.0610594 -0.00872747 0.295585 -0.157083 0.109666 -0.204997 0.391541 -0.00728402 -0.447831 0.24532 -0.480768 0.147683 0.027093 0.25952 -0.351027 0.11446 0.00721546 -0.0460653 0.274479 0.0778442 0.0610131 -0.0540366 0.229818 0.10765 -0.135188 -0.0518675 0.124125 -0.0489175 0.315242 -0.287209 -0.206539 0.376633 0.0497101 0.0785016 -0.38447 0.143225 -0.135393 0.289712 0.300261 -0.427329 0.185981 0.248135 0.374033 0.312119 -0.0442569 0.214991 -0.110535 0.165427 0.179865 0.193939 0.223505 -0.324147 0.161379 -0.172245 0.185066 -0.0576996 -0.410985 -0.142962 -0.199397 -0.119328 -0.167314 -0.329248 0.301657 -0.0469649 0.245101 0.129448 -0.0967164 0.0612829
81 0.0698109 0.351836 -0.370383 -0.400778 0.0247431 0.0290057 -0.256402 0.0872553 -0.244902 0.0263596 0.377134 -0.0482 0.151268 0.0834092 -0.15349 0.205272 0.268182 -0.305356 0.525411 -0.188618 0.0628973 0.297837 -0.269997 -0.200359 0.0877681 0.213918 -0.0330293 0.315674 0.45314 0.250791 -0.289196 0.0242031 -0.211279 -0.00144015 0.0772406 0.0494783 -0.328219 0.310024 -0.1687 -0.063286 -0.347328 0.793331 -0.0173847 -0.151641 0.10088 -0.303641 0.241202 -0.184092 0.443822 -0.0935861 -0.0420485 0.435764 0.219601 0.464715 -0.570477 -0.17228 0.0677083 0.349802 -0.283331 -0.0744119 0.0909802 0.00618846 0.263048 -0.172705 0.114077 -0.182118 0.396874 -0.0135278 -0.401574 0.205731 -0.472217 0.167546 -0.0461526 0.356238 -0.410696 0.152702 -0.0459991 -0.00555151 0.219681 0.0250334 0.0795801 -0.029274 0.177116 0.0551599 -0.0975079 -0.102008 0.0823857 -0.00672823 0.414983 -0.273567 -0.195936 0.466525 0.0518552 0.113037 -0.33973 0.163313 -0.0882415 0.257594 0.225531 -0.398249 0.184878 0.32041 0.320625 0.294769 -0.0119341 0.237941 -0.104614 0.168548 0.214176 0.231702 0.170166 -0.386395 0.122723 -0.21645 0.14735 -0.0770534 -0.428051 -0.17779 -0.233458 -0.13302 -0.12793 -0.366302 0.252656 -0.00128229 0.21738 0.118394 -0.0423534 0.106471
82 0.0539905 0.322332 -0.342788 -0.36844 0.0201672 0.00865037 -0.214606 0.0675877 -0.212879 0.0556017 0.362761 -0.0323634 0.118874 0.080915 -0.123716 0.15452 0.232206 -0.273729 0.489441 -0.155433 0.056922 0.304965 -0.255422 -0.210045 0.0540281 0.166348 -0.0435681 0.312877 0.381349 0.218841 -0.260593 0.0164873 -0.222676 -0.0270723 0.0684201 0.0539726 -0.274018 0.258963 -0.152995 -0.0442842 -0.308169 0.724184 -0.0319771 -0.134678 0.0966601 -0.291787 0.204271 -0.162351 0.371364 -0.0850352 -0.0135988 0.366152 0.185274 0.455791 -0.518775 -0.170635 0.0966658 0.322475 -0.27877 -0.0717548 0.0735343 -0.0210961 0.245686 -0.16662 0.100684 -0.188235 0.373783 0.000290835 -0.379846 0.201296 -0.448054 0.140609 -0.0207885 0.294957 -0.338307 0.126386 -0.0222463 -0.0166847 0.248178 0.0395087 0.0441819 -0.0473796 0.174107 0.0821107 -0.106572 -0.0654809 0.0793692 -0.0263272 0.341877 -0.255535 -0.162443 0.407065 0.0597648 0.0862193 -0.324557 0.149707 -0.11115 0.258423 0.226676 -0.392822 0.177057 0.269267 0.287678 0.290916 -0.0237855 0.218866 -0.0848239 0.160497 0.179392 0.195764 0.172489 -0.343005 0.123941 -0.188843 0.153576 -0.0596901 -0.368446 -0.142751 -0.199955 -0.112507 -0.14992 -0.306459 0.242291 -0.0225648 0.207393 0.109182 -0.0281437 0.0834269
80 0.100847 0.357602 -0.423471 -0.4238 0.0225388 0.0755013 -0.287959 0.128953 -0.283075 0.0122039 0.392981 -0.0718582 0.169394 0.113637 -0.209265 0.234133 0.304984 -0.323777 0.545583 -0.206332 0.0567202 0.270668 -0.26894 -0.216591 0.149534 0.318844 -0.0466723 0.312554 0.524314 0.24928 -0.29535 0.0100152 -0.154202 0.0481885 0.0966375 0.0465342 -0.415684 0.332756 -0.189331 -0.0735045 -0.404326 0.850338 0.0382537 -0.185005 0.163853 -0.283794 0.258935 -0.222325 0.490847 -0.117833 -0.0703872 0.520643 0.224714 0.485977 -0.607767 -0.185112 0.0471355 0.390506 -0.260172 -0.131487 0.12721 0.0409808 0.243453 -0.198441 0.0930951 -0.167312 0.386834 -0.0157063 -0.374073 0.19174 -0.52024 0.220572 -0.0830467 0.432253 -0.467579 0.167798 -0.0998866 0.0145648 0.185958 0.00193327 0.097121 -0.010459 0.134738 0.0363445 -0.070305 -0.150943 0.0367063 0.048262 0.509513 -0.305368 -0.225709 0.535644 0.0522202 0.161599 -0.329294 0.175898 -0.0737526 0.240404 0.172442 -0.408257 0.159127 0.384848 0.288754 0.28909 0.0169747 0.258132 -0.100618 0.173411 0.253907 0.267408 0.133809 -0.440657 0.104271 -0.242451 0.139127 -0.0686056 -0.479349 -0.197575 -0.270325 -0.158202 -0.110324 -0.416898 0.225468 0.0209713 0.223195 0.13907 -0.00607329 0.134786
79 0.0935139 0.313684 -0.379042 -0.363915 0.0122069 0.103263 -0.229999 0.159406 -0.247939 -0.0193969 0.307161 -0.0735906 0.179249 0.0948542 -0.168679 0.211603 0.259523 -0.2773 0.398757 -0.186358 0.054316 0.210397 -0.222289 -0.141333 0.14175 0.326294 -0.023682 0.195687 0.474691 0.208163 -0.247937 0.0123848 -0.0999961 0.0529107 0.115222 0.00569809 -0.36043 0.30473 -0.187173 -0.0832453 -0.359249 0.692194 0.0379612 -0.179132 0.174904 -0.214912 0.226602 -0.177902 0.447399 -0.108931 -0.0643597 0.450157 0.218165 0.365381 -0.520828 -0.14923 0.0121177 0.356409 -0.205689 -0.0870706 0.127414 0.0775614 0.215682 -0.176875 0.0482727 -0.114014 0.294765 -0.0172388 -0.30215 0.186581 -0.446134 0.218486 -0.0582639 0.395385 -0.415511 0.128053 -0.13908 0.0244025 0.127348 -0.0262418 0.111617 0.0184086 0.106585 0.0119778 -0.0571418 -0.155879 0.0504672 0.0643805 0.493646 -0.277939 -0.24079 0.481431 0.0296226 0.168953 -0.255571 0.132359 -0.0182299 0.198107 0.126197 -0.354961 0.116871 0.375922 0.258495 0.217444 0.0328642 0.250875 -0.0949527 0.138236 0.261166 0.199712 0.0992034 -0.386079 0.0724396 -0.221266 0.0771752 -0.0476142 -0.422652 -0.158306 -0.302454 -0.148232 -0.0568148 -0.371483 0.185926 0.0151273 0.186642 0.118562 -0.0112444 0.118206
118 0.136237 0.0134125 -0.0316258 -0.262332 0.2022 -0.158123 -0.207067 0.317852 -0.0141984 0.247962 0.194966 -0.146424 -0.0400581 0.332757 -0.0771294 -0.236259 -0.140506 0.087914 0.225023 0.323503 0.039239 -0.0140689 0.404582 0.236948 -0.0491742 0.212198 -0.0314948 -0.23958 0.11856 0.246756 0.0548508 0.0605711 0.196832 -0.134513 0.0207972 -0.152754 -0.0371881 0.115751 -0.19908 -0.0765998 -0.384265 0.688626 -0.349579 -0.0423282 -0.128267 -0.475378 -0.147382 0.0193252 0.022593 -0.229442 -0.304498 0.0792741 0.157716 0.317036 0.0246224 -0.0674747 0.322472 0.0236959 -0.390711 0.188935 0.0296442 0.0422234 0.321483 0.109264 -0.0307855 -0.0813658 0.310611 0.159507 0.0615991 0.21146 -0.837051 0.328902 -0.0204097 0.152087 -0.169385 -0.150303 -0.140947 -0.258317 -0.20116 -0.0138602 -0.21463 -0.379067 -0.000549728 0.1952 0.180543 -0.264487 0.11327 0.0698109 0.307224 -0.278972 -0.0647068 0.295476 0.161609 -0.213949 -0.159366 0.0464468 -0.349507 0.333978 0.156509 -0.41429 -0.207437 0.487164 0.181293 0.453209 0.290324 0.168785 -0.00111707 0.248383 0.249772 0.0250922 0.21074 -0.510913 -0.0943696 0.27186 0.331945 -0.185644 -0.328552 -0.436134 0.214101 0.0296631 -0.26921 0.179319 0.0717859 0.122173 0.204168 0.0393095 -0.0432996 -0.122198
117 0.125877 0.0488096 0.0152975 -0.240944 0.239487 -0.1648 -0.231251 0.358994 -0.0118332 0.270089 0.175255 -0.145232 -0.0471414 0.366368 -0.0568647 -0.243237 -0.149143 0.118101 0.242026 0.336203 0.0267556 0.0313363 0.455386 0.288074 -0.0743986 0.206869 -0.0302003 -0.280614 0.124839 0.265229 0.0851592 0.090473 0.201619 -0.129971 0.0260869 -0.195952 -0.0376768 0.11947 -0.222191 -0.0658106 -0.388469 0.745314 -0.396332 -0.0482002 -0.132838 -0.521299 -0.177788 -0.00368703 0.0148439 -0.253923 -0.323039 0.076188 0.150887 0.319427 0.0447113 -0.0491002 0.317442 0.0196303 -0.429012 0.216985 0.0358097 0.0377237 0.337147 0.0953604 -0.044358 -0.106135 0.331355 0.180552 0.0767998 0.232116 -0.922205 0.340159 -0.0455549 0.171068 -0.149317 -0.194228 -0.145953 -0.254693 -0.216952 -0.0111088 -0.252248 -0.398222 -0.00998218 0.217699 0.193319 -0.266375 0.141432 0.0982859 0.303477 -0.272168 -0.0473581 0.301608 0.179692 -0.27384 -0.195291 0.0354629 -0.370377 0.363878 0.167869 -0.472341 -0.213033 0.542022 0.178334 0.506984 0.334088 0.191255 0.00622216 0.283657 0.274272 0.0257612 0.223896 -0.55409 -0.127601 0.294479 0.358525 -0.237053 -0.371027 -0.478319 0.246572 0.0388007 -0.306458 0.185281 0.0759796 0.124866 0.217395 0.0579609 -0.0609102 -0.12606
119 0.191381 0.00839505 -0.0441795 -0.320895 0.202042 -0.184733 -0.215557 0.347559 -0.0454862 0.253259 0.225475 -0.148203 -0.0678345 0.341547 -0.073427 -0.259829 -0.135727 0.066106 0.261848 0.350211 0.0744199 -0.0586 0.43759 0.245987 -0.0721846 0.227288 -0.0305286 -0.236038 0.110192 0.232488 0.0599515 0.0377517 0.19433 -0.154418 0.0495952 -0.178119 -0.0409582 0.11456 -0.215641 -0.071106 -0.433126 0.7231 -0.367931 -0.0719848 -0.15079 -0.510612 -0.147293 0.0264873 -0.000462596 -0.252532 -0.368103 0.0734648 0.183011 0.35792 0.0423167 -0.0701201 0.340253 0.0337791 -0.405294 0.201728 0.0325031 0.00470102 0.374998 0.145842 -0.0013667 -0.0779872 0.35696 0.189395 0.0677257 0.19682 -0.854407 0.338267 -0.0294964 0.175677 -0.168946 -0.138273 -0.189158 -0.30784 -0.238912 -0.0569228 -0.226988 -0.393043 0.015886 0.207271 0.16738 -0.29329 0.110429 0.0516707 0.322124 -0.313056 -0.0891586 0.336309 0.184369 -0.220192 -0.122603 0.0437386 -0.363939 0.343324 0.159129 -0.405245 -0.226636 0.538176 0.205366 0.478217 0.317752 0.203013 0.0163297 0.256709 0.274025 0.0194966 0.263206 -0.524144 -0.132591 0.280429 0.361497 -0.160798 -0.303937 -0.431313 0.237249 0.0692536 -0.3004 0.21575 0.0932096 0.117917 0.208368 -0.00583974 -0.0530979 -0.138649
120 0.298577 -0.0276856 -0.19009 -0.422464 0.141523 -0.190616 -0.21016 0.321833 -0.0810438 0.205365 0.322512 -0.167064 -0.101712 0.388447 -0.129219 -0.294681 -0.107822 0.00625604 0.308104 0.350273 0.157637 -0.161304 0.388207 0.207382 -0.0532705 0.270543 -0.00662117 -0.170868 0.114446 0.21166 -0.0121687 -0.00215715 0.20891 -0.172252 0.0584297 -0.128305 -0.0631763 0.14234 -0.208557 -0.0882612 -0.484281 0.730339 -0.357417 -0.0919787 -0.147902 -0.467906 -0.10722 0.100404 -0.000249615 -0.2157 -0.388454 0.0921912 0.241588 0.434531 0.0129823 -0.154424 0.361927 0.0803791 -0.434679 0.20349 0.0176945 -0.0112989 0.429093 0.196258 0.0538192 -0.0426689 0.385793 0.20089 0.0537862 0.176629 -0.819973 0.327541 0.0422565 0.186176 -0.169158 -0.112578 -0.227373 -0.369956 -0.215183 -0.0581511 -0.208201 -0.392833 0.0384071 0.233489 0.137254 -0.31038 0.0466166 0.00458826 0.313362 -0.391853 -0.147414 0.380618 0.173184 -0.135734 -0.032462 0.0643242 -0.383348 0.304517 0.172604 -0.356644 -0.257316 0.54154 0.27578 0.472403 0.267948 0.199689 0.0194939 0.225702 0.282685 -0.0263416 0.324601 -0.502596 -0.127604 0.290514 0.383788 -0.110096 -0.300236 -0.377609 0.170332 0.080003 -0.284514 0.218003 0.113975 0.129264 0.235319 -0.037545 -0.0454342 -0.13893
122 0.327274 -0.0476462 -0.223637 -0.445132 0.115151 -0.203922 -0.205134 0.320907 -0.0978307 0.210626 0.35117 -0.161553 -0.119891 0.402503 -0.15214 -0.326087 -0.105342 0.000469402 0.339853 0.361393 0.206352 -0.212868 0.375734 0.184139 -0.0379583 0.287934 -0.0068116 -0.157483 0.124178 0.205413 -0.0386962 -0.0201511 0.225845 -0.180506 0.0755964 -0.109349 -0.062494 0.151221 -0.207421 -0.0924415 -0.517517 0.754829 -0.347484 -0.104663 -0.159131 -0.461876 -0.100331 0.125714 -0.00200387 -0.210863 -0.415225 0.104548 0.254867 0.471333 -0.00378923 -0.192697 0.388309 0.0904009 -0.443875 0.216764 0.0168482 -0.0254594 0.441946 0.229024 0.0861904 -0.0238032 0.404364 0.206534 0.0606389 0.165856 -0.817358 0.326406 0.0443855 0.207105 -0.184718 -0.0926653 -0.238703 -0.39689 -0.227991 -0.0604015 -0.204301 -0.418731 0.0365165 0.254378 0.138877 -0.31866 0.0135964 0.00127404 0.330776 -0.434279 -0.180925 0.423365 0.176611 -0.123892 -0.00919124 0.0742208 -0.406782 0.295979 0.176114 -0.350062 -0.280499 0.552036 0.299363 0.47452 0.271989 0.195903 0.000177321 0.21394 0.290209 -0.0348007 0.346788 -0.492593 -0.124094 0.306365 0.400769 -0.0797905 -0.297923 -0.399747 0.155341 0.0788156 -0.302995 0.228142 0.136648 0.129999 0.254199 -0.0572983 -0.0576349 -0.131408
121 0.282245 -0.034768 -0.18301 -0.402275 0.132082 -0.189949 -0.192438 0.304399 -0.0834894 0.194982 0.304269 -0.148784 -0.103973 0.369111 -0.120522 -0.303209 -0.0963598 -0.0100093 0.31693 0.346047 0.174876 -0.180769 0.358882 0.195832 -0.0456671 0.259128 -0.00426392 -0.159222 0.0895524 0.185306 -0.0163684 -0.0144211 0.197212 -0.163605 0.0657056 -0.113884 -0.0687531 0.142753 -0.18753 -0.0711198 -0.478827 0.709652 -0.337755 -0.108377 -0.1407 -0.450603 -0.102018 0.0899226 -0.000811603 -0.205777 -0.377317 0.0850766 0.232106 0.412751 0.0175308 -0.170589 0.371983 0.0937997 -0.42044 0.21332 0.0174911 -0.0147537 0.416304 0.20026 0.0707093 -0.0378363 0.391277 0.190284 0.0601998 0.161875 -0.778381 0.288874 0.0521151 0.190053 -0.1617 -0.0979066 -0.228146 -0.366867 -0.205298 -0.0454704 -0.19141 -0.386114 0.0307839 0.234826 0.131211 -0.300921 0.0284036 -0.00750892 0.300985 -0.391016 -0.146559 0.39783 0.158857 -0.140144 -0.0178232 0.0683454 -0.370808 0.279703 0.163945 -0.327857 -0.264486 0.514186 0.271541 0.445951 0.275811 0.193745 0.0109844 0.203591 0.276171 -0.035169 0.321074 -0.46976 -0.128644 0.284111 0.37503 -0.0900495 -0.274824 -0.367094 0.163127 0.0694672 -0.279627 0.21198 0.114151 0.115581 0.231183 -0.0507059 -0.0515474 -0.131893
123 0.251696 -0.0287597 -0.240351 -0.343297 0.0667805 -0.128991 -0.172114 0.231749 -0.0795341 0.172632 0.319488 -0.155572 -0.0830017 0.349012 -0.147985 -0.257569 -0.0925771 -0.0049963 0.280143 0.254887 0.160407 -0.16852 0.26763 0.0978423 0.0202708 0.242954 0.0396485 -0.0982729 0.123874 0.184591 -0.0671606 -0.0132346 0.185973 -0.15294 0.0206569 -0.0129384 -0.0658156 0.16856 -0.143459 -0.101427 -0.404749 0.631041 -0.226533 -0.0627379 -0.0818231 -0.366529 -0.0742455 0.105009 0.0715937 -0.126673 -0.273368 0.108017 0.174582 0.385467 -0.0223182 -0.201994 0.324304 0.125747 -0.375374 0.156791 0.0113537 0.0155551 0.319926 0.148397 0.0512576 -0.0265463 0.312916 0.146047 0.0434651 0.147513 -0.707345 0.229336 0.0679692 0.171068 -0.15243 -0.0772803 -0.166047 -0.317281 -0.110675 -0.00142339 -0.122091 -0.342598 0.021504 0.195683 0.173202 -0.252649 -0.0569936 0.0220266 0.255731 -0.365946 -0.155893 0.349214 0.0986115 -0.0519968 -0.0424219 0.0736952 -0.347203 0.223331 0.13656 -0.307105 -0.246502 0.376106 0.251622 0.366267 0.195918 0.140471 -0.0322905 0.140639 0.215046 -0.0179931 0.242924 -0.380325 -0.0492074 0.251216 0.293059 -0.0615197 -0.305462 -0.348491 0.0939051 0.0191806 -0.211463 0.159954 0.0947103 0.0743348 0.215398 0.00461668 -0.0545876 -0.0708902
64 -0.121534 -0.0374317 -0.44951 -0.1926 -5.9944e-05 -0.33155 -0.0228924 0.0974331 0.0907746 0.128983 0.356289 -0.0450189 0.0441112 -0.0347864 -0.0206982 -0.237517 -0.162191 0.0285356 0.239738 0.150685 0.253934 -0.0281106 -0.102902 -0.16476 0.375627 -0.0419232 0.158355 0.113589 0.22394 0.00109471 0.115705 -0.18093 0.05028 -0.120216 0.277942 0.262076 0.060183 0.233429 0.108799 -0.043274 -0.337788 0.3678 -0.0467797 0.0296339 0.0920003 -0.150115 0.199111 0.213861 0.141573 0.00692533 -0.0274251 -0.129852 0.200137 0.285705 -0.249677 -0.0125215 0.101141 0.230747 -0.22569 -0.149521 -0.169459 0.073609 0.120183 -0.0525872 -0.251413 -0.0687674 0.0146469 -0.00929973 -0.0129753 -0.085851 -0.482982 0.176087 0.0272316 0.338405 -0.112317 -0.0826133 0.0918685 -0.149034 0.293495 -0.101116 0.314672 -0.310519 -0.360042 -0.138177 0.353174 -0.230439 -0.284631 0.212107 0.297395 -0.501208 -0.35549 -0.0531046 -0.153436 0.0146164 -0.224445 0.176245 -0.0404577 0.183993 -0.185245 -0.45229 -0.0893371 0.115084 0.141061 -0.0279666 0.0775378 0.253545 0.201934 0.267387 -0.0706813 0.261037 -0.0514605 -0.0881721 -0.225156 0.210637 0.037261 0.113411 -0.253939 -0.42781 -0.267408 -0.0733154 -0.065874 0.0930111 -0.0445919 -0.200347 0.134573 -0.0540074 -0.090841 0.231049
65 -0.196819 -0.0553977 -0.49643 -0.191822 -0.00707722 -0.32657 -0.0106575 0.147022 0.129583 0.116682 0.347626 -0.0465956 0.0898617 -0.12467 0.0271525 -0.263634 -0.173025 -0.00330358 0.188014 0.187396 0.276257 -0.0314989 -0.0828916 -0.173493 0.412526 -0.031577 0.148796 0.0954779 0.275292 0.0349184 0.153599 -0.220361 0.0461517 -0.132506 0.369064 0.268031 0.0885803 0.215031 0.117991 -0.0561593 -0.380967 0.3774 -0.0534738 0.0111257 0.124625 -0.193621 0.249161 0.261179 0.200339 -0.0115997 -0.00426939 -0.183922 0.212643 0.280251 -0.286921 0.0110887 0.116071 0.289961 -0.282578 -0.137142 -0.166867 0.0853902 0.148648 -0.0528367 -0.313653 -0.0488306 0.0212187 0.0283882 0.00520501 -0.0612606 -0.53495 0.231851 0.0737374 0.383355 -0.107748 -0.0862574 0.0513772 -0.140627 0.360274 -0.126663 0.389523 -0.353628 -0.395046 -0.16515 0.371124 -0.262796 -0.25091 0.218755 0.387116 -0.559817 -0.422712 -0.0283531 -0.174543 0.0104725 -0.27091 0.177011 -0.0127444 0.227748 -0.1917 -0.516665 -0.0843674 0.114578 0.182919 -0.0401126 0.105198 0.333284 0.247257 0.274933 -0.0276981 0.263008 -0.0382483 -0.121906 -0.277703 0.200954 -0.0167666 0.101223 -0.29506 -0.470664 -0.326644 -0.0901593 -0.0135813 0.161993 -0.0702137 -0.250492 0.122445 -0.0806036 -0.0709951 0.250684
66 -0.237114 -0.0674599 -0.43457 -0.101421 -0.0601027 -0.120337 0.0548918 0.216507 0.137794 0.0807138 0.241314 -0.051138 0.21096 -0.232637 0.0819918 -0.248546 -0.124 -0.0648666 -0.0527639 0.171796 0.2084 -0.075629 0.00583407 -0.1477 0.346025 0.0888722 0.0479172 -0.0120514 0.363638 0.132825 0.191902 -0.223398 0.0599803 -0.167273 0.42924 0.192491 0.082318 0.106164 0.079077 -0.0789276 -0.410427 0.332215 -0.0385602 0.0110904 0.12933 -0.231251 0.251398 0.279255 0.33056 -0.0265075 0.0681959 -0.201766 0.148351 0.236493 -0.310214 0.0184791 0.174409 0.412588 -0.419556 0.000849075 -0.130676 0.151994 0.160274 -0.048791 -0.338485 0.0555433 0.0489434 0.158452 0.0590239 0.087306 -0.636595 0.315165 0.20775 0.373979 -0.0889817 -0.0841162 -0.115944 -0.0944827 0.414626 -0.107146 0.428224 -0.376746 -0.295547 -0.141597 0.281166 -0.241288 -0.0900519 0.25065 0.521337 -0.505899 -0.47402 0.147358 -0.194528 0.0945041 -0.314746 0.189402 -0.0564582 0.302628 -0.0890295 -0.532922 -0.0788286 0.138259 0.27825 0.023062 0.18129 0.4157 0.222867 0.164546 0.182928 0.159375 0.0331218 -0.203044 -0.184172 0.174386 -0.145244 -0.00777057 -0.326572 -0.454206 -0.410354 -0.145791 0.12997 0.297418 -0.0326147 -0.289025 0.0326028 -0.0801521 0.0402576 0.226204
68 -0.24611 -0.0741403 -0.422117 -0.0608419 -0.0829607 -0.0228454 0.0749527 0.258433 0.137363 0.0592615 0.173588 -0.0637619 0.294303 -0.25666 0.0739105 -0.241081 -0.109063 -0.0646712 -0.150035 0.151496 0.170052 -0.107578 0.0309293 -0.163534 0.33874 0.191644 0.00949779 -0.0577902 0.419116 0.190494 0.21643 -0.242433 0.0812813 -0.1851 0.43592 0.148178 0.0718471 0.0650557 0.061399 -0.0886983 -0.454702 0.341782 -0.0256073 0.0120199 0.142641 -0.27948 0.24447 0.28312 0.430056 -0.0627168 0.0811184 -0.157272 0.126578 0.216994 -0.327271 0.0217904 0.240393 0.472729 -0.505387 0.0315455 -0.145976 0.180858 0.188547 -0.0489021 -0.342374 0.121658 0.0799684 0.215802 0.101671 0.179796 -0.72909 0.384916 0.254228 0.368952 -0.105486 -0.0791174 -0.218671 -0.10157 0.425202 -0.0799946 0.417337 -0.418881 -0.233104 -0.128365 0.223301 -0.254698 -0.0260972 0.255989 0.595803 -0.496644 -0.496337 0.249872 -0.199435 0.156151 -0.355902 0.201125 -0.0689179 0.334176 -0.0199615 -0.548546 -0.066831 0.19381 0.309683 0.0993418 0.244681 0.4451 0.170538 0.112654 0.300329 0.146165 0.0875406 -0.250343 -0.149924 0.154834 -0.176186 -0.0727309 -0.356294 -0.459869 -0.447662 -0.189814 0.197503 0.354954 0.0161686 -0.302397 -0.0129785 -0.108117 0.11511 0.21943
69 -0.253744 -0.0847766 -0.431346 -0.0338064 -0.124285 0.129521 0.0956105 0.306969 0.138077 0.0490779 0.118109 -0.072807 0.423749 -0.31263 0.0719339 -0.248505 -0.110652 -0.124363 -0.290491 0.107443 0.115806 -0.177905 0.0790345 -0.185065 0.33757 0.30701 -0.0232149 -0.10782 0.517019 0.277135 0.229574 -0.251803 0.0956786 -0.240642 0.466272 0.135564 0.0891302 0.0409961 0.0537318 -0.111507 -0.513664 0.379334 -0.0140273 0.0280595 0.173508 -0.347652 0.260075 0.307218 0.574184 -0.0791199 0.112807 -0.133222 0.0951955 0.195606 -0.353553 0.0214515 0.33621 0.564265 -0.613998 0.132875 -0.163245 0.233715 0.232648 -0.0486607 -0.363362 0.203583 0.138597 0.276559 0.152441 0.309877 -0.887372 0.457546 0.338951 0.375469 -0.120976 -0.0542604 -0.354477 -0.107892 0.428259 -0.0476747 0.450652 -0.498293 -0.136407 -0.118784 0.174135 -0.270052 0.0469815 0.283108 0.720094 -0.506532 -0.553292 0.42136 -0.227731 0.242661 -0.406937 0.226939 -0.109264 0.394189 0.0887498 -0.591635 -0.0635331 0.25564 0.408137 0.195697 0.306153 0.477587 0.108257 0.0125597 0.439845 0.0915708 0.152304 -0.318429 -0.057842 0.160673 -0.251579 -0.133677 -0.43481 -0.507159 -0.539944 -0.278665 0.316175 0.42457 0.0641465 -0.32586 -0.0680459 -0.116807 0.187248 0.237584
63 -0.129688 -0.029773 -0.50795 -0.221555 0.00724296 -0.383861 -0.00748117 0.0856778 0.101869 0.14713 0.396413 -0.058805 0.0365043 -0.026675 -0.020445 -0.282441 -0.203056 0.0324828 0.299724 0.162237 0.273713 -0.0222201 -0.132395 -0.187466 0.431845 -0.0574255 0.182448 0.143538 0.233631 -0.0213322 0.120939 -0.197355 0.0585403 -0.126201 0.308852 0.287409 0.0717455 0.284674 0.137208 -0.0394008 -0.395424 0.414555 -0.0755267 0.0292089 0.124187 -0.159177 0.210671 0.234111 0.142685 0.00953973 -0.0434817 -0.143377 0.226016 0.313968 -0.279817 -0.00990419 0.125639 0.252673 -0.229693 -0.199567 -0.198989 0.0631739 0.14622 -0.0719295 -0.302969 -0.108387 0.0197714 -0.0332532 -0.0191545 -0.0996255 -0.52739 0.179964 0.017245 0.37967 -0.134445 -0.0958942 0.0934628 -0.189185 0.32025 -0.115642 0.351331 -0.358689 -0.414701 -0.158635 0.390056 -0.244628 -0.321874 0.216746 0.304558 -0.550776 -0.383026 -0.0664823 -0.175067 0.0141724 -0.247105 0.197605 -0.0152606 0.196533 -0.204034 -0.51811 -0.0979746 0.138929 0.151988 -0.0366793 0.0796171 0.280718 0.208903 0.29134 -0.0919041 0.298436 -0.0557699 -0.0832899 -0.275467 0.219863 0.0417408 0.149617 -0.269921 -0.469279 -0.31012 -0.0937748 -0.0650753 0.0821102 -0.061818 -0.227086 0.149458 -0.0812718 -0.10949 0.266844
193 0.0792711 0.101575 0.103469 0.263142 -0.0662015 -0.0837414 -0.264929 -0.0807556 -0.0154934 0.000223857 0.317479 0.0207232 -0.250041 0.00742844 -0.427545 -0.00973584 0.0382196 -0.261122 0.068373 0.299067 0.225352 -0.263236 -0.0911421 -0.0862442 -0.124662 0.199656 0.153348 0.140888 0.175184 0.119727 -0.496658 0.0102798 0.182758 0.206545 -0.291578 0.241795 -0.411655 0.185303 -0.125703 -0.337215 -0.285325 0.580017 0.2183 0.233428 -0.473208 -0.0087794 -0.0352929 0.304826 0.19069 0.111224 0.0216783 0.32615 -0.262212 0.431387 -0.246908 -0.360054 0.306663 0.131665 -0.507825 0.283672 -0.164225 0.196205 -0.29079 -0.116977 0.246356 0.221059 0.277332 0.135637 -0.151499 0.0957101 -0.734444 -0.0157187 -0.155133 0.479841 -0.356181 0.045259 0.0429714 -0.354894 0.0652537 0.174613 0.318484 -0.0653821 -0.0687072 -0.118608 -0.0251244 -0.0944988 -0.0357205 0.290908 0.108191 -0.230246 -0.0973473 0.202098 -0.210251 0.00464968 -0.348561 0.144419 -0.281851 0.0653046 0.111143 0.00288637 -0.103339 0.0302125 0.0929606 0.123481 0.237824 -0.118398 -0.391325 0.127738 0.162591 0.37558 -0.165176 0.189543 0.451322 0.300018 0.307552 -0.0803657 -0.0142281 -0.426345 0.0234187 -0.275574 -0.100143 0.129949 0.340841 -0.211783 0.381949 0.0045944 -0.194834 0.0323061
192 0.105734 0.105113 0.0876158 0.266751 -0.0794081 -0.104914 -0.288641 -0.0770591 -0.0212505 0.00852814 0.365509 0.00980041 -0.267352 0.0147123 -0.472902 -0.00406942 0.0312134 -0.290067 0.0680201 0.320073 0.247687 -0.301401 -0.0840015 -0.125654 -0.128689 0.224275 0.166167 0.169013 0.197084 0.141433 -0.548369 0.0113239 0.209093 0.227048 -0.317899 0.282334 -0.446368 0.219139 -0.150034 -0.363104 -0.324605 0.646718 0.248085 0.271192 -0.525763 -0.0136875 -0.0308316 0.346295 0.21173 0.123491 0.0313066 0.369567 -0.282634 0.477714 -0.28169 -0.388314 0.337466 0.15553 -0.565452 0.300712 -0.17792 0.217476 -0.29787 -0.122415 0.263745 0.245854 0.302157 0.159271 -0.17052 0.100697 -0.806919 -0.00573023 -0.180742 0.530157 -0.386668 0.0397638 0.0533207 -0.399892 0.0794596 0.180633 0.339736 -0.0630726 -0.0815323 -0.131537 -0.0281817 -0.107881 -0.0456802 0.304136 0.123269 -0.267295 -0.11314 0.224584 -0.228087 0.00935993 -0.386408 0.150088 -0.316618 0.0637286 0.115579 -0.00712037 -0.109802 0.0377869 0.0984414 0.132102 0.257544 -0.129006 -0.429335 0.139689 0.18034 0.423968 -0.167543 0.200453 0.482808 0.335204 0.335829 -0.0983884 -0.0312085 -0.48165 0.0280698 -0.294033 -0.104862 0.139599 0.389742 -0.213951 0.432428 0.00244194 -0.203578 0.0336667
191 0.131768 0.186616 -0.00701443 0.276112 -0.11663 -0.0202456 -0.301477 -0.0789293 0.0348565 0.0792407 0.323055 -0.0272862 -0.229211 0.0147866 -0.509027 -0.00180606 0.0401865 -0.221158 0.0500661 0.316386 0.352942 -0.217305 -0.0321667 -0.163325 -0.111741 0.282748 0.158328 0.224289 0.244828 0.110967 -0.613336 0.0304711 0.206644 0.250716 -0.341413 0.329419 -0.399336 0.230345 -0.174013 -0.406919 -0.315901 0.631978 0.277861 0.210167 -0.458579 0.0381635 -0.0344779 0.379553 0.191094 0.149252 0.0846448 0.390111 -0.29939 0.446718 -0.239909 -0.354275 0.293961 0.107887 -0.552305 0.232338 -0.102949 0.265413 -0.216647 -0.0753185 0.203953 0.165417 0.27395 0.241069 -0.125686 0.102866 -0.800843 0.0398329 -0.230504 0.52618 -0.419253 0.111563 -0.00915988 -0.403111 0.120385 0.174037 0.298661 -0.0424961 -0.11182 -0.138858 -0.0627125 -0.120344 -0.0962894 0.214899 0.128427 -0.293091 -0.115009 0.304131 -0.209998 -0.0199118 -0.420017 0.149401 -0.303864 0.0740757 0.0304252 0.0169851 -0.0266856 0.00385964 0.0726282 0.20415 0.192014 -0.0986517 -0.482041 0.116983 0.217253 0.429979 -0.00247772 0.203669 0.368579 0.333479 0.290036 -0.134325 -0.0747385 -0.506286 0.077648 -0.294306 -0.00739287 0.149451 0.347481 -0.169517 0.417544 0.0176052 -0.0897965 0.0683228
16 0.339335 0.253684 -0.512214 -0.148565 -0.13557 0.0617364 -0.14957 -0.0501312 -0.0886062 0.142853 0.354556 -0.191882 -0.08355 0.243386 -0.269466 -0.193391 0.0688034 0.0633864 0.450992 0.0199522 0.105788 0.110612 -0.2347 0.133249 0.395483 0.192397 0.0152249 0.040175 0.38519 0.0601371 0.0271771 -0.108069 0.191529 -0.123337 -0.0866417 0.199827 -0.0244253 0.512307 -0.129137 -0.274264 -0.313809 0.472519 0.368575 0.0834548 -0.217441 0.13668 -0.0541677 0.0617221 0.0960409 0.160793 -0.024131 0.0744924 0.16587 0.220194 0.00266085 -0.339879 0.346258 0.232182 -0.319193 0.0920467 -0.234305 0.0926476 -0.202847 0.0270556 0.100104 -0.0790992 0.187372 0.0422515 0.242418 0.1158 -0.665804 0.164144 -0.148935 0.151476 -0.152912 0.0924989 -0.293603 -0.296145 0.266961 0.392005 0.138787 -0.17421 -0.125665 0.0719629 0.274857 0.0790694 -0.352874 0.36053 -0.188285 -0.264299 -0.0474181 0.250321 -0.116023 0.2718 -0.0795539 0.194966 -0.304646 0.129143 0.144626 -0.214545 -0.0150799 0.224981 0.121464 0.300648 0.127734 0.167331 0.0198985 -0.0333501 0.153533 0.138068 0.0832156 -0.0377637 0.12781 0.340261 0.113836 -0.011715 -0.119024 -0.102295 -0.3502 -0.0121694 -0.126406 0.075938 0.110981 -0.108941 0.215596 0.0706653 0.321607 0.1445
15 0.345692 0.239208 -0.51352 -0.162005 -0.127852 0.0447735 -0.138396 -0.0492381 -0.0897288 0.129631 0.389744 -0.172325 -0.0728175 0.278397 -0.279143 -0.208392 0.0718016 0.0791161 0.449827 0.0156329 0.106754 0.10708 -0.232309 0.128276 0.418899 0.216914 0.0146909 0.0395469 0.405428 0.0732461 0.0273799 -0.103661 0.188552 -0.137882 -0.0894995 0.226622 -0.0370729 0.532379 -0.131421 -0.281051 -0.327183 0.506324 0.372439 0.0975724 -0.243342 0.117558 -0.0313555 0.0644588 0.127169 0.173766 -0.0379535 0.0832878 0.178154 0.263795 -0.0144014 -0.337325 0.360828 0.262655 -0.354661 0.0814591 -0.25802 0.108515 -0.20153 0.0099869 0.113134 -0.0660436 0.190115 0.0496113 0.225441 0.119714 -0.725391 0.171511 -0.1346 0.152185 -0.156091 0.0893773 -0.282602 -0.297816 0.27528 0.4062 0.129958 -0.19239 -0.134582 0.0771551 0.28466 0.0789926 -0.37156 0.364811 -0.163142 -0.270134 -0.0528652 0.266834 -0.126909 0.28084 -0.0817811 0.2129 -0.330875 0.149193 0.130909 -0.227266 -0.0372475 0.248346 0.128118 0.315435 0.144141 0.178995 0.0346902 -0.0180774 0.142637 0.13884 0.0829063 -0.0384059 0.13713 0.359061 0.130337 -0.0133683 -0.134851 -0.121956 -0.350553 -0.0183874 -0.132711 0.0816064 0.126872 -0.10283 0.217406 0.0727165 0.328699 0.149125
17 0.377018 0.261816 -0.51493 -0.184441 -0.121399 0.0215183 -0.0973225 -0.0650749 -0.109746 0.144046 0.426866 -0.169406 -0.0652143 0.30686 -0.285797 -0.203172 0.0919351 0.0954715 0.468705 -0.00233117 0.0968003 0.12525 -0.253014 0.141828 0.444302 0.207461 0.0161029 0.0513491 0.394886 0.0660175 0.0635642 -0.11518 0.171847 -0.150077 -0.113964 0.254087 -0.060855 0.580621 -0.130588 -0.297328 -0.364794 0.531468 0.426242 0.127541 -0.273865 0.125717 -0.0169977 0.0318553 0.128082 0.189275 -0.041709 0.0775294 0.182827 0.28469 -0.015275 -0.343369 0.36598 0.30676 -0.378942 0.0614269 -0.316488 0.109254 -0.246531 -0.0141937 0.118919 -0.0697684 0.190428 0.0584853 0.215016 0.110611 -0.792048 0.157355 -0.139261 0.160888 -0.131915 0.103014 -0.283234 -0.328048 0.314748 0.417669 0.143378 -0.187688 -0.157362 0.0844801 0.306028 0.082 -0.424433 0.399916 -0.21036 -0.249942 -0.0538263 0.260323 -0.139117 0.327225 -0.063404 0.249621 -0.348692 0.143018 0.111445 -0.238594 -0.0507817 0.273136 0.113924 0.320365 0.166062 0.204221 0.0686819 -0.0180035 0.122724 0.153142 0.0797168 -0.027663 0.147881 0.389032 0.119023 -0.00214785 -0.101897 -0.0774307 -0.36673 -0.0131193 -0.157749 0.0981468 0.154361 -0.112762 0.216835 0.0752958 0.356938 0.169289
18 0.382168 0.187315 -0.427025 -0.201965 -0.0403396 -0.0516048 0.0565162 -0.119493 -0.165452 0.0933128 0.464042 -0.0500128 0.0111758 0.399506 -0.266258 -0.183318 0.128649 0.178198 0.344487 -0.00816994 0.0563933 0.0899194 -0.189244 0.123419 0.448686 0.228071 0.023698 0.0645535 0.287586 0.0532301 0.128707 -0.139439 0.0746012 -0.139775 -0.20318 0.325396 -0.137763 0.572882 -0.0793551 -0.258289 -0.377336 0.541391 0.436989 0.182874 -0.351067 0.0613142 0.0622602 -0.0496642 0.209082 0.212928 -0.0596614 0.0866042 0.174305 0.401889 -0.0389441 -0.261152 0.343038 0.362163 -0.440356 -0.043442 -0.416133 0.146666 -0.228991 -0.0825794 0.160582 -0.00920418 0.144729 0.0886115 0.119185 0.0543841 -0.885037 0.0971111 -0.03305 0.109974 -0.0658914 0.103783 -0.153015 -0.255357 0.334932 0.343681 0.110898 -0.205485 -0.175742 0.11306 0.273795 0.0255704 -0.454479 0.377016 -0.167055 -0.153001 -0.0286291 0.236543 -0.171334 0.343687 -0.034259 0.329165 -0.371892 0.189309 -0.0176608 -0.241863 -0.154052 0.323362 0.0688497 0.315838 0.258865 0.232119 0.109491 -0.00608829 0.0175118 0.142262 0.117127 -0.030782 0.136874 0.437383 0.0939601 0.000997404 -0.0917905 -0.0485706 -0.255108 -0.00857128 -0.181183 0.134634 0.218621 -0.0525318 0.146291 0.064992 0.365828 0.136991
163 0.321343 0.0329653 -0.13974 -0.139625 0.052494 0.00100481 -0.317259 -0.165978 0.161904 0.276773 0.0838246 0.0487262 0.109086 0.227538 -0.132167 -0.222914 -0.0897764 -0.00583902 0.440473 -0.0431641 0.459022 -0.313368 0.0579926 -0.0545485 0.310097 0.0798638 0.0990549 -0.121527 0.193224 0.0396339 -0.0486628 0.0523742 0.0774151 -0.00111126 -0.279144 0.0900469 -0.371282 0.0373772 0.19937 0.00758604 -0.41798 0.713236 -0.186988 -0.284597 0.133131 -0.00211589 -0.291748 -0.0560288 0.0980656 0.249136 0.112005 0.217097 -0.445898 0.126739 -0.32992 -0.258932 0.179509 0.0825554 -0.186299 0.0647936 -0.14703 0.381202 0.0744962 0.0649797 -0.0631281 -0.260492 0.136042 0.087692 0.238557 0.223014 -0.532832 0.0790436 0.469111 0.0179877 -0.0780603 0.340532 -0.0255335 -0.152459 0.170691 0.334673 -0.0855506 -0.299179 0.210852 0.0915654 0.609867 -0.068766 -0.371585 0.143163 0.248028 -0.164163 -0.13176 0.375674 -0.0801951 -0.13002 -0.0660889 0.34143 -0.368456 -0.027602 0.23077 -0.135954 0.039175 -0.0206829 0.223194 0.0143211 0.250464 -0.126478 0.0452625 0.182697 0.0830946 -0.0795578 0.0636113 -0.0433127 0.549051 0.381897 0.120147 -0.0914028 -0.349736 -0.19783 -0.198585 -0.339623 0.0698411 0.279847 0.0140051 -0.0544781 0.00228935 0.0301052 0.221815 0.0461157
