300 128
120 0.0439874 0.374829 0.0378001 0.19506 -0.254791 -0.560172 0.295911 0.0174087 0.216656 0.0601548 -0.197679 0.210063 0.172816 -0.631958 0.00325357 0.149032 0.0206181 -0.094306 -0.162774 -0.115708 0.199003 0.190216 0.181746 0.105225 0.300647 0.0824355 -0.127033 0.231597 0.371287 -0.209609 0.708165 0.0347523 -0.371546 0.137759 -0.124869 0.0433927 -0.122432 -0.0702132 -0.613208 -0.138685 0.236465 0.229178 -0.00728677 -0.577178 -0.132578 0.0898082 -0.135218 0.0155635 0.0593293 -0.00471235 0.2078 0.117231 0.210775 0.216137 -0.00418038 -0.169186 -0.0767506 0.110974 0.379778 -0.0820531 0.375988 -0.0483394 -0.191928 0.142256 0.0511426 -0.212174 0.133 0.400621 0.251468 0.053136 -0.172867 -0.330168 -0.104782 0.30112 -0.465236 -0.00856879 0.335977 0.215518 0.332069 -0.402814 -0.0176435 0.28838 -0.268886 0.0323824 -0.201439 -0.137459 -0.286692 -0.181824 -0.0351695 -0.237206 -0.449663 0.0590261 -0.0380633 0.0682321 0.175554 0.258452 0.0527466 0.368757 0.169395 0.068154 -0.154178 -0.283468 0.249529 -0.210366 -0.0224171 0.0457618 -0.346734 -0.383542 0.0989298 -0.181821 -0.284908 -0.351226 -0.320902 -0.136976 0.0323321 -0.0789744 -0.29921 0.168665 -0.0268804 -0.294157 -0.0691308 0.410535 -0.0966546 0.307865 -0.324419 0.290378 -0.238659 -0.0211537
121 0.0370298 0.361689 0.0131415 0.185027 -0.240049 -0.526007 0.264966 0.0215824 0.211144 0.098863 -0.218982 0.196371 0.152763 -0.590844 0.02657 0.13285 0.0412131 -0.0902428 -0.184684 -0.0971713 0.16895 0.185279 0.174085 0.089443 0.271294 0.091749 -0.129385 0.208521 0.339458 -0.191717 0.67017 0.0263746 -0.356159 0.133304 -0.154388 0.0615278 -0.101589 -0.0892941 -0.549317 -0.124028 0.209639 0.257853 -0.0452136 -0.565255 -0.0820261 0.0773667 -0.0926102 -0.00158919 0.0547175 -0.0231727 0.154786 0.0993353 0.22509 0.195429 -0.0414749 -0.164188 -0.103815 0.0915931 0.348527 -0.0309804 0.378253 -0.0901374 -0.155513 0.151762 0.0542308 -0.19168 0.151134 0.41368 0.211924 0.0709376 -0.158583 -0.325625 -0.0795979 0.283107 -0.442547 -0.00359059 0.302738 0.204928 0.320804 -0.402081 0.0140447 0.263165 -0.261082 0.0152245 -0.195107 -0.117833 -0.279475 -0.127793 -0.0245924 -0.221685 -0.388507 0.0424449 -0.0373147 0.0848952 0.170375 0.246767 0.0864359 0.382789 0.151414 0.059886 -0.141062 -0.260178 0.22619 -0.246646 -0.0251561 0.0397577 -0.327681 -0.399089 0.111468 -0.164459 -0.270777 -0.284666 -0.297847 -0.173523 0.0671882 -0.0971329 -0.286546 0.178884 -0.010145 -0.282975 -0.0713857 0.392287 -0.0577108 0.313888 -0.27963 0.279462 -0.258124 -0.0347457
122 0.0330169 0.404613 0.00774111 0.182119 -0.277788 -0.596146 0.29959 0.0351802 0.257895 0.116338 -0.245679 0.247873 0.17381 -0.642141 0.0372334 0.143496 0.0429153 -0.091787 -0.189757 -0.0987114 0.176405 0.213902 0.228841 0.10893 0.313931 0.106805 -0.15963 0.227999 0.364255 -0.230607 0.759609 0.0336962 -0.400057 0.133685 -0.179721 0.061373 -0.118322 -0.103133 -0.595492 -0.141452 0.239014 0.294613 -0.0697732 -0.612638 -0.0641737 0.0760351 -0.101692 0.00411871 0.071001 -0.0316801 0.16436 0.0908042 0.261906 0.216537 -0.0728929 -0.17522 -0.129285 0.0760169 0.40247 -0.0274028 0.416197 -0.109272 -0.157521 0.176293 0.0582194 -0.20324 0.163473 0.476629 0.230236 0.0973291 -0.185777 -0.388595 -0.0863785 0.314209 -0.489482 -0.0176894 0.339782 0.228814 0.331422 -0.460015 0.023293 0.291937 -0.255148 0.00489684 -0.219507 -0.110473 -0.31886 -0.140833 -0.0161916 -0.23091 -0.415381 0.0469563 -0.0414744 0.0996001 0.188911 0.270125 0.108209 0.441565 0.157673 0.0598977 -0.143777 -0.293811 0.243458 -0.300114 -0.0368875 0.0427969 -0.344521 -0.455579 0.14342 -0.172174 -0.307686 -0.306226 -0.31869 -0.206419 0.0867091 -0.116193 -0.330027 0.187373 -0.0211325 -0.321606 -0.0639078 0.423727 -0.017604 0.337881 -0.290398 0.300465 -0.302609 -0.0489132
119 0.127703 0.357896 0.128809 0.194354 -0.277175 -0.552184 0.30133 0.0215886 0.173709 -0.0492914 -0.123176 0.163961 0.178369 -0.652585 -0.0295621 0.17298 -0.0146293 -0.0682963 -0.0867998 -0.114987 0.215504 0.207424 0.142331 0.0990579 0.285131 0.0351216 -0.0565732 0.25274 0.30684 -0.187649 0.699933 0.0685821 -0.313466 0.126849 -0.061335 0.0453737 -0.111265 -0.0407708 -0.598613 -0.132823 0.247359 0.118341 0.128517 -0.484417 -0.22059 0.127162 -0.2132 0.0717269 0.0346643 0.0189988 0.246912 0.122947 0.132036 0.220257 0.12338 -0.149873 0.00713324 0.130737 0.410821 -0.169566 0.307613 0.0741368 -0.185788 0.0635422 0.0234455 -0.214188 0.0195165 0.316157 0.287028 0.013153 -0.18298 -0.284225 -0.157397 0.294139 -0.386576 -0.0322244 0.368196 0.184156 0.262753 -0.293571 -0.112537 0.290187 -0.268106 0.0386435 -0.192224 -0.182831 -0.218756 -0.228153 -0.0908217 -0.227196 -0.549707 0.128227 -0.0145356 0.023092 0.151075 0.244184 -0.09804 0.279879 0.174167 0.0726919 -0.0876647 -0.297107 0.263403 -0.0631169 -0.0561519 0.0454945 -0.356176 -0.259728 0.0336486 -0.190328 -0.220075 -0.467708 -0.259806 -0.0262544 -0.0491229 -0.0467906 -0.250789 0.142945 -0.0628668 -0.222682 0.0289921 0.405659 -0.184711 0.235967 -0.336984 0.258276 -0.140794 0.00434424
50 0.0176882 0.102924 0.182613 0.592446 0.325915 0.00899043 0.261738 0.156307 0.104083 0.483536 0.228166 0.260257 0.0872454 -0.463983 -0.627402 0.0406122 -0.0471716 -0.119555 -0.244739 -0.0277146 -0.328931 -0.0217181 -0.0911864 -0.335239 0.241822 -0.0375338 -0.282349 0.230398 0.260931 0.361088 0.0610311 -0.268511 -0.705 0.849704 -0.109469 0.246549 -0.322568 0.167422 -0.765697 -0.21101 -0.0489685 -0.296473 0.0161151 -0.171548 0.13573 0.583813 0.223466 0.0862048 -0.114922 -0.0456161 0.420225 0.149039 0.0280902 0.350466 0.0948814 0.00836812 0.341034 0.44787 0.0134066 -0.122895 -0.129214 0.567335 0.254565 -0.161851 0.179806 -0.209305 -0.224271 0.0686883 0.53897 0.0936722 -0.185115 -0.235293 -0.0694857 -0.118095 -0.25132 0.185401 -0.0890046 0.395963 0.255132 0.100734 0.28105 -0.0832353 -0.335412 0.253217 0.345138 0.172063 -0.19936 0.0171639 0.027935 -0.0320332 -0.09898 -0.229741 -0.196844 -0.131021 0.225954 0.854585 0.494132 -0.28079 0.0774099 0.0235798 -0.424708 -0.131147 0.31394 -0.0935197 0.247975 0.321924 0.081027 -0.213191 -0.19643 -0.215372 0.105101 -0.0688038 -0.284527 0.17862 -0.108591 0.0836489 -0.332516 0.460954 -0.149961 -0.178125 -0.232533 0.106133 -0.327795 0.0445952 -0.168329 0.252527 -0.0222822 -0.154236
51 -0.0440312 0.088925 0.21271 0.613814 0.290122 0.0905936 0.271344 0.145928 0.131408 0.437521 0.21015 0.215405 0.124483 -0.421821 -0.593905 0.0875165 -0.0361052 -0.142213 -0.241555 0.0184088 -0.366953 -0.0758205 -0.120909 -0.310313 0.262128 -0.0208213 -0.298569 0.202809 0.227612 0.424944 0.0752567 -0.185104 -0.65527 0.780227 -0.172935 0.296617 -0.311444 0.112318 -0.781223 -0.225439 -0.0585852 -0.299206 -0.0394338 -0.185957 0.116668 0.565538 0.216593 0.140137 -0.104727 -0.0382125 0.388413 0.181708 -0.00481979 0.331317 0.0716279 -0.0170604 0.203451 0.452046 0.0151151 -0.144551 -0.167217 0.502081 0.2442 -0.169931 0.146437 -0.0957918 -0.167525 0.0766387 0.538669 0.0853883 -0.166987 -0.222067 -0.11173 -0.112345 -0.222112 0.239755 -0.0950376 0.468813 0.283985 0.156812 0.263787 -0.124007 -0.390321 0.302227 0.314593 0.0883577 -0.174917 0.116293 -0.0386684 -0.0343943 -0.104586 -0.219922 -0.166716 -0.115436 0.278292 0.829598 0.492526 -0.175625 0.00376785 -0.00779852 -0.471905 -0.0853332 0.28643 -0.112191 0.238841 0.328265 0.057971 -0.251861 -0.24702 -0.215939 0.15049 -0.067598 -0.253066 0.114726 -0.111798 0.0846268 -0.351582 0.476821 -0.13708 -0.160605 -0.178692 0.108283 -0.305926 -0.00874943 -0.14208 0.257382 -0.0308639 -0.160512
49 0.0247618 0.0850707 0.126025 0.480118 0.295813 0.000553702 0.228282 0.110253 0.0474713 0.422054 0.191782 0.216186 0.0579035 -0.388521 -0.552298 0.0156508 -0.0508642 -0.0815139 -0.180814 -0.0257953 -0.252022 0.00173764 -0.0673948 -0.306439 0.177863 -0.020626 -0.229452 0.181688 0.208823 0.281217 0.0303625 -0.252427 -0.593734 0.745835 -0.0778661 0.196104 -0.285762 0.151672 -0.605296 -0.183079 -0.0432228 -0.250415 0.0381238 -0.107694 0.1176 0.479899 0.175862 0.0632858 -0.0975483 -0.060628 0.362142 0.0986907 0.0370351 0.316454 0.0689389 0.0172274 0.342225 0.345274 -0.0130842 -0.0856918 -0.0970833 0.479626 0.238351 -0.14214 0.161506 -0.183378 -0.202278 0.064163 0.438661 0.104381 -0.167099 -0.212793 -0.0211399 -0.109945 -0.19652 0.121614 -0.0888433 0.310877 0.170914 0.0646138 0.235295 -0.0772648 -0.242124 0.173084 0.305374 0.176516 -0.164273 0.00888722 0.0494612 -0.0442425 -0.0739874 -0.19709 -0.147542 -0.116145 0.180735 0.694271 0.414267 -0.262749 0.0764947 0.0485904 -0.328501 -0.130178 0.24835 -0.0558025 0.22317 0.290568 0.0632076 -0.174831 -0.135975 -0.157659 0.0805101 -0.0298676 -0.222861 0.189729 -0.080902 0.0733315 -0.243627 0.384742 -0.10673 -0.152809 -0.211065 0.0560443 -0.266631 0.0437731 -0.131744 0.202942 -0.00835227 -0.136532
48 0.0691996 0.097842 0.112624 0.519996 0.354012 -0.0478429 0.257482 0.114196 0.0412713 0.495914 0.233348 0.264153 0.0489327 -0.460943 -0.640244 0.00210134 -0.0649947 -0.0654919 -0.214832 -0.0395957 -0.25946 0.0210669 -0.0487485 -0.376888 0.216727 -0.0209571 -0.262892 0.222542 0.256706 0.283167 0.0320488 -0.306979 -0.697694 0.887596 -0.0570927 0.205514 -0.341214 0.191548 -0.669094 -0.203175 -0.0662261 -0.272485 0.0968905 -0.11356 0.120473 0.56015 0.188132 0.0279163 -0.117878 -0.0675346 0.416461 0.0643847 0.0572519 0.368182 0.0775806 0.0449313 0.47034 0.408602 -0.0116581 -0.0874178 -0.0881561 0.574944 0.262501 -0.155361 0.196225 -0.247557 -0.251326 0.096989 0.505272 0.15832 -0.218736 -0.24227 0.035227 -0.131257 -0.2537 0.112301 -0.0979916 0.323137 0.188215 0.0391437 0.264967 -0.0544649 -0.226633 0.14835 0.365991 0.2327 -0.192684 -0.0418673 0.101477 -0.063268 -0.114999 -0.234417 -0.188703 -0.140088 0.198286 0.810903 0.468694 -0.379061 0.130423 0.0739797 -0.349443 -0.173696 0.277359 -0.0621984 0.250178 0.331936 0.0779069 -0.182349 -0.111753 -0.156659 0.0938799 -0.0663996 -0.274386 0.262139 -0.0953879 0.0924123 -0.249565 0.43209 -0.130693 -0.175564 -0.282921 0.0587076 -0.313671 0.0911147 -0.170274 0.228769 -0.0038445 -0.13383
200 0.0966238 0.00084404 0.197503 0.0113536 -0.020653 -0.00694107 -0.0773819 0.0830896 0.018061 0.352933 0.0563065 0.0098268 -0.00416832 -0.304566 -0.194839 0.20727 0.238928 0.00929753 -0.0607989 -0.42554 0.135635 0.299751 0.165864 0.401808 -0.0387334 0.21963 0.0645655 0.34135 -0.0202711 0.202994 0.337811 -0.673725 -0.066538 0.481428 0.074265 0.112682 0.103227 -0.218307 -0.308013 0.204296 -0.126474 -0.263002 -0.251528 -0.552161 -0.417061 0.118001 0.220942 -0.200115 0.0064509 -0.192213 0.0940126 0.325491 0.281824 0.0050515 0.422144 -0.314336 0.330463 0.227981 0.224709 0.156471 0.41594 0.273229 0.098488 0.103642 0.187815 -0.675925 0.22394 0.120985 0.0643907 -0.185726 -0.0941552 -0.0134527 0.0152135 -0.210648 -0.524118 0.324106 -0.109468 0.108514 0.22946 0.216129 -0.123911 0.318281 -0.318983 0.451589 0.204686 0.034669 -0.0358288 -0.160061 -0.168039 -0.0366753 -0.224462 0.186669 -0.109846 0.389199 -0.0750121 0.55203 -0.123894 0.0417323 0.433892 0.0323829 -0.595382 -0.108253 0.397029 -0.348738 0.269766 -0.255528 0.0122387 0.00110495 0.0479026 -0.689577 -0.0352005 -0.0271549 -0.425478 -0.389142 0.129584 -0.113013 -0.43765 0.125465 0.260765 -0.384167 -0.0105732 0.417001 -0.329944 0.544547 -0.224723 0.06355 -0.125228 -0.110864
198 0.0793566 -0.0516448 0.17043 -0.0535411 -0.0309332 -0.0150096 -0.0704282 0.074508 -0.00744729 0.374637 0.0586535 0.0321563 -0.0214339 -0.256463 -0.152503 0.244034 0.132868 0.0147249 -0.0510551 -0.346745 0.216542 0.248102 0.17251 0.389813 -0.00233043 0.180783 0.0197955 0.372111 -0.0360273 0.105419 0.34937 -0.568135 -0.0410771 0.460894 0.129388 0.103017 0.0528142 -0.162459 -0.272465 0.187093 -0.140686 -0.271855 -0.185916 -0.528397 -0.387168 0.0518424 0.137197 -0.175742 0.0182607 -0.237388 0.0881584 0.332479 0.218683 -0.0224991 0.38313 -0.310873 0.336276 0.199293 0.209224 0.111138 0.389843 0.252749 0.145734 0.0329788 0.0889858 -0.617108 0.217179 0.0796096 0.0478369 -0.146452 -0.055815 -0.0107475 -0.0016538 -0.20724 -0.478155 0.261476 -0.0865136 0.0167791 0.210767 0.216369 -0.169355 0.301556 -0.264265 0.42445 0.192863 0.0428608 -0.0163237 -0.159842 -0.229516 0.0503109 -0.235491 0.166233 -0.155178 0.352414 -0.0802322 0.492716 -0.162427 0.0601878 0.421893 -0.0142697 -0.516219 -0.129105 0.381485 -0.350728 0.171328 -0.297232 0.00208754 -0.0294001 0.0286282 -0.631182 -0.0766713 -0.0227514 -0.432142 -0.449413 0.0731174 -0.100756 -0.405053 0.0866265 0.253897 -0.372749 -0.0361624 0.338912 -0.315015 0.524052 -0.26544 0.0599327 -0.119504 -0.0766644
199 0.0736648 -0.00893531 0.164894 -0.026239 -0.0132645 -0.00310319 -0.0567726 0.0610749 0.00275983 0.317609 0.0402379 0.012174 -0.00344049 -0.257738 -0.150241 0.18958 0.175214 0.0181039 -0.0457215 -0.357368 0.142943 0.245163 0.146307 0.366987 -0.0198231 0.185921 0.0458935 0.311915 -0.0257219 0.147643 0.297821 -0.548769 -0.0468032 0.40318 0.0851936 0.0915902 0.0694717 -0.173425 -0.259773 0.165162 -0.110996 -0.233155 -0.202502 -0.461528 -0.34691 0.0812496 0.17124 -0.171283 0.00332039 -0.178379 0.0681425 0.275112 0.214675 -0.00295604 0.350909 -0.269966 0.2997 0.177416 0.192043 0.134433 0.339537 0.221176 0.107799 0.050495 0.129429 -0.553762 0.182864 0.0847734 0.0502411 -0.149658 -0.0771894 -0.00690029 -0.00147867 -0.189954 -0.440415 0.258258 -0.0776341 0.0702679 0.177195 0.187264 -0.133812 0.270397 -0.257395 0.380776 0.172039 0.0488309 -0.0253696 -0.142233 -0.178686 0.000135014 -0.201692 0.153606 -0.111109 0.314169 -0.054533 0.467159 -0.117162 0.0312602 0.373067 0.00661214 -0.489216 -0.0980729 0.331826 -0.298303 0.211207 -0.248065 0.0150688 -0.00860602 0.0309971 -0.571104 -0.0497382 -0.0135518 -0.384311 -0.363913 0.0919088 -0.0937638 -0.370615 0.106385 0.226482 -0.32981 -0.0143378 0.333722 -0.278373 0.472126 -0.220641 0.0566996 -0.106107 -0.0920915
201 0.12868 0.094085 0.20987 0.0633276 0.00334511 0.00530481 -0.093517 0.0899377 0.0330334 0.300572 0.0451171 -0.00821834 0.0145223 -0.283569 -0.169196 0.11615 0.305659 0.0519361 -0.0434751 -0.459861 0.0902983 0.337197 0.118771 0.38609 -0.0786914 0.219908 0.105596 0.261394 0.00868419 0.243045 0.279496 -0.666419 -0.0567935 0.433868 0.0322761 0.149932 0.113468 -0.266736 -0.252088 0.198133 -0.0515243 -0.23652 -0.266157 -0.478339 -0.393245 0.131186 0.272713 -0.168703 -0.0212894 -0.129492 0.0824276 0.277357 0.256829 0.017221 0.401055 -0.319278 0.283 0.19984 0.202438 0.198813 0.368333 0.261495 0.0870402 0.13056 0.215072 -0.628897 0.175695 0.07314 0.0587297 -0.215148 -0.129677 -0.0126108 0.00183807 -0.17686 -0.44734 0.338611 -0.109903 0.213868 0.185262 0.180326 -0.0999795 0.246289 -0.28564 0.396549 0.230814 0.0578664 -0.0671431 -0.0727632 -0.135796 -0.103701 -0.124958 0.16023 -0.0350385 0.33766 -0.0436431 0.497197 -0.107469 -0.00924405 0.434445 0.0105119 -0.579206 -0.108935 0.336889 -0.294731 0.313511 -0.2223 -0.00889182 0.0608526 0.0813497 -0.609932 0.0321502 0.000457288 -0.297385 -0.272207 0.161668 -0.116568 -0.395302 0.150258 0.233351 -0.331674 0.00959965 0.373645 -0.319238 0.449755 -0.154488 0.0245967 -0.101796 -0.126577
202 0.129843 0.113664 0.190294 0.097782 0.0206415 -0.0241561 -0.094524 0.0941411 0.0533004 0.227807 -0.00063327 -0.011189 0.032048 -0.272859 -0.13466 0.0741299 0.29632 0.0328652 -0.0531676 -0.405744 0.0328238 0.309147 0.0811548 0.307499 -0.0725842 0.180046 0.110121 0.217356 0.0481459 0.232033 0.219203 -0.584561 -0.0719888 0.364239 0.00209552 0.134885 0.0945381 -0.242921 -0.223346 0.172951 -0.0200869 -0.181261 -0.243229 -0.387915 -0.33452 0.165146 0.268393 -0.153921 -0.00858885 -0.0706759 0.0850348 0.226678 0.232928 0.00781732 0.353292 -0.27194 0.224056 0.19832 0.183666 0.173035 0.295905 0.232127 0.0287775 0.128429 0.223691 -0.558603 0.150796 0.0644385 0.0865599 -0.202349 -0.122578 -0.0392657 0.00857788 -0.104642 -0.394726 0.334027 -0.103889 0.22976 0.188284 0.134956 -0.0558152 0.178261 -0.267962 0.345663 0.190582 0.0311485 -0.0903073 -0.0684726 -0.0766778 -0.125197 -0.0812447 0.128222 -0.0229667 0.285763 -0.0264773 0.443335 -0.0806836 -0.0179586 0.365011 0.0252361 -0.508989 -0.0929284 0.274981 -0.242759 0.282055 -0.156423 -0.0219484 0.059334 0.0806403 -0.518745 0.0512736 -0.0129477 -0.228482 -0.192357 0.139207 -0.0757245 -0.33596 0.13401 0.17472 -0.271386 0.0103499 0.346369 -0.263014 0.3692 -0.117792 0.0243856 -0.0695547 -0.103678
197 0.0430613 -0.0654009 0.126585 -0.135119 -0.0549034 -0.092554 -0.059914 0.0895723 -0.0582916 0.382874 -0.0152651 0.0636039 -0.0534594 -0.239511 -0.0597374 0.284443 -0.0493402 0.00530914 -0.0641285 -0.205237 0.288412 0.106365 0.126783 0.322611 0.139438 0.113452 -0.0823198 0.483709 0.0432693 -0.0205066 0.350024 -0.392841 -0.110055 0.420677 0.219736 0.077546 -0.0610926 -0.0632023 -0.237003 0.114785 -0.143495 -0.257974 -0.0941516 -0.481324 -0.344008 0.0664604 0.0456199 -0.148617 0.0437527 -0.267587 0.126437 0.346951 0.124332 -0.103582 0.362026 -0.270654 0.358718 0.262113 0.18299 -0.00789046 0.288292 0.265482 0.179869 -0.0749581 -0.0392998 -0.575345 0.159071 0.0780686 0.122377 -0.0556277 -0.0181359 -0.0584567 -0.0202225 -0.141783 -0.441218 0.25684 -0.0451599 -0.117938 0.254428 0.183321 -0.239459 0.243458 -0.261855 0.397445 0.14628 0.0371644 -0.0414344 -0.225369 -0.238843 0.187304 -0.277779 0.100996 -0.238158 0.266964 -0.0545669 0.430361 -0.110753 0.0195499 0.40505 -0.0918388 -0.431028 -0.183775 0.376192 -0.321398 -0.006198 -0.336306 0.0113146 -0.0730916 -0.0190008 -0.501972 -0.142629 -0.0886305 -0.471829 -0.514308 -0.0562707 -0.0427551 -0.352587 0.00375027 0.176855 -0.386923 -0.0846376 0.293068 -0.268971 0.475924 -0.328976 0.0865467 -0.115806 0.01806
109 -0.0109738 0.103924 0.206722 0.215673 -0.163068 -0.252261 0.000484514 -0.0822404 -0.00882777 -0.0593948 0.0487352 -0.0746254 -0.117581 -0.546749 -0.0279127 0.0345425 0.00354255 0.0540345 -0.269507 0.148096 0.0229325 0.0320565 -0.138936 -0.0805147 0.256005 -0.224255 0.121019 0.24169 0.122937 0.0764377 0.286462 0.0856429 -0.211868 0.220791 0.0251043 0.0177826 0.0662321 0.0376294 -0.389062 0.0447384 0.144751 -0.0542842 0.31283 -0.162407 -0.337548 0.287525 -0.177534 -0.0461445 0.0476405 -0.114533 0.250866 0.344662 0.0415031 -0.0160217 0.380131 -0.168306 0.165076 0.660357 0.279171 -0.21864 0.121452 0.512445 -0.113605 -0.0978976 -0.233395 -0.492847 -0.242658 0.237237 0.376471 -0.00825867 -0.237491 -0.281509 -0.198062 0.243302 -0.324122 0.0803846 0.179095 -0.185123 0.165677 -0.0485646 -0.0758878 0.143121 -0.383365 0.150722 -0.276457 -0.140624 -0.0116692 -0.313579 -0.181435 -0.130094 -0.36873 0.0306492 -0.0553225 0.0383423 0.0377219 0.44491 -0.110528 0.000603691 0.243217 0.0620035 -0.0106024 -0.0716319 0.318883 0.174264 -0.109652 0.116462 -0.179812 -0.23032 -0.105985 -0.213131 -0.0829935 -0.531745 -0.123661 0.188279 -0.215954 -0.146571 0.0727 0.0935255 -0.0482081 -0.123495 0.220122 0.338982 -0.499965 0.026004 -0.14633 -0.00513556 0.0699647 0.0182369
108 -0.0596318 0.089298 0.151969 0.304882 -0.177712 -0.270755 -0.0124673 -0.0912427 -0.0444703 -0.00439695 0.0286868 -0.126161 -0.151891 -0.561553 0.0203963 -0.0185408 0.053959 0.0344698 -0.322591 0.179605 0.0700119 -0.020494 -0.165752 -0.16425 0.257066 -0.208867 0.114537 0.248801 0.122202 0.121893 0.281382 0.0304789 -0.218261 0.267983 -0.00952854 0.00388829 0.123976 0.0726568 -0.36987 0.0591523 0.170841 -0.0608965 0.309158 -0.147311 -0.35846 0.362502 -0.0955235 -0.055447 -0.0192947 -0.156615 0.242411 0.413072 0.0406603 0.0101556 0.437488 -0.232811 0.135323 0.763879 0.254606 -0.250741 0.14225 0.546512 -0.0847121 -0.0737482 -0.301073 -0.555016 -0.266268 0.257549 0.364565 0.0186124 -0.246379 -0.237701 -0.276863 0.300375 -0.380922 0.111422 0.197432 -0.26074 0.250494 -0.107551 -0.0493036 0.145869 -0.436719 0.168859 -0.284744 -0.14374 0.0157228 -0.287286 -0.190482 -0.0965758 -0.392252 0.0822525 -0.0391026 0.0663161 0.000674672 0.471632 -0.0655448 0.0431777 0.295215 0.0531652 0.0270343 -0.0412629 0.359018 0.18247 -0.115542 0.168153 -0.227447 -0.218421 -0.110952 -0.256612 -0.0667591 -0.577129 -0.132634 0.22762 -0.217227 -0.168871 0.120904 0.167216 0.0262985 -0.162627 0.179753 0.335194 -0.602574 0.0458718 -0.151664 0.0179651 0.101503 0.0316403
110 0.00480105 0.120472 0.249631 0.236295 -0.210528 -0.301322 -0.00854511 -0.0942025 -0.0138312 -0.107776 0.0797083 -0.0906602 -0.143645 -0.655757 -0.0206486 0.0469595 0.0198619 0.0526775 -0.321042 0.169584 0.0160476 0.0548111 -0.154495 -0.0817682 0.300682 -0.26942 0.161916 0.294812 0.117938 0.0849156 0.340504 0.104909 -0.233997 0.255126 0.0313368 0.0111318 0.084564 0.0573192 -0.437547 0.050925 0.179992 -0.0688312 0.380189 -0.170545 -0.401189 0.345117 -0.20861 -0.0602656 0.0421964 -0.117111 0.283535 0.396258 0.0404364 -0.0130083 0.451686 -0.19833 0.200165 0.776552 0.359452 -0.271293 0.125942 0.633517 -0.141548 -0.148128 -0.290804 -0.609851 -0.315278 0.264072 0.451961 -0.00212338 -0.285205 -0.317105 -0.248543 0.288701 -0.396795 0.0900487 0.231961 -0.248016 0.179486 -0.0270289 -0.10062 0.157458 -0.441349 0.1805 -0.321925 -0.167998 0.0135544 -0.387228 -0.21372 -0.141962 -0.435548 0.0535257 -0.0670262 0.0463875 0.0351851 0.527708 -0.1572 -0.0084105 0.286432 0.0883258 0.0153325 -0.0812338 0.400424 0.238559 -0.149826 0.156155 -0.211528 -0.249431 -0.142788 -0.275419 -0.0738946 -0.635059 -0.118711 0.243307 -0.246224 -0.173444 0.107203 0.11865 -0.0765471 -0.150254 0.281882 0.404573 -0.613931 0.0117314 -0.166563 -0.026131 0.0763258 0.0121801
111 0.088535 0.155199 0.340871 0.174267 -0.257681 -0.355488 0.0384675 -0.0655334 0.0263985 -0.198948 0.106869 -0.0367139 -0.114556 -0.727514 -0.0860652 0.127354 -0.0230803 0.0496643 -0.261106 0.134932 0.0132398 0.149837 -0.106976 0.00730553 0.345649 -0.293735 0.169334 0.340159 0.117417 0.0139735 0.436691 0.168913 -0.258124 0.221512 0.0752007 0.0181854 0.0388354 0.0679021 -0.525538 0.0339437 0.195636 -0.092897 0.42609 -0.199619 -0.451348 0.313525 -0.319421 -0.0215911 0.101171 -0.0508333 0.31824 0.353355 0.0217669 0.0122556 0.430619 -0.156566 0.252397 0.703948 0.441185 -0.321294 0.126138 0.683624 -0.166827 -0.205413 -0.270065 -0.600695 -0.344374 0.246897 0.495854 -0.0248965 -0.293995 -0.404387 -0.222255 0.278064 -0.359404 0.0527565 0.287304 -0.191966 0.112884 0.0263946 -0.154708 0.184493 -0.415122 0.182308 -0.321785 -0.200377 -0.0114281 -0.43566 -0.219097 -0.183504 -0.495996 0.0291538 -0.0771842 0.0129808 0.0882073 0.532238 -0.24457 -0.0306491 0.281693 0.1128 0.00841235 -0.131102 0.41359 0.263396 -0.191052 0.146384 -0.220974 -0.241673 -0.156731 -0.281524 -0.0990918 -0.675231 -0.122056 0.225546 -0.261227 -0.170865 0.0521086 0.0749153 -0.179213 -0.118787 0.359786 0.444689 -0.58217 -0.0166154 -0.20237 -0.0265646 0.0462272 0.00130888
112 0.10223 0.150468 0.293674 0.136468 -0.225478 -0.335118 0.0428874 -0.0343311 0.0533904 -0.194503 0.0986724 -0.0165972 -0.0899484 -0.642231 -0.0738245 0.125481 -0.0118729 0.0231827 -0.220588 0.0890318 0.0078722 0.158304 -0.0656186 0.022909 0.293508 -0.24807 0.136909 0.295965 0.11104 -0.00932099 0.402474 0.139634 -0.224656 0.166755 0.0763605 0.00802293 0.00655353 0.0679883 -0.461865 0.0119038 0.178612 -0.0768666 0.368467 -0.18567 -0.385709 0.255236 -0.293759 -0.0202167 0.0913387 -0.0163634 0.270113 0.274243 0.0104964 0.0176613 0.356631 -0.125451 0.205863 0.55872 0.402208 -0.267168 0.121018 0.587743 -0.165392 -0.190475 -0.215973 -0.502475 -0.290114 0.198726 0.450042 -0.0193541 -0.248371 -0.35794 -0.175896 0.239051 -0.322634 0.040582 0.260335 -0.132107 0.0962037 0.0115609 -0.146287 0.162546 -0.342716 0.151983 -0.266825 -0.159668 -0.0201719 -0.383865 -0.172114 -0.165252 -0.431251 0.0259264 -0.0771403 0.00160913 0.0853883 0.446057 -0.223043 -0.0423332 0.234252 0.105581 0.0167265 -0.131205 0.352532 0.227053 -0.155615 0.113964 -0.194855 -0.196856 -0.138071 -0.245976 -0.0898649 -0.574391 -0.115438 0.180993 -0.217044 -0.14959 0.0241822 0.0589013 -0.17576 -0.105501 0.308211 0.383426 -0.487418 -0.0130897 -0.188957 -0.0230199 0.0320281 0.00382338
113 0.146218 0.181625 0.342766 0.141818 -0.280571 -0.402833 0.0832549 -0.0344804 0.0702261 -0.253579 0.103803 -0.0223756 -0.0661221 -0.72881 -0.0853376 0.164611 -0.0208615 -0.00111857 -0.215489 0.0643397 0.0262522 0.200851 -0.06115 0.0648932 0.35186 -0.249944 0.155953 0.355852 0.132205 -0.0360786 0.486643 0.178845 -0.244283 0.174583 0.0920267 0.0140604 0.0171873 0.079534 -0.533319 0.00283898 0.189231 -0.0960906 0.410134 -0.207339 -0.445886 0.292699 -0.328673 -0.00542316 0.0967358 0.00915182 0.304055 0.295419 0.00107754 0.0424082 0.399957 -0.138301 0.230414 0.583639 0.464233 -0.330492 0.13418 0.637106 -0.190478 -0.202323 -0.228425 -0.550201 -0.32022 0.220532 0.491503 -0.0290835 -0.261644 -0.393282 -0.199521 0.280199 -0.341096 0.0316062 0.317726 -0.140157 0.104642 0.0109603 -0.191837 0.203238 -0.369212 0.175383 -0.297581 -0.204222 -0.0367795 -0.44308 -0.190082 -0.176188 -0.517219 0.0635171 -0.0952533 0.00998341 0.105409 0.499984 -0.269993 -0.0396991 0.263145 0.127608 0.0180014 -0.16307 0.394573 0.259323 -0.189991 0.137054 -0.233668 -0.187212 -0.156017 -0.297904 -0.112094 -0.650304 -0.144034 0.192098 -0.245808 -0.162666 0.00634766 0.0792118 -0.201279 -0.11518 0.357965 0.425421 -0.532548 -0.00675004 -0.22679 0.00983963 0.0283336 0.0061826
164 0.197361 0.0219676 0.0490476 0.255303 -0.134703 0.0436171 0.199938 0.0714515 -0.334365 0.231397 -0.402679 0.193012 0.124007 -0.386136 -0.157166 0.132294 -0.0561793 -0.10179 -0.0968706 -0.14065 -0.339514 -0.179404 -0.00569536 0.107238 0.199537 0.119527 -0.0972296 0.499752 0.512935 0.0659089 0.241263 -0.217373 -0.484526 0.392644 -0.287755 -0.0100309 0.182399 -0.035195 -0.403491 0.0317862 0.160142 0.195487 -0.139441 -0.313878 -0.0364178 0.63871 0.30644 -0.213133 -0.0266297 0.170014 0.194454 0.08574 0.2261 -0.231101 0.529522 0.26752 0.305666 0.916912 0.248713 -0.210891 -0.0479437 -0.0599372 -0.419494 0.208489 0.38538 -0.625015 -0.0809691 0.131505 0.188094 -0.170044 0.0802565 0.0996808 0.00688338 -0.100337 -0.241837 0.0461213 0.0588428 -0.161065 -0.0669022 -0.00202595 0.181351 0.12856 -0.573713 0.167754 0.014182 -0.31694 -0.0913269 -0.433968 0.288166 -0.195256 -0.283454 -0.200795 -0.340235 0.211706 0.167143 0.505517 0.391111 -0.0652038 0.0744615 0.417968 -0.260611 -0.00717177 0.460766 -0.144749 0.0815773 -0.0960267 0.239312 0.105304 0.0542536 -0.252765 -0.0829634 -0.54099 -0.294088 0.112067 -0.301063 0.295261 -0.168335 -0.0189192 -0.154462 -0.128191 0.00773497 0.478545 0.132866 0.555851 0.0230849 0.218323 0.188771 -0.317599
162 0.138715 0.016215 0.0575835 0.212561 -0.112581 0.0432098 0.210766 0.0639747 -0.354866 0.174564 -0.377168 0.18533 0.107566 -0.387061 -0.147027 0.12514 -0.0922998 -0.116987 -0.105841 -0.103285 -0.326704 -0.208355 -0.00532591 0.112165 0.213621 0.143966 -0.0844831 0.510589 0.48111 0.0907701 0.226088 -0.235383 -0.497786 0.38099 -0.26144 -0.0298284 0.187225 -0.0255296 -0.385814 0.0318137 0.139985 0.193767 -0.159074 -0.306267 -0.0515758 0.60518 0.29819 -0.211183 -0.0166888 0.156187 0.196626 0.0758595 0.219264 -0.275494 0.508197 0.259604 0.302279 0.885589 0.250411 -0.208435 -0.0542108 -0.0518354 -0.399206 0.181396 0.355817 -0.639517 -0.0982287 0.125978 0.196152 -0.170723 0.0614499 0.0923812 -0.000165397 -0.0921814 -0.250945 0.0668617 0.0625253 -0.140609 -0.0612254 0.00496028 0.172833 0.102196 -0.561999 0.165505 0.00706236 -0.264972 -0.0747277 -0.452844 0.283852 -0.159463 -0.313416 -0.215715 -0.327577 0.197049 0.172 0.487504 0.403791 -0.0993831 0.0725827 0.408236 -0.246015 -0.00900056 0.447625 -0.126254 0.107449 -0.11911 0.245859 0.100044 0.0619304 -0.264183 -0.113004 -0.543912 -0.337609 0.0811065 -0.298112 0.278436 -0.146482 -0.00236086 -0.154497 -0.149076 -0.00167933 0.486756 0.122422 0.552526 0.0380876 0.216331 0.196532 -0.334281
163 0.163151 0.0150661 0.0545954 0.213461 -0.108048 0.0210457 0.175626 0.0665337 -0.298622 0.190444 -0.359904 0.172129 0.0953794 -0.351826 -0.113404 0.118741 -0.0742154 -0.0996041 -0.09717 -0.110542 -0.302726 -0.167462 0.00466927 0.0859793 0.204947 0.110468 -0.0759056 0.445459 0.451534 0.0699605 0.218557 -0.219876 -0.446884 0.347806 -0.248996 -0.021874 0.161661 -0.0159239 -0.354244 0.02696 0.15179 0.164516 -0.13526 -0.295376 -0.0519438 0.573849 0.283543 -0.187962 -0.0181964 0.159228 0.176618 0.0787744 0.204274 -0.2156 0.477313 0.228842 0.276263 0.805076 0.234021 -0.195355 -0.0450508 -0.0458767 -0.351137 0.17338 0.341395 -0.57041 -0.0636203 0.12986 0.190174 -0.15774 0.0673601 0.083319 0.00758894 -0.0750863 -0.239961 0.0474443 0.0582541 -0.12761 -0.0523912 -0.00227339 0.165317 0.101755 -0.507083 0.148635 0.0106132 -0.269563 -0.0762416 -0.408657 0.263377 -0.14446 -0.265467 -0.177499 -0.304949 0.193318 0.145653 0.462614 0.35409 -0.0814187 0.0783455 0.370052 -0.214726 -0.0134726 0.409911 -0.129675 0.0881999 -0.0849752 0.212466 0.0931459 0.0460645 -0.240609 -0.077729 -0.489219 -0.288229 0.0847643 -0.250009 0.256265 -0.13471 0.000820975 -0.128122 -0.121703 0.00509706 0.432583 0.114104 0.50125 0.0248203 0.189803 0.159423 -0.288718
165 0.205432 0.00737189 0.00066748 0.262004 -0.17186 0.0752952 0.196213 0.0782389 -0.3107 0.231347 -0.417632 0.157025 0.133036 -0.324688 -0.181746 0.0930262 -0.00838222 -0.0813421 -0.042374 -0.159631 -0.33466 -0.15347 -0.0528668 0.113151 0.122403 0.0880316 -0.0998696 0.471099 0.550549 0.048105 0.25222 -0.188138 -0.448994 0.339636 -0.304314 0.00239078 0.165852 -0.059068 -0.40844 0.0576171 0.14364 0.195331 -0.107891 -0.263787 -0.0122937 0.605713 0.286978 -0.206567 -0.029629 0.10414 0.20957 0.1187 0.268661 -0.165481 0.521192 0.2682 0.262662 0.912545 0.241664 -0.228538 -0.0354926 -0.0308509 -0.464275 0.248802 0.335681 -0.607084 -0.087756 0.151575 0.126483 -0.153849 0.112047 0.0994891 0.0342576 -0.0943177 -0.226274 0.0812568 0.0386568 -0.209002 -0.0321663 -0.0381958 0.173009 0.130033 -0.569666 0.217522 -0.0145939 -0.378212 -0.109025 -0.36978 0.257913 -0.214317 -0.236324 -0.174037 -0.320218 0.225878 0.119799 0.455554 0.362998 0.0123621 0.0604309 0.428483 -0.298823 -0.0756912 0.507499 -0.18051 0.041533 -0.0451973 0.234431 0.0710721 0.0572751 -0.211944 -0.0356238 -0.486686 -0.222261 0.124311 -0.285199 0.278817 -0.194413 -0.0356215 -0.154984 -0.126413 0.0108874 0.46796 0.144696 0.502972 0.0019319 0.218444 0.152748 -0.274226
166 0.185382 -0.00829055 -0.0221686 0.231405 -0.181167 0.104218 0.168544 0.0633242 -0.301599 0.194115 -0.382503 0.121593 0.124799 -0.269364 -0.164593 0.061502 0.0154427 -0.062861 -0.00426499 -0.160807 -0.306009 -0.134433 -0.0677984 0.106935 0.0740733 0.0702168 -0.0814099 0.417493 0.493254 0.0278477 0.21597 -0.145315 -0.385083 0.274468 -0.298513 -0.00494726 0.145955 -0.0754646 -0.34652 0.0520321 0.123568 0.184549 -0.0846565 -0.186217 0.0129899 0.513373 0.246752 -0.177719 -0.0451645 0.0680467 0.18524 0.104276 0.252337 -0.113178 0.458194 0.250334 0.218361 0.807934 0.210555 -0.207853 -0.0217745 -0.0185543 -0.446356 0.227483 0.269547 -0.552566 -0.0940971 0.136794 0.0797426 -0.125004 0.117695 0.0992436 0.0241817 -0.108223 -0.176038 0.0832562 0.043506 -0.218154 -0.0455347 -0.0468179 0.145189 0.126466 -0.511636 0.205888 -0.0324781 -0.353623 -0.0897666 -0.329478 0.238928 -0.216924 -0.209527 -0.13376 -0.256759 0.197765 0.0847791 0.366719 0.326436 0.0475309 0.0456512 0.396676 -0.274865 -0.100413 0.476291 -0.163285 0.02252 -0.015828 0.233274 0.0483945 0.0352247 -0.158894 -0.0131157 -0.412601 -0.169755 0.124095 -0.228103 0.247702 -0.176023 -0.05684 -0.145178 -0.100993 0.0292054 0.430795 0.146185 0.434701 -0.000396777 0.188576 0.133423 -0.242543
167 0.23293 -0.025959 -0.0623476 0.290838 -0.225949 0.138937 0.198079 0.0889657 -0.349522 0.23112 -0.445582 0.13929 0.164142 -0.310208 -0.200345 0.0701861 0.037634 -0.0666563 0.000738374 -0.20386 -0.381134 -0.135583 -0.0911308 0.113026 0.0557712 0.0617723 -0.105007 0.497267 0.614366 0.0217054 0.263919 -0.193416 -0.469009 0.312947 -0.388675 -0.0162718 0.176223 -0.0960807 -0.420549 0.106381 0.139134 0.214706 -0.103185 -0.211386 0.0226165 0.60477 0.287346 -0.22274 -0.0499141 0.0592496 0.246565 0.138349 0.327554 -0.103465 0.536187 0.324149 0.242315 0.9583 0.273042 -0.255635 -0.000355039 0.00304068 -0.553023 0.314348 0.326498 -0.668559 -0.104983 0.179295 0.072264 -0.123042 0.16937 0.109531 0.0585264 -0.146438 -0.204319 0.112831 0.0368357 -0.253896 -0.027462 -0.0698063 0.183705 0.168857 -0.625811 0.283739 -0.0284741 -0.439826 -0.102186 -0.370722 0.320256 -0.285889 -0.242451 -0.143885 -0.297066 0.250045 0.0896049 0.4479 0.393483 0.0900003 0.0395775 0.497082 -0.3531 -0.170797 0.587587 -0.234066 0.0393216 0.0105045 0.294938 0.0265051 0.0315154 -0.166416 0.0310592 -0.482162 -0.200356 0.137469 -0.246765 0.278508 -0.239571 -0.097847 -0.174693 -0.115167 0.0325685 0.54004 0.175433 0.521415 -0.00937427 0.208189 0.132939 -0.285218
134 0.149181 0.414246 0.0520166 0.29807 -0.111856 -0.559997 -0.0569777 0.445937 0.265536 0.404759 -0.344643 0.039439 0.0629092 -0.706434 0.172088 0.280999 0.105781 -0.0579262 -0.43839 0.259377 -0.309034 0.432778 0.107263 -0.199237 -0.0323627 -0.261603 -0.0708264 0.0768252 0.178318 0.0494454 0.370953 -0.106558 -0.139218 0.152402 -0.0216239 0.277303 0.124031 0.159027 -0.504156 0.016843 0.0816695 0.0791845 -0.1349 -0.514549 -0.00823017 0.21752 0.0308481 -0.197905 0.134321 0.201857 0.0687454 0.196671 -0.0777624 0.103721 0.0300146 0.0767411 0.139761 0.263214 0.122363 -0.0185188 0.395636 0.2207 0.0893534 0.00798841 0.232494 -0.31713 0.340252 0.522537 0.4246 -0.0284838 -0.152191 -0.427781 -0.0968673 0.254625 -0.22219 0.0818834 -0.0605795 0.464622 0.318132 -0.446779 0.367028 0.0985124 -0.186761 0.28624 -0.156527 -0.254879 -0.254922 -0.144558 0.288249 -0.137412 -0.0577237 0.0839788 -0.234946 0.173361 -0.119026 0.42787 0.455379 -0.029289 0.115365 0.0123079 -0.0693762 -0.2241 -0.169229 -0.263908 -0.119506 0.129077 0.125154 -0.399339 -0.0763293 -0.118554 0.0948202 -0.371811 -0.269992 -0.1313 0.186548 -0.207579 -0.321418 0.17064 -0.027241 -0.158248 0.0886489 0.311618 -0.113067 -0.0136787 -0.291042 0.178011 -0.0569646 0.0987498
132 0.16139 0.458312 0.0648141 0.298906 -0.120215 -0.58056 -0.0397856 0.454729 0.294904 0.434312 -0.360615 0.049074 0.0733158 -0.717388 0.182844 0.278526 0.0973134 -0.0390795 -0.471795 0.277859 -0.309991 0.449961 0.143521 -0.213122 -0.0343329 -0.26468 -0.101307 0.0888595 0.171765 0.0509888 0.393162 -0.11966 -0.165327 0.162728 -0.0262131 0.295234 0.129291 0.162903 -0.515731 0.0277883 0.0744243 0.084756 -0.135866 -0.524485 -0.0160389 0.242765 0.0589161 -0.225655 0.137825 0.18207 0.0710915 0.200151 -0.0543283 0.113842 0.0225869 0.0926012 0.140376 0.255758 0.145813 -0.00449801 0.426963 0.210479 0.112628 0.0332055 0.242195 -0.320382 0.354764 0.552253 0.433092 -0.0376442 -0.186922 -0.456571 -0.0961463 0.273915 -0.230632 0.0913881 -0.0651998 0.472102 0.310716 -0.481551 0.385666 0.128343 -0.159508 0.273383 -0.168635 -0.262639 -0.279036 -0.143754 0.307594 -0.121843 -0.078264 0.0977483 -0.262318 0.2005 -0.104738 0.480322 0.483944 -0.0147683 0.0975688 0.0145407 -0.0553766 -0.23079 -0.173717 -0.306312 -0.141058 0.130997 0.145384 -0.42387 -0.0455964 -0.127451 0.0912953 -0.390976 -0.259374 -0.130554 0.195857 -0.220416 -0.331468 0.196666 -0.0212728 -0.153833 0.0901494 0.297526 -0.0929932 -0.011274 -0.287057 0.19063 -0.0658514 0.0856
131 0.138334 0.512606 0.0600089 0.24744 -0.172197 -0.561965 0.0162726 0.410851 0.326631 0.431103 -0.372922 0.112714 0.0851267 -0.655304 0.204797 0.228298 0.10385 -0.0327666 -0.436994 0.264467 -0.249818 0.425817 0.232129 -0.186185 -0.0022691 -0.183909 -0.134171 0.0879349 0.187546 0.0336037 0.483806 -0.150425 -0.238623 0.158555 -0.0806398 0.278581 0.0979777 0.100075 -0.494752 -0.00732193 0.102481 0.138551 -0.179475 -0.516467 0.0314367 0.256456 0.0964687 -0.211126 0.125603 0.106113 0.0495082 0.139917 0.0520131 0.155395 -0.0323927 0.0685343 0.0665209 0.192515 0.206914 0.043015 0.439103 0.158345 0.156881 0.111368 0.224544 -0.327812 0.32602 0.58619 0.429939 -0.0167291 -0.269091 -0.480481 -0.0875109 0.266113 -0.292024 0.0936211 0.00175332 0.429266 0.272387 -0.562996 0.404648 0.209062 -0.139118 0.210623 -0.202668 -0.203229 -0.294898 -0.104745 0.250652 -0.0994027 -0.135749 0.10305 -0.232243 0.23889 -0.0572687 0.518158 0.494094 0.128396 0.0551393 0.0324189 -0.00744256 -0.258701 -0.109653 -0.376288 -0.148478 0.109687 0.121574 -0.521434 0.0363396 -0.163722 0.0412822 -0.391015 -0.198569 -0.133467 0.204889 -0.219293 -0.352131 0.248286 -0.0150069 -0.213682 0.117795 0.306593 0.0146051 0.0416339 -0.204649 0.208836 -0.126339 0.0235755
129 0.133243 0.544539 0.0546817 0.21604 -0.196653 -0.542981 0.0466431 0.387663 0.370364 0.44374 -0.386664 0.161248 0.0788035 -0.614717 0.214353 0.191095 0.132623 -0.03306 -0.435355 0.240831 -0.227081 0.393143 0.26897 -0.167183 0.0263104 -0.124804 -0.187522 0.112752 0.230659 0.014043 0.532331 -0.147274 -0.312924 0.156968 -0.13043 0.255595 0.0932794 0.0508219 -0.512248 -0.00887379 0.0942044 0.170589 -0.207487 -0.537415 0.0467253 0.279133 0.124616 -0.217345 0.115075 0.0679317 0.0335038 0.104331 0.111362 0.165867 -0.0600345 0.0636146 0.00940258 0.20197 0.244172 0.0567772 0.462469 0.124003 0.183002 0.174402 0.224928 -0.319299 0.32553 0.609457 0.426874 -0.0126574 -0.307313 -0.508704 -0.0839795 0.268779 -0.339779 0.127932 0.0465452 0.410689 0.233925 -0.607896 0.423932 0.25094 -0.122353 0.171787 -0.226412 -0.185128 -0.3338 -0.085933 0.234671 -0.0878383 -0.171774 0.0807702 -0.221428 0.261944 -0.017487 0.549614 0.518534 0.210469 0.0470704 0.0503503 0.0118058 -0.263222 -0.0474793 -0.438372 -0.140719 0.101202 0.107911 -0.578575 0.0927018 -0.194921 -0.0128304 -0.377801 -0.173912 -0.141081 0.204128 -0.227204 -0.37096 0.268075 -0.0239484 -0.247065 0.118531 0.317099 0.0698485 0.0990461 -0.149441 0.250034 -0.16776 -0.0166269
133 0.150219 0.393038 0.0528289 0.302846 -0.0933889 -0.529606 -0.0578373 0.447993 0.25859 0.388758 -0.335665 0.0225432 0.0620077 -0.667139 0.160867 0.267882 0.0787863 -0.0420226 -0.420799 0.27137 -0.325327 0.417891 0.106532 -0.217755 -0.0481718 -0.272151 -0.0657152 0.0694938 0.14947 0.0636221 0.3408 -0.117547 -0.115728 0.142285 -0.00505127 0.288147 0.125304 0.172226 -0.484983 0.0295667 0.0718209 0.0676059 -0.128622 -0.485496 -0.00590632 0.222044 0.0368098 -0.201425 0.126779 0.19833 0.0732776 0.193012 -0.0811061 0.0907965 0.0343445 0.090428 0.149888 0.256308 0.123174 -0.0325169 0.384267 0.216286 0.0837791 -0.00260652 0.243701 -0.301992 0.318529 0.496918 0.406493 -0.031733 -0.146494 -0.407 -0.0855745 0.250827 -0.201082 0.0647262 -0.0904419 0.458122 0.317287 -0.420108 0.357693 0.0776667 -0.174099 0.28803 -0.135422 -0.258307 -0.241064 -0.135388 0.293812 -0.122793 -0.0394169 0.0811466 -0.246537 0.168279 -0.127423 0.421437 0.444975 -0.0586196 0.113583 0.0092478 -0.0569485 -0.213184 -0.185438 -0.260391 -0.129253 0.114798 0.14022 -0.37095 -0.0774972 -0.0946485 0.111294 -0.369009 -0.256065 -0.125464 0.184597 -0.202309 -0.305971 0.173609 -0.0242858 -0.13253 0.0720929 0.286226 -0.103048 -0.0379289 -0.294873 0.156007 -0.0481533 0.0838832
135 0.139519 0.297314 0.0591484 0.26751 -0.0854136 -0.512707 -0.0576818 0.334341 0.225496 0.312459 -0.266994 -0.00674361 0.0340552 -0.627034 0.138518 0.254542 0.101951 -0.128637 -0.402822 0.118043 -0.208666 0.332531 0.0199921 -0.134032 -0.000559154 -0.232272 -0.0747778 0.114674 0.223083 0.0156466 0.239578 -0.00909168 -0.15499 0.121251 -0.00882196 0.148201 0.0903353 0.139664 -0.417546 0.0260638 0.0341637 0.0599494 -0.0618754 -0.441527 -0.0404564 0.160157 -0.029796 -0.180446 0.142197 0.220782 0.0877654 0.170773 -0.0778798 0.0417651 0.0699712 0.048427 0.147226 0.275141 0.0598503 -0.0291011 0.33006 0.226065 0.0350916 -0.0481558 0.174779 -0.225882 0.322803 0.360335 0.385702 -0.0255634 -0.0589323 -0.351136 -0.0779333 0.209209 -0.209138 0.110871 -0.0254214 0.355419 0.266097 -0.347472 0.263078 0.0732047 -0.155455 0.254458 -0.165604 -0.195911 -0.218492 -0.209474 0.250521 -0.125909 -0.0571249 0.0592884 -0.19034 0.0867417 -0.0833674 0.326967 0.389071 -0.109779 0.104422 -0.00698214 -0.13131 -0.166024 -0.0776221 -0.13642 -0.0499294 0.125177 0.053682 -0.290135 -0.127392 -0.103099 0.0318803 -0.29125 -0.292152 -0.102338 0.0921766 -0.159309 -0.252117 0.0596093 -0.026868 -0.124287 0.0641245 0.288093 -0.203922 -0.00495338 -0.284228 0.165564 -0.0109009 0.162461
24 0.275991 0.215434 0.07234 0.432642 0.229703 -0.327 0.0173437 0.209343 0.341999 0.117034 -0.162997 -0.138306 -0.117937 -0.346238 -0.0170228 0.122851 -0.220487 0.0152574 -0.344308 -0.319354 0.123475 0.202338 0.196821 -0.181327 0.250033 -0.132152 -0.152259 0.370442 0.322673 0.0808399 -0.106221 -0.294904 -0.364025 0.297865 -0.0113893 0.0701572 -0.250864 0.240623 -0.31733 -0.0146117 0.034251 -0.0686264 0.0335466 -0.0792924 -0.398358 0.658074 0.226853 -0.374677 0.320287 0.22296 0.321216 0.45382 0.32012 0.0585561 0.328081 -0.138145 -0.216587 0.323736 0.232819 0.228067 0.0360018 -0.0904471 -0.441276 -0.211933 0.107358 -0.427749 0.306778 0.350806 0.379178 -0.065392 -0.271945 -0.416386 0.143157 0.157528 -0.410533 0.337994 -0.0857702 0.0905575 0.280259 0.137145 -0.00957493 -0.0580977 0.0810556 0.445457 -0.252627 -0.186535 -0.0293149 -0.401049 0.186908 0.0593288 -0.258004 -0.0558084 -0.186791 0.274363 0.16888 0.506187 0.140013 -0.143269 -0.0520589 0.0789772 -0.264859 0.0387933 0.172987 -0.00939201 -0.0658077 0.0517645 0.11588 0.0954187 0.142288 -0.31233 0.104947 -0.0926569 -0.520837 0.0556262 -0.107177 0.254058 -0.184671 -0.0159842 -0.123408 0.000104714 -0.234229 -0.0243709 -0.0599607 -0.103153 -0.473916 -0.180191 -0.048979 0.0229915
25 0.205996 0.174038 0.061127 0.321293 0.181054 -0.265279 0.00525472 0.166689 0.253837 0.0833732 -0.121213 -0.110262 -0.105135 -0.255199 -0.0222087 0.102919 -0.175169 -0.000361413 -0.266207 -0.26741 0.0976344 0.163981 0.174742 -0.116341 0.203873 -0.114877 -0.130777 0.322303 0.261041 0.0534988 -0.0971185 -0.249481 -0.307584 0.241473 -0.0122863 0.056041 -0.186456 0.203652 -0.267207 -0.00307977 0.0240034 -0.0516254 0.00804375 -0.0662133 -0.324017 0.518552 0.185082 -0.307664 0.274207 0.174073 0.272988 0.356969 0.273656 0.0258046 0.277211 -0.110869 -0.183514 0.240554 0.191078 0.189957 0.0422225 -0.0478997 -0.341449 -0.165721 0.0683185 -0.372718 0.245788 0.277993 0.303387 -0.0634326 -0.215857 -0.35612 0.0952661 0.13622 -0.319116 0.299157 -0.0505878 0.0414175 0.239187 0.103262 -0.0189154 -0.0697319 0.0781088 0.358822 -0.197526 -0.120249 -0.00678735 -0.341662 0.167022 0.0490136 -0.197547 -0.0185979 -0.168833 0.211085 0.142537 0.400401 0.126217 -0.103944 -0.0297095 0.0610862 -0.241785 0.0397231 0.141774 -0.00791592 -0.0470069 0.0420761 0.0758639 0.0442953 0.11051 -0.292589 0.0801132 -0.0920792 -0.43253 0.0597515 -0.0905868 0.193912 -0.148377 -0.0292886 -0.0989098 0.00470312 -0.185679 -0.0158398 -0.0722941 -0.0848413 -0.389957 -0.157849 -0.0439885 0.0232378
26 0.240765 0.215243 0.069507 0.365856 0.218697 -0.323995 0.0193564 0.204739 0.270479 0.09896 -0.161309 -0.13334 -0.137396 -0.286929 -0.0354569 0.125771 -0.232507 0.000457586 -0.294186 -0.320508 0.118695 0.209414 0.225877 -0.13476 0.24297 -0.144129 -0.159089 0.404593 0.296863 0.0554965 -0.1474 -0.289388 -0.375124 0.305285 -0.0354253 0.0739657 -0.228017 0.24967 -0.297745 -0.0259593 0.0338315 -0.0360744 -0.0187497 -0.0438239 -0.376726 0.632459 0.23099 -0.357543 0.332986 0.19662 0.342674 0.422889 0.342756 0.0251851 0.322888 -0.134444 -0.246481 0.265283 0.231965 0.252084 0.0234102 -0.0866284 -0.412414 -0.212096 0.0359933 -0.457248 0.292203 0.363829 0.353961 -0.0698039 -0.288264 -0.443984 0.072217 0.1784 -0.349386 0.368428 -0.0481609 0.00979352 0.273129 0.13149 -0.0155086 -0.122574 0.123528 0.41671 -0.267026 -0.130484 0.0347753 -0.431638 0.224215 0.0704537 -0.239134 -0.0058551 -0.208549 0.263843 0.183103 0.442108 0.183101 -0.0894447 -0.0453085 0.0563285 -0.308485 0.0646075 0.150649 -0.00780698 -0.0639407 0.0584853 0.102891 0.034221 0.131 -0.366708 0.114582 -0.109925 -0.514514 0.101258 -0.0953322 0.247732 -0.177901 -0.0347866 -0.104528 0.0238774 -0.21937 -0.0403395 -0.0834341 -0.12451 -0.478271 -0.216476 -0.0539089 0.0218474
27 0.198187 0.223441 0.0795304 0.338814 0.199552 -0.376969 -0.0177933 0.245806 0.250089 0.0997295 -0.174963 -0.104971 -0.142628 -0.279588 -0.0571335 0.162657 -0.186314 -0.0527788 -0.230315 -0.317791 0.0880748 0.249195 0.287706 -0.0660432 0.217311 -0.150945 -0.191649 0.465133 0.348428 0.030871 -0.144342 -0.316023 -0.422559 0.307547 -0.0414409 0.0779277 -0.166886 0.247356 -0.352735 0.0169578 0.0530248 -0.0143615 -0.0874503 -0.0865384 -0.360139 0.624724 0.233418 -0.383129 0.327033 0.210043 0.37497 0.392878 0.378626 -0.0714826 0.367905 -0.150931 -0.239001 0.280641 0.257324 0.257011 0.0361527 0.0067532 -0.393902 -0.159327 -0.0190385 -0.508564 0.271494 0.337182 0.363016 -0.0630119 -0.304352 -0.480899 -0.0201507 0.251576 -0.303862 0.402676 -0.00490714 -0.0710835 0.347327 0.0980197 -0.00942384 -0.145755 0.111716 0.408182 -0.277472 -0.0963179 0.0877726 -0.498575 0.262097 0.0456309 -0.220764 0.0830931 -0.266546 0.229105 0.185977 0.41918 0.255225 -0.0575485 -0.00544004 0.0408704 -0.394064 0.119752 0.157151 -0.0376923 0.0120824 0.037102 0.0970069 -0.0729761 0.139756 -0.4463 0.11653 -0.156601 -0.514578 0.190659 -0.105042 0.23006 -0.223521 -0.0860581 -0.0531545 0.0493299 -0.222468 0.0477155 -0.185352 -0.0877593 -0.509351 -0.259408 -0.0261521 0.0191188
29 0.16273 0.217407 0.0490544 0.321127 0.174833 -0.380705 -0.0510994 0.227503 0.206939 0.0986886 -0.174157 -0.112126 -0.118929 -0.215041 -0.0620079 0.19238 -0.182302 -0.069474 -0.163385 -0.281741 0.0803845 0.283631 0.335527 -0.034836 0.175223 -0.11875 -0.229205 0.484495 0.365572 0.0176684 -0.129637 -0.322512 -0.43263 0.299247 -0.0452808 0.0874463 -0.126312 0.232005 -0.315397 0.0629425 0.0480785 0.0092571 -0.114863 -0.0822106 -0.361165 0.594501 0.255846 -0.401571 0.304433 0.206019 0.362935 0.350856 0.394087 -0.143011 0.392311 -0.153052 -0.238195 0.262013 0.280718 0.254868 0.0265062 0.0504156 -0.375258 -0.0901535 -0.0647419 -0.4705 0.23802 0.285526 0.318689 -0.0247347 -0.318489 -0.468741 -0.0747476 0.30988 -0.221688 0.357568 0.0106381 -0.140612 0.376321 0.113057 -0.0439287 -0.178058 0.118428 0.344307 -0.25579 -0.0607266 0.144912 -0.500894 0.249098 0.0157785 -0.192459 0.15204 -0.277448 0.190869 0.207638 0.366993 0.270225 -0.0202768 0.00263876 0.0148067 -0.399272 0.183573 0.10736 -0.0645082 0.0717273 0.0242677 0.0759309 -0.136727 0.174798 -0.469892 0.147659 -0.164242 -0.466257 0.278717 -0.0905478 0.213838 -0.182709 -0.12173 0.0304443 0.117198 -0.226362 0.0903779 -0.242086 -0.0708479 -0.518769 -0.313357 0.00584498 -0.00591961
28 0.171956 0.206931 0.0795506 0.293486 0.175464 -0.336768 -0.024562 0.239019 0.202798 0.0917532 -0.175896 -0.0929988 -0.146158 -0.225825 -0.074177 0.144998 -0.184097 -0.0587258 -0.197662 -0.31005 0.0904013 0.242337 0.284485 -0.0345866 0.181166 -0.144249 -0.181568 0.448968 0.30469 0.0137846 -0.154566 -0.304903 -0.3984 0.286552 -0.0255028 0.0774536 -0.145622 0.226513 -0.301273 0.0151579 0.0473316 0.000710966 -0.102547 -0.0707831 -0.330916 0.567589 0.229029 -0.346239 0.291205 0.179303 0.352459 0.342331 0.390254 -0.0798057 0.356824 -0.157379 -0.237233 0.247936 0.239594 0.260985 0.0207351 0.0181804 -0.381528 -0.138777 -0.0546743 -0.500176 0.249603 0.30533 0.32027 -0.0757471 -0.301642 -0.444136 -0.0349031 0.254519 -0.253496 0.375211 0.00172909 -0.0975083 0.328362 0.0966241 -0.00568503 -0.162662 0.128291 0.370604 -0.262533 -0.0809762 0.120354 -0.474541 0.250073 0.0495258 -0.195844 0.111751 -0.258591 0.215707 0.173591 0.337082 0.251038 -0.0369058 0.00440556 0.0145829 -0.383203 0.125085 0.138948 -0.0497742 0.0225414 0.017527 0.097257 -0.0950644 0.139571 -0.436138 0.116797 -0.121539 -0.459762 0.203674 -0.078013 0.226985 -0.212595 -0.0752359 -0.0429797 0.069928 -0.211589 0.0553243 -0.178452 -0.097764 -0.494626 -0.257614 -0.0108292 0.00115584
30 0.131643 0.219216 0.0310415 0.310703 0.149064 -0.34982 -0.072022 0.189318 0.151865 0.112342 -0.149848 -0.0768347 -0.0951442 -0.19252 -0.0486523 0.223769 -0.158923 -0.0527603 -0.104538 -0.247867 0.0520019 0.27647 0.339698 -0.00850931 0.137066 -0.0728627 -0.260386 0.470446 0.403764 0.043494 -0.0910281 -0.297487 -0.423282 0.304656 -0.0539441 0.0950351 -0.0841887 0.19292 -0.333444 0.101388 0.0200677 0.0210909 -0.111353 -0.131641 -0.357076 0.531172 0.252648 -0.387649 0.254258 0.202304 0.328893 0.324448 0.323626 -0.189195 0.38573 -0.136726 -0.192269 0.300282 0.281885 0.202184 0.0306333 0.107929 -0.315473 -0.0229723 -0.0771786 -0.416184 0.174521 0.232443 0.289633 0.0249115 -0.295836 -0.433524 -0.110792 0.289427 -0.177994 0.345999 0.0377911 -0.152757 0.372313 0.111515 -0.0582074 -0.150431 0.0696312 0.281067 -0.206626 -0.0469236 0.126101 -0.443595 0.205144 -0.0308155 -0.194236 0.155038 -0.264217 0.145928 0.218208 0.35355 0.275156 -0.0128507 0.052585 -0.0137934 -0.388498 0.203554 0.0974563 -0.0727296 0.120698 -0.0042446 0.0679418 -0.153057 0.187419 -0.442109 0.152009 -0.188713 -0.414233 0.309184 -0.0888081 0.177326 -0.15749 -0.113573 0.0953918 0.138915 -0.209066 0.103452 -0.308281 -0.0134807 -0.465218 -0.308825 0.0235472 -0.0339935
69 0.372773 -0.0803119 0.0649805 0.102795 0.198126 -0.198019 0.0475311 0.193788 0.519101 -0.0894636 -0.188825 0.174217 -0.258597 -0.4647 -0.0498538 -0.0169969 0.0588589 0.0127681 0.0191749 -0.248917 0.0135103 -0.241247 -0.30571 -0.256169 0.108648 -0.149944 -0.0645103 0.351139 0.238733 0.214845 -0.254573 -0.0165686 -0.258682 0.225295 0.151647 0.0999397 0.371464 0.0618447 -0.892929 0.354519 -0.123456 -0.306629 -0.0240222 -0.243046 -0.318732 0.33208 0.051467 -0.289969 -0.225671 0.273428 0.186929 0.399798 -0.104172 0.0110914 0.113503 0.200277 0.245011 0.388777 0.26823 -0.276745 0.22933 -0.0249247 -0.00633463 0.304224 0.0401736 -0.204069 0.00151114 0.102257 -0.250087 -0.101808 -0.116054 -0.236226 -0.308148 0.130713 -0.0130093 0.252198 0.344783 -0.202972 0.583966 0.0796532 -0.0041148 0.26855 -0.444589 0.121445 0.0230672 -0.00489583 -0.285258 0.0101677 0.357041 0.165537 -0.201473 -0.0921469 -0.0676674 0.0431998 0.0194998 0.582255 0.311963 -0.0791545 0.350271 -0.14681 -0.130629 0.0511293 0.417031 -0.232437 0.0770653 -0.0343943 0.0229126 0.119918 0.125751 -0.234762 -0.315545 0.0138594 -0.438471 -0.19551 0.127678 -0.0814911 -0.0862359 0.0948947 -0.225922 -0.15795 -0.121496 0.195245 -0.197988 0.177457 -0.152331 0.277766 -0.299121 0.0636755
71 0.441099 -0.0539519 0.0701307 0.0568828 0.139893 -0.240427 -0.0148353 0.187472 0.485398 -0.0815659 -0.128039 0.188139 -0.243372 -0.505712 -0.057711 -0.0307203 0.0599174 0.0100444 -0.0717841 -0.198702 -0.00574033 -0.19343 -0.308556 -0.205021 0.104019 -0.108313 -0.0937049 0.388555 0.120839 0.174467 -0.234485 -0.0280451 -0.282202 0.247029 0.145185 0.096019 0.385087 0.1085 -0.833942 0.339512 -0.125305 -0.257851 -0.0174897 -0.319952 -0.30656 0.315793 0.0945507 -0.329076 -0.199926 0.321471 0.187463 0.467158 -0.111814 0.0244683 0.110975 0.226472 0.135771 0.392763 0.267336 -0.241905 0.220384 0.0261211 0.0211786 0.379735 0.0341257 -0.27342 -0.000736104 0.120838 -0.251132 -0.0902297 -0.0519137 -0.174962 -0.310763 0.138202 -0.0221067 0.218362 0.354658 -0.215004 0.675912 0.0643305 0.0189715 0.311738 -0.358522 0.107979 0.110009 0.00415833 -0.241361 0.0180874 0.397495 0.169566 -0.12702 -0.0507686 -0.140626 0.0297352 0.0307414 0.602604 0.353821 -0.0920208 0.272786 -0.125169 -0.116628 0.125919 0.36709 -0.296747 0.0791979 -0.0498556 0.0256922 0.202387 0.167731 -0.289766 -0.295803 -0.0396509 -0.444768 -0.205098 0.139004 -0.0714004 -0.0952106 0.0565051 -0.271678 -0.113878 -0.183928 0.229293 -0.264403 0.141383 -0.189999 0.326508 -0.266546 0.0868672
70 0.355682 -0.0616405 0.0651309 0.08107 0.153689 -0.180769 0.0241172 0.16806 0.44446 -0.0782899 -0.156144 0.163767 -0.208393 -0.418316 -0.0564198 -0.019055 0.0346213 0.00134725 -0.0232076 -0.195614 -0.00314752 -0.19179 -0.272113 -0.204148 0.0949368 -0.116836 -0.0729047 0.332268 0.167939 0.173988 -0.213638 -0.0196902 -0.242521 0.227666 0.120183 0.0839028 0.329133 0.069087 -0.775435 0.304602 -0.119988 -0.251201 -0.0160747 -0.241536 -0.272327 0.286664 0.058838 -0.273076 -0.185512 0.253597 0.171223 0.382216 -0.0918861 0.013324 0.098139 0.180571 0.171883 0.345031 0.238073 -0.227269 0.211147 0.00601012 -0.00373008 0.289889 0.0303377 -0.206668 0.0123533 0.103199 -0.225673 -0.0839703 -0.0716171 -0.197995 -0.259138 0.116109 -0.0203613 0.214445 0.311668 -0.171727 0.539923 0.0714085 0.0143136 0.24299 -0.357684 0.11153 0.0520902 -0.000539628 -0.242879 0.0167292 0.330699 0.149381 -0.144696 -0.0666422 -0.0986969 0.0383116 0.0341361 0.531798 0.295312 -0.0714977 0.285216 -0.110004 -0.11707 0.0590366 0.356879 -0.235698 0.0676486 -0.0372234 0.0222592 0.123831 0.12289 -0.23137 -0.270407 0.00438793 -0.39588 -0.183999 0.118322 -0.0620641 -0.0858671 0.0822698 -0.220178 -0.124305 -0.144519 0.197046 -0.196532 0.152264 -0.161445 0.275778 -0.247299 0.0535118
68 0.359984 -0.112037 0.108747 0.153884 0.215748 -0.14314 0.060004 0.207512 0.539547 -0.0740709 -0.234994 0.16895 -0.297726 -0.392372 -0.0602424 -0.00237532 0.0772074 0.00197785 0.0747692 -0.278981 0.0092109 -0.277103 -0.285231 -0.269208 0.143565 -0.164836 -0.0531972 0.323925 0.272084 0.272266 -0.218898 -0.0362855 -0.224297 0.225531 0.114486 0.130106 0.358576 0.0839856 -0.941431 0.350708 -0.157471 -0.318206 -0.0512319 -0.270974 -0.344297 0.37203 0.0391014 -0.264774 -0.194442 0.217426 0.179857 0.376478 -0.0691195 -0.00455717 0.129445 0.162974 0.262248 0.443759 0.292653 -0.326202 0.249215 -0.0152996 0.000482132 0.260453 0.0473428 -0.204317 0.00382648 0.109796 -0.239768 -0.110157 -0.147933 -0.270873 -0.299558 0.106536 -0.0657438 0.303355 0.338807 -0.169223 0.599714 0.124006 -0.0285622 0.190517 -0.496027 0.156631 -0.000606872 -0.0577282 -0.28114 0.0359035 0.297142 0.161968 -0.209257 -0.129833 -0.0571664 0.0852142 0.00333452 0.625025 0.261877 -0.0515613 0.429837 -0.167031 -0.198688 0.0188824 0.463792 -0.253082 0.0670862 -0.00767361 0.000177251 0.031671 0.0777046 -0.280018 -0.288335 -0.000625662 -0.440833 -0.171324 0.131644 -0.0985698 -0.113715 0.164966 -0.193426 -0.194719 -0.101349 0.223285 -0.167176 0.195472 -0.137751 0.258647 -0.332516 0.017853
66 0.327717 -0.114976 0.112128 0.180857 0.213584 -0.111986 0.0471169 0.217261 0.543172 -0.0801865 -0.243329 0.15932 -0.291973 -0.325754 -0.0558709 0.00812979 0.0884946 -0.013247 0.113087 -0.265622 -0.0156081 -0.285537 -0.263537 -0.278649 0.140623 -0.162419 -0.0379199 0.291905 0.310336 0.29155 -0.172919 -0.0644524 -0.216872 0.204381 0.101184 0.119498 0.33373 0.084973 -0.925454 0.33138 -0.172115 -0.304684 -0.0729746 -0.273537 -0.342405 0.37346 0.0323427 -0.24305 -0.146846 0.18499 0.169928 0.330562 -0.0370064 -0.0314168 0.129644 0.142076 0.25029 0.46116 0.301027 -0.346127 0.224084 0.00459497 -0.00911708 0.222247 0.0711591 -0.178625 0.0248752 0.116848 -0.186684 -0.106725 -0.165228 -0.281221 -0.251106 0.111267 -0.104148 0.325163 0.311157 -0.102622 0.574869 0.1234 -0.046928 0.14247 -0.506629 0.177986 -0.0220082 -0.0871629 -0.268242 0.0325636 0.242931 0.141608 -0.204508 -0.146866 -0.047984 0.0920675 -0.0123418 0.601635 0.24203 -0.0474506 0.452413 -0.158792 -0.221699 -0.00371546 0.447497 -0.24748 0.062632 0.0200501 -0.00959116 -0.0435692 0.0394077 -0.268907 -0.282591 -0.00463663 -0.413839 -0.163634 0.114825 -0.0985122 -0.123712 0.185533 -0.160693 -0.189777 -0.0817736 0.231303 -0.129857 0.188547 -0.130579 0.231535 -0.332795 0.00341254
231 0.323003 -0.198757 -0.0140309 0.305476 0.217465 -0.471862 -0.195667 0.47105 0.11152 -0.0274751 -0.121158 0.261732 0.00168927 -0.0933531 -0.158316 -0.0348827 0.17765 -0.477435 -0.20057 0.283877 0.0238988 0.15857 -0.337715 -0.413511 -0.101644 -0.00731881 0.0659202 0.145862 0.28202 0.14712 0.145147 -0.467537 -0.427837 0.119378 -0.00209187 -0.108181 -0.180068 0.409904 -0.16517 0.219836 0.209885 -0.149288 0.104673 -0.310778 0.0619936 0.633758 -1.36956e-05 -0.171793 0.449251 -0.0755051 0.220882 0.531222 0.305758 -0.233097 0.380962 -0.0169347 -0.0512038 0.301755 0.221627 -0.0217697 0.107058 0.245706 0.178206 0.32923 0.0279211 -0.196096 0.120856 0.0999875 0.329464 0.0402677 0.500844 -0.197139 0.333915 0.34404 -0.428801 0.229218 -0.128116 0.131884 0.652744 -0.0901903 0.0826461 -0.0112399 -0.342755 0.192097 0.161325 -0.0055319 -0.0403732 -0.122447 0.0912255 0.159449 0.181114 0.00388552 -0.413435 0.176165 -0.0426332 0.711332 -0.184327 0.271276 0.0485327 0.448942 -0.0874116 0.0782481 0.310942 -0.334118 0.225706 0.108056 -0.224881 -0.154028 -0.0786236 -0.356654 -0.0167407 -0.285475 -0.372416 -0.31077 -0.338395 -0.193365 -0.013036 -0.310612 0.0525554 -0.195324 -0.243079 0.302484 -0.396417 0.27624 -0.0612559 -0.0183114 -0.0233685 0.193888
230 0.336086 -0.219593 -0.0135579 0.294068 0.199203 -0.439622 -0.155288 0.451468 0.122653 -0.0431983 -0.0659535 0.246217 -0.0163571 -0.0731332 -0.150157 -0.00663091 0.202048 -0.468463 -0.201609 0.255767 0.0175147 0.172333 -0.324967 -0.374346 -0.122381 0.0072173 0.0681062 0.145628 0.342928 0.16868 0.130424 -0.428616 -0.392734 0.109348 0.00349705 -0.0910049 -0.226765 0.379996 -0.139061 0.17846 0.258156 -0.144119 0.154719 -0.313352 0.124278 0.604426 -0.0293615 -0.16394 0.420616 -0.0688032 0.189493 0.486041 0.290274 -0.23295 0.385944 -0.0182916 -0.047326 0.251759 0.180542 0.00748171 0.0450692 0.247384 0.163434 0.329946 0.0342859 -0.222895 0.169803 0.109224 0.323711 0.025241 0.498937 -0.148294 0.344686 0.320307 -0.406344 0.221488 -0.126484 0.120571 0.612623 -0.115957 0.0809915 0.0201396 -0.317229 0.176214 0.121469 0.0055527 -0.0658071 -0.131597 0.0300328 0.191982 0.143958 0.00173207 -0.416012 0.138206 -0.0632973 0.71295 -0.212521 0.226709 0.0328189 0.418492 -0.0797342 0.0810639 0.283555 -0.306237 0.242631 0.0404136 -0.244718 -0.132923 -0.103221 -0.343672 -0.0309113 -0.280899 -0.316083 -0.303981 -0.316209 -0.175993 -0.0165518 -0.301269 0.0512732 -0.195395 -0.221383 0.223607 -0.342687 0.247265 -0.0542153 -0.0255382 -0.0446212 0.21647
229 0.314766 -0.184426 -0.0106566 0.264524 0.165288 -0.3871 -0.124408 0.387524 0.132561 -0.0473091 -0.034163 0.216946 -0.0372007 -0.0648361 -0.119914 0.0137653 0.192423 -0.411266 -0.195794 0.198925 -0.00702777 0.148518 -0.271631 -0.298673 -0.0995246 0.00448068 0.0505948 0.13558 0.340914 0.153689 0.120886 -0.349596 -0.34299 0.0804862 0.00624831 -0.0688386 -0.206232 0.32881 -0.149316 0.139035 0.242319 -0.112679 0.159676 -0.293528 0.120289 0.519441 -0.0302207 -0.149577 0.353608 -0.0457226 0.165677 0.409152 0.239094 -0.214782 0.34413 -0.000416092 -0.0544481 0.212497 0.159647 0.00779623 0.0193726 0.225977 0.1163 0.281128 0.0357416 -0.224944 0.163652 0.093268 0.299609 0.00614961 0.44127 -0.112745 0.289548 0.279106 -0.355541 0.213181 -0.0854251 0.0980394 0.544279 -0.117267 0.072631 0.0394426 -0.278089 0.157188 0.0876823 0.00159334 -0.0815597 -0.146661 0.00984034 0.177705 0.095597 -0.0106223 -0.387095 0.0929479 -0.0572769 0.651764 -0.187542 0.168331 0.0322868 0.346144 -0.0826854 0.0834544 0.244403 -0.253018 0.211331 0.001607 -0.223008 -0.106853 -0.101734 -0.321898 -0.0503418 -0.255779 -0.267367 -0.252526 -0.279113 -0.143372 -0.0214425 -0.246968 0.0206811 -0.171633 -0.188882 0.163895 -0.285112 0.205004 -0.0528204 -0.0100346 -0.0584979 0.189721
232 0.272667 -0.163733 0.00117948 0.269338 0.219395 -0.464501 -0.234831 0.460181 0.0884274 -0.00291559 -0.186615 0.24189 0.0258956 -0.0853604 -0.140111 -0.0773424 0.160021 -0.460538 -0.160949 0.296814 0.0296291 0.139491 -0.334648 -0.408306 -0.0829145 -0.0259576 0.0727537 0.143377 0.190222 0.0818597 0.143932 -0.483033 -0.390709 0.108797 -0.0110626 -0.135539 -0.120086 0.40339 -0.137434 0.241894 0.173833 -0.150053 0.0637413 -0.269034 0.0162282 0.593631 0.0184829 -0.145657 0.482144 -0.103276 0.237588 0.53566 0.299092 -0.219088 0.350088 -0.0360999 -0.0434932 0.287117 0.230024 -0.0438008 0.164876 0.228202 0.205038 0.283502 0.0166691 -0.153805 0.0691953 0.0557122 0.304405 0.0487096 0.49229 -0.223611 0.308524 0.347271 -0.403687 0.221917 -0.138523 0.130751 0.596589 -0.0695543 0.0639461 -0.0649874 -0.312656 0.174837 0.162191 -0.00802854 -0.0182495 -0.091384 0.13914 0.141362 0.22841 0.0253098 -0.37459 0.202662 -0.0277964 0.65778 -0.175895 0.333412 0.0590171 0.450342 -0.0794124 0.0720883 0.325595 -0.341973 0.175609 0.186812 -0.200124 -0.164057 -0.0711222 -0.344321 0.000598618 -0.26107 -0.392378 -0.309217 -0.329649 -0.201751 0.00412324 -0.31189 0.0639101 -0.195172 -0.216491 0.355954 -0.400037 0.27334 -0.0479822 -0.034674 0.00529245 0.186642
233 0.296403 -0.157619 0.000807628 0.294803 0.24463 -0.525621 -0.262135 0.49917 0.155754 0.0123005 -0.214494 0.242736 0.0265997 -0.106803 -0.154145 -0.0784509 0.160753 -0.496533 -0.177062 0.342556 0.015452 0.135197 -0.35493 -0.478191 -0.047059 -0.024067 0.0598592 0.162475 0.195362 0.0843265 0.182947 -0.560615 -0.440686 0.131653 -0.0173014 -0.153719 -0.122137 0.424591 -0.138789 0.272782 0.162225 -0.177188 0.0638245 -0.309128 -0.0155658 0.668925 0.0529953 -0.189043 0.528893 -0.104369 0.289026 0.590321 0.348071 -0.219567 0.375982 -0.0189732 -0.0468838 0.315484 0.278513 -0.0784009 0.185645 0.258518 0.226348 0.317354 0.0410353 -0.168031 0.0683371 0.0592344 0.335743 0.0561675 0.527951 -0.234286 0.354062 0.384244 -0.445879 0.228259 -0.181449 0.169298 0.662678 -0.0356203 0.0564331 -0.0784813 -0.322018 0.185537 0.181306 -0.0341021 -0.018711 -0.100076 0.174421 0.165364 0.238293 0.0471736 -0.428274 0.239159 -0.0246689 0.771775 -0.165395 0.338733 0.0642912 0.505423 -0.0985442 0.0876496 0.362837 -0.401772 0.189644 0.246195 -0.195425 -0.166598 -0.0505243 -0.373933 0.0312347 -0.298143 -0.445746 -0.335172 -0.34416 -0.214167 0.00137212 -0.336114 0.0623951 -0.224026 -0.258416 0.422909 -0.438719 0.325029 -0.06425 -0.0558689 -0.0184455 0.193679
64 0.176731 -0.00382364 0.110306 0.220993 0.0244196 -0.0986011 -0.0616129 0.13981 0.312774 -0.0213712 -0.15079 0.0764491 -0.153332 -0.221513 -0.0485379 0.0574089 0.128432 -0.0815186 0.00200316 -0.123836 -0.143008 -0.128406 -0.110538 -0.132198 0.165661 -0.0568681 -0.052982 0.23078 0.278302 0.209877 0.129498 -0.136505 -0.226459 0.172915 -0.0263876 0.056636 0.149717 0.104855 -0.611322 0.143572 -0.123312 -0.0755568 -0.0767751 -0.360634 -0.275859 0.303348 0.0617494 -0.150361 0.0607653 0.114871 0.153239 0.189334 0.0517744 -0.0666396 0.182853 0.019966 0.0588725 0.514896 0.234011 -0.2682 0.134516 0.201959 -0.0281446 0.0828351 0.139391 -0.21301 0.05714 0.116211 0.112988 -0.0585511 -0.0853695 -0.203867 -0.083554 0.0965733 -0.285539 0.283891 0.149055 0.114467 0.410986 0.052088 -0.0413293 0.0535268 -0.350682 0.215251 -0.00776429 -0.160312 -0.143127 -0.039025 0.0897105 -0.01814 -0.109362 -0.105798 -0.112271 0.0311148 -0.00977674 0.489446 0.216119 -0.0769865 0.296833 -0.0324753 -0.287858 0.0110627 0.278876 -0.219773 0.0755096 0.0572034 -0.0780284 -0.16844 -0.094575 -0.267785 -0.132514 -0.168236 -0.311357 -0.0439806 0.0213721 -0.0302112 -0.149375 0.176996 -0.078598 -0.0971875 -0.0701545 0.289496 -0.142241 0.140368 -0.144399 0.175521 -0.155886 -0.0222916
65 0.265217 -0.0790836 0.123555 0.192673 0.110989 -0.0587252 -0.00499191 0.164924 0.418546 -0.079445 -0.222376 0.119059 -0.252774 -0.241547 -0.0432559 0.0384046 0.11073 -0.0308661 0.107835 -0.197399 -0.096054 -0.228807 -0.196043 -0.216218 0.14899 -0.120782 -0.0464402 0.244317 0.272557 0.267527 -0.0361605 -0.0667499 -0.192184 0.187324 0.00758545 0.112418 0.255594 0.0890273 -0.771732 0.238681 -0.169338 -0.178015 -0.0876528 -0.314627 -0.320492 0.321834 0.0317376 -0.177779 -0.0511943 0.144787 0.156661 0.23712 -0.0199909 -0.0458378 0.127636 0.0978317 0.148923 0.484642 0.253751 -0.337609 0.164266 0.0612143 0.00838496 0.140391 0.106924 -0.158466 0.0330093 0.123163 -0.0776864 -0.0811536 -0.132238 -0.248423 -0.189201 0.0748861 -0.151258 0.286367 0.249632 -0.000657007 0.467766 0.130118 -0.052144 0.0751018 -0.432295 0.164699 -0.0275263 -0.140245 -0.197099 0.0425864 0.160474 0.0584415 -0.138883 -0.143238 -0.0469492 0.0493698 -0.0130192 0.508802 0.226358 -0.0428514 0.388401 -0.115236 -0.259843 0.0247406 0.354162 -0.244256 0.0625827 0.0417614 -0.0573364 -0.110441 -0.0476141 -0.250282 -0.204123 -0.0726937 -0.341267 -0.0875622 0.0949337 -0.0520149 -0.107786 0.202078 -0.118545 -0.121293 -0.0574785 0.236509 -0.0956669 0.141294 -0.0994475 0.207892 -0.266124 -0.0312171
63 0.206398 -0.0707135 0.167552 0.243554 -0.0144222 0.0273037 -0.106724 0.138798 0.366543 -0.102709 -0.213138 0.0714526 -0.238734 -0.113341 -0.0443559 0.0633099 0.174952 -0.0952632 0.138823 -0.120861 -0.250557 -0.200472 -0.155879 -0.176629 0.19822 -0.0802455 -0.0432574 0.198874 0.261352 0.297267 0.167567 -0.12012 -0.186815 0.180573 -0.11489 0.104198 0.193517 0.119196 -0.690459 0.142934 -0.208449 -0.0485777 -0.140566 -0.442938 -0.354976 0.311689 0.0569298 -0.106033 0.109835 0.117163 0.1578 0.154941 0.03992 -0.087699 0.146191 0.0287797 -0.010006 0.626687 0.239391 -0.403862 0.098625 0.189553 0.0351306 0.0518128 0.185869 -0.133925 0.102156 0.166677 0.0698404 -0.0573409 -0.107381 -0.244605 -0.108105 0.0553806 -0.310994 0.316856 0.1946 0.206538 0.442844 0.169203 -0.0736597 -0.0402888 -0.385277 0.226255 -0.00514912 -0.25772 -0.0999394 0.0807349 0.0727493 -0.0342571 -0.0245062 -0.170624 -0.0576098 -0.00961105 -0.0293666 0.473183 0.242577 -0.0370834 0.372809 -0.0524795 -0.389917 0.0638766 0.271979 -0.310534 0.0806001 0.104109 -0.157995 -0.269905 -0.209307 -0.297951 -0.132245 -0.1686 -0.297516 -0.00760262 0.0976455 0.00350882 -0.135318 0.260626 -0.0709159 -0.0206876 -0.0572852 0.326566 -0.0782892 0.095211 -0.0863064 0.218468 -0.224639 -0.0758681
185 -0.0971726 0.0952716 0.0110437 0.0153464 0.0867686 -0.22071 -0.0645491 0.193937 0.294247 -0.207869 0.163812 0.191323 -0.28348 0.164128 -0.0402121 0.0187015 -0.446743 -0.106371 0.258767 -0.0225222 -0.0363866 -0.0731192 0.0105659 -0.191796 0.167716 -0.0290286 -0.102605 0.0656095 0.394876 0.227264 0.166271 -0.286409 -0.729019 -0.141413 0.150562 -0.0610011 -0.193713 0.0529087 -0.356734 -0.0762853 -0.26693 -0.0630014 -0.138461 -0.39325 -0.193004 0.162053 0.0108138 0.233384 0.318284 0.136536 0.392011 0.227171 0.147984 -0.156972 0.374887 -0.262703 -0.170233 0.602528 0.176484 -0.295499 0.110467 0.967952 -0.150207 0.363036 -0.374205 -0.52719 -0.151144 0.318035 0.317579 -0.0654295 0.0609367 -0.375303 0.333861 0.308021 -0.319035 0.58337 -0.0780309 0.284382 0.599269 -0.153996 0.00707979 0.0222717 -0.225606 0.285674 -0.0173366 -0.192872 -0.0172793 -0.328889 0.108247 0.176075 -0.587992 -0.0235885 -0.333144 0.300731 -0.269211 0.312824 0.261152 -0.54266 0.504423 0.160645 -0.296838 -0.302896 0.517743 0.00262294 0.0845344 0.000116388 0.391986 0.00150003 0.229538 -0.0861193 -0.150198 -0.237541 -0.496216 0.036067 -0.081642 -0.286371 -0.40567 -0.146405 -0.279854 -0.269345 -0.330599 0.233015 -0.465723 0.0319572 -0.110303 0.0124105 -0.0156509 -0.146262
183 -0.105925 0.109513 -0.0270889 0.0367667 0.0442779 -0.226393 -0.076584 0.213863 0.250387 -0.201627 0.20458 0.20703 -0.26728 0.171082 -0.011839 0.000208582 -0.404835 -0.0682968 0.27279 -0.0128799 -0.071853 -0.0845348 -0.00827932 -0.202497 0.161709 -0.0603896 -0.109089 0.0545402 0.385059 0.193285 0.177482 -0.283801 -0.740117 -0.165801 0.144889 -0.131882 -0.185212 0.0341708 -0.336843 -0.0523565 -0.222372 -0.032203 -0.16986 -0.354169 -0.208424 0.122985 -0.00348913 0.281811 0.288008 0.147795 0.387397 0.188211 0.13542 -0.122317 0.325199 -0.199987 -0.147966 0.567692 0.192424 -0.302453 0.132419 0.929044 -0.150624 0.358142 -0.366141 -0.552887 -0.157516 0.264106 0.297121 -0.0596606 0.0223642 -0.340521 0.335689 0.270924 -0.300347 0.57364 -0.0372181 0.333331 0.556459 -0.156938 0.00105855 0.0407246 -0.215054 0.315976 -0.0344841 -0.150828 0.00412804 -0.289414 0.151048 0.134473 -0.620352 -0.0412245 -0.296526 0.332411 -0.216621 0.303411 0.236475 -0.488749 0.480303 0.174806 -0.256244 -0.339593 0.519646 -0.0120625 0.0949082 0.0401696 0.403222 -0.0190904 0.200153 -0.0850504 -0.119253 -0.265837 -0.520619 0.0666302 -0.0296305 -0.276757 -0.384478 -0.135021 -0.271777 -0.285051 -0.284887 0.24196 -0.425611 0.0360063 -0.0845922 0.00441561 -0.0344687 -0.165731
184 -0.0949188 0.0914377 -0.00112075 0.00505385 0.0562837 -0.218063 -0.0542152 0.186488 0.249064 -0.190344 0.177153 0.190093 -0.258247 0.167266 -0.00961724 0.00832827 -0.415336 -0.0847085 0.258296 -0.00785237 -0.0385186 -0.0662569 0.00203647 -0.182579 0.145607 -0.0399313 -0.0956752 0.0421925 0.35685 0.179184 0.152913 -0.253398 -0.680237 -0.168338 0.13748 -0.100279 -0.193084 0.0347236 -0.286232 -0.0824464 -0.21982 -0.0345065 -0.15781 -0.331079 -0.16758 0.123203 -0.00975277 0.256074 0.301071 0.137991 0.366146 0.199337 0.140609 -0.12117 0.313951 -0.21612 -0.156975 0.513844 0.159189 -0.267307 0.103235 0.861474 -0.146701 0.333058 -0.347618 -0.48551 -0.135042 0.270726 0.288969 -0.058797 0.0435391 -0.327544 0.329725 0.267634 -0.279393 0.517023 -0.0685171 0.292793 0.512728 -0.143353 0.0211012 0.0298514 -0.177952 0.278727 -0.0266498 -0.160078 0.00188295 -0.302394 0.125229 0.150487 -0.554518 -0.0315514 -0.283603 0.300341 -0.237978 0.258715 0.229101 -0.480011 0.428998 0.167883 -0.246985 -0.295548 0.485625 0.00723567 0.0804137 0.0290508 0.389642 -0.00633912 0.204021 -0.0638512 -0.127512 -0.227056 -0.474362 0.0380652 -0.0505102 -0.263331 -0.36807 -0.159935 -0.26034 -0.259047 -0.280714 0.221637 -0.394488 0.0132562 -0.0823131 0.00360502 -0.0171319 -0.147514
186 -0.0889874 0.117078 0.0841641 -0.00559676 0.101373 -0.195418 -0.0381263 0.195643 0.285375 -0.159344 0.0794472 0.181362 -0.292393 0.100937 -0.0768705 0.034325 -0.462648 -0.156307 0.194859 -0.00851258 0.0013645 -0.0584363 0.0301374 -0.146322 0.179714 -0.00305266 -0.0966466 0.106954 0.390468 0.231109 0.199895 -0.265822 -0.695998 -0.0574224 0.129424 0.0469031 -0.193601 0.0631557 -0.391657 -0.094419 -0.24408 -0.108527 -0.0863213 -0.443053 -0.133755 0.218486 0.0404878 0.157629 0.314218 0.083917 0.397069 0.28603 0.164486 -0.149651 0.394286 -0.304693 -0.182506 0.598295 0.17763 -0.282372 0.0892936 0.924456 -0.112107 0.333995 -0.366038 -0.508318 -0.142746 0.38771 0.32152 -0.094335 0.110765 -0.396142 0.275819 0.342243 -0.29854 0.542594 -0.0861982 0.172142 0.596043 -0.180442 0.0284616 -0.0208632 -0.243743 0.229756 0.0015827 -0.222509 -0.0457722 -0.342295 0.0173643 0.249115 -0.533246 -0.00600627 -0.347955 0.247036 -0.279478 0.345083 0.260924 -0.513043 0.525532 0.155697 -0.312235 -0.264042 0.484834 0.00976123 0.0385833 -0.0552653 0.344421 0.00638653 0.262172 -0.0901864 -0.225545 -0.252003 -0.43742 -0.033642 -0.155852 -0.264823 -0.419599 -0.134841 -0.273896 -0.273338 -0.327454 0.212665 -0.433237 0.0125817 -0.154225 0.0497974 -0.0416685 -0.135131
188 -0.0931695 0.116238 0.134196 -0.0388411 0.107775 -0.149447 -0.0363189 0.172771 0.267851 -0.11233 0.0215507 0.169015 -0.289463 0.0985029 -0.110818 0.0618736 -0.494842 -0.163077 0.178559 -0.006186 0.0550178 -0.0441457 0.0615973 -0.112064 0.174706 0.00694217 -0.103171 0.112676 0.341036 0.223389 0.215342 -0.256114 -0.627246 -0.00193235 0.140107 0.119324 -0.210314 0.0521249 -0.378035 -0.104289 -0.270634 -0.160518 -0.0433946 -0.456495 -0.124367 0.215237 0.0524696 0.135617 0.301977 0.00526789 0.378675 0.283761 0.154006 -0.154135 0.392595 -0.355247 -0.18036 0.564004 0.139327 -0.276771 0.0793838 0.9013 -0.0585128 0.27763 -0.386621 -0.471075 -0.11989 0.429883 0.303899 -0.100825 0.136309 -0.412695 0.259022 0.320417 -0.272876 0.490759 -0.115238 0.101152 0.56525 -0.168271 0.00921931 -0.0575246 -0.234475 0.203178 0.0277697 -0.258414 -0.0582153 -0.329711 -0.0623652 0.306287 -0.497622 0.00733189 -0.340593 0.215276 -0.284674 0.309228 0.238405 -0.49168 0.544169 0.117597 -0.319826 -0.254293 0.439023 0.00056625 -0.0192981 -0.111188 0.303302 0.0164708 0.277413 -0.0728673 -0.260355 -0.204169 -0.386992 -0.0867843 -0.185315 -0.224829 -0.416479 -0.111679 -0.248822 -0.261812 -0.33523 0.168297 -0.400525 0.0103835 -0.170688 0.0621579 -0.0569693 -0.121097
67 0.322485 -0.106063 0.0967354 0.152007 0.204236 -0.107256 0.0572686 0.2031 0.495044 -0.0784118 -0.230401 0.141284 -0.269909 -0.333671 -0.0601138 0.00240286 0.0763121 -0.00800841 0.0863386 -0.266215 -0.00974143 -0.24929 -0.254898 -0.249675 0.124575 -0.157626 -0.0346088 0.289108 0.277118 0.257509 -0.204572 -0.0363124 -0.20138 0.199884 0.100047 0.117649 0.32493 0.0764987 -0.844619 0.314849 -0.16104 -0.274907 -0.0564937 -0.227156 -0.30779 0.344252 0.0369439 -0.225628 -0.157459 0.193002 0.160789 0.309056 -0.042538 -0.0225764 0.111754 0.148362 0.236734 0.414235 0.266508 -0.299185 0.205451 -0.00838998 -0.0161187 0.22376 0.0501075 -0.17991 0.00594169 0.111602 -0.199128 -0.106 -0.156924 -0.254336 -0.244855 0.0932412 -0.0666035 0.29534 0.293152 -0.122477 0.526595 0.106643 -0.0365128 0.141875 -0.460899 0.1478 -0.0342167 -0.0698819 -0.252082 0.020711 0.246186 0.126456 -0.202116 -0.118412 -0.0285891 0.0901275 -0.0111438 0.545377 0.22691 -0.0484269 0.404196 -0.159308 -0.186679 0.00473676 0.41838 -0.215036 0.0606845 0.0177922 0.0105688 -0.00978512 0.0518747 -0.233059 -0.25172 0.00653987 -0.382604 -0.143245 0.107627 -0.0882617 -0.100212 0.161403 -0.171161 -0.169421 -0.0741338 0.205217 -0.119535 0.169272 -0.126988 0.220973 -0.299138 0.00672262
159 0.020514 0.0689196 0.0788074 0.105815 -0.000425035 0.00679222 0.225956 0.0520682 -0.28802 -0.0185512 -0.258297 0.0856993 0.0354141 -0.427754 -0.108507 0.112949 -0.0903598 -0.117506 -0.118914 -0.0485728 -0.23704 -0.217478 0.000401643 0.0858164 0.150006 0.226333 -0.066459 0.449591 0.290314 0.188599 0.142612 -0.204651 -0.404921 0.278473 -0.130158 -0.0534437 0.16254 -0.0256389 -0.323323 0.00780503 0.0375654 0.166526 -0.204312 -0.211177 -0.0951238 0.43134 0.179447 -0.198942 0.0198355 0.100706 0.176594 0.105967 0.115872 -0.27361 0.329655 0.226352 0.274206 0.585426 0.189335 -0.0860825 -0.0205303 -0.0814398 -0.320101 0.0489028 0.289708 -0.54273 -0.0609742 0.115425 0.22913 -0.100278 -0.0811116 -0.0101586 -0.0577903 -0.106718 -0.244566 0.109966 0.0607893 0.0218691 -0.0147149 0.0049287 0.104137 0.0612954 -0.490342 0.17461 -0.0666632 -0.056452 -0.0706438 -0.413057 0.237027 -0.077588 -0.349885 -0.196624 -0.174391 0.0707004 0.222139 0.413047 0.420448 -0.171147 0.0499113 0.300678 -0.198407 0.0119984 0.25566 -0.017928 0.189868 -0.138157 0.200789 0.067978 0.0578865 -0.257949 -0.236274 -0.459702 -0.465937 -0.0542915 -0.205048 0.166532 -0.0824763 0.0535074 -0.0816418 -0.207154 -0.0188988 0.471288 0.0733165 0.430496 0.0206393 0.210397 0.143208 -0.295326
158 -0.13308 0.16153 0.0844511 0.0376015 0.104047 -0.0706697 0.24011 0.0605442 -0.193351 -0.20891 -0.153948 -0.0194951 -0.0320173 -0.546391 -0.0913172 0.108751 -0.0632871 -0.146942 -0.14575 -0.0137753 -0.151064 -0.247237 0.000405809 0.0477832 0.110178 0.332827 -0.0667662 0.45883 0.167738 0.294176 0.102088 -0.222476 -0.377202 0.205461 0.0258354 -0.087618 0.152655 -0.0216317 -0.352421 0.0049272 -0.0631892 0.129971 -0.281688 -0.179664 -0.179301 0.329499 0.0902791 -0.222725 0.10624 0.0564463 0.172943 0.169793 0.0396239 -0.299665 0.220104 0.176121 0.255239 0.37235 0.160503 0.0111189 0.0445256 -0.0572455 -0.276925 -0.0445323 0.248949 -0.521718 -0.0470349 0.132073 0.319895 -0.0255819 -0.253019 -0.134004 -0.11949 -0.0875078 -0.326902 0.211321 0.0580731 0.204002 0.135913 -0.0218717 0.00477369 0.0545403 -0.522964 0.232683 -0.126281 0.144864 -0.0763304 -0.404491 0.210429 -0.0244415 -0.43006 -0.176581 -0.0718754 -0.0342172 0.287468 0.449166 0.499955 -0.251083 0.0534153 0.226762 -0.197838 0.0121812 0.131557 0.0485572 0.295627 -0.189496 0.161328 0.0212551 0.0689053 -0.293009 -0.384833 -0.446299 -0.682671 -0.206115 -0.163729 0.0252484 -0.0659922 0.112644 -0.00631724 -0.317178 -0.0759911 0.555496 -0.0234318 0.355695 -0.0664218 0.234307 0.0796216 -0.251246
160 0.0428022 0.0588395 0.0679115 0.129768 -0.0323805 -0.00759666 0.181595 0.0573257 -0.241577 0.024605 -0.243832 0.0936937 0.0486824 -0.385521 -0.090265 0.105163 -0.0712078 -0.112731 -0.120266 -0.0646898 -0.218306 -0.171258 0.00420735 0.0785837 0.15502 0.177988 -0.0716782 0.421219 0.303285 0.147871 0.154729 -0.1949 -0.391575 0.269368 -0.138717 -0.0406472 0.146686 -0.0111176 -0.317959 0.0209785 0.05312 0.150347 -0.159607 -0.229234 -0.0880364 0.414671 0.178114 -0.175217 0.0188392 0.1042 0.163286 0.0977927 0.123187 -0.229076 0.33226 0.185548 0.227603 0.590187 0.194033 -0.103115 -0.00560071 -0.0359634 -0.297857 0.0688932 0.252581 -0.507309 -0.0552244 0.107759 0.211721 -0.0926782 -0.0522192 -0.0068952 -0.0453106 -0.0715541 -0.244946 0.103798 0.0636838 0.00323953 0.00699593 -0.0150037 0.10118 0.062728 -0.443361 0.162707 -0.0526183 -0.0861369 -0.0618677 -0.375037 0.212789 -0.0975328 -0.312464 -0.164784 -0.185131 0.089884 0.178846 0.401695 0.372426 -0.127504 0.0657512 0.276763 -0.189563 0.00534687 0.271334 -0.0465111 0.14694 -0.1121 0.17307 0.0476326 0.0438605 -0.244401 -0.173998 -0.420611 -0.399785 -0.0203323 -0.196164 0.150545 -0.0938178 0.0395836 -0.0877888 -0.174459 -0.0120662 0.431716 0.0361441 0.39673 -0.0031567 0.185758 0.130748 -0.261076
161 0.0931717 0.0428957 0.0740694 0.182296 -0.0637594 0.0209709 0.222702 0.0518656 -0.324415 0.0985769 -0.328944 0.143077 0.0773725 -0.409794 -0.129716 0.133156 -0.095176 -0.110582 -0.111862 -0.0831895 -0.292705 -0.214872 0.0145914 0.0987687 0.193169 0.187093 -0.0776612 0.481325 0.401496 0.141763 0.204461 -0.224375 -0.450051 0.347006 -0.202292 -0.0321457 0.184135 -0.0325417 -0.358208 0.0260151 0.0928352 0.182253 -0.181204 -0.27825 -0.0740897 0.54181 0.247046 -0.20699 -0.0148097 0.135916 0.184427 0.0827124 0.168951 -0.276815 0.440482 0.243358 0.309753 0.760935 0.226639 -0.163182 -0.035646 -0.0616805 -0.369552 0.126744 0.350559 -0.589215 -0.0834886 0.119621 0.212607 -0.139412 -0.0136006 0.0579553 -0.0251223 -0.105129 -0.255124 0.0715791 0.0630032 -0.0603405 -0.0490343 0.0100226 0.142599 0.0978834 -0.538143 0.1687 -0.0193394 -0.18264 -0.0726386 -0.439287 0.257731 -0.135358 -0.340894 -0.208802 -0.264151 0.132255 0.195352 0.467503 0.412746 -0.149923 0.0819554 0.355757 -0.218096 0.00256901 0.356185 -0.0717558 0.150666 -0.137523 0.214683 0.0954188 0.0643063 -0.25913 -0.167408 -0.518773 -0.386588 0.0304352 -0.259094 0.23284 -0.116386 0.0327576 -0.10729 -0.172219 -0.00636625 0.47714 0.100004 0.507357 0.032855 0.217792 0.173155 -0.322052
272 -0.114218 0.195387 0.132287 -0.0868713 -0.0395224 -0.141564 -0.403008 -0.00898191 0.0622112 0.364784 0.136586 0.273457 0.000505331 -0.0742637 0.349166 0.0808087 0.287208 -0.00201127 -0.164197 0.0850708 0.0893026 -0.0151565 0.276534 0.211294 0.409464 0.0759044 -0.194497 0.0436967 0.265704 -0.238333 0.376008 -0.181624 -0.12776 -0.0968693 -0.143919 -0.0447038 -0.292174 0.34469 -0.52264 0.00375163 0.265763 -0.483532 -0.0512037 -0.337758 -0.266903 0.330153 -0.0772274 -0.262468 0.0256293 0.162462 0.116764 0.312295 -0.221547 0.166499 0.0358529 -0.0833627 0.0848231 0.331769 0.373214 -0.410726 0.0765689 0.283561 0.0419167 -0.123547 -0.0254491 -0.47409 0.0514557 -0.0715145 0.484505 0.11154 0.212944 -0.239326 -0.202036 0.194541 -0.573251 0.473729 0.201014 0.00530061 0.23854 -0.0885506 0.188981 0.0882196 -0.0435123 0.465065 0.164336 -0.010342 -0.12305 -0.246433 -0.0216172 0.0139705 0.211596 -0.40974 -0.250551 -0.0117166 -0.0517913 0.727411 0.054045 0.0126834 0.0856388 0.20966 -0.220276 -0.0742638 0.0823523 0.153335 -0.138376 0.183947 -0.11534 -0.113953 -0.136654 -0.490953 -0.193585 -0.314999 -0.425604 0.221746 -0.0854817 0.103303 -0.343508 0.0665901 -0.149752 -0.445477 -0.293878 0.126725 -0.0720645 0.431957 -0.180645 -0.0820189 0.00192921 -0.0683955
273 -0.05797 0.173643 0.111985 -0.0805907 0.0804097 -0.120215 -0.434354 -0.0222254 0.0802005 0.476252 0.159265 0.305265 0.0327777 -0.0396086 0.361463 -0.0603356 0.369462 0.128519 -0.129549 0.00947016 0.146609 0.00629336 0.324777 0.287876 0.358159 0.0610713 -0.234124 0.0249017 0.289242 -0.337534 0.370134 -0.168064 -0.123987 -0.128049 -0.0825465 -0.0850768 -0.25667 0.396153 -0.585399 0.0120007 0.359667 -0.584583 -0.0720624 -0.261793 -0.313956 0.368917 -0.0968935 -0.332822 -0.000363216 0.144779 0.165789 0.408122 -0.297692 0.217215 0.0693745 -0.0409248 0.101263 0.4164 0.404669 -0.58437 0.212955 0.240802 0.00214489 -0.131421 0.0578011 -0.583142 0.0746376 -0.127193 0.364966 0.0373487 0.254665 -0.273987 -0.339544 0.156373 -0.550709 0.492011 0.27279 0.0912569 0.178906 -0.184579 0.148915 0.0394903 -0.0324641 0.499429 0.196506 0.0583678 -0.299754 -0.180319 0.0101377 0.0252488 0.312492 -0.361524 -0.374394 -0.0109258 -0.0297356 0.702827 -0.0311539 0.14303 0.210118 0.251057 -0.20557 -0.161445 0.0836445 0.142045 -0.25793 0.109427 -0.113184 -0.0466894 -0.119232 -0.507136 -0.363184 -0.375004 -0.387201 0.147249 -0.0743884 0.117668 -0.490348 -0.00208143 -0.0822858 -0.525203 -0.318833 0.1463 -0.104519 0.4915 -0.226922 -0.0700362 0.0339388 -0.123474
274 -0.0561512 0.163154 0.0972703 -0.037787 0.0917643 -0.100852 -0.355077 -0.0401621 0.0917336 0.420704 0.139632 0.233579 0.0294367 -0.0326212 0.329434 -0.0902729 0.329214 0.121116 -0.120562 -0.0416437 0.157322 0.0132936 0.304007 0.264998 0.289395 0.0609598 -0.228591 0.00436165 0.260688 -0.305075 0.33083 -0.138229 -0.114208 -0.108116 -0.0426561 -0.0965233 -0.184979 0.36282 -0.538117 0.00775239 0.338863 -0.533359 -0.0405166 -0.205422 -0.294347 0.304286 -0.0964289 -0.317697 0.0209879 0.119593 0.132824 0.399413 -0.278255 0.184133 0.0928701 -0.0219074 0.0805947 0.366736 0.332446 -0.514138 0.244039 0.200433 -0.0280137 -0.108668 0.0774618 -0.504595 0.0827982 -0.143336 0.282289 0.00287653 0.203131 -0.272896 -0.345129 0.113382 -0.46716 0.378886 0.280373 0.0910042 0.119241 -0.219857 0.117373 0.0112071 -0.0156718 0.426491 0.158254 0.101449 -0.338054 -0.13614 0.0219149 0.0253463 0.309599 -0.283789 -0.337576 -0.0236339 -0.0183098 0.613259 -0.0330534 0.144895 0.213044 0.208247 -0.159894 -0.155462 0.0845795 0.121348 -0.241183 0.048376 -0.10646 -0.020175 -0.0794882 -0.433263 -0.372727 -0.332374 -0.32728 0.109694 -0.0619119 0.0783725 -0.453111 -0.0298359 -0.0393002 -0.45896 -0.247316 0.138097 -0.125756 0.414133 -0.220894 -0.0685177 0.0627191 -0.103579
275 -0.0222942 0.186556 0.0807422 0.00973052 0.111174 -0.146447 -0.364486 -0.00157538 0.151046 0.456845 0.146216 0.246196 0.034505 -0.085611 0.348364 -0.125316 0.355113 0.163745 -0.128377 -0.0654256 0.157549 0.0329817 0.315526 0.258552 0.294637 0.0458691 -0.251444 0.00568331 0.316986 -0.329305 0.385354 -0.154213 -0.166276 -0.100596 -0.0175562 -0.0907373 -0.161604 0.390463 -0.633843 -0.00112195 0.382536 -0.580466 -0.0400194 -0.218181 -0.320125 0.353444 -0.104569 -0.34129 0.0279369 0.145264 0.159553 0.450917 -0.300667 0.190787 0.146161 -0.0111945 0.0896864 0.457251 0.360345 -0.593518 0.28452 0.230884 -0.0461456 -0.111823 0.104205 -0.555285 0.0760844 -0.112218 0.278057 -0.0154469 0.196053 -0.312724 -0.40557 0.116696 -0.511182 0.412938 0.309402 0.133919 0.148056 -0.269271 0.10151 0.00471309 -0.0637357 0.440996 0.169533 0.10831 -0.404179 -0.143719 0.0279458 0.0220116 0.308621 -0.252103 -0.406241 -0.0148101 -0.0223975 0.653167 -0.030599 0.17716 0.286915 0.228204 -0.178642 -0.197425 0.111999 0.0902652 -0.288008 0.0277022 -0.107304 -0.00886331 -0.0935659 -0.451284 -0.424368 -0.411284 -0.34491 0.10091 -0.0779089 0.0719216 -0.544072 -0.0522106 -0.00279918 -0.501346 -0.252023 0.187409 -0.197018 0.436231 -0.259514 -0.0332815 0.0712637 -0.0983103
276 0.0425418 0.204134 0.0486864 0.137998 0.170691 -0.158155 -0.2695 0.0135959 0.239212 0.460899 0.109503 0.205148 0.0460153 -0.130698 0.301734 -0.230022 0.326949 0.217738 -0.131775 -0.165655 0.155446 0.0633548 0.292665 0.251012 0.238453 0.0347714 -0.286044 -0.00398882 0.368859 -0.304357 0.403573 -0.182276 -0.231894 -0.0694591 0.0617394 -0.10128 -0.0757743 0.368338 -0.690159 0.0100697 0.389247 -0.587506 -0.0198031 -0.152851 -0.346951 0.351703 -0.0641783 -0.382664 0.0530574 0.115433 0.206873 0.514128 -0.275546 0.170986 0.235504 0.0596942 0.0738574 0.481392 0.320992 -0.597816 0.438296 0.209995 -0.121865 -0.0824603 0.204062 -0.565986 0.106261 -0.126657 0.167386 -0.129002 0.173824 -0.361925 -0.45271 0.0638928 -0.438461 0.326082 0.337761 0.208442 0.114878 -0.3544 0.0594381 -0.0304336 -0.0847785 0.413951 0.161998 0.179675 -0.598882 -0.0686853 0.0839701 0.0283343 0.335505 -0.152137 -0.494428 0.0145939 0.0197516 0.653869 -0.014098 0.210083 0.377773 0.239723 -0.204305 -0.286122 0.149105 -0.0127012 -0.310748 -0.10743 -0.0790211 0.0294596 -0.0469093 -0.425065 -0.544376 -0.435634 -0.352919 -0.0166905 -0.0579527 0.0285381 -0.614284 -0.0999444 0.0874921 -0.469166 -0.210982 0.200801 -0.285182 0.408888 -0.304862 0.00618899 0.0951795 -0.0920116
269 -0.203709 0.18778 0.116761 -0.135035 -0.158278 -0.173432 -0.341586 0.0353688 0.0672828 0.240349 0.100633 0.187716 -0.0445202 -0.106697 0.38778 0.223092 0.189105 -0.113131 -0.192242 0.110285 0.0581153 -0.0637912 0.259239 0.13345 0.453863 0.102756 -0.0969054 0.0188581 0.247801 -0.146565 0.414633 -0.327968 -0.105047 -0.104884 -0.160503 0.0372824 -0.2911 0.28605 -0.481018 -0.058018 0.230336 -0.420314 -0.0573195 -0.395823 -0.194899 0.253662 -0.0507491 -0.180596 0.0377675 0.221722 0.0252925 0.16917 -0.0894021 0.0922366 0.0714831 -0.108565 0.11007 0.230881 0.314771 -0.189148 -0.0952864 0.293762 -0.00917072 -0.128058 -0.00946087 -0.366994 0.0343827 -0.00792658 0.612678 0.143902 0.136025 -0.182097 -0.0425315 0.179001 -0.65769 0.401586 0.0624701 -0.105718 0.278076 0.0187892 0.241864 0.131593 -0.0974642 0.44321 0.216044 -0.0543083 0.0798306 -0.361301 0.000610983 -0.0396329 0.191341 -0.485694 -0.149737 0.0248682 -0.120785 0.738862 0.134216 -0.203346 -0.059046 0.199956 -0.284566 -0.0179577 0.0901704 0.108948 -0.0469609 0.196959 -0.093057 -0.116101 -0.158609 -0.457292 -0.0270371 -0.310284 -0.492585 0.316421 -0.110353 0.109333 -0.27065 0.0657796 -0.141829 -0.401118 -0.275486 0.140573 -0.0412114 0.37242 -0.127779 -0.0773058 -0.0114503 0.0250659
270 -0.157531 0.180564 0.125603 -0.131894 -0.115872 -0.143509 -0.39316 -0.000302351 0.0356728 0.306771 0.126141 0.256763 -0.00725756 -0.0898537 0.377648 0.161764 0.247969 -0.0571335 -0.162047 0.107932 0.0744909 -0.0212708 0.273873 0.217856 0.440912 0.08906 -0.1404 0.0372904 0.232578 -0.209699 0.386633 -0.219979 -0.0872535 -0.110973 -0.185153 -0.0119086 -0.310658 0.320636 -0.480691 -0.0226609 0.229966 -0.449988 -0.0471166 -0.353848 -0.237199 0.288119 -0.0803011 -0.224857 0.023543 0.180495 0.0707945 0.222909 -0.197409 0.133407 0.0255715 -0.0911274 0.0975778 0.266792 0.359961 -0.311945 -0.00991834 0.288292 0.0436507 -0.132552 -0.0440083 -0.427249 0.0312863 -0.0431372 0.552504 0.149284 0.208797 -0.203595 -0.129918 0.174736 -0.603133 0.452456 0.155504 -0.0668805 0.23182 -0.0238248 0.20606 0.119019 -0.0705134 0.445167 0.175722 -0.0272098 -0.00961533 -0.312621 -0.0239245 -0.0133799 0.191717 -0.453977 -0.201978 -0.00431987 -0.0879326 0.718375 0.076409 -0.056969 -0.0019942 0.202572 -0.23969 -0.0465533 0.0651475 0.161608 -0.101091 0.212423 -0.104786 -0.122267 -0.175705 -0.489253 -0.112057 -0.306151 -0.459869 0.277733 -0.100775 0.105762 -0.291322 0.0765608 -0.156823 -0.407666 -0.272244 0.113683 -0.0366348 0.426193 -0.144528 -0.0742858 -0.00532716 -0.0312541
271 -0.08839 0.152809 0.109816 -0.0802818 -0.0678995 -0.118762 -0.31742 -0.00258103 0.0374676 0.270331 0.0940137 0.213467 0.00301576 -0.0939851 0.270433 0.117489 0.214997 -0.0278523 -0.136442 0.0743154 0.0399814 -1.51864e-05 0.20839 0.183432 0.335137 0.0698493 -0.124234 0.0638279 0.211765 -0.161564 0.290546 -0.153342 -0.0883585 -0.0641116 -0.137953 -0.0204454 -0.244485 0.254844 -0.39652 -0.00137581 0.170654 -0.345992 -0.0403658 -0.289138 -0.203088 0.271205 -0.0551658 -0.207601 0.017643 0.131975 0.0875693 0.21796 -0.165265 0.110965 0.0323406 -0.0727008 0.0909594 0.259332 0.309581 -0.275563 0.0263873 0.239944 0.0446508 -0.0902272 -0.0150633 -0.37164 0.0355525 -0.0416057 0.425774 0.110483 0.167109 -0.160074 -0.113454 0.146062 -0.474888 0.381275 0.132931 -0.0214501 0.197175 -0.0452947 0.14416 0.0981809 -0.0621434 0.366161 0.120985 -0.0263238 -0.0483283 -0.246273 -0.0182161 0.00482183 0.123094 -0.334863 -0.181559 -0.0119913 -0.0484538 0.585314 0.0606448 -0.0276237 0.0373193 0.163164 -0.1941 -0.04144 0.0675841 0.131893 -0.06911 0.16509 -0.079079 -0.106826 -0.129058 -0.396358 -0.10951 -0.245937 -0.36608 0.182643 -0.0746121 0.0864352 -0.241668 0.0651635 -0.138307 -0.335999 -0.217147 0.119495 -0.0404652 0.362232 -0.136779 -0.058788 -0.0123417 -0.0410121
267 -0.180988 0.151652 0.131175 -0.0721077 -0.141315 -0.202929 -0.267211 0.0482774 0.143788 0.178441 0.0969787 0.104562 -0.0460358 -0.136662 0.328976 0.19167 0.177113 -0.138459 -0.193261 0.0674978 0.0428127 -0.081641 0.251693 0.0729764 0.388788 0.0940164 -0.0382142 0.0283706 0.223666 -0.0848508 0.409784 -0.356866 -0.116373 -0.0849705 -0.0918513 0.0460495 -0.215494 0.246969 -0.452436 -0.0668784 0.228635 -0.365356 -0.0492543 -0.391482 -0.134999 0.223362 -0.0273683 -0.15249 0.0440616 0.215157 -0.00857493 0.117221 -0.029577 0.0566767 0.119781 -0.117363 0.0893741 0.21482 0.284434 -0.111663 -0.093761 0.271324 -0.0524842 -0.0881093 0.0648729 -0.29271 -0.00547163 0.00311643 0.557335 0.125672 0.0540061 -0.148097 -0.0141093 0.142806 -0.644363 0.295399 0.0185434 -0.0697355 0.297938 -0.00797926 0.196945 0.115836 -0.129353 0.385109 0.214767 -0.0494275 0.102627 -0.354616 0.0176856 -0.0332303 0.159061 -0.405038 -0.134694 0.0180504 -0.15713 0.6726 0.127729 -0.246782 -0.0534614 0.14346 -0.246547 -0.00936896 0.124719 0.0553999 -0.0429784 0.156389 -0.102211 -0.0829796 -0.126435 -0.38417 -0.015349 -0.303584 -0.438463 0.260764 -0.0929671 0.0879597 -0.272528 0.0513045 -0.11859 -0.354211 -0.22159 0.209299 -0.0485415 0.29414 -0.121627 -0.0501706 -0.0108784 0.0464078
268 -0.164249 0.154682 0.111176 -0.0811859 -0.151789 -0.18187 -0.263923 0.0557805 0.111967 0.178022 0.0781249 0.13112 -0.0363196 -0.124458 0.318774 0.210941 0.14704 -0.139658 -0.184867 0.068841 0.0348865 -0.0693488 0.222662 0.0820305 0.399427 0.0842198 -0.0650908 0.027256 0.21251 -0.0877219 0.387202 -0.319067 -0.115423 -0.0653007 -0.120833 0.0501671 -0.209151 0.240289 -0.444874 -0.0566943 0.189067 -0.340156 -0.0508788 -0.376244 -0.157574 0.213657 -0.0234236 -0.144411 0.0505288 0.200913 0.00395459 0.122516 -0.0328175 0.0518704 0.0956118 -0.0891343 0.0891138 0.196792 0.272219 -0.115905 -0.0778832 0.265535 -0.0289358 -0.0974832 0.0297598 -0.306663 0.0252269 0.0197711 0.544095 0.120054 0.0803194 -0.165578 -0.0155154 0.143809 -0.599123 0.311262 0.0428583 -0.0743042 0.27194 0.0216713 0.202588 0.118002 -0.121841 0.387706 0.192553 -0.0480451 0.0855016 -0.329206 0.0239415 -0.0357888 0.153128 -0.410673 -0.120293 0.037095 -0.115616 0.662148 0.143103 -0.215328 -0.0548848 0.157899 -0.26652 -0.0108276 0.10913 0.0437529 -0.025518 0.164139 -0.0879471 -0.109293 -0.134156 -0.400466 -0.00182012 -0.280283 -0.44505 0.258698 -0.0884385 0.0835407 -0.24106 0.0633419 -0.113658 -0.330622 -0.210292 0.165087 -0.0345353 0.299777 -0.116259 -0.0374507 -0.0170915 0.0369071
125 0.0372844 0.43587 -0.0281064 0.190807 -0.246106 -0.569045 0.195928 0.168523 0.349683 0.290405 -0.322521 0.216148 0.0908582 -0.602128 0.120478 0.11803 0.123064 -0.0844721 -0.331225 0.0389784 -0.00550392 0.240974 0.264044 0.00547714 0.229583 0.0556068 -0.222284 0.20734 0.324379 -0.123816 0.650586 -0.0453774 -0.403697 0.139719 -0.203204 0.121659 -0.0252063 -0.0751572 -0.512042 -0.0619929 0.148706 0.278788 -0.192382 -0.578046 0.0256148 0.176959 0.0464706 -0.118962 0.0820991 -0.00278139 0.0724581 0.0799725 0.268108 0.148921 -0.107675 -0.0917036 -0.13247 0.164572 0.322211 0.031784 0.437071 -0.0655497 -0.00906356 0.20749 0.113663 -0.241864 0.242345 0.561457 0.26565 0.0934593 -0.228639 -0.478465 -0.0497949 0.290846 -0.465433 0.0608921 0.174911 0.253189 0.300295 -0.522409 0.203774 0.269933 -0.216004 0.0767866 -0.233141 -0.0889099 -0.348551 -0.0765221 0.0759833 -0.154343 -0.274626 0.00958724 -0.119569 0.197901 0.125644 0.406689 0.352615 0.380403 0.115117 0.046799 -0.0861522 -0.248245 0.14732 -0.43262 -0.0886126 0.0472468 -0.149931 -0.529618 0.188443 -0.191939 -0.235795 -0.244297 -0.262491 -0.242704 0.146651 -0.196233 -0.350631 0.21877 -0.0228174 -0.32658 -0.0345604 0.359004 0.0696451 0.28105 -0.18258 0.281185 -0.298945 -0.0617172
126 0.0958238 0.484729 0.0373572 0.195051 -0.228301 -0.527688 0.117019 0.259247 0.367172 0.377787 -0.346289 0.222489 0.0821621 -0.57224 0.160395 0.135661 0.136969 -0.062721 -0.381553 0.0957474 -0.115194 0.297653 0.287962 -0.0400745 0.154095 -0.00590326 -0.2154 0.185033 0.287212 -0.0621705 0.611147 -0.125278 -0.398904 0.160467 -0.188344 0.175026 0.0379786 -0.0203447 -0.519946 -0.0351555 0.115919 0.225567 -0.206096 -0.549965 0.0442354 0.248808 0.103939 -0.178325 0.110101 0.00296548 0.0485652 0.0725403 0.220227 0.141424 -0.0750203 -0.0234728 -0.0797559 0.206757 0.315896 0.0504521 0.458211 0.0544852 0.0907258 0.212181 0.180811 -0.299799 0.248663 0.554567 0.352246 0.0480564 -0.275824 -0.494086 -0.0690283 0.256088 -0.447265 0.123073 0.14461 0.299408 0.250558 -0.567127 0.312307 0.287611 -0.1803 0.122166 -0.220324 -0.0974697 -0.350851 -0.0791487 0.129041 -0.101482 -0.2309 0.0137401 -0.182438 0.222955 0.0791582 0.524091 0.429579 0.317082 0.0760338 0.0564841 -0.0483907 -0.254584 0.113705 -0.459661 -0.108133 0.0576955 -0.0176407 -0.569195 0.15494 -0.233153 -0.151863 -0.301228 -0.203965 -0.186556 0.15131 -0.192997 -0.380091 0.249351 -0.0357387 -0.294287 0.0478908 0.343166 0.0851727 0.224068 -0.141601 0.267039 -0.239048 -0.0782772
124 0.0231674 0.383431 -0.0235418 0.175706 -0.23708 -0.539131 0.206446 0.117262 0.295966 0.226282 -0.285348 0.207731 0.101624 -0.580099 0.0923414 0.128647 0.102347 -0.0842774 -0.2858 -0.015016 0.0364976 0.228368 0.246927 0.0486056 0.247298 0.0723382 -0.192596 0.196534 0.300013 -0.149146 0.633976 -0.0113896 -0.36243 0.110313 -0.19553 0.091052 -0.0584538 -0.0866247 -0.465017 -0.0799313 0.171304 0.290574 -0.162082 -0.55204 0.0193144 0.109675 -0.000268095 -0.0849934 0.0894036 -0.00459474 0.0745171 0.0717317 0.245159 0.139515 -0.113635 -0.124501 -0.137446 0.107725 0.311901 0.0503136 0.39305 -0.110321 -0.0620747 0.153346 0.0885532 -0.191919 0.213839 0.505321 0.235369 0.117981 -0.195491 -0.436206 -0.0470764 0.262178 -0.432892 0.0205297 0.18867 0.220645 0.278805 -0.45667 0.139274 0.238415 -0.210367 0.0532938 -0.21303 -0.0695187 -0.313721 -0.0886329 0.0395635 -0.174817 -0.271812 -0.013125 -0.0743592 0.150726 0.13778 0.323759 0.279395 0.362754 0.110327 0.0393223 -0.11466 -0.215275 0.14693 -0.36967 -0.0552361 0.0355383 -0.188247 -0.468482 0.166975 -0.155427 -0.238689 -0.193012 -0.26983 -0.240058 0.131096 -0.170782 -0.315336 0.186785 -0.0209032 -0.292223 -0.0406237 0.337833 0.0699169 0.265154 -0.198769 0.246569 -0.297612 -0.065889
123 0.0207904 0.391506 -0.0176389 0.202431 -0.247399 -0.575091 0.242045 0.092094 0.300828 0.205991 -0.279272 0.22929 0.116687 -0.609414 0.0712516 0.128156 0.0950902 -0.105766 -0.289103 -0.0484282 0.077744 0.211086 0.242104 0.0696607 0.299404 0.0836944 -0.195395 0.228423 0.361756 -0.173082 0.700097 -0.016682 -0.408464 0.135286 -0.202811 0.081528 -0.0770359 -0.0806794 -0.54993 -0.0926575 0.19623 0.298048 -0.147064 -0.606518 -0.00932666 0.124962 -0.0172896 -0.0707398 0.0968335 -0.0163291 0.113401 0.100787 0.276157 0.156391 -0.0903613 -0.14555 -0.14388 0.137847 0.357451 0.0122913 0.425284 -0.100747 -0.106426 0.176834 0.0861736 -0.232837 0.203771 0.503967 0.242615 0.107514 -0.187882 -0.444211 -0.0611429 0.300434 -0.502455 0.0370407 0.248293 0.217141 0.329997 -0.484193 0.123163 0.26465 -0.251898 0.0565926 -0.224826 -0.0791929 -0.339467 -0.109423 0.033441 -0.192323 -0.31646 -0.0108423 -0.101107 0.139802 0.166354 0.363967 0.25878 0.401001 0.147214 0.0629169 -0.153032 -0.248092 0.215993 -0.383134 -0.052404 0.0387022 -0.253027 -0.494925 0.17245 -0.191064 -0.295435 -0.242 -0.321051 -0.247052 0.101885 -0.161672 -0.345839 0.19631 -0.0337831 -0.32626 -0.0668584 0.389599 0.029055 0.325677 -0.244461 0.274831 -0.309585 -0.0645762
174 -0.0691875 -0.093517 -0.284536 0.183355 -0.0764852 -0.0302834 -0.193493 0.314621 -0.000832655 -0.0509903 0.334085 0.0730094 0.150744 -0.136716 0.0948915 0.0477966 0.116031 -0.0415826 -0.159598 -0.173992 -0.22309 -0.0660003 -0.0311789 -0.195695 0.192246 -0.241937 -0.178237 0.447331 0.574693 -0.14662 0.009419 -0.366618 -0.653344 0.0773292 0.0046166 -0.525295 0.215951 0.0671161 -0.305521 0.484015 -0.110615 0.0125972 -0.189731 -0.0740792 -0.314622 -0.00199506 -0.0510044 0.0205149 -0.191069 0.222231 0.216099 0.0229376 0.234244 0.166942 -0.000143425 0.247472 -0.131617 0.485753 0.406699 -0.320788 0.352046 0.582955 -0.315523 0.28704 -0.00377384 -0.72184 0.0603761 0.0124622 0.11467 0.117499 0.0663866 0.00303161 0.146954 -0.207257 -0.331403 0.564029 0.153767 0.311609 0.227198 -0.182836 -0.0511719 0.224799 -0.185646 0.433826 -0.023032 -0.0898122 0.0618469 -0.182078 0.560526 -0.468783 -0.46039 0.0526431 0.156698 0.296666 0.100614 0.28434 0.364449 -0.0329523 0.17768 0.166191 -0.261908 -0.506313 0.41066 -0.361767 0.329472 0.284753 0.309404 -0.299573 -0.255151 -0.101875 0.257657 -0.295412 -0.444889 -0.0333705 0.243605 -0.0904626 -0.268788 -0.123974 -0.288854 -0.064874 -0.0723172 0.522749 -0.179307 0.161326 -0.251216 -0.0781084 -0.103066 -0.0832185
173 -0.00788528 -0.124395 -0.236755 0.222496 -0.118668 0.0329803 -0.0886401 0.248159 -0.0672959 0.0038796 0.170213 0.0794102 0.161508 -0.168942 0.0507389 0.0421414 0.126288 -0.0399983 -0.151121 -0.196674 -0.250373 -0.0854602 -0.0359724 -0.116216 0.168492 -0.168898 -0.13416 0.498066 0.630579 -0.131307 0.070526 -0.371784 -0.597751 0.124226 -0.10288 -0.410795 0.24007 0.0203373 -0.337823 0.417504 -0.0824298 0.0492776 -0.14937 -0.107398 -0.209266 0.100395 -0.00721845 -0.0510301 -0.188573 0.180393 0.220093 0.0703042 0.279561 0.131944 0.120516 0.246187 -0.0891535 0.591551 0.411846 -0.335107 0.267402 0.463302 -0.425097 0.31895 0.0949849 -0.745038 0.0458893 0.0473547 0.105803 0.0579757 0.106945 0.0394817 0.104406 -0.210622 -0.332706 0.499723 0.121047 0.167628 0.167852 -0.182777 0.0319802 0.257157 -0.328264 0.406781 -0.00794696 -0.213559 0.0288332 -0.208948 0.484051 -0.464188 -0.391349 0.0293925 0.0996986 0.272269 0.0652993 0.314205 0.392053 0.0040862 0.162935 0.237181 -0.303011 -0.474755 0.481552 -0.380411 0.274198 0.23047 0.312693 -0.26881 -0.216744 -0.0781866 0.207415 -0.309804 -0.321258 -0.0703496 0.140925 -0.0236706 -0.304877 -0.127897 -0.29255 -0.0505356 -0.0407467 0.582203 -0.0948222 0.214597 -0.246867 -0.0444482 -0.0653135 -0.123179
172 0.0400037 -0.114092 -0.190912 0.206392 -0.123147 0.0544175 -0.0342199 0.176577 -0.0957521 0.0249189 0.0613725 0.0694084 0.14578 -0.176763 0.0238816 0.044809 0.10719 -0.0460083 -0.124204 -0.185469 -0.23902 -0.0777938 -0.0435551 -0.0629083 0.133374 -0.107452 -0.115372 0.466366 0.58193 -0.0914385 0.0860434 -0.30549 -0.515946 0.144173 -0.149143 -0.302953 0.210215 0.00341312 -0.323286 0.335663 -0.0679387 0.0588706 -0.134659 -0.12143 -0.170188 0.147065 0.0203504 -0.0938861 -0.155906 0.134144 0.206587 0.0869212 0.258595 0.095101 0.167526 0.239777 -0.0424928 0.584827 0.363928 -0.311555 0.21953 0.355355 -0.414688 0.29609 0.122887 -0.677577 0.0491798 0.0857412 0.0972166 0.0280341 0.104136 0.0221505 0.0742504 -0.174162 -0.278955 0.421749 0.0971754 0.0872423 0.138109 -0.143443 0.0583769 0.234249 -0.352007 0.345814 -0.0205954 -0.230425 -0.0104133 -0.205777 0.409079 -0.395547 -0.331769 0.0188607 0.048978 0.229723 0.0521898 0.300447 0.384484 0.00759851 0.145532 0.25359 -0.297273 -0.396967 0.448232 -0.333098 0.231243 0.17418 0.277422 -0.230181 -0.160654 -0.0899303 0.164744 -0.283268 -0.264686 -0.0660945 0.0895803 0.00662128 -0.274798 -0.110707 -0.246662 -0.0471749 -0.0261924 0.535361 -0.0621392 0.236969 -0.209763 -0.015427 -0.038419 -0.129251
