300 128
71 0.315961 -0.151036 0.435167 0.15631 -0.233956 -0.256308 0.18106 0.24265 -0.0376516 0.445147 0.206496 0.0579695 0.0890408 -0.0379791 0.398139 -0.0263092 -0.341213 -0.120964 -0.0510817 -0.273792 0.0239517 -0.20722 0.127366 -0.450484 -0.131114 0.0809754 0.152508 -0.0933387 0.133865 -0.0839488 0.112001 -0.28663 -0.0481869 -0.13255 0.300117 -0.464158 0.126439 -0.119921 -0.350101 0.512525 0.0569635 0.309182 -0.288718 0.199649 0.346788 0.072287 -0.123678 -0.104093 0.145669 0.433577 0.29548 0.0024552 0.103407 0.070012 0.008191 0.160042 -0.0238684 0.33567 0.261726 -0.0952914 -0.631235 0.0486483 -0.170949 0.135125 0.240706 0.54315 -0.21019 -0.502944 0.167204 0.242263 -0.28849 -0.389443 -0.0161183 0.232075 0.0996932 -0.0440289 0.0241529 0.136118 -0.12885 0.122831 0.0401082 0.161117 0.125684 0.0564873 -0.253646 -0.343231 0.0829512 0.0572747 0.217929 -0.1485 0.523359 0.253879 -0.0883018 0.306353 -0.0935722 -0.458019 -0.185453 -0.13461 0.192691 -0.372804 0.270605 0.203774 0.170181 -0.710702 0.233863 -0.0440093 0.0455337 0.260938 -0.0670093 -0.248287 -0.043876 -0.310969 -0.0725486 -0.101166 -0.0877347 0.130982 0.0543103 -0.0289017 -0.100324 0.247866 0.0501263 0.115886 0.505874 0.0869694 0.31888 -0.0648612 0.102893 -0.341258
70 0.246899 -0.139682 0.340999 0.125236 -0.177581 -0.226277 0.16501 0.223279 -0.00911217 0.375601 0.13627 0.0572596 0.0628943 -0.043756 0.343653 -0.0191085 -0.295245 -0.113333 -0.0536316 -0.228186 0.0078156 -0.153543 0.0997833 -0.349528 -0.0928695 0.0673534 0.114181 -0.0764081 0.115401 -0.0686405 0.105515 -0.213869 -0.0366091 -0.0955772 0.269714 -0.384894 0.0870622 -0.10242 -0.300184 0.447365 0.0424419 0.243396 -0.238944 0.186768 0.266955 0.0766651 -0.104826 -0.0880646 0.10688 0.336953 0.23132 0.00431642 0.0793837 0.0674207 0.00866815 0.112073 -0.0130372 0.248303 0.206143 -0.0749508 -0.514351 0.0590503 -0.140699 0.128575 0.232776 0.465221 -0.177472 -0.441698 0.123474 0.196576 -0.229588 -0.296873 -0.0321388 0.195054 0.077354 -0.0515246 0.0502212 0.133694 -0.106579 0.0802412 0.00658365 0.0997859 0.102935 0.0481872 -0.212123 -0.27221 0.0238719 0.0163155 0.178538 -0.0889729 0.412387 0.209645 -0.0810831 0.257781 -0.0934492 -0.387933 -0.145001 -0.109702 0.155389 -0.305833 0.199398 0.162653 0.145927 -0.567404 0.215635 -0.0104845 0.0121907 0.194723 -0.0488396 -0.217518 -0.0289312 -0.295033 -0.0976415 -0.068211 -0.0601483 0.09841 0.0361288 -0.0482869 -0.10796 0.214339 0.0467493 0.0900698 0.403473 0.0544666 0.285381 -0.0281908 0.0789474 -0.23124
72 0.303661 -0.134247 0.498869 0.159587 -0.238063 -0.246037 0.162045 0.217097 -0.0607611 0.465108 0.255753 0.0476271 0.0823215 -0.0282772 0.38544 -0.0440675 -0.353866 -0.0970462 -0.0562424 -0.276221 0.0497074 -0.209703 0.126034 -0.512563 -0.137302 0.0538833 0.178853 -0.113849 0.15989 -0.0843136 0.105717 -0.324108 -0.0241603 -0.15443 0.268612 -0.481277 0.113945 -0.126462 -0.365932 0.53696 0.0776722 0.322106 -0.305701 0.201519 0.370555 0.00944377 -0.0966461 -0.118938 0.153543 0.449382 0.312559 0.00669865 0.116056 0.0791057 -0.0405454 0.171088 -0.0480178 0.370843 0.310716 -0.105904 -0.646971 0.01931 -0.184017 0.11679 0.218627 0.510874 -0.212728 -0.485514 0.160466 0.275397 -0.307784 -0.3995 -0.00556904 0.246139 0.0664185 -0.0450422 -0.0283853 0.100604 -0.138783 0.13699 0.0588022 0.193546 0.125567 0.046939 -0.289135 -0.359803 0.135088 0.0808234 0.243847 -0.198119 0.560047 0.247531 -0.0854537 0.306718 -0.0539406 -0.462814 -0.198639 -0.172135 0.172873 -0.39075 0.281722 0.228231 0.175838 -0.779339 0.242023 -0.0938093 0.0550368 0.295232 -0.0699415 -0.255273 -0.0840069 -0.262317 -0.0477145 -0.116577 -0.139393 0.124097 0.0549479 0.0168324 -0.0873355 0.226499 0.0870708 0.131618 0.508958 0.0942569 0.325243 -0.079881 0.114717 -0.397915
73 0.266573 -0.122272 0.476284 0.140925 -0.217285 -0.23485 0.144799 0.199196 -0.0663299 0.423475 0.234606 0.052276 0.0792254 -0.0321184 0.337662 -0.0512855 -0.317264 -0.0729718 -0.0555005 -0.255856 0.0553573 -0.199023 0.105632 -0.480544 -0.132599 0.0245131 0.178539 -0.104846 0.165313 -0.0850694 0.0863347 -0.305109 -0.0238503 -0.144029 0.223694 -0.440157 0.10106 -0.11237 -0.340907 0.47463 0.0829302 0.293022 -0.277859 0.175871 0.333243 -0.0182073 -0.0786246 -0.100106 0.118 0.41806 0.283911 0.00574316 0.104956 0.0784504 -0.0647837 0.152453 -0.0473245 0.337686 0.292872 -0.106927 -0.592526 0.0146204 -0.162083 0.0858115 0.182785 0.446064 -0.186942 -0.427874 0.147708 0.258351 -0.287791 -0.359092 -0.024552 0.235582 0.0464207 -0.0433962 -0.0409111 0.0642529 -0.109646 0.131276 0.0675419 0.171617 0.117704 0.0406825 -0.267266 -0.31907 0.150829 0.0805143 0.218379 -0.182202 0.513739 0.225796 -0.0757098 0.271621 -0.0246992 -0.414544 -0.174834 -0.157715 0.155859 -0.341815 0.271749 0.21465 0.144322 -0.710431 0.224365 -0.129836 0.0668674 0.281602 -0.0505003 -0.229791 -0.118667 -0.213988 -0.0436799 -0.110552 -0.15037 0.0815837 0.0396276 0.0260693 -0.0705149 0.201118 0.0927513 0.13762 0.454405 0.0800799 0.285999 -0.0612133 0.110192 -0.382094
74 0.313888 -0.16598 0.548792 0.163518 -0.245092 -0.250838 0.140046 0.211019 -0.0920325 0.48326 0.276939 0.0660535 0.104042 -0.0200352 0.373247 -0.0579242 -0.346456 -0.0821036 -0.0618586 -0.27071 0.0595206 -0.23285 0.107979 -0.560446 -0.143954 0.0224453 0.183519 -0.139036 0.200239 -0.0916646 0.098244 -0.342707 -0.00087035 -0.186048 0.235888 -0.505862 0.0850227 -0.136496 -0.390207 0.553 0.0798232 0.329914 -0.326537 0.195714 0.393529 -0.028499 -0.0932845 -0.119925 0.152821 0.482448 0.312566 0.0208689 0.131474 0.106097 -0.0881164 0.160384 -0.0637872 0.393278 0.34002 -0.129578 -0.672009 0.00175202 -0.203935 0.107887 0.18399 0.500036 -0.200802 -0.478478 0.161086 0.303508 -0.318013 -0.417964 -0.0272306 0.273887 0.0274036 -0.0656887 -0.0553188 0.0539318 -0.126037 0.14425 0.0814819 0.223426 0.14499 0.0467688 -0.29273 -0.385167 0.197097 0.100936 0.261751 -0.198553 0.602424 0.261236 -0.0902104 0.292224 -0.0212879 -0.478298 -0.212565 -0.200997 0.159087 -0.403527 0.311807 0.253119 0.165368 -0.818296 0.249795 -0.146866 0.0664991 0.341579 -0.0642473 -0.280104 -0.11121 -0.23048 -0.0476113 -0.119141 -0.194457 0.0817873 0.047137 0.0462214 -0.0956077 0.212928 0.106473 0.17016 0.518628 0.0790419 0.329229 -0.0638614 0.128943 -0.449311
240 0.397076 -0.288811 0.0931846 0.0584978 -0.165382 0.0424213 -0.0286626 0.0756068 0.24474 0.298045 -0.141612 0.230952 0.204667 0.0247237 -0.125986 0.137776 -0.00797157 -0.391915 -0.136573 -0.0143048 0.141585 -0.297106 -0.307368 -0.160386 -0.0337773 0.0798635 -0.301336 -0.345605 0.200721 0.474135 0.304159 -0.108172 0.25044 -0.221135 0.565671 -0.310873 -0.124753 -0.0880335 -0.352658 0.700319 0.287688 0.193382 -0.0842086 -0.0444356 0.271435 0.521667 -0.188238 -0.529192 -0.0572954 -0.249708 0.28425 0.0189049 0.068059 -0.0393356 0.186004 -0.405453 0.183168 0.061704 0.0726467 0.199557 -0.375837 0.411213 0.148738 0.568102 0.0601593 0.0387986 -0.306595 -0.256503 -0.0104154 -0.0653407 -0.240457 -0.344924 0.0794752 0.137672 0.129001 -0.0264717 0.117831 0.368825 0.20667 -0.0434593 0.102187 -0.387909 -0.0811863 -0.0638321 -0.118368 -0.326569 -0.0655837 -0.15909 0.0899356 0.0826322 0.43544 0.0676585 0.139645 0.339719 -0.549224 -0.042232 -0.256765 0.0113412 -0.448151 -0.490213 -0.0493773 -0.00106379 0.222617 -0.809039 0.190357 0.394814 0.069044 -0.26514 -0.431307 0.0175756 0.225855 -0.391672 -0.275596 0.0178843 0.00568771 -0.0682467 -0.0479512 -0.420546 -0.113327 0.105673 -0.261669 -0.282785 0.0734149 -0.366737 0.277519 0.0512822 0.205288 0.205641
239 0.393608 -0.268334 0.156267 0.120583 -0.115115 0.00937833 -0.0221778 0.170345 0.145447 0.183654 -0.112388 0.144599 0.155455 -0.0234979 -0.0357723 0.157005 -0.0432818 -0.319531 -0.139213 -0.0883513 0.0421982 -0.291302 -0.319682 -0.0969864 -0.0605505 0.113352 -0.382647 -0.348843 0.204237 0.429124 0.216689 -0.0500308 0.189188 -0.156351 0.607852 -0.261868 -0.168571 -0.0512462 -0.269647 0.579334 0.212871 0.132576 -0.063159 -0.0102693 0.244356 0.455779 -0.223111 -0.500471 -0.0319345 -0.13276 0.356368 0.00135372 0.100475 -0.00554464 0.181565 -0.343523 0.208782 0.0615545 0.171467 0.141143 -0.400103 0.375339 0.110981 0.556283 0.0450526 0.157119 -0.344296 -0.187813 -0.0505883 -0.0539683 -0.275792 -0.353348 0.114092 0.125031 0.151415 -0.00548071 0.159032 0.296567 0.202559 -0.119079 0.0403494 -0.386502 -0.0106577 -0.129498 -0.141754 -0.350803 -0.0797765 -0.152151 0.0613467 0.0599429 0.488834 0.0245974 0.131255 0.2755 -0.512456 -0.119036 -0.252138 -0.0390776 -0.423565 -0.453956 -0.0801744 0.0119758 0.199955 -0.803149 0.205621 0.347446 0.0310525 -0.197961 -0.448215 -0.0218264 0.195744 -0.485251 -0.295778 0.00817384 0.0617639 -0.0405556 -0.0411365 -0.384473 -0.100365 0.121892 -0.213615 -0.307616 0.1469 -0.341517 0.196711 0.0839093 0.136297 0.141776
238 0.350355 -0.218833 0.14814 0.123755 -0.0763179 0.00562606 -0.0197271 0.189917 0.0953579 0.0886121 -0.095329 0.0733294 0.110621 -0.050774 -0.0204586 0.135087 -0.0474463 -0.241871 -0.135433 -0.118782 0.0209771 -0.262955 -0.318253 -0.0523727 -0.0664617 0.125653 -0.373229 -0.312512 0.150973 0.369327 0.158856 -0.0140845 0.133543 -0.107518 0.559126 -0.215419 -0.157394 -0.0156956 -0.201596 0.462101 0.164905 0.0961679 -0.0512124 -0.0130921 0.199612 0.386454 -0.219492 -0.432272 -0.017957 -0.0651212 0.342891 -0.00460566 0.105513 -0.0134226 0.151391 -0.26965 0.199758 0.0444407 0.184622 0.10934 -0.365403 0.318659 0.0935438 0.493232 0.0342774 0.166159 -0.306303 -0.133367 -0.0442371 -0.0638528 -0.261601 -0.318434 0.122831 0.0868411 0.136326 0.0166249 0.159323 0.226421 0.176754 -0.147004 0.0071872 -0.362607 0.0245829 -0.14876 -0.133141 -0.314122 -0.0622291 -0.130543 0.047268 0.0383877 0.434975 0.00287543 0.126256 0.230564 -0.42627 -0.130115 -0.233615 -0.0418203 -0.3868 -0.38749 -0.0695274 -0.00367034 0.174962 -0.728006 0.15637 0.274019 0.0240392 -0.166368 -0.39654 -0.0411027 0.15993 -0.47963 -0.290446 0.00695029 0.0714347 -0.0239801 -0.0326506 -0.309361 -0.0683075 0.1117 -0.178019 -0.29001 0.164796 -0.293061 0.127161 0.0871264 0.0849947 0.104574
237 0.371665 -0.232278 0.212836 0.163777 -0.0345507 0.0199875 -0.057567 0.274146 0.0348245 -0.00973123 -0.0979181 0.0262268 0.0753111 -0.0795855 0.0559369 0.186033 -0.0976445 -0.202064 -0.142208 -0.182516 -0.026612 -0.273592 -0.357463 -0.00922822 -0.0810575 0.20001 -0.446814 -0.354925 0.14465 0.39615 0.1559 0.025541 0.128136 -0.0892004 0.661439 -0.221472 -0.189963 0.0253901 -0.166466 0.401333 0.126585 0.0540394 -0.0369131 -0.0424701 0.219024 0.384856 -0.253466 -0.465747 0.0254049 0.0136733 0.434123 0.0100208 0.130501 -0.0484654 0.204518 -0.254777 0.245377 0.0557751 0.29762 0.102885 -0.385273 0.300147 0.0596447 0.536854 0.00374957 0.219881 -0.346568 -0.0894601 -0.105498 -0.0242193 -0.311214 -0.360781 0.166124 0.078635 0.160304 0.0263849 0.185038 0.176368 0.209933 -0.263567 -0.0157645 -0.381606 0.0366884 -0.215127 -0.120983 -0.365386 -0.0803515 -0.119394 0.0612763 -0.0348657 0.504704 -0.0422165 0.158923 0.231859 -0.467802 -0.160177 -0.274897 -0.068173 -0.446371 -0.386511 -0.113416 -0.0255224 0.163112 -0.825454 0.144534 0.272186 0.0291377 -0.173239 -0.478307 -0.049317 0.18628 -0.565502 -0.29189 0.0106173 0.11637 -0.0315305 -0.030052 -0.305967 -0.0406157 0.112292 -0.14846 -0.340316 0.196837 -0.305298 0.071931 0.101183 0.0357865 0.0702858
236 0.386421 -0.269141 0.30255 0.230607 0.0670311 -0.0494383 -0.0254947 0.432305 -0.0708005 -0.153641 -0.0923148 -0.026539 -0.0183085 -0.125856 0.180043 0.178292 -0.191551 -0.0894958 -0.136643 -0.319793 -0.161029 -0.259096 -0.363056 0.0290412 -0.115937 0.280724 -0.531655 -0.38134 0.135103 0.37188 0.0700999 0.112765 0.0630972 -0.0226513 0.764527 -0.213794 -0.221552 0.0456982 -0.108665 0.266561 0.0114445 -0.00548465 -0.0541886 -0.0363872 0.174629 0.337744 -0.323341 -0.416848 0.0726964 0.19337 0.502399 0.0325581 0.1389 -0.0264233 0.219715 -0.199374 0.279431 0.0852458 0.409622 0.0702117 -0.445766 0.275021 -0.000741336 0.548727 0.0139345 0.368229 -0.42788 -0.0466909 -0.159273 0.0199509 -0.407665 -0.42181 0.20545 0.0754313 0.164473 0.00999469 0.251411 0.0535248 0.210318 -0.383567 -0.108282 -0.387252 0.159553 -0.275714 -0.122252 -0.438028 -0.0780543 -0.107428 0.0363268 -0.0582245 0.598002 -0.11603 0.156604 0.163984 -0.463729 -0.309214 -0.260294 -0.109257 -0.437389 -0.344467 -0.134401 -0.0120667 0.162774 -0.891801 0.16093 0.190146 -0.00299813 -0.0784893 -0.491525 -0.0973534 0.133861 -0.72154 -0.324152 -0.0177543 0.205045 -0.0276409 -0.0258301 -0.270147 -0.045109 0.138641 -0.0770108 -0.390583 0.26906 -0.26167 0.0106175 0.122974 -0.0449483 -0.00250082
52 -0.155142 0.0422573 0.0602632 0.14577 -0.183219 -0.373167 0.566175 0.319152 0.345925 0.384152 -0.292553 0.43905 0.14794 -0.0779307 0.128046 0.0850048 -0.288995 0.0558011 0.0910659 -0.173629 -0.369232 0.20143 0.120066 -0.12167 -0.043494 -0.1172 -0.0557016 -0.33341 0.438073 -0.434486 -0.0268385 -0.307956 -0.16517 0.2506 0.290135 -0.0493934 0.166871 0.168939 -0.174416 0.0402557 0.0829429 0.0215715 0.126016 0.332481 0.229464 0.283357 0.111175 -0.104197 -0.28171 0.12844 -0.138314 -0.146319 -0.0614955 -0.124437 0.0981808 -0.0490657 0.383443 0.135485 -0.0394411 -0.0127522 -0.35496 0.287819 0.247324 0.330886 0.391703 0.413679 -0.15942 -0.393526 -0.176464 0.173793 -0.464168 -0.225571 -0.184567 0.220521 0.139538 -0.152327 0.0816927 -0.0253391 -0.0543024 -0.0419473 -0.126038 -0.0641665 -0.102366 0.0787451 -0.415565 -0.0917895 0.0734109 -0.177771 -0.170286 0.361477 0.387603 0.226024 -0.0626306 0.0291703 -0.0812038 -0.458838 -0.147748 -0.150704 0.0517369 -0.279758 -0.0234313 0.243159 -0.230135 -0.289331 0.430296 -0.0647309 0.082792 0.127013 -0.106199 -0.0250465 -0.0521519 -0.4001 -0.275948 0.0178193 -0.1457 -0.00925126 -0.0420544 -0.331118 -0.298587 0.350623 0.126309 0.027572 0.185813 -0.0655419 0.350059 -0.0274409 0.194258 0.200911
51 -0.16375 0.0416779 0.0683399 0.135967 -0.206818 -0.410237 0.628064 0.345713 0.383804 0.394164 -0.338198 0.471085 0.158158 -0.0977472 0.15163 0.0658783 -0.336038 0.0713506 0.0904086 -0.200209 -0.395324 0.203928 0.130716 -0.133271 -0.077984 -0.135211 -0.0708884 -0.357284 0.495809 -0.449494 -0.0204071 -0.327066 -0.172905 0.295673 0.30975 -0.0926761 0.176119 0.192044 -0.20492 0.0550892 0.111642 0.0308205 0.142726 0.353605 0.252594 0.326875 0.121631 -0.0938602 -0.299237 0.130325 -0.160063 -0.147513 -0.059246 -0.159805 0.0999707 -0.0539391 0.407104 0.159862 -0.0449317 -0.0104619 -0.408694 0.328192 0.289111 0.367881 0.453801 0.474817 -0.16914 -0.450691 -0.171626 0.191561 -0.509413 -0.269214 -0.215882 0.261802 0.160135 -0.164383 0.0877068 -0.0321851 -0.0533491 -0.059879 -0.140866 -0.0720505 -0.112075 0.0819895 -0.456918 -0.112124 0.0861716 -0.199984 -0.186063 0.393568 0.423245 0.247521 -0.0704417 0.0390942 -0.084334 -0.511137 -0.164837 -0.175984 0.0702128 -0.319612 -0.0169665 0.272669 -0.231914 -0.340573 0.480429 -0.0666334 0.0884332 0.132988 -0.107581 -0.0437503 -0.0550014 -0.465519 -0.323893 0.0251264 -0.159924 -0.0146481 -0.0527413 -0.370744 -0.348232 0.368504 0.128904 0.026042 0.211829 -0.0995375 0.377748 -0.0320887 0.226981 0.218535
53 -0.167707 0.0114827 0.0628142 0.166559 -0.198371 -0.430817 0.627408 0.392097 0.350629 0.414711 -0.328283 0.503704 0.20203 -0.148111 0.217074 0.0551683 -0.344614 0.0467154 0.0890207 -0.180812 -0.413235 0.222006 0.11148 -0.131088 -0.0671206 -0.110573 -0.0928698 -0.361976 0.449149 -0.530741 -0.0154913 -0.329404 -0.204351 0.274926 0.308904 -0.0967881 0.201824 0.172408 -0.185389 0.027635 0.101916 0.00330389 0.133038 0.404689 0.280265 0.326918 0.141882 -0.121274 -0.33092 0.172868 -0.223914 -0.118385 -0.0312027 -0.137684 0.0748011 -0.0810911 0.431953 0.197394 -0.0601774 -0.00577231 -0.371339 0.308447 0.328476 0.36749 0.462944 0.468758 -0.134372 -0.470558 -0.187086 0.209103 -0.559894 -0.246733 -0.225722 0.261914 0.171024 -0.149418 0.116793 -0.0597882 -0.079311 -0.0417129 -0.119234 -0.0827695 -0.108752 0.0611248 -0.489632 -0.125267 0.0840243 -0.199884 -0.165496 0.426237 0.451029 0.246563 -0.0808467 0.00977154 -0.0788631 -0.449045 -0.189028 -0.16004 0.0589518 -0.345924 -0.0539654 0.217713 -0.212657 -0.33973 0.510904 -0.049543 0.0933478 0.0908887 -0.11137 -0.0650876 -0.00712964 -0.516291 -0.338372 0.0404132 -0.190455 -0.01447 -0.0163692 -0.40939 -0.36704 0.423102 0.127512 0.0582657 0.237599 -0.0835725 0.377656 -0.0404555 0.268782 0.237938
54 -0.15115 -0.00646979 -0.00367929 0.138712 -0.20584 -0.349086 0.532759 0.345764 0.278913 0.289405 -0.293718 0.443298 0.203422 -0.220519 0.313209 -0.00239479 -0.37778 -0.0036579 0.0570589 -0.119142 -0.389443 0.206661 0.0702154 -0.117212 -0.0885917 -0.0342812 -0.138058 -0.309829 0.351106 -0.56983 0.0182054 -0.269017 -0.215411 0.269348 0.28135 -0.160169 0.238217 0.147515 -0.166881 0.011586 0.107706 -0.0652865 0.107431 0.436452 0.318723 0.324784 0.147919 -0.141225 -0.327562 0.20782 -0.333631 -0.0249657 0.036479 -0.167666 0.0394293 -0.102836 0.408918 0.290403 -0.120134 -0.0196822 -0.262102 0.200619 0.408144 0.372311 0.483055 0.442739 -0.0269638 -0.501567 -0.202281 0.179362 -0.57112 -0.22369 -0.224489 0.26575 0.173757 -0.0929401 0.176791 -0.0386333 -0.0925651 -0.0122992 -0.0706781 -0.0568363 -0.0841049 0.0179409 -0.509765 -0.205942 0.0615428 -0.21427 -0.0807286 0.425303 0.410607 0.234684 -0.100277 -0.0659214 -0.0264526 -0.329353 -0.207612 -0.160571 0.091201 -0.368127 -0.109089 0.116894 -0.103846 -0.312443 0.509467 0.0455683 0.0451369 0.0236817 -0.105077 -0.136156 0.111921 -0.563982 -0.334698 0.104773 -0.220692 -0.0055081 0.0491075 -0.442983 -0.434697 0.467776 0.0535095 0.0996009 0.296452 -0.0586972 0.335714 -0.066377 0.319971 0.280486
55 -0.13655 -0.0274861 -0.043165 0.119516 -0.179803 -0.296702 0.43596 0.300337 0.236869 0.226148 -0.240432 0.362394 0.2062 -0.221008 0.316806 -0.0308886 -0.346523 -0.0232646 0.038158 -0.108188 -0.344809 0.200439 0.0329487 -0.0970607 -0.0894175 -0.00493593 -0.120078 -0.260069 0.294441 -0.533608 0.0252416 -0.214531 -0.189968 0.245738 0.243764 -0.164752 0.24083 0.113201 -0.153391 0.00737168 0.0968596 -0.0712021 0.0761106 0.405923 0.290936 0.292485 0.10955 -0.128746 -0.287999 0.210266 -0.31967 -0.000554358 0.0493289 -0.142619 0.0220775 -0.0947605 0.367431 0.268666 -0.111832 -0.0319019 -0.211783 0.157963 0.363542 0.309485 0.412293 0.38844 0.0286371 -0.449838 -0.190209 0.153902 -0.49588 -0.158357 -0.190452 0.231634 0.170222 -0.0752849 0.166231 -0.0194217 -0.090967 -0.0110592 -0.0831901 -0.0606554 -0.0677628 0.00223617 -0.445531 -0.183096 0.0517777 -0.179333 -0.0308357 0.382333 0.362723 0.219714 -0.0807032 -0.0811843 -0.023646 -0.258854 -0.182097 -0.149715 0.0858893 -0.338696 -0.0837169 0.0913056 -0.0716545 -0.274884 0.460892 0.0613399 0.0275635 -0.00747538 -0.092609 -0.135681 0.133954 -0.528432 -0.303707 0.121077 -0.185041 0.020157 0.0807879 -0.422413 -0.406912 0.44758 0.0251984 0.0970262 0.292524 -0.0607698 0.29035 -0.0594323 0.30055 0.256488
56 -0.0867173 -0.0896864 -0.0465551 0.108239 -0.208284 -0.31872 0.456675 0.334455 0.230126 0.217409 -0.219687 0.359851 0.190685 -0.264874 0.355125 -0.0744344 -0.354802 -0.0808147 0.0160799 -0.0802109 -0.35219 0.160676 0.0153688 -0.0580827 -0.0963671 0.038035 -0.167886 -0.216857 0.267518 -0.549107 0.0266446 -0.170463 -0.215995 0.240069 0.25556 -0.215655 0.235673 0.122366 -0.130919 0.0547301 0.102144 -0.0736996 0.0521477 0.399739 0.314357 0.32597 0.0931717 -0.121685 -0.268164 0.229604 -0.337201 0.0352558 0.0611942 -0.158043 0.0262527 -0.102601 0.325686 0.299888 -0.149061 -0.0274633 -0.204213 0.1094 0.417873 0.324455 0.42949 0.417148 0.0548253 -0.457082 -0.153788 0.154493 -0.50344 -0.168176 -0.220713 0.255276 0.174916 -0.0412295 0.223878 -0.0154154 -0.101933 -0.0214718 -0.0602858 -0.0385938 -0.0518 -0.0310754 -0.442432 -0.257669 0.0474159 -0.191953 -0.00670284 0.401554 0.326125 0.212409 -0.0989581 -0.0825743 0.00119535 -0.254205 -0.18297 -0.105792 0.13499 -0.321159 -0.123847 0.0353402 -0.0121437 -0.24505 0.435303 0.0999425 0.00914933 -0.0375406 -0.0653576 -0.211927 0.191433 -0.576558 -0.293919 0.144301 -0.204919 0.000317606 0.0747054 -0.44437 -0.443211 0.461563 -0.00634612 0.138746 0.310212 -0.04562 0.279669 -0.0484354 0.312261 0.2386
57 0.00838254 -0.178159 -0.0722078 0.0615034 -0.199599 -0.309559 0.400095 0.288717 0.187136 0.136469 -0.164544 0.250221 0.134206 -0.290249 0.344606 -0.131051 -0.322827 -0.160745 -0.0223136 -0.0421442 -0.262928 0.0823666 -0.0247345 0.038316 -0.0793685 0.106658 -0.206557 -0.0953323 0.155334 -0.449573 0.0446027 -0.0506415 -0.237092 0.20242 0.285348 -0.323748 0.220829 0.108623 -0.110785 0.179537 0.0832917 -0.0379459 -0.00238967 0.331817 0.307271 0.354525 0.0156883 -0.108346 -0.169388 0.2139 -0.290815 0.106015 0.0542871 -0.181164 0.0348759 -0.0917351 0.199809 0.287264 -0.151711 -0.0359339 -0.190998 0.0095176 0.406323 0.301281 0.383038 0.412359 0.107362 -0.475673 -0.0682246 0.113465 -0.40025 -0.162314 -0.219535 0.214967 0.164437 0.00256875 0.25878 0.0566515 -0.076464 -0.0820617 -0.050313 -0.0205902 -0.0147224 -0.0891912 -0.31768 -0.342482 0.0149707 -0.189065 0.0696636 0.357007 0.239914 0.18394 -0.0903527 -0.0203826 0.0155995 -0.196793 -0.160125 -0.0163367 0.171073 -0.264142 -0.137515 -0.0720466 0.111658 -0.206254 0.325281 0.191629 -0.035518 -0.102108 -0.0349933 -0.289776 0.269151 -0.64068 -0.243557 0.203082 -0.186963 -0.00156347 0.0566091 -0.44704 -0.451826 0.465007 -0.0664569 0.179548 0.34979 -0.0216728 0.235458 -0.0328616 0.296597 0.178077
58 0.0802833 -0.226897 -0.0335428 0.0381713 -0.141614 -0.242315 0.291232 0.238854 0.139542 0.123459 -0.0973117 0.156736 0.0711133 -0.190395 0.27211 -0.13814 -0.223296 -0.168557 -0.0586815 -0.0224966 -0.164428 -0.00239502 -0.0382662 0.0414871 -0.0712915 0.109067 -0.156812 -0.0247567 0.110312 -0.26875 0.0563946 0.0287896 -0.143482 0.10467 0.232081 -0.322778 0.137996 0.0549426 -0.112561 0.257448 0.0492652 0.0183383 -0.047959 0.219475 0.215477 0.302986 -0.0473151 -0.0741243 -0.0659352 0.144454 -0.131935 0.110522 0.0213237 -0.103116 0.0393727 -0.0709512 0.0735509 0.186191 -0.0943647 -0.0234098 -0.200198 -0.00187393 0.2456 0.239982 0.285501 0.361913 0.0693404 -0.380092 0.0100575 0.0790251 -0.243219 -0.122972 -0.173947 0.160578 0.1217 -0.00931739 0.208231 0.112556 -0.0493003 -0.0947537 -0.0756806 -0.0194837 0.0273312 -0.0781631 -0.170511 -0.303099 -0.0331347 -0.137856 0.0914606 0.253892 0.171187 0.155308 -0.0634695 0.0391511 -0.0134172 -0.173139 -0.0925931 0.0194743 0.160597 -0.183497 -0.0965815 -0.0608178 0.129527 -0.179314 0.193678 0.18437 -0.0694121 -0.0733367 -0.0110576 -0.244118 0.208329 -0.516267 -0.169435 0.14504 -0.0992097 0.000220402 0.0150416 -0.316185 -0.358396 0.334513 -0.0606631 0.15656 0.277763 -0.023999 0.188949 0.0233833 0.185191 0.106153
225 0.0302748 -0.442593 0.136301 -0.0425852 -0.046873 -0.507091 0.357937 0.252843 -0.304074 0.137151 -0.124001 0.334602 -0.100176 0.114571 0.0939001 0.144626 -0.0273523 0.0718986 -0.10096 0.144686 -0.125809 0.0480145 -0.0863804 0.0807265 -0.0210928 0.202978 -0.448642 -0.417381 -0.0651896 0.183159 0.0895028 0.250105 0.224874 -0.194106 0.458585 -0.372984 0.110954 0.0618599 -0.0093532 0.22176 -0.282734 0.0889894 -0.124924 -0.0848694 -0.166342 0.376743 -0.1633 0.0463534 0.135586 0.151399 0.203549 0.275497 0.0685511 0.35645 -0.0155913 -0.0382774 -0.091955 0.279684 -0.0902068 0.195448 -0.402088 0.109262 -0.0541211 0.331655 0.286923 0.502132 -0.233623 -0.564394 -0.134157 0.0786554 0.00674447 -0.322174 0.0642989 0.250498 0.000245037 -0.197865 -0.080689 -0.0940312 0.186363 -0.0896711 -0.386394 -0.100309 0.441709 0.120832 -0.127965 -0.417676 0.00846113 -0.050406 -0.146783 0.0903952 0.843208 -0.220294 -0.0395311 0.0256345 0.0766481 -0.209293 0.0434186 -0.054359 -0.380607 -0.325087 -0.0657064 -0.00786924 0.0071703 -0.818163 0.190155 -0.0867606 -0.14954 0.0676127 -0.434313 0.228692 0.0812487 -0.517676 -0.316009 -0.0625402 0.460193 0.0220113 0.111951 -0.184891 -0.538774 0.269616 0.105583 -0.153926 0.199301 0.0649763 0.419228 -0.0352198 0.0726508 0.0391035
227 0.00922687 -0.450341 0.13775 -0.0599409 -0.00432632 -0.514538 0.354564 0.288027 -0.344752 0.0691594 -0.149619 0.314001 -0.131426 0.051099 0.150567 0.200025 -0.0747905 0.09455 -0.148194 0.12977 -0.103396 0.0217735 -0.123138 0.0973343 -0.0679028 0.251349 -0.482361 -0.45715 -0.102476 0.19122 0.116887 0.299621 0.249889 -0.176767 0.474518 -0.409739 0.146144 0.0781164 0.0234914 0.190273 -0.283724 0.0790263 -0.115457 -0.151173 -0.183894 0.408181 -0.177805 0.0654225 0.145917 0.204905 0.184663 0.304295 0.0290427 0.347217 -0.00264514 -0.0277378 -0.117071 0.307847 -0.0782305 0.236329 -0.387791 0.0815876 -0.0588355 0.358575 0.293291 0.496999 -0.246767 -0.606314 -0.140164 0.0567553 -0.0316924 -0.310569 0.0914207 0.244451 0.0859594 -0.151646 -0.087155 -0.160523 0.177677 -0.12017 -0.409235 -0.138157 0.446155 0.0959385 -0.154478 -0.411841 0.0170472 -0.0275756 -0.109115 0.0628801 0.853448 -0.286467 -0.0260682 0.0198037 0.120261 -0.22225 0.0215871 -0.0581709 -0.413519 -0.327138 -0.0960834 -0.0475468 0.00447752 -0.914141 0.168645 -0.099545 -0.142322 0.0459029 -0.481989 0.233396 0.0769401 -0.586419 -0.347892 -0.0902293 0.483662 0.0274482 0.0784568 -0.17879 -0.535255 0.269173 0.137711 -0.193018 0.201102 0.103756 0.431522 -0.061044 0.0318372 0.0635586
226 0.0149403 -0.385218 0.111596 -0.0441133 -0.0308976 -0.460444 0.325725 0.221548 -0.282069 0.0967445 -0.117827 0.300162 -0.102637 0.070327 0.0991157 0.143931 -0.0394893 0.0772006 -0.113427 0.139643 -0.0938126 0.0435139 -0.0849892 0.0722505 -0.0436481 0.195712 -0.408724 -0.37445 -0.0853179 0.154205 0.0921835 0.23898 0.205506 -0.159673 0.390817 -0.337904 0.108055 0.0663861 0.0162628 0.172539 -0.245088 0.0685684 -0.106518 -0.107966 -0.15849 0.342635 -0.139307 0.0671141 0.136197 0.146891 0.169638 0.243784 0.0451097 0.306943 -0.000743939 -0.0170176 -0.0998508 0.264645 -0.0951219 0.18667 -0.334017 0.0743907 -0.0382521 0.290464 0.261298 0.429924 -0.197623 -0.50809 -0.116648 0.0680764 -0.00425343 -0.279407 0.062836 0.216512 0.0391171 -0.146403 -0.0796944 -0.116721 0.16035 -0.0761872 -0.34699 -0.0963836 0.379429 0.104085 -0.133382 -0.35366 0.0118167 -0.02442 -0.119927 0.0669822 0.734627 -0.223716 -0.0372603 0.0216149 0.100622 -0.185248 0.028219 -0.0478499 -0.349055 -0.289922 -0.0696979 -0.0311763 0.00609201 -0.742316 0.153269 -0.0842657 -0.135611 0.0413392 -0.399276 0.21476 0.0678969 -0.467278 -0.277292 -0.0652037 0.420378 0.0262964 0.0823841 -0.158266 -0.480082 0.232763 0.106398 -0.146914 0.167704 0.0789321 0.379809 -0.0405006 0.0532308 0.0512496
228 0.032698 -0.422506 0.165983 -0.0640469 0.0171506 -0.465657 0.32424 0.333442 -0.312804 0.015749 -0.149839 0.270243 -0.13769 0.00172548 0.1672 0.21161 -0.118401 0.093757 -0.14657 0.0713028 -0.105617 -0.0118462 -0.145975 0.087792 -0.0776759 0.250279 -0.476163 -0.462939 -0.0868879 0.207916 0.119263 0.288502 0.233239 -0.156069 0.487958 -0.383716 0.116505 0.0761079 0.0243938 0.157026 -0.24867 0.0647958 -0.0873678 -0.160293 -0.146957 0.395066 -0.187359 0.0352474 0.133669 0.231181 0.197353 0.292179 0.02164 0.298728 0.0149407 -0.048873 -0.080887 0.30211 -0.0153586 0.233688 -0.381466 0.105133 -0.0762431 0.377658 0.277418 0.441832 -0.274724 -0.55059 -0.152491 0.0549703 -0.0825798 -0.309121 0.122246 0.209249 0.107808 -0.133327 -0.067599 -0.182043 0.164942 -0.157664 -0.379703 -0.148877 0.408851 0.0501178 -0.157303 -0.392052 0.0161725 -0.0130831 -0.0908898 0.03313 0.814275 -0.29521 -0.00409193 0.0475934 0.0854599 -0.235413 -0.0126234 -0.0572324 -0.421042 -0.320717 -0.111154 -0.0442889 0.0192051 -0.944695 0.146253 -0.0989954 -0.110298 0.0393499 -0.479416 0.209911 0.0750707 -0.60697 -0.356906 -0.099454 0.459815 0.0250372 0.0654197 -0.175305 -0.460098 0.221589 0.138481 -0.234639 0.201964 0.0762845 0.38556 -0.0674484 0.00304311 0.0596096
230 0.0396618 -0.389574 0.197641 -0.0406273 0.0422678 -0.402505 0.28509 0.365566 -0.28877 -0.0340193 -0.150335 0.224197 -0.126457 -0.00961129 0.171504 0.222645 -0.125732 0.0909436 -0.151176 -0.0055839 -0.115438 -0.047507 -0.174812 0.0767811 -0.0876867 0.255532 -0.479883 -0.451536 -0.0795182 0.20182 0.118551 0.277362 0.217171 -0.141091 0.503276 -0.342926 0.10316 0.0704864 0.0377615 0.127007 -0.23565 0.0492475 -0.0594187 -0.177937 -0.110042 0.388911 -0.198838 0.00274486 0.116134 0.257329 0.207579 0.282303 -0.0063643 0.256956 0.0514388 -0.0530533 -0.0425953 0.273877 0.0213412 0.198522 -0.358188 0.110587 -0.0782289 0.38718 0.233106 0.404849 -0.279771 -0.473251 -0.168394 0.0520795 -0.119561 -0.303699 0.146623 0.178082 0.139415 -0.117874 -0.0668994 -0.206083 0.155928 -0.183729 -0.353721 -0.163011 0.387166 0.00936131 -0.136425 -0.361595 0.0376094 0.00388123 -0.073761 0.0190421 0.784171 -0.289896 0.0150274 0.039417 0.0424181 -0.226064 -0.04354 -0.0686582 -0.434892 -0.297021 -0.101912 -0.0435879 0.0159063 -0.948956 0.10777 -0.0749801 -0.0775612 0.0516211 -0.484521 0.183066 0.0669362 -0.634893 -0.352287 -0.117409 0.442581 0.00425882 0.0596171 -0.175484 -0.39592 0.200224 0.142174 -0.259935 0.19213 0.0560457 0.326855 -0.0686192 -0.0359967 0.0533005
123 0.0671798 -0.180403 0.054671 -0.00730292 -0.24149 -0.275145 0.223916 0.489907 0.208641 0.515553 0.0774409 0.216146 0.261102 -0.182816 0.306016 0.0761691 -0.125492 -0.0965786 -0.160804 -0.282669 0.0814814 0.0634491 0.087747 -0.0232733 0.204977 0.0210524 0.275175 -0.261046 0.283108 -0.0564053 0.327791 -0.100535 0.0677516 0.0141609 0.363166 -0.200567 0.0970654 -0.131731 -0.143879 0.546574 -0.00763696 0.381736 -0.395615 0.137587 0.101024 0.143962 -0.126926 -0.170972 0.118429 0.152541 0.0835845 0.0658322 -0.187 -0.0126622 0.0383689 0.0475399 -0.0315389 -0.268323 0.0721873 -0.0861217 -0.441727 0.369244 0.0222699 0.080983 0.292215 0.695214 -0.131473 -0.30201 0.0110907 0.289888 -0.112522 0.273765 0.0623077 0.160085 -0.0421288 -0.047547 0.00692301 0.173983 0.184517 -0.206584 -0.29851 -0.366526 0.068294 -0.157568 -0.114071 -0.124075 -0.207457 0.0230624 0.267338 0.253749 0.217149 0.110761 0.185525 0.134598 -0.146054 -0.163782 0.0151499 -0.184627 0.0597525 -0.307837 0.0133868 0.0499845 -0.0969888 -0.139889 0.237139 0.217937 -0.146219 -0.181075 -0.243685 -0.312213 0.138143 -0.452402 -0.566365 0.0568976 0.206247 0.164245 0.16229 -0.348351 -0.32229 0.0219696 0.00376059 0.0674404 0.25637 -0.109037 0.136603 0.0997272 -0.04709 -0.146719
125 0.108387 -0.110945 0.049505 0.00812077 -0.256329 -0.448308 0.367532 0.387937 0.260425 0.482061 0.00101377 0.222962 0.114175 -0.0616473 0.201155 0.0549884 -0.215612 -0.112509 -0.173331 -0.275084 0.0667837 0.0616573 0.211652 -0.143107 0.225975 0.0498592 0.210359 -0.0805735 0.306318 0.00802381 0.30412 -0.123279 0.0104276 0.157676 0.237385 -0.281691 0.0496556 -0.149466 -0.271976 0.535416 0.0202869 0.326458 -0.279438 0.152503 -0.0181864 0.0775793 -0.149294 -0.0631385 0.142723 0.0965395 0.0516164 0.115397 -0.335001 0.0172743 0.0357799 -0.0121228 -0.127541 -0.130079 0.139311 -0.0955031 -0.367727 0.340364 0.0360187 0.113924 0.337941 0.732381 -0.235358 -0.336826 -0.032981 0.296316 -0.153287 0.123744 0.0538348 0.192179 0.0131997 -0.113147 0.0677075 0.317826 0.218718 -0.191876 -0.174213 -0.344477 0.172482 -0.103482 -0.280564 -0.213493 -0.358666 -0.0164183 0.301983 0.159106 0.191257 0.00584218 0.126366 0.150126 -0.0846007 -0.117566 0.0508637 -0.1584 0.020549 -0.300101 -0.0997017 0.0539019 0.0597724 -0.154491 0.340111 0.242176 -0.144312 -0.0635762 -0.16779 -0.252866 -0.011025 -0.467623 -0.467801 0.0833959 0.238708 0.127899 0.0936715 -0.391919 -0.420597 0.0260909 -0.00381881 0.162979 0.203081 -0.190418 0.145871 0.0351837 0.114987 -0.0607311
124 0.0855103 -0.174112 0.0771775 0.0323959 -0.151189 -0.311294 0.272143 0.382501 0.195434 0.386658 -0.0215435 0.194107 0.123615 -0.0626677 0.233275 0.0102086 -0.188326 -0.114759 -0.139901 -0.212451 -0.0116461 0.0378303 0.0817841 -0.104489 0.111492 0.0382825 0.117617 -0.150709 0.267965 -0.0088026 0.215611 -0.040413 0.0275622 0.0650807 0.285771 -0.260551 0.0536064 -0.11218 -0.237445 0.486179 -0.00928906 0.273876 -0.249082 0.168732 0.0276476 0.161048 -0.143345 -0.104779 0.0739896 0.103683 0.0894674 0.0913088 -0.185221 0.0481707 0.0391717 -0.0194023 -0.0439957 -0.118309 0.112646 -0.0586573 -0.39639 0.291365 -0.00628438 0.176573 0.303123 0.60283 -0.175226 -0.351799 -0.0160006 0.197287 -0.141833 0.0695986 0.00723589 0.150529 0.022747 -0.111058 0.074542 0.258419 0.114471 -0.169814 -0.258681 -0.271339 0.133933 -0.0724768 -0.178112 -0.173109 -0.23982 -0.0524612 0.200192 0.201582 0.242725 0.0911118 0.0858001 0.107939 -0.13846 -0.207569 0.0319436 -0.134782 0.0451942 -0.26566 -0.0232549 0.0960891 0.000419432 -0.240379 0.285402 0.203332 -0.1443 -0.0293934 -0.166506 -0.186609 0.0095121 -0.454184 -0.411057 0.0436553 0.15919 0.11327 0.0689951 -0.309071 -0.360212 0.116502 0.0141594 0.0846801 0.221697 -0.128234 0.211132 0.0759017 0.0333195 -0.00681897
122 0.0234514 -0.29553 0.046757 -0.00717722 -0.228047 -0.125866 0.104707 0.613221 0.149825 0.555517 0.135708 0.241141 0.416809 -0.31428 0.421091 0.0804659 -0.0557157 -0.0864188 -0.15238 -0.267732 0.0680677 0.0727837 -0.0621193 0.0482521 0.171737 0.00462615 0.320492 -0.458665 0.280508 -0.121248 0.344083 -0.0418287 0.14357 -0.149244 0.495262 -0.153427 0.138552 -0.109619 -0.0550653 0.582144 -0.0399821 0.443768 -0.523306 0.15192 0.210333 0.248964 -0.126591 -0.266952 0.0780236 0.229362 0.142747 0.0259598 -0.0360788 -0.0252104 0.0393181 0.0856035 0.0746864 -0.400308 0.0229344 -0.0713735 -0.538224 0.420657 -0.0105471 0.0955868 0.277347 0.70915 -0.0390048 -0.317423 0.026107 0.292446 -0.0949388 0.405183 0.0530028 0.138808 -0.105831 -0.0168846 -0.0348646 0.0527054 0.145208 -0.246764 -0.443899 -0.417889 -0.00357277 -0.20808 0.0182499 -0.0401606 -0.0729911 0.056431 0.236807 0.371119 0.270265 0.211996 0.212355 0.113563 -0.212612 -0.2373 -0.0206066 -0.208196 0.0868541 -0.32519 0.139881 0.0625236 -0.227783 -0.146778 0.154658 0.189916 -0.149831 -0.263932 -0.296678 -0.371361 0.276135 -0.453564 -0.687092 0.0320715 0.185239 0.194484 0.226016 -0.278672 -0.243723 0.0447582 0.0448081 -0.0373281 0.321788 -0.0329982 0.181468 0.154822 -0.193882 -0.193886
120 -0.0248025 -0.296647 0.0635417 0.00733761 -0.217685 -0.0816014 0.0976595 0.58585 0.111973 0.544987 0.159684 0.188432 0.449567 -0.318466 0.412436 0.0660692 -0.0194872 -0.114786 -0.146391 -0.265717 0.103279 0.101517 -0.103996 0.11185 0.181546 -0.0320422 0.31478 -0.474844 0.25189 -0.133432 0.341225 -0.00973874 0.149046 -0.157156 0.518493 -0.133551 0.153558 -0.0491192 -0.00942011 0.59395 -0.0335068 0.434208 -0.540836 0.147263 0.213137 0.267793 -0.11881 -0.303661 0.0506697 0.222507 0.156751 0.0321271 -0.0189355 -0.0634386 0.0355197 0.111103 0.0793638 -0.474138 0.0254722 -0.063069 -0.565546 0.442808 0.00440185 0.0986961 0.283353 0.708946 0.0247603 -0.314048 0.0392052 0.325585 -0.0476587 0.449806 0.052193 0.118473 -0.124043 0.0291755 -0.0393353 0.025278 0.111534 -0.290676 -0.472063 -0.437397 -0.05952 -0.241288 0.0490711 0.00510193 -0.0444926 0.0741288 0.237677 0.369137 0.239196 0.210417 0.213799 0.161039 -0.231592 -0.234908 -0.0412415 -0.194835 0.0942192 -0.321719 0.125578 0.0267812 -0.251215 -0.149653 0.12598 0.189829 -0.142957 -0.299476 -0.31095 -0.365708 0.29931 -0.421894 -0.707176 0.0301948 0.152945 0.221679 0.252493 -0.268288 -0.202779 0.0956154 0.0363887 -0.0470205 0.332812 -0.0171764 0.198235 0.16473 -0.224779 -0.219446
119 -0.0900791 -0.327335 0.121093 0.0716413 -0.193861 -0.0679115 0.124233 0.534441 0.0625358 0.538274 0.2041 0.154337 0.453153 -0.282123 0.37714 0.00489003 0.0114495 -0.186956 -0.135379 -0.237986 0.0823155 0.112054 -0.177528 0.13585 0.140323 -0.0914694 0.220938 -0.473568 0.225159 -0.166927 0.31014 0.0645731 0.177059 -0.19421 0.522732 -0.152771 0.115684 -0.000200691 0.0319552 0.6321 -0.0160395 0.401745 -0.562767 0.163038 0.185237 0.342223 -0.121609 -0.3374 0.0269481 0.205692 0.230272 0.0449288 -0.00803998 -0.0669001 0.0311392 0.0999812 0.0629406 -0.542399 0.0481894 -0.0333325 -0.620973 0.488632 0.022745 0.174963 0.324225 0.73697 0.0889953 -0.369185 0.0304846 0.375611 -0.0195186 0.436825 0.0230366 0.097535 -0.134173 0.0542116 -0.0149431 0.0346874 0.0359351 -0.328502 -0.521482 -0.478344 -0.0888003 -0.263229 0.0233933 0.040265 -0.0335668 0.0853032 0.211422 0.388137 0.240597 0.201286 0.152633 0.229077 -0.298909 -0.281759 -0.0527191 -0.17738 0.0967879 -0.303152 0.101465 -0.0271234 -0.238524 -0.196463 0.114291 0.1944 -0.148991 -0.253369 -0.298286 -0.347212 0.280382 -0.398578 -0.710389 0.00467086 0.1492 0.241361 0.252158 -0.237833 -0.212542 0.24994 0.0445353 -0.0525964 0.350997 -0.00827359 0.290054 0.191596 -0.25384 -0.187408
127 0.114626 0.00695106 0.0103453 -0.00218584 -0.280479 -0.57168 0.472879 0.276723 0.327624 0.440253 -0.067222 0.201148 -0.0227273 0.0405746 0.0718428 0.057995 -0.270735 -0.105346 -0.201738 -0.311133 0.104034 0.049525 0.343202 -0.224898 0.26709 0.0802176 0.193625 0.0955967 0.304896 0.0789457 0.309366 -0.168704 -0.0510334 0.314659 0.117074 -0.29851 0.0237455 -0.16209 -0.353316 0.482448 0.0627778 0.297075 -0.186841 0.121898 -0.130542 -0.0227803 -0.14994 0.0233897 0.192889 0.0195205 -0.016511 0.146611 -0.501723 0.0106494 0.0361653 -0.0342363 -0.237841 -0.0435375 0.182915 -0.127048 -0.250403 0.307038 0.0827467 0.10638 0.343324 0.732588 -0.320172 -0.317618 -0.0585243 0.288947 -0.17136 0.0367269 0.0728758 0.20969 0.0692725 -0.147639 0.0999642 0.428745 0.29262 -0.159462 -0.0428151 -0.330204 0.263325 -0.066131 -0.420973 -0.25898 -0.485362 -0.0284283 0.349638 0.0503703 0.127074 -0.124051 0.110293 0.151316 -0.00824502 -0.0388631 0.0878547 -0.125772 -0.0279026 -0.283777 -0.215138 0.0163851 0.18378 -0.122112 0.396811 0.266089 -0.140668 0.0167919 -0.105815 -0.223394 -0.141845 -0.466193 -0.392363 0.107424 0.285229 0.0885275 0.0430852 -0.444668 -0.512467 -0.018769 -0.0370135 0.265467 0.12582 -0.254758 0.0757377 -0.0260344 0.25266 0.00127624
128 0.139167 0.00120119 0.0340322 0.00229843 -0.297456 -0.678733 0.538978 0.293529 0.373479 0.492758 -0.0930126 0.233447 -0.0582717 0.0715459 0.0939906 0.0612769 -0.329116 -0.130933 -0.216169 -0.324863 0.100567 0.0551579 0.392017 -0.282786 0.275721 0.09762 0.190758 0.128156 0.341172 0.0855537 0.319821 -0.19635 -0.075829 0.361706 0.105419 -0.354825 0.00847504 -0.176448 -0.405597 0.533012 0.0761512 0.304091 -0.177145 0.147512 -0.154819 -0.0262849 -0.168437 0.053897 0.208095 0.030154 -0.0296644 0.156923 -0.546802 0.0280118 0.0384174 -0.0556744 -0.263075 -0.013502 0.197879 -0.146807 -0.268088 0.314669 0.0987257 0.125553 0.391973 0.794281 -0.366171 -0.359118 -0.0729172 0.312285 -0.18865 -0.00120565 0.053135 0.25269 0.0963109 -0.171048 0.120348 0.469563 0.315986 -0.168018 -0.016726 -0.336491 0.286657 -0.0539101 -0.475497 -0.303806 -0.536593 -0.0533922 0.37372 0.0363781 0.132174 -0.151486 0.0968614 0.1649 0.0119319 -0.0372544 0.109778 -0.133555 -0.0478437 -0.30119 -0.253885 0.0274528 0.232706 -0.149379 0.460871 0.279201 -0.162932 0.0419891 -0.103244 -0.23003 -0.184873 -0.501612 -0.390676 0.101794 0.31138 0.0763319 0.0294035 -0.483661 -0.576201 -0.00478018 -0.0209758 0.298841 0.126872 -0.291518 0.102253 -0.0394912 0.29844 0.0206219
129 0.0996075 0.0182315 0.0294755 0.0194003 -0.23861 -0.620966 0.497734 0.268184 0.382759 0.462695 -0.107052 0.212221 -0.0664751 0.0931973 0.10238 0.0493958 -0.319023 -0.160692 -0.230193 -0.318569 0.0948425 0.0269367 0.356411 -0.279257 0.24048 0.11292 0.148641 0.104405 0.346099 0.0764633 0.280688 -0.172038 -0.0662521 0.339378 0.115772 -0.325812 -0.000539185 -0.144312 -0.376765 0.525387 0.0995675 0.269695 -0.1592 0.130322 -0.14359 -0.0331772 -0.143487 0.0381118 0.205168 0.0214937 -0.0551697 0.144896 -0.49834 0.0236575 0.0346907 -0.0467682 -0.234545 -0.0449068 0.186936 -0.12739 -0.228776 0.268773 0.0923952 0.145463 0.337955 0.724166 -0.35563 -0.301858 -0.0788312 0.286721 -0.145712 -0.0135107 0.0436951 0.220794 0.122904 -0.151451 0.110829 0.419983 0.292816 -0.146628 -0.0108756 -0.269248 0.263585 -0.0466759 -0.436338 -0.290957 -0.491063 -0.06574 0.354856 0.0254728 0.105715 -0.162556 0.103734 0.151015 -0.00360856 -0.0450042 0.105839 -0.0847677 -0.0828738 -0.294033 -0.237547 0.0175473 0.219756 -0.171577 0.422913 0.279252 -0.196052 0.0484821 -0.115214 -0.211176 -0.179324 -0.474426 -0.358962 0.0744843 0.26453 0.0731463 0.0215685 -0.453069 -0.571773 -7.21155e-05 -0.0210096 0.295446 0.112258 -0.262889 0.111593 -0.0253285 0.242761 0.0533097
131 0.0566952 0.0563266 0.0336077 0.0424126 -0.152948 -0.594482 0.501429 0.244423 0.416791 0.448482 -0.12725 0.178482 -0.0932942 0.123264 0.114531 0.0403253 -0.330758 -0.193009 -0.227671 -0.315941 0.0915703 -0.00781396 0.341872 -0.274171 0.20088 0.122771 0.129673 0.0934759 0.329378 0.0646504 0.220468 -0.145179 -0.0645599 0.348212 0.118392 -0.31281 -0.00400206 -0.118083 -0.378778 0.505945 0.108679 0.244497 -0.136063 0.151783 -0.15163 -0.0368581 -0.120066 0.0260474 0.185209 -0.00185311 -0.0786248 0.14173 -0.464015 0.0497846 0.0420978 -0.0381633 -0.211669 -0.0570505 0.182088 -0.125479 -0.201698 0.22118 0.102504 0.149533 0.268738 0.673166 -0.3726 -0.271744 -0.0620466 0.239827 -0.123108 -0.0368552 0.0136758 0.208289 0.165677 -0.140383 0.132284 0.401098 0.268031 -0.153605 -0.0227557 -0.223725 0.233819 -0.0180581 -0.39768 -0.285447 -0.480299 -0.0832588 0.321374 0.00333223 0.0702902 -0.171789 0.130653 0.127962 -0.0136583 -0.0731937 0.123317 -0.0231088 -0.102735 -0.304546 -0.248042 0.0208752 0.199543 -0.204005 0.415788 0.298523 -0.226341 0.033731 -0.12359 -0.180671 -0.205417 -0.465941 -0.328764 0.0540269 0.240931 0.0665374 -0.0163865 -0.448276 -0.562303 0.0311076 -0.0235377 0.317741 0.118447 -0.239624 0.11694 -0.00129948 0.208491 0.0892262
132 -0.0131568 0.079752 0.0713258 0.0715624 -0.0635738 -0.533953 0.51037 0.299256 0.43213 0.466204 -0.14389 0.146508 -0.11482 0.140939 0.162251 0.0293246 -0.329303 -0.230204 -0.230014 -0.307769 0.0557606 -0.0839153 0.315162 -0.234154 0.168315 0.115893 0.0987294 0.0474745 0.346078 0.0429601 0.166615 -0.139862 -0.052534 0.306505 0.139269 -0.2927 0.00436725 -0.0922502 -0.371855 0.497847 0.12162 0.225798 -0.130446 0.153693 -0.124394 -0.0317451 -0.0744132 -0.02044 0.167937 -0.0297174 -0.0814486 0.144402 -0.417114 0.0652222 0.0350309 -0.0361802 -0.215503 -0.0882073 0.20556 -0.0896253 -0.198228 0.172295 0.0911912 0.179791 0.190477 0.636753 -0.412643 -0.257124 -0.0131828 0.210029 -0.108174 -0.0730724 -0.0298831 0.172487 0.21778 -0.133493 0.162722 0.345475 0.244259 -0.16186 -0.0705071 -0.165454 0.219373 -0.0168982 -0.349413 -0.32205 -0.464024 -0.099072 0.290984 -0.00172596 0.111564 -0.151771 0.16631 0.0990033 -0.0570608 -0.127806 0.126841 0.064638 -0.121664 -0.340518 -0.244668 0.0121016 0.141483 -0.267147 0.40166 0.32098 -0.256449 0.0293545 -0.150174 -0.152611 -0.212564 -0.484474 -0.338652 0.0320953 0.180556 0.0625725 -0.0395824 -0.446992 -0.541041 0.0659855 -0.00855918 0.358578 0.160266 -0.184716 0.111792 0.0591811 0.144689 0.0686222
134 -0.0475162 0.0879862 0.0821317 0.0879694 0.00221958 -0.451886 0.476508 0.291629 0.410813 0.420653 -0.135786 0.103124 -0.129073 0.147145 0.191401 0.0453093 -0.305902 -0.238595 -0.213096 -0.27201 0.0367554 -0.116726 0.27621 -0.194635 0.147003 0.124429 0.0956146 0.027231 0.327863 0.0370292 0.137266 -0.105682 -0.0147362 0.27569 0.135105 -0.267099 0.0137018 -0.0765947 -0.361948 0.459395 0.117012 0.191697 -0.13066 0.147986 -0.119811 -0.0448774 -0.0588333 -0.056978 0.152697 -0.0332164 -0.0670209 0.13911 -0.367813 0.080294 0.0362013 -0.0392261 -0.200939 -0.103404 0.225236 -0.0621743 -0.179595 0.122177 0.0622396 0.168163 0.111576 0.570204 -0.424822 -0.232646 0.0100393 0.183358 -0.0748258 -0.0761674 -0.0356242 0.157734 0.232516 -0.114863 0.183935 0.321981 0.223975 -0.167725 -0.0941247 -0.134957 0.19713 -0.00794678 -0.307882 -0.321785 -0.460845 -0.104335 0.289219 -0.0316031 0.112721 -0.128568 0.186893 0.0679257 -0.0757777 -0.153375 0.126103 0.120415 -0.123303 -0.348789 -0.215798 0.0212839 0.0843649 -0.286628 0.382404 0.31907 -0.261314 0.0172549 -0.171772 -0.119034 -0.210621 -0.443855 -0.319833 0.041738 0.137132 0.0522959 -0.049162 -0.420968 -0.491485 0.0905239 -0.00254083 0.374672 0.188721 -0.144963 0.117392 0.106329 0.0807382 0.0546952
135 -0.110311 0.0849284 0.181849 0.161048 0.176342 -0.282921 0.427937 0.375824 0.315698 0.326102 -0.0607279 0.0377069 -0.13303 0.182112 0.238116 0.0421225 -0.271265 -0.266932 -0.158073 -0.212952 -0.0592143 -0.19924 0.179767 -0.0895153 0.141111 0.102032 0.0637345 -0.0130607 0.33608 0.0269998 0.0700328 -0.0911624 0.0555847 0.168273 0.139812 -0.186019 0.0801087 -0.0777992 -0.321365 0.339927 0.0961659 0.151987 -0.121201 0.144756 -0.116757 -0.00522908 0.0280944 -0.159848 0.0964816 -0.0797028 -0.000900096 0.180115 -0.305664 0.128153 0.0492246 -0.0744613 -0.212474 -0.0808485 0.321512 0.0519911 -0.185411 0.0358717 -0.0293969 0.186815 -0.0221997 0.446959 -0.482337 -0.22864 0.0772786 0.122921 -0.0683863 -0.0700213 -0.0517573 0.0722103 0.300895 -0.106762 0.232068 0.305375 0.159551 -0.19156 -0.171921 -0.0576846 0.176501 -0.0357609 -0.183584 -0.354493 -0.463729 -0.0942667 0.287594 -0.0530133 0.211929 -0.0420666 0.226872 0.0257376 -0.210839 -0.237536 0.144973 0.171807 -0.0785036 -0.367265 -0.239069 0.055051 -0.0208632 -0.358836 0.398774 0.383721 -0.261018 0.0691569 -0.231102 0.0293543 -0.189568 -0.459745 -0.360965 0.0521426 0.0331359 0.0409055 -0.0770477 -0.435343 -0.407638 0.195878 -0.00826155 0.422474 0.253341 -0.0450876 0.140578 0.174821 -0.00180545 -0.0143974
108 -0.0907422 -0.182848 0.0291244 -0.0655282 0.138797 0.018584 0.192736 -0.120457 0.0886825 0.157815 0.266737 0.121864 0.325494 0.0817324 0.164865 -0.291259 0.0384586 0.0445283 -0.221721 -0.348292 -0.201039 0.14117 -0.163533 0.0343083 0.00989069 -0.120362 -0.10443 -0.222916 0.129706 -0.0927655 0.153425 0.108322 0.167054 0.091557 0.432831 -0.342033 0.168883 -0.00881479 -0.139667 0.573468 0.111993 0.101262 -0.289126 0.0942312 -0.04998 0.298574 -0.213226 -0.213952 0.0313559 0.0286254 0.243654 0.262328 0.0603985 -0.245599 -0.160033 0.102499 0.0241933 -0.376281 0.0347872 0.088209 -0.499663 0.437633 -0.0106112 0.269582 0.385663 0.379277 0.0568303 -0.684102 -0.0228453 0.096621 -0.0383454 0.168812 0.149004 0.0190454 0.100533 0.11512 0.193342 0.298265 -0.268323 -0.274592 -0.496593 -0.167584 0.0411856 0.0269222 -0.199015 -0.0929902 -0.185192 0.0416875 0.155069 0.327571 0.060092 0.176458 0.0148402 0.231892 -0.239887 -0.360205 -0.131727 -0.157871 0.109197 0.0845166 0.0753919 0.207066 -0.0395001 -0.404179 0.22387 0.263705 -0.0485492 -0.0835187 -0.135655 -0.00576988 -0.0284288 -0.295908 -0.322286 0.0898604 0.0458149 0.22306 0.124648 -0.05695 -0.223084 0.580058 0.170409 -0.169814 0.0811596 -0.238315 0.541409 0.137967 -0.209398 0.126185
109 -0.0830673 -0.209573 0.0933574 0.0188259 0.0947746 -0.0237365 0.197745 -0.0663965 0.0830272 0.186251 0.252602 0.126889 0.263282 0.066431 0.169675 -0.220308 -0.0198808 -0.0335175 -0.193707 -0.296446 -0.174392 0.123281 -0.154269 0.04647 -0.00446949 -0.131881 -0.130684 -0.203324 0.106024 -0.0668405 0.145983 0.105986 0.156413 0.0600289 0.382574 -0.295319 0.134582 -0.0158468 -0.101528 0.556632 0.0732508 0.097061 -0.273646 0.125783 -0.0519313 0.294193 -0.205339 -0.218973 0.00653088 0.0490581 0.262056 0.210746 0.0360071 -0.165917 -0.115345 0.05044 0.012677 -0.344452 0.077137 0.0766662 -0.502321 0.418008 -0.0108432 0.249755 0.375859 0.407712 0.0327909 -0.572134 -0.0262855 0.157861 -0.0623124 0.134122 0.117675 0.0270119 0.0755055 0.102969 0.194808 0.266349 -0.218344 -0.247746 -0.446532 -0.198707 0.0104289 -0.00971955 -0.149657 -0.106766 -0.180351 -0.00515945 0.159314 0.280032 0.111962 0.147816 -0.0047434 0.233669 -0.257537 -0.337449 -0.103599 -0.133227 0.0940428 0.0427692 0.0278732 0.142296 -0.0591649 -0.413707 0.228511 0.252667 -0.0869155 -0.06489 -0.135647 -0.00451919 -0.0669449 -0.302138 -0.322107 0.0574606 0.0521298 0.226413 0.112865 -0.113843 -0.194178 0.56015 0.106403 -0.150007 0.117383 -0.190278 0.544012 0.159249 -0.19142 0.102094
110 -0.127612 -0.258995 0.146761 0.0647583 0.0703464 -0.0373756 0.239108 -0.0900145 0.0790099 0.218961 0.293807 0.13382 0.288788 0.0735771 0.185874 -0.245248 -0.00614437 -0.0611053 -0.202992 -0.316334 -0.147637 0.134827 -0.176324 0.0796983 -0.00338687 -0.196219 -0.153058 -0.202485 0.0730353 -0.0938593 0.180704 0.133687 0.172901 0.0576701 0.373039 -0.287041 0.137228 0.0104097 -0.0619803 0.637915 0.0755093 0.0924707 -0.299006 0.136033 -0.0685863 0.326767 -0.198871 -0.23888 0.00123232 0.0335714 0.293223 0.231872 0.0272366 -0.20704 -0.127367 0.0423228 -0.0168081 -0.425874 0.103307 0.0732913 -0.548038 0.477099 -0.00185589 0.271918 0.422668 0.439285 0.0821059 -0.578809 -0.0160987 0.254876 -0.0428702 0.182024 0.123386 0.011297 0.0527042 0.131754 0.194062 0.2739 -0.247077 -0.292066 -0.45806 -0.221163 -0.0451047 -0.0377904 -0.123835 -0.0991602 -0.19598 3.4663e-05 0.203467 0.289103 0.108518 0.137756 -0.0320645 0.312011 -0.298493 -0.31234 -0.128936 -0.138337 0.09202 0.0535921 -0.00318482 0.0782522 -0.0692058 -0.435674 0.239073 0.285336 -0.104427 -0.0879971 -0.134611 -0.0146307 -0.0871294 -0.292088 -0.349375 0.0601878 0.043909 0.255537 0.141437 -0.128027 -0.185658 0.621349 0.102795 -0.131735 0.121752 -0.19159 0.592621 0.185811 -0.199779 0.0877563
111 -0.205986 -0.314737 0.264573 0.204049 -0.0306574 -0.0404817 0.245136 -0.0788145 0.0439227 0.293599 0.334635 0.126033 0.30165 0.0409813 0.178027 -0.193218 -0.000930261 -0.171091 -0.18155 -0.273995 -0.0784203 0.141095 -0.210522 0.129766 -0.00908665 -0.284586 -0.182239 -0.217819 0.0227533 -0.118729 0.21679 0.157875 0.213949 -0.0128715 0.311062 -0.22956 0.099537 0.0637291 0.0453743 0.698876 0.0737295 0.095557 -0.331401 0.141972 -0.0703281 0.358993 -0.15579 -0.298373 -0.0312551 0.0352449 0.347261 0.190733 -0.0208461 -0.197326 -0.0901662 0.000669773 -0.0575216 -0.537677 0.133759 0.0668581 -0.58149 0.535072 0.0308106 0.272649 0.456519 0.53044 0.156179 -0.470285 -0.0135032 0.445996 -0.037996 0.215297 0.0828945 0.015884 -0.0231086 0.168234 0.174655 0.226986 -0.231197 -0.318568 -0.430117 -0.295095 -0.155543 -0.100275 -0.0608844 -0.0550436 -0.191139 -0.0155706 0.237713 0.270064 0.141072 0.0871838 -0.0687197 0.41037 -0.347687 -0.256121 -0.152474 -0.129913 0.0787774 0.0178034 -0.0728489 -0.0817779 -0.110954 -0.436223 0.216094 0.289731 -0.132004 -0.0933364 -0.145202 -0.0325989 -0.109036 -0.257691 -0.399547 0.0163356 0.0480601 0.286072 0.16533 -0.163714 -0.149795 0.673643 0.0607967 -0.0950663 0.17116 -0.128804 0.636399 0.242026 -0.215819 0.0341662
113 -0.207979 -0.346823 0.312523 0.233892 -0.0740657 -0.0499479 0.251629 0.00200525 0.0215021 0.35247 0.341423 0.121749 0.342285 0.00315989 0.207123 -0.176465 -0.00396429 -0.228922 -0.155174 -0.256336 -0.0303355 0.14042 -0.226485 0.145852 -0.00890984 -0.297101 -0.141085 -0.240543 0.0301665 -0.129048 0.230886 0.168642 0.231108 -0.0603213 0.320154 -0.218395 0.068349 0.0792903 0.0677965 0.714154 0.0515218 0.142645 -0.378143 0.159515 -0.0432184 0.378383 -0.143866 -0.311163 -0.0355221 0.0538127 0.381268 0.158938 -0.0296987 -0.171198 -0.0563786 -0.00130192 -0.0551698 -0.570909 0.161728 0.0690246 -0.637509 0.554001 0.0220053 0.266829 0.446243 0.609368 0.178492 -0.442407 -0.00324729 0.502794 -0.0137825 0.250336 0.0487904 0.0251343 -0.0531584 0.149877 0.148071 0.18475 -0.228672 -0.333173 -0.446078 -0.353056 -0.181471 -0.151002 -0.0295612 -0.012703 -0.171424 0.0123489 0.235126 0.292445 0.180835 0.0831709 -0.0449158 0.429372 -0.38728 -0.262698 -0.158849 -0.12224 0.0888835 -0.0469384 -0.0561511 -0.10829 -0.127883 -0.4327 0.209985 0.287685 -0.148943 -0.111347 -0.165199 -0.0692301 -0.0601854 -0.250354 -0.463654 0.00627506 0.0704588 0.306433 0.195925 -0.194844 -0.150995 0.662912 0.0368875 -0.062378 0.23162 -0.0927099 0.631541 0.260887 -0.229541 -0.000849228
290 0.185179 -0.34301 0.326645 0.141161 -0.0393951 0.0208482 0.0380656 0.278591 -0.0131966 0.302622 -0.1372 0.54988 0.454478 -0.180773 0.110792 -0.444707 -0.104919 -0.119377 -0.284901 -0.231305 -0.347472 -0.141407 -0.208385 -0.33271 -0.4003 0.087355 -0.205785 -0.18427 0.40832 -0.288056 0.167749 0.080607 0.307679 -0.16651 -0.110649 -0.581131 -0.0142286 -0.544022 -0.36926 0.450848 -0.277616 0.355584 0.258593 0.287523 -0.0984263 0.51165 -0.00547029 0.0776922 0.0193688 0.0483546 0.264327 0.0885788 -0.416288 0.107786 0.445246 -0.293406 0.134793 -0.0980346 0.132484 -0.16455 -0.117633 0.205536 -0.0732496 0.555085 0.0636402 0.913659 0.00210601 -0.400386 0.100528 -0.0279167 -0.362242 -0.320154 -0.0894664 0.0385993 0.193552 -0.260963 -0.296319 0.214479 -0.0813544 -0.164276 -0.456559 -0.0535782 0.0770447 0.176174 0.145829 0.225481 -0.3938 -0.209797 0.0133925 0.269352 0.437673 0.1799 0.132741 -0.281936 -0.306175 -0.132025 -0.218254 -0.271343 0.208807 -0.406385 0.21769 0.082907 -0.0838385 -0.14853 0.0944716 0.4325 0.00388579 0.243065 -0.132348 0.0514945 0.185833 -0.488762 -0.147674 -0.178285 0.37543 0.357843 -0.030882 -0.371119 -0.244734 0.207946 -0.0979076 0.22509 0.193772 -0.0847771 0.208311 -0.0334629 -0.258671 0.36193
289 0.171552 -0.296767 0.2993 0.0952359 -0.0176879 0.0110203 0.0367865 0.203025 -0.0228518 0.238035 -0.111865 0.514059 0.429917 -0.153423 0.0830845 -0.384087 -0.0849818 -0.117983 -0.245647 -0.189501 -0.330294 -0.10359 -0.185333 -0.295073 -0.352047 0.101425 -0.184871 -0.170667 0.341647 -0.234399 0.146687 0.0676019 0.302104 -0.170432 -0.111456 -0.515865 -0.0212244 -0.477265 -0.334138 0.406639 -0.251837 0.318752 0.206897 0.243574 -0.112614 0.466554 -0.0105902 0.0675533 0.0166081 0.0471115 0.22248 0.0887743 -0.351928 0.0502075 0.395892 -0.243298 0.124623 -0.0842898 0.0951305 -0.116654 -0.0736071 0.183254 -0.0634288 0.491872 0.0344087 0.779564 0.00940591 -0.330883 0.0958916 -0.0212249 -0.31882 -0.273186 -0.064749 0.0437303 0.15602 -0.225478 -0.265816 0.163927 -0.0923265 -0.148545 -0.401213 -0.0419646 0.0539364 0.163589 0.138523 0.21036 -0.332264 -0.173512 -0.00892379 0.239715 0.383328 0.146384 0.127661 -0.246409 -0.274142 -0.0807704 -0.205946 -0.221999 0.174411 -0.326681 0.168029 0.0693743 -0.0639844 -0.11626 0.062696 0.378864 0.00606951 0.203523 -0.0893068 0.0594472 0.148506 -0.369842 -0.105446 -0.166564 0.323125 0.311778 -0.0352199 -0.284998 -0.216767 0.20158 -0.104024 0.197522 0.149277 -0.0797413 0.195556 -0.0361049 -0.25413 0.303009
288 0.200422 -0.328551 0.327945 0.121005 -0.0324766 0.0191377 0.0448266 0.24336 -0.016113 0.281709 -0.127328 0.568705 0.476027 -0.171563 0.0937061 -0.416012 -0.0889025 -0.118882 -0.280064 -0.218291 -0.364792 -0.126487 -0.203462 -0.332773 -0.392196 0.103835 -0.202047 -0.182598 0.381907 -0.249727 0.165234 0.0687405 0.336367 -0.187557 -0.135688 -0.56845 -0.0286257 -0.529148 -0.378102 0.45303 -0.259783 0.359606 0.238377 0.269021 -0.118906 0.510518 -0.0123345 0.0602153 0.0212899 0.0565234 0.242104 0.0895846 -0.393612 0.0528126 0.434596 -0.275825 0.127838 -0.101602 0.0993633 -0.145489 -0.0874411 0.202219 -0.0596835 0.536504 0.0310769 0.864761 -0.00400672 -0.381547 0.110687 -0.0149595 -0.356584 -0.300367 -0.087353 0.0582734 0.173307 -0.255683 -0.29873 0.190021 -0.0868998 -0.163723 -0.433284 -0.0678994 0.0479168 0.17373 0.140822 0.241836 -0.388001 -0.196199 0.00308145 0.257297 0.415479 0.170132 0.142798 -0.26384 -0.306022 -0.0886298 -0.235512 -0.242151 0.193428 -0.36436 0.19673 0.0730129 -0.0677104 -0.133032 0.0810488 0.4077 0.013054 0.228532 -0.0930519 0.0698854 0.166239 -0.409189 -0.128389 -0.178007 0.348334 0.336727 -0.0391979 -0.326349 -0.233733 0.209998 -0.112511 0.232733 0.170562 -0.0953142 0.208447 -0.0324597 -0.277796 0.347626
291 0.12819 -0.323716 0.245843 0.209818 -0.0469204 0.0993375 -0.0314085 0.292736 -0.0234656 0.350589 -0.161319 0.431741 0.364342 -0.180079 0.0928348 -0.440409 -0.0815792 -0.0521108 -0.309196 -0.2363 -0.277429 -0.204515 -0.196349 -0.272532 -0.407309 -0.00218874 -0.191666 -0.144708 0.426188 -0.312839 0.158744 0.124911 0.260613 -0.100775 -0.113645 -0.559879 0.0249615 -0.542976 -0.316719 0.377922 -0.255182 0.330095 0.336472 0.287798 -0.0498706 0.450787 0.0113119 0.0863975 0.0183817 0.0161214 0.280709 0.0870283 -0.413943 0.209273 0.40651 -0.359264 0.122113 -0.103679 0.197984 -0.186028 -0.138092 0.178316 -0.121756 0.502773 0.0430523 0.834226 0.0493329 -0.405099 0.0983791 -0.050567 -0.293885 -0.301876 -0.109622 0.0136101 0.20302 -0.245356 -0.329274 0.242716 -0.05094 -0.183625 -0.411403 -0.0449375 0.0437241 0.183979 0.182992 0.24176 -0.364638 -0.249452 0.0671892 0.203898 0.405571 0.197578 0.132417 -0.29036 -0.281852 -0.164077 -0.171314 -0.311305 0.194203 -0.405874 0.270282 0.0654147 -0.0867537 -0.192967 0.10087 0.416099 0.0250886 0.244307 -0.201574 0.059989 0.225481 -0.550221 -0.149394 -0.172635 0.357203 0.349065 -0.0147781 -0.447689 -0.190355 0.112446 -0.0453019 0.203351 0.210146 -0.0695502 0.198466 -0.0647244 -0.196113 0.373599
106 0.0106888 -0.0776777 -0.115564 -0.240023 0.204923 0.0334074 0.147614 -0.0457605 0.106717 0.0951756 0.166428 0.116437 0.296272 0.0924196 0.156253 -0.312449 0.0361822 0.139304 -0.209652 -0.330325 -0.260799 0.106533 -0.102916 -0.0457791 0.0569945 0.0376987 -0.0121375 -0.239989 0.240086 -0.100785 0.0808053 0.0445915 0.104625 0.120907 0.474092 -0.367901 0.157017 -0.0534378 -0.245344 0.449103 0.101422 0.104241 -0.25274 0.0536364 -0.0157858 0.235131 -0.207089 -0.132682 0.0717165 0.0380073 0.140663 0.265359 0.0749565 -0.192856 -0.181237 0.133696 0.0954411 -0.209232 -0.0341119 0.0864798 -0.392205 0.310209 -0.0318162 0.241476 0.304012 0.26552 -0.0399789 -0.745 -0.0285998 -0.15432 -0.0367505 0.11654 0.176014 0.0322704 0.147262 0.0292093 0.176126 0.294066 -0.25389 -0.219507 -0.487464 -0.0868028 0.188754 0.0940636 -0.296139 -0.104788 -0.148191 0.0724788 0.056214 0.348838 0.0191153 0.211687 0.0890536 0.069986 -0.147423 -0.405775 -0.0980784 -0.17759 0.110859 0.0750532 0.162689 0.375969 0.00312651 -0.327863 0.197519 0.200656 0.0169976 -0.0522398 -0.138064 -0.0479356 0.0564489 -0.289777 -0.245765 0.121362 0.0435868 0.126939 0.0902936 -0.00867915 -0.292286 0.437953 0.227903 -0.18394 0.0378198 -0.249892 0.388606 0.0665409 -0.184779 0.163053
105 0.0235817 -0.0657317 -0.172154 -0.321301 0.246511 0.0655174 0.157226 -0.0553934 0.124626 0.055655 0.178314 0.0938638 0.343792 0.104016 0.151765 -0.388223 0.0610889 0.195611 -0.246154 -0.371781 -0.278975 0.111682 -0.120425 -0.0814421 0.0594176 0.0590165 -0.00154599 -0.254185 0.253724 -0.0915217 0.0638013 0.0433732 0.129139 0.13941 0.526241 -0.412299 0.183411 -0.0331775 -0.314132 0.462799 0.134863 0.130238 -0.293005 0.0626294 -0.018023 0.276385 -0.242142 -0.144384 0.103292 0.00900543 0.130457 0.306013 0.0877067 -0.24388 -0.199149 0.172013 0.12294 -0.234302 -0.0468585 0.0815572 -0.418478 0.336091 -0.0345396 0.259948 0.32124 0.272989 -0.0146167 -0.837932 -0.0272643 -0.227488 -0.00687839 0.114087 0.206908 0.040488 0.170066 0.0173258 0.172117 0.350791 -0.295512 -0.244926 -0.588166 -0.0837045 0.219385 0.119733 -0.351141 -0.0913644 -0.166306 0.106898 0.0493213 0.399664 -0.0135803 0.250989 0.110482 0.0748037 -0.145217 -0.468642 -0.130907 -0.202502 0.114815 0.0845932 0.212237 0.456716 0.0143093 -0.362239 0.179298 0.235153 0.0202001 -0.0703965 -0.136389 -0.0474764 0.0845094 -0.303439 -0.276073 0.154104 0.0491152 0.161143 0.103748 0.0168826 -0.332727 0.467628 0.261394 -0.214393 0.0436953 -0.30948 0.39537 0.0589651 -0.211596 0.202567
104 0.0858803 -0.0698821 -0.249933 -0.382918 0.24173 0.0497305 0.172619 0.0111382 0.130971 0.0426984 0.156832 0.06191 0.348937 0.0918739 0.159422 -0.437201 0.021141 0.199804 -0.235638 -0.347248 -0.280858 0.0943858 -0.0832613 -0.149056 0.0276448 0.137697 0.0430477 -0.231195 0.301728 -0.0548899 0.0159042 0.00922972 0.140967 0.147118 0.503615 -0.436267 0.163313 -0.0141773 -0.412207 0.373992 0.138251 0.146461 -0.274107 0.0992557 -0.0249644 0.308416 -0.264177 -0.144609 0.133464 -0.0112197 0.0890218 0.291687 0.0540499 -0.210797 -0.15477 0.171161 0.172372 -0.151016 -0.0471348 0.0825348 -0.391969 0.278752 -0.0611184 0.221712 0.288053 0.316198 -0.0413937 -0.844699 -0.0383199 -0.301671 0.00841467 0.0692319 0.211561 0.0618484 0.181342 -0.068755 0.165478 0.383908 -0.30539 -0.215988 -0.62969 -0.077778 0.255794 0.133846 -0.40135 -0.0716228 -0.173534 0.110468 0.0138131 0.404338 0.00687598 0.278404 0.155501 0.0605772 -0.132101 -0.509904 -0.126925 -0.221854 0.112084 0.015635 0.24465 0.515121 0.0245539 -0.346236 0.151266 0.244914 0.0203467 -0.068215 -0.104629 -0.06689 0.149458 -0.279049 -0.279165 0.167167 0.0953813 0.180089 0.100375 -0.00542689 -0.390102 0.40713 0.242512 -0.200795 0.0792753 -0.337186 0.324322 0.0409064 -0.167528 0.213679
103 0.0616851 -0.0279772 -0.230687 -0.360027 0.231003 0.0612284 0.176124 -0.00217522 0.128181 -0.00314532 0.12447 0.0236048 0.296575 0.0828233 0.113407 -0.411587 0.00575556 0.186773 -0.20422 -0.319079 -0.232104 0.07638 -0.0724737 -0.170536 0.0192054 0.129148 0.0555126 -0.206581 0.266832 -0.0227056 -0.00810901 -0.00532194 0.128624 0.154169 0.447982 -0.375949 0.155509 0.0149479 -0.419313 0.311478 0.126608 0.134225 -0.248017 0.123033 -0.0285589 0.28833 -0.233331 -0.138341 0.110282 -0.043502 0.0633835 0.255499 0.0353139 -0.192974 -0.119284 0.165399 0.176999 -0.129275 -0.0133673 0.0579442 -0.336114 0.244843 -0.064603 0.199156 0.260968 0.277597 -0.0205391 -0.740619 -0.0415666 -0.309775 0.0167781 0.0398814 0.201903 0.0555324 0.151108 -0.0986369 0.127547 0.364912 -0.281195 -0.19344 -0.598125 -0.0672971 0.223742 0.140349 -0.373513 -0.0395529 -0.158677 0.100907 -0.00604725 0.360416 0.00362931 0.255609 0.132619 0.0591687 -0.103296 -0.46858 -0.109861 -0.215273 0.0854341 -0.0020788 0.231391 0.471081 0.0108809 -0.321639 0.123953 0.238709 0.00716038 -0.0559301 -0.0853153 -0.048579 0.128176 -0.231475 -0.270507 0.151919 0.0771958 0.171928 0.0821939 0.0141442 -0.353803 0.349892 0.215211 -0.17784 0.0761878 -0.304213 0.275609 0.0221699 -0.136985 0.203749
102 0.0689762 -0.0542779 -0.274041 -0.388676 0.239995 0.0777729 0.223448 -0.0180855 0.141265 -0.0268744 0.164623 -0.0266891 0.336187 0.0613135 0.110622 -0.478169 0.010909 0.233211 -0.21521 -0.350158 -0.259218 0.0756097 -0.0723773 -0.216173 -0.0104818 0.15471 0.0482552 -0.191326 0.289219 0.0213835 -0.0192844 0.000836999 0.160103 0.203766 0.492225 -0.395799 0.168024 0.0660419 -0.492051 0.292603 0.153289 0.144709 -0.303834 0.157013 -0.017039 0.324327 -0.277695 -0.158398 0.139375 -0.0445197 0.0792793 0.262361 0.0754821 -0.218666 -0.109332 0.199511 0.207174 -0.135328 -0.0211551 0.0601016 -0.364441 0.252493 -0.0903346 0.189344 0.282867 0.341474 -0.00419116 -0.821709 -0.0672365 -0.340217 0.0483248 0.0475266 0.227754 0.0661841 0.139298 -0.146568 0.138382 0.419724 -0.324765 -0.188108 -0.674126 -0.0632718 0.245838 0.171408 -0.440147 -0.0361899 -0.182185 0.137399 0.00104229 0.407855 0.0117465 0.270436 0.146097 0.0742358 -0.108066 -0.547188 -0.112645 -0.242953 0.0973963 -0.0170078 0.273839 0.526254 0.0261053 -0.351563 0.114506 0.26835 -0.0254542 -0.0599571 -0.0457752 -0.0569778 0.154322 -0.237467 -0.351999 0.179995 0.1085 0.211099 0.107553 0.0386649 -0.390417 0.364175 0.241286 -0.161793 0.117398 -0.342794 0.322113 0.0281655 -0.152127 0.245156
101 0.0686683 -0.112568 -0.277623 -0.321718 0.202707 0.0621378 0.357654 -0.0430279 0.212801 -0.0852302 0.159676 -0.132333 0.307535 -0.00372968 -0.0249608 -0.60353 -0.0604916 0.241153 -0.156953 -0.367571 -0.239948 0.02482 -0.0686132 -0.332562 -0.117539 0.168587 0.0110108 -0.105419 0.287074 0.21422 -0.0732303 0.00582538 0.191114 0.295445 0.560878 -0.35719 0.189022 0.173757 -0.66714 0.177184 0.125978 0.213616 -0.347642 0.381844 0.00538123 0.426693 -0.321098 -0.220702 0.14531 -0.142878 0.108838 0.190724 0.147828 -0.198695 0.0293121 0.248767 0.30536 -0.0548665 0.0604758 0.0916625 -0.383359 0.263496 -0.176927 0.174508 0.281018 0.446847 0.0133337 -0.801122 -0.141352 -0.399622 0.0766585 -0.029901 0.215564 0.0401881 0.060437 -0.33167 0.123298 0.545092 -0.361692 -0.151947 -0.801198 -0.0585723 0.222105 0.240784 -0.498436 -0.0307045 -0.186947 0.177615 -0.0620896 0.468205 0.16847 0.295432 0.132834 0.135374 -0.155749 -0.677946 -0.0882017 -0.289131 0.0861505 -0.112362 0.273572 0.526452 0.050156 -0.391953 0.0773663 0.378274 -0.114669 -0.0920089 0.0608937 0.0249709 0.190477 -0.266135 -0.523957 0.189729 0.186859 0.293931 0.110353 0.0369997 -0.402477 0.328609 0.204357 -0.0941864 0.249066 -0.362223 0.358376 -0.0255511 -0.0604001 0.324867
247 0.143319 -0.178697 -0.116706 -0.0188738 -0.0624548 -0.0770685 -0.0313517 0.0576909 0.40051 0.443547 -0.262727 0.492548 0.0542825 0.152437 -0.0938395 0.0291023 -0.236804 -0.307613 -0.156241 0.0892599 0.0918215 0.00788841 0.0446008 -0.233664 -0.158574 0.128989 0.133993 -0.340733 0.27667 0.177018 0.37902 -0.143207 0.169812 -0.287046 0.362059 -0.504787 0.05879 -0.134216 -0.494163 0.54661 0.167897 0.285736 -0.174372 0.137624 0.0534661 0.4488 0.0778428 -0.205591 0.0308091 -0.414375 0.143707 -0.0543982 -0.0968772 -0.01896 0.318907 -0.106692 0.0591563 0.122783 0.232391 0.316382 -0.316389 0.19412 0.0306733 0.191906 0.236707 0.0394409 -0.023104 -0.448373 -0.0825445 0.0429846 -0.217772 -0.301525 -0.233286 0.117462 0.0850554 -0.13746 0.0148095 0.428755 0.152259 -0.115627 -0.0722758 -0.17149 -0.211994 0.0838106 -0.128396 -0.132153 -0.262227 -0.216682 0.138746 0.101846 0.348664 0.228008 0.20255 0.223251 -0.353651 0.0368229 -0.00831204 0.056073 -0.177447 -0.373827 -0.0132667 0.0899929 0.0950033 -0.594731 0.216245 0.195005 -0.00885295 -0.225672 -0.377976 0.272518 0.0650607 -0.277354 0.00761908 0.0279995 0.100161 0.0558575 -0.117402 -0.270169 -0.361923 0.147023 -0.179378 -0.160476 -0.0403493 -0.329796 0.343533 -0.0611331 0.36337 0.395098
248 0.160899 -0.205004 -0.159219 -0.0200129 -0.0480668 -0.111676 -0.032135 0.0787193 0.489736 0.50749 -0.32213 0.566368 0.0439833 0.194602 -0.0783034 -0.00558901 -0.279176 -0.360005 -0.167434 0.0965756 0.0984532 0.0365081 0.0563328 -0.283838 -0.186966 0.161122 0.200026 -0.382301 0.298087 0.183344 0.440716 -0.163261 0.17415 -0.323044 0.420156 -0.593207 0.0751708 -0.141591 -0.582039 0.627181 0.192652 0.344736 -0.232192 0.164116 0.0396575 0.513695 0.0959567 -0.215979 0.0417942 -0.492918 0.152554 -0.083713 -0.0977312 -0.031641 0.370773 -0.0734383 0.077336 0.115569 0.28596 0.380716 -0.372396 0.206045 0.0209561 0.191811 0.295531 0.0782796 -0.0217072 -0.528911 -0.0953499 0.0321287 -0.243182 -0.327037 -0.285911 0.145459 0.108196 -0.162728 0.0505721 0.516822 0.174635 -0.149977 -0.106111 -0.211924 -0.23831 0.123287 -0.152273 -0.153097 -0.338226 -0.245029 0.157392 0.116179 0.40306 0.28795 0.233881 0.27336 -0.396937 0.0284154 -0.00458288 0.0765618 -0.199433 -0.437751 -0.0123104 0.115533 0.101973 -0.667785 0.270646 0.204015 -0.0310788 -0.276021 -0.420997 0.314317 0.0642503 -0.336592 0.0291983 0.0397311 0.142691 0.0883723 -0.139192 -0.305717 -0.440597 0.195949 -0.199652 -0.166121 -0.0530708 -0.381101 0.393093 -0.03924 0.427364 0.454223
249 0.125248 -0.150651 -0.161937 0.0195034 0.018749 -0.191594 -0.0225233 0.130243 0.438231 0.384765 -0.343878 0.461451 -0.0476401 0.152841 0.0228725 -0.10158 -0.285427 -0.323358 -0.100082 0.103862 0.0694829 0.120991 0.018292 -0.240253 -0.172535 0.174757 0.194576 -0.306302 0.192175 0.137083 0.349544 -0.0753811 0.107316 -0.254461 0.363963 -0.543407 0.0542412 -0.130986 -0.4949 0.512763 0.131127 0.3061 -0.22405 0.156633 -0.0424474 0.397735 0.0819948 -0.126347 0.0421191 -0.422799 0.130648 -0.112203 -0.0108691 0.005605 0.31293 0.0121783 0.0750627 0.0633821 0.328737 0.36024 -0.367504 0.113557 -0.0334589 0.13821 0.267871 0.134288 -0.0458186 -0.456649 -0.0933157 -0.0287678 -0.174489 -0.254563 -0.271437 0.107561 0.16108 -0.13635 0.0767734 0.453723 0.189086 -0.165996 -0.162775 -0.24793 -0.190563 0.0981135 -0.124243 -0.107926 -0.37421 -0.214517 0.119786 0.0627154 0.385334 0.284289 0.179234 0.272916 -0.327816 0.00100663 -0.0163158 0.0681975 -0.158328 -0.416359 0.0115878 0.138367 0.04227 -0.608656 0.310656 0.106129 -0.0638101 -0.263282 -0.362189 0.302778 -0.00364454 -0.422097 0.0635469 0.0538737 0.175591 0.169634 -0.14968 -0.296918 -0.397079 0.210088 -0.133247 -0.130702 -0.0231782 -0.33093 0.353621 0.0442109 0.369985 0.402106
246 0.189455 -0.20915 -0.108033 -0.0268515 -0.0949059 -0.0421671 -0.028907 0.0332495 0.442174 0.51442 -0.25522 0.550337 0.111961 0.174862 -0.156199 0.0478927 -0.211576 -0.364631 -0.183145 0.100188 0.116065 -0.0389827 0.0414658 -0.247155 -0.143271 0.12087 0.115819 -0.377899 0.312099 0.2249 0.426512 -0.185909 0.207044 -0.321019 0.41575 -0.550254 0.0670589 -0.149717 -0.543934 0.649862 0.196303 0.338677 -0.184558 0.134787 0.103287 0.518178 0.0715575 -0.275419 0.0145497 -0.460326 0.161227 -0.0337885 -0.101792 -0.0312136 0.34663 -0.180814 0.0652737 0.145065 0.2072 0.337538 -0.362973 0.262441 0.0580262 0.256074 0.261357 0.0102726 -0.038232 -0.503791 -0.0609288 0.0467825 -0.247223 -0.334043 -0.227135 0.137852 0.0804597 -0.144611 0.00443826 0.48226 0.154163 -0.111975 -0.0518022 -0.198934 -0.240987 0.0883949 -0.126545 -0.168546 -0.244025 -0.234594 0.144013 0.138948 0.380243 0.249496 0.225184 0.265228 -0.434827 0.0466413 -0.0310536 0.0804712 -0.206219 -0.416091 -0.0198769 0.0825452 0.13672 -0.667275 0.223392 0.278106 0.0185579 -0.257863 -0.432439 0.279653 0.114155 -0.272598 -0.0147283 0.0212864 0.0731011 0.0404635 -0.126176 -0.322444 -0.374936 0.169237 -0.222359 -0.180641 -0.0507295 -0.356421 0.385344 -0.08889 0.400211 0.426022
251 0.0753945 -0.0723864 -0.13979 0.0453317 0.0975267 -0.302126 -0.0129231 0.194734 0.391059 0.229315 -0.39287 0.335058 -0.14459 0.126372 0.15405 -0.201188 -0.312279 -0.305181 -0.0271408 0.0955627 0.0416707 0.264573 -0.0135501 -0.210309 -0.146998 0.174332 0.242668 -0.208293 0.0469446 0.0925212 0.243833 -0.0139542 0.017031 -0.145663 0.327364 -0.506591 0.0372736 -0.105172 -0.41009 0.388912 0.0812894 0.296265 -0.227132 0.139742 -0.134655 0.278787 0.0429764 -0.0280053 0.0537112 -0.332978 0.106641 -0.148474 0.0678096 0.00493654 0.267738 0.15405 0.0775791 -0.0263078 0.375669 0.326939 -0.379237 -0.00524895 -0.0754311 0.0716804 0.253052 0.176935 -0.0365484 -0.386332 -0.0639118 -0.112375 -0.0693282 -0.180458 -0.250866 0.0852376 0.22964 -0.0947224 0.101867 0.387878 0.193398 -0.200304 -0.266936 -0.293866 -0.157054 0.0972269 -0.0946855 -0.0385031 -0.425109 -0.177664 0.0884678 -0.00482482 0.350567 0.308691 0.135914 0.306508 -0.245012 -0.063708 -0.0376098 0.0432973 -0.135228 -0.403666 0.0524472 0.185883 -0.0442831 -0.54557 0.35633 -0.00156075 -0.103842 -0.243606 -0.289822 0.310198 -0.0979866 -0.513077 0.0807111 0.06516 0.214447 0.262864 -0.154846 -0.301644 -0.376083 0.242948 -0.0710314 -0.104414 0.0251069 -0.286233 0.318673 0.158794 0.29742 0.339908
252 0.0736032 -0.0471371 -0.14626 0.0870759 0.180262 -0.47065 0.0298558 0.286427 0.416339 0.153554 -0.505314 0.292874 -0.246773 0.123568 0.324732 -0.341002 -0.396757 -0.346978 0.0354815 0.0896586 -0.00949743 0.444313 -0.0581942 -0.210112 -0.149557 0.230939 0.283816 -0.152487 -0.070386 0.0834286 0.176257 0.0384368 -0.0479055 -0.0593291 0.374122 -0.588119 0.0234542 -0.132499 -0.429375 0.386939 0.0343332 0.36936 -0.275656 0.167731 -0.24343 0.232447 -0.0426362 0.0462218 0.0660674 -0.275947 0.124228 -0.183318 0.169 0.010321 0.264096 0.28026 0.108369 -0.101159 0.489505 0.329092 -0.513772 -0.0991146 -0.128356 0.0507981 0.289967 0.30439 -0.0625841 -0.416854 -0.0549758 -0.21193 0.0287292 -0.163925 -0.258543 0.0968331 0.332046 -0.0901455 0.141444 0.410062 0.222969 -0.259891 -0.440092 -0.418354 -0.142725 0.0882824 -0.0887858 0.0316555 -0.563309 -0.182452 0.0797146 -0.0410396 0.394021 0.389233 0.124179 0.402371 -0.247764 -0.150073 -0.0676754 0.0314168 -0.120871 -0.485224 0.103771 0.275484 -0.121134 -0.597963 0.49628 -0.0932375 -0.164859 -0.280629 -0.268258 0.365492 -0.198638 -0.730087 0.0863973 0.0968761 0.271096 0.43132 -0.155714 -0.428444 -0.410908 0.35315 -0.0386092 -0.111316 0.112298 -0.307355 0.378103 0.283585 0.265101 0.361907
283 0.0443582 -0.165778 0.309133 0.0611817 0.0325955 -0.218044 0.222351 0.346291 0.201002 0.297776 -0.15659 0.316742 0.0385704 0.0668393 0.0639608 -0.0709493 -0.223464 -0.207393 -0.107682 -0.169846 -0.115615 -0.00502895 -0.0766417 -0.246366 0.138482 0.0639417 0.0410535 -0.135611 0.179816 -0.215111 0.163116 -0.0430167 -0.0933199 -0.0931072 0.344442 -0.263326 -0.0350869 -0.169108 -0.259123 0.598442 -0.178204 0.247415 -0.146284 0.270179 0.050038 0.28928 -0.126896 -0.00517804 -0.0641749 0.12343 0.17181 0.0466259 -0.250229 0.225052 0.0684261 -0.00249403 0.103391 -0.104243 0.0464772 -0.19928 -0.237221 0.135252 -0.0434179 0.362931 0.295745 0.433925 -0.0694726 -0.391229 -0.000316011 0.0449034 -0.165931 -0.112087 -0.049766 0.0716955 -0.059738 -0.258793 0.0607676 0.299826 0.0236106 -0.0828221 -0.389247 -0.0523667 0.304541 0.20851 -0.0499825 -0.126659 -0.141105 -0.192331 -0.0164621 0.289383 0.340002 0.218785 -0.0824801 -0.0611736 -0.166628 -0.228267 0.0295401 -0.192677 -0.0538945 -0.151807 0.127608 0.110089 -0.0789636 -0.239173 0.133003 0.209383 -0.133225 0.279826 -0.164136 -0.160475 -0.125982 -0.498294 -0.27137 -0.104718 0.0683645 -0.0149223 0.0675408 -0.27661 -0.331834 0.365523 0.0481777 0.0621994 0.12946 -0.0141382 0.299495 0.137198 -0.140292 0.165551
284 0.0879242 -0.201968 0.311037 0.0710976 0.0161342 -0.173073 0.196324 0.330521 0.157483 0.292794 -0.148793 0.3697 0.140556 0.0137256 0.0761995 -0.1526 -0.195573 -0.191374 -0.143304 -0.17993 -0.174516 -0.0246021 -0.103827 -0.274845 0.0183635 0.0781258 -0.0207589 -0.142565 0.221812 -0.212987 0.158754 -0.0166489 0.00743065 -0.116741 0.236168 -0.33821 -0.0319858 -0.241226 -0.292639 0.564675 -0.195862 0.275841 -0.0607378 0.268533 0.0144665 0.33597 -0.106065 0.00378635 -0.0430911 0.112688 0.181894 0.0520781 -0.272393 0.182873 0.144163 -0.0553531 0.113207 -0.0979069 0.0563972 -0.178852 -0.204383 0.145377 -0.0409746 0.407105 0.241957 0.537457 -0.0582822 -0.39213 0.024507 0.0331587 -0.213523 -0.163286 -0.0651767 0.0718122 -0.0019196 -0.25755 -0.0173265 0.271513 -0.00425936 -0.0911316 -0.404528 -0.0561474 0.248761 0.199775 -0.0228459 -0.0526391 -0.208057 -0.191923 -0.0152203 0.285174 0.36525 0.209102 -0.0369214 -0.0972612 -0.191424 -0.205705 -0.0342037 -0.202025 0.00347114 -0.206541 0.134494 0.104981 -0.0654051 -0.22957 0.125111 0.244988 -0.108768 0.268527 -0.138885 -0.0978747 -0.0577516 -0.48533 -0.243118 -0.118877 0.130826 0.0677874 0.0390898 -0.284267 -0.315597 0.336551 0.00991222 0.0915623 0.151831 -0.0403109 0.283682 0.0951263 -0.164077 0.208346
282 0.0102338 -0.13618 0.376388 0.0530108 0.0566675 -0.256025 0.260606 0.387546 0.258275 0.336356 -0.202707 0.345693 -0.0158052 0.101777 0.0269582 -0.0378327 -0.256191 -0.240516 -0.0995987 -0.193034 -0.0864797 0.00986279 -0.0806322 -0.275867 0.255647 0.0631625 0.103171 -0.133343 0.153607 -0.279947 0.193104 -0.0811722 -0.179037 -0.107379 0.432835 -0.245999 -0.0505861 -0.149162 -0.257178 0.689611 -0.204414 0.270197 -0.192912 0.30499 0.0792746 0.284973 -0.128845 0.008295 -0.0957097 0.145281 0.174826 0.0332999 -0.290774 0.278359 0.0337917 0.0501681 0.130343 -0.140481 0.0329755 -0.27063 -0.223332 0.106306 -0.0350576 0.385387 0.357196 0.415284 -0.0601577 -0.416556 -0.00308809 0.0578985 -0.151225 -0.110273 -0.0459714 0.0686534 -0.105523 -0.30484 0.0985059 0.337294 0.0573752 -0.0703103 -0.412386 -0.0231248 0.393555 0.285878 -0.0679111 -0.162697 -0.122728 -0.20899 -0.0419798 0.325451 0.357265 0.248678 -0.140356 -0.0691482 -0.142369 -0.235404 0.0594301 -0.212177 -0.125852 -0.120479 0.157707 0.106824 -0.107649 -0.227998 0.113889 0.208983 -0.145161 0.347421 -0.195712 -0.226165 -0.192762 -0.545637 -0.31113 -0.122854 0.0341844 -0.083661 0.0928606 -0.302131 -0.364303 0.43138 0.0873684 0.0679097 0.111973 0.0116762 0.323324 0.190131 -0.170275 0.1663
281 -0.0414833 -0.108027 0.442895 0.0629419 0.0690389 -0.321307 0.334398 0.450366 0.33618 0.386096 -0.244191 0.369745 -0.0916532 0.166116 0.0198392 0.0244679 -0.335348 -0.292685 -0.0812029 -0.218664 -0.0533145 0.04739 -0.0663998 -0.323347 0.415981 0.0727025 0.187775 -0.144743 0.154903 -0.352219 0.239535 -0.126716 -0.294539 -0.107324 0.606505 -0.238683 -0.0634728 -0.0961009 -0.261814 0.824995 -0.241809 0.303333 -0.273609 0.387101 0.134252 0.297772 -0.170802 0.00365413 -0.150702 0.180415 0.185645 0.0271664 -0.324488 0.360739 -0.0292933 0.108073 0.159193 -0.177903 0.0229853 -0.350577 -0.273163 0.097759 -0.0582757 0.420689 0.458533 0.399451 -0.0681088 -0.489004 -0.0414207 0.0884098 -0.122301 -0.0896492 -0.0474808 0.0904576 -0.20244 -0.377533 0.168765 0.414654 0.102703 -0.0629035 -0.477657 0.000700193 0.501134 0.366036 -0.103648 -0.228292 -0.0892738 -0.237949 -0.0607083 0.392083 0.38888 0.310392 -0.210061 -0.0430505 -0.14093 -0.285843 0.112513 -0.24098 -0.209099 -0.109334 0.197973 0.150687 -0.155528 -0.26229 0.126569 0.215672 -0.197855 0.419114 -0.235767 -0.320155 -0.25647 -0.626477 -0.398326 -0.116735 -0.028623 -0.179081 0.144 -0.353848 -0.441342 0.545509 0.138493 0.0557915 0.141427 0.0366651 0.389643 0.248073 -0.178934 0.17014
280 -0.0738813 -0.0604776 0.430925 0.0406097 0.0771909 -0.28667 0.309865 0.40932 0.321527 0.353766 -0.238876 0.343219 -0.102781 0.173338 -0.025997 0.0206278 -0.306451 -0.287502 -0.0695581 -0.216691 -0.0235579 0.0397321 -0.0682368 -0.313061 0.426698 0.0559978 0.201471 -0.123726 0.120061 -0.367407 0.22475 -0.141243 -0.315404 -0.104823 0.566546 -0.182265 -0.0570969 -0.0902348 -0.226398 0.778861 -0.239864 0.278373 -0.256331 0.358787 0.120682 0.261533 -0.149139 0.0259111 -0.16824 0.166537 0.15371 0.0195072 -0.351828 0.346848 -0.0377635 0.133465 0.15506 -0.186087 0.0196817 -0.360781 -0.204124 0.0728787 -0.0449597 0.390859 0.431666 0.344491 -0.0318576 -0.426952 -0.0257944 0.066539 -0.102471 -0.0645577 -0.0429106 0.0608556 -0.213125 -0.357339 0.14805 0.383941 0.0868184 -0.0444654 -0.447473 0.0387195 0.497711 0.374067 -0.0764591 -0.211535 -0.0511583 -0.225157 -0.0700458 0.365219 0.343397 0.281675 -0.221027 -0.0605648 -0.103135 -0.240005 0.127173 -0.237362 -0.215806 -0.0741648 0.187862 0.116907 -0.155117 -0.208755 0.0839311 0.201744 -0.182554 0.421344 -0.220746 -0.320994 -0.276596 -0.581073 -0.369576 -0.13487 -0.0275175 -0.201196 0.146121 -0.314665 -0.415486 0.517904 0.131663 0.0524153 0.0937036 0.0609848 0.324812 0.236052 -0.180704 0.143767
279 -0.0815452 -0.0771077 0.460746 0.0537547 0.0819283 -0.315746 0.342008 0.449496 0.341596 0.375824 -0.258834 0.363274 -0.114815 0.181974 -0.0313533 0.0219473 -0.326947 -0.303802 -0.0704468 -0.233754 -0.026543 0.0455079 -0.0688127 -0.328954 0.449277 0.0580632 0.216284 -0.127261 0.118099 -0.384001 0.239313 -0.153814 -0.345341 -0.0983943 0.610862 -0.201762 -0.0639668 -0.0939656 -0.23711 0.830015 -0.255055 0.304567 -0.279427 0.38634 0.130772 0.285652 -0.15721 0.0185484 -0.178736 0.179279 0.170696 0.0185314 -0.3798 0.367031 -0.0324672 0.146997 0.165344 -0.194699 0.0152569 -0.380613 -0.235321 0.0915325 -0.0401882 0.428397 0.474998 0.372006 -0.0422951 -0.467644 -0.0195514 0.0625937 -0.121603 -0.0656411 -0.0445769 0.0656289 -0.22385 -0.380598 0.167466 0.41133 0.0950417 -0.0596765 -0.490031 0.0298042 0.537555 0.401133 -0.0859469 -0.227718 -0.0524835 -0.239405 -0.0733739 0.396976 0.3872 0.300298 -0.238936 -0.0616669 -0.112473 -0.274415 0.141256 -0.258908 -0.226363 -0.0779729 0.188286 0.120401 -0.148978 -0.233442 0.0917827 0.210546 -0.194691 0.444896 -0.237341 -0.344266 -0.299062 -0.635892 -0.410286 -0.146946 -0.0240279 -0.216143 0.142552 -0.338558 -0.454102 0.563256 0.139654 0.047687 0.0993555 0.0678375 0.352888 0.254511 -0.187842 0.149847
82 0.13513 -0.418966 0.344573 0.0740657 -0.0819977 -0.459128 0.258758 0.614352 0.168708 0.306896 -0.0391574 0.296453 0.0121135 0.0115394 0.294908 -0.340011 -0.180656 -0.155087 -0.308336 0.167738 -0.142087 -0.102803 -0.320755 -0.581674 -0.0976161 -0.145807 -0.280869 -0.163358 0.414839 -0.200745 0.117777 -0.0522246 0.042831 -0.197498 -0.104164 -0.327576 -0.307516 -0.0403842 -0.325014 0.499648 0.137877 -0.159198 -0.304374 0.0518907 0.186958 0.12527 -0.0691252 0.132906 0.0822123 0.251758 0.204848 0.13308 0.0760544 0.359069 -0.288943 -0.188045 -0.0517827 0.0247448 0.276087 0.190924 -0.508422 0.238937 -0.174357 0.128381 0.206052 0.320464 0.116478 0.015642 -0.0392009 0.156076 -0.0990402 -0.0869614 -0.165931 0.16479 -0.0683392 -0.301528 -0.120248 -0.178704 -0.0555378 0.00549035 -0.2437 -0.00885501 0.133209 -0.148711 -0.236709 -0.479166 0.0875739 0.0367067 0.141446 0.414143 0.355596 0.157455 -0.0511371 0.199691 -0.0949701 -0.143026 -0.09809 -0.161987 -0.101188 -0.278915 0.219581 0.292642 -0.0495503 -0.665748 0.243537 -0.11837 -0.280112 0.243615 -0.0782451 -0.0756158 -0.104292 -0.456299 -0.20107 -0.101586 -0.215881 -0.121207 -0.00958494 -0.00548449 -0.428544 -0.200117 0.389767 0.145719 0.0500589 -0.355307 0.230228 0.150447 0.199562 0.0204401
83 0.171444 -0.4783 0.395197 0.100909 -0.0995849 -0.51468 0.314196 0.716253 0.199352 0.344342 -0.044795 0.338168 0.0223617 0.00757803 0.365732 -0.390452 -0.199216 -0.161705 -0.353785 0.199234 -0.185446 -0.133684 -0.375914 -0.664776 -0.13349 -0.167651 -0.323181 -0.171683 0.454432 -0.210464 0.124749 -0.0540206 0.0364188 -0.227669 -0.125447 -0.364734 -0.355269 -0.0455073 -0.361776 0.543762 0.163898 -0.194685 -0.340434 0.0670887 0.22529 0.171079 -0.0764224 0.163549 0.093226 0.286092 0.254715 0.153334 0.0982036 0.418341 -0.31315 -0.206195 -0.0435982 0.00291606 0.308618 0.238387 -0.607935 0.286347 -0.190692 0.135911 0.243142 0.391632 0.117151 0.031508 -0.0365543 0.158413 -0.11653 -0.100097 -0.196431 0.176171 -0.0596416 -0.332298 -0.124579 -0.194096 -0.0706439 0.00684071 -0.260126 -0.0210172 0.164346 -0.175763 -0.269535 -0.536621 0.0630716 0.0645024 0.14472 0.460625 0.385965 0.179444 -0.0491627 0.240484 -0.117788 -0.139557 -0.103055 -0.163259 -0.11266 -0.31282 0.252267 0.341923 -0.0572515 -0.739958 0.271789 -0.141596 -0.31758 0.249784 -0.0796202 -0.0742874 -0.102633 -0.506859 -0.228252 -0.132133 -0.198357 -0.129032 -0.00141462 0.0221302 -0.462097 -0.223812 0.455563 0.157029 0.0546206 -0.394118 0.251809 0.161245 0.239403 0.0345661
81 0.144336 -0.424317 0.386874 0.0965589 -0.0815074 -0.45203 0.208965 0.576495 0.12209 0.326281 -0.000893039 0.304875 0.0244839 -0.00969278 0.264201 -0.342428 -0.206932 -0.169687 -0.314731 0.15862 -0.0944271 -0.10457 -0.325127 -0.574959 -0.114111 -0.147233 -0.276259 -0.195567 0.455084 -0.17393 0.110747 -0.0794227 0.111641 -0.213897 -0.0803373 -0.354429 -0.279332 -0.0674569 -0.352852 0.545795 0.123149 -0.140096 -0.338366 0.055094 0.187843 0.0974761 -0.058377 0.0781514 0.0795451 0.245977 0.204969 0.142415 0.0833588 0.378226 -0.307547 -0.204473 -0.0596095 0.0695945 0.319358 0.169605 -0.536092 0.218929 -0.183794 0.142031 0.154728 0.289395 0.112874 -0.0474696 -0.050615 0.202873 -0.137264 -0.126632 -0.158015 0.203907 -0.0896112 -0.291639 -0.141196 -0.204818 -0.0474292 -0.00264645 -0.241899 -0.00101969 0.106134 -0.14942 -0.240952 -0.474626 0.128339 0.00465112 0.191617 0.371561 0.416292 0.153068 -0.0247482 0.198109 -0.104136 -0.204658 -0.123127 -0.19573 -0.108014 -0.28748 0.205819 0.29709 -0.0383713 -0.734949 0.286848 -0.13921 -0.244073 0.274346 -0.107253 -0.0751432 -0.134434 -0.428961 -0.186318 -0.0714633 -0.266777 -0.119068 -0.0402305 -0.0430096 -0.428841 -0.170872 0.357451 0.167322 0.0851158 -0.355367 0.260112 0.161856 0.19137 -0.021435
80 0.13228 -0.423463 0.435882 0.12461 -0.0515877 -0.420961 0.109547 0.431295 0.00913534 0.333204 0.0901001 0.272932 0.0387587 -0.0664394 0.214714 -0.33191 -0.262209 -0.171234 -0.290449 0.122892 0.00316485 -0.0953592 -0.315092 -0.535225 -0.137554 -0.125349 -0.234576 -0.246319 0.502239 -0.158268 0.100792 -0.121569 0.243554 -0.224948 -0.0477016 -0.395628 -0.22117 -0.0989881 -0.367559 0.589005 0.0757915 -0.0891438 -0.392708 0.0739881 0.200887 0.00593926 -0.058375 -0.0382334 0.0616937 0.234737 0.145254 0.123419 0.0956481 0.392672 -0.362524 -0.185081 -0.0834826 0.184947 0.35316 0.0782173 -0.519245 0.0984171 -0.220543 0.167839 0.0564888 0.215175 0.0980467 -0.193436 -0.0815769 0.292569 -0.175816 -0.216702 -0.144571 0.275067 -0.181578 -0.251835 -0.130825 -0.251876 -0.0288237 -0.00392555 -0.229612 0.0475796 0.0669613 -0.116222 -0.260183 -0.42963 0.246858 -0.081467 0.263111 0.25884 0.506952 0.148158 -0.0102941 0.175732 -0.0642584 -0.366882 -0.173216 -0.274777 -0.0928524 -0.270001 0.156364 0.319088 -0.0154585 -0.828757 0.35838 -0.216447 -0.158474 0.339013 -0.110808 -0.119525 -0.19514 -0.374551 -0.148958 0.00119548 -0.39653 -0.111224 -0.0920469 -0.11737 -0.438068 -0.0868876 0.288651 0.226326 0.176265 -0.338593 0.313206 0.214275 0.143517 -0.114498
78 0.132189 -0.398754 0.473408 0.143305 -0.066443 -0.409936 0.0881839 0.372276 -0.0147627 0.36497 0.126121 0.260973 0.0433968 -0.0647181 0.188111 -0.3277 -0.268811 -0.171996 -0.263233 0.0716289 0.0366699 -0.102946 -0.286973 -0.547686 -0.141919 -0.1348 -0.181797 -0.250358 0.491019 -0.161504 0.08831 -0.180802 0.237889 -0.21561 -0.0364977 -0.394279 -0.19449 -0.107244 -0.360783 0.606141 0.0663829 -0.046549 -0.408738 0.0853724 0.23838 -0.0356707 -0.040748 -0.0715571 0.0574903 0.257189 0.141386 0.108825 0.0906687 0.361632 -0.365117 -0.147036 -0.0791796 0.22442 0.362964 0.0305318 -0.5395 0.0730375 -0.212294 0.171756 0.0469266 0.208787 0.0829673 -0.223335 -0.0608069 0.314598 -0.217613 -0.256898 -0.13867 0.290842 -0.187004 -0.220609 -0.139218 -0.259819 -0.0508213 0.00876874 -0.206153 0.0914686 0.0640011 -0.0928664 -0.277288 -0.425266 0.305094 -0.0762746 0.284037 0.210645 0.538453 0.161841 -0.0153409 0.182654 -0.0297199 -0.416645 -0.195263 -0.306714 -0.0766436 -0.273362 0.171188 0.325156 0.0022326 -0.847297 0.365677 -0.239195 -0.114433 0.373356 -0.0956497 -0.154947 -0.237698 -0.346071 -0.14055 0.00427368 -0.434332 -0.105339 -0.104303 -0.109458 -0.414658 -0.0461008 0.26334 0.240592 0.205832 -0.30601 0.308444 0.203228 0.147748 -0.189479
77 0.187005 -0.321935 0.512359 0.145417 -0.121824 -0.347338 0.0871321 0.281651 -0.0638928 0.392838 0.208366 0.193972 0.0862947 -0.0520008 0.228326 -0.267907 -0.298343 -0.144016 -0.209667 -0.048232 0.0458269 -0.159404 -0.172328 -0.539847 -0.162014 -0.0921256 -0.053148 -0.232046 0.415303 -0.142834 0.0840957 -0.244566 0.188625 -0.205485 0.0434369 -0.461673 -0.0950715 -0.128587 -0.383452 0.599512 0.0653225 0.100092 -0.383681 0.117181 0.307498 -0.061285 -0.0378769 -0.0892 0.0887904 0.339633 0.191992 0.0895909 0.0993583 0.274198 -0.293352 -0.0496168 -0.0892499 0.30113 0.380855 -0.0185644 -0.586806 0.014127 -0.201884 0.139682 0.0581959 0.284872 -0.00509324 -0.327604 0.0129295 0.305308 -0.252782 -0.318121 -0.104667 0.279575 -0.132444 -0.169521 -0.130103 -0.186702 -0.0917524 0.0397237 -0.0939397 0.150081 0.0867906 -0.0622978 -0.280784 -0.432041 0.30371 -0.000827929 0.289017 0.0570842 0.570437 0.196307 -0.0286593 0.201228 -0.000870508 -0.449826 -0.21543 -0.294088 0.000405363 -0.316441 0.224175 0.311069 0.0718617 -0.871241 0.326617 -0.221663 -0.0358575 0.367069 -0.0874903 -0.216361 -0.201536 -0.290604 -0.116419 -0.0277918 -0.390464 -0.0598122 -0.0675553 -0.0488056 -0.313633 0.0464839 0.213317 0.245798 0.325038 -0.175335 0.319259 0.106913 0.141812 -0.311707
75 0.233859 -0.249959 0.531771 0.154049 -0.177411 -0.310013 0.118814 0.244193 -0.0790255 0.438229 0.241277 0.129474 0.083509 -0.0348195 0.284926 -0.170391 -0.327509 -0.101092 -0.144064 -0.17085 0.0500378 -0.191252 -0.0291621 -0.550102 -0.170442 -0.04454 0.076129 -0.192147 0.308482 -0.0961386 0.0817291 -0.29491 0.10273 -0.190508 0.149094 -0.493321 0.00141297 -0.131143 -0.39181 0.566222 0.0781592 0.225614 -0.355355 0.161492 0.357463 -0.0426534 -0.0584574 -0.112239 0.117165 0.405677 0.248104 0.0557814 0.109504 0.184884 -0.196288 0.0620002 -0.0803506 0.358711 0.354584 -0.070756 -0.640084 0.00331304 -0.1918 0.127796 0.124851 0.377309 -0.108037 -0.415804 0.0903457 0.29077 -0.291727 -0.379231 -0.0790178 0.277441 -0.050941 -0.115639 -0.101553 -0.0654967 -0.107545 0.0990591 -0.0242805 0.181538 0.124041 -0.00814832 -0.304872 -0.413712 0.260334 0.0541753 0.264794 -0.0729956 0.606537 0.230406 -0.0620506 0.249366 0.00326111 -0.482534 -0.213006 -0.268083 0.0831487 -0.354478 0.258874 0.286596 0.12601 -0.864046 0.291269 -0.194653 0.0235807 0.365464 -0.0682173 -0.231241 -0.180787 -0.277096 -0.0948083 -0.0784461 -0.296518 0.00713975 -0.0198039 0.00642486 -0.222553 0.143579 0.163045 0.203141 0.430687 -0.0481042 0.326629 0.023566 0.134254 -0.387458
265 0.119651 -0.151368 0.205824 -0.0600107 0.256802 -0.254529 0.138433 0.306085 0.0566267 -0.103261 -0.365624 -0.00279176 -0.113045 0.00993899 0.330114 -0.0771854 -0.199649 -0.0617396 -0.0456911 -0.365621 0.127945 -0.0635271 0.164249 -0.0999252 -0.072218 -0.225392 0.160043 0.0595622 0.124618 0.337127 -0.0318778 0.15518 -0.0937518 0.269463 0.17159 -0.271791 0.0978217 -0.112075 -0.178614 0.440825 -0.036642 0.234999 -0.0950637 0.15726 -0.0100218 0.346514 -0.0935523 0.0498756 9.99495e-05 0.0422945 -0.0936775 0.185127 -0.187011 -0.037392 0.0296668 -0.0233461 0.00662052 0.0860973 0.10195 0.00599943 -0.570215 0.477148 -0.0938343 0.357693 0.527862 0.124104 -0.183766 -0.337104 0.416838 -0.149896 -0.180779 -0.205308 -0.0998102 0.0624511 0.210511 -0.0723096 0.0795764 0.157814 -0.0341322 -0.231855 -0.416179 -0.18987 0.138713 -0.146442 0.175176 -0.170909 0.0562917 -0.289338 -0.0472606 0.142699 0.210761 0.211472 -0.110614 -0.0496024 -0.245852 -0.53083 0.217427 -0.215144 0.169023 -0.115343 -0.0511351 0.270675 0.29656 -0.507281 0.304759 0.147312 -0.0934221 0.205975 -0.0496961 0.0427938 -0.328338 -0.706443 -0.378351 -0.130559 -0.00636901 0.017781 -0.246054 -0.10439 -0.322391 -0.0885886 -0.0844391 -0.178599 0.214191 -0.138605 0.237226 -0.0659858 -0.100572 0.00705005
266 0.112978 -0.195419 0.215875 -0.0879314 0.307593 -0.259834 0.138922 0.371403 0.0222205 -0.103579 -0.452146 -0.0371359 -0.11462 0.0222185 0.380303 -0.0737471 -0.221459 -0.0488653 -0.0593949 -0.467254 0.126523 -0.103099 0.186165 -0.1224 -0.120052 -0.276616 0.181905 0.0242885 0.175468 0.395086 -0.0557199 0.199696 -0.112812 0.308468 0.180819 -0.293236 0.137823 -0.132911 -0.2303 0.51506 -0.0410532 0.278665 -0.0879577 0.179255 -0.0347095 0.422778 -0.1101 0.0379084 -0.014422 0.0452808 -0.130725 0.244028 -0.256784 -0.0189332 0.0139984 -0.0265224 -0.0259262 0.0967475 0.14205 0.0239633 -0.678972 0.596244 -0.124425 0.466172 0.63139 0.182248 -0.239351 -0.404921 0.478549 -0.169473 -0.265109 -0.224559 -0.125677 0.0737938 0.254145 -0.098194 0.0903387 0.188831 -0.0940238 -0.275123 -0.506524 -0.210242 0.189286 -0.177187 0.20954 -0.2272 0.107384 -0.354647 -0.0558003 0.171974 0.293993 0.245939 -0.135675 -0.0700393 -0.2926 -0.636704 0.280044 -0.26891 0.233488 -0.121535 -0.0801281 0.308407 0.343686 -0.614904 0.373343 0.177992 -0.109122 0.277718 -0.033893 0.0406429 -0.398955 -0.851801 -0.444464 -0.194113 -0.00496772 0.00736211 -0.291504 -0.0772968 -0.387241 -0.11213 -0.0966505 -0.246823 0.225188 -0.128009 0.252319 -0.0808218 -0.106014 -0.024853
267 0.0209045 -0.19354 0.188844 -0.116883 0.325971 -0.16813 0.0987146 0.392262 -0.0617326 -0.0695122 -0.472667 -0.137781 -0.129506 0.0317157 0.342527 -0.101463 -0.172254 -0.0128583 -0.0399286 -0.501922 0.0585818 -0.186283 0.21227 -0.0958188 -0.172971 -0.293597 0.156149 -0.0411795 0.217508 0.381803 -0.0928384 0.16509 -0.171092 0.341308 0.157997 -0.236272 0.167371 -0.086802 -0.259432 0.501577 0.0296785 0.235506 -0.0172787 0.17172 -0.0160375 0.460484 -0.0553252 -0.0282706 -0.0155857 -0.0242164 -0.171349 0.293831 -0.335477 0.0159365 -0.0333729 -0.00910268 -0.118481 0.0941379 0.168924 0.0722177 -0.62263 0.62616 -0.114053 0.520513 0.66746 0.248966 -0.267727 -0.400542 0.462992 -0.198958 -0.368834 -0.182805 -0.162004 0.0335388 0.28249 -0.130674 0.0907397 0.195269 -0.21692 -0.264704 -0.511984 -0.146547 0.24213 -0.148445 0.2192 -0.361116 0.18259 -0.342998 -0.0738289 0.194842 0.398927 0.236149 -0.142266 -0.048557 -0.296652 -0.617886 0.341737 -0.289885 0.275901 -0.0559196 -0.191701 0.226075 0.3417 -0.61532 0.335206 0.237906 -0.0907453 0.306791 0.0145278 0.0131591 -0.38449 -0.907986 -0.432076 -0.307119 -0.00572479 -0.0550545 -0.328087 -0.00721859 -0.403575 -0.0885116 -0.0424123 -0.255275 0.150523 -0.0471077 0.152699 -0.0679081 -0.0306126 -0.138363
264 0.118371 -0.165249 0.246944 -0.0824972 0.281653 -0.277223 0.145346 0.339862 0.0420379 -0.117593 -0.413271 0.00223289 -0.118582 -0.00497664 0.37211 -0.0812958 -0.230873 -0.0775143 -0.0544435 -0.403231 0.165901 -0.0361313 0.180738 -0.0988577 -0.0838023 -0.253647 0.173036 0.0580507 0.112511 0.382496 -0.0469876 0.190388 -0.0978115 0.295965 0.19568 -0.329247 0.0912653 -0.129519 -0.195896 0.470091 -0.0484368 0.281472 -0.0994017 0.156014 -0.0301889 0.36586 -0.105026 0.0537963 -0.00874528 0.0719277 -0.10913 0.216802 -0.204172 -0.0489779 0.0329378 -0.0126634 -0.021534 0.0655074 0.125561 -0.00736002 -0.650383 0.508858 -0.080424 0.399241 0.584101 0.115026 -0.170172 -0.384033 0.487333 -0.160378 -0.168674 -0.212157 -0.117359 0.0775093 0.241665 -0.0526954 0.057833 0.158115 -0.0494474 -0.27401 -0.481153 -0.224561 0.136304 -0.180557 0.199353 -0.143243 0.063804 -0.319174 -0.050693 0.138007 0.203027 0.243705 -0.126952 -0.0425283 -0.245806 -0.583654 0.213693 -0.226502 0.199883 -0.121168 -0.0228321 0.298467 0.311455 -0.57254 0.338415 0.133941 -0.095084 0.226281 -0.06659 0.0646615 -0.374289 -0.766639 -0.427573 -0.13206 -0.0147093 0.0388501 -0.274107 -0.11442 -0.346191 -0.100861 -0.0997458 -0.220902 0.245702 -0.143649 0.275895 -0.0572513 -0.139531 0.00863119
263 0.158566 -0.132398 0.334774 -0.066816 0.186708 -0.326981 0.224709 0.320823 0.106045 -0.089331 -0.350102 0.14791 -0.121737 -0.0546209 0.35252 -0.0971022 -0.327579 -0.193833 -0.0621347 -0.253205 0.213493 0.123769 0.137071 -0.103258 -0.0456097 -0.190757 0.101991 0.10719 0.00539723 0.40466 -0.0423646 0.14967 -0.0824878 0.210967 0.271447 -0.426703 -0.040568 -0.167706 -0.206996 0.347922 -0.106141 0.334022 -0.112778 0.16068 -0.0336993 0.233906 -0.134679 0.0818349 -0.0171376 0.147213 -0.0153375 0.132266 -0.0539781 -0.0367698 0.0821846 -0.0128755 -0.00197355 0.0321108 0.150612 -0.0626412 -0.663424 0.327375 0.025016 0.270343 0.447558 0.0160988 -0.0670225 -0.367577 0.450043 -0.129268 0.0514224 -0.242054 -0.125632 0.124331 0.200828 -0.025109 -0.0499757 0.151725 0.0390856 -0.264755 -0.48344 -0.277969 0.0462637 -0.18824 0.152 0.0577906 -0.0647877 -0.246658 -0.0495661 0.082325 0.0849485 0.252558 -0.100697 0.0285031 -0.165328 -0.47689 0.0579173 -0.119462 0.132733 -0.18764 0.141623 0.34414 0.230368 -0.540444 0.312671 0.0444905 -0.0913848 0.122396 -0.143155 0.158436 -0.344111 -0.5815 -0.42618 0.00816428 -0.0161012 0.0889138 -0.195989 -0.236808 -0.309266 -0.0593822 -0.115204 -0.205737 0.32609 -0.201745 0.377583 -0.00907666 -0.157755 0.130392
187 0.107512 -0.216794 0.164017 0.0495583 -0.13891 -0.176366 0.22595 0.26981 -0.0712203 0.168788 -0.115235 -0.104962 -0.00790774 0.0171462 0.516234 0.234923 -0.334428 -0.200188 -0.0479168 0.187476 -0.214626 0.146964 0.190262 -0.151699 -0.00380616 0.205909 -0.113905 -0.191098 0.454322 0.0097407 0.139893 0.161175 0.254075 0.241009 0.0507951 -0.330205 -0.131229 0.169671 -0.0470536 0.441988 -0.0655395 -0.219038 0.219552 0.319888 -0.0241044 0.146096 -0.204644 -0.0874634 0.0980239 0.100082 0.117287 0.341877 0.00618006 0.458568 -0.0454093 0.0044267 0.143237 0.109622 0.173939 0.161707 -0.359834 -0.036348 -0.190016 0.192208 0.340085 0.661847 -0.0354542 -0.118667 -0.168366 0.168224 0.126244 -0.0633352 0.172373 0.160496 -0.0421404 -0.0549086 0.21178 0.173339 -0.296452 -0.0697302 -0.322784 0.0150824 -0.200586 -0.0255717 -0.126281 -0.34281 -0.362348 -0.435007 -0.00945895 0.0911756 0.0596182 0.157329 0.121683 0.0717105 -0.148975 -0.377424 0.0341518 -0.258075 0.230875 -0.320109 -0.188648 0.206448 -0.257877 -0.420749 0.170308 0.394548 -0.291039 0.088499 -0.224974 0.0295174 0.345999 -0.132773 0.0700687 -0.121109 -0.0626041 0.199564 0.0707703 -0.0765586 -0.251586 0.0135272 0.0383739 -0.25297 0.328901 -0.0498962 0.630683 0.147759 -0.238275 0.226402
186 0.139502 -0.261434 0.160855 -0.0348519 -0.158055 -0.215918 0.289616 0.253542 -0.0830675 0.205108 -0.224316 -0.10054 0.0413136 0.0158339 0.610376 0.291327 -0.384068 -0.268018 -0.00341756 0.183409 -0.243034 0.186206 0.189038 -0.159498 -0.0025658 0.219385 -0.0546573 -0.252743 0.52635 -0.0287172 0.171102 0.181064 0.273822 0.252467 0.0701283 -0.442943 -0.119626 0.18999 -0.099424 0.497198 -0.115157 -0.232655 0.242211 0.367124 -0.0892571 0.187726 -0.238024 -0.058737 0.0667589 0.161521 0.115959 0.357403 -0.0575222 0.46776 -0.0547012 -0.0215587 0.207104 0.10539 0.210317 0.159869 -0.418388 -0.0358964 -0.224279 0.26225 0.374937 0.776842 0.00830682 -0.140912 -0.201503 0.233497 0.149653 -0.0631383 0.157473 0.216238 -0.120511 -0.0723826 0.235346 0.161356 -0.311126 -0.129186 -0.379193 0.0195142 -0.208267 0.0213394 -0.0755148 -0.346069 -0.402355 -0.525591 -0.0186381 0.0727259 0.0718059 0.170154 0.127527 0.115384 -0.151244 -0.401234 0.0304691 -0.259932 0.250028 -0.32947 -0.167835 0.213264 -0.270797 -0.453232 0.177784 0.396633 -0.32611 0.0965445 -0.238793 -0.0141389 0.39482 -0.125274 0.0541871 -0.119334 -0.012732 0.23552 0.172038 -0.0836352 -0.259981 0.00992446 0.0392308 -0.294025 0.380681 -0.0754077 0.720727 0.1508 -0.309106 0.259694
188 0.0910976 -0.233006 0.183045 0.0456908 -0.1848 -0.173563 0.240869 0.307935 -0.0790938 0.187738 -0.155567 -0.122676 -0.0392391 0.0260013 0.576813 0.250392 -0.384867 -0.19132 -0.0549089 0.190786 -0.232317 0.162283 0.203347 -0.181972 -0.0343535 0.227611 -0.135487 -0.229376 0.491343 0.0267019 0.185905 0.189856 0.303798 0.277567 0.0478266 -0.351238 -0.138528 0.227847 -0.0255889 0.481104 -0.057265 -0.252282 0.25591 0.340994 -0.00685211 0.156068 -0.204708 -0.0925378 0.138779 0.103809 0.125863 0.386119 0.0180178 0.479011 -0.0356728 0.0352185 0.17096 0.0919856 0.201957 0.146353 -0.366806 -0.0409957 -0.190822 0.236035 0.399701 0.749963 -0.0335914 -0.14238 -0.199188 0.180168 0.13583 -0.0902477 0.183904 0.185028 -0.0409495 -0.0533094 0.210217 0.219284 -0.325762 -0.0638589 -0.351679 0.0299265 -0.239168 -0.0312828 -0.188119 -0.386952 -0.444022 -0.478076 -0.023828 0.0630943 0.0772745 0.178427 0.122795 0.0798475 -0.110646 -0.418118 0.032953 -0.308252 0.26264 -0.368675 -0.214522 0.228566 -0.301591 -0.451604 0.189546 0.401541 -0.339919 0.101578 -0.248845 0.0513053 0.379555 -0.142096 0.0934913 -0.135518 -0.0819214 0.226469 0.109993 -0.0541115 -0.284808 -0.0195935 0.0699449 -0.270851 0.350827 -0.0679615 0.685645 0.154958 -0.248253 0.278377
189 0.0418159 -0.189819 0.264316 0.22777 -0.18015 -0.0811425 0.13292 0.419646 -0.0227124 0.170944 -0.0352019 -0.145131 -0.198114 0.0674158 0.517189 0.186835 -0.361023 -0.0882555 -0.119502 0.201532 -0.253275 0.111976 0.216317 -0.228409 -0.0549074 0.211926 -0.265846 -0.177184 0.411418 0.133127 0.153047 0.172333 0.303691 0.292431 0.0602921 -0.172451 -0.209339 0.236932 0.105387 0.426534 0.000127341 -0.23868 0.249112 0.308978 0.177337 0.125411 -0.14462 -0.19248 0.226541 0.034303 0.189534 0.383688 0.112465 0.485456 0.0487072 0.0958376 0.14163 0.0748898 0.14107 0.0787621 -0.310601 -0.0365557 -0.143087 0.273689 0.461701 0.640551 -0.156554 -0.153933 -0.209347 0.0554596 0.0689169 -0.162176 0.204607 0.0860536 0.11321 -0.0161132 0.171875 0.379426 -0.337397 0.0558617 -0.367102 0.05357 -0.251689 -0.0987822 -0.378589 -0.421317 -0.482698 -0.435002 -0.0681516 0.0778207 0.111248 0.219583 0.0757325 0.0335851 -0.0664335 -0.480703 0.0334912 -0.387218 0.283124 -0.403724 -0.331496 0.25225 -0.306644 -0.414019 0.20535 0.397096 -0.356729 0.140089 -0.258288 0.125754 0.29624 -0.225773 0.116501 -0.194701 -0.192286 0.236988 0.00826363 -0.00155606 -0.316302 -0.00509688 0.130696 -0.234354 0.30109 -0.04682 0.626878 0.151177 -0.159874 0.368319
96 0.0844651 -0.272345 -0.076797 -0.0178344 0.00353769 -0.0696452 0.477236 0.0773926 0.279839 -0.0506463 0.0356942 -0.128265 0.122842 -0.0687304 -0.149318 -0.498848 -0.158988 0.192718 -0.0313302 -0.338912 -0.120659 -0.0377803 -0.0765775 -0.378689 -0.214558 0.0574303 -0.0543284 0.0655754 0.233292 0.362966 0.0183209 0.016504 0.132314 0.347115 0.456377 -0.200611 0.121708 0.221667 -0.556096 0.0624977 0.033783 0.208041 -0.250092 0.532368 0.0855295 0.33555 -0.273301 -0.146766 0.153557 -0.161069 0.159005 0.0436311 0.176213 -0.103574 0.146977 0.211663 0.304572 0.00198196 0.152148 0.0871547 -0.300547 0.270189 -0.205875 0.134076 0.237741 0.477812 0.0247975 -0.493171 -0.193487 -0.209987 0.0472874 -0.0997212 0.0779405 -0.112848 -0.033577 -0.382281 0.0888167 0.511716 -0.266869 -0.0229528 -0.637102 -0.0579025 0.152789 0.254769 -0.339646 -0.0843756 -0.193322 0.148463 -0.0509594 0.414131 0.281896 0.188793 0.0907528 0.174662 -0.151127 -0.604481 -0.0447277 -0.27306 0.0164944 -0.167979 0.15039 0.347553 0.127096 -0.298427 0.00103474 0.350536 -0.260019 -0.070081 0.191936 0.113154 0.0991394 -0.313469 -0.604035 0.144577 0.22623 0.258874 0.102706 0.0117133 -0.306749 0.16228 0.0265788 0.045271 0.372105 -0.300281 0.330362 -0.0778493 0.0667066 0.357736
