300 32
216 -0.538724 1.16558 -0.333918 0.150149 -0.681333 -0.155484 -0.473658 -0.332255 0.0546261 0.837999 -1.46805 0.059494 -0.677021 -1.27701 -0.638286 0.386358 -0.355442 0.290964 0.447907 -0.129632 0.367685 -0.196573 -0.0934989 -0.523549 -0.21891 -0.245104 -0.00620444 0.356331 0.9282 0.0502848 0.53611 -0.460226
217 -0.522465 1.12122 -0.279429 0.126705 -0.629246 -0.182795 -0.488099 -0.25467 0.073024 0.81882 -1.36119 0.0690735 -0.622651 -1.1155 -0.686715 0.393039 -0.320633 0.198492 0.38507 -0.136417 0.303871 -0.173084 -0.0967966 -0.48339 -0.203968 -0.197831 0.0329918 0.367346 0.860615 0.0431614 0.453372 -0.408206
215 -0.510206 1.10924 -0.351384 0.071786 -0.658055 0.0294523 -0.248349 -0.328778 -0.103361 0.62771 -1.29738 0.00628734 -0.527815 -1.10915 -0.352966 0.248584 -0.44156 0.470567 0.646759 -0.00955021 0.342932 -0.288124 -0.0396232 -0.597063 -0.130585 -0.331083 0.0437229 0.314092 0.897605 0.0865725 0.693114 -0.47463
214 -0.404283 0.92002 -0.309604 0.0892633 -0.493989 0.115418 -0.131162 -0.31236 -0.161593 0.404753 -0.951906 -0.0121416 -0.493603 -0.881845 -0.234859 0.159944 -0.323141 0.417059 0.660015 0.0615149 0.29048 -0.214444 -0.00641619 -0.525418 -0.0809181 -0.337705 0.0133103 0.268655 0.683948 0.111865 0.614032 -0.372411
213 -0.550986 1.10457 -0.432199 0.0734688 -0.624381 0.148328 -0.111985 -0.388896 -0.276511 0.410008 -1.1119 -0.0444406 -0.517176 -0.998987 -0.196504 0.108803 -0.448539 0.589467 0.896595 0.109905 0.386882 -0.298988 -0.00180402 -0.704556 -0.0835785 -0.453796 0.0109805 0.274556 0.830168 0.149463 0.76306 -0.453332
212 -0.549396 1.11542 -0.502376 0.0493721 -0.596312 0.32415 0.0950555 -0.374187 -0.468205 0.144035 -0.950602 -0.0902345 -0.505758 -0.842281 0.0288645 -0.000916079 -0.520014 0.78296 1.06184 0.231839 0.367518 -0.35921 0.0264271 -0.804711 0.032772 -0.508297 0.0126112 0.233463 0.752875 0.212776 0.85683 -0.48115
210 -0.569197 1.10393 -0.504684 0.0509041 -0.555572 0.395138 0.113552 -0.447417 -0.48551 0.0192793 -0.829723 -0.0912425 -0.495899 -0.727152 0.0736867 -0.00107885 -0.498568 0.769849 1.09956 0.226628 0.358944 -0.317541 0.0610423 -0.830606 0.0655934 -0.525328 0.020157 0.246107 0.729879 0.261271 0.868226 -0.48729
125 0.303552 0.0823204 -0.0778365 0.0675217 0.193339 -0.505914 0.17811 -0.406633 -0.431079 -0.0213437 -0.397803 -0.180344 -0.970968 -1.03682 -0.114392 -0.280874 0.157027 0.547042 0.407002 -0.132079 0.864513 0.0657541 0.504311 0.570304 -0.548297 0.240325 -0.643227 0.945852 0.685711 0.856565 0.768685 -0.217781
123 0.130724 0.0189868 0.0701122 0.070932 0.115107 -0.485779 0.0802472 -0.514806 -0.392242 0.0118393 -0.347198 -0.0863023 -1.1533 -1.04749 -0.0854237 -0.254683 0.192005 0.508549 0.36895 -0.0707587 0.759549 0.0748498 0.334083 0.505196 -0.481059 0.200341 -0.56505 0.96551 0.549382 0.919809 0.856205 -0.237055
124 0.183581 0.0385631 -0.0222201 0.0768636 0.136879 -0.36145 0.101233 -0.364284 -0.35155 -0.00678868 -0.312586 -0.163365 -0.871898 -0.900847 -0.0856099 -0.230087 0.133476 0.461896 0.290421 -0.0796559 0.693936 0.0645496 0.32917 0.437269 -0.438729 0.163394 -0.498046 0.767369 0.527059 0.722444 0.637216 -0.173723
126 0.528687 0.139644 -0.229497 0.0762389 0.203804 -0.486244 0.289371 -0.286853 -0.332103 -0.0579503 -0.540811 -0.377933 -0.755618 -0.913887 -0.209252 -0.298394 0.109184 0.527371 0.527595 -0.244824 0.943667 0.0690545 0.64184 0.489958 -0.673521 0.293351 -0.653479 0.79195 0.838687 0.744118 0.729505 -0.213227
182 0.349454 0.215625 -0.424649 0.669753 -0.101053 0.55282 0.639002 -0.107304 0.111368 0.0492561 -0.651324 -0.591162 -1.96088 -0.880685 -0.489342 0.006901 0.426436 -0.318225 0.201747 -0.730705 1.11941 0.492085 0.0253895 -0.89777 0.376816 -0.294653 0.532189 -0.112628 0.00516568 0.548136 0.850709 -0.408257
183 0.239357 0.295681 -0.258151 0.613584 -0.0191467 0.470876 0.611029 -0.0245151 0.224836 0.0351891 -0.720624 -0.529266 -1.76863 -0.73328 -0.462724 0.0600938 0.356056 -0.185392 0.265997 -0.669228 1.05738 0.481522 0.157128 -0.852995 0.433089 -0.32652 0.486654 -0.0852499 -0.054265 0.450165 0.690224 -0.377801
184 0.237296 0.29084 -0.228039 0.568452 -0.0350267 0.421891 0.593504 -0.0734143 0.220229 0.0232327 -0.692858 -0.463829 -1.53932 -0.616695 -0.380859 0.119265 0.288784 -0.163841 0.252467 -0.578377 0.967009 0.431921 0.161586 -0.730998 0.399423 -0.308838 0.417906 -0.0939142 -0.0706378 0.392383 0.588703 -0.321876
185 0.163796 0.360751 -0.186508 0.506918 0.0440761 0.485802 0.64148 -0.057055 0.253026 0.0286026 -0.832696 -0.480617 -1.53722 -0.6653 -0.445087 0.12833 0.284428 -0.0978359 0.298529 -0.563004 0.933594 0.44533 0.216719 -0.699242 0.380933 -0.361764 0.416689 -0.0460178 -0.139931 0.294161 0.480007 -0.361501
106 -0.262259 -0.543754 -0.203905 0.343555 0.271598 0.622616 -0.425461 -0.580595 0.0292693 -0.0182773 -0.732581 -0.312053 -1.07629 -0.992552 -0.574529 0.0365814 0.131698 0.503255 0.532934 -0.0136373 0.70845 0.0253789 -0.393369 0.07027 -0.0381215 -0.100286 0.509802 0.752357 0.087508 -0.443053 0.560217 -0.349804
105 -0.297858 -0.539371 -0.260969 0.492303 0.288738 0.745022 -0.518137 -0.776018 0.0457065 0.0542432 -0.888204 -0.293785 -1.26453 -1.1175 -0.705537 -0.00581539 0.0683779 0.534679 0.668978 -0.0572447 0.819178 0.0507414 -0.421117 0.0323574 -0.114286 -0.164477 0.522388 0.920861 0.0843643 -0.509726 0.613647 -0.398745
104 -0.21702 -0.37029 -0.283442 0.826007 0.246817 0.763482 -0.467227 -1.01422 0.0236023 0.0601395 -1.01962 -0.218279 -1.28521 -0.94176 -0.769743 -0.189923 -0.0822232 0.39318 0.616578 -0.0819535 0.830686 0.0179582 -0.323916 -0.0242728 -0.274832 -0.248863 0.381419 0.935847 -0.103113 -0.569629 0.645081 -0.444885
103 -0.168256 -0.31048 -0.2545 0.814768 0.232883 0.705691 -0.460585 -0.952296 0.0283755 0.0851101 -0.914772 -0.173443 -1.07662 -0.746847 -0.667544 -0.224526 -0.11705 0.318159 0.499175 -0.0829847 0.701067 -0.000916438 -0.275188 -0.0163148 -0.292869 -0.2153 0.325293 0.836617 -0.15149 -0.509607 0.530425 -0.390963
102 -0.150074 -0.186543 -0.287485 1.07476 0.11545 0.746259 -0.452499 -1.12754 0.0389693 0.076027 -1.03193 -0.0993185 -1.21727 -0.687592 -0.753169 -0.370665 -0.240595 0.302087 0.520763 -0.120863 0.793166 0.0394696 -0.200572 -0.0535365 -0.384991 -0.328383 0.238232 0.906625 -0.165741 -0.540181 0.574933 -0.482575
101 -0.010616 0.0862382 -0.286654 1.34447 -0.0231487 0.732332 -0.378217 -1.25327 0.129214 0.138097 -0.980363 0.0233116 -1.18076 -0.497943 -0.692501 -0.515958 -0.416134 0.194139 0.480018 -0.195264 0.808527 0.15811 -0.0333891 -0.175274 -0.401972 -0.480374 0.00932394 0.768941 -0.163819 -0.508098 0.531882 -0.51397
100 0.0400973 0.203066 -0.225916 1.18421 -0.066391 0.577174 -0.271003 -1.07535 0.160196 0.13649 -0.821313 0.0733777 -0.977429 -0.327966 -0.581606 -0.501581 -0.429656 0.0914521 0.414303 -0.179196 0.702051 0.217812 0.030811 -0.195729 -0.451538 -0.463105 -0.138503 0.615597 -0.151201 -0.335288 0.356132 -0.438277
99 0.0942299 0.237677 -0.223796 1.3866 -0.0835433 0.654548 -0.370566 -1.26306 0.262361 0.17346 -0.902345 0.108939 -1.16993 -0.417543 -0.691092 -0.645126 -0.481712 0.154838 0.523318 -0.265458 0.839843 0.241985 0.0558485 -0.299964 -0.504091 -0.554795 -0.237098 0.734513 -0.135772 -0.454736 0.457193 -0.547952
98 0.18389 0.41182 -0.107228 1.38335 -0.0317075 0.638949 -0.441781 -1.13669 0.367078 0.0937335 -0.777554 0.197077 -1.17539 -0.308644 -0.581205 -0.729411 -0.466294 0.089915 0.605934 -0.308866 0.920965 0.358186 0.0776539 -0.437343 -0.412912 -0.568958 -0.418115 0.63583 -0.0643493 -0.462434 0.381934 -0.59311
294 -0.197118 -0.0353495 -0.0334021 -0.0245475 -0.0700607 -0.431804 -0.0582483 -0.239826 0.056465 0.168379 -0.833548 0.185142 -0.561697 -0.874438 -0.104808 0.660272 0.0487087 -0.0805449 0.451455 -0.489018 0.73844 0.453375 -0.00923816 -0.508759 0.241582 -0.330709 -1.03231 0.793367 0.580214 -0.171727 0.55658 -0.0513053
293 -0.319361 -0.151793 0.0842577 -0.123738 -0.09943 -0.594643 -0.0343905 -0.103703 0.0799669 0.17545 -1.01358 0.250625 -0.595316 -0.951769 -0.0968448 0.779719 0.103155 -0.161279 0.500567 -0.607842 0.821746 0.581307 -0.00423631 -0.579605 0.361095 -0.395406 -1.25886 0.95856 0.710031 -0.278694 0.555637 -0.107391
292 -0.320303 -0.16363 0.0980875 -0.133152 -0.0897641 -0.604515 -0.062734 -0.0390147 0.106834 0.171258 -0.927781 0.282195 -0.498158 -0.879329 -0.0427761 0.699589 0.108031 -0.183701 0.443251 -0.591896 0.734908 0.509325 -0.0355357 -0.514817 0.380215 -0.360325 -1.17504 0.855848 0.662096 -0.240806 0.479314 -0.0781717
291 -0.35052 -0.201681 0.103642 -0.207425 -0.117667 -0.731306 -0.00781442 -0.0790917 0.138696 0.129915 -1.05951 0.300518 -0.552429 -0.94784 -0.0535863 0.845188 0.0844655 -0.188783 0.44678 -0.641087 0.804031 0.617584 -0.035512 -0.584628 0.46689 -0.332685 -1.34693 0.985944 0.68675 -0.359377 0.509309 -0.0703872
296 -0.0728461 0.207993 -0.242862 0.153158 -0.0928958 -0.190492 -0.0569106 -0.443554 -0.0509163 0.243394 -0.61756 0.150596 -0.527851 -0.825635 -0.224352 0.673188 -0.0063885 0.00947288 0.447499 -0.324259 0.703697 0.295146 0.0373439 -0.53982 0.0217961 -0.340228 -0.766075 0.678409 0.450079 -0.0669682 0.614193 -0.0182542
295 -0.0407767 0.210046 -0.198865 0.175952 -0.0972623 -0.0943154 -0.0340568 -0.351548 -0.0543925 0.174647 -0.607295 0.0976941 -0.67861 -0.856238 -0.282025 0.536714 0.0143143 0.0542886 0.488348 -0.301043 0.680378 0.32516 0.0481194 -0.515497 -0.00800768 -0.383159 -0.712603 0.664623 0.441975 -0.0422988 0.646255 -0.0737775
202 -0.518091 -0.0039902 0.0420644 -0.310771 -0.081608 -0.111857 0.00908032 -0.486514 0.112221 -0.437015 -0.613599 0.211818 -1.21824 -0.179601 0.228326 0.641417 -0.383632 0.660039 0.932421 -0.619667 0.433246 -0.0816427 0.118589 -0.491687 -0.297423 -0.706542 0.110555 0.530327 0.509592 0.417923 0.43154 -0.257976
203 -0.556313 0.0480639 0.0393956 -0.306804 -0.0997968 -0.0657041 0.0598505 -0.458334 0.0479779 -0.478635 -0.633788 0.168603 -1.24752 -0.182752 0.274766 0.638323 -0.4031 0.754553 1.03368 -0.575325 0.495862 -0.0534859 0.101748 -0.48052 -0.255148 -0.717555 0.118274 0.541907 0.612459 0.455413 0.508111 -0.28935
201 -0.517332 0.0525223 0.144522 -0.390362 0.0025721 -0.242224 0.0230844 -0.384302 0.100548 -0.404881 -0.793407 0.175021 -1.29041 -0.175224 0.1864 0.674423 -0.370178 0.713373 1.00207 -0.662037 0.369221 -0.109081 0.205116 -0.472234 -0.355016 -0.798404 0.0161454 0.547451 0.437075 0.337365 0.315443 -0.284473
200 -0.438146 0.0213549 0.245816 -0.419545 0.0926658 -0.287673 0.0553121 -0.226702 0.0473559 -0.286386 -1.00207 0.0987899 -1.38798 -0.251904 -0.00685226 0.537873 -0.281768 0.652334 0.964117 -0.684481 0.272832 -0.095007 0.298434 -0.48191 -0.472542 -0.80669 -0.0651902 0.601892 0.22981 0.174854 0.0665363 -0.358023
199 -0.31221 0.0397321 0.24659 -0.364801 0.137801 -0.300452 0.061126 -0.0967815 0.0129028 -0.177041 -0.867756 0.0609709 -1.13644 -0.288019 -0.113792 0.483833 -0.174268 0.547533 0.760189 -0.596176 0.192271 -0.107562 0.261588 -0.417354 -0.378458 -0.703548 -0.147436 0.553489 0.114697 0.0634427 0.0200078 -0.329254
198 -0.437268 0.0773027 0.33185 -0.462864 0.155444 -0.349678 0.142784 -0.0522401 -0.0299083 -0.220137 -1.09663 0.0405603 -1.41478 -0.269394 -0.107886 0.458754 -0.218376 0.647044 0.915003 -0.664587 0.16087 -0.149985 0.371332 -0.542799 -0.492415 -0.796651 -0.237892 0.60214 0.0541244 0.0479115 -0.0535335 -0.404575
51 -0.159852 1.01481 -0.331704 0.669557 -0.321868 0.305064 -0.0505989 -0.637448 -0.543359 0.694169 -0.366454 0.392133 -1.11418 -0.761024 -0.461434 0.291972 0.0189153 0.300911 0.369535 -0.0783434 0.613662 0.00680543 -0.161516 0.161659 0.448769 -0.512345 -0.605925 0.581727 -0.31507 0.137282 0.576156 0.233563
52 -0.304305 1.04423 -0.128712 0.622334 -0.256135 0.211968 -0.0911006 -0.54797 -0.453944 0.681963 -0.46681 0.162646 -1.09304 -0.651206 -0.324255 0.283358 0.0368846 0.192307 0.420345 -0.0344164 0.559676 0.109904 -0.0285861 0.0886639 0.359416 -0.474103 -0.506155 0.567267 -0.341577 0.292602 0.410695 0.197969
53 -0.43635 1.31005 -0.0631226 0.694883 -0.260657 0.203583 -0.123342 -0.635499 -0.533355 0.828586 -0.562096 0.116696 -1.26461 -0.763055 -0.354023 0.415368 0.0411279 0.210731 0.517688 0.0117994 0.720155 0.155566 -0.0156982 0.0776157 0.412626 -0.574402 -0.534617 0.715445 -0.412859 0.428506 0.477105 0.190593
54 -0.606994 1.44184 0.199858 0.691478 -0.193546 0.0923747 -0.142436 -0.581752 -0.434066 0.883716 -0.609291 -0.0594045 -1.27697 -0.721417 -0.319635 0.464325 0.143242 0.10904 0.656598 0.103552 0.81416 0.220544 -0.0116567 0.0552142 0.356472 -0.59105 -0.520803 0.807022 -0.474008 0.639472 0.397684 0.200624
56 -0.624824 1.40335 0.281528 0.654665 -0.1839 -0.00326044 -0.0699284 -0.500936 -0.279195 0.830897 -0.555963 -0.170011 -1.18827 -0.700347 -0.308991 0.426888 0.189397 0.0698185 0.674232 0.154298 0.878654 0.278713 -0.0128611 0.0595047 0.306468 -0.58665 -0.528854 0.780545 -0.407005 0.607357 0.371199 0.197597
55 -0.567015 1.25854 0.210817 0.592242 -0.153973 0.0403453 -0.0884101 -0.476337 -0.291966 0.753249 -0.513534 -0.123263 -1.08957 -0.609569 -0.253192 0.408333 0.138785 0.0836076 0.576091 0.129446 0.744844 0.235145 -0.0121767 0.029256 0.280162 -0.516788 -0.439677 0.708564 -0.352867 0.593056 0.331751 0.193197
153 0.303565 0.163285 -0.333153 0.394785 -0.235437 0.906911 0.219386 -0.0915469 -0.683925 0.282245 -1.03202 0.377959 -1.3434 -0.903994 0.113961 -0.0376448 -0.514739 -0.25925 0.676442 0.140308 0.842074 0.877881 0.175284 0.0607788 -0.748937 -0.481655 -0.754522 0.755343 0.250694 0.877807 -0.168219 0.106128
155 0.273318 0.189788 -0.346052 0.402632 -0.271705 0.957199 0.0844442 -0.040578 -0.654288 0.211781 -1.02897 0.288543 -1.33321 -0.967456 0.097416 -0.0553637 -0.460004 -0.375234 0.799519 0.199807 0.837565 0.964306 0.157582 0.198725 -0.764775 -0.332043 -0.786324 0.732682 0.2058 1.01729 -0.173581 0.153551
156 0.178396 0.140637 -0.313238 0.404023 -0.291598 0.902043 -0.0994751 0.103995 -0.493065 0.0750942 -0.918597 0.224312 -1.22273 -1.06172 0.0203494 -0.137002 -0.320738 -0.427469 0.959525 0.201509 0.857177 1.01919 0.166698 0.30805 -0.705224 -0.170588 -0.838608 0.681028 0.210222 1.05971 0.0099159 0.118914
154 0.264384 0.20049 -0.321674 0.346654 -0.222556 0.814104 0.134109 -0.144259 -0.657414 0.274389 -0.959045 0.321758 -1.25598 -0.859726 0.104496 -0.040921 -0.47307 -0.221452 0.650547 0.115256 0.753419 0.814587 0.168673 0.0867134 -0.675409 -0.388053 -0.695982 0.704152 0.203337 0.807783 -0.174768 0.116068
299 0.0846174 0.422418 -0.739262 0.384496 -0.0374554 0.116757 -0.193379 -0.910994 -0.243869 0.49723 -0.176161 0.125855 -0.153502 -0.760229 -0.409707 1.09741 -0.0497759 0.0361166 0.5807 -0.0468758 0.852423 0.000199006 0.190196 -0.684082 -0.486404 -0.505238 -0.631634 0.728955 0.373821 0.150665 0.828118 0.185183
298 0.037249 0.360262 -0.607672 0.36201 -0.0982813 0.102248 -0.141888 -0.764833 -0.193136 0.405479 -0.211524 0.0782535 -0.2782 -0.719172 -0.375904 0.857564 -0.0505893 0.0810476 0.474394 -0.0635022 0.717099 0.0828085 0.175167 -0.568232 -0.370028 -0.430831 -0.586656 0.645293 0.338692 0.15072 0.733831 0.130838
297 0.0304388 0.362755 -0.670296 0.377823 -0.113184 0.117513 -0.160927 -0.830212 -0.179233 0.423052 -0.253078 0.0686974 -0.276133 -0.762598 -0.392544 0.917413 -0.0545589 0.076509 0.475688 -0.053583 0.747394 0.0564204 0.17776 -0.610109 -0.352153 -0.44332 -0.617577 0.654746 0.363968 0.171527 0.778834 0.137479
0 0.110133 0.444962 -0.786791 0.463795 -0.0403642 0.154509 -0.272713 -1.03536 -0.284722 0.527821 -0.133146 0.152873 -0.0668276 -0.781037 -0.412192 1.22257 -0.0691633 -0.0137726 0.644459 0.00774727 0.909188 -0.0400738 0.175955 -0.756673 -0.570833 -0.577863 -0.717202 0.75082 0.413313 0.218435 0.905434 0.263329
1 0.0958878 0.443557 -0.680062 0.403794 -0.031601 0.114011 -0.237655 -0.930926 -0.280995 0.472223 -0.141389 0.147905 -0.0658108 -0.668314 -0.373154 1.08161 -0.0546742 -0.0235592 0.54907 -0.000157641 0.810945 -0.00650819 0.170579 -0.68406 -0.469672 -0.501184 -0.624362 0.65126 0.357251 0.144483 0.78199 0.250279
2 0.109946 0.499799 -0.717954 0.471369 0.00753431 0.126843 -0.294847 -1.09128 -0.253031 0.522809 -0.121065 0.098712 -0.0830122 -0.796333 -0.393048 1.20803 -0.0230067 -0.0764 0.622323 -0.030015 0.849201 -0.0404058 0.182307 -0.746286 -0.571123 -0.594064 -0.748966 0.695439 0.401937 0.239584 0.883008 0.217652
162 0.151418 0.169037 -0.16511 0.120521 -0.198193 0.410358 0.043134 0.250968 -0.0328084 -0.424505 -0.407147 -0.0139806 -0.320407 -0.643962 -0.465194 -0.0752996 -0.0127736 0.0874234 0.997031 0.204703 1.21629 1.13869 0.158643 -0.0794098 -0.498837 -0.543031 -0.8853 0.438683 0.206002 0.707487 0.456787 0.142127
163 0.153653 0.219977 -0.189625 0.144746 -0.181458 0.381449 0.0501821 0.202584 -0.0395822 -0.391266 -0.38988 -0.0508809 -0.233737 -0.536945 -0.427579 -0.0197156 0.0307191 0.132764 0.890578 0.175607 1.11003 0.97001 0.150994 -0.107263 -0.420798 -0.552065 -0.773578 0.332305 0.17769 0.585721 0.408245 0.147491
164 0.169256 0.245024 -0.192337 0.152092 -0.219361 0.391277 0.13938 0.134188 -0.0825155 -0.419064 -0.436917 -0.0783507 -0.276124 -0.580815 -0.494839 -0.0242124 0.0692835 0.130892 0.914101 0.168673 1.12206 1.09889 0.130704 -0.146343 -0.501765 -0.619051 -0.852698 0.342799 0.167492 0.644723 0.477284 0.185037
165 0.160543 0.325306 -0.287998 0.164651 -0.319584 0.206654 0.35656 -0.279908 -0.309318 -0.307621 -0.547049 -0.185985 -0.293194 -0.44589 -0.529762 0.0556559 0.0727279 0.132796 0.659222 0.171876 0.896631 0.981501 0.10138 -0.458342 -0.572528 -0.762595 -0.84277 0.224311 0.103521 0.508774 0.413554 0.273561
167 0.137054 0.398967 -0.37234 0.207498 -0.396474 0.101779 0.588874 -0.703753 -0.501427 -0.160545 -0.658017 -0.250706 -0.437195 -0.430303 -0.598564 0.169306 0.156637 0.0637653 0.370728 0.0487456 0.595144 0.905273 0.0647077 -0.788112 -0.598608 -0.920329 -0.759148 0.0554168 0.0207224 0.292159 0.425994 0.295189
168 0.0654401 0.379249 -0.510541 0.217842 -0.493362 -0.000107256 0.802528 -1.01635 -0.663364 -0.100176 -0.841597 -0.362237 -0.585724 -0.458463 -0.733206 0.162796 0.220318 0.0341496 0.350792 0.0188395 0.563317 1.04223 0.0227736 -1.11345 -0.74796 -1.19564 -0.870829 0.0513112 -0.0502564 0.217086 0.505804 0.368205
170 0.062775 0.342376 -0.507986 0.185432 -0.512445 -0.0460101 0.917246 -1.07405 -0.703593 -0.0746626 -0.910285 -0.390054 -0.681384 -0.469969 -0.798721 0.217542 0.223395 0.0294231 0.31121 -0.0173922 0.533095 1.07668 0.00999308 -1.24932 -0.836767 -1.32092 -0.874293 0.0373865 0.00795338 0.23152 0.540578 0.379803
268 -0.186168 -0.371353 -0.350458 -0.222903 0.19285 -0.121643 -0.20216 -0.0841447 0.0366439 0.205555 0.290676 0.129963 -0.565878 -1.06963 -0.368441 -0.361137 0.28947 0.600653 0.104959 -0.391943 0.787321 0.0243923 0.324754 -1.05896 -0.54444 -0.519937 -0.720008 0.306075 0.343516 -0.310225 0.648375 -0.674396
267 -0.220607 -0.42282 -0.386458 -0.234625 0.192267 -0.135526 -0.218998 -0.105914 0.0264893 0.237956 0.263583 0.140258 -0.641388 -1.18246 -0.447611 -0.355481 0.258476 0.599758 0.178392 -0.412896 0.870125 0.0254003 0.327395 -1.14778 -0.633388 -0.576426 -0.7936 0.387293 0.376195 -0.266794 0.740524 -0.72435
266 -0.22855 -0.599457 -0.329747 -0.391165 0.24465 -0.0949163 -0.193439 0.0338862 0.129907 0.263994 0.324705 0.277281 -0.611614 -1.01518 -0.399103 -0.284126 0.169915 0.693042 0.321276 -0.469564 0.86746 -0.0930749 0.173995 -1.21297 -0.694269 -0.564665 -0.688 0.605422 0.347844 -0.206322 0.820747 -0.663468
265 -0.205337 -0.611791 -0.32682 -0.497054 0.234924 -0.0681225 -0.18153 0.0961502 0.156624 0.249085 0.311617 0.31483 -0.626214 -0.944881 -0.368271 -0.162846 0.083964 0.688314 0.431761 -0.445321 0.801352 -0.0903698 0.0204471 -1.19512 -0.655412 -0.492772 -0.635327 0.769028 0.327607 -0.132366 0.833313 -0.604534
264 -0.255828 -0.706807 -0.340924 -0.570838 0.289724 -0.0786589 -0.180693 0.1302 0.210682 0.344111 0.30433 0.371156 -0.733602 -1.05911 -0.434961 -0.154817 0.0431107 0.780979 0.546568 -0.51027 0.929092 -0.138933 -0.0448451 -1.37026 -0.788848 -0.56081 -0.677728 0.947428 0.356879 -0.0350902 0.937177 -0.67649
84 0.291855 0.396086 -0.335216 0.978356 -0.266982 0.120948 -0.137417 0.223709 0.291049 -0.210681 -0.461977 0.416868 -0.969754 -0.702419 -0.632678 0.55085 0.315528 0.0520618 -0.208303 -0.512853 0.0664617 0.338801 -0.0748902 -0.963468 -0.170623 -0.00245369 -0.873854 0.207535 0.365272 0.214097 0.977877 -0.628847
85 0.26861 0.305339 -0.299289 0.863026 -0.215545 0.0821893 -0.165014 0.162582 0.198528 -0.223609 -0.445189 0.315014 -0.938717 -0.618034 -0.511822 0.408979 0.240203 0.0297585 -0.119416 -0.480667 0.170198 0.329542 -0.116415 -0.759803 -0.160778 -0.0585378 -0.754787 0.234224 0.375002 0.133083 0.831911 -0.54051
86 0.232788 0.368901 -0.360654 0.982952 -0.191213 0.142955 -0.21903 0.0693152 0.21161 -0.216977 -0.516651 0.323197 -1.0139 -0.591822 -0.483244 0.418841 0.271488 0.0452182 -0.0974529 -0.51945 0.255432 0.396251 -0.110172 -0.82611 -0.207627 -0.0973891 -0.773415 0.259967 0.388985 0.120075 0.801822 -0.583795
197 -0.507587 0.113979 0.48376 -0.462345 0.221224 -0.26094 0.358316 0.135619 -0.11 -0.223064 -1.28956 -0.154699 -1.42542 -0.471971 -0.278204 0.209988 -0.170038 0.616634 0.855936 -0.535806 0.20668 -0.0641615 0.424406 -0.628927 -0.463807 -0.686251 -0.469496 0.649369 -0.0505161 -0.139146 -0.108911 -0.509446
196 -0.466891 0.162125 0.490045 -0.38572 0.229965 -0.19259 0.401231 0.168617 -0.148651 -0.156473 -1.25813 -0.205579 -1.33118 -0.519561 -0.383678 0.152912 -0.102435 0.53164 0.778017 -0.423331 0.183003 -0.0157043 0.43479 -0.660747 -0.419613 -0.555472 -0.54995 0.601058 -0.109693 -0.208737 -0.0892859 -0.496077
72 0.0636029 0.824264 0.107019 -0.147758 0.0447065 1.02896 0.0785991 -0.642413 0.160621 0.412897 -0.586717 0.221936 -0.664618 -1.24043 -0.511877 -0.0483788 0.390159 -0.11038 0.212574 -0.49639 0.0403811 0.247187 0.234249 -1.01469 0.234684 -0.123957 -0.279631 0.449796 0.0694 0.476045 0.885643 -0.194287
74 0.097526 0.942965 -0.0468974 -0.0384952 -0.00331407 0.966692 0.152539 -0.611518 0.160348 0.188587 -0.532972 0.225526 -0.609431 -1.2635 -0.448064 0.0370774 0.407987 -0.0401341 0.228496 -0.367929 0.00499542 0.201873 0.24241 -0.955705 0.169098 -0.034442 -0.195461 0.505685 -0.0574711 0.386891 0.793603 -0.367153
73 0.106251 0.781406 -0.0225606 -0.0286541 -0.0366231 0.825552 0.121375 -0.523011 0.0676524 0.261278 -0.523209 0.183282 -0.615652 -1.11314 -0.403624 -0.00226429 0.284907 -0.049465 0.202651 -0.35367 0.125445 0.197101 0.176956 -0.83325 0.144808 -0.114971 -0.207506 0.429065 0.0446317 0.312471 0.747089 -0.240233
75 0.16285 1.09385 -0.160296 0.030321 -0.0780052 0.855548 0.163675 -0.431199 0.14286 -0.013507 -0.450235 0.289316 -0.624079 -1.36257 -0.390516 0.0866803 0.435936 0.0515013 0.217656 -0.261822 0.0260418 0.138985 0.243304 -0.967324 0.187649 0.0810186 -0.188005 0.60752 -0.166439 0.34496 0.779222 -0.52768
76 0.157682 1.05956 -0.257234 0.100971 -0.139191 0.737304 0.143404 -0.325772 0.152652 -0.0945857 -0.435464 0.294432 -0.569063 -1.21971 -0.38075 0.157491 0.4097 0.108477 0.153687 -0.198015 0.0100108 0.12412 0.206667 -0.924345 0.150302 0.104323 -0.172707 0.576461 -0.159118 0.293979 0.701845 -0.580666
77 0.207158 1.13123 -0.257188 0.157602 -0.166477 0.738104 0.180106 -0.317871 0.191328 -0.167599 -0.432435 0.339453 -0.620285 -1.35629 -0.407196 0.231295 0.460993 0.129088 0.133841 -0.218008 0.0104193 0.0889088 0.269595 -1.00574 0.150833 0.127774 -0.238949 0.62998 -0.209956 0.345914 0.800402 -0.659017
78 0.293045 1.06563 -0.293019 0.37906 -0.282184 0.53591 0.121324 -0.0325144 0.224177 -0.216112 -0.372801 0.427542 -0.698565 -1.21851 -0.455327 0.406532 0.479647 0.185563 0.0253417 -0.235388 -0.00938642 0.113789 0.270369 -1.03982 0.195956 0.18256 -0.413091 0.531342 -0.176976 0.378715 0.904277 -0.687567
244 0.19525 0.241815 0.111847 -0.179517 -0.0207905 -0.0471532 0.187404 0.562176 -0.485741 -0.200148 0.15087 0.25731 -0.884143 -1.159 -0.903659 0.468547 -0.253935 -0.376062 -0.0275515 -0.259169 0.863777 0.131793 -0.247923 -0.227901 -0.111435 -0.108395 -0.0809911 0.452483 0.47485 0.185779 0.943792 -0.546421
243 0.226659 0.2082 0.23378 -0.211874 -0.087173 -0.0395519 0.197864 0.614956 -0.554561 -0.313944 0.131735 0.200577 -0.946762 -1.25598 -1.07668 0.569633 -0.209831 -0.390847 -0.000506234 -0.351537 0.973303 0.238395 -0.384135 -0.227221 -0.121922 -0.0984591 -0.107314 0.472548 0.447044 0.177329 1.05397 -0.68375
245 0.208238 0.322624 0.0450802 -0.152031 0.00106355 -0.0307573 0.260071 0.691301 -0.585181 -0.213532 0.176362 0.320189 -1.07884 -1.36391 -0.98533 0.448815 -0.352235 -0.45747 0.00272522 -0.26704 1.01699 0.0801374 -0.203698 -0.285856 -0.21182 -0.181216 -0.0886219 0.548959 0.589065 0.173962 1.09016 -0.564689
242 0.243348 0.132644 0.441324 -0.241858 -0.244808 0.0668212 0.084868 0.325943 -0.418624 -0.349826 -0.0372664 -0.0489356 -0.812456 -0.966438 -1.08467 0.553016 -0.0582432 -0.263506 0.152585 -0.458204 0.778899 0.390019 -0.538379 -0.0980948 -0.0739701 -0.0853709 -0.196467 0.498666 0.151179 0.105697 0.972821 -0.657735
240 0.270237 0.124331 0.534875 -0.224018 -0.416508 0.217885 0.0017409 0.124894 -0.32305 -0.410119 -0.173539 -0.156792 -0.827154 -0.785856 -1.12938 0.579755 0.123466 -0.139209 0.358603 -0.586788 0.60619 0.52966 -0.652591 -0.0401346 -0.143386 -0.0970461 -0.230289 0.632136 -0.120854 0.0228074 1.00532 -0.674184
239 0.314792 0.111496 0.582175 -0.25952 -0.567117 0.293404 -0.057896 0.0618729 -0.278364 -0.50049 -0.270937 -0.247271 -0.893417 -0.790068 -1.25195 0.697854 0.178049 -0.104073 0.55969 -0.711705 0.593305 0.674587 -0.797706 -0.0246831 -0.146316 -0.0888888 -0.331448 0.755454 -0.212489 -0.0935354 1.12042 -0.694393
181 0.279494 0.186818 -0.447452 0.556045 -0.0863699 0.488504 0.625601 -0.0842634 0.0822389 0.0294352 -0.564279 -0.548718 -1.72822 -0.77572 -0.460725 -0.00922826 0.38912 -0.297496 0.113962 -0.610905 0.936603 0.417061 0.00514337 -0.789158 0.304079 -0.230824 0.502497 -0.139921 -0.0189615 0.476362 0.714394 -0.339476
226 -0.282239 0.79088 -0.343931 -0.302011 0.310771 0.11761 -0.322004 -0.17902 -0.0239763 0.424685 -0.317563 -0.0198468 -0.520692 -0.23085 -1.00478 0.348612 0.0344034 0.0209407 1.00225 0.382293 0.148759 0.592857 0.159115 -0.60665 -0.289206 -0.518374 -0.174546 0.592309 0.874459 -0.310923 0.34432 -0.32635
227 -0.219796 0.889963 -0.399181 -0.334472 0.416775 0.225313 -0.370112 -0.258811 -0.0485295 0.469277 -0.288404 0.0635888 -0.574401 -0.263368 -1.20561 0.392888 0.119409 0.0831901 1.21952 0.372381 0.136579 0.798142 0.151409 -0.697106 -0.456608 -0.678496 -0.152855 0.6482 0.955441 -0.446159 0.410549 -0.441248
228 0.108759 0.707556 -0.30759 -0.253744 0.510544 0.426455 -0.143855 -0.400937 -0.0984584 0.238807 -0.00225073 0.144804 -0.428165 -0.224242 -1.04693 0.392418 0.376111 0.34232 1.33706 0.0718808 0.201726 1.14042 0.12809 -0.643489 -0.552927 -0.817687 -0.0438662 0.546375 0.663885 -0.518846 0.612726 -0.602139
230 0.205281 0.612243 -0.226667 -0.218356 0.459788 0.42505 -0.0889728 -0.433941 -0.137208 0.133988 0.0330113 0.15228 -0.43843 -0.337647 -0.941483 0.413989 0.469293 0.389985 1.29812 -0.0765991 0.236976 1.18719 0.106562 -0.673028 -0.61213 -0.877877 -0.0831413 0.544253 0.50304 -0.492839 0.701779 -0.639891
229 0.153685 0.567501 -0.268336 -0.203582 0.41293 0.4081 -0.0738444 -0.369727 -0.100629 0.136032 0.0520365 0.192155 -0.379086 -0.221848 -0.818662 0.379053 0.375291 0.347584 1.15014 -0.0499907 0.160061 1.04535 0.123306 -0.555763 -0.501852 -0.732755 -0.0495149 0.443785 0.471432 -0.467923 0.53946 -0.509157
31 0.554475 0.866689 0.390411 0.522955 -0.373957 0.42002 0.833866 -0.179354 0.0374023 -0.0390227 -0.805234 -0.273697 -1.01386 -0.0973214 -0.397629 0.482705 -0.52612 0.394453 -0.112031 0.258253 0.652517 0.247502 -0.0469213 -0.00541575 -0.138123 -0.718626 -0.375395 0.79141 0.749999 0.165008 0.745778 -0.212502
30 0.579647 0.900144 0.388976 0.54056 -0.410552 0.406277 0.890985 -0.217377 0.0163031 -0.0248554 -0.906609 -0.308391 -1.13976 -0.212076 -0.454835 0.53541 -0.511027 0.440543 -0.0228163 0.242021 0.67314 0.254683 -0.000900624 -0.0396005 -0.206357 -0.754091 -0.420738 0.872381 0.805154 0.134283 0.857817 -0.19672
29 0.538175 0.927005 0.438691 0.614623 -0.388826 0.411654 0.8497 -0.218397 0.00365624 -0.0789804 -0.794647 -0.263295 -1.12979 -0.235634 -0.438544 0.525639 -0.444374 0.409376 0.0402884 0.24087 0.555184 0.237436 0.0504234 0.0187513 -0.150027 -0.648972 -0.451402 0.79184 0.724416 0.0537474 0.879917 -0.18015
28 0.467724 0.746167 0.360431 0.52328 -0.326092 0.36101 0.691461 -0.167285 0.00942706 -0.0784809 -0.704989 -0.239323 -0.992967 -0.243347 -0.408092 0.481261 -0.327367 0.330592 0.116309 0.153524 0.488829 0.245089 0.0757475 -0.0193681 -0.177902 -0.527631 -0.398688 0.702231 0.5824 0.0308091 0.780436 -0.140159
27 0.496643 0.814804 0.461201 0.608076 -0.392797 0.365017 0.807687 -0.0830115 0.0125524 -0.162922 -0.688667 -0.159749 -1.13832 -0.284586 -0.373452 0.438368 -0.234807 0.435864 0.132655 0.159323 0.338703 0.253237 0.120321 0.122223 -0.120868 -0.487973 -0.478726 0.699162 0.644641 -0.108634 0.930469 0.0292017
116 -0.00391018 -0.48232 0.658119 0.295787 0.14534 -0.214543 -0.191687 -0.269477 -0.349169 -0.0134456 -0.107176 -0.377917 -1.2961 -1.25749 -0.0032933 0.19436 0.0674098 0.638835 0.361134 -0.101041 0.616004 -0.0589391 0.141642 0.4168 -0.410132 -0.255877 -0.594821 1.1296 0.598768 0.636684 1.07486 -0.343154
115 -0.0351997 -0.449093 0.542178 0.271602 0.112901 -0.115106 -0.197808 -0.152507 -0.287381 -0.028244 -0.0792049 -0.336605 -1.17179 -1.15451 -0.0715994 0.214083 0.00832178 0.539438 0.381922 -0.115262 0.597389 -0.0263499 0.0876747 0.220973 -0.341561 -0.29327 -0.483455 1.00615 0.540192 0.454991 0.923789 -0.296277
117 -0.012938 -0.511898 0.699821 0.253044 0.168067 -0.304481 -0.195923 -0.262791 -0.37969 -0.0156333 -0.0832907 -0.363772 -1.37206 -1.2871 0.00973359 0.13721 0.0860121 0.671042 0.360652 -0.0836903 0.662739 -0.0923493 0.204289 0.499803 -0.449979 -0.187304 -0.63004 1.21554 0.618649 0.692972 1.14276 -0.348285
118 0.0104861 -0.388676 0.623228 0.21356 0.14967 -0.280793 -0.143233 -0.259962 -0.333767 -0.00556674 -0.0824097 -0.28461 -1.1916 -1.10313 0.0209872 0.125641 0.102055 0.585903 0.27094 -0.0741265 0.557748 -0.105076 0.186195 0.469965 -0.373723 -0.15019 -0.563046 1.04818 0.529228 0.673345 1.02091 -0.309762
119 0.00552585 -0.384668 0.586453 0.191518 0.153697 -0.396924 -0.152223 -0.40875 -0.377292 0.0120425 -0.167659 -0.254571 -1.41258 -1.28325 -0.0159215 0.057181 0.116688 0.685763 0.336488 -0.0121825 0.649852 -0.112279 0.249754 0.558203 -0.456889 -0.0727776 -0.638053 1.18925 0.596731 0.863282 1.14998 -0.301009
193 -0.561124 0.435526 0.512557 -0.316002 0.476703 0.113151 0.798471 0.235342 0.0616762 -0.199643 -1.36574 -0.318021 -1.26014 -0.749187 -0.635784 0.0056877 0.0962852 0.650467 0.805123 -0.364349 0.365409 -0.0636388 0.436073 -0.572417 -0.311395 -0.537591 -0.643965 0.557236 -0.187128 -0.356518 -0.0384174 -0.653351
192 -0.588646 0.495583 0.551891 -0.32077 0.513879 0.189286 0.905569 0.25075 0.0712945 -0.185079 -1.53953 -0.336459 -1.32802 -0.785766 -0.699476 0.0517578 0.125448 0.690526 0.887096 -0.411885 0.452837 -0.0263794 0.512738 -0.593746 -0.276055 -0.606913 -0.643864 0.613136 -0.271911 -0.375302 -0.0438186 -0.704584
194 -0.60716 0.441399 0.589916 -0.392193 0.472744 0.0484303 0.847943 0.287134 0.0546126 -0.199446 -1.54575 -0.317381 -1.39847 -0.75414 -0.655567 0.0645885 0.0407259 0.696052 0.888262 -0.429457 0.367458 -0.0508166 0.49512 -0.664087 -0.356042 -0.635616 -0.678874 0.656255 -0.21342 -0.371086 -0.0606098 -0.737846
286 -0.0320586 0.279092 -0.126779 -0.194934 0.248718 -0.542566 -0.0515438 -0.816615 0.22423 0.0299366 -0.913316 0.224993 -0.774611 -0.939424 -0.198606 1.14857 -0.442814 0.205248 0.169894 -0.449425 0.699391 0.320724 0.0257609 -0.957938 0.288831 0.0751421 -1.17778 0.9135 0.108776 -0.591763 0.500918 0.0611676
285 -0.0131598 0.366673 -0.138302 -0.161959 0.239535 -0.573089 -0.0531682 -0.831289 0.205307 0.0209466 -0.999449 0.213496 -0.831192 -0.952387 -0.187602 1.16963 -0.461409 0.175397 0.139855 -0.460595 0.791113 0.359219 0.0278433 -0.952415 0.310336 0.0692565 -1.24592 1.0208 0.115453 -0.581807 0.505889 0.105209
284 -0.0370621 0.329213 -0.181708 -0.0874063 0.145647 -0.45758 -0.0648063 -0.772511 0.149007 0.05664 -0.904257 0.18776 -0.765988 -0.897143 -0.159981 1.06301 -0.425665 0.164019 0.128925 -0.411395 0.690793 0.288446 0.0225244 -0.885792 0.275213 0.0236316 -1.05349 0.85911 0.172849 -0.520199 0.489659 0.107191
283 -0.000242224 0.337472 -0.195145 0.0481278 0.0519595 -0.2522 -0.0101803 -0.554238 0.0300639 0.0862777 -0.706103 0.123546 -0.745831 -0.801507 -0.21756 0.687591 -0.251334 0.144389 0.246682 -0.33271 0.620084 0.261514 0.0344655 -0.692089 0.131476 -0.0974776 -0.776248 0.681131 0.233238 -0.297136 0.505403 0.00463627
282 0.0144945 0.461666 -0.303747 0.176587 0.0634075 -0.266984 -0.0339438 -0.590992 -0.0847285 0.0974373 -0.700847 -0.03439 -0.74833 -0.78824 -0.158078 0.62438 -0.337018 0.225335 0.00213589 -0.230271 0.636596 0.257732 0.094634 -0.710832 0.199828 -0.113148 -0.724956 0.635074 0.207673 -0.473832 0.492738 -0.0146747
114 -0.0616563 -0.552275 0.476176 0.266636 0.106232 0.00156908 -0.233611 -0.144659 -0.24803 -0.0338795 -0.123006 -0.424371 -1.18923 -1.19932 -0.142435 0.2546 0.0108378 0.601657 0.442684 -0.0622455 0.623496 0.0155841 0.0576993 0.210287 -0.273846 -0.317786 -0.366412 1.00432 0.566832 0.377228 0.882991 -0.317547
113 -0.1639 -0.640529 0.190292 0.115952 0.117048 0.265037 -0.228132 -0.178918 -0.124071 -0.0811676 -0.216895 -0.381371 -1.18225 -1.21222 -0.322063 0.260341 0.0685599 0.639047 0.572132 -0.0505227 0.669652 0.192107 -0.043941 0.0841814 -0.0772524 -0.307301 0.00697534 0.898641 0.485035 0.132622 0.654266 -0.290232
112 -0.206509 -0.652531 0.0275151 0.0644863 0.106692 0.375325 -0.242936 -0.196961 -0.0604044 -0.0730525 -0.295901 -0.346132 -1.11508 -1.15051 -0.424026 0.246356 0.0911061 0.599824 0.63208 -0.04632 0.672729 0.237502 -0.136006 -0.0576928 -0.0121017 -0.334692 0.164443 0.754676 0.399347 -0.0304405 0.537527 -0.295424
111 -0.220796 -0.696614 0.00619092 0.0586335 0.104674 0.427175 -0.275378 -0.22469 -0.046788 -0.0471226 -0.377711 -0.425801 -1.21389 -1.26302 -0.455215 0.267705 0.118684 0.630454 0.662628 -0.0594628 0.757754 0.289878 -0.161477 -0.0512658 0.0313406 -0.328347 0.239121 0.824495 0.488076 -0.0776401 0.568027 -0.312993
62 -0.724993 0.566359 0.573188 0.422331 -0.185213 -0.329421 0.0800822 -0.045376 0.638805 0.668034 -0.00349988 -0.516671 -1.03163 -0.633663 -0.846204 0.299331 0.651396 0.152946 1.12565 -0.0271982 1.09773 0.0987877 -0.347115 -0.251045 0.00670381 -0.61947 -0.975606 0.763055 0.218697 0.531868 0.585744 0.510066
63 -0.596503 0.288881 0.620939 0.262039 -0.164841 -0.100847 0.0404811 -0.0540486 0.660729 0.639857 0.0434988 -0.458397 -0.969793 -0.620094 -0.94158 0.223517 0.645245 0.19362 1.01067 -0.112176 0.895369 0.113708 -0.294419 -0.381971 0.00734907 -0.463023 -0.918035 0.619623 0.331274 0.594745 0.64867 0.534761
64 -0.539703 0.089629 0.618873 0.121334 -0.0627714 0.0790249 0.0284633 -0.113327 0.691071 0.634595 0.029058 -0.407656 -0.891327 -0.563435 -0.945795 0.133293 0.612853 0.182515 0.862344 -0.263191 0.726397 0.101081 -0.194685 -0.56096 0.0254043 -0.375164 -0.862144 0.488536 0.359113 0.553626 0.657354 0.513142
65 -0.523108 0.133408 0.638886 0.0849493 -0.0810752 0.174639 0.00914537 -0.150517 0.688153 0.706752 0.0147964 -0.430018 -0.884658 -0.615774 -1.00694 0.1389 0.649459 0.149995 0.860304 -0.297415 0.716831 0.0921362 -0.210458 -0.612433 0.0547163 -0.372671 -0.825768 0.513083 0.395282 0.596422 0.736005 0.525865
61 -0.686993 0.607754 0.541824 0.399166 -0.182739 -0.385923 0.0721025 0.00146932 0.499394 0.57804 -0.0267519 -0.437066 -0.91927 -0.585445 -0.659103 0.262016 0.521063 0.104817 0.984468 0.0636485 0.938697 0.0556032 -0.313586 -0.0841136 0.0409766 -0.576524 -0.854729 0.687288 0.147095 0.507403 0.451184 0.419539
289 -0.32295 -0.0455079 0.0917376 -0.298374 -0.0497205 -0.669021 0.0115115 -0.288508 0.158303 0.0462629 -0.877263 0.214348 -0.491224 -0.829917 -0.130776 0.97314 0.000238234 -0.115643 0.310437 -0.503612 0.657102 0.535686 -0.0313526 -0.60602 0.38632 -0.122748 -1.20497 0.951031 0.481499 -0.425211 0.4955 0.00445748
290 -0.390952 -0.0757291 0.126127 -0.289119 -0.0569892 -0.774254 -0.0239295 -0.20471 0.167572 0.0820116 -1.01669 0.260065 -0.558355 -0.933397 -0.111225 1.04084 0.0433167 -0.17134 0.3691 -0.61369 0.765183 0.617067 -0.0345867 -0.654388 0.455497 -0.17442 -1.37664 1.09502 0.576209 -0.447621 0.531469 -0.0516777
288 -0.315162 0.0205263 0.0571115 -0.321178 -0.0176678 -0.748989 0.0148058 -0.408265 0.242246 0.0525452 -1.04747 0.270963 -0.671335 -0.975122 -0.151364 1.12955 -0.0826164 -0.0787484 0.373715 -0.584904 0.768434 0.577422 -0.0123776 -0.73377 0.387885 -0.0830223 -1.39107 1.1265 0.477808 -0.502133 0.533634 0.0325962
287 -0.123354 0.249364 -0.0943332 -0.2533 0.151401 -0.628607 -0.011818 -0.740123 0.240526 0.035304 -0.986966 0.261805 -0.751893 -0.934568 -0.169635 1.21139 -0.354569 0.0887649 0.200614 -0.513477 0.729013 0.406821 -0.00237883 -0.933129 0.312142 0.000581083 -1.28248 1.06139 0.218041 -0.589888 0.508894 0.095199
109 -0.283889 -0.696585 -0.0928558 0.0625536 0.156638 0.526259 -0.337365 -0.268221 0.00681179 -0.0444316 -0.455102 -0.410284 -1.08494 -1.13303 -0.487679 0.213103 0.199338 0.555309 0.58465 -0.023469 0.706491 0.210265 -0.313682 0.0388825 0.109012 -0.178456 0.469704 0.733899 0.33036 -0.235551 0.448224 -0.267862
110 -0.316762 -0.799882 -0.0928608 0.0268081 0.206374 0.561203 -0.406064 -0.285525 0.0598428 -0.0845383 -0.453335 -0.426593 -1.18076 -1.26137 -0.534647 0.300388 0.210416 0.660434 0.694708 -0.0165355 0.738332 0.261534 -0.336055 0.0376357 0.119884 -0.239338 0.531011 0.787672 0.385525 -0.22608 0.494124 -0.32284
108 -0.329149 -0.736031 -0.136327 0.130019 0.217404 0.60159 -0.41524 -0.396217 0.0496332 -0.0293767 -0.606756 -0.452792 -1.2361 -1.27769 -0.559613 0.209291 0.212123 0.659086 0.670719 -0.0128642 0.775982 0.185799 -0.338527 0.0606434 0.0771675 -0.206362 0.548896 0.829778 0.319936 -0.290029 0.4822 -0.322103
281 0.0803637 0.636233 -0.510462 0.524871 0.011045 -0.161333 -0.0684041 -0.496004 -0.442904 0.104836 -0.595156 -0.458138 -0.834043 -0.776448 -0.133859 0.264547 -0.493969 0.399215 -0.287354 -0.0367687 0.742828 0.279359 0.258047 -0.671515 0.185987 -0.290808 -0.472992 0.484444 0.261813 -0.58057 0.586698 -0.158605
279 0.0836976 0.682023 -0.529038 0.522433 0.0688257 -0.177797 -0.0696408 -0.477846 -0.474641 0.116797 -0.552688 -0.57904 -0.933533 -0.912882 -0.156921 0.118825 -0.467616 0.512537 -0.290913 -0.0292723 0.818248 0.341788 0.245877 -0.754389 0.130863 -0.400386 -0.461296 0.513729 0.317216 -0.561535 0.666479 -0.226175
278 0.0881031 0.686665 -0.533656 0.528695 0.166626 -0.258668 -0.104067 -0.418969 -0.580557 0.149151 -0.413185 -0.806419 -1.01375 -0.968708 -0.143612 -0.0837814 -0.502608 0.668237 -0.484383 0.0243352 0.778051 0.342202 0.322527 -0.832008 0.0735986 -0.495855 -0.401124 0.500409 0.314087 -0.580105 0.664868 -0.315609
277 0.116931 0.651747 -0.431446 0.462505 0.179504 -0.262619 -0.0918832 -0.384525 -0.488313 0.149385 -0.350037 -0.801076 -0.955105 -0.939478 -0.127046 -0.0688727 -0.477827 0.595438 -0.452723 0.00280651 0.747205 0.347893 0.243475 -0.77898 0.0419752 -0.48203 -0.365025 0.469925 0.308691 -0.517836 0.626425 -0.305118
276 0.0942979 0.761128 -0.530246 0.505536 0.187187 -0.28185 -0.0366275 -0.449927 -0.565591 0.171041 -0.346742 -0.861991 -1.04767 -1.03318 -0.160965 -0.146921 -0.502244 0.716503 -0.511378 -0.0226081 0.841248 0.415032 0.267062 -0.907628 0.0705577 -0.538863 -0.379549 0.501743 0.306529 -0.584771 0.651914 -0.346053
275 0.0918195 0.697091 -0.449565 0.291622 0.216702 -0.260063 -0.0220187 -0.460419 -0.451477 0.199886 -0.174511 -0.851716 -1.04245 -1.2278 -0.179161 -0.34824 -0.328241 0.738127 -0.447508 -0.138217 0.727488 0.377012 0.212754 -0.948062 -0.0758294 -0.520237 -0.336961 0.394245 0.367577 -0.45529 0.536049 -0.380678
130 0.819617 0.312682 -0.33775 0.0976307 0.136537 -0.14316 0.338132 0.141559 0.0352892 -0.147874 -0.701452 -0.646429 -0.289 -0.611545 -0.362221 -0.0340319 -0.145437 0.294524 0.8044 -0.262142 0.82539 -0.00112346 0.807687 -0.0435237 -0.669254 0.118621 -0.512586 0.390434 0.908412 0.230428 0.628073 -0.227888
131 0.991492 0.289235 -0.379174 0.0872895 0.128578 -0.164653 0.382827 0.165772 0.0381486 -0.152819 -0.758372 -0.703902 -0.344655 -0.716893 -0.469151 -0.0439263 -0.197508 0.429416 0.97377 -0.270542 0.910738 -0.0462519 0.908578 -0.063039 -0.781949 0.0890317 -0.593246 0.479863 1.11043 0.230758 0.751921 -0.238649
132 1.04829 0.137054 -0.428862 0.0692728 0.00933954 -0.0182844 0.323386 0.201233 -0.036845 -0.149832 -0.724497 -0.808993 -0.32383 -0.721215 -0.398537 -0.0535725 -0.21358 0.401658 1.24636 -0.241454 0.964077 -0.0511568 0.947719 -0.289871 -0.696917 -0.0713522 -0.451449 0.437963 1.18888 0.0828057 0.819087 -0.315389
134 0.995807 0.0827285 -0.407829 0.0191154 -0.0363433 -0.0136689 0.252884 0.175998 -0.110244 -0.132226 -0.694789 -0.769457 -0.298132 -0.73813 -0.377422 -0.0425584 -0.236345 0.383083 1.26259 -0.182445 0.932115 -0.0699073 0.880326 -0.268884 -0.619059 -0.111845 -0.333725 0.424759 1.17064 0.0346331 0.808887 -0.249836
133 0.947994 0.0725505 -0.398533 0.0177964 -0.00866078 -0.0146746 0.268315 0.199827 -0.0804022 -0.133921 -0.683282 -0.727839 -0.309985 -0.646289 -0.386825 -0.0692716 -0.199531 0.368838 1.1874 -0.181318 0.866613 -0.0369996 0.818583 -0.257633 -0.571326 -0.0872858 -0.346898 0.390977 1.07774 0.0216702 0.731748 -0.264444
135 0.867818 -0.130727 -0.323258 -0.0262237 -0.282499 0.0920912 0.165456 -0.00502353 -0.339693 -0.118007 -0.602882 -0.671457 -0.266356 -0.773011 -0.201361 -0.135719 -0.158429 0.208542 1.341 -0.0600192 0.94119 -0.0527061 0.787525 -0.426073 -0.295944 -0.282418 -0.1016 0.457405 1.14118 -0.183741 0.853396 -0.176515
137 0.714108 -0.16296 -0.321623 -0.0589925 -0.466304 0.184724 0.122335 -0.277948 -0.521112 -0.116686 -0.574866 -0.532159 -0.237317 -0.838138 -0.115721 -0.144035 -0.103798 0.0450907 1.34208 0.0487633 0.963547 -0.00418398 0.680882 -0.501124 -0.0818575 -0.418789 0.0744443 0.509483 1.0737 -0.322011 0.952117 -0.0862292
89 0.104153 0.814233 -0.440877 1.26725 0.115145 0.367814 -0.511408 -0.267905 0.0493642 -0.192838 -0.524093 0.131675 -1.16217 -0.448716 -0.13217 0.00279199 0.326292 0.109111 0.182778 -0.538144 0.652275 0.624125 -0.15799 -0.60719 0.0209345 -0.273178 -0.432747 0.33004 0.288378 -0.221745 0.406741 -0.58408
90 0.122808 0.836973 -0.323544 1.26209 0.273443 0.467067 -0.66534 -0.297105 0.0577147 -0.146676 -0.496302 0.109622 -1.18463 -0.41075 -0.0738956 -0.132528 0.288072 0.107755 0.376002 -0.52029 0.791086 0.708317 -0.141196 -0.576591 0.100611 -0.377197 -0.42436 0.398067 0.283515 -0.326084 0.255238 -0.588635
92 0.16306 0.787962 -0.30084 1.33788 0.317172 0.517207 -0.736482 -0.332179 0.120292 -0.160091 -0.52309 0.145909 -1.28745 -0.388089 -0.0692298 -0.318484 0.198411 0.130098 0.484933 -0.543391 0.915179 0.783579 -0.12535 -0.666215 0.0936003 -0.448484 -0.476604 0.417424 0.244534 -0.366746 0.205381 -0.638564
91 0.140607 0.696485 -0.295098 1.14917 0.229343 0.505066 -0.558139 -0.333345 0.0391289 -0.118897 -0.469767 0.0727591 -1.04263 -0.352916 -0.103631 -0.19396 0.199348 0.0724041 0.358321 -0.428077 0.715445 0.63492 -0.121863 -0.497791 0.0967236 -0.357811 -0.345964 0.288859 0.174216 -0.277729 0.177034 -0.483774
93 0.261341 0.59976 -0.10534 1.32168 0.274997 0.586904 -0.760582 -0.428811 0.315128 -0.0656096 -0.483471 0.26604 -1.25251 -0.326294 -0.209986 -0.537945 -0.0390216 0.0783076 0.599461 -0.49184 0.97663 0.695402 -0.114643 -0.695039 -0.0273574 -0.496222 -0.538644 0.476418 0.164804 -0.396858 0.216337 -0.675482
94 0.250091 0.456291 -0.0762378 1.17435 0.190517 0.503106 -0.576891 -0.474059 0.329297 -0.0176139 -0.481603 0.269869 -1.06696 -0.240622 -0.254742 -0.588094 -0.208387 0.0577178 0.485372 -0.372261 0.853976 0.507929 -0.0743536 -0.579435 -0.0876041 -0.438265 -0.487531 0.462727 0.0969467 -0.403124 0.180485 -0.584182
95 0.298873 0.502198 -0.0638215 1.30539 0.17559 0.610123 -0.626796 -0.593905 0.373562 -0.0128519 -0.541051 0.32077 -1.253 -0.348391 -0.297692 -0.672182 -0.20867 0.071951 0.628355 -0.43546 0.999432 0.585635 -0.0768159 -0.662852 -0.145695 -0.513984 -0.559427 0.546017 0.104256 -0.432598 0.268478 -0.645365
96 0.273852 0.460748 -0.0215288 1.3874 0.0336916 0.621359 -0.550142 -0.881331 0.459105 0.0490721 -0.673137 0.307312 -1.21375 -0.27493 -0.514885 -0.75915 -0.421375 0.0623248 0.608972 -0.374521 0.968374 0.4657 0.0471817 -0.530803 -0.35082 -0.547759 -0.5467 0.614067 0.00967582 -0.438154 0.297045 -0.618117
148 0.295116 0.09568 -0.253317 0.431679 -0.435067 0.504369 0.226587 -0.094622 -0.618091 0.332955 -0.60014 0.202432 -0.875427 -0.443349 -0.142511 0.0987456 -0.229136 -0.113375 0.68799 0.277412 0.98007 0.506346 0.0836596 -0.289242 -0.392597 -0.440026 -0.504972 0.172826 0.460663 0.35158 0.058274 -0.0627836
149 0.332456 0.0881929 -0.255094 0.460356 -0.434257 0.623338 0.293537 -0.0808363 -0.727363 0.45689 -0.771467 0.340347 -1.10057 -0.560614 -0.0660603 0.0878565 -0.355705 -0.140508 0.72074 0.260211 1.07424 0.602618 0.12203 -0.26699 -0.531351 -0.574272 -0.631052 0.385525 0.507843 0.47732 -0.0550608 -0.0385532
147 0.348591 0.0238771 -0.309784 0.487507 -0.683066 0.459462 0.221583 -0.168291 -0.834494 0.434852 -0.558016 0.202559 -0.847608 -0.45376 -0.145308 0.102728 -0.148015 -0.178731 0.792562 0.486955 1.14875 0.490287 0.122148 -0.39192 -0.309458 -0.469436 -0.458701 0.0666717 0.654347 0.201884 0.129497 -0.089307
146 0.270649 0.0133947 -0.240507 0.448449 -0.905108 0.193023 0.142066 -0.333554 -0.863118 0.353075 -0.320531 0.0561661 -0.668175 -0.547559 -0.234589 0.0931599 0.0897614 -0.197729 0.83885 0.5776 1.20446 0.376915 0.0977252 -0.683369 0.0026615 -0.568602 -0.283453 0.0563807 0.871084 -0.177637 0.590669 -0.134377
144 0.234639 -0.0604681 -0.239009 0.429074 -1.03968 0.11147 0.125734 -0.415892 -0.932123 0.297003 -0.301029 0.0349997 -0.669023 -0.645587 -0.284399 0.181001 0.179337 -0.276064 0.998649 0.627566 1.36342 0.385775 0.0824683 -0.812859 0.161379 -0.702063 -0.267394 0.117263 0.977919 -0.314503 0.802396 -0.146205
60 -0.748447 0.790479 0.578807 0.500613 -0.197698 -0.397446 0.0580423 -0.0695788 0.444591 0.6635 -0.0596214 -0.440783 -1.00575 -0.65162 -0.700033 0.311432 0.567724 0.10493 1.04761 0.0996857 1.05923 0.0917432 -0.329302 -0.0342456 0.0302082 -0.60084 -0.870364 0.801418 0.0691732 0.601941 0.478142 0.41927
59 -0.674676 1.03966 0.474674 0.533671 -0.148786 -0.290656 0.0505684 -0.186552 0.194359 0.740829 -0.225166 -0.393389 -0.99421 -0.639879 -0.534038 0.351381 0.455924 0.0603772 0.892313 0.149102 1.00128 0.155528 -0.25189 0.0316704 0.141528 -0.567738 -0.741152 0.753082 -0.142091 0.611246 0.371838 0.352919
57 -0.693422 1.35767 0.386667 0.636821 -0.166687 -0.15561 0.00535128 -0.365147 -0.0518786 0.807236 -0.369009 -0.265195 -1.06976 -0.708253 -0.387505 0.354789 0.355799 0.0514554 0.787776 0.153783 0.948581 0.201009 -0.153603 0.0701848 0.277026 -0.542078 -0.610461 0.756463 -0.337472 0.623999 0.316799 0.285346
50 0.0100452 0.884229 -0.526357 0.676101 -0.340227 0.391605 0.021499 -0.685191 -0.538295 0.593245 -0.247348 0.538802 -1.06118 -0.916785 -0.603118 0.241692 0.0129521 0.394182 0.261596 -0.162134 0.651545 -0.0130871 -0.301058 0.110648 0.446625 -0.491039 -0.71695 0.542838 -0.185842 -0.0488298 0.766639 0.268347
49 0.0473307 0.790393 -0.526899 0.670334 -0.356262 0.403692 -0.00215187 -0.626939 -0.491134 0.543918 -0.195188 0.581204 -0.975195 -0.865627 -0.61534 0.193587 -0.0056703 0.388938 0.201909 -0.139734 0.580328 -0.0529273 -0.336454 0.171228 0.471877 -0.464562 -0.707107 0.466151 -0.181256 -0.104227 0.724601 0.254628
48 0.107004 0.883564 -0.655763 0.727618 -0.414033 0.436273 0.0132529 -0.755115 -0.581247 0.578324 -0.20101 0.702434 -1.07432 -1.04196 -0.710444 0.210408 -0.00860401 0.465392 0.247196 -0.227044 0.642695 -0.0536982 -0.402476 0.18181 0.510384 -0.486534 -0.779559 0.559537 -0.161277 -0.150442 0.859863 0.296323
22 0.164394 0.144431 -0.0763163 0.072698 -0.208824 -0.260326 0.155413 0.127831 -0.280228 -0.188036 -0.186857 0.0624063 -1.03484 -0.845292 -0.159697 -0.141894 0.176837 0.441129 0.673413 -0.14749 0.392407 0.478402 0.354521 -0.259534 -0.00327066 -0.353478 -0.484589 0.426601 0.301038 -0.357771 0.912452 0.30107
23 0.220577 0.251829 -0.0191623 0.110772 -0.353552 -0.269817 0.311652 0.204853 -0.29756 -0.295449 -0.201547 0.143946 -1.20676 -0.967251 -0.142287 -0.187101 0.271266 0.611231 0.694546 -0.16593 0.322555 0.513279 0.430835 -0.148626 0.105372 -0.304113 -0.558794 0.518376 0.407988 -0.543906 1.1199 0.450259
21 0.241546 0.0731789 -0.0586579 -0.0563008 -0.253113 -0.498381 0.175555 0.343356 -0.397768 -0.273894 -0.0853601 0.102793 -1.25223 -1.02152 -0.119626 -0.311361 0.309186 0.620552 0.870586 -0.185947 0.437188 0.654417 0.531183 -0.29408 0.0888373 -0.417518 -0.62398 0.503644 0.319507 -0.570557 1.17875 0.501105
20 0.260095 -0.0670784 -0.132286 -0.216815 -0.198055 -0.738337 0.10942 0.480681 -0.535213 -0.296139 0.119234 0.0752646 -1.3568 -1.09498 -0.0921173 -0.461432 0.347276 0.686767 1.06637 -0.196987 0.529924 0.772163 0.659651 -0.404559 0.0807706 -0.504277 -0.680249 0.502884 0.324905 -0.689611 1.27986 0.536275
18 0.26678 -0.0068444 -0.0896437 -0.150656 -0.18011 -0.747163 0.0430815 0.428192 -0.490552 -0.369418 0.075494 0.0511772 -1.4242 -1.19755 -0.0906392 -0.388817 0.346478 0.630765 1.15255 -0.228249 0.475792 0.837373 0.63745 -0.489935 0.0656551 -0.580655 -0.769651 0.451809 0.308879 -0.635743 1.32208 0.511746
17 0.246396 0.0137017 -0.0266187 0.0338315 -0.0806324 -0.784345 0.0153774 0.21908 -0.447727 -0.428894 0.125499 -0.0945164 -1.30388 -1.19741 -0.0156325 -0.394375 0.281927 0.423321 1.07769 -0.209442 0.263653 0.751052 0.578537 -0.488022 0.0244486 -0.614249 -0.749013 0.200033 0.331838 -0.442288 1.186 0.470702
186 0.0856137 0.486578 -0.0645368 0.402419 0.129192 0.466352 0.612507 0.0127431 0.29867 -0.04714 -0.994408 -0.303369 -1.32253 -0.574175 -0.49227 0.28035 0.230428 0.0801681 0.419927 -0.4844 0.854546 0.393589 0.349567 -0.604531 0.416815 -0.428915 0.281059 0.0840623 -0.208216 0.159826 0.294951 -0.398106
188 -0.0856021 0.546509 0.0659326 0.24533 0.260651 0.375603 0.652566 0.0396613 0.303906 -0.0521996 -1.14708 -0.241647 -1.19291 -0.594726 -0.531725 0.3171 0.211464 0.300618 0.585312 -0.449818 0.728414 0.312253 0.420347 -0.526606 0.250058 -0.501744 0.0814151 0.231335 -0.256746 -0.0729112 0.108859 -0.440703
187 -0.0172458 0.533362 0.0104172 0.270762 0.169466 0.408008 0.525049 0.00381522 0.252047 -0.0409413 -0.958394 -0.190868 -1.06008 -0.545556 -0.492996 0.295869 0.158332 0.184773 0.468881 -0.390637 0.671604 0.306967 0.371071 -0.453597 0.298281 -0.430966 0.160713 0.162107 -0.19973 0.0075966 0.18184 -0.374844
189 -0.228908 0.598753 0.22611 0.0801138 0.376873 0.386091 0.753187 0.127952 0.286713 -0.0828026 -1.31885 -0.232424 -1.20478 -0.651332 -0.605064 0.288366 0.192506 0.415249 0.739105 -0.401617 0.642056 0.241324 0.533174 -0.478542 0.125541 -0.550629 -0.096915 0.363121 -0.333434 -0.193864 -0.0046003 -0.528654
68 -0.187342 0.348838 0.509706 -0.193818 0.0745068 0.715823 -0.0503498 -0.515899 0.358018 0.829729 -0.361873 -0.0978359 -0.780889 -0.886224 -0.787157 -0.0264956 0.400271 -0.0237816 0.404252 -0.569066 0.302234 0.276539 0.0200206 -0.928066 0.221167 -0.2963 -0.528544 0.307718 0.372372 0.634422 0.910581 0.238672
66 -0.299709 0.225702 0.6028 -0.0973535 -0.0192988 0.43011 -0.0372061 -0.300193 0.479844 0.807944 -0.108906 -0.231899 -0.784742 -0.6863 -0.895662 0.0326155 0.516065 0.0399177 0.569972 -0.448086 0.462309 0.182684 -0.0729445 -0.754458 0.163487 -0.304431 -0.678757 0.352727 0.394417 0.62437 0.777614 0.388524
67 -0.218646 0.259738 0.460578 -0.04438 0.0105136 0.473335 -0.00485116 -0.348798 0.387044 0.719288 -0.15729 -0.173727 -0.704086 -0.635486 -0.74028 0.0364055 0.420802 0.0100748 0.450882 -0.416303 0.373686 0.171317 -0.0677795 -0.684981 0.14921 -0.262841 -0.516327 0.279992 0.342127 0.580443 0.669337 0.277691
169 0.0828613 0.328558 -0.507032 0.198903 -0.467402 -0.0141003 0.81751 -0.980116 -0.643619 -0.0942388 -0.805157 -0.388103 -0.616561 -0.430739 -0.730788 0.223922 0.231261 0.0147544 0.272599 -0.0204569 0.486144 0.998047 -0.0103608 -1.11101 -0.764039 -1.12498 -0.797725 -0.0217517 -0.0446675 0.21861 0.49195 0.33552
175 0.243273 0.135999 -0.750333 0.243862 -0.29234 0.389561 0.919011 -0.815904 -0.0927893 -0.0283703 -0.594041 -0.562079 -1.03562 -0.821078 -0.559819 0.134044 0.402125 -0.343835 0.368237 -0.198659 0.623597 0.510338 -0.0700001 -0.826654 -0.546759 -0.430749 -0.178757 -0.24902 -0.101326 0.122841 0.496081 -0.200018
176 0.27093 0.155333 -0.863823 0.279906 -0.335151 0.419679 1.02045 -0.874032 -0.0723257 -0.0410391 -0.622211 -0.645132 -1.22444 -0.928379 -0.578821 0.094195 0.459564 -0.380418 0.337159 -0.287281 0.711361 0.547867 -0.0911799 -0.938032 -0.531424 -0.412577 -0.132568 -0.303888 -0.0987521 0.14299 0.567102 -0.254438
174 0.254304 0.155226 -0.919883 0.245765 -0.388018 0.35857 1.04754 -1.0339 -0.150365 -0.0570479 -0.647315 -0.614135 -1.1429 -0.99874 -0.64005 0.162995 0.460297 -0.334055 0.450941 -0.206554 0.700517 0.62589 -0.0720127 -0.976644 -0.710844 -0.53078 -0.328041 -0.252114 -0.0942156 0.0445049 0.550402 -0.17218
173 0.198699 0.106444 -0.768653 0.200973 -0.32525 0.242536 0.956506 -0.971125 -0.23092 -0.0153814 -0.69363 -0.528618 -0.960544 -0.810273 -0.618863 0.159865 0.362393 -0.238681 0.341793 -0.154377 0.602555 0.681429 -0.0660754 -0.97868 -0.715287 -0.678289 -0.440199 -0.182671 -0.103478 0.111526 0.512534 -0.0282758
172 0.163009 0.136552 -0.569065 0.158268 -0.318123 0.138605 0.793297 -0.796772 -0.308484 -0.0397659 -0.631466 -0.406578 -0.686042 -0.527691 -0.573802 0.153273 0.254249 -0.137139 0.280212 -0.0875727 0.466964 0.673578 -0.024058 -0.90004 -0.63181 -0.736709 -0.429378 -0.160196 -0.0777496 0.162344 0.396914 0.0779169
171 0.150478 0.210796 -0.662361 0.192216 -0.410931 0.100866 0.904608 -0.984224 -0.45317 -0.0278256 -0.728989 -0.423472 -0.806813 -0.641698 -0.695495 0.174048 0.277612 -0.120963 0.321633 -0.100686 0.511356 0.831549 -0.0285123 -1.06163 -0.736016 -0.904522 -0.553239 -0.107336 -0.0486917 0.105636 0.458452 0.186506
129 0.846496 0.333519 -0.336032 0.0812306 0.184846 -0.209411 0.377828 0.117218 0.005847 -0.141129 -0.763786 -0.63447 -0.45148 -0.781866 -0.43253 -0.0338366 -0.124762 0.402487 0.837553 -0.319787 0.971019 0.0431558 0.852098 0.0188207 -0.767666 0.139741 -0.676635 0.549787 0.990959 0.336315 0.755369 -0.235112
16 0.21119 0.0719131 0.0108572 0.0905394 -0.0505485 -0.711423 -0.0177005 0.110736 -0.339359 -0.379351 0.134656 -0.108026 -1.09587 -1.05111 0.0247789 -0.341986 0.254281 0.338626 0.910826 -0.214161 0.127662 0.624658 0.471931 -0.417933 0.00313981 -0.523388 -0.664319 0.100238 0.269418 -0.379989 1.00931 0.398304
15 0.225369 0.0904602 0.0629024 0.1944 -0.0228445 -0.743579 -0.0841193 -0.00310486 -0.309785 -0.45695 0.151539 -0.211249 -1.17008 -1.26761 -0.0159464 -0.32186 0.300218 0.285742 0.99807 -0.230819 0.121419 0.611199 0.437047 -0.510449 -0.0769316 -0.599778 -0.766545 0.00242112 0.306086 -0.310107 1.103 0.362969
14 0.136393 0.179598 0.270369 0.437249 0.099654 -0.750139 -0.170747 -0.332434 -0.133735 -0.550553 0.143187 -0.462383 -1.20968 -1.45418 -0.0213837 -0.229046 0.301963 0.0637223 0.948104 -0.32661 -0.191303 0.543231 0.186792 -0.606954 -0.217807 -0.775303 -0.864845 -0.238784 0.338774 0.0397347 1.06267 0.25685
12 0.116714 0.254423 0.293424 0.533414 0.153009 -0.609099 -0.178882 -0.513916 0.0242626 -0.515714 0.030352 -0.529001 -1.19983 -1.52733 -0.110605 -0.108698 0.255466 -0.0930338 0.879201 -0.371919 -0.196586 0.416254 0.035545 -0.624644 -0.367525 -0.755331 -0.905773 -0.30971 0.380195 0.265728 0.94354 0.135362
13 0.0792563 0.206126 0.303897 0.478355 0.165573 -0.587842 -0.173856 -0.417041 -0.0325691 -0.511642 0.0627883 -0.487022 -1.06959 -1.34465 -0.0723213 -0.134985 0.239723 0.00544918 0.79502 -0.301092 -0.216336 0.400932 0.054142 -0.536771 -0.277541 -0.699402 -0.833852 -0.282109 0.30215 0.189925 0.869021 0.126061
209 -0.527491 0.796336 -0.299144 -0.00563003 -0.401183 0.393998 0.118031 -0.459378 -0.35272 -0.283994 -0.612443 -0.0152281 -0.770243 -0.454347 0.24176 0.143357 -0.396544 0.673487 1.09269 0.056969 0.476151 -0.0851043 0.00975508 -0.675246 0.0853731 -0.434675 0.0596706 0.301851 0.685522 0.382018 0.821962 -0.306165
207 -0.603441 0.625635 -0.217192 -0.0541703 -0.364035 0.357552 0.118803 -0.522702 -0.273365 -0.38557 -0.58128 0.0266395 -0.978125 -0.350302 0.360424 0.337971 -0.407612 0.702443 1.1734 -0.107887 0.565088 -0.0239154 -0.0441253 -0.646555 0.0229475 -0.507336 0.155572 0.40968 0.776386 0.532365 0.845046 -0.28377
206 -0.624414 0.405858 -0.104113 -0.132848 -0.300031 0.280186 0.0984165 -0.499951 -0.121118 -0.520679 -0.522524 0.126327 -1.17307 -0.278458 0.381299 0.489163 -0.396426 0.735787 1.20304 -0.299795 0.613702 0.0561386 -0.0747727 -0.595334 -0.0290014 -0.544445 0.207087 0.48315 0.838812 0.617297 0.83844 -0.293191
208 -0.460278 0.626399 -0.1842 -0.00845287 -0.327039 0.348742 0.111672 -0.446492 -0.298664 -0.320864 -0.500986 -0.0245887 -0.810493 -0.355085 0.258575 0.257771 -0.330373 0.562391 1.00714 -0.00210699 0.494833 -0.0369633 -0.0131272 -0.561575 0.0760517 -0.434857 0.0912177 0.305429 0.656964 0.401658 0.733975 -0.257683
24 0.290635 0.517788 0.157089 0.43055 -0.422218 0.0753937 0.503304 0.0501612 -0.108786 -0.294317 -0.395788 0.151059 -1.16706 -0.798606 -0.242966 0.0711503 0.217326 0.58771 0.41437 -0.119311 0.177859 0.345201 0.277498 0.0835779 0.10665 -0.180297 -0.558064 0.491691 0.493342 -0.407322 1.12028 0.418774
26 0.355216 0.651784 0.26266 0.51484 -0.50135 0.179842 0.661687 0.030535 -0.073592 -0.340863 -0.479437 0.0751408 -1.19056 -0.660532 -0.243123 0.174841 0.114428 0.592261 0.281233 -0.00269079 0.163522 0.306117 0.257034 0.163995 0.0934522 -0.244346 -0.54237 0.546832 0.560782 -0.409586 1.11443 0.37965
177 0.256182 0.134799 -0.696267 0.370775 -0.24162 0.459677 0.876027 -0.586812 -0.0903704 -0.0359522 -0.566624 -0.563977 -1.3638 -0.814788 -0.556164 0.0540111 0.456823 -0.413715 0.196895 -0.397893 0.672035 0.410354 -0.101194 -0.790204 -0.229354 -0.297733 0.148885 -0.263431 -0.0696652 0.234776 0.564495 -0.239484
178 0.270993 0.181857 -0.526299 0.430074 -0.14248 0.456617 0.612521 -0.338037 -0.0342521 -0.0313969 -0.520645 -0.464743 -1.39218 -0.790574 -0.480655 0.0394404 0.385658 -0.293395 0.187776 -0.438873 0.71597 0.355973 -0.066793 -0.733256 -0.0339379 -0.223677 0.23113 -0.115842 0.00466717 0.274182 0.606701 -0.290512
179 0.334743 0.200739 -0.613324 0.542543 -0.175056 0.542636 0.698456 -0.299463 -0.0150108 0.0226384 -0.60177 -0.528978 -1.73397 -0.934894 -0.564464 -0.00823344 0.445184 -0.370531 0.194186 -0.574534 0.900612 0.412924 -0.0635328 -0.851336 0.0819912 -0.287973 0.326911 -0.119126 0.0469634 0.364875 0.774949 -0.373179
122 0.0430828 -0.0401174 0.2251 0.114433 0.0840851 -0.483265 0.0133342 -0.610712 -0.351492 -0.00537368 -0.293914 0.00574306 -1.40492 -1.19095 -0.114615 -0.177991 0.232555 0.590069 0.336686 0.039794 0.673395 -0.027435 0.273211 0.567356 -0.435885 0.208716 -0.518943 1.06532 0.451554 1.01548 1.00322 -0.235634
120 0.0271747 -0.202927 0.403433 0.139654 0.112155 -0.515978 -0.0659192 -0.537805 -0.361177 0.0153008 -0.246242 -0.102748 -1.47067 -1.24689 -0.0507824 -0.157564 0.197597 0.648075 0.32617 0.0595705 0.68669 -0.0316077 0.291841 0.631886 -0.482691 0.139113 -0.591502 1.15706 0.524161 1.04795 1.09359 -0.237484
121 0.00490021 -0.121163 0.283156 0.104772 0.102026 -0.447311 -0.0775899 -0.506612 -0.305827 -0.00862809 -0.186837 -0.0519241 -1.26019 -1.04715 -0.0331232 -0.163617 0.173854 0.542854 0.30861 0.0809086 0.557168 -0.0565316 0.23709 0.549637 -0.431336 0.148883 -0.465937 0.952094 0.41342 0.92447 0.932992 -0.192921
204 -0.652889 0.207522 -0.0494925 -0.215029 -0.197157 0.154924 0.0505821 -0.536841 -0.0308338 -0.551639 -0.499077 0.162516 -1.19725 -0.140125 0.459657 0.618439 -0.443435 0.769732 1.16394 -0.452564 0.574341 -0.0168718 -0.0362496 -0.529986 -0.109465 -0.604596 0.251573 0.514549 0.779172 0.60593 0.708654 -0.246617
32 0.555523 0.83522 0.327851 0.500715 -0.385442 0.414663 0.864448 -0.182241 -0.0216494 0.0270911 -0.887888 -0.238674 -1.03624 -0.198506 -0.383315 0.425907 -0.558509 0.462238 -0.141856 0.222298 0.77252 0.237497 -0.0541788 -0.0255 -0.145704 -0.701317 -0.368141 0.815639 0.80144 0.154451 0.716324 -0.121597
33 0.727592 0.784932 0.125981 0.528372 -0.473576 0.456028 0.920229 -0.166576 -2.23662e-05 0.0912477 -0.901514 -0.00791478 -0.944398 -0.288164 -0.280129 0.31864 -0.682737 0.609218 -0.333153 0.00929552 0.921753 0.17546 -0.173194 -0.129814 -0.229666 -0.698657 -0.286413 0.876566 0.819038 0.00831775 0.667706 0.123322
35 0.704352 0.721682 0.00350612 0.511509 -0.45602 0.424741 0.83474 -0.194569 0.00108644 0.125442 -0.8299 0.124334 -0.824141 -0.410727 -0.237723 0.272964 -0.608287 0.625371 -0.289979 -0.128276 0.902298 0.162889 -0.25112 -0.194856 -0.184308 -0.567594 -0.250999 0.782477 0.766116 -0.0654816 0.669004 0.282327
34 0.62164 0.656147 0.118286 0.406577 -0.404491 0.364523 0.785549 -0.157583 -0.0301382 0.0764775 -0.816593 -0.0898709 -0.850205 -0.263518 -0.280442 0.306167 -0.60863 0.536863 -0.282398 0.0138384 0.830188 0.16747 -0.175229 -0.157133 -0.185122 -0.64392 -0.218867 0.758563 0.802034 0.0662003 0.629875 0.0331035
258 -0.146413 0.168459 -0.583026 -0.222087 -0.328181 -0.345242 0.00563657 0.175656 0.362148 0.309005 -0.0621421 0.6386 -1.23886 -0.564927 -0.393093 0.0295692 -0.212576 0.20566 0.929776 -0.520152 0.418562 -0.0905636 -0.0695509 -0.877029 -0.854498 -0.200941 0.184383 1.06077 0.384973 0.512517 0.33013 -0.0907403
257 -0.139047 0.453569 -0.660639 -0.0458249 -0.541527 -0.367507 0.00230645 0.139992 0.432027 0.199681 -0.138426 0.719924 -1.46571 -0.518353 -0.462593 0.0526902 -0.284957 -0.0185281 1.04015 -0.550447 0.38864 -0.0656478 0.0426536 -0.795807 -0.921058 -0.154872 0.330395 1.11106 0.498092 0.659139 0.313644 0.00849371
255 -0.114243 0.560862 -0.612161 0.0619868 -0.616183 -0.31849 -0.0364274 0.155794 0.449491 0.161327 -0.0951751 0.689539 -1.53908 -0.511234 -0.514431 0.093149 -0.28384 -0.179177 1.03718 -0.525387 0.372089 -0.102596 0.128748 -0.768788 -0.88218 -0.173991 0.330838 1.17891 0.560087 0.669059 0.388159 0.0240812
256 -0.101927 0.483717 -0.553064 0.00540409 -0.531113 -0.333508 -0.0276881 0.174367 0.413733 0.20241 -0.126341 0.642808 -1.34228 -0.452416 -0.452 0.0706205 -0.251833 -0.0992714 0.930533 -0.482617 0.331333 -0.0687112 0.0851462 -0.669982 -0.802093 -0.131123 0.311915 1.00343 0.477669 0.603132 0.272797 0.0391567
254 -0.0829193 0.67458 -0.606133 0.123684 -0.624156 -0.146698 0.044081 0.174552 0.340005 0.0512423 0.123022 0.709278 -1.60413 -0.554655 -0.57117 0.0902427 -0.371255 -0.35749 0.926951 -0.560519 0.318713 -0.127453 0.188257 -0.629595 -0.789037 -0.218001 0.319588 1.23917 0.560112 0.631917 0.559251 0.0561677
253 -0.0627733 0.570907 -0.542082 0.109032 -0.581693 -0.0585819 0.0330146 0.0945815 0.279182 0.00974467 0.108075 0.582767 -1.31634 -0.425345 -0.423998 0.101723 -0.315758 -0.316151 0.762105 -0.461834 0.220141 -0.1482 0.175391 -0.505819 -0.646016 -0.16671 0.266078 1.02877 0.475417 0.546522 0.420014 0.105278
145 0.226171 -0.0790684 -0.226113 0.379378 -0.904683 0.164755 0.172051 -0.31592 -0.834596 0.307599 -0.273025 0.0858383 -0.628277 -0.513903 -0.239466 0.100113 0.125224 -0.199618 0.841475 0.553592 1.22229 0.362504 0.0716699 -0.693737 0.0783011 -0.565187 -0.26151 0.0666277 0.826768 -0.244318 0.598752 -0.122995
241 0.193071 0.121945 0.385759 -0.184194 -0.290756 0.142236 0.0284369 0.175048 -0.294836 -0.306861 -0.117961 -0.092598 -0.750765 -0.77902 -0.955769 0.488313 -0.00363071 -0.143526 0.241518 -0.435353 0.589072 0.405551 -0.493191 -0.0902368 -0.100026 -0.0997334 -0.187852 0.494341 0.0495862 0.0841199 0.85232 -0.544138
19 0.266195 -0.0659248 -0.079996 -0.210348 -0.164843 -0.742088 0.0668219 0.433855 -0.479288 -0.319343 0.0880164 0.00572778 -1.31109 -1.0925 -0.0733555 -0.412436 0.323595 0.630295 1.07279 -0.20585 0.467213 0.778888 0.586225 -0.43646 0.0939697 -0.532465 -0.673579 0.444831 0.330797 -0.618815 1.25005 0.496375
211 -0.503732 1.05004 -0.52975 0.0432045 -0.537583 0.425735 0.17916 -0.352049 -0.542326 0.00105939 -0.77241 -0.0734227 -0.490577 -0.742629 0.0676999 -0.0740188 -0.495621 0.769613 1.10625 0.297447 0.371275 -0.308419 0.082485 -0.817822 0.0883169 -0.535718 0.0161059 0.268634 0.710136 0.198648 0.875795 -0.471633
107 -0.285053 -0.597633 -0.225623 0.365818 0.29917 0.711998 -0.490369 -0.642799 0.0115881 0.0126082 -0.797118 -0.350206 -1.2207 -1.15841 -0.652627 0.108201 0.159318 0.561437 0.635349 -0.0468659 0.800191 0.0802336 -0.394088 0.0184951 -0.00594172 -0.13076 0.589888 0.860844 0.168001 -0.461967 0.611767 -0.377848
8 0.121903 0.567431 0.232156 0.783282 0.07533 0.102875 -0.345255 -1.25375 0.194332 -0.0841906 -0.167674 -0.524903 -0.851184 -1.50864 -0.247834 0.447762 0.134448 -0.259225 0.654841 -0.440644 -0.101701 0.115776 -0.273944 -0.694133 -0.594296 -0.721326 -1.00789 -0.0488308 0.529159 0.538503 0.798277 -0.191153
6 0.160168 0.518544 0.0607325 0.760089 0.0578154 0.0691237 -0.380773 -1.24258 0.0986932 0.0207782 -0.119781 -0.400975 -0.616953 -1.33763 -0.238739 0.58286 0.0897963 -0.192612 0.629679 -0.357122 -0.0116922 0.0673582 -0.184836 -0.66932 -0.586704 -0.703694 -1.00155 0.032093 0.530909 0.451553 0.793708 -0.129033
7 0.138723 0.460834 0.147361 0.662902 0.0515031 0.101937 -0.28924 -1.05986 0.113394 -0.0245831 -0.138312 -0.416158 -0.615055 -1.17856 -0.183317 0.395517 0.0844054 -0.175768 0.512045 -0.331778 -0.0811038 0.0826321 -0.16976 -0.56179 -0.461114 -0.5925 -0.847792 -0.0302141 0.459221 0.405304 0.670231 -0.165294
5 0.138391 0.519949 -0.265586 0.666346 0.0260207 0.177983 -0.355236 -1.22181 -0.0546081 0.253872 -0.0753782 -0.177524 -0.293291 -1.06534 -0.259633 0.847801 0.0186177 -0.199528 0.56907 -0.226451 0.319392 -0.0475921 -0.0195247 -0.669159 -0.604124 -0.668536 -0.901133 0.288901 0.471953 0.423568 0.825287 0.0457334
4 0.103915 0.443135 -0.385331 0.526919 0.00196036 0.172026 -0.265199 -1.02969 -0.12882 0.339561 -0.10174 -0.0883661 -0.216889 -0.888318 -0.282223 0.847513 -0.0203456 -0.156897 0.53793 -0.119113 0.455408 -0.0250725 0.0512692 -0.641349 -0.543423 -0.595411 -0.759479 0.377049 0.419009 0.332373 0.747952 0.0787317
3 0.133184 0.470219 -0.538519 0.561716 -0.0117382 0.167461 -0.321381 -1.15924 -0.180947 0.435948 -0.134104 -0.0312559 -0.169292 -0.898519 -0.341386 1.07495 -0.0141162 -0.110584 0.585117 -0.073924 0.65828 -0.0168692 0.0799473 -0.741051 -0.612856 -0.641403 -0.827514 0.529934 0.463809 0.316845 0.87104 0.163178
238 0.30714 0.103234 0.56536 -0.179737 -0.596598 0.324755 -0.0637447 -0.00562449 -0.215702 -0.483993 -0.303896 -0.269377 -0.878142 -0.706961 -1.13423 0.632283 0.230049 -0.0788072 0.540939 -0.67564 0.523135 0.621122 -0.742248 -0.0274343 -0.147968 -0.0517309 -0.294639 0.709833 -0.272656 -0.0522146 1.03529 -0.624017
237 0.417231 0.126727 0.546742 -0.20602 -0.536084 0.320315 -0.133551 -0.0668413 -0.230288 -0.468811 -0.249205 -0.225198 -0.805403 -0.728791 -1.1845 0.651258 0.286868 -0.0290295 0.692186 -0.706102 0.504386 0.753702 -0.775544 -0.0725302 -0.229906 -0.143402 -0.32393 0.748566 -0.274558 -0.0972892 1.12052 -0.695231
236 0.519184 0.178382 0.410896 -0.17574 -0.328846 0.299625 -0.140473 -0.180826 -0.223106 -0.423236 -0.153698 -0.233002 -0.658696 -0.666759 -1.06684 0.701197 0.387681 -0.0143941 0.882776 -0.696016 0.38323 0.897609 -0.681653 -0.130881 -0.309471 -0.301777 -0.244882 0.666308 -0.26851 -0.18237 1.05396 -0.679172
81 0.386478 0.694495 -0.330479 0.841328 -0.361833 0.231917 -0.0183113 0.276626 0.334649 -0.269986 -0.451908 0.507093 -0.911505 -0.990849 -0.706493 0.646774 0.451782 0.187917 -0.213038 -0.427977 -0.0380226 0.223726 0.144999 -1.13078 -0.00519178 0.153283 -0.838313 0.297543 0.130813 0.361007 1.1257 -0.798607
83 0.39087 0.476705 -0.341567 0.952833 -0.355987 0.167194 -0.0713477 0.361179 0.36089 -0.273279 -0.44866 0.48563 -0.950158 -0.87804 -0.741507 0.634077 0.38196 0.1363 -0.303356 -0.525257 -0.00357011 0.274583 0.0168305 -1.11473 -0.0978231 0.104248 -0.966143 0.278416 0.277182 0.286433 1.16025 -0.74307
82 0.359686 0.523946 -0.303356 0.852587 -0.334595 0.13763 -0.0355083 0.308412 0.337212 -0.262565 -0.422768 0.467421 -0.858976 -0.845216 -0.667895 0.593643 0.364424 0.119922 -0.23666 -0.45346 2.5913e-05 0.242018 0.101178 -1.06694 -0.0300603 0.108746 -0.86451 0.281867 0.227301 0.269618 1.04616 -0.711153
160 0.0749162 -0.106918 -0.117036 0.138348 -0.127674 0.531974 -0.19649 0.513254 0.0327641 -0.240813 -0.440966 0.06007 -0.614228 -0.794665 -0.228579 -0.125433 -0.156429 -0.257415 1.06691 0.183856 1.05062 1.11645 0.15079 0.109226 -0.48457 -0.203742 -0.78068 0.532036 0.231739 0.863362 0.356452 0.0167603
159 0.0699746 -0.0158021 -0.124006 0.21112 -0.140846 0.631975 -0.255734 0.519449 0.0167819 -0.229306 -0.54083 0.100424 -0.815945 -0.965047 -0.267837 -0.15661 -0.126824 -0.312505 1.20906 0.157872 1.13371 1.18625 0.141265 0.191888 -0.541283 -0.166144 -0.855297 0.607818 0.259693 0.975391 0.396731 -0.0180649
158 0.114889 0.0155876 -0.195556 0.273205 -0.217183 0.70737 -0.214757 0.359265 -0.222788 -0.11125 -0.643494 0.121096 -0.988121 -1.02832 -0.107371 -0.145096 -0.194479 -0.375791 1.06138 0.191471 0.936851 1.03319 0.178436 0.256487 -0.592834 -0.101643 -0.825392 0.627072 0.219291 0.986735 0.26373 0.061123
161 0.086888 0.0442061 -0.142916 0.150603 -0.132217 0.540965 -0.154958 0.470094 0.0800728 -0.353074 -0.450333 0.0192347 -0.552347 -0.806809 -0.350375 -0.129918 -0.0600304 -0.0839377 1.10245 0.160494 1.16574 1.1476 0.167196 0.0557984 -0.472843 -0.319925 -0.852138 0.481669 0.226321 0.842831 0.445894 0.0244972
235 0.463585 0.208529 0.268813 -0.126836 -0.155325 0.242413 -0.129541 -0.251695 -0.175513 -0.31939 -0.0656121 -0.152404 -0.524377 -0.557932 -0.861733 0.577386 0.400001 0.0300083 0.834331 -0.54216 0.270062 0.800944 -0.515304 -0.219753 -0.269625 -0.330528 -0.162207 0.576963 -0.185725 -0.174499 0.882923 -0.588336
234 0.552624 0.22706 0.267531 -0.161129 -0.0457446 0.293187 -0.151093 -0.300152 -0.160505 -0.304742 -0.0618327 -0.115301 -0.472064 -0.589567 -0.923343 0.700066 0.545086 0.0916313 1.00936 -0.641286 0.300302 1.00958 -0.503312 -0.355445 -0.397048 -0.517948 -0.172751 0.654862 -0.180409 -0.236137 1.02928 -0.672429
269 -0.173632 -0.280139 -0.420496 -0.155939 0.198198 -0.16673 -0.193078 -0.189865 0.00690734 0.236504 0.267553 0.0396046 -0.669482 -1.22662 -0.419166 -0.418113 0.302827 0.623944 0.07343 -0.405553 0.862576 0.0762053 0.368345 -1.13974 -0.585459 -0.543043 -0.749977 0.313341 0.397755 -0.395597 0.695941 -0.728033
249 0.13414 0.631142 -0.573969 0.0679723 -0.413215 0.250482 0.19423 0.462151 -0.216845 -0.146678 0.523956 0.545247 -1.36281 -1.05208 -0.690725 0.147978 -0.445872 -0.607475 0.393611 -0.34347 0.467521 -0.215535 0.121616 -0.305397 -0.480762 -0.265709 0.175241 0.888779 0.54724 0.211195 1.01492 -0.134989
250 0.124217 0.597372 -0.570947 0.0859263 -0.443866 0.252357 0.159778 0.316422 -0.0450112 -0.136544 0.488286 0.562611 -1.25404 -0.816754 -0.582461 0.142853 -0.378515 -0.504151 0.468329 -0.351475 0.313903 -0.195961 0.138721 -0.311784 -0.440695 -0.21937 0.167413 0.880975 0.482184 0.248327 0.839585 -0.0523587
248 0.160189 0.578031 -0.424404 -0.0537718 -0.289533 0.24128 0.276383 0.639899 -0.512624 -0.1739 0.425538 0.527687 -1.227 -1.27371 -0.824697 0.243395 -0.415075 -0.653182 0.250403 -0.305114 0.669334 -0.16852 0.0141217 -0.323772 -0.38501 -0.223798 0.0581599 0.696678 0.536823 0.176774 1.11719 -0.270462
247 0.174512 0.502411 -0.328056 -0.0639502 -0.1799 0.258135 0.275741 0.563263 -0.53977 -0.138812 0.303182 0.39661 -1.03694 -1.27633 -0.815689 0.227389 -0.345563 -0.561247 0.114566 -0.254652 0.676003 -0.0972816 -0.0347236 -0.265756 -0.334673 -0.204504 -0.0187698 0.541509 0.450718 0.105591 1.05791 -0.305732
79 0.275084 0.852914 -0.237294 0.366301 -0.228999 0.381936 0.101276 0.0346492 0.189829 -0.208876 -0.270884 0.361623 -0.589045 -1.05429 -0.423038 0.380459 0.404237 0.157042 0.0386727 -0.229202 0.0464688 0.102724 0.254806 -0.873729 0.103854 0.140346 -0.381287 0.478482 -0.113488 0.29497 0.80456 -0.6512
80 0.337839 0.895125 -0.321611 0.575219 -0.312957 0.413374 0.0803664 0.165365 0.285168 -0.248121 -0.369236 0.455118 -0.732599 -1.11978 -0.52717 0.523796 0.449366 0.17847 -0.127743 -0.305761 -0.010651 0.133073 0.263598 -1.10176 0.132104 0.183857 -0.569689 0.421551 -0.0468095 0.412205 0.962044 -0.780934
11 0.0477145 0.379309 0.319426 0.713585 0.208588 -0.303811 -0.268805 -0.873867 0.170034 -0.363054 -0.0623564 -0.612164 -1.11548 -1.55017 -0.189697 0.111132 0.211877 -0.182052 0.774652 -0.406346 -0.221388 0.255974 -0.214127 -0.610441 -0.55605 -0.723173 -0.928258 -0.257101 0.413404 0.523228 0.82369 -0.135687
9 0.0955911 0.498841 0.306774 0.790325 0.185693 -0.148399 -0.318436 -1.15585 0.246322 -0.253541 -0.139517 -0.641691 -0.990962 -1.6056 -0.24183 0.30769 0.151698 -0.247454 0.691471 -0.479069 -0.257891 0.178159 -0.323488 -0.655454 -0.627868 -0.761934 -1.02785 -0.258229 0.494556 0.612201 0.795706 -0.23366
10 0.023693 0.480676 0.282143 0.702375 0.182987 -0.103063 -0.233465 -1.00667 0.243018 -0.210393 -0.158212 -0.588518 -0.980314 -1.40838 -0.227251 0.237215 0.16708 -0.273087 0.599789 -0.423656 -0.215917 0.130862 -0.3185 -0.587577 -0.529654 -0.637717 -0.831208 -0.227723 0.382651 0.63258 0.65685 -0.195891
280 0.109949 0.599939 -0.464082 0.547213 -0.0417065 -0.0160818 -0.037977 -0.433437 -0.430136 0.10238 -0.532405 -0.369687 -0.813723 -0.721739 -0.158119 0.190123 -0.377036 0.363405 -0.164102 -0.0197057 0.711555 0.250331 0.228768 -0.60285 0.0964281 -0.334649 -0.376 0.460425 0.250548 -0.449694 0.612317 -0.183516
195 -0.568895 0.177949 0.554915 -0.418993 0.294818 -0.100461 0.55563 0.233283 -0.134859 -0.198394 -1.39455 -0.26056 -1.43175 -0.536499 -0.440047 0.114133 -0.0893275 0.58832 0.858382 -0.411958 0.24564 -0.0513211 0.447324 -0.695726 -0.456766 -0.571027 -0.595151 0.639094 -0.174864 -0.236862 -0.131631 -0.588343
136 0.664009 -0.0837623 -0.281739 0.00348187 -0.340082 0.153713 0.136087 -0.147273 -0.410271 -0.0795925 -0.490018 -0.491168 -0.209618 -0.647429 -0.099267 -0.122969 -0.111683 0.0603744 1.12905 0.0104235 0.806069 -0.0221789 0.600884 -0.412836 -0.139382 -0.309684 0.000802732 0.354193 0.935835 -0.260662 0.705291 -0.053377
88 0.0592713 0.719564 -0.439646 1.15461 0.0904463 0.325699 -0.454096 -0.271965 0.0349109 -0.195377 -0.492782 0.10121 -1.06279 -0.408875 -0.121444 0.0411331 0.313065 0.113402 0.19456 -0.498499 0.610261 0.562935 -0.133119 -0.517866 -0.0141115 -0.27156 -0.359459 0.32515 0.319647 -0.20819 0.42606 -0.508323
87 0.104593 0.713369 -0.472655 1.22316 0.041765 0.300426 -0.44919 -0.148966 0.0836523 -0.246585 -0.501274 0.199264 -1.10266 -0.457058 -0.191755 0.1801 0.389795 0.0905866 0.0709055 -0.58147 0.516918 0.549444 -0.16574 -0.621973 -0.0224253 -0.177865 -0.483953 0.284437 0.350898 -0.166219 0.527912 -0.603476
69 -0.0512575 0.430461 0.44293 -0.252946 0.138464 0.966117 -0.025091 -0.637397 0.295394 0.86476 -0.473279 0.0381612 -0.8172 -1.02167 -0.754104 -0.0701062 0.371954 -0.106207 0.319411 -0.677709 0.220996 0.361912 0.111754 -1.03385 0.256896 -0.280227 -0.507306 0.369714 0.362545 0.632406 1.02882 0.129139
71 -0.0271606 0.533357 0.36183 -0.221371 0.117815 0.992462 -0.0191834 -0.658059 0.227544 0.740211 -0.555097 0.117155 -0.779101 -1.08161 -0.636849 -0.0868458 0.321338 -0.132462 0.289707 -0.625623 0.160576 0.325686 0.176012 -1.04125 0.237213 -0.261033 -0.44334 0.359583 0.293369 0.590571 0.973796 0.037919
70 -0.0152435 0.380765 0.464027 -0.294057 0.178163 0.983561 -0.0284925 -0.647088 0.240951 0.792606 -0.552706 0.0936723 -0.801443 -1.03005 -0.65157 -0.1475 0.290543 -0.144867 0.258714 -0.702008 0.121205 0.395738 0.137365 -1.03412 0.272405 -0.296287 -0.465655 0.320032 0.337423 0.603758 1.01108 0.0773163
273 0.103352 0.583301 -0.4245 0.200594 0.193912 -0.271848 -0.00746637 -0.475715 -0.353591 0.250303 -0.0505475 -0.740053 -0.938882 -1.30179 -0.184835 -0.427009 -0.210333 0.727753 -0.365018 -0.21989 0.712627 0.385851 0.234943 -0.957263 -0.131476 -0.508744 -0.404192 0.296514 0.346197 -0.47102 0.425448 -0.39667
272 0.0256442 0.332164 -0.442094 0.0730033 0.201128 -0.236506 -0.064545 -0.370068 -0.297372 0.2656 0.077461 -0.521959 -0.849905 -1.31153 -0.226444 -0.506594 -0.077718 0.725619 -0.340044 -0.263079 0.77533 0.286376 0.290171 -1.00557 -0.264791 -0.474205 -0.50274 0.255631 0.330177 -0.493912 0.414047 -0.498204
58 -0.541186 1.09297 0.34187 0.53114 -0.137973 -0.162959 0.0487778 -0.261836 0.00741612 0.663956 -0.328137 -0.272571 -0.917997 -0.584344 -0.358657 0.323407 0.32036 0.00863878 0.710163 0.128387 0.798892 0.157486 -0.173743 0.0542157 0.169025 -0.489978 -0.514412 0.617928 -0.210026 0.516898 0.265206 0.221227
97 0.253393 0.42244 -0.0696365 1.31484 -0.0551445 0.622128 -0.41368 -1.03011 0.419431 0.0886881 -0.675875 0.268229 -1.05356 -0.237579 -0.510839 -0.68655 -0.475795 0.0818165 0.538067 -0.308874 0.849432 0.319208 0.0627389 -0.456258 -0.384145 -0.485021 -0.472962 0.577802 -0.0465691 -0.432454 0.303881 -0.526172
138 0.480902 -0.189383 -0.263271 -0.0667563 -0.697077 0.242653 0.10242 -0.497378 -0.649521 -0.140582 -0.48481 -0.355907 -0.156689 -0.841376 -0.00382383 -0.112577 -0.0138453 -0.194263 1.27456 0.173015 0.961011 0.0959062 0.531876 -0.682832 0.240322 -0.610522 0.206629 0.524737 1.03288 -0.490444 1.0666 0.00360674
139 0.278885 -0.163104 -0.169602 -0.0234757 -0.645255 0.234586 0.0564748 -0.513614 -0.586216 -0.107229 -0.374533 -0.228893 -0.219979 -0.787011 0.0323805 -0.108412 -0.00974467 -0.181136 1.02357 0.16709 0.793796 0.114087 0.36883 -0.615405 0.302832 -0.578154 0.204073 0.484213 0.781629 -0.446033 0.936454 0.0131356
140 0.251551 -0.204785 -0.208478 -0.0328137 -0.84175 0.282475 0.0709397 -0.63948 -0.701472 -0.101436 -0.450506 -0.206588 -0.344479 -0.931366 -0.00567902 -0.0846728 0.0411499 -0.303426 1.21075 0.22265 1.02563 0.19156 0.371529 -0.753821 0.36581 -0.763038 0.221352 0.620895 0.906127 -0.555472 1.10922 0.0631852
218 -0.551168 1.21135 -0.332313 0.163348 -0.681987 -0.207153 -0.516872 -0.31597 0.0718028 0.890137 -1.52096 0.04516 -0.689332 -1.20474 -0.718448 0.422278 -0.357461 0.21658 0.402207 -0.130387 0.339352 -0.171082 -0.0840509 -0.498719 -0.271173 -0.225949 0.00286834 0.379381 0.975336 0.0624527 0.434119 -0.457069
219 -0.523739 1.23928 -0.275198 0.14939 -0.55183 -0.24566 -0.542355 -0.330087 0.0723036 0.802709 -1.38986 0.000210903 -0.753646 -0.979261 -0.874036 0.509919 -0.228683 0.077997 0.370948 -0.0623542 0.192424 -0.00981563 -0.0245935 -0.390273 -0.234823 -0.209949 -0.0351776 0.432605 0.96233 -0.0237274 0.255254 -0.399079
259 -0.10914 0.0436492 -0.537114 -0.294131 -0.220013 -0.271798 0.00226328 0.183088 0.253826 0.316444 -0.0365817 0.525732 -1.03241 -0.573733 -0.354757 0.00434494 -0.17719 0.313055 0.786987 -0.444765 0.398464 -0.0611165 -0.106319 -0.829866 -0.733216 -0.225953 0.0657719 0.938178 0.334634 0.407007 0.344847 -0.137027
270 -0.0825195 -0.0170201 -0.422784 -0.108001 0.165169 -0.209236 -0.139474 -0.282629 -0.101027 0.251307 0.234033 -0.1902 -0.750683 -1.26718 -0.330085 -0.497949 0.185722 0.675022 -0.10184 -0.333006 0.787387 0.168673 0.316329 -0.994821 -0.450278 -0.494736 -0.625172 0.222401 0.324619 -0.405715 0.483158 -0.585337
271 0.00393941 0.229858 -0.368623 0.0391341 0.093981 -0.125458 -0.0683951 -0.291968 -0.188319 0.193675 0.0357566 -0.257237 -0.718788 -1.03488 -0.241579 -0.31826 0.0365326 0.50447 -0.0852003 -0.251565 0.623376 0.210192 0.228822 -0.784459 -0.27971 -0.412072 -0.411701 0.215049 0.274452 -0.33952 0.38996 -0.401459
274 0.0813594 0.588382 -0.381956 0.238345 0.191954 -0.251315 0.0061363 -0.420151 -0.389309 0.205303 -0.103351 -0.75523 -0.871193 -1.14459 -0.161565 -0.370679 -0.268591 0.660895 -0.404158 -0.161278 0.641441 0.35648 0.209022 -0.843944 -0.0977903 -0.485111 -0.308901 0.305355 0.301874 -0.394281 0.41508 -0.364046
36 0.712622 0.659401 -0.243331 0.531767 -0.443914 0.449255 0.752173 -0.187231 0.0649092 0.193872 -0.787023 0.42576 -0.777045 -0.618492 -0.0885735 0.123589 -0.545228 0.695379 -0.218994 -0.308625 0.854868 0.179912 -0.255309 -0.345732 -0.265257 -0.369761 -0.192874 0.78029 0.646905 -0.237832 0.612568 0.455237
38 0.63832 0.606559 -0.510106 0.520584 -0.371344 0.459785 0.586704 -0.2145 0.125359 0.26954 -0.670307 0.67224 -0.706285 -0.856709 0.0206791 0.00849606 -0.41144 0.692039 -0.032767 -0.476666 0.799945 0.198366 -0.257547 -0.459601 -0.300192 -0.162587 -0.258223 0.754884 0.541368 -0.370709 0.607101 0.638669
37 0.583043 0.549525 -0.378385 0.487445 -0.331475 0.391949 0.553845 -0.227791 0.0897094 0.236841 -0.632982 0.534634 -0.695299 -0.762105 -0.0345233 0.0299544 -0.37823 0.634587 -0.0296726 -0.442948 0.722747 0.19559 -0.243744 -0.40974 -0.271221 -0.175148 -0.199782 0.669991 0.463465 -0.279876 0.574634 0.515992
39 0.573988 0.622409 -0.771081 0.578997 -0.29442 0.521309 0.458347 -0.302235 0.143612 0.369496 -0.598307 0.937899 -0.805938 -1.19929 0.0230874 -0.0371641 -0.284172 0.749606 0.137969 -0.718275 0.78267 0.219344 -0.283922 -0.563591 -0.287732 -0.0353337 -0.327844 0.751295 0.440357 -0.470815 0.666328 0.772164
180 0.335159 0.212239 -0.478456 0.645005 -0.0791804 0.5576 0.631913 -0.165842 0.0813648 0.034443 -0.606075 -0.615723 -1.88517 -0.89429 -0.526396 -0.0316104 0.468612 -0.366115 0.151403 -0.701575 1.02109 0.437807 -0.0256615 -0.868042 0.290367 -0.238553 0.510965 -0.14291 0.0264089 0.472891 0.819498 -0.38534
260 -0.158649 -0.186293 -0.57453 -0.445723 -0.0578638 -0.293264 -0.0203879 0.220322 0.304564 0.404174 0.0573929 0.572181 -1.01309 -0.660257 -0.373722 -0.0581369 -0.143745 0.514834 0.798761 -0.502543 0.525251 -0.085238 -0.203931 -1.04645 -0.835462 -0.318437 -0.0694316 1.0639 0.254567 0.357264 0.427772 -0.24991
232 0.450846 0.234795 0.127302 -0.227657 0.279688 0.305512 -0.0510729 -0.3852 -0.242823 -0.12147 0.0226243 0.100246 -0.312941 -0.492993 -0.751854 0.575226 0.645137 0.326813 1.18779 -0.522043 0.321483 1.19801 -0.130327 -0.5854 -0.57719 -0.898549 -0.065807 0.605136 0.00587865 -0.345762 1.06661 -0.63305
233 0.53757 0.257931 0.136763 -0.200392 0.203514 0.32302 -0.0873552 -0.412511 -0.241726 -0.203416 0.0272653 0.036757 -0.347446 -0.544101 -0.861177 0.653086 0.672301 0.285194 1.21571 -0.558263 0.314958 1.23272 -0.25787 -0.53401 -0.542168 -0.82619 -0.0540429 0.629703 -0.0249054 -0.391812 1.13023 -0.717791
252 -0.0375967 0.68342 -0.626153 0.12897 -0.588096 0.0229758 0.0715412 0.195693 0.17903 -0.0493981 0.255427 0.629799 -1.4843 -0.655138 -0.548077 0.1662 -0.392716 -0.442347 0.732218 -0.503396 0.298502 -0.174154 0.173655 -0.514294 -0.678415 -0.226666 0.244491 1.11576 0.560165 0.484446 0.688202 0.0576177
251 0.0801973 0.660846 -0.59951 0.0793474 -0.487232 0.251715 0.116168 0.336491 -0.0223478 -0.119932 0.467257 0.570049 -1.38216 -0.849132 -0.624205 0.111519 -0.402473 -0.563347 0.544901 -0.39159 0.33211 -0.212134 0.149175 -0.354376 -0.534022 -0.23131 0.197683 0.990219 0.539161 0.340471 0.870391 -0.0377301
41 0.618616 0.629155 -0.870635 0.593788 -0.336588 0.583742 0.412202 -0.424994 0.115184 0.435162 -0.512244 1.00613 -0.749245 -1.26574 -0.0542912 -0.0648024 -0.187711 0.662648 0.164291 -0.770958 0.772375 0.227313 -0.307598 -0.507058 -0.213599 -0.00315311 -0.374616 0.697714 0.348453 -0.499564 0.756965 0.77957
40 0.483553 0.535681 -0.713985 0.481145 -0.244039 0.461763 0.323961 -0.298817 0.0911982 0.373531 -0.42599 0.869009 -0.648621 -1.13881 -0.0354186 -0.0282024 -0.146313 0.624517 0.164271 -0.649296 0.652495 0.207918 -0.26171 -0.4549 -0.220724 0.00979074 -0.346558 0.616634 0.31123 -0.417571 0.666161 0.692883
225 -0.324906 0.932164 -0.374185 -0.302577 0.293759 0.14349 -0.439561 -0.218214 -0.0180096 0.527306 -0.421047 -0.0284102 -0.560351 -0.254004 -1.20557 0.404727 0.0214552 -0.0199336 1.12731 0.405028 0.118822 0.643654 0.15799 -0.650883 -0.338217 -0.534216 -0.169023 0.617448 1.00441 -0.383451 0.366263 -0.379998
224 -0.502613 1.08397 -0.371589 -0.17554 0.0608547 -0.0378742 -0.582396 -0.257789 -0.00267385 0.636483 -0.805382 -0.115983 -0.697365 -0.453698 -1.23935 0.505846 -0.103171 -0.137034 0.899647 0.337161 0.0900646 0.339094 0.13728 -0.598862 -0.242486 -0.381293 -0.129284 0.602328 1.04336 -0.296863 0.276621 -0.368622
223 -0.494622 1.01491 -0.362636 -0.138719 -0.0149949 -0.0811679 -0.512695 -0.26075 -0.00456723 0.595708 -0.808059 -0.0815512 -0.694903 -0.461969 -1.09062 0.462615 -0.149165 -0.144906 0.769788 0.279881 0.101561 0.297755 0.145343 -0.551409 -0.210985 -0.294843 -0.154771 0.562648 0.904147 -0.212903 0.263922 -0.31324
222 -0.547203 1.20011 -0.372144 -0.0909604 -0.093565 -0.109667 -0.615062 -0.267675 -0.00492992 0.681595 -0.964284 -0.0966349 -0.770275 -0.590619 -1.22536 0.482263 -0.136121 -0.139381 0.815628 0.277164 0.0819387 0.278447 0.141113 -0.549466 -0.250819 -0.325013 -0.106133 0.569856 1.03349 -0.203568 0.241036 -0.387452
43 0.454711 0.589025 -0.661138 0.47875 -0.272858 0.523657 0.26085 -0.494044 -0.0674826 0.408169 -0.319167 0.798977 -0.735037 -1.0546 -0.216703 0.0237452 -0.108255 0.443688 0.151689 -0.592273 0.639724 0.214159 -0.273958 -0.134339 0.0445964 -0.121453 -0.340799 0.517736 0.188414 -0.289679 0.679484 0.497487
42 0.58557 0.669758 -0.877937 0.588104 -0.317202 0.626178 0.341627 -0.554851 -0.0457888 0.508608 -0.408804 1.02533 -0.830376 -1.31285 -0.165127 -0.0423576 -0.138415 0.646529 0.192127 -0.781203 0.791381 0.267868 -0.382105 -0.232219 0.0239146 -0.114305 -0.388458 0.632788 0.274274 -0.498125 0.831089 0.737564
44 0.541192 0.723576 -0.845454 0.59772 -0.359863 0.656005 0.273382 -0.676443 -0.149572 0.551505 -0.302401 0.978147 -0.870069 -1.3095 -0.317875 0.0559848 -0.101501 0.505384 0.172729 -0.674973 0.754079 0.208407 -0.376547 -0.044967 0.186876 -0.128164 -0.456362 0.565962 0.152994 -0.357883 0.832313 0.593121
231 0.451716 0.384875 0.0566356 -0.24218 0.382752 0.400268 -0.100072 -0.460932 -0.20535 -0.0543683 0.0639809 0.13579 -0.340131 -0.479348 -0.89418 0.602802 0.660228 0.386051 1.35978 -0.482749 0.32401 1.306 -0.11276 -0.622175 -0.646984 -0.945861 -0.0779249 0.623468 0.110666 -0.438294 1.03463 -0.72052
221 -0.518978 1.21477 -0.360388 0.0341808 -0.328198 -0.20323 -0.582823 -0.303273 0.0454363 0.751132 -1.2082 -0.00229697 -0.748158 -0.764293 -1.03802 0.515487 -0.164317 -0.056279 0.551437 0.0820568 0.0868684 0.0989135 0.0518623 -0.495313 -0.296096 -0.210924 -0.0473711 0.483457 0.990132 -0.0983518 0.199877 -0.381531
157 0.122255 0.104138 -0.258939 0.340194 -0.250509 0.741676 -0.134793 0.144617 -0.40347 0.0122182 -0.709295 0.165821 -0.987613 -0.920455 0.0185208 -0.111337 -0.236646 -0.371483 0.865259 0.184593 0.730767 0.84841 0.113181 0.274183 -0.58308 -0.117753 -0.705916 0.591482 0.152473 0.912189 0.0842965 0.106437
46 0.341748 0.764569 -0.784951 0.617792 -0.375324 0.552251 0.176606 -0.651321 -0.300496 0.509305 -0.184785 0.849887 -0.794726 -1.04822 -0.458531 0.126904 -0.0664092 0.46506 0.145096 -0.442819 0.60873 0.0636136 -0.409341 0.090618 0.312974 -0.200366 -0.546976 0.495686 -0.0316312 -0.284355 0.761946 0.4324
45 0.396815 0.820881 -0.82621 0.714114 -0.419642 0.619006 0.165065 -0.766588 -0.373888 0.578782 -0.222602 0.928656 -0.926027 -1.19238 -0.529979 0.126845 -0.0543546 0.525146 0.204475 -0.536964 0.706514 0.124341 -0.457407 0.0946927 0.359357 -0.283259 -0.6452 0.541812 -0.02832 -0.317068 0.86977 0.501332
47 0.264231 0.86907 -0.812624 0.724759 -0.445763 0.555114 0.125375 -0.76377 -0.446673 0.567369 -0.17687 0.867647 -0.975825 -1.10764 -0.619361 0.161594 -0.0282616 0.484475 0.199848 -0.378198 0.675534 0.0174813 -0.471656 0.190235 0.444376 -0.36933 -0.730207 0.495539 -0.109912 -0.279627 0.867769 0.374641
166 0.126651 0.312087 -0.293808 0.188287 -0.291029 0.168541 0.353728 -0.394366 -0.33879 -0.139533 -0.529289 -0.182169 -0.445455 -0.482672 -0.465341 0.1154 0.0992756 0.0770455 0.517521 0.0479486 0.668338 0.77198 0.0686742 -0.555519 -0.45714 -0.697362 -0.639838 0.195903 0.119199 0.293608 0.455671 0.151714
128 0.685698 0.231428 -0.30185 0.0919122 0.213426 -0.347525 0.336121 -0.0898065 -0.171862 -0.112863 -0.660092 -0.502259 -0.609229 -0.829232 -0.29628 -0.167403 -0.0296998 0.440058 0.690157 -0.307646 0.948452 0.0809349 0.7414 0.327351 -0.698723 0.215649 -0.697949 0.695315 0.915731 0.541216 0.721218 -0.219723
262 -0.180302 -0.529063 -0.369427 -0.559124 0.22102 -0.0778898 -0.0867269 0.17932 0.233467 0.346044 0.198471 0.383266 -0.73457 -0.807369 -0.343737 -0.0537126 -0.0860604 0.682887 0.620987 -0.415288 0.685736 -0.0926699 -0.230812 -1.10048 -0.670345 -0.423618 -0.339539 0.955227 0.205712 0.0542193 0.674853 -0.418627
261 -0.204629 -0.448556 -0.463922 -0.564969 0.120246 -0.109956 -0.0817748 0.220398 0.246733 0.383733 0.186676 0.45723 -0.920577 -0.87773 -0.356154 -0.0793549 -0.14886 0.700431 0.731381 -0.491033 0.759044 -0.114041 -0.223441 -1.23942 -0.767311 -0.447514 -0.287511 1.09766 0.273599 0.169064 0.702798 -0.421083
263 -0.199472 -0.577386 -0.409342 -0.608786 0.201688 -0.094867 -0.102872 0.192799 0.282506 0.355988 0.240755 0.465362 -0.872031 -0.962163 -0.376617 -0.0797743 -0.0946973 0.800016 0.695027 -0.547997 0.812643 -0.14681 -0.171321 -1.31886 -0.793949 -0.502009 -0.475172 1.10541 0.307822 0.0883697 0.82793 -0.529938
190 -0.288127 0.471053 0.293324 -0.0170594 0.343647 0.271161 0.727537 0.144356 0.228419 -0.103639 -1.18648 -0.220265 -1.10498 -0.59626 -0.537563 0.235948 0.169537 0.448153 0.645604 -0.367986 0.521395 0.161957 0.437504 -0.472643 0.0194031 -0.482463 -0.195769 0.40437 -0.301771 -0.224564 -0.0183094 -0.509527
152 0.311398 0.132242 -0.293634 0.419836 -0.221567 0.847964 0.335697 -0.112937 -0.738865 0.474819 -1.08319 0.417726 -1.42438 -0.776702 0.0587942 0.0840836 -0.564388 -0.171508 0.680448 0.130102 1.0039 0.806156 0.1586 -0.15295 -0.767272 -0.664114 -0.791037 0.744493 0.364112 0.728258 -0.203774 0.036315
150 0.349542 0.0839895 -0.305499 0.438358 -0.312147 0.783029 0.329253 -0.0671799 -0.761956 0.510797 -0.955167 0.421533 -1.30529 -0.646896 -0.0315034 0.0840161 -0.4606 -0.150917 0.74288 0.179218 1.0684 0.766742 0.169119 -0.221666 -0.695674 -0.652455 -0.729116 0.587024 0.447205 0.626117 -0.155699 -0.0105351
142 0.151167 -0.134548 -0.216895 0.168655 -0.844764 0.130713 0.0761241 -0.488052 -0.752038 0.0755425 -0.287467 -0.06906 -0.432222 -0.739507 -0.0483891 0.0239307 0.133899 -0.336651 0.943848 0.378261 1.05552 0.258811 0.216406 -0.690805 0.328588 -0.676985 0.0208644 0.33658 0.798184 -0.387408 0.86016 0.014743
141 0.163162 -0.0948354 -0.226474 0.0838898 -0.859723 0.214524 0.0671927 -0.590368 -0.735309 0.0175693 -0.368524 -0.111209 -0.41587 -0.82908 -0.0861834 0.0119072 0.0698466 -0.304232 1.10689 0.33252 1.05294 0.248872 0.293934 -0.806814 0.339156 -0.733688 0.0760229 0.509881 0.893839 -0.483889 1.02722 0.0161407
143 0.158345 -0.108515 -0.230202 0.243229 -0.928066 0.161171 0.0942678 -0.519062 -0.802562 0.181978 -0.350012 -0.0687056 -0.541995 -0.723246 -0.14371 0.0473793 0.130444 -0.280553 1.00757 0.452343 1.19704 0.310967 0.196094 -0.841442 0.248915 -0.72813 -0.0451138 0.353715 0.950937 -0.396317 0.911093 -0.0566939
127 0.502082 0.156324 -0.204083 0.037311 0.162504 -0.30177 0.258178 -0.0972636 -0.182865 -0.0963021 -0.484347 -0.418574 -0.483854 -0.686949 -0.214577 -0.159571 0.00255124 0.370985 0.544974 -0.22368 0.748368 0.0558751 0.565574 0.264681 -0.550387 0.162223 -0.538906 0.562824 0.731965 0.448163 0.574931 -0.16888
246 0.204214 0.492437 -0.253027 -0.0937779 -0.153619 0.202414 0.289498 0.649434 -0.577118 -0.169015 0.311487 0.422245 -1.1348 -1.35676 -0.917211 0.326573 -0.357964 -0.574284 0.121937 -0.284993 0.825534 -0.0313143 -0.0833109 -0.30075 -0.29718 -0.215724 -0.0360073 0.567936 0.550855 0.136707 1.11404 -0.394704
205 -0.666106 0.274042 -0.0951324 -0.181329 -0.245052 0.221259 0.080301 -0.511937 -0.0829698 -0.541336 -0.50696 0.159938 -1.13155 -0.196606 0.449729 0.538162 -0.382607 0.749916 1.17198 -0.376592 0.581273 0.0262245 -0.0832269 -0.543052 -0.0299556 -0.56113 0.238638 0.488787 0.811577 0.605167 0.745157 -0.237317
220 -0.44742 1.06059 -0.273727 0.0995339 -0.418639 -0.200843 -0.484815 -0.302973 0.0370238 0.660473 -1.16539 0.0215164 -0.699153 -0.814694 -0.811223 0.476212 -0.171766 0.0521318 0.406351 -0.0285951 0.178274 0.0404602 -0.00626922 -0.38957 -0.209482 -0.187844 -0.0642877 0.403232 0.851141 -0.0437573 0.224491 -0.321481
25 0.249148 0.483402 0.165952 0.410596 -0.403093 0.119272 0.453212 0.0458819 -0.0825901 -0.282711 -0.386728 0.125937 -1.04914 -0.722226 -0.2029 0.0796874 0.211123 0.531191 0.343377 -0.10355 0.12841 0.281292 0.226895 0.0957634 0.0777019 -0.163348 -0.47936 0.438721 0.455669 -0.371642 0.982789 0.369536
191 -0.422073 0.54898 0.397331 -0.107239 0.434277 0.294677 0.87329 0.204992 0.224817 -0.127709 -1.45164 -0.256588 -1.33556 -0.712842 -0.631385 0.188472 0.126154 0.542529 0.807309 -0.403961 0.559047 0.135886 0.51351 -0.543451 -0.0926065 -0.587371 -0.360085 0.47212 -0.289059 -0.274983 -0.0721592 -0.613678
151 0.304828 0.0654616 -0.243615 0.380124 -0.200158 0.769481 0.311384 -0.0536774 -0.640569 0.421459 -0.92152 0.36863 -1.21339 -0.65154 0.0265687 0.0862284 -0.478447 -0.157807 0.63418 0.144116 0.927897 0.749145 0.145885 -0.120206 -0.683261 -0.604108 -0.710807 0.627938 0.348598 0.684782 -0.190833 0.0236013
