1000 128
270 -0.00786335 0.0697856 -0.163064 -0.155326 -0.0847194 0.127316 -0.0454344 -0.0674148 -0.0316527 -0.103764 -0.108863 -0.0528348 0.0696991 -0.114439 0.118534 -0.022636 0.0578261 0.280528 0.091119 -0.0982253 0.0150966 0.047194 -0.103578 -0.0898193 0.138689 0.0911957 0.127529 -0.114812 0.0765502 -0.110261 -0.0290338 0.278231 0.0137139 -0.00714388 -0.12178 -0.0756785 0.217004 0.13678 -0.0992388 -0.024718 -0.0289555 0.00510092 -0.106106 -0.148001 -0.0762401 -0.0640201 0.0695343 0.00217189 0.0120923 0.111634 0.0538668 -0.0966027 -0.109541 0.100178 0.0722662 0.0720821 0.0506943 0.105273 -0.114134 -0.050732 -0.0446243 0.00963198 -0.265012 -0.127195 0.0467417 -0.148686 -0.0510505 0.0787908 0.00796143 -0.128745 -0.057088 -0.0446716 -0.264876 0.0939139 0.0423195 -0.166958 0.010073 -0.229917 0.129099 -0.0833256 0.170147 -0.00284833 -0.0437153 -0.0052944 0.0235696 0.0580153 -0.0118691 -0.263193 0.341229 0.180224 -0.140317 -0.0811924 -0.0325709 -0.140098 0.0397372 0.171597 -0.0451987 -0.0748392 -0.0260857 0.0117836 0.208664 -0.247855 -0.174709 0.343848 0.0200816 -0.110445 -0.00744109 -0.275714 -0.237448 0.213453 -0.0702805 0.16534 -0.365274 0.0560786 0.0033762 -0.321469 0.0697452 0.115158 0.0670966 -0.108199 -0.199068 0.0594324 -0.118293 -0.118347 0.0644094 -0.125628 -0.064751 0.021068
7 0.06151 0.0126811 -0.162553 0.0530412 -0.129619 0.00137383 -0.103703 0.175259 -0.0555955 -0.0247185 -0.0672913 0.0107195 -0.0474474 -0.143361 0.0550732 -0.0362788 0.00145228 0.338638 0.0365645 -0.142006 0.0218291 0.000365944 -0.248596 -0.121293 0.291569 0.0508882 0.157904 -0.149165 0.0569986 -0.23687 -0.0872909 0.4142 0.0276084 -0.0115929 -0.223659 -0.0714268 0.261439 0.211383 -0.11028 -0.043732 -0.0366519 -0.00488572 -0.0516541 -0.187959 -0.0995339 -0.130033 0.0822609 -0.0759002 0.0413764 0.234304 0.0354141 -0.160539 -0.082111 0.169532 0.207226 0.0594265 0.0693955 -0.0199949 -0.143319 -0.0958358 -0.0422495 0.0516035 -0.247856 -0.0857871 0.0179672 -0.232834 -0.103964 0.0904569 -0.00802177 -0.262848 -0.163318 -0.0193412 -0.306863 0.0278184 -0.0148018 -0.197783 0.020345 -0.234885 0.167857 -0.100866 0.19848 0.00248561 -0.132971 -0.0564884 0.037295 0.0319978 -0.0474575 -0.397355 0.465283 0.231772 -0.162289 -0.0698178 0.0498524 -0.259861 0.082239 0.249145 -0.13386 -0.229015 0.0188634 -0.0274668 0.309368 -0.389518 -0.256075 0.528279 0.0731956 -0.13915 -0.0880648 -0.392145 -0.363206 0.356746 -0.0747184 0.149467 -0.499032 0.08622 0.0983996 -0.455865 0.051685 0.177114 0.00974525 -0.0882314 -0.244535 9.65647e-05 -0.122147 -0.0961497 0.040075 -0.164993 -0.0539248 0.117703
0 0.108403 0.0392324 -0.208255 -0.444992 -0.275929 0.478791 -0.201951 -0.228382 -0.148636 -0.0819897 0.128672 0.0261704 0.279131 -0.236018 0.137439 -0.0265035 0.228773 0.5864 0.218126 -0.0974777 -0.105526 0.00478979 -0.0443316 0.0784188 0.378579 -0.0786305 0.158543 -0.265019 0.0105116 -0.350458 -0.15052 0.511986 0.20341 -0.000437579 -0.135954 -0.0232608 0.122859 -0.0292312 -0.300878 -0.197282 0.193855 -0.173607 -0.322912 -0.262981 -0.0234445 -0.102343 0.236244 0.219895 -0.0926598 -0.0431299 -0.0459494 -0.214819 -0.2407 0.124671 0.101148 0.0100133 0.223376 0.317625 -0.276507 -0.167553 0.138029 0.190815 -0.204052 -0.115265 0.256825 -0.0600908 -0.0302824 0.210533 0.10098 -0.0454978 -0.000156936 0.0861341 -0.212192 0.134865 -0.0432981 -0.278931 -0.152983 -0.247494 -0.0366541 -0.0770185 0.121048 -0.0491134 0.0898229 0.20805 -0.0828288 -0.240721 -0.130704 -0.603849 0.464748 0.0726123 -0.00127912 -0.0338801 -0.0257946 -0.131671 0.09369 0.218393 -0.0397707 -0.0514412 0.185224 0.0362763 0.246969 -0.0474804 -0.508675 0.33601 -0.142732 0.0247407 0.0485663 -0.125753 -0.104485 0.411983 -0.369205 0.126559 -0.344274 -0.127 -0.239393 -0.172309 -0.155026 0.025719 0.0575402 -0.166612 -0.424789 0.139729 -0.244307 -0.223306 -0.0238268 -0.153774 -0.362556 -0.151961
28 0.0270582 0.0566549 -0.174658 -0.314829 -0.154146 0.289932 -0.101006 -0.169827 -0.0801608 -0.0905383 0.0124485 -0.0176492 0.179153 -0.164102 0.114048 -0.00581879 0.133426 0.382661 0.139202 -0.0615566 -0.0594796 0.00834543 -0.0630032 -0.00284798 0.207239 -0.0154486 0.121321 -0.144834 0.0387999 -0.182478 -0.0479345 0.32773 0.103288 -0.0162895 -0.0861496 -0.0294686 0.1518 0.0412354 -0.184522 -0.0997544 0.0823856 -0.0797529 -0.186395 -0.169018 -0.0411764 -0.0823638 0.133318 0.11662 -0.0455434 0.0224601 0.0171042 -0.116061 -0.154398 0.0834801 0.0682615 0.0328978 0.106711 0.207718 -0.183028 -0.113208 0.027043 0.0849124 -0.187514 -0.101649 0.13971 -0.090163 -0.0233399 0.128092 0.0448125 -0.0720377 -0.0141694 0.028028 -0.199779 0.106817 -0.00251919 -0.193773 -0.0622674 -0.212377 0.0173182 -0.0703406 0.128149 -0.0315951 0.0387683 0.115216 -0.0365036 -0.0779904 -0.0584254 -0.366415 0.334284 0.111532 -0.0624392 -0.043157 -0.0212389 -0.0903412 0.0629073 0.147758 -0.0446799 -0.0505699 0.0672552 0.02886 0.188524 -0.114956 -0.281102 0.27754 -0.082025 -0.0330673 0.0530752 -0.150044 -0.122428 0.247851 -0.192572 0.141952 -0.298476 -0.0393108 -0.119634 -0.206186 -0.0327679 0.0665126 0.0675848 -0.140424 -0.258703 0.101541 -0.163519 -0.161888 0.0390436 -0.106844 -0.19318 -0.0717499
52 0.0489104 0.0665241 -0.183438 -0.331766 -0.182356 0.341963 -0.117262 -0.185884 -0.0959408 -0.0917096 0.0280239 -0.0122136 0.218529 -0.185057 0.127426 -0.00306347 0.151512 0.43461 0.166849 -0.0776921 -0.0572687 0.0105874 -0.0372539 0.0186725 0.24842 -0.0117828 0.134903 -0.196308 0.0470833 -0.231282 -0.0814599 0.391387 0.141238 -0.0226944 -0.105519 -0.0322406 0.178893 0.0386214 -0.232115 -0.132425 0.106364 -0.11449 -0.225406 -0.21488 -0.0526428 -0.0869267 0.161361 0.144499 -0.0508066 0.0154273 0.00159974 -0.158807 -0.202516 0.113649 0.0629057 0.0452002 0.148248 0.2489 -0.211316 -0.127006 0.0489862 0.104702 -0.215097 -0.126631 0.172024 -0.0823366 -0.0198253 0.153661 0.0672324 -0.0779742 -0.00491842 0.0397236 -0.227773 0.135129 -0.00336727 -0.246599 -0.0865315 -0.254628 0.029356 -0.0836722 0.157206 -0.0459053 0.0484971 0.135541 -0.0476055 -0.106127 -0.0742582 -0.434352 0.403303 0.114679 -0.0731102 -0.0459594 -0.027537 -0.1089 0.072043 0.199696 -0.0382123 -0.0473245 0.0866359 0.0201061 0.236085 -0.12459 -0.340987 0.319228 -0.0811707 -0.0222159 0.0545043 -0.183886 -0.158539 0.30816 -0.243511 0.158813 -0.345986 -0.0607228 -0.153498 -0.21462 -0.061932 0.0589595 0.0826916 -0.152574 -0.326215 0.126772 -0.186649 -0.204013 0.0344735 -0.134957 -0.236777 -0.0982743
342 0.023518 0.034544 -0.153002 -0.0625322 -0.105828 0.0791103 -0.0738346 0.0486903 -0.0530503 -0.0710755 -0.0830559 -0.0253583 0.0316848 -0.147539 0.0857797 -0.0221475 0.0289769 0.317968 0.0868013 -0.118374 0.0267526 0.032467 -0.1693 -0.102339 0.219019 0.0756136 0.12798 -0.145509 0.0564522 -0.183771 -0.060009 0.342386 0.0329227 0.000715793 -0.169985 -0.0808484 0.23472 0.154851 -0.0970067 -0.0298386 -0.0201046 -0.00538205 -0.105423 -0.180525 -0.0893847 -0.0898546 0.0864897 -0.0221556 0.0203582 0.16338 0.0485412 -0.152082 -0.109041 0.153699 0.1201 0.0758743 0.0620434 0.0533442 -0.133334 -0.0685612 -0.0342774 0.0273494 -0.290316 -0.130975 0.0397905 -0.189719 -0.0784978 0.0875307 0.0179466 -0.200876 -0.109103 -0.0318136 -0.289757 0.0620369 0.0334115 -0.186491 0.00762436 -0.250283 0.144212 -0.103943 0.186274 0.00301053 -0.0833134 -0.0317489 0.0227265 0.0432554 -0.034951 -0.324793 0.412005 0.193909 -0.156858 -0.0550327 -0.00143483 -0.184861 0.053353 0.2314 -0.067513 -0.133838 0.00295442 -0.000154513 0.25601 -0.313608 -0.225674 0.433638 0.0458636 -0.119075 -0.0362796 -0.329714 -0.312685 0.311914 -0.0929392 0.151831 -0.431514 0.0550359 0.0468833 -0.369808 0.0616705 0.127428 0.0412778 -0.0938054 -0.232973 0.0331866 -0.141071 -0.105167 0.0406597 -0.159784 -0.0806619 0.0749096
45 -0.0146117 0.0629201 -0.151038 -0.245731 -0.0970737 0.205399 -0.0602714 -0.143665 -0.0461831 -0.115092 -0.0460897 -0.0370716 0.168865 -0.155245 0.114195 0.00652457 0.0812875 0.294879 0.126531 -0.0622842 -0.0194659 0.0337762 -0.0476893 -0.0307304 0.139858 0.0395747 0.110038 -0.117916 0.0740869 -0.133984 -0.0274009 0.270342 0.052024 0.00362266 -0.0753467 -0.0555642 0.165001 0.0773083 -0.140697 -0.0378251 0.0356382 -0.0426375 -0.152738 -0.155277 -0.048926 -0.0555171 0.109651 0.0601558 -0.0169625 0.0453901 0.0261618 -0.101026 -0.121712 0.090152 0.0326461 0.0724568 0.0595571 0.158255 -0.140457 -0.0684079 -0.00697055 0.039724 -0.229492 -0.129994 0.101525 -0.100443 -0.018305 0.0976649 0.0448614 -0.0762734 -1.3599e-05 -0.0210171 -0.233264 0.121489 0.0413619 -0.179468 -0.0355321 -0.214392 0.0529047 -0.0646468 0.144108 -0.0408934 0.0108279 0.0616862 -0.0125651 0.00251827 -0.0206123 -0.288721 0.311247 0.121158 -0.0953069 -0.057659 -0.0340818 -0.0834019 0.0388688 0.151153 -0.0304889 -0.0337734 0.0152325 0.0113315 0.193441 -0.154312 -0.208804 0.267179 -0.0449436 -0.0747893 0.046522 -0.209873 -0.172054 0.210754 -0.133327 0.155274 -0.334012 -0.00178641 -0.0839868 -0.23327 0.0217572 0.0793502 0.0818669 -0.113911 -0.231833 0.102474 -0.127628 -0.1611 0.047675 -0.125216 -0.127678 -0.0338646
27 0.00405636 0.083862 -0.189524 -0.354426 -0.141909 0.315078 -0.0808697 -0.225497 -0.0650317 -0.130692 -0.0536949 -0.047794 0.189748 -0.147984 0.146963 -0.0274357 0.142415 0.367955 0.170381 -0.0796916 -0.0345851 0.0604974 -0.0319302 -0.0180703 0.17632 0.0400688 0.135682 -0.144005 0.0498296 -0.150584 -0.0539541 0.314191 0.0699043 -0.00424707 -0.108 -0.0570223 0.172264 0.0412987 -0.1745 -0.081338 0.0476843 -0.0369759 -0.219166 -0.174439 -0.0421548 -0.0540563 0.130448 0.106988 -0.0184376 0.00455508 0.0272401 -0.114488 -0.161254 0.0738837 0.0372612 0.0598268 0.109302 0.221961 -0.151725 -0.0704186 0.0262724 0.0775244 -0.246632 -0.131038 0.114623 -0.0942122 -0.0223797 0.12129 0.0379504 -0.0421105 0.000707493 -0.00612608 -0.208171 0.119448 0.0392574 -0.189309 -0.058165 -0.220564 0.0551217 -0.0734509 0.147235 -0.0171835 0.0328991 0.0861274 -0.0132616 -0.037967 -0.0446834 -0.34993 0.352862 0.11638 -0.0608111 -0.0660869 -0.067626 -0.0981317 0.0400425 0.158324 -0.0171631 -0.0182935 0.0372852 0.0348367 0.178734 -0.130738 -0.285673 0.280237 -0.0720038 -0.0597786 0.034095 -0.17182 -0.12959 0.248762 -0.174104 0.154276 -0.327576 -0.0187537 -0.109866 -0.217291 -0.00707964 0.0591836 0.0777879 -0.129949 -0.247322 0.102059 -0.160177 -0.151809 0.0229519 -0.116002 -0.177133 -0.0789491
468 -0.0931827 0.0553845 -0.187725 -0.342439 -0.0730917 0.204932 -0.0333372 -0.207222 -0.0626629 -0.277908 -0.246547 -0.130101 0.250649 -0.26547 0.136612 0.0251026 0.091533 0.311166 0.303408 -0.0971166 0.0928623 0.198022 -0.0497486 -0.0936785 0.0879219 0.191127 0.100103 -0.0780025 0.0458494 -0.128603 -0.108101 0.2286 -0.0743278 0.154057 -0.160378 -0.162945 0.128454 -0.00138277 0.0078768 0.115086 0.0287557 0.124454 -0.316467 -0.244898 -0.0230587 0.0629081 0.14296 -0.0221655 0.0563094 0.0662768 0.0267267 -0.210015 -0.091297 0.195451 -0.0730113 0.191481 0.00714332 0.0776903 -0.0333405 0.0844043 0.059032 -0.00722501 -0.541221 -0.246365 0.0337337 -0.147922 -0.0514148 0.110508 0.109362 -0.0624167 0.0231319 -0.159425 -0.280714 0.114833 0.197246 -0.135012 -0.0946985 -0.159918 0.146434 -0.0635309 0.131622 -0.0286274 -0.0817562 -0.0860161 0.000170965 0.145826 -0.00212036 -0.249529 0.332157 0.0630609 -0.0238449 -0.0132778 -0.144084 -0.0602669 -0.0696852 0.260312 0.0803465 0.034069 -0.0535985 -0.0209514 0.0606438 -0.217084 -0.303217 0.270203 0.018543 -0.180311 -0.0220673 -0.292515 -0.275914 0.368136 -0.168266 0.157813 -0.492713 -0.00126651 -0.0290793 -0.27428 0.126348 0.043235 0.0496314 -0.0237418 -0.265009 0.117711 -0.151225 -0.0794916 -0.0391243 -0.206352 -0.121504 0.0468576
831 -0.063049 0.0829731 -0.168747 -0.272677 -0.0681155 0.186969 -0.0245201 -0.168547 -0.0291176 -0.185278 -0.155524 -0.0761584 0.201495 -0.176779 0.12295 0.00743201 0.0676177 0.250872 0.182248 -0.0720535 0.0357063 0.10147 -0.0412255 -0.0667062 0.0717126 0.120149 0.104031 -0.0869543 0.0773559 -0.0923055 -0.0310806 0.225732 -0.0203579 0.0597669 -0.0975969 -0.104702 0.165168 0.0706683 -0.0695861 0.0434399 0.00711339 0.0458175 -0.195837 -0.17561 -0.0584485 -0.0111515 0.105986 0.00552257 0.0114921 0.0639796 0.0513295 -0.117031 -0.100729 0.117427 -0.0178508 0.12998 0.0135434 0.119859 -0.0859429 0.00212316 -0.00782583 -0.0186474 -0.362356 -0.183629 0.0628558 -0.134606 -0.0260544 0.0897561 0.0574529 -0.0711354 0.0121138 -0.0892824 -0.276472 0.130133 0.121581 -0.155279 -0.0413692 -0.202884 0.104784 -0.0619053 0.158272 -0.0417055 -0.0298679 -0.0086416 -0.00828279 0.0922333 0.013676 -0.232528 0.300393 0.115859 -0.0997106 -0.0521958 -0.0898145 -0.0706819 0.0073147 0.185952 0.0157769 -0.00987112 -0.0482216 -0.00427212 0.149736 -0.198531 -0.190391 0.278285 -0.0164697 -0.135456 0.0255112 -0.264037 -0.230621 0.232321 -0.115744 0.168025 -0.39109 0.0206733 -0.0438926 -0.275619 0.086207 0.0751697 0.0949315 -0.0827848 -0.234804 0.113128 -0.133277 -0.131981 0.0310883 -0.150197 -0.0897044 0.0075988
826 -0.0531275 0.167639 -0.223417 -0.200741 -0.0700429 0.153204 -0.0174954 -0.0889841 -0.0220471 -0.131353 -0.103151 0.0356346 0.229621 -0.128152 0.137811 -0.00635421 0.0183346 0.15236 0.0790131 -0.0760523 0.0148726 0.0431769 -0.055833 -0.0330366 0.0627587 0.0841461 0.153945 -0.0794655 0.15006 -0.140879 -0.00357989 0.305329 -0.0103404 0.0520243 -0.0881641 -0.078118 0.165813 0.176087 -0.148063 0.0317346 -0.0098906 0.0309 -0.132842 -0.194801 -0.113556 -0.140052 0.128381 -0.0192273 -0.000134955 0.0927974 0.117214 -0.0584346 -0.111679 0.0725943 0.0402372 0.104034 -0.00521828 0.143544 -0.112973 -0.0476456 0.000398931 -0.0479099 -0.257963 -0.171965 0.0639073 -0.183044 -0.0321998 0.0796787 0.0297291 -0.0692046 0.00340608 -0.0937464 -0.384615 0.193935 0.111229 -0.185459 -0.0201141 -0.270255 0.0904062 -0.0503914 0.2223 -0.125672 -0.0540792 0.0704269 -0.0309762 0.0978477 0.0566428 -0.320835 0.319765 0.163943 -0.172528 -0.107135 -0.0353311 -0.157633 0.125565 0.158171 -0.0591131 -0.118448 -0.0489061 -0.0261363 0.357886 -0.252376 -0.159877 0.413293 -0.13441 -0.17711 0.0497939 -0.342435 -0.282047 0.202214 -0.118446 0.12885 -0.412879 0.0643685 -0.0244072 -0.381662 0.0544141 0.10775 0.16576 -0.117901 -0.330984 0.150007 -0.178996 -0.180699 0.0860345 -0.170602 -0.109602 -0.00345686
943 -0.0458265 0.117863 -0.193084 -0.23592 -0.0840854 0.188632 -0.0351587 -0.123693 -0.038579 -0.13441 -0.0663143 -0.00586142 0.230942 -0.166746 0.130129 0.018684 0.0434246 0.216749 0.109076 -0.0540274 -0.00015982 0.0348682 -0.0548141 -0.0245002 0.100975 0.056019 0.13242 -0.0994522 0.125607 -0.141411 -0.011771 0.303477 0.0285693 0.0330718 -0.0675781 -0.0719266 0.175419 0.129878 -0.157243 0.0011475 0.0224383 -0.00862756 -0.152797 -0.18775 -0.0867301 -0.103514 0.128503 0.0233291 -0.0154661 0.0764096 0.0775682 -0.0807403 -0.12037 0.0880241 0.0295849 0.100898 0.0159473 0.164011 -0.143814 -0.0572043 -0.00691092 -0.0149614 -0.265658 -0.17241 0.0986611 -0.143072 -0.0234895 0.0885255 0.050047 -0.067955 0.0171338 -0.0573767 -0.334646 0.175217 0.0824088 -0.201608 -0.0315083 -0.253214 0.0658205 -0.0613302 0.19346 -0.111402 -0.0187452 0.0719306 -0.0292228 0.0557304 0.0301171 -0.320911 0.323525 0.143669 -0.147213 -0.0868172 -0.0325178 -0.111016 0.0894632 0.171508 -0.0390201 -0.070814 -0.0153272 -0.020124 0.288931 -0.210358 -0.182784 0.343564 -0.101599 -0.132206 0.065034 -0.292967 -0.241906 0.214363 -0.138364 0.153982 -0.406137 0.033897 -0.0650369 -0.321246 0.0380443 0.0987869 0.139241 -0.124942 -0.306188 0.152527 -0.154073 -0.203167 0.0726686 -0.156756 -0.125864 -0.0245311
34 -0.00878111 0.0895376 -0.19211 -0.322402 -0.127943 0.283725 -0.0689141 -0.196125 -0.0638415 -0.144093 -0.0404 -0.0405788 0.222807 -0.169769 0.146323 0.00257163 0.101505 0.354697 0.151307 -0.0627974 -0.0342556 0.0370304 -0.0438365 -0.0208185 0.161364 0.0388084 0.137202 -0.154913 0.0932937 -0.158181 -0.0270412 0.331451 0.0725825 -0.000932318 -0.0749944 -0.066544 0.193458 0.0803321 -0.185409 -0.0589672 0.0534058 -0.0518815 -0.198819 -0.18852 -0.0631405 -0.0769573 0.131765 0.084507 -0.0306156 0.0453027 0.0377181 -0.116334 -0.163024 0.0929274 0.0383203 0.0742204 0.0721579 0.215343 -0.177239 -0.0780497 -0.00233716 0.0420631 -0.268301 -0.154341 0.133621 -0.111327 -0.0164824 0.125787 0.0567863 -0.067914 0.0101277 -0.0223773 -0.274202 0.151367 0.0536537 -0.214495 -0.0531908 -0.253025 0.0507176 -0.0777942 0.167368 -0.0487862 0.030855 0.0979385 -0.0275378 -0.0114929 -0.0276617 -0.35111 0.358063 0.133837 -0.107671 -0.0774441 -0.0492974 -0.0953513 0.0629044 0.176737 -0.0273725 -0.0341218 0.0244424 0.012187 0.228932 -0.163325 -0.258634 0.318221 -0.0742497 -0.0751281 0.0658198 -0.227581 -0.180874 0.239212 -0.173203 0.177331 -0.374106 -0.0139876 -0.110229 -0.272843 0.00596227 0.0819896 0.10285 -0.15029 -0.298123 0.137108 -0.168915 -0.205878 0.0529127 -0.138749 -0.167979 -0.0544103
172 0.0114771 0.0207784 -0.156275 0.0105441 -0.0940385 0.0109863 -0.0623936 0.125125 -0.0423882 -0.0538004 -0.104169 -0.0206913 -0.040763 -0.134423 0.0601909 -0.0237025 -0.0192392 0.299404 0.0453984 -0.124104 0.0176312 0.0233488 -0.228479 -0.146986 0.231635 0.065633 0.144139 -0.131865 0.0775857 -0.164075 -0.0407523 0.353561 0.0127153 -0.0246191 -0.170855 -0.0935287 0.274878 0.222219 -0.0880509 -0.0246543 -0.0571775 0.00596024 -0.0300826 -0.155004 -0.104069 -0.110667 0.0521022 -0.0779929 0.0407641 0.225184 0.0579811 -0.12389 -0.0669309 0.141078 0.168958 0.0740574 0.0358728 -0.0126541 -0.128212 -0.0812039 -0.0835133 0.0259898 -0.276188 -0.102034 6.14117e-05 -0.236639 -0.0919421 0.0699778 -0.0169154 -0.249632 -0.147246 -0.0370232 -0.315138 0.0264511 0.00900946 -0.190581 0.0430793 -0.249713 0.158245 -0.110176 0.205581 0.0122187 -0.115243 -0.0642488 0.0377526 0.0742469 -0.0282874 -0.328572 0.441248 0.2313 -0.187177 -0.0691761 0.0321852 -0.22093 0.0581207 0.221401 -0.110465 -0.190237 -0.0258246 -0.017263 0.288905 -0.389051 -0.193067 0.492223 0.0859529 -0.139528 -0.0561516 -0.397271 -0.34712 0.291881 -0.038072 0.184748 -0.491683 0.100869 0.0961564 -0.447191 0.0997421 0.187598 0.0206262 -0.0868248 -0.202287 0.00318872 -0.112091 -0.112881 0.0716362 -0.15588 -0.0201614 0.120552
143 -0.00693239 0.177713 -0.259373 -0.348761 -0.0882056 0.273362 -0.0123719 -0.30077 0.0192238 -0.15611 -0.211484 -0.105574 0.0753183 0.0367355 0.279006 -0.125593 0.134554 0.321459 0.0913882 -0.136492 -0.0261097 0.107277 -0.0050523 -0.0978196 0.0343626 0.19663 0.210183 -0.109536 0.091439 0.00143453 0.0332551 0.23512 -0.0317927 -0.0729563 -0.153258 -0.103438 0.290968 0.158064 -0.111822 -0.0655886 -0.0907698 0.0612028 -0.164154 -0.148002 -0.135848 -0.106838 0.032646 0.0218171 0.0524654 0.0575034 0.12035 -0.0276695 -0.185845 -0.0143984 0.0645675 0.0467879 0.108903 0.241654 -0.0832806 -0.0135476 -0.126451 0.00771956 -0.286584 -0.1254 0.0114649 -0.166133 -0.0255778 0.0646326 -0.0704124 -0.0601489 -0.0332791 -0.079993 -0.262317 0.140815 0.0752899 -0.156772 0.0507167 -0.30062 0.201196 -0.117441 0.209699 0.117528 0.0436859 0.0349947 0.0930424 0.0593993 0.010772 -0.225334 0.324213 0.259775 -0.183417 -0.18597 -0.124765 -0.189886 0.0344171 0.0860537 -0.018548 -0.0298272 -0.0989319 0.113167 0.183929 -0.251927 -0.143318 0.350094 -0.00244849 -0.109748 0.0111487 -0.231317 -0.156429 0.0914666 -0.00224922 0.184668 -0.289377 0.0748626 -0.00785361 -0.362184 0.102368 0.129425 0.102306 -0.165532 -0.188204 0.0705202 -0.170396 -0.110587 0.122623 -0.0669902 -0.0350336 -0.0448746
128 -0.0119421 0.28355 -0.365293 -0.636562 -0.107587 0.472364 -0.0129246 -0.561681 0.0268627 -0.193285 -0.286944 -0.153351 0.0874445 0.123878 0.417069 -0.231128 0.280072 0.424338 0.144658 -0.184429 -0.0551551 0.150772 0.0600022 -0.108175 0.0146534 0.243017 0.288805 -0.10443 0.0830974 0.0730063 0.0404522 0.253257 -0.066454 -0.113491 -0.201804 -0.12282 0.345016 0.16252 -0.172421 -0.139062 -0.140923 0.117211 -0.264634 -0.151372 -0.14664 -0.117679 0.0242022 0.114927 0.073408 -0.0449825 0.178833 0.0367771 -0.274294 -0.133196 0.0800035 0.0274375 0.175472 0.420494 -0.0877231 -0.0161701 -0.127049 0.0660205 -0.301961 -0.124895 -0.00171188 -0.172374 -0.0225808 0.0909432 -0.177445 0.0196288 -0.0224726 -0.0610016 -0.226982 0.17147 0.0609912 -0.161529 0.0715483 -0.371843 0.256381 -0.145785 0.235958 0.22173 0.119035 0.0826701 0.146736 0.0431027 0.00081873 -0.27358 0.37867 0.344502 -0.175072 -0.281927 -0.21309 -0.257596 0.0483432 -0.00496938 -0.0152164 0.0128791 -0.132591 0.198001 0.169569 -0.229023 -0.206328 0.383329 -0.0785177 -0.118062 0.0034803 -0.171935 -0.0568622 0.0402627 0.00560998 0.228301 -0.239908 0.105245 -0.0312725 -0.399955 0.110285 0.14369 0.141541 -0.240754 -0.153382 0.0589214 -0.249209 -0.0874554 0.151237 -0.0269225 -0.0670821 -0.155197
162 -0.020637 0.137464 -0.204883 -0.301166 -0.0849796 0.237286 -0.0146775 -0.232502 -0.0023947 -0.141999 -0.151806 -0.0805845 0.139541 -0.0659001 0.189373 -0.0455457 0.0998018 0.277191 0.111512 -0.0874713 -0.0120555 0.0622908 -0.00851297 -0.0658406 0.0523281 0.125729 0.145904 -0.100268 0.0860408 -0.0402294 0.0164585 0.225715 0.00258415 -0.0272425 -0.0997649 -0.0827472 0.237576 0.127443 -0.113017 -0.0452049 -0.0362037 0.00877982 -0.151165 -0.145103 -0.103262 -0.0723733 0.0727968 0.0398203 0.0135265 0.0538034 0.0794375 -0.0643703 -0.158061 0.0453173 0.025626 0.0721364 0.0661757 0.20685 -0.104531 -0.0292475 -0.0786401 -0.00120314 -0.270633 -0.147535 0.0589027 -0.127652 -0.0133309 0.0753018 0.00234655 -0.0680878 -0.0108025 -0.0602398 -0.258112 0.150042 0.0714788 -0.164369 0.0175448 -0.262878 0.135436 -0.081223 0.190161 0.0207822 0.0222051 0.0411915 0.0373186 0.062242 0.0102547 -0.216756 0.304681 0.187672 -0.15482 -0.119869 -0.085676 -0.112498 0.0420525 0.125985 -0.00917602 -0.0195523 -0.0581479 0.0570473 0.175117 -0.207073 -0.153228 0.302549 -0.0178619 -0.107877 0.0393014 -0.225352 -0.17907 0.138743 -0.0524126 0.182182 -0.305713 0.0404611 -0.0418042 -0.29727 0.0731624 0.104162 0.108821 -0.1427 -0.201077 0.0978421 -0.146034 -0.147375 0.0948233 -0.101312 -0.0671303 -0.0386794
398 -0.0328155 0.195403 -0.25038 -0.376553 -0.0870186 0.284075 -0.020793 -0.320814 0.00711268 -0.159672 -0.171349 -0.083827 0.133871 0.00130956 0.274369 -0.104801 0.132739 0.291388 0.0970015 -0.122413 -0.0318494 0.0925712 0.010466 -0.0707626 0.0286374 0.157417 0.216937 -0.104472 0.117574 -0.0231273 0.0320899 0.240973 -0.0285387 -0.0538738 -0.120319 -0.0976026 0.255594 0.144768 -0.146667 -0.0613984 -0.0628932 0.0553184 -0.18651 -0.155541 -0.121088 -0.125404 0.0616111 0.0324539 0.0335164 0.0232586 0.121884 -0.0148098 -0.171356 -0.0394465 0.0589832 0.0456237 0.0913197 0.254033 -0.086491 -0.0264113 -0.0957356 0.0175489 -0.247639 -0.139203 0.0205104 -0.154862 -0.0178579 0.0707314 -0.061792 -0.0266247 -0.00435418 -0.0681086 -0.271184 0.151241 0.0617753 -0.166614 0.0285718 -0.293632 0.154052 -0.0939062 0.206694 0.061226 0.0496415 0.0736213 0.0735599 0.0552318 0.0255041 -0.254298 0.3184 0.236149 -0.155386 -0.179456 -0.115562 -0.17188 0.0429452 0.065975 -0.035212 -0.0380413 -0.0822437 0.09078 0.222024 -0.221025 -0.152989 0.331023 -0.0737073 -0.10999 0.0289555 -0.222139 -0.136024 0.0961443 -0.037423 0.176432 -0.299987 0.07158 -0.0451265 -0.345226 0.0646272 0.125116 0.133002 -0.171694 -0.21395 0.0921987 -0.175525 -0.139909 0.109678 -0.0802605 -0.0705031 -0.0685921
426 -0.115265 0.0529849 -0.138505 -0.296516 -0.0835509 0.234443 0.00246268 -0.170218 -0.0722 -0.218328 -0.0640747 -0.111833 0.202814 -0.253831 0.0445159 0.10815 0.00365167 0.270742 0.212462 0.0155829 0.0341616 0.0591353 -0.0783002 -0.0982227 0.144683 0.0724732 0.0261068 -0.175096 0.142174 -0.0728234 0.0358221 0.244416 0.0890612 0.00724064 0.0567374 -0.0918349 0.208853 0.0798778 -0.113528 0.0348292 0.0349203 -0.055803 -0.0925014 -0.0968587 -0.0403219 0.0818205 0.0871607 0.13066 -0.102555 0.0817245 0.0656084 -0.110886 -0.13941 0.123041 -0.0692405 0.201285 -0.050359 0.164425 -0.154124 -0.0201054 -0.0262637 -0.081889 -0.416855 -0.250433 0.151554 -0.127112 -0.0403959 0.116486 0.0731174 -0.0868051 0.0160663 -0.0136662 -0.335814 0.167434 0.111645 -0.186301 0.00646975 -0.269892 0.0298927 -0.128676 0.181694 -0.0811489 -0.00247458 -0.000383095 -0.0649297 0.0736957 -0.0263128 -0.213423 0.338715 0.0996991 -0.198351 -0.00489288 -0.0486521 0.0183296 0.0318694 0.276788 0.0273773 0.0571111 -0.0574359 -0.0684962 0.202153 -0.155937 -0.117439 0.296495 0.0168447 -0.0789952 0.110097 -0.258207 -0.250805 0.16184 -0.154149 0.259065 -0.39657 -0.0224724 -0.0631472 -0.221843 0.11757 0.0739375 0.111876 -0.145654 -0.20472 0.139653 -0.109999 -0.214693 0.0438577 -0.161698 -0.126596 -0.000679198
897 -0.140371 0.0569065 -0.13666 -0.305078 -0.0636249 0.232176 0.0131269 -0.165962 -0.0707507 -0.230744 -0.0721768 -0.130577 0.215271 -0.280957 0.0390526 0.125642 -0.00629445 0.265063 0.227301 0.033327 0.0353383 0.0662561 -0.0899975 -0.109382 0.145006 0.0753783 0.0186876 -0.182832 0.153805 -0.0511921 0.0535597 0.244537 0.0898573 0.0110512 0.0794254 -0.0986523 0.241088 0.0946911 -0.116371 0.0486879 0.0298351 -0.056923 -0.0903829 -0.0963812 -0.0429713 0.0882302 0.0866196 0.141491 -0.118149 0.101799 0.0713377 -0.105824 -0.141393 0.131905 -0.0761032 0.218363 -0.0745133 0.174194 -0.165264 -0.0239266 -0.0436082 -0.100672 -0.460024 -0.27394 0.15886 -0.147246 -0.0374764 0.123413 0.0707979 -0.0997873 0.0228703 -0.0206072 -0.371729 0.186711 0.130501 -0.196044 0.0135037 -0.293361 0.0362378 -0.142144 0.191559 -0.0862752 -0.00201812 -0.0147452 -0.0679647 0.100852 -0.0211958 -0.20319 0.347479 0.116408 -0.220921 0.000806281 -0.0490617 0.0354234 0.0318862 0.292279 0.0306913 0.0575829 -0.0779421 -0.0720235 0.217522 -0.176585 -0.103252 0.31724 0.0209437 -0.0936907 0.136394 -0.283703 -0.276949 0.155834 -0.154541 0.293915 -0.429604 -0.0214381 -0.0610581 -0.242804 0.139642 0.0819409 0.121003 -0.158791 -0.204714 0.144315 -0.116565 -0.239731 0.0651678 -0.176993 -0.117137 0.00658816
264 -0.0553272 0.134391 -0.218932 -0.365508 -0.0869705 0.281233 -0.0182188 -0.267821 -0.0158011 -0.187019 -0.1549 -0.100986 0.153456 -0.103505 0.19055 -0.0313487 0.108392 0.315634 0.157338 -0.082544 -0.0107698 0.0895743 -0.0276499 -0.0825255 0.0867676 0.13559 0.150474 -0.117336 0.106846 -0.0446597 0.0120416 0.255718 0.01039 -0.0166456 -0.0800264 -0.0965317 0.245675 0.113794 -0.128889 -0.0225339 -0.0309667 0.0238092 -0.171917 -0.15097 -0.0826637 -0.0427906 0.0735778 0.059809 -0.00113079 0.0527687 0.0909531 -0.0650438 -0.158759 0.0462074 0.014308 0.106054 0.049669 0.218289 -0.112157 -0.0219312 -0.0684236 -0.00520554 -0.342332 -0.177993 0.0710566 -0.153135 -0.0276852 0.0914633 -0.0109469 -0.0635981 -0.00332739 -0.0588559 -0.289151 0.153869 0.0974278 -0.171885 0.00822659 -0.284978 0.129919 -0.11073 0.193501 0.0219197 0.0193636 0.0326939 0.0260004 0.0702014 0.00185106 -0.247412 0.34557 0.193436 -0.161951 -0.109857 -0.097789 -0.106699 0.0318229 0.156053 -0.00786477 0.00308308 -0.0666636 0.0450712 0.192426 -0.209246 -0.166578 0.329026 -0.0256251 -0.111288 0.0494937 -0.240478 -0.187641 0.146609 -0.0894344 0.209853 -0.354248 0.0324537 -0.0482416 -0.310198 0.0929111 0.102183 0.113651 -0.154449 -0.214892 0.11087 -0.15747 -0.150179 0.0824527 -0.114388 -0.0870728 -0.0410835
289 -0.134869 0.0432192 -0.113297 -0.267658 -0.0688627 0.228346 0.0120096 -0.143977 -0.084055 -0.223395 -0.0444516 -0.128026 0.211509 -0.292984 0.00793118 0.146519 -0.0353205 0.252501 0.218955 0.0476386 0.0416161 0.0453262 -0.0959177 -0.107991 0.15998 0.0622809 -0.0091447 -0.211539 0.168957 -0.0629928 0.0597553 0.247025 0.122395 -0.00394584 0.113671 -0.0943341 0.231828 0.0989705 -0.127305 0.0442838 0.0432943 -0.094108 -0.0494458 -0.0711261 -0.0444296 0.113975 0.0759073 0.157357 -0.14438 0.104326 0.0649455 -0.114381 -0.142669 0.134825 -0.0910376 0.223926 -0.0838332 0.164836 -0.176222 -0.0252625 -0.0381717 -0.114746 -0.450101 -0.287107 0.185818 -0.134344 -0.0392527 0.125735 0.0856009 -0.0913499 0.0243169 0.00742594 -0.372613 0.192701 0.115911 -0.20271 0.0291024 -0.284962 0.00620229 -0.151773 0.193852 -0.0989578 -0.00387941 -0.0129704 -0.0820496 0.0880303 -0.0348437 -0.192499 0.349995 0.102353 -0.245854 0.0147742 -0.0278993 0.0678657 0.0433467 0.315336 0.0416573 0.072799 -0.0717991 -0.103157 0.231438 -0.153677 -0.0760367 0.314093 0.0308915 -0.0656711 0.145459 -0.273989 -0.280063 0.137286 -0.168585 0.299512 -0.410735 -0.0375702 -0.058992 -0.206864 0.132759 0.0836655 0.128172 -0.155433 -0.19565 0.143001 -0.0976885 -0.252116 0.049815 -0.169023 -0.121608 0.0058475
413 -0.142544 0.0563231 -0.137611 -0.301472 -0.0769635 0.232596 0.00837463 -0.163752 -0.0799585 -0.24674 -0.0733397 -0.133159 0.230014 -0.302811 0.0244342 0.135575 -0.0170438 0.261874 0.228468 0.0392576 0.0471339 0.0646132 -0.091785 -0.10984 0.156755 0.0832128 0.00751005 -0.208939 0.173695 -0.0617214 0.0555885 0.26266 0.0953486 0.00825697 0.0926072 -0.0976668 0.235576 0.102725 -0.116153 0.053403 0.0430818 -0.0762934 -0.076902 -0.092535 -0.044595 0.10285 0.0855046 0.151023 -0.127175 0.1118 0.0726148 -0.118124 -0.142205 0.145813 -0.0963647 0.228331 -0.0793052 0.170329 -0.166472 -0.0178551 -0.0449139 -0.1139 -0.475208 -0.293226 0.17694 -0.147692 -0.0452808 0.125911 0.0913217 -0.0872723 0.0268634 -0.0178097 -0.389397 0.204856 0.142478 -0.210683 0.0192669 -0.296553 0.0249946 -0.145154 0.209059 -0.102478 -0.00475742 -0.0158089 -0.0750127 0.102569 -0.0285032 -0.204314 0.362203 0.110098 -0.240972 0.00314226 -0.0406086 0.0566907 0.0369213 0.325 0.0397503 0.0672414 -0.075661 -0.0967987 0.239961 -0.169271 -0.0964407 0.325799 0.0357228 -0.0872647 0.141261 -0.295088 -0.298157 0.164744 -0.170765 0.298189 -0.426362 -0.0271154 -0.0616297 -0.228175 0.143054 0.0869588 0.130469 -0.162072 -0.216129 0.154581 -0.119686 -0.252771 0.055013 -0.184069 -0.120355 0.0112101
242 -0.0137972 0.101367 -0.180487 -0.227128 -0.0931403 0.195956 -0.0321472 -0.141095 -0.0153874 -0.145233 -0.108906 -0.0703088 0.209832 -0.170807 0.129428 0.0248058 0.0643518 0.277019 0.117608 -0.0644129 0.00105925 0.0294108 -0.0272492 -0.0536931 0.0931077 0.0838164 0.118134 -0.12529 0.0930857 -0.111652 -0.00117268 0.279062 0.0517321 0.00114009 -0.084626 -0.0760287 0.228697 0.125357 -0.130529 -0.0267047 0.0147809 -0.0419163 -0.147368 -0.187427 -0.108546 -0.0743322 0.114932 0.0281275 -0.00804114 0.106732 0.0526145 -0.128768 -0.145373 0.148384 0.0160185 0.098294 0.0392724 0.177339 -0.143542 -0.0526386 -0.0554324 -0.0305547 -0.307025 -0.181862 0.111574 -0.122151 -0.0144431 0.0985945 0.0747757 -0.112224 -0.00843822 -0.0524607 -0.327958 0.18727 0.0869411 -0.215696 -0.0119925 -0.277184 0.106271 -0.0635103 0.220905 -0.0663028 -0.0101946 0.0398066 -0.0172599 0.0563189 0.00721577 -0.257283 0.337345 0.152566 -0.175037 -0.0657517 -0.0520259 -0.0814673 0.0605312 0.208403 -0.000802912 -0.0369879 -0.0224685 0.00520581 0.22583 -0.227472 -0.176007 0.31599 -0.00682814 -0.121897 0.062671 -0.285467 -0.261113 0.224573 -0.107887 0.197033 -0.394501 0.00608273 -0.0651003 -0.310592 0.0682831 0.0937638 0.12824 -0.129958 -0.284414 0.136713 -0.140211 -0.206729 0.0947781 -0.157726 -0.0960311 -0.00315284
229 0.0569707 0.110072 -0.151913 -0.0793128 -0.0892771 0.102026 -0.00704393 -0.0444 0.0283337 -0.0861212 -0.11941 -0.0645823 0.203286 -0.120216 0.116017 0.0164045 0.0502607 0.196435 0.0290041 -0.0840442 0.00595438 -0.0269415 0.0149997 -0.0309056 0.0266733 0.0889078 0.10473 -0.106809 0.0737949 -0.10557 -0.00218545 0.243252 0.0607971 -0.0176655 -0.128471 -0.0528891 0.242471 0.160842 -0.0964396 -0.0573422 0.000822285 -0.0829892 -0.104912 -0.207344 -0.174331 -0.113214 0.12114 -0.0186326 0.0197139 0.155251 0.046029 -0.151398 -0.155593 0.208836 0.0161449 0.0613669 0.0664092 0.16664 -0.127346 -0.0468642 -0.0931243 -0.0730045 -0.250562 -0.159969 0.111746 -0.0988716 0.0121536 0.0758505 0.116554 -0.161661 -0.0333077 -0.0681908 -0.336126 0.216173 0.0984911 -0.217978 0.0232485 -0.282375 0.161305 -0.0207116 0.258859 -0.0931727 -0.0202987 0.0259418 -0.0173362 0.0655464 0.0354664 -0.16658 0.274117 0.164784 -0.23177 -0.0708397 -0.0477251 -0.0924701 0.0980409 0.212709 0.0202086 -0.0602276 -0.0287261 0.0164832 0.231613 -0.267268 -0.113027 0.307295 0.0465068 -0.132356 0.0500328 -0.305932 -0.322814 0.213832 -0.0516649 0.174832 -0.341602 0.0055499 -0.0423224 -0.325169 0.0782063 0.084496 0.148189 -0.1131 -0.303931 0.133035 -0.109843 -0.216745 0.140884 -0.16062 -0.0331463 0.0304355
84 -0.00281747 0.0737473 -0.162631 -0.0857416 -0.0726419 0.116405 -0.0250158 -0.120457 0.0485472 -0.163412 -0.0567007 -0.0939471 0.197938 0.0190107 0.294342 -0.0368071 -0.0713198 0.258003 -0.0167942 -0.0928296 -0.0800712 0.0813609 0.00988214 -0.0154369 -0.0331527 0.165385 0.222935 -0.170485 0.216149 -0.0929281 0.0837357 0.208449 -0.00181691 -0.0854027 -0.0219478 -0.161118 0.279523 0.1742 -0.133455 0.0375948 0.0463552 -0.0336723 -0.134529 -0.167962 -0.134865 -0.201896 0.0397237 -0.0985922 0.0533945 0.117907 0.0468798 -0.074413 -0.165502 0.0117285 0.0699752 0.0195072 0.0603308 0.125505 -0.113262 -0.0427753 -0.222081 -0.0477749 -0.260997 -0.156186 0.070673 -0.161599 0.02341 0.0347254 0.0650654 -0.06561 0.0419045 -0.156337 -0.400052 0.176686 0.0964438 -0.220083 0.0371096 -0.330538 0.104269 -0.0860615 0.171801 0.0287921 0.0812003 0.160467 0.0833867 0.0709607 0.0555182 -0.27378 0.238762 0.199656 -0.237808 -0.173909 0.015583 -0.124766 -0.00218266 0.148071 -0.00943783 -0.0806951 -0.0721786 0.0791428 0.250331 -0.302278 -0.0860517 0.331215 0.0353884 -0.0386426 0.0982436 -0.319344 -0.248515 0.035069 -0.0441384 0.0935925 -0.370098 0.0116921 -0.0742813 -0.393452 0.0405668 0.169352 0.095427 -0.123236 -0.400265 0.195654 -0.133095 -0.291246 0.11989 -0.112315 -0.053972 0.0433018
461 -0.0391435 0.0782968 -0.173831 -0.216021 -0.0903239 0.199455 -0.0408572 -0.166851 -0.0134589 -0.160265 -0.0622938 -0.0666878 0.197859 -0.106141 0.197246 -0.000622084 0.0270678 0.292613 0.0882172 -0.0642243 -0.043638 0.0672323 -0.0329942 -0.0329691 0.0846893 0.101866 0.157326 -0.149908 0.153933 -0.106688 0.0270325 0.269102 0.0412416 -0.0388903 -0.0370754 -0.109935 0.232405 0.122994 -0.15116 -0.00660368 0.0369366 -0.0321368 -0.1588 -0.16697 -0.0829834 -0.110098 0.0770302 0.0067981 0.00299375 0.0821196 0.0498036 -0.0861297 -0.153325 0.0542705 0.0429601 0.0718518 0.0468865 0.16672 -0.143775 -0.0604569 -0.0965733 -0.00347778 -0.289318 -0.164816 0.0921613 -0.137944 -0.00710278 0.0733644 0.0513057 -0.0756657 0.0195616 -0.0791969 -0.330589 0.154486 0.0649319 -0.213218 -0.00290806 -0.288513 0.0693564 -0.0903675 0.173328 -0.0230823 0.0410118 0.104394 0.0244511 0.0494833 0.0139509 -0.301263 0.318828 0.168262 -0.162167 -0.112624 -0.0239303 -0.0940961 0.0236443 0.164529 -0.021501 -0.0472005 -0.041117 0.0264695 0.223108 -0.224008 -0.159683 0.318007 -0.0146947 -0.0654229 0.0864859 -0.268733 -0.209992 0.143363 -0.103113 0.159267 -0.381054 0.0169097 -0.0886707 -0.317026 0.039523 0.130598 0.0981286 -0.13397 -0.307937 0.153242 -0.137351 -0.242545 0.0812 -0.133121 -0.104343 -0.00398535
107 -0.0549991 0.0818674 -0.169682 -0.233859 -0.0772464 0.197986 -0.0195664 -0.173667 -0.0147849 -0.17006 -0.0815688 -0.0793226 0.186823 -0.116878 0.175342 0.007144 0.0166293 0.275955 0.0994019 -0.0576342 -0.0195013 0.0651765 -0.0454731 -0.0572598 0.0778715 0.111969 0.146791 -0.147738 0.154151 -0.0862122 0.0390508 0.247691 0.0387261 -0.0359261 -0.0294444 -0.105046 0.240036 0.130164 -0.14199 0.00330682 0.0146551 -0.0237365 -0.140382 -0.153006 -0.0878757 -0.0781194 0.0733172 0.0208315 -0.0108352 0.0825284 0.0595194 -0.0769461 -0.14832 0.0542792 0.021872 0.0946059 0.030665 0.17039 -0.134556 -0.0515705 -0.0941199 -0.0196121 -0.311103 -0.177105 0.0922446 -0.138614 -0.00627483 0.0802422 0.0427283 -0.0726093 0.0182138 -0.0664279 -0.326121 0.150843 0.0715237 -0.202002 0.00474787 -0.290764 0.0801776 -0.102557 0.181514 -0.0206975 0.0333998 0.0762621 0.0176299 0.0580158 0.0136506 -0.269027 0.327476 0.172121 -0.181469 -0.10136 -0.0322365 -0.0879815 0.0230341 0.173664 -0.0166949 -0.0316699 -0.0582238 0.0155431 0.229342 -0.226135 -0.134684 0.314989 -0.010587 -0.0818541 0.0826851 -0.274166 -0.222239 0.134084 -0.0952803 0.187314 -0.386072 0.0223922 -0.071577 -0.316505 0.0657514 0.131293 0.107294 -0.147511 -0.277263 0.146117 -0.136536 -0.229723 0.0834944 -0.129872 -0.0875112 -0.00678309
303 -0.0871306 0.0725026 -0.148595 -0.253186 -0.0744103 0.204613 -0.0114174 -0.153908 -0.0441041 -0.18728 -0.0796305 -0.0964001 0.185257 -0.205416 0.0836558 0.0611074 0.0160562 0.266397 0.157634 -0.0194198 0.0138495 0.0521508 -0.0733314 -0.0831228 0.127096 0.084113 0.0710254 -0.156727 0.139723 -0.0746726 0.0358362 0.254988 0.0601213 -0.00440279 0.0118981 -0.0890766 0.224365 0.11896 -0.123345 0.0119108 0.0179272 -0.0369929 -0.104096 -0.121453 -0.0640349 0.00633913 0.0840557 0.0763568 -0.0641497 0.0963737 0.0642144 -0.0987274 -0.129746 0.107181 -0.0189702 0.154294 -0.0169857 0.15526 -0.144134 -0.0431171 -0.0534595 -0.0533764 -0.366136 -0.216667 0.121824 -0.140992 -0.0289424 0.100837 0.052589 -0.0940306 0.0100081 -0.031875 -0.334373 0.163745 0.0948453 -0.200657 0.00982225 -0.275203 0.0609475 -0.110768 0.192184 -0.064422 -0.00125313 0.0143206 -0.0337738 0.0749023 -0.00788694 -0.232269 0.338198 0.136653 -0.192698 -0.0440409 -0.0429858 -0.0257868 0.0354524 0.230752 -3.0004e-05 0.00990226 -0.0577635 -0.0388197 0.223412 -0.196498 -0.124494 0.321817 0.00589558 -0.0923433 0.0905222 -0.286277 -0.253699 0.167793 -0.124873 0.240922 -0.40706 0.0033737 -0.0595596 -0.27349 0.0992613 0.105701 0.115749 -0.149084 -0.223455 0.126078 -0.118781 -0.217916 0.0637752 -0.152758 -0.0965826 -0.00184344
744 -0.0402761 0.1285 -0.202561 -0.313958 -0.0748607 0.245981 -0.0149338 -0.242772 -0.00315235 -0.164494 -0.14282 -0.0851817 0.160334 -0.081358 0.205543 -0.0452766 0.0923726 0.293406 0.121198 -0.0918405 -0.0191488 0.089369 -0.0246223 -0.0688962 0.0634703 0.133402 0.161467 -0.11779 0.117139 -0.0526358 0.0167997 0.240917 -0.00235136 -0.0250263 -0.0867527 -0.0990399 0.242393 0.129173 -0.132626 -0.0298434 -0.0285538 0.0302814 -0.173353 -0.150392 -0.0915877 -0.0806428 0.0679119 0.034263 0.00849396 0.0480307 0.0865757 -0.05506 -0.152605 0.033636 0.0317739 0.077508 0.05278 0.209402 -0.112151 -0.0284189 -0.0774351 0.00182164 -0.300976 -0.159023 0.0557228 -0.144944 -0.0205092 0.0838737 -0.00795167 -0.052152 0.00183283 -0.0692728 -0.286261 0.14583 0.0791219 -0.176327 0.0121195 -0.277963 0.124436 -0.0931369 0.188551 0.0240982 0.0295693 0.0541699 0.0341143 0.0645093 0.013509 -0.252406 0.328272 0.194741 -0.15091 -0.126047 -0.0866405 -0.118038 0.0292598 0.129755 -0.0147553 -0.0172521 -0.0679941 0.0491941 0.194873 -0.216875 -0.163212 0.312291 -0.035437 -0.112736 0.0467217 -0.24813 -0.181812 0.141955 -0.0743054 0.187534 -0.343662 0.0407629 -0.0487337 -0.321268 0.0814336 0.118441 0.115283 -0.151824 -0.220847 0.105665 -0.156451 -0.163386 0.0868889 -0.110949 -0.0777385 -0.0393927
403 -0.0387943 0.143596 -0.212112 -0.346396 -0.0790975 0.261073 -0.0209572 -0.271417 -0.0078109 -0.163304 -0.149519 -0.0838325 0.156761 -0.0572815 0.214267 -0.0559263 0.107546 0.287922 0.123731 -0.0893136 -0.0221845 0.0851975 -0.0160733 -0.0776252 0.0545165 0.137541 0.17055 -0.108527 0.105657 -0.0406786 0.0247134 0.23935 -0.0104005 -0.0271351 -0.0851258 -0.0921556 0.234338 0.119154 -0.132808 -0.038389 -0.0302745 0.0314706 -0.181046 -0.144912 -0.0919723 -0.0849826 0.0691723 0.0511398 0.0154203 0.0426936 0.0968256 -0.0440666 -0.164986 0.0214321 0.027655 0.0719722 0.0632845 0.223362 -0.106068 -0.0331272 -0.0727164 0.00277557 -0.290051 -0.149329 0.0575653 -0.140161 -0.0114971 0.0864629 -0.0269059 -0.0412305 0.00181409 -0.0670332 -0.270761 0.144588 0.0763944 -0.167668 0.0130687 -0.276718 0.122685 -0.0941373 0.185541 0.034294 0.0349244 0.0592033 0.0375363 0.05732 0.0151986 -0.246869 0.305458 0.192955 -0.147797 -0.136545 -0.0885995 -0.121076 0.0340624 0.106709 -0.0173866 -0.0148409 -0.0713718 0.0642112 0.188672 -0.198977 -0.152374 0.302809 -0.0426895 -0.110839 0.0516001 -0.21837 -0.161678 0.124368 -0.0684066 0.18289 -0.325897 0.0407066 -0.0474038 -0.321366 0.0777034 0.111689 0.115198 -0.156531 -0.210579 0.108721 -0.168472 -0.144398 0.0998366 -0.0984292 -0.0788531 -0.0470045
537 -0.0243255 0.197468 -0.262553 -0.42732 -0.0882735 0.327229 -0.0189551 -0.370363 0.00895428 -0.16997 -0.208677 -0.10677 0.123643 0.00665013 0.292207 -0.120887 0.175323 0.33284 0.112243 -0.130126 -0.027508 0.100861 0.0161128 -0.0890661 0.0297993 0.175507 0.21441 -0.10545 0.0923313 0.00495146 0.0252015 0.247199 -0.0233888 -0.0698663 -0.137561 -0.0975604 0.281238 0.14686 -0.148049 -0.0848827 -0.0782623 0.0500843 -0.198416 -0.153495 -0.120851 -0.0964991 0.0588763 0.0596007 0.0399839 0.00729483 0.121896 -0.0104128 -0.196846 -0.0375836 0.0475438 0.0449284 0.112173 0.2991 -0.0949488 -0.0205587 -0.104089 0.0258136 -0.263073 -0.132259 0.0278877 -0.140421 -0.014805 0.0819169 -0.0720975 -0.0187132 -0.0120398 -0.0585548 -0.246578 0.155805 0.0564589 -0.171289 0.0391926 -0.309089 0.176007 -0.108645 0.205302 0.0913389 0.0672742 0.0629706 0.0814709 0.0462435 0.0182084 -0.237355 0.333586 0.252487 -0.163302 -0.19436 -0.134476 -0.170289 0.041609 0.0621871 -0.0198979 -0.0064927 -0.0887292 0.110108 0.18579 -0.211199 -0.161713 0.328425 -0.049321 -0.107962 0.0213574 -0.20603 -0.127059 0.093862 -0.0251083 0.206658 -0.292759 0.075977 -0.0452211 -0.345881 0.0822335 0.123967 0.126661 -0.184518 -0.187858 0.0894177 -0.181506 -0.134339 0.121183 -0.0731696 -0.0561448 -0.0879366
856 -0.0389535 0.0676166 -0.160356 -0.110677 -0.0758052 0.135175 -0.0163787 -0.118404 0.0294868 -0.153017 -0.0347791 -0.0815338 0.183163 -0.027901 0.251974 -0.0113025 -0.0686789 0.244353 0.00110703 -0.0707713 -0.0698033 0.0707213 -0.0342863 -0.0361533 0.0233139 0.134683 0.205979 -0.160117 0.212528 -0.100462 0.0847675 0.226891 0.020884 -0.0791959 0.00011013 -0.141337 0.264335 0.180923 -0.148358 0.0281328 0.0382914 -0.0324495 -0.120446 -0.135463 -0.109278 -0.166276 0.0408046 -0.0722433 0.0364672 0.0994338 0.0585597 -0.0625046 -0.145076 0.00822348 0.0703607 0.0487247 0.0343828 0.124816 -0.131912 -0.0535715 -0.190521 -0.0291758 -0.255061 -0.16278 0.0752031 -0.165127 0.0121999 0.0394175 0.0475502 -0.0733712 0.03072 -0.120221 -0.371292 0.149278 0.0665966 -0.215912 0.0307025 -0.314331 0.0801536 -0.103614 0.169194 0.0049053 0.068234 0.152445 0.0652671 0.0660278 0.0490002 -0.297196 0.292772 0.207447 -0.212587 -0.167902 0.0164211 -0.113675 0.00304465 0.135458 -0.0421709 -0.0839327 -0.0692995 0.0455776 0.266682 -0.280034 -0.0960204 0.33773 0.009885 -0.0560019 0.107176 -0.314659 -0.234773 0.0578423 -0.0543881 0.136058 -0.383802 0.0359117 -0.0725473 -0.379206 0.0453312 0.171677 0.100443 -0.133253 -0.360576 0.182127 -0.119139 -0.285608 0.110898 -0.112829 -0.0631587 0.0346425
583 -0.0355434 0.0688071 -0.159955 -0.14024 -0.0774451 0.130945 -0.0227032 -0.0994315 0.0070241 -0.150001 -0.0696053 -0.0776446 0.151189 -0.0697221 0.197459 0.00128668 -0.02945 0.266312 0.045482 -0.068766 -0.0406307 0.0685364 -0.0630001 -0.0555265 0.0601606 0.11816 0.170551 -0.139137 0.171294 -0.103167 0.0528029 0.242089 0.014178 -0.0444779 -0.0320858 -0.128454 0.249232 0.168514 -0.136232 0.02743 0.0198881 -0.0195463 -0.109566 -0.143352 -0.0933872 -0.12834 0.0552863 -0.0480867 0.025729 0.115805 0.060034 -0.0723885 -0.131309 0.0500349 0.0661344 0.0717659 0.0241736 0.114711 -0.130118 -0.0495492 -0.141022 -0.0213103 -0.275876 -0.160901 0.066498 -0.167314 -0.0101272 0.0587429 0.0449466 -0.0941524 6.24219e-05 -0.103843 -0.352992 0.138866 0.0675038 -0.200079 0.0183134 -0.28362 0.0937441 -0.0901095 0.170694 -0.00981042 0.0269267 0.0891769 0.0453325 0.070012 0.0327018 -0.286153 0.304983 0.185589 -0.199932 -0.133456 0.00101861 -0.115351 0.0212905 0.163475 -0.0378017 -0.0792828 -0.0586106 0.0297412 0.242889 -0.269298 -0.123382 0.342621 0.00669137 -0.0842019 0.0715519 -0.308341 -0.24849 0.108675 -0.0664865 0.152986 -0.403021 0.0334279 -0.05158 -0.36697 0.0564681 0.156914 0.097573 -0.126147 -0.31536 0.144908 -0.120737 -0.233179 0.0940845 -0.116282 -0.0605123 0.0346869
781 -0.0423338 0.0756591 -0.161931 -0.191854 -0.083359 0.183028 -0.0195196 -0.15908 0.0015901 -0.166851 -0.0560084 -0.0926452 0.194385 -0.0799049 0.216618 -0.00229781 -0.0110357 0.282951 0.0691421 -0.0603731 -0.0503301 0.0812392 -0.0316574 -0.0424002 0.049963 0.127823 0.17236 -0.153307 0.174638 -0.100423 0.0582805 0.244878 0.0276534 -0.0451743 -0.0235035 -0.131861 0.247074 0.146647 -0.142391 0.0218305 0.0438781 -0.0294218 -0.151921 -0.15694 -0.093181 -0.120573 0.0643997 -0.0174328 0.0124738 0.0947601 0.0537258 -0.0803404 -0.148909 0.0477275 0.0321507 0.0714003 0.032206 0.153247 -0.132064 -0.0433886 -0.133232 -0.023984 -0.298081 -0.17751 0.0943625 -0.148717 0.00222453 0.069161 0.0589055 -0.0691965 0.0230346 -0.0979789 -0.349753 0.151083 0.0845436 -0.212232 0.0131644 -0.296352 0.0775149 -0.0983047 0.173154 -0.00174094 0.0577308 0.109552 0.0328506 0.0574212 0.02655 -0.289453 0.305683 0.176251 -0.195992 -0.132734 -0.0141691 -0.0961681 0.00803434 0.166909 -0.0159879 -0.0404153 -0.0596232 0.0329273 0.237702 -0.252304 -0.140145 0.331007 0.001244 -0.0700777 0.102144 -0.297939 -0.234985 0.117033 -0.0904634 0.165981 -0.396027 0.0154917 -0.0800283 -0.345238 0.0497495 0.135681 0.0940799 -0.132894 -0.326467 0.16528 -0.135441 -0.245719 0.0899721 -0.120303 -0.0865483 0.010191
46 -0.0242019 0.0905088 -0.173354 -0.242715 -0.0974173 0.208774 -0.038599 -0.159869 -0.0304124 -0.148891 -0.0701103 -0.064036 0.19319 -0.131562 0.157322 0.000501914 0.0593135 0.294255 0.109919 -0.0699875 -0.0250158 0.0582732 -0.0480093 -0.0449101 0.105151 0.0845012 0.139687 -0.127873 0.116183 -0.114145 0.00526318 0.27529 0.0397908 -0.0131296 -0.0632906 -0.0886744 0.208093 0.112699 -0.145859 -0.0201735 0.0235281 -0.0278359 -0.161686 -0.170537 -0.0770866 -0.0878824 0.0992529 0.023196 -0.00438678 0.0699063 0.054952 -0.0966913 -0.141493 0.0791603 0.0325168 0.0819796 0.0495987 0.174836 -0.140832 -0.0544487 -0.0559489 0.00596902 -0.280781 -0.162828 0.100157 -0.129258 -0.0115778 0.0923952 0.0467657 -0.0800025 0.00242764 -0.0606607 -0.295165 0.148804 0.0666935 -0.204868 -0.0198065 -0.257082 0.0755078 -0.0756132 0.178226 -0.0362465 0.0208719 0.0735177 0.00320822 0.0399358 0.00317378 -0.301993 0.325749 0.153878 -0.14362 -0.0965939 -0.0392459 -0.0973023 0.035619 0.164432 -0.0266734 -0.0398937 -0.0186551 0.0152688 0.227725 -0.214093 -0.187876 0.319357 -0.031234 -0.0909445 0.0621342 -0.261146 -0.209532 0.184161 -0.121324 0.171491 -0.37864 0.0146242 -0.0761754 -0.297745 0.0446774 0.110103 0.100365 -0.134517 -0.276353 0.133933 -0.146048 -0.196852 0.0737581 -0.130843 -0.111025 -0.0141693
92 -0.030182 0.0669736 -0.14854 -0.142927 -0.0774098 0.138635 -0.022571 -0.113952 0.00370007 -0.152949 -0.0741918 -0.0808029 0.171481 -0.0831665 0.185326 0.00571485 -0.0149955 0.256445 0.0596174 -0.0650289 -0.0319803 0.0640599 -0.0411354 -0.0478989 0.0455562 0.126896 0.155371 -0.151267 0.156627 -0.0923081 0.0454761 0.223583 0.0256113 -0.0358642 -0.0314541 -0.118547 0.248174 0.145868 -0.123751 0.0182637 0.0270851 -0.0235209 -0.116822 -0.148687 -0.0990438 -0.10577 0.0613493 -0.0237457 0.0118926 0.111611 0.0574943 -0.0921267 -0.14403 0.0663605 0.0341682 0.0692683 0.0311864 0.125439 -0.125825 -0.0450971 -0.130753 -0.0399867 -0.292935 -0.16829 0.0818317 -0.144599 0.00191401 0.0683477 0.054824 -0.0893095 0.00916723 -0.0970494 -0.343802 0.151491 0.0861533 -0.198656 0.0139271 -0.287293 0.0960836 -0.0847378 0.184161 -0.011199 0.0284563 0.0754282 0.0306546 0.0693027 0.0236718 -0.247678 0.289633 0.166206 -0.204402 -0.115262 -0.0186026 -0.0973227 0.022375 0.174652 -0.0171296 -0.0533134 -0.0595228 0.0285941 0.232972 -0.254392 -0.119158 0.323539 0.0182967 -0.079049 0.0792675 -0.296138 -0.249531 0.123022 -0.0771709 0.162473 -0.389426 0.0220128 -0.0547801 -0.337985 0.0650605 0.135462 0.101931 -0.122083 -0.303996 0.1498 -0.125367 -0.233234 0.0960092 -0.128072 -0.0682447 0.0224
53 0.0508806 0.0671824 -0.192879 -0.387636 -0.197169 0.383618 -0.137242 -0.223991 -0.109176 -0.0982018 0.0393362 -0.010249 0.207459 -0.178666 0.142121 -0.0281343 0.179824 0.468287 0.185255 -0.0911996 -0.0694336 0.0297534 -0.0387857 0.0142421 0.272774 -0.0257587 0.149319 -0.204212 0.0348182 -0.234845 -0.0982723 0.408332 0.130575 -0.0173036 -0.122984 -0.0352504 0.165846 0.0114209 -0.241851 -0.142708 0.107063 -0.108346 -0.259957 -0.212664 -0.0380891 -0.0756101 0.161275 0.166837 -0.05804 -0.021251 0.00148505 -0.145572 -0.204489 0.0795349 0.0747804 0.037201 0.16389 0.270702 -0.211045 -0.128049 0.0650439 0.144586 -0.202942 -0.116033 0.170146 -0.0705433 -0.0256034 0.161594 0.0506081 -0.0481019 -0.00662322 0.0475877 -0.186212 0.117281 -0.019443 -0.239165 -0.0963711 -0.23449 0.0201651 -0.0870287 0.140841 -0.0193073 0.0604994 0.144628 -0.0391637 -0.135707 -0.0838488 -0.458341 0.41581 0.114898 -0.031234 -0.0593595 -0.0499142 -0.116511 0.0644882 0.168045 -0.0440913 -0.0322345 0.103071 0.0383569 0.227114 -0.0982658 -0.378369 0.300547 -0.104057 -0.010754 0.0379878 -0.153015 -0.110597 0.317517 -0.254804 0.159507 -0.334179 -0.06253 -0.164075 -0.199598 -0.0702581 0.0500376 0.069812 -0.154505 -0.31188 0.110763 -0.199411 -0.188782 0.0142873 -0.120831 -0.251537 -0.128355
690 0.0217435 0.059813 -0.166932 -0.118547 -0.108802 0.122765 -0.072014 -0.0185935 -0.0410073 -0.08787 -0.0740186 -0.0252141 0.0894658 -0.137952 0.103802 -0.00851897 0.0449562 0.310461 0.0813869 -0.098816 -0.00359144 0.0135376 -0.121798 -0.072398 0.183356 0.05025 0.134702 -0.143109 0.0763712 -0.161513 -0.0349613 0.335154 0.0495779 -0.012771 -0.128504 -0.0669169 0.231073 0.146991 -0.13968 -0.0522117 0.00184375 -0.0300911 -0.107451 -0.176455 -0.0894488 -0.0968346 0.0910202 0.00296219 0.00312126 0.131969 0.0370319 -0.13295 -0.116533 0.129723 0.101949 0.0676688 0.0646659 0.100842 -0.145176 -0.0800892 -0.0341705 0.0331285 -0.252956 -0.120556 0.0684573 -0.15444 -0.0538105 0.0904427 0.0363753 -0.158763 -0.0705361 -0.0262626 -0.287043 0.0998981 0.0298749 -0.205741 -0.00325772 -0.250285 0.11515 -0.0889643 0.188854 -0.0275721 -0.0450692 0.0129226 -0.00041228 0.0219848 -0.0152976 -0.323998 0.381388 0.174097 -0.14776 -0.0664869 -0.00828707 -0.158161 0.0684505 0.20439 -0.0598298 -0.115292 0.00270831 -0.00429149 0.255339 -0.270159 -0.213552 0.391157 0.0105506 -0.105171 -0.000608694 -0.30101 -0.270592 0.269275 -0.0966504 0.16659 -0.403715 0.0417006 -0.00886858 -0.345725 0.0484433 0.122675 0.0659793 -0.104881 -0.252861 0.0769639 -0.131197 -0.147568 0.0565784 -0.144081 -0.0863231 0.0295905
700 0.0084374 0.0559849 -0.167386 -0.0897531 -0.0962111 0.0909782 -0.0549961 0.014714 -0.0291759 -0.0963873 -0.0942564 -0.0349575 0.0932193 -0.157499 0.099095 0.00220741 0.0272513 0.287844 0.0814123 -0.0968676 0.0121506 0.0227918 -0.134963 -0.091397 0.165164 0.0753013 0.1326 -0.130416 0.0923719 -0.162307 -0.0303947 0.334133 0.0331667 -0.00526384 -0.13911 -0.078879 0.250343 0.174948 -0.116549 -0.0182967 -0.0106693 -0.0201198 -0.0945076 -0.188655 -0.103715 -0.0975842 0.0912487 -0.0246149 0.0113838 0.170636 0.0502999 -0.135665 -0.114513 0.15321 0.0897284 0.085678 0.0362457 0.0843038 -0.142028 -0.069383 -0.0570644 -0.000954274 -0.285687 -0.141838 0.0630969 -0.184418 -0.0602756 0.0893503 0.0390878 -0.18243 -0.0773228 -0.0417571 -0.324384 0.112 0.0500978 -0.211769 0.0122338 -0.272653 0.139211 -0.0830717 0.20883 -0.0399115 -0.0658847 -0.00820128 0.00415168 0.0656826 -0.0122966 -0.311703 0.393873 0.192801 -0.181387 -0.0675907 -0.00629378 -0.157603 0.0694541 0.229867 -0.06267 -0.121126 -0.020938 -0.00806798 0.271136 -0.310403 -0.190961 0.418998 0.0320223 -0.130126 0.00846366 -0.35218 -0.322906 0.279469 -0.0839325 0.1874 -0.451542 0.056462 0.0110656 -0.388259 0.0778307 0.142143 0.0784149 -0.11295 -0.259246 0.077791 -0.130538 -0.158044 0.0794739 -0.166869 -0.0695465 0.0567503
235 0.0111674 0.0849583 -0.166138 -0.137884 -0.0886033 0.123961 -0.0225988 -0.0614758 0.00401119 -0.120766 -0.109538 -0.0732423 0.20065 -0.166721 0.115054 0.0416252 0.040107 0.25506 0.0726657 -0.0698741 0.000623591 -0.00613509 -0.0393654 -0.0556819 0.0853114 0.0809071 0.114969 -0.120039 0.0930959 -0.126219 0.00241146 0.286859 0.0567312 -0.00750608 -0.105206 -0.0648685 0.250457 0.158596 -0.121485 -0.0275293 0.011191 -0.0670603 -0.113761 -0.203907 -0.134873 -0.0932634 0.120678 -0.00589488 0.00504842 0.151089 0.0423168 -0.155556 -0.136504 0.18829 0.0249917 0.0922706 0.0388271 0.151995 -0.152511 -0.0633829 -0.0899166 -0.0477068 -0.302256 -0.176533 0.118086 -0.131871 -0.00880439 0.0825436 0.104217 -0.166402 -0.0253626 -0.0626832 -0.362089 0.198701 0.092999 -0.23532 0.00951298 -0.293508 0.141421 -0.0552899 0.246225 -0.0967051 -0.0304408 0.0272043 -0.0217457 0.0728914 0.0255621 -0.241937 0.335448 0.176592 -0.214896 -0.0667965 -0.0306638 -0.0932487 0.072514 0.234014 -0.00436023 -0.0627556 -0.0237699 0.00602942 0.238358 -0.273953 -0.149101 0.339255 0.0332628 -0.132096 0.0598014 -0.321226 -0.326491 0.24199 -0.0821305 0.199875 -0.417025 0.0194888 -0.0503973 -0.33682 0.0807648 0.110806 0.136881 -0.123667 -0.301786 0.139753 -0.117102 -0.226134 0.124886 -0.1716 -0.0618365 0.0336441
239 0.00852905 0.0967204 -0.165941 -0.128232 -0.0893556 0.127903 -0.0184976 -0.0731291 0.00297514 -0.119454 -0.112087 -0.0713892 0.201738 -0.140474 0.120701 0.0296334 0.0337999 0.229078 0.0623912 -0.072281 0.00745389 0.0020636 -0.0254391 -0.045527 0.061676 0.0898037 0.113171 -0.111567 0.0941293 -0.115759 0.00260023 0.265182 0.0488165 -0.0084138 -0.102208 -0.0619214 0.237938 0.151105 -0.115029 -0.0317244 0.00892217 -0.0573871 -0.113727 -0.188287 -0.133798 -0.095401 0.108244 -0.0167259 0.0133974 0.134955 0.040858 -0.143564 -0.13224 0.173625 0.0212823 0.0814536 0.0419133 0.151318 -0.140562 -0.0483578 -0.0826933 -0.0511699 -0.274203 -0.167306 0.10508 -0.114595 0.00341236 0.07313 0.105459 -0.144484 -0.0223502 -0.0695193 -0.339963 0.19285 0.0920186 -0.215423 0.00249963 -0.270532 0.131467 -0.0437632 0.235991 -0.0934309 -0.0199916 0.0379718 -0.0113323 0.0734929 0.0338302 -0.223991 0.309749 0.166625 -0.199091 -0.0716155 -0.0368606 -0.0877947 0.0704864 0.206207 -5.16477e-05 -0.0546064 -0.0239335 0.00712339 0.231616 -0.256886 -0.13426 0.311557 0.0232179 -0.129074 0.058168 -0.303166 -0.302569 0.222693 -0.0784691 0.186997 -0.381217 0.0164224 -0.0562686 -0.316215 0.074261 0.103099 0.129015 -0.119644 -0.289764 0.139579 -0.117751 -0.214077 0.120154 -0.161929 -0.0547952 0.0242721
209 0.105824 0.106699 -0.144219 0.0396271 -0.114517 0.0427956 -0.013898 0.0746705 0.0275824 -0.0587934 -0.131898 -0.0653785 0.239362 -0.199058 0.0221182 0.0930295 0.0310935 0.176439 -0.0132022 -0.0683234 0.0605518 -0.128201 0.0147178 -0.0304352 0.067417 0.0483158 0.0561688 -0.136944 0.0485602 -0.168754 -0.0262038 0.315843 0.141389 -0.0129888 -0.145481 -0.00732765 0.276215 0.205 -0.114101 -0.0961829 0.0183525 -0.187681 -0.0385838 -0.259147 -0.223619 -0.0957421 0.169845 -0.0275693 -0.00804081 0.238375 0.00624091 -0.253435 -0.156245 0.363727 -0.00597636 0.0853493 0.0632493 0.15025 -0.16576 -0.0578665 -0.0944569 -0.122607 -0.260581 -0.191297 0.184596 -0.071385 0.0173893 0.0854322 0.22203 -0.254863 -0.0645181 -0.0405267 -0.397513 0.279153 0.0977812 -0.29155 0.0263124 -0.302918 0.198234 0.0124726 0.357962 -0.213499 -0.0799692 -0.0236309 -0.0708588 0.0746769 0.0494905 -0.151618 0.343789 0.158416 -0.298197 -0.0233579 -0.0245603 -0.0659944 0.137137 0.31484 0.0399452 -0.0752791 0.0018265 -0.0474268 0.294126 -0.303583 -0.0997625 0.344383 0.111377 -0.159899 0.0461195 -0.377721 -0.45373 0.32344 -0.0651266 0.228109 -0.398537 -0.0186355 -0.0419549 -0.323098 0.0866803 0.0742603 0.192732 -0.102276 -0.322796 0.159023 -0.0598689 -0.278491 0.182127 -0.22913 -0.0133596 0.0726164
433 -0.17448 0.132024 -0.194716 -0.328163 0.00165067 0.181515 -0.0217377 -0.263776 -0.0506005 -0.191706 -0.183365 -0.089034 0.245326 -0.359913 0.0990097 0.131784 0.116029 0.305635 0.0953172 -0.0350152 0.045838 -0.0378283 -0.0894209 -0.104004 0.175464 -0.0715956 0.118686 0.0121437 0.157724 -0.0672614 -0.0179985 0.345431 0.0904642 -0.0671457 -0.0170829 0.0162413 0.225081 0.197633 -0.309416 -0.0719418 -0.0432765 -0.105522 -0.0500083 -0.181824 -0.00165697 -0.0351709 0.113363 -0.0285402 -0.00942694 0.0625536 -0.0180462 -0.0534869 -0.00794636 0.103872 0.0246199 0.12523 -0.0167851 0.188104 -0.194243 -0.139721 -0.0959063 0.110955 -0.137177 -0.122791 0.118672 -0.00679815 0.0245911 0.0536881 0.0772261 -0.112638 0.0689619 0.00606885 -0.179826 0.0985395 -0.111479 -0.330623 -0.099723 -0.190958 0.00383059 0.017047 0.264169 -0.331859 -0.0219981 0.0395101 -0.0275412 0.0834859 0.0617729 -0.328557 0.51616 0.166239 -0.0427149 -0.134364 -0.0253898 -0.0118642 -0.0421996 0.0864457 -0.193772 -0.0623547 0.0131053 -0.0889591 0.277635 -0.204816 -0.154609 0.151371 -0.0752839 -0.140347 0.0525678 -0.340216 -0.158624 0.239161 -0.0563919 0.446561 -0.639051 0.169027 -0.169535 -0.294993 0.0376756 0.213384 0.205522 -0.161226 -0.0139308 0.155283 0.0722264 -0.348664 0.119689 -0.117927 0.00621665 -0.11194
606 -0.0817853 0.0938337 -0.159379 -0.221408 -0.0420339 0.14754 -0.0199647 -0.140792 -0.0273225 -0.140034 -0.126852 -0.0677526 0.162001 -0.198467 0.111409 0.0434841 0.0604944 0.253815 0.0976841 -0.0583715 0.0194194 0.0214432 -0.0749925 -0.0830284 0.125733 0.0339178 0.11711 -0.0647244 0.118209 -0.079421 -0.0013703 0.271708 0.0417586 -0.0249563 -0.0546966 -0.0547521 0.209964 0.147345 -0.16851 -0.025775 -0.0274685 -0.0363774 -0.0925409 -0.154453 -0.0547444 -0.050294 0.0824258 -0.00251539 0.000736861 0.0867346 0.0363039 -0.074155 -0.0722691 0.0951618 0.0352487 0.100198 0.00674651 0.137466 -0.139797 -0.0697191 -0.0713657 0.0290289 -0.227704 -0.136698 0.0766716 -0.0982373 -0.0127629 0.0685906 0.0406917 -0.105283 0.000590517 -0.0392073 -0.246035 0.113228 0.0125211 -0.225403 -0.0252744 -0.225395 0.0686272 -0.0468499 0.201159 -0.126097 -0.01918 0.022776 -0.00467219 0.0777435 0.02441 -0.262078 0.374837 0.162404 -0.120964 -0.0958405 -0.0368177 -0.074631 0.0142832 0.1389 -0.0813751 -0.057014 -0.0266564 -0.0270229 0.231123 -0.218734 -0.143172 0.259338 -0.0198354 -0.118902 0.0433745 -0.293939 -0.2054 0.199889 -0.062933 0.252181 -0.447207 0.0805549 -0.0680466 -0.299941 0.0687021 0.142034 0.12328 -0.124116 -0.146849 0.113199 -0.0628966 -0.219345 0.085594 -0.122553 -0.0362017 -0.0250913
436 -0.13671 0.147806 -0.19879 -0.305542 -0.00912845 0.175481 -0.00909994 -0.261657 -0.0152868 -0.190979 -0.197906 -0.0827844 0.233244 -0.246177 0.16568 0.0546734 0.10503 0.28089 0.0873048 -0.0732729 0.0401436 0.0276753 -0.0498431 -0.100238 0.119481 0.0246088 0.168132 -0.0181264 0.172111 -0.0500741 -0.00709032 0.312252 0.0296329 -0.0513703 -0.0627001 -0.0578044 0.254434 0.205984 -0.251005 -0.0390354 -0.062324 -0.0369521 -0.113816 -0.189162 -0.0467976 -0.0696497 0.106738 -0.0383466 0.0267438 0.0576303 0.0218833 -0.055975 -0.0506997 0.0724649 0.0399593 0.112815 0.0018467 0.191916 -0.147095 -0.0891899 -0.110729 0.0642969 -0.220469 -0.150068 0.0809538 -0.0606931 0.0113463 0.0584894 0.0388195 -0.091939 0.0468486 -0.0466991 -0.243435 0.126979 -0.03434 -0.292645 -0.0708808 -0.240244 0.0612103 -0.0198527 0.261437 -0.219035 -0.0143206 0.0408082 0.0116722 0.107577 0.0626086 -0.308846 0.470484 0.199184 -0.0933568 -0.160755 -0.0683374 -0.0812638 -0.0272655 0.0881167 -0.134922 -0.0610937 -0.0289758 -0.0332695 0.271958 -0.248487 -0.152158 0.226382 -0.0653319 -0.143806 0.0442787 -0.348364 -0.182754 0.21187 -0.040684 0.365421 -0.578911 0.155236 -0.126104 -0.370297 0.058764 0.19307 0.189684 -0.147551 -0.106681 0.159726 -0.00692588 -0.294029 0.116892 -0.126953 -0.0087453 -0.0885558
521 -0.0651054 0.169304 -0.248536 -0.425275 -0.0792624 0.298221 -0.0139769 -0.328203 -0.00496775 -0.185765 -0.175661 -0.0957481 0.177465 -0.0823697 0.228562 -0.0529815 0.135684 0.321889 0.15355 -0.0941301 -0.0302925 0.0905382 -0.021316 -0.0916472 0.0575665 0.1378 0.173824 -0.0835694 0.107254 -0.0214935 0.0299177 0.252109 -0.0111009 -0.0319555 -0.0975371 -0.0938204 0.261114 0.135482 -0.14412 -0.0416276 -0.0484599 0.0478703 -0.191843 -0.15305 -0.0856455 -0.0866141 0.0798026 0.0595919 0.0116414 0.0443516 0.106726 -0.0360064 -0.173451 0.0241744 0.0241925 0.0838496 0.0515266 0.269957 -0.129024 -0.0413943 -0.0846109 0.00996067 -0.312321 -0.169273 0.0601219 -0.152942 -0.0165054 0.099775 -0.032876 -0.0507853 0.000540109 -0.0678134 -0.286661 0.168737 0.085741 -0.181268 0.00909857 -0.294143 0.139876 -0.101032 0.207401 0.0246978 0.0396262 0.0587177 0.0386379 0.0853656 0.0129898 -0.262095 0.345887 0.221864 -0.153191 -0.146558 -0.115468 -0.125836 0.0462748 0.106148 -0.0285509 -0.00538251 -0.0752652 0.066936 0.189647 -0.218756 -0.167639 0.326808 -0.0623964 -0.129817 0.0624824 -0.23545 -0.163851 0.141224 -0.0666482 0.227877 -0.35623 0.0635779 -0.0607878 -0.343825 0.0938151 0.119019 0.141051 -0.188786 -0.206136 0.114596 -0.17832 -0.165343 0.121972 -0.0961783 -0.0849439 -0.0658285
680 0.0575923 0.0105555 -0.142631 0.0248717 -0.117628 0.0301439 -0.0923072 0.131979 -0.0486867 -0.0306304 -0.0558593 0.00206824 0.00160308 -0.154234 0.0523593 -0.0123422 0.0202052 0.330575 0.0459768 -0.121225 0.00552535 -0.00491735 -0.203324 -0.104488 0.252788 0.0374992 0.129514 -0.153208 0.0472819 -0.210861 -0.0608798 0.388494 0.052807 -0.0178739 -0.189418 -0.0637395 0.259799 0.192836 -0.113976 -0.0620837 -0.0178574 -0.0326919 -0.0594051 -0.187276 -0.108208 -0.126063 0.0807754 -0.0474197 0.0220011 0.208429 0.0307823 -0.166629 -0.102265 0.178495 0.175051 0.0585331 0.0683566 0.0223232 -0.158648 -0.105076 -0.0438816 0.0445954 -0.248499 -0.0999112 0.0452186 -0.20689 -0.0894883 0.0923378 0.0151681 -0.255871 -0.14315 -0.0124755 -0.301968 0.0486399 0.00270823 -0.202225 0.0167457 -0.256343 0.149602 -0.104714 0.203308 -0.00633538 -0.10354 -0.0365244 0.0169768 0.0316187 -0.0511996 -0.357969 0.442833 0.219733 -0.181386 -0.0476142 0.0364353 -0.217513 0.0824005 0.242985 -0.0970727 -0.189566 0.0269664 -0.0124177 0.285068 -0.350626 -0.235843 0.482733 0.0667292 -0.118974 -0.0488498 -0.368079 -0.348995 0.35002 -0.0778196 0.157949 -0.463757 0.0629192 0.0636236 -0.412087 0.0600777 0.155495 0.0271125 -0.098068 -0.2396 0.019936 -0.133063 -0.117487 0.0651902 -0.164426 -0.0614576 0.100973
147 -0.0317113 0.140344 -0.22323 -0.33292 -0.0834619 0.25426 -0.0166308 -0.257816 -0.0113813 -0.165115 -0.169485 -0.0922462 0.118351 -0.0566972 0.202467 -0.0578172 0.11864 0.304432 0.137993 -0.106217 -0.00808137 0.0895964 -0.0331056 -0.0948852 0.0651534 0.147206 0.160404 -0.109593 0.0863892 -0.0325726 0.00976061 0.242195 -0.0100222 -0.0336587 -0.114972 -0.0952844 0.257388 0.131758 -0.113672 -0.0432183 -0.0514341 0.0412315 -0.168451 -0.145227 -0.0962172 -0.0640806 0.0666642 0.0469666 0.0204098 0.0493133 0.100116 -0.0563407 -0.15977 0.032091 0.036193 0.0812192 0.0652975 0.217113 -0.0976222 -0.0198224 -0.076187 0.00356526 -0.305279 -0.157909 0.0417417 -0.152109 -0.0255215 0.0808897 -0.0326563 -0.0669279 -0.0213003 -0.0621343 -0.255075 0.136868 0.0778457 -0.156882 0.023142 -0.272185 0.14299 -0.101013 0.186297 0.0531405 0.0221567 0.0202777 0.0464504 0.0663192 0.00609113 -0.231742 0.323658 0.201429 -0.158674 -0.130428 -0.101485 -0.133414 0.0309189 0.118656 -0.0142961 -0.013436 -0.0775703 0.0562032 0.180207 -0.219002 -0.156378 0.321937 -0.0228661 -0.110227 0.0223735 -0.227429 -0.167819 0.142039 -0.0471523 0.195401 -0.317915 0.056448 -0.021024 -0.321744 0.092445 0.110017 0.0990444 -0.151107 -0.18318 0.0842857 -0.157023 -0.121532 0.0868909 -0.0942417 -0.0644121 -0.0387164
566 -0.0600489 0.156955 -0.243227 -0.388527 -0.0909821 0.295602 -0.00968189 -0.295217 -0.012392 -0.20152 -0.175347 -0.105002 0.174676 -0.0965346 0.220267 -0.0415556 0.111329 0.331214 0.157815 -0.0885772 -0.00569888 0.101954 -0.0315952 -0.0964038 0.0846444 0.152362 0.169378 -0.133293 0.12106 -0.0379362 0.0264646 0.283524 0.00121982 -0.0307877 -0.0899304 -0.108583 0.273186 0.143419 -0.145128 -0.0305326 -0.0408743 0.0293128 -0.172756 -0.159866 -0.098406 -0.0611203 0.0735153 0.0619964 -0.00238202 0.0585323 0.111883 -0.0634213 -0.179515 0.0370952 0.0231196 0.105263 0.059219 0.252778 -0.126631 -0.026544 -0.0815759 -0.013081 -0.350413 -0.195095 0.0669362 -0.160286 -0.0255354 0.0994819 -0.0147851 -0.0645882 0.0010044 -0.0599535 -0.320479 0.173073 0.091654 -0.190267 0.012912 -0.320174 0.144468 -0.119344 0.224765 0.0250831 0.0268925 0.0364431 0.0377512 0.0721272 0.00616907 -0.269986 0.370978 0.220161 -0.190719 -0.141989 -0.108002 -0.130027 0.0453447 0.152214 -0.00746294 -0.00963048 -0.0836754 0.0446701 0.22635 -0.234741 -0.170915 0.363305 -0.0351393 -0.124613 0.0512515 -0.271552 -0.205883 0.151964 -0.0790193 0.230283 -0.374429 0.0494925 -0.0483463 -0.344449 0.101452 0.124224 0.137108 -0.175175 -0.226313 0.116561 -0.169589 -0.172035 0.0943954 -0.119406 -0.0843818 -0.0540184
374 -0.0469087 0.14712 -0.22975 -0.369808 -0.0847742 0.278474 -0.0156282 -0.280179 -0.0126165 -0.184702 -0.169846 -0.107393 0.147914 -0.0822578 0.208928 -0.0492716 0.116209 0.317726 0.155986 -0.0937015 -0.007399 0.101486 -0.0245267 -0.0920326 0.0757824 0.145989 0.153699 -0.124107 0.104471 -0.0346158 0.0217849 0.250226 -0.00651021 -0.0304681 -0.0954408 -0.101636 0.254538 0.128487 -0.119993 -0.0350577 -0.0389273 0.0375521 -0.174508 -0.146328 -0.0960809 -0.0468325 0.0651278 0.0556531 0.00389866 0.0461155 0.104743 -0.0639958 -0.171201 0.0339933 0.0164315 0.0985015 0.0576716 0.23025 -0.115403 -0.0191316 -0.0727404 0.000269793 -0.340208 -0.174461 0.053296 -0.155304 -0.0236247 0.0965865 -0.0239765 -0.0636156 -0.00633847 -0.0585703 -0.285803 0.152676 0.0916628 -0.175189 0.015008 -0.284996 0.143674 -0.112973 0.199474 0.0433767 0.0229799 0.0269718 0.0355656 0.0674547 0.00658929 -0.246581 0.34904 0.206032 -0.169401 -0.12872 -0.112286 -0.121331 0.0357027 0.137775 -0.00406724 -0.0043131 -0.0790683 0.0525239 0.193156 -0.220357 -0.1689 0.332855 -0.0231677 -0.118723 0.0348097 -0.245571 -0.188273 0.145694 -0.0676977 0.217412 -0.344717 0.043681 -0.0346147 -0.323409 0.099266 0.114574 0.115768 -0.158446 -0.204212 0.100264 -0.168798 -0.149639 0.0909716 -0.104734 -0.0793631 -0.044235
465 -0.0353213 0.128986 -0.228727 -0.370717 -0.107623 0.295487 -0.0390674 -0.258801 -0.0327963 -0.169383 -0.123294 -0.0819066 0.191685 -0.127614 0.193868 -0.0310714 0.119943 0.358533 0.158236 -0.0864902 -0.0238976 0.0764943 -0.0343148 -0.0654941 0.117196 0.10805 0.158607 -0.140159 0.105255 -0.0960531 0.00221579 0.304163 0.0323729 -0.0216587 -0.0965058 -0.0903754 0.245425 0.116389 -0.165131 -0.0522847 -0.000329525 -0.00902578 -0.189641 -0.180163 -0.0867945 -0.0689708 0.102953 0.0718013 -0.00617151 0.0511526 0.0786273 -0.0893786 -0.174879 0.0680313 0.0346699 0.0856951 0.0749031 0.242072 -0.1454 -0.0576928 -0.0490583 0.0239641 -0.316748 -0.172071 0.0997606 -0.140658 -0.0230029 0.104889 0.0139368 -0.0687147 -0.000179642 -0.0411078 -0.298709 0.164505 0.0719777 -0.206962 -0.0139801 -0.290102 0.108563 -0.104105 0.202209 0.000243319 0.0304141 0.0673672 0.0120103 0.0334023 -0.0105553 -0.31136 0.374278 0.186982 -0.152269 -0.113975 -0.0836411 -0.116569 0.0473392 0.158429 -0.0208768 -0.0233296 -0.036634 0.042214 0.216087 -0.209893 -0.216069 0.342952 -0.0483522 -0.106216 0.0557939 -0.245563 -0.18741 0.194786 -0.122539 0.210385 -0.379943 0.023514 -0.0771114 -0.318179 0.0660814 0.110718 0.121294 -0.164772 -0.25301 0.122159 -0.170684 -0.18205 0.0837564 -0.124117 -0.117635 -0.058435
125 -0.0451961 0.298277 -0.396063 -0.612105 -0.0786199 0.428725 0.0117455 -0.596651 0.0560166 -0.251828 -0.394663 -0.186234 0.0748224 0.139005 0.466007 -0.235094 0.251958 0.431994 0.149602 -0.22979 -0.0191518 0.199945 0.0560333 -0.155676 -0.0222206 0.332048 0.324472 -0.0906965 0.106315 0.116554 0.0497612 0.257519 -0.124828 -0.118015 -0.233309 -0.165087 0.406293 0.205159 -0.136021 -0.0998157 -0.192334 0.1746 -0.273776 -0.172237 -0.165454 -0.12077 0.00995933 0.023058 0.106937 -0.0116721 0.186968 0.0409095 -0.24012 -0.134292 0.0735075 0.0490433 0.170014 0.376694 -0.0440776 0.0378497 -0.181336 0.0545277 -0.358056 -0.154131 -0.0680709 -0.189695 -0.0198928 0.0619106 -0.176871 0.00356342 -0.0105925 -0.120081 -0.256581 0.160962 0.08445 -0.152652 0.0672414 -0.378979 0.29374 -0.152779 0.26344 0.220847 0.0873266 0.032026 0.20258 0.118098 0.0401434 -0.228489 0.400056 0.372984 -0.185114 -0.316594 -0.24547 -0.272454 -0.00198151 -0.00475186 -0.0123982 0.0102368 -0.189554 0.202321 0.165107 -0.288775 -0.16189 0.382504 -0.0369257 -0.15432 -0.0260547 -0.233204 -0.0883721 0.0360424 0.0682364 0.252381 -0.302139 0.153968 0.00970823 -0.46133 0.150175 0.178333 0.142169 -0.223381 -0.135004 0.0582238 -0.215163 -0.0768668 0.147285 -0.0262468 -0.00574354 -0.121005
152 -0.0311911 0.170535 -0.247723 -0.410596 -0.0857357 0.310417 -0.0181527 -0.341848 0.000963607 -0.168578 -0.189379 -0.101274 0.11286 0.0013638 0.246935 -0.098297 0.151997 0.321427 0.133778 -0.11468 -0.0243844 0.102259 0.00563053 -0.0836869 0.0489117 0.163363 0.184316 -0.101634 0.0812252 0.00308629 0.0196069 0.232378 -0.0226428 -0.0489254 -0.119371 -0.0970235 0.259445 0.121175 -0.119963 -0.0659043 -0.0667162 0.0522976 -0.187545 -0.127886 -0.0996394 -0.0720768 0.0494918 0.0632691 0.0215483 0.0157793 0.111002 -0.0165007 -0.181663 -0.0141893 0.0425938 0.0569274 0.0906806 0.261536 -0.0833366 -0.0136748 -0.087387 0.024108 -0.277905 -0.139046 0.0309153 -0.145058 -0.0206401 0.0814924 -0.0599518 -0.0279994 -0.0114133 -0.0593874 -0.23323 0.138418 0.0766176 -0.146644 0.0266845 -0.279881 0.159297 -0.108476 0.185983 0.0930932 0.0473564 0.0483489 0.0732127 0.0519357 0.0045233 -0.228445 0.304781 0.217515 -0.14119 -0.162293 -0.119691 -0.144388 0.0310421 0.0753035 -0.00790314 0.00279449 -0.0868022 0.088077 0.158947 -0.193842 -0.152231 0.305475 -0.0458732 -0.0990297 0.0263083 -0.177294 -0.113936 0.0896912 -0.0356404 0.184416 -0.25939 0.0553193 -0.0353159 -0.306104 0.0761022 0.102409 0.111695 -0.164031 -0.169097 0.0756737 -0.16891 -0.105532 0.0920413 -0.060228 -0.0696852 -0.0769081
355 -0.0462094 0.0539404 -0.157925 -0.20382 -0.0766649 0.147126 -0.0323986 -0.0981723 -0.0391169 -0.165714 -0.133689 -0.0766613 0.142445 -0.172723 0.105894 0.0176547 0.0380576 0.264084 0.153015 -0.0687475 0.0302686 0.0843819 -0.0836167 -0.0842566 0.11414 0.104423 0.0935553 -0.106385 0.0767878 -0.106362 -0.0310634 0.240787 -0.00110551 0.0376643 -0.0945484 -0.10378 0.184934 0.0918106 -0.0694678 0.0296373 0.0016525 0.0283314 -0.15054 -0.16013 -0.0560891 -0.0209704 0.0894646 -0.00254915 0.012904 0.104234 0.0463602 -0.122537 -0.0941759 0.128327 0.012447 0.119484 0.00958781 0.0908852 -0.0947532 -0.011663 -0.0223542 -0.0117325 -0.334956 -0.171442 0.0522562 -0.149837 -0.0413531 0.0813136 0.0522099 -0.111531 -0.0183015 -0.0745183 -0.277691 0.108537 0.102682 -0.157068 -0.0188889 -0.202865 0.10522 -0.0802708 0.157571 -0.0273505 -0.0416568 -0.0221507 -4.77544e-05 0.0841054 -0.00309976 -0.236709 0.321803 0.129374 -0.125539 -0.0478742 -0.0558059 -0.0840803 0.012371 0.209407 -0.00636157 -0.0400452 -0.042094 -0.00975823 0.162858 -0.229852 -0.185677 0.310035 0.0172691 -0.12655 0.0167724 -0.282244 -0.247661 0.235164 -0.0974225 0.166271 -0.40875 0.0296726 -0.0135263 -0.28788 0.0943587 0.0925869 0.0726106 -0.0831739 -0.22628 0.0928131 -0.125803 -0.136319 0.0350332 -0.148337 -0.0755786 0.0365228
319 -0.0762222 0.0524091 -0.183628 -0.331005 -0.0735112 0.20528 -0.0338048 -0.191811 -0.0516946 -0.250886 -0.229257 -0.131272 0.188977 -0.22481 0.128529 0.0108229 0.0836272 0.311454 0.276527 -0.091488 0.0678335 0.168175 -0.0618484 -0.108046 0.0870776 0.188569 0.0917575 -0.0834832 0.0396999 -0.100524 -0.0743953 0.208851 -0.0659134 0.11248 -0.150604 -0.148128 0.163814 0.0163497 0.00506033 0.0873598 0.011519 0.111871 -0.263664 -0.206455 -0.029298 0.0456708 0.10829 -0.0180559 0.0455012 0.080545 0.0423131 -0.183308 -0.0930632 0.175179 -0.0477463 0.171528 0.0198433 0.0811562 -0.0567601 0.0564406 0.0189142 -0.0105264 -0.489553 -0.220083 0.0268952 -0.158997 -0.0476923 0.0969304 0.075933 -0.0820441 -0.00193145 -0.131048 -0.265165 0.105597 0.179433 -0.120063 -0.0579269 -0.180217 0.151279 -0.0771362 0.137999 0.00814645 -0.0684287 -0.087808 0.0128771 0.129311 0.000852908 -0.215118 0.317161 0.094084 -0.0620008 -0.0306637 -0.12993 -0.0636374 -0.0496848 0.246133 0.0593404 0.0276716 -0.053343 0.00453488 0.0442594 -0.222251 -0.256557 0.285339 0.0453682 -0.174278 -0.00957216 -0.278914 -0.262366 0.314733 -0.135671 0.171214 -0.456563 0.0127023 -0.0166907 -0.27936 0.133562 0.0571721 0.0442904 -0.0481735 -0.230714 0.0942472 -0.148056 -0.0740788 -0.0190554 -0.17421 -0.0930936 0.047405
310 -0.0888767 0.0401847 -0.206901 -0.360847 -0.0863514 0.211236 -0.0549331 -0.214557 -0.0810043 -0.306455 -0.292175 -0.147581 0.209565 -0.289267 0.125583 0.0349355 0.107231 0.374638 0.337998 -0.113414 0.121233 0.209659 -0.0760894 -0.117998 0.133463 0.208237 0.0847328 -0.0792766 0.0207997 -0.130845 -0.141176 0.246497 -0.0868802 0.155747 -0.194411 -0.175968 0.143129 -0.0139503 0.0171501 0.122288 0.0268536 0.131299 -0.313816 -0.252881 -0.00701371 0.102747 0.146472 -0.0522958 0.0651027 0.0825769 0.00614145 -0.244267 -0.0674817 0.210821 -0.0632612 0.204302 0.019032 0.0326075 -0.0256203 0.0992402 0.0737574 0.0163542 -0.557066 -0.234928 0.00450304 -0.150268 -0.0694208 0.101634 0.101071 -0.0811335 -0.00340645 -0.157585 -0.235215 0.0654791 0.178639 -0.12357 -0.11196 -0.119247 0.159933 -0.0656701 0.125289 -0.0244332 -0.101521 -0.136422 0.0204871 0.137573 -0.0175283 -0.23923 0.376216 0.0608991 0.00460309 0.00281447 -0.149533 -0.0674813 -0.10102 0.283671 0.0711934 0.0217202 -0.0403662 -0.0292807 0.0188955 -0.238759 -0.341614 0.283785 0.0714909 -0.193377 -0.0659374 -0.315298 -0.282193 0.406648 -0.16308 0.179092 -0.539596 0.017199 0.00233423 -0.269738 0.136476 0.0478894 0.0199337 0.00021333 -0.210613 0.0821548 -0.129595 -0.041726 -0.077699 -0.19912 -0.0999362 0.0615119
615 -0.0477525 0.103226 -0.175229 -0.209039 -0.0682309 0.155949 -0.0266351 -0.113566 -0.024996 -0.153559 -0.105459 -0.0357844 0.195608 -0.154873 0.116967 0.0128804 0.0362507 0.212074 0.123574 -0.0591244 0.0150043 0.0609667 -0.0586482 -0.0495209 0.0777941 0.0976742 0.117907 -0.0913154 0.112964 -0.110664 -0.0106018 0.256578 0.000444755 0.0386311 -0.0757436 -0.0878607 0.171769 0.117378 -0.107058 0.0327505 0.00706077 0.0228782 -0.152048 -0.171651 -0.0818194 -0.0675174 0.104734 0.00342865 0.0061427 0.0851133 0.0695425 -0.0962441 -0.101956 0.100076 0.00866566 0.111094 0.00183081 0.12507 -0.105427 -0.0251845 -0.0157449 -0.0247185 -0.300843 -0.169128 0.0680084 -0.15025 -0.0275747 0.0772706 0.0466462 -0.0814879 -0.000614415 -0.0813028 -0.315031 0.148445 0.10011 -0.169714 -0.0164822 -0.229643 0.0871445 -0.0646473 0.176407 -0.0701413 -0.0328887 0.0298808 -0.00741067 0.0857322 0.025435 -0.25771 0.301131 0.138029 -0.139179 -0.0701272 -0.0529137 -0.103138 0.0528007 0.174104 -0.0147057 -0.0530904 -0.0399808 -0.0185134 0.235137 -0.223575 -0.171335 0.323354 -0.0510671 -0.136748 0.0441998 -0.287171 -0.245899 0.207538 -0.112547 0.156085 -0.389209 0.0309734 -0.0332241 -0.309465 0.0731743 0.0901145 0.113793 -0.106677 -0.258563 0.119719 -0.143736 -0.158293 0.0611987 -0.1482 -0.091183 0.00845236
985 -0.0551542 0.13296 -0.187014 -0.218278 -0.075117 0.163253 -0.0214224 -0.11395 -0.021202 -0.152281 -0.0923676 -0.0201522 0.208436 -0.142872 0.126787 0.00980165 0.0252946 0.199413 0.103114 -0.0496193 0.00597858 0.0482542 -0.0517265 -0.0501181 0.0857366 0.0821443 0.127419 -0.105046 0.140066 -0.11129 0.0124612 0.277969 0.0138527 0.0288925 -0.0555956 -0.0851151 0.194104 0.149494 -0.138044 0.020463 -0.00352238 0.0036826 -0.136404 -0.168555 -0.0924262 -0.0953747 0.110583 0.0107205 -0.0155394 0.0904772 0.09398 -0.0704183 -0.125984 0.0823854 0.0219507 0.111489 -0.00447175 0.150358 -0.128412 -0.0413969 -0.0363257 -0.0351603 -0.290342 -0.183188 0.0849321 -0.16197 -0.0238268 0.0811786 0.0285468 -0.0754508 -0.000661353 -0.0720759 -0.359569 0.17244 0.104006 -0.198516 -0.0087606 -0.276656 0.0817054 -0.0745819 0.203204 -0.0846074 -0.0215713 0.0533569 -0.0178261 0.0894382 0.0303747 -0.286669 0.323247 0.15518 -0.176042 -0.0893475 -0.0478998 -0.111894 0.0828323 0.177504 -0.0324914 -0.0730763 -0.0465452 -0.0209406 0.299126 -0.234168 -0.157418 0.366127 -0.0750655 -0.14 0.0594975 -0.306364 -0.261168 0.187565 -0.119633 0.170151 -0.395595 0.0426865 -0.0426883 -0.339744 0.0680243 0.11053 0.140534 -0.124913 -0.289646 0.139679 -0.157693 -0.194122 0.0873558 -0.157442 -0.101596 -0.00398053
667 -0.0683076 0.148218 -0.20134 -0.209231 -0.0654351 0.144795 -0.0160498 -0.104378 -0.0186569 -0.133894 -0.0900977 0.017938 0.238564 -0.144072 0.122372 0.012177 0.0156805 0.139723 0.0907759 -0.0505758 0.0109293 0.0349801 -0.0510878 -0.0246761 0.0460156 0.066773 0.135378 -0.0644057 0.1452 -0.126576 0.00112578 0.268123 -0.00840999 0.0548158 -0.0594776 -0.0655088 0.144907 0.148039 -0.12882 0.0396942 -0.00455042 0.0192288 -0.119697 -0.17394 -0.0950777 -0.12212 0.129976 -0.00668248 -0.0042784 0.0899018 0.0982924 -0.0590635 -0.103458 0.0817206 0.0128711 0.10297 -0.0212434 0.139115 -0.110609 -0.0444334 -0.000314625 -0.0500828 -0.252121 -0.171883 0.0733055 -0.154328 -0.0163776 0.0735797 0.0364218 -0.0672442 0.0150488 -0.0947612 -0.365946 0.191716 0.106402 -0.176498 -0.0160791 -0.238991 0.0737004 -0.042497 0.198153 -0.129231 -0.037886 0.0666821 -0.0414468 0.0998616 0.054508 -0.280503 0.26997 0.143413 -0.163951 -0.08693 -0.0379957 -0.113451 0.110446 0.148754 -0.0486894 -0.0892906 -0.0390744 -0.0258518 0.313536 -0.22006 -0.141473 0.345663 -0.121329 -0.16146 0.068558 -0.303506 -0.258628 0.182288 -0.124181 0.131548 -0.378695 0.0475198 -0.0445934 -0.334933 0.0508993 0.0926398 0.160772 -0.114787 -0.30852 0.157904 -0.167108 -0.181587 0.0884005 -0.164102 -0.105938 -0.00970732
662 -0.28905 0.0865181 -0.233758 -0.616895 0.0434757 0.236136 0.0676124 -0.281001 0.0756028 -0.249599 -0.135058 -0.116981 0.342311 -0.34325 0.079487 0.207111 0.0753267 0.254702 0.25222 0.0833204 -0.16997 0.0251947 -0.198897 -0.15985 -0.0658198 0.00641011 0.0252392 0.185919 0.132011 0.0498583 0.210364 0.0950022 -0.0550701 0.0374095 0.1124 -0.0557832 0.266571 0.147655 -0.0468829 0.0704452 0.00182679 0.0842519 -0.135358 -0.0417657 0.0132914 -0.127975 0.0979651 0.0476427 0.00266201 0.196122 0.109689 0.0244831 -0.0573299 0.220892 -0.0708774 0.152362 -0.23572 0.215194 -0.285356 -0.187742 -0.150704 -0.0746373 -0.3863 -0.195833 0.0930728 -0.259535 0.0439802 0.118771 0.0519003 -0.247346 0.0220232 -0.11757 -0.422758 0.282021 0.217816 -0.142842 0.0339507 -0.254425 0.0649897 -0.0744586 0.162555 -0.119501 0.00997843 0.140467 -0.111493 0.312552 0.0671162 -0.179404 0.17059 0.213058 -0.211266 -0.00588316 -0.016654 0.120986 0.0956972 0.13371 -0.130625 0.0317561 -0.0504894 0.0693742 0.0319674 -0.255148 -0.0479066 0.226454 -0.122764 -0.288698 0.332732 -0.254495 -0.228671 0.146529 -0.080015 0.354755 -0.518239 0.0596606 -0.179769 -0.35861 0.254845 0.131444 0.191998 -0.306347 -0.213149 0.213337 -0.239032 -0.268003 0.309881 -0.135873 -0.076813 0.047107
665 -0.178894 0.0759872 -0.198881 -0.445811 -0.0194304 0.213215 0.01621 -0.22166 0.0222815 -0.19778 -0.111413 -0.101536 0.25567 -0.263314 0.103431 0.117455 0.0576 0.279887 0.196162 0.0152586 -0.0874186 0.0391698 -0.143865 -0.120896 0.0224809 0.0368251 0.0565863 0.0399871 0.111832 -0.0198748 0.109411 0.170215 -0.00805553 0.0120571 0.0306204 -0.0620022 0.236021 0.125494 -0.0753707 0.0351311 0.00717173 0.0346042 -0.132022 -0.0922225 -0.0170504 -0.0858314 0.0873143 0.0382502 -0.00120291 0.143515 0.0791364 -0.0313741 -0.0889185 0.157768 -0.0255605 0.120402 -0.107894 0.179111 -0.209935 -0.121068 -0.108135 -0.0404858 -0.339452 -0.173012 0.0870106 -0.196839 0.0115072 0.109487 0.0498982 -0.173562 0.00520619 -0.0753966 -0.343099 0.207085 0.145403 -0.153024 0.00804331 -0.238968 0.0737478 -0.0785868 0.160758 -0.074111 0.000415965 0.0883878 -0.0597037 0.18936 0.0242914 -0.209603 0.243638 0.181889 -0.171637 -0.0312204 -0.0253495 0.0299016 0.0599972 0.15362 -0.0785211 0.000635126 -0.0371983 0.0355069 0.0958955 -0.227718 -0.108209 0.262638 -0.0641222 -0.196165 0.202891 -0.245503 -0.21778 0.167817 -0.0870009 0.271994 -0.448272 0.040961 -0.117488 -0.32021 0.167884 0.117815 0.142263 -0.222501 -0.215663 0.160216 -0.179624 -0.221657 0.192082 -0.129806 -0.0890105 0.0266277
534 -0.10622 0.0817405 -0.180609 -0.339195 -0.0413416 0.188603 -0.0076656 -0.180894 -0.00617218 -0.183701 -0.139567 -0.0856829 0.212829 -0.205519 0.10717 0.0559878 0.0614737 0.258576 0.181785 -0.033348 -0.0327806 0.0668654 -0.0874267 -0.0944693 0.0495235 0.0808629 0.0790583 -0.0201384 0.087545 -0.0556076 0.0420755 0.192435 -0.0128594 0.0392655 -0.0371996 -0.0791936 0.198375 0.0928687 -0.0737296 0.0335222 -0.0011002 0.0414998 -0.159719 -0.13155 -0.0360239 -0.0549631 0.0907766 0.0174395 0.00568873 0.105492 0.0670101 -0.0808105 -0.0891675 0.141653 -0.0122146 0.119106 -0.0400024 0.14443 -0.143735 -0.0526916 -0.0562986 -0.0222355 -0.332438 -0.170151 0.0656817 -0.159602 -0.00761186 0.0928403 0.0478437 -0.118672 -0.00218493 -0.0813241 -0.301761 0.15951 0.136656 -0.152296 -0.0169478 -0.218239 0.0945576 -0.0703125 0.156483 -0.0576555 -0.0162708 0.0335106 -0.0298018 0.138306 0.0173367 -0.214992 0.269649 0.144829 -0.138981 -0.0435563 -0.054712 -0.0245999 0.0309724 0.16558 -0.0290693 -0.0106067 -0.0385499 0.0209161 0.119837 -0.210071 -0.14735 0.268414 -0.0372803 -0.16187 0.106602 -0.247207 -0.219357 0.20088 -0.0894787 0.205806 -0.404013 0.0329413 -0.074036 -0.293073 0.123734 0.0980446 0.115913 -0.148144 -0.215257 0.129505 -0.15468 -0.168656 0.112277 -0.13857 -0.0860423 0.0160422
512 -0.127536 0.0607182 -0.143265 -0.294079 -0.0787392 0.228416 0.0060856 -0.167299 -0.0666611 -0.224612 -0.0604983 -0.115581 0.211206 -0.266006 0.0382508 0.122811 -0.00811568 0.259506 0.191618 0.0337873 0.020438 0.0427248 -0.0864288 -0.0968821 0.145199 0.0703338 0.0199144 -0.177435 0.158047 -0.0558856 0.0677115 0.249119 0.0911209 -0.000614199 0.0832202 -0.0816618 0.233898 0.10951 -0.127264 0.0326092 0.0322634 -0.0698143 -0.0641333 -0.0908854 -0.0499629 0.0643899 0.088014 0.13645 -0.113296 0.107623 0.0696516 -0.0997612 -0.130873 0.125851 -0.071075 0.194423 -0.0719619 0.172709 -0.173261 -0.0493987 -0.0530434 -0.0988932 -0.410368 -0.256851 0.161252 -0.137928 -0.0325334 0.11747 0.0710357 -0.101376 0.011326 -0.00574671 -0.363686 0.200051 0.114048 -0.191697 0.0221815 -0.291181 0.0310677 -0.133935 0.196665 -0.0962869 -0.000305542 -0.00105944 -0.0748305 0.0911448 -0.0234009 -0.202511 0.335429 0.120833 -0.22877 -0.00582241 -0.0292912 0.0424718 0.054301 0.280984 0.0156279 0.0470953 -0.0692051 -0.0704366 0.230852 -0.169136 -0.0895752 0.308163 0.0196448 -0.0852382 0.140382 -0.274908 -0.265942 0.148548 -0.145473 0.288357 -0.408902 -0.0201991 -0.0676841 -0.239958 0.126078 0.0884208 0.130166 -0.167245 -0.212397 0.145146 -0.118384 -0.239154 0.0669889 -0.166128 -0.113202 -0.00255859
500 -0.102388 0.0783698 -0.157974 -0.27877 -0.079932 0.215382 -0.00486756 -0.161915 -0.0611026 -0.201281 -0.0903725 -0.103718 0.21141 -0.241455 0.0722624 0.0872275 0.0189099 0.277072 0.176828 -0.00108503 0.0208842 0.0501376 -0.0741995 -0.0960657 0.140255 0.0755259 0.0627198 -0.158834 0.147661 -0.0776771 0.0341327 0.268249 0.0799684 -0.00203122 0.0232148 -0.0859814 0.235701 0.121193 -0.140833 0.0175314 0.0180903 -0.0557192 -0.0955317 -0.126773 -0.0672852 0.0259696 0.0928037 0.0975527 -0.0727384 0.0975931 0.0683445 -0.109326 -0.134687 0.127691 -0.0343721 0.175702 -0.0384958 0.170509 -0.160967 -0.0474666 -0.051022 -0.064999 -0.386148 -0.240638 0.140963 -0.137658 -0.0255346 0.107316 0.0654821 -0.0969945 0.00668741 -0.0249483 -0.349636 0.182109 0.101069 -0.207103 0.00409562 -0.287 0.0516905 -0.111762 0.2127 -0.0898288 -0.00273772 0.00553037 -0.0513337 0.0841703 -0.00796844 -0.241933 0.360119 0.13872 -0.202121 -0.034552 -0.0437916 -0.013742 0.0435874 0.253034 0.00458817 0.0182855 -0.0543204 -0.055907 0.243805 -0.195766 -0.130146 0.322671 0.00727965 -0.0991928 0.106566 -0.297579 -0.26936 0.183033 -0.139632 0.274052 -0.434681 0.00608941 -0.0609673 -0.277989 0.112675 0.103832 0.128924 -0.152866 -0.222639 0.139495 -0.111246 -0.238246 0.0667103 -0.167205 -0.105236 -0.00215576
603 -0.0896737 0.106789 -0.184867 -0.278772 -0.0555287 0.193013 -0.0202695 -0.18187 -0.0310775 -0.169095 -0.130455 -0.072129 0.20128 -0.21164 0.126607 0.0434238 0.0681686 0.280438 0.125983 -0.0491059 0.0127398 0.0387701 -0.0759715 -0.0819866 0.121281 0.0478426 0.124965 -0.0794419 0.135866 -0.0931095 0.00358581 0.287619 0.0451126 -0.0137653 -0.0477869 -0.0616952 0.218559 0.141411 -0.173074 -0.0122553 -0.00709124 -0.0344259 -0.115342 -0.162996 -0.0615033 -0.0561783 0.102552 0.0106177 -0.00579432 0.080715 0.0436421 -0.0814098 -0.0908487 0.100468 0.0222343 0.11969 0.00126017 0.1622 -0.146535 -0.0658251 -0.0639525 0.017222 -0.277978 -0.16631 0.0960872 -0.115187 -0.0109308 0.0862306 0.0516399 -0.0964811 0.0173887 -0.0484843 -0.282623 0.138157 0.0364628 -0.23441 -0.0341306 -0.248767 0.0641753 -0.0600857 0.20895 -0.120275 -0.0107687 0.0391694 -0.0126894 0.0822047 0.0182638 -0.283632 0.388286 0.163025 -0.129713 -0.0933504 -0.0460827 -0.0712818 0.018794 0.162707 -0.0698107 -0.0475829 -0.0333936 -0.0257879 0.243363 -0.226582 -0.167302 0.293151 -0.0360475 -0.124843 0.0620171 -0.307957 -0.218843 0.207245 -0.0899633 0.269807 -0.4741 0.0644418 -0.0812904 -0.310849 0.073319 0.136349 0.142121 -0.144255 -0.192174 0.133436 -0.08469 -0.233025 0.0917265 -0.140094 -0.0683534 -0.0292563
496 -0.118158 0.0628059 -0.1346 -0.303948 -0.0960129 0.25526 0.0036512 -0.159704 -0.0866537 -0.218488 -0.0385955 -0.107684 0.219413 -0.26862 0.0135732 0.120777 -0.00383979 0.262915 0.218152 0.0424298 0.0252014 0.056751 -0.0735052 -0.0900575 0.17166 0.0661267 0.00726656 -0.2133 0.15927 -0.0785406 0.0493154 0.266018 0.113485 0.014397 0.0823807 -0.0818939 0.219489 0.0788908 -0.129276 0.036418 0.0570113 -0.0799359 -0.0849119 -0.0915663 -0.0448627 0.0870064 0.098597 0.172787 -0.132148 0.0837422 0.0754007 -0.112993 -0.15528 0.124551 -0.0805628 0.21 -0.0619458 0.180775 -0.166844 -0.0311426 -0.0158257 -0.103224 -0.434314 -0.267009 0.172201 -0.137228 -0.042208 0.126993 0.071821 -0.0769464 0.0154896 0.00418664 -0.364211 0.188145 0.120608 -0.192565 0.0147378 -0.290534 0.0164612 -0.147927 0.181131 -0.0783014 0.010006 -0.00359562 -0.0883348 0.0659738 -0.0432313 -0.213558 0.333919 0.0978824 -0.223009 0.0061107 -0.0373969 0.0420911 0.0561482 0.300539 0.0420911 0.0649865 -0.0563579 -0.0853718 0.236626 -0.145194 -0.10495 0.314632 0.0152364 -0.0661828 0.12962 -0.262928 -0.267539 0.163231 -0.176482 0.266225 -0.379258 -0.045104 -0.0700538 -0.204067 0.117754 0.0628217 0.13023 -0.159849 -0.22901 0.140331 -0.13529 -0.233039 0.0432055 -0.171789 -0.145351 -0.00670262
953 -0.0752409 0.0803617 -0.17293 -0.289084 -0.0948813 0.23223 -0.0236747 -0.163787 -0.0526513 -0.190242 -0.0888285 -0.095577 0.207102 -0.225037 0.0952762 0.0615701 0.0390582 0.301352 0.181543 -0.0273247 0.0134545 0.0582387 -0.0653934 -0.0777657 0.136756 0.0864491 0.0867969 -0.161834 0.131189 -0.100281 0.0106851 0.283402 0.0643383 0.0130225 -0.0206305 -0.0895741 0.225968 0.10833 -0.137003 0.00566636 0.031404 -0.0429823 -0.138181 -0.150847 -0.0632645 -0.00013463 0.107752 0.0789842 -0.0562558 0.0960109 0.0642137 -0.122612 -0.141551 0.131751 -0.0155597 0.152803 -0.00457636 0.179406 -0.159477 -0.0472797 -0.0339316 -0.0370317 -0.3751 -0.220555 0.133934 -0.145377 -0.0306376 0.109261 0.0639508 -0.0999413 0.00723572 -0.0348211 -0.335759 0.175793 0.101525 -0.20209 -0.00837643 -0.27691 0.0665024 -0.10334 0.200241 -0.0749593 -0.00820297 0.021041 -0.040964 0.0716529 -0.0139937 -0.26806 0.359915 0.137762 -0.17552 -0.0436646 -0.0489705 -0.0369951 0.042432 0.242691 0.00548108 0.000728467 -0.0438753 -0.0323037 0.227313 -0.203163 -0.169032 0.334621 -0.00728398 -0.10653 0.0859407 -0.290469 -0.259833 0.213361 -0.148853 0.235328 -0.422739 0.0010222 -0.0713481 -0.286404 0.0961139 0.0982406 0.115805 -0.148715 -0.251441 0.139831 -0.134804 -0.216099 0.0574646 -0.164384 -0.122711 -0.00844899
306 -0.0992679 0.0487025 -0.144115 -0.267317 -0.0752499 0.196581 -0.00908721 -0.143684 -0.0553928 -0.207899 -0.0979089 -0.111733 0.188607 -0.244932 0.0493427 0.0860295 0.0124429 0.264732 0.204595 -0.0100251 0.0426224 0.0679232 -0.073068 -0.0917103 0.129087 0.0898311 0.0319647 -0.145244 0.111315 -0.0752081 0.00923284 0.234269 0.0533257 0.0330404 0.00961183 -0.0898929 0.195125 0.0851343 -0.090533 0.0373831 0.0266647 -0.0290286 -0.113029 -0.129901 -0.048475 0.0593143 0.0921893 0.083931 -0.0685495 0.0967497 0.0538694 -0.131496 -0.117085 0.143154 -0.0521457 0.173379 -0.0390327 0.134883 -0.135747 -0.0113518 -0.0233559 -0.0654663 -0.40425 -0.231073 0.122893 -0.134259 -0.0345378 0.104133 0.0780857 -0.0981599 0.00275553 -0.037309 -0.31594 0.154949 0.113338 -0.170503 -0.0024356 -0.23182 0.0630939 -0.106046 0.176066 -0.0704426 -0.0242975 -0.0280137 -0.0451493 0.0858032 -0.0174962 -0.192748 0.31571 0.0931025 -0.165591 -0.00608026 -0.0550487 0.00990982 0.0201569 0.258692 0.0249932 0.0361847 -0.054836 -0.0563441 0.166173 -0.176847 -0.135148 0.278527 0.032734 -0.0986858 0.0833934 -0.265593 -0.250994 0.202229 -0.134752 0.237936 -0.401003 -0.0151988 -0.0471352 -0.227616 0.114195 0.0771515 0.0933347 -0.115211 -0.19838 0.112639 -0.105002 -0.179263 0.0337263 -0.158012 -0.100687 0.0172826
868 -0.0660185 0.0647617 -0.137601 -0.215826 -0.0780907 0.182389 -0.00431175 -0.121785 -0.0394262 -0.176427 -0.0775799 -0.100135 0.194205 -0.222181 0.0603816 0.0806143 0.0137456 0.248795 0.15485 -0.013054 0.0273199 0.0405134 -0.0591572 -0.0777517 0.116669 0.0775954 0.047889 -0.158847 0.127184 -0.0841558 0.0193688 0.246347 0.0738773 0.0054 0.00171527 -0.0839213 0.220773 0.110312 -0.112687 0.0140856 0.0276986 -0.0624475 -0.0889318 -0.135062 -0.0745393 0.0170524 0.0968449 0.0770978 -0.0655902 0.107638 0.0489975 -0.125488 -0.130096 0.147462 -0.0369219 0.155141 -0.0213885 0.149281 -0.143966 -0.0306174 -0.0487487 -0.0700884 -0.3525 -0.219786 0.130583 -0.12123 -0.0231768 0.103149 0.0828708 -0.103612 0.00199051 -0.0273742 -0.323803 0.167975 0.0999886 -0.193443 0.00919053 -0.263083 0.0659911 -0.0937595 0.201139 -0.0806338 -0.00743147 -0.000553275 -0.0492012 0.0780294 -0.0107031 -0.201989 0.320669 0.121016 -0.193295 -0.0280238 -0.0412839 -0.00750881 0.048663 0.256173 0.020584 0.0147648 -0.0472323 -0.0451788 0.212599 -0.191322 -0.122537 0.298302 0.0274759 -0.0955412 0.0934335 -0.278318 -0.265631 0.19211 -0.12379 0.237679 -0.388681 -0.0120907 -0.0545414 -0.259051 0.104545 0.0888769 0.11291 -0.127586 -0.231206 0.128209 -0.112095 -0.211777 0.0652158 -0.162026 -0.0881356 0.0130154
292 -0.123478 0.0552603 -0.146722 -0.317816 -0.0910803 0.255993 0.00451166 -0.168031 -0.0853299 -0.237807 -0.0664471 -0.127012 0.205885 -0.282577 0.0335049 0.125754 -0.00891575 0.282846 0.224539 0.0313954 0.0360661 0.0636854 -0.0951481 -0.102421 0.168619 0.0780274 0.0174634 -0.191838 0.154041 -0.0757643 0.0448734 0.263689 0.104136 0.0047843 0.0691214 -0.0914863 0.223757 0.0912809 -0.125926 0.0385201 0.0477128 -0.0639621 -0.0815138 -0.0982861 -0.0395684 0.0932371 0.0898084 0.146559 -0.122133 0.0968082 0.0649501 -0.116266 -0.142317 0.135566 -0.0711104 0.213507 -0.066106 0.164502 -0.165249 -0.0256849 -0.0235541 -0.0889282 -0.439441 -0.265187 0.168486 -0.137979 -0.0395915 0.124677 0.0765394 -0.0897962 0.0171855 -0.00599775 -0.358381 0.179893 0.120667 -0.190176 0.0130753 -0.273294 0.0286098 -0.13992 0.184629 -0.082236 -0.00614997 -0.00791289 -0.0688887 0.0834418 -0.0321798 -0.21575 0.344814 0.103619 -0.210298 0.00404914 -0.038563 0.03784 0.0375953 0.29844 0.0346866 0.0580593 -0.0624726 -0.0766464 0.214358 -0.158894 -0.118159 0.317602 0.0229463 -0.0821494 0.119599 -0.265067 -0.263185 0.170135 -0.169224 0.278502 -0.404772 -0.0299238 -0.0660736 -0.216963 0.12887 0.0814555 0.118503 -0.156204 -0.212845 0.140183 -0.116799 -0.225426 0.0368722 -0.167648 -0.129548 0.0023102
224 0.0603577 0.106374 -0.151166 -0.052909 -0.0978256 0.0812863 -0.0124805 0.00051915 0.0134505 -0.0822961 -0.123988 -0.0625096 0.20114 -0.164519 0.0644334 0.0541046 0.0403738 0.192952 0.0213351 -0.0647208 0.0323545 -0.061339 -0.00382065 -0.043381 0.0565987 0.0656782 0.0780215 -0.11851 0.056787 -0.134682 -0.00406098 0.274776 0.0795666 -0.00111312 -0.126258 -0.0311129 0.238312 0.175512 -0.107265 -0.0574121 0.00414662 -0.113861 -0.0614183 -0.215454 -0.176912 -0.0981079 0.132087 -0.0179707 0.00453958 0.178631 0.0278082 -0.182518 -0.131659 0.253951 0.0128094 0.0835974 0.0517577 0.14306 -0.129961 -0.0483869 -0.0800215 -0.094572 -0.249537 -0.165204 0.139138 -0.0923066 -0.00310752 0.0784969 0.138396 -0.196527 -0.0391387 -0.0451493 -0.358206 0.229171 0.0924713 -0.233785 0.0143902 -0.281756 0.161732 -0.00892047 0.284041 -0.140115 -0.053858 -0.00637884 -0.0385451 0.0731373 0.0291417 -0.152499 0.297418 0.150857 -0.245913 -0.0367408 -0.0363559 -0.0713367 0.11056 0.241479 0.029267 -0.0613045 -0.014303 -0.00948569 0.236063 -0.264036 -0.104213 0.307382 0.0605174 -0.135098 0.0472165 -0.316814 -0.362562 0.258503 -0.0587377 0.191098 -0.35735 -0.00135513 -0.0390012 -0.302417 0.076939 0.0737679 0.152211 -0.0987045 -0.29164 0.129371 -0.0860455 -0.217949 0.146199 -0.182939 -0.0337551 0.0451841
505 -0.00812818 0.085316 -0.147127 -0.159469 -0.083627 0.144173 -0.0132406 -0.0816956 -0.0112784 -0.134048 -0.098114 -0.0847992 0.192807 -0.174448 0.0763915 0.0592989 0.031738 0.231966 0.0968784 -0.0432194 0.0193765 0.000426515 -0.033869 -0.063835 0.0820248 0.0776138 0.0703554 -0.132358 0.0950286 -0.097002 0.0150582 0.256201 0.0684013 -0.0013462 -0.0593062 -0.0606421 0.236869 0.140698 -0.108594 -0.0259117 0.0181014 -0.068576 -0.0929563 -0.172239 -0.114954 -0.0394631 0.108348 0.0324381 -0.031221 0.134457 0.0485994 -0.144832 -0.13275 0.179282 -0.00457547 0.114692 0.0135263 0.151886 -0.137834 -0.0455293 -0.0663051 -0.0720874 -0.30482 -0.197086 0.130052 -0.117222 -0.0141508 0.0908218 0.102221 -0.141379 -0.0230368 -0.0424453 -0.336481 0.195379 0.100275 -0.205511 0.00838798 -0.269626 0.111631 -0.0588144 0.235044 -0.0966607 -0.0205742 0.00523377 -0.0309206 0.0715979 0.0111126 -0.191012 0.311371 0.147969 -0.214772 -0.046033 -0.0425983 -0.0491252 0.0666412 0.239987 0.0160469 -0.0211811 -0.0353675 -0.0224825 0.217723 -0.227666 -0.125883 0.308308 0.0368156 -0.117776 0.0722729 -0.288311 -0.298297 0.218972 -0.0984559 0.214296 -0.374524 -0.00520791 -0.0535471 -0.285871 0.0850643 0.0885456 0.125629 -0.122524 -0.252234 0.128046 -0.109928 -0.212725 0.10587 -0.169991 -0.0700929 0.0221551
969 -0.00174727 0.0890343 -0.162219 -0.162717 -0.0808869 0.137364 -0.021768 -0.0788818 -0.00867217 -0.12543 -0.111748 -0.0688672 0.201585 -0.165557 0.105403 0.0365134 0.0439198 0.243156 0.0942878 -0.0652005 0.00568188 0.012557 -0.0411977 -0.0556781 0.0813658 0.078079 0.106013 -0.114622 0.0913173 -0.115957 0.00386469 0.272339 0.0523533 0.00467961 -0.0911516 -0.0635266 0.230495 0.141991 -0.112249 -0.021874 0.0129018 -0.0508704 -0.114404 -0.191888 -0.120286 -0.078633 0.116103 0.0121842 2.72434e-05 0.136973 0.0554642 -0.141772 -0.136012 0.173532 0.0113721 0.09832 0.0241335 0.149305 -0.143784 -0.0526316 -0.0686049 -0.0548381 -0.300111 -0.180662 0.11486 -0.12823 -0.015748 0.0858531 0.0902157 -0.145989 -0.0256413 -0.0614498 -0.337348 0.187111 0.101441 -0.212558 0.000644578 -0.271082 0.125769 -0.0562174 0.229014 -0.086945 -0.0269425 0.0248178 -0.0250872 0.0773515 0.0218058 -0.225939 0.328953 0.155269 -0.198656 -0.0596916 -0.0467234 -0.0819271 0.0724861 0.223376 -0.00533557 -0.0442028 -0.0257687 -0.0101281 0.231813 -0.246919 -0.146047 0.332428 0.013899 -0.136953 0.0622858 -0.306568 -0.302679 0.235455 -0.0925926 0.197008 -0.393345 0.0134293 -0.0521369 -0.320124 0.0852066 0.100807 0.128884 -0.127131 -0.271592 0.133151 -0.120637 -0.208185 0.10924 -0.166532 -0.067968 0.0236698
395 0.0275989 0.133017 -0.20502 -0.221326 -0.111132 0.192069 -0.00990486 -0.14041 0.00808683 -0.138199 -0.158043 -0.0888123 0.215662 -0.137212 0.145989 0.0118452 0.082198 0.269885 0.0898447 -0.0835659 0.00754345 -0.002401 0.00502994 -0.0640674 0.0505985 0.110015 0.118019 -0.124256 0.0818545 -0.0939729 0.00660246 0.285905 0.0597531 -0.0151486 -0.118733 -0.0590275 0.283047 0.171705 -0.126582 -0.056386 -0.00278565 -0.058815 -0.126961 -0.213832 -0.162325 -0.0891498 0.12313 0.0306836 0.00052355 0.138597 0.0651395 -0.145101 -0.172663 0.18652 0.0112369 0.0892021 0.0598916 0.211957 -0.141797 -0.0460792 -0.0858074 -0.0665194 -0.311097 -0.199387 0.126159 -0.129926 -0.00158577 0.102186 0.0958336 -0.144999 -0.029158 -0.0566191 -0.359846 0.230269 0.110453 -0.231917 0.0151881 -0.316256 0.171894 -0.0515909 0.283915 -0.0801459 -0.0164173 0.0185375 -0.0124415 0.0761809 0.0321994 -0.212566 0.343753 0.192501 -0.236212 -0.0889899 -0.0680657 -0.0987609 0.0914966 0.229251 0.0208978 -0.0328732 -0.0384766 0.021562 0.233735 -0.259882 -0.150311 0.347717 0.0214615 -0.146599 0.058187 -0.301025 -0.31605 0.237709 -0.0795567 0.220075 -0.387527 0.00958179 -0.056188 -0.341197 0.0892715 0.0926557 0.16057 -0.146408 -0.293883 0.147454 -0.141359 -0.21356 0.147864 -0.17016 -0.0670491 -0.00289301
801 -0.0169382 0.0833298 -0.162455 -0.185487 -0.0772448 0.144613 -0.0153358 -0.102233 -0.00609449 -0.131882 -0.112012 -0.0654412 0.205992 -0.169341 0.110606 0.039229 0.0525648 0.240671 0.104304 -0.0592237 0.00689119 0.0146655 -0.0439845 -0.0617519 0.0708554 0.0774405 0.0997005 -0.0947988 0.0880034 -0.109624 0.00103177 0.253252 0.0392871 0.00234201 -0.0833619 -0.0609975 0.226397 0.13576 -0.104657 -0.0192107 0.0106219 -0.0379179 -0.128862 -0.181651 -0.107918 -0.0755782 0.118093 0.0136402 -0.00281808 0.121807 0.0491002 -0.128362 -0.124365 0.165119 0.00833468 0.0946474 0.0261835 0.157406 -0.136909 -0.0486857 -0.0573716 -0.0431099 -0.295875 -0.171664 0.110433 -0.123553 -0.00718512 0.0886475 0.0861896 -0.132729 -0.0170732 -0.0646545 -0.317829 0.184882 0.0952225 -0.199868 -0.0103451 -0.254753 0.120414 -0.0531332 0.218202 -0.0870912 -0.0226457 0.027501 -0.0246443 0.0800999 0.0172252 -0.22453 0.311744 0.151766 -0.183419 -0.0610919 -0.0423166 -0.0679303 0.0657582 0.204378 -0.00826826 -0.0338748 -0.0262153 -0.000823823 0.201581 -0.232189 -0.149683 0.303757 0.00959162 -0.130417 0.0606441 -0.289517 -0.278379 0.229243 -0.0922834 0.197319 -0.388549 0.0153409 -0.0631331 -0.306427 0.0799417 0.0965651 0.127681 -0.125487 -0.256521 0.133269 -0.12259 -0.199701 0.109131 -0.159597 -0.0700778 0.0141576
956 -0.0144502 0.104719 -0.191203 -0.215298 -0.0976579 0.176887 -0.0217566 -0.118974 -0.015554 -0.155404 -0.128168 -0.0763524 0.219741 -0.176039 0.126926 0.0258549 0.0591415 0.280586 0.116326 -0.0680454 0.00856179 0.0247644 -0.0407299 -0.0671316 0.0964766 0.0976834 0.124518 -0.129058 0.101925 -0.117195 -0.00151732 0.293735 0.0459228 0.006716 -0.0963339 -0.0783962 0.253125 0.145419 -0.129907 -0.0236845 0.0109479 -0.0412714 -0.146224 -0.206774 -0.12197 -0.0770337 0.12385 0.0191126 0.00157868 0.126681 0.0559195 -0.144076 -0.146323 0.165685 0.0155157 0.107294 0.0353722 0.177321 -0.151411 -0.0511897 -0.0686831 -0.04348 -0.339913 -0.190836 0.114805 -0.141673 -0.0198801 0.0961047 0.0833393 -0.143117 -0.0208392 -0.0697987 -0.357273 0.199945 0.101555 -0.227703 -0.00179407 -0.302407 0.131217 -0.0681789 0.245439 -0.0860393 -0.0250551 0.0301552 -0.0184629 0.080186 0.0188552 -0.258045 0.357322 0.170168 -0.205258 -0.0721504 -0.0533325 -0.0899372 0.0701221 0.228034 -0.00820529 -0.0426656 -0.0336777 0.00425014 0.24231 -0.266682 -0.178308 0.354994 0.00468898 -0.139716 0.0653974 -0.328678 -0.305363 0.249908 -0.102949 0.214601 -0.430782 0.023554 -0.0609539 -0.340073 0.0861732 0.112165 0.13512 -0.134424 -0.291968 0.146101 -0.136991 -0.216116 0.112842 -0.177179 -0.084234 0.0158232
