1000 16
384 0.106704 -0.0753362 0.412125 0.698276 -0.505004 0.467645 -0.732928 -0.105289 -0.723157 -0.143924 -0.895993 0.0894394 -0.853886 -0.0811895 0.842103 -0.552339
36 0.195238 -0.0579298 0.435313 0.553403 -0.612973 0.324365 -0.743263 -0.19844 -0.537332 0.033373 -0.77387 0.161337 -0.817545 -0.0318573 0.824943 -0.534853
58 0.240412 -0.0939713 0.625601 0.414617 -0.620466 0.279879 -0.911903 -0.269475 -0.735968 -0.0732032 -0.890778 0.0439881 -0.83552 0.0938426 0.949522 -0.533321
21 0.237152 -0.0401639 0.555191 0.670783 -0.611216 0.414991 -0.935326 -0.16587 -0.740697 0.0112606 -0.99628 0.157278 -0.937177 0.0551799 0.918044 -0.655833
619 0.128037 -0.0911824 0.348122 0.547098 -0.535945 0.27609 -0.649137 -0.137656 -0.544831 -0.0249368 -0.731502 0.169303 -0.829307 -0.0849119 0.815165 -0.427894
22 0.251583 -0.108598 0.364692 0.757045 -0.438681 0.448205 -0.898572 0.0942321 -0.679047 0.0541748 -1.06384 0.0910071 -1.06336 0.106333 0.930364 -0.651834
386 0.153172 -0.00856146 0.345312 0.678041 -0.522402 0.343018 -0.71334 -0.044969 -0.552884 0.0640019 -0.866705 0.166987 -0.860205 -0.0164913 0.799162 -0.544305
730 -0.00764766 0.0533609 -0.0938717 0.458599 -0.683669 -0.0743697 -0.218457 -0.377112 -0.388086 0.0730997 -0.318515 0.45819 -1.0351 -0.171237 0.950332 -0.326044
729 -0.0368955 0.0685424 -0.0760676 0.40744 -0.832352 -0.120292 -0.112014 -0.373787 -0.344879 0.0430079 -0.258104 0.505147 -1.13924 -0.260504 0.994029 -0.348108
803 0.122313 -0.0276841 0.360231 0.0346879 -0.664532 -0.0716551 -0.663758 -0.456742 -0.154309 0.217151 -0.765459 0.173564 -0.806395 -0.408239 0.853153 -0.427281
901 0.166903 -0.0283838 0.428734 0.141562 -0.831328 -0.0409307 -0.686484 -0.421207 -0.226142 0.20715 -0.717675 0.175503 -0.782469 -0.405875 0.878614 -0.419904
88 0.202151 -0.0535354 0.57597 -0.0183811 -0.942233 -0.317745 -0.965939 -0.644026 -0.2147 0.345949 -0.965282 0.207916 -0.874073 -0.549263 1.06739 -0.560249
805 0.0221402 -0.0407761 0.367957 0.164534 -0.608892 -0.199608 -0.278304 -0.18003 -0.242107 0.149204 -0.517849 0.158934 -0.971175 -0.59029 0.683849 -0.469096
579 -0.0711937 -0.076261 0.567592 0.468553 -0.963452 -0.205444 -0.207778 -0.140274 -0.387513 0.158851 -0.580227 0.21299 -1.11321 -0.826112 0.634169 -0.534037
80 0.028971 -0.0494203 0.739022 0.303947 -1.06182 -0.414213 -0.00566812 0.0840457 -0.468421 0.250505 -0.502031 -0.0461957 -1.33494 -0.905581 0.453142 -0.447193
86 0.00456257 -0.0515394 0.491172 0.521884 -0.850832 -0.0525386 -0.220622 -0.00369509 -0.323939 0.162447 -0.636431 0.0346945 -1.1726 -0.785491 0.565911 -0.502307
401 -0.000101251 0.101819 0.406788 0.457708 -0.783426 0.0863609 -0.196166 -0.181277 -0.278549 0.150226 -0.511477 0.170466 -0.938295 -0.530246 0.561809 -0.412728
587 -0.00478831 -0.0636121 0.312274 0.311162 -0.715096 -0.100857 -0.192673 -0.111762 -0.263757 0.125265 -0.517209 0.197003 -1.14524 -0.707316 0.652391 -0.455334
870 0.00231155 0.0258223 0.271449 0.401796 -0.575316 0.101349 -0.301465 -0.167828 -0.361061 0.077331 -0.594124 0.228045 -1.02801 -0.497923 0.74249 -0.501143
625 0.132397 -0.0667983 0.374141 0.452714 -0.58202 0.172395 -0.693545 -0.158108 -0.518226 0.012293 -0.747423 0.138168 -0.813797 -0.132699 0.811414 -0.453773
6 0.168355 -0.13298 0.555364 0.650391 -0.526194 0.353943 -0.910471 -0.158008 -1.08465 -0.277197 -0.979677 0.146536 -1.08618 0.13838 1.13678 -0.586945
32 0.194468 -0.0395307 0.415516 0.697892 -0.702842 0.484635 -0.684569 -0.217414 -0.678338 -0.131915 -0.832647 0.0947778 -0.937123 -0.0461919 0.827855 -0.557002
387 0.19053 -0.0793016 0.425203 0.585151 -0.711566 0.206271 -0.884135 -0.177196 -0.650042 0.027309 -0.897418 0.129393 -0.799275 -0.0976606 0.840464 -0.48482
3 0.21467 -0.220623 0.50741 0.852588 -0.677745 0.405965 -1.06875 -0.186579 -0.937095 -0.164073 -1.15756 0.151289 -1.04941 0.0598407 1.10375 -0.64029
464 0.15751 -0.0358165 0.382703 0.492011 -0.584514 0.309737 -0.62135 -0.204391 -0.562189 -0.0319172 -0.694544 0.195402 -0.822593 -0.182526 0.808608 -0.442541
687 0.213044 0.128005 0.700523 0.0900425 -0.742753 0.130016 -0.460402 -0.459295 -0.534531 0.0436889 -0.354818 0.233961 -1.15387 -0.239408 0.919712 -0.492
347 0.0835283 0.0813026 0.490013 0.218343 -0.753041 0.134103 -0.383038 -0.366833 -0.440099 0.0416606 -0.388095 0.248287 -1.0118 -0.341932 0.854405 -0.475483
710 -0.0640156 0.117271 -0.0606012 0.448574 -0.866265 -0.175099 -0.0188509 -0.40893 -0.376793 0.0768188 -0.219678 0.504712 -1.20762 -0.309769 0.993117 -0.287832
812 0.18373 -0.0341448 0.420655 0.157232 -0.834269 0.0247159 -0.818054 -0.537929 -0.189575 0.277759 -0.932304 0.200957 -0.725389 -0.412054 0.880854 -0.516531
213 0.194368 -0.0875776 0.513137 0.105871 -0.974277 -0.172147 -1.19935 -0.690461 -0.155136 0.311123 -1.29257 0.169994 -0.751463 -0.600675 1.09601 -0.556403
766 0.195305 -0.0764851 0.437009 0.00699124 -0.684009 -0.124476 -0.766347 -0.467326 -0.170212 0.249427 -0.866543 0.131632 -0.743308 -0.387892 0.845033 -0.490992
176 0.276294 0.228887 0.928775 -0.367648 -0.677713 -0.0534096 -0.39512 -0.551405 -0.548166 -0.021864 -0.159731 0.127889 -1.32837 -0.168923 0.991749 -0.581295
961 0.249619 0.149363 0.39994 0.11337 -0.568612 0.224571 -0.400446 -0.376191 -0.336071 0.0994195 -0.472426 0.252235 -1.21598 -0.143017 0.979638 -0.619808
736 -0.0184406 0.101388 -0.0740512 0.279907 -0.580673 -0.0499558 -0.126761 -0.311296 -0.29237 0.111478 -0.278494 0.481833 -1.20303 -0.3013 0.981916 -0.347725
706 -0.113787 0.0992896 -0.313486 0.585306 -1.03306 -0.284359 -0.11449 -0.632824 -0.41817 0.0547543 -0.223277 0.699889 -1.24075 -0.106918 1.21157 -0.284212
737 0.0642906 0.0532366 -0.0238335 0.36737 -0.704785 -0.0803846 -0.235213 -0.360238 -0.22678 0.0326296 -0.325841 0.441715 -1.00339 -0.271171 0.851137 -0.361009
880 0.100303 0.118168 0.0315631 0.366481 -0.77728 0.0518902 -0.323879 -0.47792 -0.303754 0.0386231 -0.461743 0.370245 -1.03636 -0.247667 0.925271 -0.316016
549 -0.0134299 0.0940869 -0.00220133 0.371897 -0.63913 0.0272249 -0.22137 -0.329275 -0.330279 0.0200781 -0.388794 0.351447 -1.03828 -0.212348 0.923631 -0.340778
426 0.281587 0.233665 0.0803826 0.218169 -0.289807 0.444645 -0.307125 -0.108557 0.0327995 0.292297 -0.612478 0.235245 -1.12017 -0.213964 0.814506 -0.597684
897 0.315403 0.330097 0.054248 0.280481 -0.151869 0.637818 -0.267409 -0.0608471 0.247231 0.410681 -0.664937 0.242144 -1.28297 -0.240704 0.8055 -0.713567
278 0.404998 0.362793 -0.0866319 0.242043 -0.212862 0.607653 -0.534942 -0.168017 0.224576 0.627585 -0.787466 0.302317 -1.21695 -0.111631 0.982175 -0.611605
432 0.345329 -0.0449012 -0.423759 0.246178 -0.32029 0.240793 -0.760059 -0.246965 -0.556435 0.352272 -0.54922 0.22504 -1.20247 -0.610212 1.60689 0.310764
460 0.154597 -0.045235 0.0140363 0.346666 -0.514527 0.108347 -0.462471 -0.253011 -0.366792 0.178515 -0.551721 0.277002 -0.98679 -0.496408 1.06075 -0.184003
629 0.118171 -0.103425 -0.103755 0.202012 -0.335213 0.0426804 -0.572743 -0.21518 -0.388772 0.170132 -0.542863 0.273959 -0.939224 -0.607684 1.10974 -0.0370452
243 0.17471 -0.0139067 -0.00849932 0.110835 -0.507012 0.0692875 -0.604617 -0.348654 -0.292248 0.254422 -0.564898 0.192036 -0.806365 -0.47121 1.04028 -0.081352
435 0.233085 0.0742734 -0.530276 0.261904 -0.39843 0.12519 -0.601814 -0.35354 -0.43267 0.413489 -0.389237 0.415488 -1.25415 -0.726626 1.61495 0.26094
411 0.388351 0.369357 -0.0122164 0.317474 -0.274568 0.767331 -0.448484 -0.184043 0.1246 0.453436 -0.666313 0.238802 -1.28849 -0.205066 0.937045 -0.615034
328 0.313823 0.3068 0.138776 0.358054 -0.659391 0.837947 -0.325451 -0.500881 -0.19878 -0.0230269 -0.452269 0.164309 -0.945266 -0.229836 0.961957 -0.296688
394 -0.29216 0.212464 -0.14936 0.689791 -1.22351 -0.24881 0.0908915 -0.631073 -0.450651 -0.0128704 0.0129664 0.825691 -1.32136 -0.38013 1.06153 -0.289723
593 0.0744261 0.0458846 -0.0666579 0.283835 -0.617642 0.0724497 -0.487751 -0.403642 -0.402989 0.244921 -0.333224 0.347997 -0.900578 -0.681919 1.1628 0.0409568
61 0.0456552 -0.0773621 0.335295 0.437823 -0.595399 0.0456184 -0.467242 -0.0581585 -0.462236 0.0698745 -0.692576 0.0991315 -0.99935 -0.420603 0.75881 -0.483952
136 -0.142225 -0.0267324 0.470642 0.390846 -0.80622 -0.263134 -0.107017 -0.0183498 -0.379419 0.243489 -0.523887 0.131651 -1.15044 -0.875911 0.518341 -0.528739
806 0.0818056 0.0162514 0.245705 0.291563 -0.568072 0.0214916 -0.243626 -0.112714 -0.201263 0.207616 -0.514271 0.186678 -1.11472 -0.566684 0.71934 -0.514229
938 0.0657778 -0.0365372 0.276267 0.333496 -0.587399 0.0769557 -0.28978 -0.193543 -0.256014 0.0663376 -0.524021 0.209263 -0.99727 -0.572285 0.726532 -0.414457
841 0.100238 0.0224813 0.334404 0.39647 -0.776951 0.0205813 -0.341487 -0.195928 -0.332001 0.161618 -0.574435 0.179638 -1.15247 -0.63776 0.850037 -0.457615
829 -0.0232554 0.0976946 0.176338 0.368664 -0.667898 0.0476226 -0.143891 -0.204006 -0.306461 0.056578 -0.414029 0.30175 -1.12414 -0.509404 0.80601 -0.404447
518 -0.0712664 0.139505 -0.324804 0.602321 -1.03458 -0.197305 0.103123 -0.47616 -0.421731 0.0292692 -0.050415 0.645761 -1.24741 -0.165406 1.13654 -0.227996
167 -0.0475891 0.0560378 0.14309 0.473186 -0.810767 0.0650197 -0.160218 -0.368255 -0.341847 0.0319925 -0.221983 0.419207 -0.91669 -0.382709 0.742009 -0.331516
174 -0.0301097 0.0428737 0.0293005 0.54232 -0.921669 -0.153901 -0.244366 -0.436397 -0.659159 -0.0286034 -0.259827 0.577591 -1.19833 0.196008 1.07705 -0.377973
717 -0.0819552 0.0808157 -0.07501 0.352217 -0.731882 -0.219648 -0.142504 -0.426855 -0.381574 0.072853 -0.25088 0.45284 -1.06513 -0.114869 0.923391 -0.285059
846 -0.053083 0.105015 -0.0572234 0.390464 -0.871264 -0.253978 -0.161493 -0.503867 -0.414796 0.0588513 -0.265397 0.527339 -1.11847 -0.153958 1.01425 -0.290601
735 -0.0532747 0.10867 -0.0144419 0.394969 -0.776042 -0.0773828 -0.158256 -0.400966 -0.28484 0.0595381 -0.271027 0.447197 -1.04364 -0.313302 0.918368 -0.344297
722 0.0964747 0.153517 -0.0773665 0.331165 -0.46312 0.14096 -0.158519 -0.218574 -0.143413 0.192554 -0.396792 0.364292 -1.06024 -0.19927 0.868336 -0.410501
271 0.451158 0.450564 0.080407 0.455884 -0.2944 1.04773 -0.40037 -0.125366 0.283153 0.513167 -0.883882 0.310623 -1.53486 -0.0962062 0.917799 -0.953553
303 0.229235 0.195074 0.154462 0.283639 -0.304819 0.464348 -0.325725 -0.0880949 0.0622974 0.273827 -0.55391 0.247231 -1.02999 -0.231769 0.651888 -0.53607
547 -0.107056 0.123148 -0.0929343 0.505594 -0.923936 -0.255786 -0.0288661 -0.495813 -0.542613 -0.0267921 -0.108548 0.541022 -1.17954 -0.0567454 1.08577 -0.225897
705 -0.154562 0.154375 -0.367757 0.710045 -1.06761 -0.405182 0.0111974 -0.499116 -0.583258 0.11525 -0.157343 0.730857 -1.43501 -0.0238634 1.22649 -0.280902
718 -0.0771824 0.0575982 -0.0973899 0.336595 -0.677839 -0.193715 -0.0504073 -0.384576 -0.340783 0.0265293 -0.189105 0.510318 -1.18454 -0.225522 1.03141 -0.323479
827 -0.153985 0.175627 -0.226979 0.489818 -0.970867 -0.230081 0.0765388 -0.436933 -0.418316 0.0623259 -0.0997757 0.65767 -1.34911 -0.281962 1.13183 -0.257908
832 0.0693243 0.195101 0.0768083 0.46272 -0.904883 0.0074462 -0.247321 -0.422918 -0.297024 0.180203 -0.30696 0.491599 -1.17419 -0.239196 0.988255 -0.391494
969 0.0926116 -0.00993144 0.326663 0.189274 -0.794852 -0.0690968 -0.609145 -0.412 -0.166839 0.181611 -0.780723 0.280462 -0.840921 -0.44879 0.910076 -0.468041
395 -0.0163321 0.020075 0.572396 0.504846 -1.20724 0.0432555 -0.811928 -0.632634 -0.190474 0.291131 -0.956516 0.366818 -0.757892 -0.768342 0.797092 -0.517197
968 0.138755 0.0742093 0.352005 0.313073 -0.637974 0.195935 -0.648533 -0.342759 -0.103998 0.265508 -0.778466 0.213356 -0.954228 -0.480723 0.853681 -0.546114
55 0.0507573 -0.105044 0.348922 0.718731 -0.642592 0.266778 -0.763226 -0.166956 -0.667146 -0.0324448 -0.832537 0.22351 -0.784747 -0.224425 0.83213 -0.436936
59 0.122171 -0.0972296 0.452973 0.803781 -0.707806 0.34789 -0.809748 -0.218932 -0.724759 -0.109646 -0.893273 0.260339 -0.879436 -0.17323 0.875322 -0.54699
808 0.0865496 -0.105236 0.451339 0.784475 -0.660446 0.321745 -0.740797 -0.143638 -0.740747 -0.109161 -0.817313 0.228432 -0.872796 -0.156098 0.867453 -0.552903
392 0.0853457 -0.0264995 0.383342 0.601781 -0.712648 0.251018 -0.634932 -0.23452 -0.563723 -0.019955 -0.778758 0.184944 -0.798132 -0.246444 0.779003 -0.444685
38 0.0463346 -0.0606851 0.323177 0.608475 -0.665843 0.21491 -0.525781 -0.230817 -0.569096 0.0035109 -0.634311 0.260947 -0.825144 -0.155461 0.770095 -0.391622
708 -0.169107 0.191214 -0.27624 0.574442 -1.00405 -0.308198 0.195921 -0.507199 -0.499828 0.0278199 -0.0574772 0.697541 -1.40451 -0.170906 1.11256 -0.282517
257 -0.0224759 0.0824574 0.460638 0.560102 -0.770478 0.288495 -0.36785 -0.302154 -0.250171 0.128425 -0.464361 0.32155 -0.786355 -0.55676 0.570502 -0.449679
682 0.227263 0.163132 0.743388 -0.0571939 -0.566776 0.112784 -0.394966 -0.368382 -0.48875 0.0521874 -0.327844 0.181571 -1.26517 -0.149414 0.931138 -0.628588
795 0.108321 0.115026 0.518152 -0.0102508 -0.470219 0.0693971 -0.288505 -0.251112 -0.275765 0.0833889 -0.324347 0.206925 -0.930309 -0.291013 0.694298 -0.477109
180 0.318715 0.131319 0.713362 -0.186797 -0.640589 0.0342055 -0.302049 -0.437785 -0.462515 -0.0578339 -0.224006 0.275455 -1.18401 -0.249396 0.979925 -0.50973
699 0.211836 0.141951 0.659041 -0.129428 -0.620826 0.102941 -0.369813 -0.418722 -0.482557 -0.0107175 -0.276255 0.201164 -1.21855 -0.123397 0.967753 -0.574504
339 0.35748 0.20479 1.01957 -0.254828 -0.707433 0.0702722 -0.526026 -0.496314 -0.557476 0.0824641 -0.305698 0.16113 -1.45225 -0.00653006 1.00721 -0.702104
351 0.210453 0.165597 0.654795 -0.0656774 -0.629395 0.083366 -0.42682 -0.454004 -0.503976 0.015435 -0.231227 0.1978 -1.12625 -0.125406 0.934836 -0.456749
168 0.449621 0.219736 1.11211 -0.352186 -0.765384 0.295437 -0.504356 -0.674821 -0.694397 -0.115771 -0.228118 0.036268 -1.50529 -0.00647736 1.2391 -0.642738
341 0.410775 0.125913 0.883055 -0.255149 -0.5696 0.0331807 -0.394234 -0.318418 -0.511402 -0.124772 -0.229749 0.162805 -1.31419 -0.0435681 1.01764 -0.681703
159 -0.0458357 0.112518 0.422233 0.631179 -0.836693 0.32827 -0.394973 -0.399839 -0.25752 0.0245099 -0.473857 0.398533 -0.793209 -0.612215 0.637104 -0.458123
125 -0.305069 0.126396 0.7324 0.968388 -1.36717 0.399951 -0.41407 -0.549609 -0.573756 -0.0601323 -0.50221 0.734986 -0.984486 -1.26863 0.806845 -0.544302
153 -0.196713 0.0393629 0.5568 0.6822 -1.00206 0.271244 -0.405713 -0.417057 -0.404147 -0.0149613 -0.419971 0.460518 -0.740762 -0.881467 0.618872 -0.498669
212 0.190619 0.238754 0.404663 0.553042 -1.03123 0.772112 -0.461955 -0.772431 -0.290494 -0.157331 -0.591477 0.242052 -0.95639 -0.474847 1.02573 -0.411389
780 -0.101653 -0.0324746 0.470287 0.235479 -0.682244 -0.215524 -0.12363 -0.0727966 -0.22914 0.144817 -0.54515 0.0319185 -1.04285 -0.733937 0.585202 -0.594309
90 -0.0188027 -0.0178975 0.540691 0.0717914 -0.764194 -0.278742 -0.220584 -0.0341571 -0.292752 0.230592 -0.584463 0.00677551 -1.17198 -0.648152 0.63735 -0.642557
857 -0.045637 0.0128954 0.32886 0.26966 -0.6233 -0.0742509 -0.227291 -0.0917966 -0.208108 0.107749 -0.576177 0.127827 -1.06457 -0.694901 0.639568 -0.562935
996 0.100462 0.0543317 0.292803 0.341467 -0.675212 0.0883082 -0.399613 -0.233857 -0.285255 0.195348 -0.594673 0.24724 -1.1058 -0.535752 0.913338 -0.436831
101 0.0190343 0.0221611 0.368489 0.393061 -0.690231 -0.00946604 -0.299218 -0.0757035 -0.357532 0.127803 -0.599697 0.197694 -1.10947 -0.578427 0.745075 -0.525153
79 -0.137631 -0.0253088 0.598579 0.385141 -0.972655 -0.379193 -0.15141 0.226268 -0.382301 0.427057 -0.692564 -0.038865 -1.23518 -0.934615 0.44469 -0.57907
53 0.0267428 -0.191417 0.596617 0.904799 -0.601379 0.408203 -0.951632 -0.104562 -0.910613 -0.189162 -1.03562 0.187335 -0.92178 -0.134427 0.87713 -0.677933
539 0.102476 -0.0397887 0.380826 0.701029 -0.648142 0.332956 -0.669804 -0.148285 -0.614367 -0.0959312 -0.781399 0.213748 -0.921759 -0.248087 0.795791 -0.518763
548 0.141334 -0.057169 0.394194 0.59273 -0.544898 0.289674 -0.676847 -0.124636 -0.635606 -0.0783995 -0.745906 0.170006 -0.890049 -0.150719 0.871374 -0.508924
546 0.182432 -0.0296317 0.358685 0.611424 -0.586666 0.377101 -0.75897 -0.16511 -0.696688 -0.0943727 -0.859267 0.188041 -0.926039 -0.225296 0.935528 -0.462995
925 0.140133 -0.0457474 -0.0227157 0.365676 -0.455329 0.139836 -0.585574 -0.221666 -0.459767 0.096524 -0.575209 0.241886 -1.00095 -0.491413 1.14411 -0.108958
594 0.102326 -0.0924628 -0.14521 0.332842 -0.437444 0.0878917 -0.626158 -0.284823 -0.422971 0.194961 -0.549671 0.352305 -0.865554 -0.707911 1.21144 0.0375372
980 -0.198985 -0.0326591 0.406321 0.580584 -0.775966 0.0948848 -0.415499 -0.33253 -0.355247 0.0313242 -0.509722 0.463123 -0.830723 -0.906276 0.71898 -0.414606
363 -0.27497 0.023152 0.660543 0.60014 -1.13859 0.00922193 -0.448538 -0.410054 -0.381456 0.0478302 -0.504229 0.491805 -0.890961 -1.03497 0.667423 -0.528647
769 0.0136506 -0.0411261 0.447101 0.287089 -0.747111 0.0650183 -0.568401 -0.426943 -0.205656 0.123755 -0.687609 0.255806 -0.690552 -0.554276 0.721342 -0.441224
645 0.200658 0.001425 0.364505 0.136146 -0.746561 0.0635525 -0.687501 -0.48198 -0.145382 0.167757 -0.770073 0.205424 -0.852636 -0.393514 0.925537 -0.383649
208 0.162789 -0.0936608 0.483602 -0.0746421 -1.03241 -0.238428 -1.12577 -0.832315 0.0612263 0.387251 -1.29989 0.164013 -0.754313 -0.610739 1.19337 -0.569121
308 0.331906 0.353448 0.41889 0.666546 -1.10246 1.29912 -0.437103 -0.916736 -0.23416 -0.236384 -0.696809 0.146383 -1.20697 -0.388087 1.09009 -0.434444
640 0.208038 -0.0579629 0.539321 0.096943 -0.837654 -0.0732304 -0.846815 -0.505368 -0.235283 0.189851 -0.91373 0.186623 -0.81546 -0.396282 0.948115 -0.529823
649 0.168299 -0.0234298 0.39822 0.175875 -0.633235 0.0626096 -0.617517 -0.423036 -0.223628 0.164903 -0.689327 0.190989 -0.809969 -0.365452 0.810826 -0.447451
228 0.249785 -0.0756424 0.38473 -0.108512 -0.701879 -0.0727089 -0.90685 -0.585095 -0.0649305 0.243235 -0.961971 0.114122 -0.76811 -0.451287 1.03106 -0.449985
798 0.213881 0.00508992 0.369653 -0.0479755 -0.697255 -0.100814 -0.793374 -0.517177 -0.0120068 0.292895 -0.883216 0.256755 -0.779359 -0.368812 0.954013 -0.572857
635 0.130981 -0.150952 0.500909 0.0303152 -0.908891 -0.201657 -1.00405 -0.600736 0.0303007 0.283681 -1.2313 0.196363 -0.692099 -0.678582 1.0159 -0.57059
885 0.18417 -0.0572503 0.176352 0.277969 -0.653443 0.0675768 -0.393438 -0.184022 -0.0513943 0.0394127 -0.610713 0.261173 -0.839325 -0.533636 0.775686 -0.407204
614 0.221801 0.189347 0.193806 0.412124 -0.672281 0.606498 -0.27915 -0.40861 -0.199072 -0.0843483 -0.468749 0.182234 -0.936073 -0.321987 0.833674 -0.358964
310 0.480773 0.359522 0.361623 0.617618 -0.999959 1.31409 -0.475455 -0.891599 -0.354421 -0.275817 -0.59468 0.187448 -1.22748 -0.216827 1.29932 -0.34047
156 0.093199 0.129466 0.287025 0.564125 -0.762653 0.557703 -0.25965 -0.502225 -0.223646 -0.17378 -0.40723 0.279854 -0.851368 -0.467272 0.727688 -0.326102
11 0.359489 0.257472 0.346121 0.771851 -0.981198 1.305 -0.340891 -0.739464 -0.362689 -0.452547 -0.629945 0.203666 -1.26835 -0.336753 1.06096 -0.413542
779 0.158335 0.103326 0.533454 0.0237909 -0.512877 0.138349 -0.28205 -0.319574 -0.332634 -0.0259004 -0.298974 0.133521 -1.12449 -0.287163 0.84354 -0.452017
775 0.0622097 0.149609 0.335997 0.521934 -0.841013 0.499043 -0.297606 -0.578332 -0.281479 -0.0489173 -0.429704 0.293782 -0.858671 -0.38581 0.77596 -0.346716
249 -0.293973 0.0938017 0.702493 0.845035 -1.17147 0.285925 -0.512595 -0.515541 -0.439796 -0.0148612 -0.50695 0.591942 -0.852117 -1.07372 0.716993 -0.643278
127 -0.367195 0.171483 0.816756 1.01608 -1.09266 0.536928 -0.533799 -0.516051 -0.443878 -0.00147387 -0.518941 0.682 -0.912231 -1.1896 0.709109 -0.792427
258 -0.0965045 0.0342055 0.575463 0.480437 -0.907852 0.144153 -0.426395 -0.414521 -0.395413 -0.0104463 -0.429507 0.355317 -0.786027 -0.674455 0.614668 -0.476561
581 0.0270261 0.0046498 0.339003 0.358007 -0.757851 -0.0209807 -0.318529 -0.114842 -0.22879 0.166453 -0.594198 0.254935 -1.12677 -0.63833 0.747888 -0.529786
91 0.0348026 -0.0265811 0.456578 0.234163 -0.728085 -0.192974 -0.277294 -0.0602601 -0.271925 0.252815 -0.629783 0.0638978 -1.09387 -0.648059 0.680325 -0.586237
25 0.176312 -0.147462 0.445177 0.690587 -0.578845 0.252287 -0.910512 -0.0339223 -0.727277 -0.101789 -1.05423 0.0982705 -0.969129 -0.0533803 0.861913 -0.664168
223 0.1407 -0.131969 0.353274 0.0453655 -0.582284 -0.167324 -0.74007 -0.373288 -0.121324 0.197699 -0.922892 0.0558618 -0.75916 -0.509206 0.813346 -0.473883
170 0.338684 -0.150636 0.713566 -0.303274 -0.68511 -0.268378 -1.07968 -0.685081 -0.195322 0.320898 -1.1437 0.0209993 -0.870382 -0.282575 1.12285 -0.673743
639 0.271027 0.0117169 0.362888 -0.0733566 -0.608612 -0.0208773 -0.831268 -0.485799 0.0580913 0.366301 -0.978823 0.144226 -0.743838 -0.323273 0.876918 -0.547347
723 -0.0811865 0.107005 0.0443163 0.423406 -0.725952 -0.0114294 -0.175497 -0.335428 -0.354814 -0.0130774 -0.264126 0.452163 -0.988077 -0.350637 0.82117 -0.301626
637 -0.0734924 0.103496 -0.0883317 0.378563 -0.864605 -0.270187 -0.150588 -0.430471 -0.337388 0.124932 -0.196715 0.564582 -1.21597 -0.17 1.10513 -0.2916
727 -0.120174 0.146402 -0.310165 0.472133 -1.08204 -0.342838 0.087047 -0.61315 -0.510727 0.0561625 -0.018425 0.754096 -1.48714 -0.0489167 1.30947 -0.298649
667 -0.0390828 0.0399192 -0.137077 0.468179 -0.862326 -0.155532 0.00980117 -0.397834 -0.319756 -0.0124875 -0.143098 0.530612 -1.20368 -0.257969 1.04932 -0.325302
615 0.0917951 0.145984 0.109495 0.351008 -0.636077 0.232789 -0.210243 -0.466372 -0.284695 -0.0264369 -0.283075 0.328223 -1.02754 -0.202346 0.910204 -0.277648
985 0.0704062 0.145383 0.0893613 0.366262 -0.706576 0.0947481 -0.186475 -0.378724 -0.263303 0.102024 -0.333229 0.439221 -1.23824 -0.164003 0.98153 -0.441312
709 -0.049466 0.0683543 -0.199722 0.405297 -0.815392 -0.255678 -0.146071 -0.457822 -0.27547 0.150867 -0.222295 0.589384 -1.07404 -0.165179 1.0296 -0.331596
112 -0.0190493 -0.00549971 0.304008 0.351651 -0.655252 -0.0854646 -0.178796 -0.110153 -0.326976 0.117638 -0.478743 0.16856 -0.965921 -0.485339 0.644864 -0.376823
528 0.263925 0.162961 0.255461 0.490073 -0.809347 0.5583 -0.345676 -0.443541 -0.21459 -0.0674332 -0.514758 0.196201 -0.904308 -0.355996 0.812803 -0.411696
131 0.390072 0.404822 0.306261 0.779351 -1.14166 1.295 -0.303429 -0.800865 -0.290803 -0.308044 -0.538021 0.214283 -1.28384 -0.444887 1.16264 -0.344335
320 0.307734 0.282985 0.427137 0.729249 -0.875139 1.1758 -0.375407 -0.689992 -0.386871 -0.259943 -0.620408 0.2013 -1.02889 -0.268478 0.969928 -0.407422
627 0.170223 -0.0239974 -0.194541 0.125898 -0.331655 0.0124378 -0.442616 -0.341034 -0.360878 0.238468 -0.38002 0.311816 -1.07523 -0.776255 1.32733 0.0693853
169 0.303916 0.238211 1.00171 -0.40086 -0.82251 -0.00853085 -0.409202 -0.644273 -0.671902 0.0293988 -0.148683 0.198109 -1.45016 -0.0911747 1.16569 -0.627776
690 0.154489 0.0720184 0.580187 0.206156 -0.657073 0.159257 -0.456127 -0.330985 -0.455302 -0.00215133 -0.427117 0.157715 -0.892823 -0.247519 0.768624 -0.4198
2 0.0525325 -0.335086 0.541676 1.07971 -0.598792 0.262973 -1.01176 0.116021 -0.975056 -0.227344 -1.27869 0.179078 -1.02137 -0.138515 0.942199 -0.821784
393 0.190063 -0.0164178 0.382793 0.567929 -0.638039 0.299089 -0.742978 -0.159697 -0.547034 0.00759881 -0.801547 0.15843 -0.810991 -0.118 0.780652 -0.515315
26 0.308407 0.00960177 0.368012 0.709065 -0.594 0.52801 -0.914461 -0.105676 -0.610985 0.0584066 -0.937663 0.183755 -0.956224 -0.0276429 0.916429 -0.595967
255 0.222062 0.237392 0.271306 0.509697 -0.390069 0.597766 -0.486562 -0.182115 0.00302863 0.340906 -0.622452 0.271605 -0.951304 -0.228437 0.658367 -0.642166
142 -0.325699 0.0479405 0.696978 0.862865 -1.03945 0.242641 -0.492594 -0.398963 -0.471379 -0.106358 -0.5662 0.501109 -0.880475 -1.05032 0.652102 -0.627518
147 -0.0953941 0.143644 0.617169 0.657958 -0.928325 0.386862 -0.372048 -0.437646 -0.41509 -0.125175 -0.493135 0.34989 -0.776229 -0.689346 0.621966 -0.483463
537 -0.273244 -0.0816528 0.545652 0.73953 -0.853779 0.122058 -0.458949 -0.220348 -0.611693 -0.094176 -0.558726 0.479222 -0.855966 -1.02912 0.645271 -0.477474
4 0.107466 -0.281834 0.301315 0.934228 -0.489637 0.390958 -1.03056 0.13605 -1.02459 -0.184875 -1.11668 0.191559 -0.954055 -0.238761 1.02417 -0.573853
48 0.08447 -0.0950042 0.421964 0.385203 -0.611844 0.109404 -0.616908 -0.255693 -0.45737 -0.0155736 -0.769762 0.10725 -0.778851 -0.232618 0.742976 -0.480756
0 0.176512 -0.149975 0.6001 0.933905 -0.641896 0.517556 -0.935865 0.00604486 -1.04713 -0.189383 -1.14908 0.13486 -1.19885 0.114513 0.945861 -0.783283
219 0.202643 -0.14994 0.496689 -0.0606799 -0.868237 -0.160786 -1.00314 -0.635467 -0.0212645 0.272537 -1.1982 0.136952 -0.701428 -0.547263 1.0957 -0.5342
141 -0.213619 0.0428567 0.479079 0.768629 -0.991002 0.168406 -0.456364 -0.400764 -0.427639 0.0259417 -0.420894 0.525801 -0.856273 -0.94263 0.756524 -0.437688
81 -0.296474 0.0630305 0.862575 0.922637 -1.32742 0.287189 -0.59631 -0.344816 -0.631971 -0.0144473 -0.650632 0.58483 -0.972837 -1.15438 0.705691 -0.673807
658 -0.129838 -0.0132676 0.518376 0.607081 -0.937499 0.159475 -0.376598 -0.310516 -0.385459 -0.00750108 -0.491159 0.404643 -0.844517 -0.841063 0.619046 -0.448496
164 -0.198441 0.0350169 0.603706 0.681927 -1.17706 0.1643 -0.469336 -0.421406 -0.460066 0.0460868 -0.437307 0.477239 -0.784038 -0.930128 0.619632 -0.461716
396 -0.181271 0.0204347 0.649448 0.842903 -1.01616 0.252184 -0.579693 -0.354234 -0.560501 -0.108381 -0.541173 0.544193 -0.754744 -0.936546 0.671305 -0.529162
565 -0.0721179 0.112929 0.563349 0.639659 -1.02427 0.267729 -0.472132 -0.399499 -0.305573 -0.000128223 -0.504167 0.368489 -0.764343 -0.763874 0.576253 -0.459202
150 -0.162514 0.0185263 0.600516 0.826478 -1.00372 0.328292 -0.489114 -0.358821 -0.402617 -0.01071 -0.618678 0.452661 -0.790148 -0.721954 0.63699 -0.508449
13 -0.335115 -0.00021492 0.674194 0.939437 -1.23911 0.196085 -0.421912 -0.39994 -0.60126 -0.0432606 -0.546914 0.69873 -0.878562 -1.15682 0.740189 -0.528009
265 -0.138749 0.0128382 0.542485 0.634856 -0.914801 0.180454 -0.443674 -0.304374 -0.420106 0.0132494 -0.480819 0.359663 -0.821417 -0.758837 0.673247 -0.451864
34 0.114825 -0.0432743 0.447726 0.69971 -0.825177 0.325688 -0.67437 -0.258959 -0.620748 -0.0276949 -0.78716 0.242631 -0.886534 -0.255853 0.866174 -0.560525
35 0.206252 -0.0340735 0.382516 0.644256 -0.53512 0.416293 -0.68226 -0.162203 -0.592448 -0.100741 -0.769145 0.13866 -0.865701 -0.0569147 0.779398 -0.536607
538 0.0305714 -0.108217 0.390361 0.736883 -0.579965 0.216506 -0.717657 -0.146616 -0.716988 -0.147418 -0.685542 0.254074 -0.84098 -0.111392 0.773925 -0.518917
56 0.106625 -0.138841 0.46312 0.801086 -0.595166 0.271962 -0.895651 -0.0799403 -0.840781 -0.149319 -1.02634 0.112893 -0.950282 0.0225523 0.945866 -0.567055
414 0.387193 0.329864 0.11252 0.430703 -0.365857 0.664544 -0.465089 -0.106741 0.176651 0.434329 -0.753884 0.303855 -1.22813 -0.112348 0.818968 -0.810664
18 0.178136 -0.101333 0.426087 0.862301 -0.665576 0.442102 -0.914932 -0.0994922 -0.766251 -0.0412388 -1.00971 0.190616 -0.981905 -0.150391 0.920453 -0.584629
333 0.21879 0.21189 0.289455 0.540037 -0.815123 0.743541 -0.334474 -0.529754 -0.245018 -0.144365 -0.44554 0.262627 -0.94551 -0.261938 0.889845 -0.397014
477 0.16499 0.219109 0.281943 0.551437 -0.740141 0.722194 -0.268874 -0.436396 -0.197717 -0.123973 -0.463157 0.139539 -0.950873 -0.343041 0.729331 -0.328838
869 0.211912 0.127634 0.235463 0.465672 -0.598254 0.494808 -0.303904 -0.36486 -0.254985 -0.0641658 -0.507248 0.210252 -1.02042 -0.370822 0.799258 -0.384908
473 0.278076 0.204932 0.199879 0.52384 -0.654643 0.727413 -0.330976 -0.444062 -0.17165 -0.0367283 -0.539075 0.199738 -1.08931 -0.229771 0.833287 -0.388636
898 0.170008 0.0926884 0.235179 0.399363 -0.586623 0.42556 -0.337729 -0.353659 -0.236407 -0.0166437 -0.497142 0.201689 -0.835199 -0.280198 0.75796 -0.405326
470 0.211063 0.29664 0.350879 0.7131 -0.983255 1.03042 -0.357621 -0.676622 -0.266871 -0.20589 -0.567653 0.254123 -1.05167 -0.350449 0.873646 -0.408407
327 0.209574 0.307116 0.338561 0.5888 -0.887577 0.852609 -0.315239 -0.586632 -0.260829 -0.166317 -0.491211 0.223212 -0.944284 -0.295979 0.861946 -0.408349
475 0.260048 0.239576 0.28822 0.50221 -0.692461 0.78105 -0.391638 -0.462678 -0.21527 -0.0648966 -0.498636 0.208437 -0.959901 -0.203645 0.729044 -0.395252
309 0.367464 0.446511 0.249985 0.744409 -0.954143 1.37112 -0.239275 -0.769171 -0.192854 -0.303853 -0.665627 0.121488 -1.38425 -0.297779 1.05948 -0.447964
481 0.219311 0.239561 0.341955 0.364093 -0.765837 0.647138 -0.322457 -0.51646 -0.282395 -0.11335 -0.411978 0.181614 -1.00799 -0.228773 0.852804 -0.358007
555 0.156797 0.20355 0.393655 0.493042 -0.902923 0.531922 -0.422535 -0.505433 -0.287573 -0.0407897 -0.504584 0.300382 -0.907207 -0.436478 0.824709 -0.392849
280 0.431266 0.3185 0.0396554 0.428989 -0.256019 0.803747 -0.591336 -0.0221231 0.186452 0.575462 -0.981035 0.281929 -1.46485 0.0350043 0.939018 -0.963819
284 0.40857 0.393338 -0.117452 0.167908 0.0719262 0.714964 -0.375303 0.0145225 0.35898 0.636433 -0.763795 0.314572 -1.42181 -0.143666 0.911234 -0.853263
571 0.422171 0.380963 0.105072 0.30645 -0.283326 0.613866 -0.545787 -0.138323 0.258273 0.599199 -0.834729 0.300432 -1.30148 -0.125018 0.827913 -0.756094
915 0.138216 0.083294 0.312937 0.301542 -0.618966 0.183763 -0.606112 -0.352383 -0.180504 0.209178 -0.786392 0.240944 -0.93474 -0.350523 0.851287 -0.51871
237 0.203693 -0.0626701 0.37415 0.313859 -0.758589 0.0931966 -0.888068 -0.44346 -0.31297 0.140383 -0.926286 0.183679 -0.802135 -0.364884 0.997294 -0.488074
982 0.173592 0.0070611 0.445616 0.0923529 -0.658504 -0.0279087 -0.747865 -0.472387 -0.191771 0.163819 -0.774075 0.177448 -0.82786 -0.337766 0.897026 -0.493407
233 0.163043 -0.0737549 0.488055 0.160464 -0.865143 -0.0550765 -0.966779 -0.495403 -0.234596 0.224347 -0.986932 0.186543 -0.700594 -0.407573 0.931316 -0.53498
215 0.192233 -0.0829185 0.609592 -0.0614438 -0.92211 -0.178643 -1.04684 -0.674923 -0.0668168 0.334451 -1.13231 0.131898 -0.732097 -0.599864 0.986195 -0.596482
781 -0.0662459 -0.00681362 0.417422 0.267065 -0.683886 -0.210498 -0.171855 0.0716203 -0.279768 0.209225 -0.613476 0.0989341 -1.17584 -0.697723 0.575096 -0.607206
576 0.113662 0.127226 0.239301 0.292152 -0.415601 0.18577 -0.275648 -0.0168558 -0.0515204 0.287045 -0.61704 0.146233 -1.0504 -0.416609 0.64036 -0.525173
856 -0.0763912 -0.104607 0.475132 0.0436142 -0.610487 -0.423173 -0.139192 0.0913659 -0.303524 0.234325 -0.601291 -0.0619085 -1.09125 -0.774661 0.605146 -0.609102
789 -0.0417707 -0.141683 0.480315 0.401946 -0.750963 -0.175017 -0.320882 0.0435284 -0.407229 0.121693 -0.722851 0.131246 -1.0994 -0.713199 0.668362 -0.652279
686 0.0992759 0.0287456 0.431454 0.157064 -0.65309 -0.0461618 -0.202832 -0.135358 -0.267307 0.187275 -0.503779 0.183618 -1.13292 -0.493507 0.746453 -0.605398
839 -0.0138645 -0.0319457 0.412638 0.38994 -0.766448 0.0310866 -0.269529 -0.11546 -0.294507 0.0827281 -0.506873 0.236167 -1.05625 -0.676061 0.739085 -0.49724
381 0.406478 -0.145851 0.0803316 0.582396 -0.664674 0.229566 -0.528541 0.00155389 -0.046657 -0.0267003 -0.728414 0.261882 -0.919802 -0.479096 0.794612 -0.454564
50 0.545874 -0.353678 -0.211863 0.859199 -1.16035 0.20369 -0.399197 -0.00360403 0.0285931 -0.20332 -0.683478 0.443463 -1.02576 -0.780418 0.937774 -0.364015
534 0.231869 -0.0577358 0.141573 0.441479 -0.744291 0.273255 -0.311555 -0.22843 -0.090022 -0.0512411 -0.46355 0.262231 -0.882092 -0.519207 0.751475 -0.385157
665 0.413273 -0.0807514 0.15108 0.356329 -0.655974 0.20424 -0.272446 0.00122229 -0.0452789 -0.0443543 -0.528243 0.247568 -1.03588 -0.605699 0.785679 -0.522463
369 0.331577 -0.157035 0.11332 0.519571 -0.80199 0.205294 -0.343029 -0.108842 -0.109852 -0.096609 -0.569098 0.317489 -0.875302 -0.647098 0.694578 -0.340542
552 0.304899 0.287429 0.330869 0.525578 -0.767327 1.01715 -0.309086 -0.65427 -0.354373 -0.361348 -0.542131 0.17626 -1.08866 -0.267688 0.926719 -0.374528
696 0.21287 0.198661 0.348132 0.580234 -0.915314 0.70982 -0.360205 -0.569447 -0.430403 -0.145606 -0.43151 0.215076 -1.06655 -0.279161 0.94002 -0.386428
331 0.191746 0.244952 0.382139 0.440633 -0.805709 0.699048 -0.336176 -0.536401 -0.300297 -0.0602323 -0.44698 0.17899 -0.990891 -0.341209 0.852197 -0.438144
872 0.204007 0.170361 0.279134 0.457512 -0.662652 0.724974 -0.367673 -0.42988 -0.27217 -0.116518 -0.534628 0.139904 -0.986827 -0.257118 0.787076 -0.382918
810 0.149246 0.0175024 0.381602 0.651589 -0.685758 0.332761 -0.616287 -0.18691 -0.546987 -0.00260376 -0.747012 0.172059 -0.906679 -0.225906 0.808677 -0.49853
361 -0.271229 0.0532111 0.637862 0.832212 -1.04781 0.36926 -0.43823 -0.409663 -0.379945 0.00584273 -0.569594 0.549683 -0.799819 -0.962 0.648715 -0.607946
364 -0.384169 -0.00277771 0.644438 0.89348 -1.17161 0.209638 -0.42171 -0.357009 -0.421846 -0.0210392 -0.60233 0.621958 -0.766655 -1.23915 0.623151 -0.612283
130 -0.34315 0.00716123 0.730516 1.08339 -1.3292 0.247162 -0.532013 -0.400906 -0.561071 -0.0907789 -0.564089 0.69837 -0.971751 -1.29177 0.729195 -0.690714
160 -0.204285 0.0439523 0.570198 0.747267 -1.01509 0.250124 -0.444847 -0.372915 -0.380209 0.0903191 -0.485212 0.45878 -0.805789 -0.904602 0.587126 -0.516298
521 -0.0179204 0.0509095 0.308334 0.674565 -1.04999 0.244363 -0.461947 -0.380164 -0.324917 0.029746 -0.456942 0.475885 -0.875846 -0.813232 0.811106 -0.35826
981 -0.0501053 0.0292236 0.319658 0.478498 -0.735705 0.15509 -0.322017 -0.275584 -0.227215 0.00464838 -0.478964 0.350209 -0.88302 -0.659869 0.69989 -0.411718
276 0.448164 0.397631 -0.00896245 0.410622 -0.177969 0.87876 -0.461439 -0.0939466 0.416994 0.520953 -0.896014 0.308567 -1.52504 -0.0907738 0.930171 -0.946861
294 0.371191 0.335485 0.0704293 0.26298 -0.248338 0.583076 -0.372943 -0.125065 0.143801 0.373034 -0.728525 0.250887 -1.27198 -0.165507 0.826654 -0.748504
421 0.402828 0.270603 0.108567 0.363734 -0.291714 0.599575 -0.397769 -0.0060647 0.162216 0.449646 -0.818613 0.287827 -1.29707 -0.0712587 0.841303 -0.761726
498 0.373653 0.311233 0.0463698 0.337469 -0.312307 0.570676 -0.477294 -0.152175 0.232822 0.477055 -0.793577 0.270605 -1.24835 -0.213533 0.838469 -0.628035
273 0.413149 0.380865 0.18794 0.59732 -0.29976 0.873607 -0.652084 0.00215501 0.349414 0.662485 -1.10687 0.327639 -1.50216 -0.0799562 0.807591 -0.973146
558 0.260187 0.280289 0.217331 0.524781 -0.682382 0.805105 -0.378602 -0.478592 -0.147718 -0.0510938 -0.51208 0.213781 -0.994096 -0.251704 0.852036 -0.39837
114 0.0298312 0.0439003 0.340579 0.400552 -0.739016 -0.00579626 -0.302825 -0.0427371 -0.271809 0.170637 -0.552283 0.168654 -1.06329 -0.53474 0.646421 -0.476332
420 0.147679 0.0830851 0.258143 0.356735 -0.612859 0.17435 -0.354568 -0.134728 -0.207332 0.232346 -0.662078 0.186746 -1.15417 -0.493757 0.832203 -0.531539
792 0.0052885 -0.00613691 0.433916 0.330408 -0.680812 -0.0962321 -0.240837 -0.129993 -0.289788 0.11549 -0.484696 0.193922 -1.04481 -0.622991 0.640575 -0.499845
84 -0.0141474 -0.0974703 0.574851 0.230487 -0.881085 -0.379115 -0.333729 -0.110717 -0.346442 0.271759 -0.679129 0.00444674 -1.13221 -0.719179 0.608508 -0.615262
796 -0.0385832 -0.0214799 0.352229 0.235284 -0.550386 -0.0396715 -0.242614 -0.0772085 -0.202505 0.129941 -0.53838 0.145651 -1.02885 -0.540946 0.63768 -0.498578
924 0.0202865 0.000161529 0.267131 0.228609 -0.591452 -0.120014 -0.288335 -0.0591975 -0.253675 0.295642 -0.57054 0.0963623 -1.14209 -0.637561 0.75329 -0.504088
95 0.0189327 0.05172 0.337246 0.238944 -0.661315 -0.170307 -0.321748 -0.0285241 -0.100918 0.351847 -0.682057 0.102954 -1.03185 -0.647602 0.579086 -0.600458
741 -0.159219 -0.00874236 0.592875 0.718551 -0.957967 0.175453 -0.502268 -0.296391 -0.501981 -0.0268355 -0.579786 0.386635 -0.726168 -0.622659 0.648782 -0.481568
51 0.143536 -0.248202 0.405276 0.801179 -0.536882 0.328994 -0.957718 -0.0149179 -0.967464 -0.0633403 -1.0876 0.0982723 -1.02418 -0.0987147 1.04628 -0.539409
920 0.155498 -0.0495698 0.279623 0.491723 -0.532613 0.24571 -0.668767 -0.159305 -0.548473 -0.00318991 -0.692085 0.109733 -0.800451 -0.19042 0.830398 -0.431586
52 0.113267 -0.203379 0.639843 0.738512 -0.533585 0.322661 -0.903258 -0.0922442 -0.964098 -0.211157 -0.998766 0.15721 -1.00997 -0.0350928 1.06112 -0.719761
126 0.339833 0.204062 1.15529 -0.356645 -0.949713 -0.0334901 -0.532716 -0.66848 -0.715129 0.0260789 -0.152633 0.252796 -1.39394 -0.145264 1.15703 -0.641615
7 0.287775 0.175245 0.888973 -0.120635 -0.830129 0.163471 -0.458354 -0.592936 -0.762853 -0.111532 -0.201305 0.163727 -1.39371 0.0634269 1.16136 -0.556165
235 0.13056 -0.00328246 0.362945 0.116279 -0.628576 -0.0384935 -0.51996 -0.32452 -0.229827 0.158619 -0.660933 0.159595 -0.835364 -0.403971 0.789533 -0.405658
89 0.065353 0.0120256 0.459517 0.475223 -0.790077 -0.110437 -0.323699 0.0615965 -0.47939 0.204965 -0.67848 0.00421661 -1.09403 -0.480212 0.637642 -0.496985
948 0.0812826 0.0950006 0.166197 0.365862 -0.689541 0.0716445 -0.328062 -0.177977 -0.305463 0.172358 -0.572913 0.246222 -1.20057 -0.465943 0.925673 -0.467195
110 0.0818685 0.103062 0.347931 0.364917 -0.595808 0.0722815 -0.257227 0.0228627 -0.106478 0.294114 -0.606485 0.172746 -1.12102 -0.552264 0.64182 -0.582482
965 0.122173 0.110673 0.230617 0.341734 -0.632182 0.0866641 -0.268908 -0.187478 -0.227293 0.168902 -0.522233 0.174916 -1.06228 -0.537184 0.77891 -0.519571
202 0.247334 0.161255 0.537173 0.0784028 -0.621379 0.18939 -0.478404 -0.390175 -0.395516 0.100854 -0.392903 0.21516 -1.03281 -0.162776 0.905106 -0.49463
342 0.269043 0.156864 0.892458 -0.0563152 -0.678586 0.167265 -0.53773 -0.484971 -0.713841 -0.085253 -0.371606 0.133492 -1.23301 0.0373523 1.01427 -0.696637
270 0.0886201 0.084951 0.559043 0.199924 -0.622764 0.138377 -0.375254 -0.374553 -0.341207 -0.00634356 -0.354728 0.218665 -0.873515 -0.332595 0.697101 -0.440284
45 0.130747 0.0227488 0.431335 0.425763 -0.644533 0.220839 -0.620134 -0.217171 -0.531241 -0.0615009 -0.676467 0.181783 -0.844478 -0.154285 0.792895 -0.53675
27 0.0631893 -0.0277547 0.610935 0.849804 -0.842069 0.439248 -0.796888 -0.275191 -0.813115 -0.153989 -0.838942 0.189092 -0.943262 -0.166029 0.919527 -0.680377
65 0.111681 -0.0780272 0.415757 0.722774 -0.614017 0.314006 -0.714297 -0.167056 -0.745568 -0.158569 -0.860416 0.140717 -0.855145 0.00123217 0.872841 -0.574458
602 0.144548 -0.0269029 0.00679947 0.314927 -0.505557 0.142693 -0.550437 -0.262065 -0.383229 0.123115 -0.5412 0.223322 -0.975523 -0.478617 1.11301 -0.124906
433 0.405135 0.0156042 -0.331485 0.0826631 -0.418332 0.114939 -0.830611 -0.303274 -0.4123 0.47746 -0.563121 0.257447 -1.11538 -0.661504 1.61882 0.268575
442 0.228271 0.0461911 -0.18292 0.180721 -0.490994 0.051296 -0.573518 -0.287854 -0.422108 0.324685 -0.435906 0.216073 -1.07627 -0.60037 1.27649 0.0923713
491 0.0394449 -0.0316976 -0.0373568 0.391971 -0.605089 0.0949465 -0.537813 -0.34141 -0.348679 0.201978 -0.385552 0.321435 -0.831945 -0.72283 1.03521 -0.0511378
604 0.142452 0.0914361 0.00699583 0.318099 -0.543529 0.227263 -0.484292 -0.372171 -0.337596 0.122942 -0.440748 0.248019 -0.926502 -0.498751 1.03497 -0.119258
444 0.31602 0.0324086 -0.300283 0.143035 -0.389028 0.115039 -0.543035 -0.314526 -0.244657 0.345014 -0.452361 0.243137 -1.00876 -0.60498 1.30452 0.0874242
663 0.517965 -0.293926 -0.0579145 0.632004 -0.94312 0.189403 -0.403889 0.106715 0.161388 -0.103052 -0.632218 0.359379 -0.946463 -1.0295 0.780557 -0.350791
519 0.320048 -0.163618 0.105517 0.438964 -0.765129 0.0442172 -0.47727 -0.129432 -0.00146829 0.0353463 -0.643508 0.291034 -0.978501 -0.69126 0.848515 -0.447152
883 0.217943 -0.0616859 0.229469 0.260025 -0.557617 0.144053 -0.392055 -0.16616 -0.155271 -0.00892855 -0.563228 0.259624 -1.00266 -0.454499 0.875577 -0.431194
853 0.192213 0.107647 0.550625 0.0463563 -0.63898 0.0938564 -0.406169 -0.357253 -0.419832 0.0250605 -0.392845 0.205666 -1.0865 -0.255656 0.922615 -0.53398
672 0.0908264 -0.0361099 0.28654 0.458696 -0.697195 0.160596 -0.322985 -0.178509 -0.159053 0.0543971 -0.501792 0.311542 -0.891753 -0.69935 0.72735 -0.411975
662 0.59808 -0.363236 -0.235671 0.665172 -0.73134 0.327093 -0.303336 0.15737 0.242456 -0.248599 -0.673635 0.380857 -1.02558 -0.972065 0.884097 -0.446085
670 0.322402 -0.0710492 0.117624 0.429677 -0.721597 0.254221 -0.397997 -0.115265 -0.112495 0.0113387 -0.531055 0.270756 -0.978124 -0.611862 0.771011 -0.398498
359 0.125384 0.0509071 0.483675 0.108479 -0.558047 0.079347 -0.355876 -0.30521 -0.355679 0.0521213 -0.342498 0.162602 -1.04435 -0.263248 0.802175 -0.461519
83 0.0131031 -0.0581484 0.531825 0.357354 -0.814608 -0.228505 -0.158553 0.0200864 -0.460502 0.170941 -0.543408 -0.0229671 -1.26372 -0.476171 0.583523 -0.514489
782 -0.00839823 0.0894294 0.49577 0.0993039 -0.558577 -0.132469 -0.0463267 -0.0865083 -0.212364 0.210397 -0.440572 0.0796893 -1.17812 -0.555383 0.649998 -0.60002
281 0.117545 0.207403 0.248269 0.405102 -0.676579 0.171733 0.0260827 -0.0124348 -0.0514389 0.285641 -0.478218 0.10944 -1.13903 -0.610711 0.582434 -0.540351
578 -0.113686 -0.0533421 0.482229 0.278552 -0.700503 -0.360583 0.141663 0.0399947 -0.336744 0.210153 -0.462174 0.0592167 -1.23074 -0.893952 0.495819 -0.544411
784 0.13335 0.152507 0.243183 0.360474 -0.599681 0.153478 -0.217169 -0.0374553 -0.12833 0.258513 -0.569972 0.262856 -1.26353 -0.452457 0.764827 -0.595426
12 0.131049 -0.1356 0.562456 0.892188 -0.775451 0.346257 -0.966718 -0.0313947 -0.894048 -0.0922869 -1.13093 0.10791 -1.03722 -0.128226 0.968215 -0.662961
592 0.200039 0.000460202 -0.162247 0.119898 -0.419311 0.0354731 -0.55162 -0.320975 -0.403146 0.231787 -0.472958 0.281129 -1.09429 -0.656851 1.40404 0.0679848
508 0.314277 0.189527 -0.0507821 0.296947 -0.357609 0.315902 -0.518941 -0.246177 -0.0714672 0.347776 -0.663963 0.285301 -1.05202 -0.309595 1.02931 -0.394187
272 0.545827 0.375833 0.00861068 0.292984 -0.346346 0.653288 -0.696119 -0.205997 0.3073 0.725573 -0.995317 0.37491 -1.40592 -0.0564067 0.9943 -0.952237
506 0.274409 0.168652 0.148763 0.221834 -0.373344 0.318382 -0.452103 -0.166508 0.0407976 0.319333 -0.674191 0.263792 -1.07417 -0.265824 0.828781 -0.55676
503 0.370899 0.226987 0.0350724 0.398302 -0.383465 0.520499 -0.482226 -0.0677463 0.13125 0.36393 -0.802673 0.283799 -1.20417 -0.155534 0.845506 -0.74621
509 0.278499 0.230424 0.170421 0.247726 -0.417532 0.400089 -0.358502 -0.184638 0.0373329 0.320234 -0.608008 0.278681 -1.1165 -0.169876 0.79947 -0.616566
227 0.204325 -0.0408655 0.398382 0.161115 -0.889897 -0.072159 -0.932527 -0.514521 -0.167552 0.237479 -1.07914 0.149295 -0.732754 -0.495324 1.06943 -0.489216
225 0.149012 -0.133454 0.434556 0.179246 -0.881657 -0.140863 -0.959613 -0.501718 -0.18693 0.278102 -1.09639 0.063358 -0.736487 -0.48921 0.979167 -0.520519
15 0.187326 -0.0673989 0.573228 -0.0330146 -0.876161 -0.161642 -1.11655 -0.667784 -0.132008 0.354046 -1.2248 0.123158 -0.821022 -0.450334 1.095 -0.609116
868 0.289943 0.201903 0.232334 0.167025 -0.35863 0.389853 -0.486337 -0.186242 0.0343566 0.376655 -0.76207 0.228244 -1.05962 -0.170114 0.818383 -0.676691
292 0.374333 0.286796 0.10687 0.282942 -0.212874 0.653858 -0.427471 -0.0706287 0.195954 0.450658 -0.775894 0.303509 -1.3083 -0.0903338 0.886039 -0.787182
986 0.153522 0.0083657 0.108037 0.258697 -0.605431 0.167725 -0.510096 -0.378588 -0.344139 0.146633 -0.477956 0.261492 -1.02779 -0.543029 1.12761 -0.222177
648 0.0995002 0.0122989 0.0134815 0.0611274 -0.400276 -0.0104745 -0.52767 -0.369214 -0.174641 0.216327 -0.550011 0.231384 -0.849631 -0.552515 1.0331 -0.135266
398 -0.264773 0.0207673 0.46594 0.668314 -0.96704 0.0720341 -0.325408 -0.354665 -0.441443 -0.0135157 -0.416309 0.492717 -0.772868 -0.968827 0.662854 -0.450411
733 -0.0736397 0.0378067 0.0189946 0.424873 -0.748606 -0.0964318 -0.128634 -0.376026 -0.360156 0.0286273 -0.213265 0.4877 -1.07161 -0.466346 0.913328 -0.320127
129 -0.515713 0.0768408 0.652956 0.898719 -1.19053 0.135979 -0.327349 -0.456067 -0.454848 -0.0559057 -0.570374 0.785731 -0.888742 -1.43351 0.662187 -0.696857
554 0.233161 0.0194476 0.113768 0.414609 -0.744617 0.320868 -0.335311 -0.246736 -0.237782 -0.0468328 -0.392866 0.280323 -0.899916 -0.370294 0.809088 -0.360062
695 -0.0875884 0.0376738 -0.0499796 0.364266 -0.811812 -0.207884 -0.15356 -0.400067 -0.522864 -0.0261352 -0.142108 0.570403 -1.17493 -0.0832382 1.11397 -0.260273
16 0.0553389 -0.298647 0.385978 0.836239 -0.499413 0.165061 -0.88859 0.0473729 -0.978239 -0.247192 -0.976588 0.117431 -1.03337 0.0363484 1.01023 -0.600141
794 0.146189 0.131697 0.340444 0.419632 -0.726052 0.44881 -0.321633 -0.406675 -0.279004 -0.0466216 -0.518714 0.261733 -1.06529 -0.37784 0.86189 -0.431767
324 0.224166 0.222058 0.381149 0.603872 -0.936874 0.723327 -0.405027 -0.502022 -0.263414 -0.030212 -0.52661 0.231522 -0.935577 -0.322539 0.819882 -0.440941
742 0.0561962 0.15636 0.441637 0.596315 -0.904646 0.571326 -0.433347 -0.499704 -0.309408 -0.0775351 -0.572223 0.31637 -0.96566 -0.509731 0.8382 -0.495061
336 0.156008 0.219707 0.377893 0.564455 -0.90343 0.661873 -0.409968 -0.542695 -0.2628 -0.0831373 -0.563013 0.271159 -0.981476 -0.458108 0.849 -0.442294
311 0.310291 0.345981 0.48468 0.649921 -0.940925 1.26481 -0.279839 -0.750156 -0.269441 -0.378231 -0.564731 0.196191 -1.19891 -0.440875 1.06634 -0.426952
247 0.248507 0.386827 0.345171 0.695705 -0.948818 1.15192 -0.342715 -0.705061 -0.194582 -0.262983 -0.55943 0.195419 -1.13241 -0.440175 0.936282 -0.411743
269 -0.0410425 0.0389552 0.586723 0.469833 -0.901308 0.139693 -0.431005 -0.378013 -0.392218 0.048621 -0.402969 0.355743 -0.73051 -0.605278 0.635314 -0.454094
820 -0.0479606 0.0300378 0.34856 0.550616 -0.799956 0.218284 -0.375691 -0.309814 -0.298243 0.0444287 -0.546576 0.373448 -0.877235 -0.661503 0.735078 -0.405871
754 0.309197 -0.00272381 0.141402 0.48628 -0.712839 0.31128 -0.525321 -0.150954 -0.050293 0.171591 -0.731988 0.323832 -1.1079 -0.596477 0.886388 -0.490092
755 0.195344 -0.0725208 0.200922 0.412372 -0.684403 0.138758 -0.436662 -0.129443 -0.0193823 0.0681366 -0.672583 0.235033 -0.96943 -0.6662 0.757866 -0.483775
955 0.160372 -0.0788355 0.185949 0.447616 -0.685617 0.193222 -0.350456 -0.142642 -0.189684 -0.0653106 -0.560211 0.285856 -0.983221 -0.616036 0.757825 -0.455179
403 -0.248563 0.0163116 0.500495 0.603595 -0.852314 0.136419 -0.28579 -0.253536 -0.327083 -0.0468421 -0.43 0.402567 -0.814138 -0.931736 0.558244 -0.459169
993 0.24059 -0.0194995 0.279964 0.559629 -0.870474 0.25041 -0.526283 -0.196688 -0.260846 0.047256 -0.681731 0.349566 -1.02762 -0.659686 0.85676 -0.508514
668 0.258214 -0.0472467 0.144849 0.369253 -0.660579 0.198807 -0.410723 -0.181772 -0.184011 0.0269089 -0.522961 0.271987 -1.02574 -0.577848 0.82983 -0.434374
525 0.147274 -0.0320933 0.186496 0.456646 -0.671027 0.139961 -0.333262 -0.168201 -0.176787 0.0380317 -0.581287 0.29426 -1.06124 -0.604787 0.786117 -0.481588
753 0.265581 -0.0807592 0.0294427 0.611989 -0.767672 0.177992 -0.467672 -0.0721296 -0.0683138 -0.0248331 -0.648475 0.356684 -0.922131 -0.600912 0.801661 -0.457162
516 0.0509448 -0.00725955 -0.169423 0.439487 -0.987171 -0.280214 -0.233073 -0.517096 -0.379139 0.0896819 -0.271987 0.52772 -1.18119 -0.188889 1.12448 -0.242285
732 -0.0332985 -0.074613 0.0552507 0.643659 -0.716681 -0.0267177 -0.474824 -0.269565 -0.624558 -0.0391404 -0.452264 0.375399 -0.979201 -0.0403495 0.950968 -0.360211
691 0.0473597 0.039767 0.233049 0.385692 -0.690447 0.0691073 -0.374865 -0.341112 -0.439939 0.0308087 -0.406546 0.327683 -0.973345 -0.257542 0.885865 -0.415378
936 -0.0369174 0.0756962 0.0388699 0.293256 -0.540493 -0.0743001 -0.132359 -0.289357 -0.28457 0.0196328 -0.318035 0.409114 -1.04143 -0.216037 0.823532 -0.383397
707 -0.22213 0.17399 -0.304033 0.589753 -0.993637 -0.281885 0.0340751 -0.550046 -0.539391 -0.0110901 -0.153799 0.702752 -1.33171 -0.0850565 1.19873 -0.323003
714 0.0276685 0.113886 0.00969851 0.470782 -0.833074 0.0257788 -0.204817 -0.411307 -0.355553 0.0554736 -0.340498 0.464213 -1.09976 -0.289613 0.916777 -0.391111
713 0.00918702 0.112076 0.0342114 0.508621 -0.865196 -0.0907533 -0.158782 -0.36631 -0.40354 0.107615 -0.33397 0.474451 -1.16445 -0.319836 0.98736 -0.371415
908 -0.0755988 0.133837 -0.0771744 0.37962 -0.713911 -0.0879943 -0.0553173 -0.347755 -0.370801 0.0216633 -0.189006 0.423694 -1.0859 -0.261468 0.890193 -0.281275
577 0.350425 0.26939 0.170058 0.446369 -0.491624 0.552828 -0.508528 -0.164552 0.0614421 0.366068 -0.700496 0.303275 -1.20468 -0.17856 0.841327 -0.660901
575 0.243983 0.250154 0.151142 0.417055 -0.397466 0.463833 -0.438061 -0.105288 0.074986 0.37045 -0.668865 0.251487 -1.12853 -0.206347 0.761984 -0.667613
419 0.287845 0.31295 0.0567021 0.414195 -0.414858 0.466072 -0.382121 -0.113828 0.0115098 0.347542 -0.656387 0.300289 -1.19976 -0.0580282 0.798683 -0.682307
921 0.221622 0.313119 0.15961 0.478672 -0.460988 0.57904 -0.442418 -0.203491 0.0386341 0.33861 -0.663249 0.32201 -1.17511 -0.341353 0.80885 -0.656901
462 0.276934 0.19805 0.103301 0.375903 -0.34282 0.524251 -0.474136 -0.0577793 -0.0419549 0.331552 -0.764404 0.264972 -1.19036 -0.173804 0.849053 -0.683416
922 0.236876 0.146211 -0.0120723 0.237416 -0.301 0.264115 -0.382151 -0.128494 -0.141232 0.278581 -0.548401 0.223906 -1.06937 -0.37844 0.904883 -0.321818
409 0.0843884 -0.0445562 0.281111 0.620444 -0.909202 0.193573 -0.433677 -0.22612 -0.166193 0.0346332 -0.5329 0.42333 -0.850639 -0.731017 0.646876 -0.435218
263 0.106829 -0.00220158 0.302561 0.476087 -0.739568 0.195438 -0.409922 -0.255575 -0.169895 0.0655382 -0.534347 0.277584 -0.901642 -0.508757 0.768635 -0.376649
262 -0.133134 0.0734986 0.578719 0.652917 -0.999628 0.268332 -0.462175 -0.448711 -0.354116 0.0215673 -0.513793 0.426415 -0.839684 -0.821883 0.720895 -0.454348
139 -0.207035 0.148234 0.660631 0.887713 -1.29473 0.451924 -0.442873 -0.554118 -0.403848 -0.119248 -0.57914 0.627524 -0.989647 -1.02112 0.746003 -0.576064
266 -0.0864996 0.0595406 0.528456 0.675078 -0.969499 0.246017 -0.461024 -0.384312 -0.401198 0.0484666 -0.538852 0.412146 -0.847642 -0.7116 0.749529 -0.482529
368 -0.313305 0.0314593 0.447605 0.706677 -0.98259 0.0511074 -0.280324 -0.361021 -0.492928 -0.0697624 -0.43247 0.549705 -0.825925 -0.926698 0.623986 -0.461813
984 -0.124091 0.0320889 0.335823 0.644041 -0.991907 0.117745 -0.489203 -0.421012 -0.410503 0.0881667 -0.441908 0.478353 -0.864053 -0.815875 0.80364 -0.299941
408 -0.199512 0.0203255 0.459707 0.688894 -1.0415 0.156295 -0.418028 -0.398509 -0.349425 -0.00901894 -0.465789 0.461839 -0.780962 -0.866512 0.641952 -0.351979
434 0.253117 -0.0244351 -0.304189 0.225965 -0.449218 0.218668 -0.607578 -0.349302 -0.553611 0.205628 -0.390525 0.264159 -1.03993 -0.800843 1.58577 0.345385
451 0.199019 0.0477657 -0.0558089 0.214911 -0.384992 0.292561 -0.446407 -0.3448 -0.319567 0.13653 -0.469313 0.236673 -0.923959 -0.454509 1.12064 -0.0514982
692 0.171606 0.0918254 0.569689 0.105276 -0.69848 0.0743088 -0.478581 -0.384285 -0.40621 0.0671373 -0.489868 0.222852 -1.07044 -0.31414 0.965253 -0.512973
852 0.26014 0.123693 0.52588 -0.0119775 -0.622616 0.0385277 -0.465493 -0.41608 -0.327315 0.136063 -0.413565 0.164994 -0.946572 -0.207626 0.839878 -0.479633
182 0.420199 0.20863 0.709324 -0.219375 -0.807055 0.0629249 -0.690903 -0.562403 -0.348629 0.285875 -0.506185 0.22301 -1.0651 -0.0438758 1.05637 -0.563216
878 0.193029 0.102245 0.44574 0.0243312 -0.586701 0.0797542 -0.431209 -0.409061 -0.426471 0.035988 -0.360822 0.201282 -1.06771 -0.259043 0.969215 -0.452118
681 0.281655 0.284059 0.95706 -0.274073 -0.806955 0.138697 -0.244328 -0.564871 -0.554085 -0.00858737 -0.0943193 0.109295 -1.40843 -0.151281 1.00339 -0.569225
684 0.243897 0.13698 0.693196 0.078619 -0.727236 0.190369 -0.45372 -0.447398 -0.505404 -0.00972066 -0.375924 0.188344 -1.17406 -0.219137 0.99515 -0.581624
404 0.179985 -0.0812312 0.178991 0.421908 -0.787798 0.16226 -0.353286 -0.173437 -0.109672 -0.00520421 -0.53792 0.314858 -0.882483 -0.615233 0.721289 -0.378463
513 0.437941 -0.173038 0.148346 0.482212 -0.898304 0.271826 -0.419056 -0.0622251 0.0220613 -0.141881 -0.603094 0.312763 -0.999583 -0.661417 0.821192 -0.446597
517 0.434647 -0.234701 0.0640773 0.708954 -0.991656 0.341934 -0.331969 -0.045366 0.0712346 -0.233139 -0.576898 0.384713 -0.97332 -0.943929 0.767184 -0.421136
838 0.271374 -0.0221038 0.102494 0.359447 -0.652254 0.275185 -0.513393 -0.308082 -0.10517 0.0809919 -0.609086 0.231172 -0.982993 -0.515765 0.931306 -0.38738
757 0.289276 -0.0700823 0.141592 0.366528 -0.652364 0.250819 -0.361943 -0.119927 -0.0995142 -0.0354777 -0.511598 0.31402 -1.04967 -0.45227 0.822073 -0.413177
515 0.324671 -0.100271 -0.021752 0.470252 -0.712656 0.278159 -0.401094 -0.134624 0.000982109 -0.0419701 -0.567191 0.306042 -1.00846 -0.686109 0.940099 -0.331532
837 0.201503 -0.159392 0.124301 0.514531 -0.797316 0.142438 -0.431389 -0.128843 -0.0821145 -0.069492 -0.537259 0.370858 -0.939607 -0.840732 0.809909 -0.379741
200 0.306012 0.191813 0.51745 -0.0160305 -0.424846 0.212309 -0.334716 -0.286204 -0.260488 0.140968 -0.302491 0.16098 -1.05695 -0.0755516 0.731472 -0.488953
199 0.15759 0.109872 0.586558 0.0126053 -0.624266 0.0821874 -0.321336 -0.380634 -0.381182 0.0213004 -0.265707 0.225196 -0.973343 -0.326151 0.851713 -0.417836
488 -0.158881 0.011456 0.647616 0.36893 -0.839584 -0.00971084 -0.334016 -0.344308 -0.444375 -0.00941514 -0.379908 0.366125 -0.924505 -0.80919 0.613048 -0.517627
251 -0.283748 0.0125971 0.622995 0.841657 -1.01052 0.254008 -0.517189 -0.370663 -0.492167 0.0133818 -0.624659 0.484566 -0.805646 -0.930437 0.659899 -0.574074
863 0.0946036 0.124523 0.668582 0.0983097 -0.694903 0.151784 -0.376448 -0.452147 -0.448674 -0.0380703 -0.261733 0.216502 -0.97383 -0.315014 0.804226 -0.498008
356 0.188235 0.146844 0.617456 0.0137192 -0.739924 0.0624874 -0.487797 -0.478372 -0.376182 0.0803584 -0.397751 0.244779 -1.06468 -0.301391 0.972724 -0.518277
912 0.17294 -0.0410133 0.464524 -0.0588553 -0.656542 -0.052544 -0.739883 -0.528184 -0.0324632 0.209182 -0.835528 0.187973 -0.790881 -0.462357 0.875985 -0.512792
900 0.133919 -0.0227316 0.404634 0.0915488 -0.711127 -0.0561546 -0.722827 -0.492118 -0.113741 0.255782 -0.849758 0.166046 -0.836104 -0.488312 0.895334 -0.512411
201 0.229826 0.133908 0.666392 -0.151039 -0.698648 0.0382408 -0.534784 -0.546595 -0.376964 0.0537218 -0.378651 0.202893 -0.974411 -0.212684 0.923096 -0.50226
352 0.179315 0.157728 0.610371 -0.177585 -0.57215 -0.00810213 -0.316006 -0.494853 -0.438849 -0.0568188 -0.204124 0.15545 -1.14115 -0.132047 0.905828 -0.479773
54 -0.150718 0.0292006 -0.205796 0.570392 -0.851553 -0.320742 -0.0826286 -0.406174 -0.549808 -0.0412946 -0.215622 0.630628 -1.25616 -0.0656153 1.14178 -0.285289
30 0.141606 -0.0837098 0.379965 0.69067 -0.548442 0.344099 -0.752945 -0.0924404 -0.684196 -0.0905636 -0.887708 0.155094 -0.850169 -0.0743905 0.804427 -0.501315
638 0.0391119 -0.110212 0.470399 0.181306 -0.795823 -0.127818 -0.81554 -0.47807 -0.199682 0.212312 -0.981757 0.175662 -0.697608 -0.570541 0.838753 -0.509333
799 0.0778717 -0.14541 0.370461 -0.0455455 -0.595151 -0.219664 -0.692779 -0.408217 -0.0348894 0.204823 -0.924901 0.126757 -0.695943 -0.546748 0.868425 -0.514037
231 0.158558 -0.11186 0.387073 -0.0014628 -0.780482 -0.125878 -0.91851 -0.584134 -0.0408685 0.263725 -1.08165 0.102359 -0.733311 -0.5759 0.989226 -0.542269
207 0.131864 -0.200386 0.522843 -0.227371 -0.82159 -0.438649 -1.19358 -0.7722 0.0377919 0.304913 -1.45475 0.113164 -0.741345 -0.759097 1.26927 -0.616931
209 0.279259 -0.0144289 0.514834 -0.286658 -0.706259 -0.162928 -1.11814 -0.683551 0.0584379 0.414658 -1.20081 0.0967534 -0.805604 -0.525172 1.15107 -0.614625
800 0.0525247 -0.0834577 0.409774 0.131012 -0.709722 -0.074665 -0.685283 -0.438247 -0.168605 0.156816 -0.818268 0.184855 -0.731098 -0.591803 0.823201 -0.47098
747 0.0678267 -0.0540013 0.541797 0.181941 -0.852687 -0.0139524 -0.95365 -0.642246 -0.112042 0.134812 -1.12686 0.211392 -0.787603 -0.575083 0.951909 -0.565712
236 0.118793 0.0104205 0.314926 0.245149 -0.762975 0.103709 -0.706643 -0.474038 -0.150894 0.134928 -0.793679 0.145111 -0.709681 -0.437645 0.799093 -0.427846
486 0.192327 0.211097 0.234005 0.459042 -0.68155 0.733243 -0.346834 -0.49471 -0.196668 -0.0882107 -0.554719 0.176367 -0.946425 -0.301052 0.806663 -0.386767
275 0.435663 0.336588 0.259609 0.621662 -0.646284 1.32149 -0.381478 -0.653905 -0.203715 -0.176315 -0.629664 0.188718 -1.1695 -0.0973485 1.10364 -0.45016
214 0.126905 -0.0991987 0.462253 -0.0715617 -0.827644 -0.308707 -0.887087 -0.570288 -0.222648 0.243662 -0.98662 0.140003 -0.864673 -0.46428 1.08786 -0.560814
913 0.113029 -0.0606948 0.43525 0.25057 -0.70988 0.0375477 -0.786175 -0.413469 -0.264301 0.144349 -0.901353 0.146753 -0.83242 -0.41738 0.878257 -0.459692
374 -0.133279 0.10926 0.501827 0.664746 -0.973403 0.257194 -0.419776 -0.351761 -0.314255 0.0162275 -0.514718 0.434702 -0.718309 -0.716182 0.621844 -0.472288
302 0.13619 0.184419 0.126632 0.31257 -0.348275 0.387109 -0.296596 -0.162373 0.0322964 0.239184 -0.55388 0.295939 -1.07223 -0.309209 0.736834 -0.5556
497 0.479418 0.382195 0.0601911 0.215767 -0.224741 0.565827 -0.555895 -0.185304 0.226182 0.600875 -0.80555 0.295453 -1.30216 -0.0205775 0.917466 -0.69632
69 0.303784 0.242314 0.145897 0.301215 -0.258009 0.555938 -0.459806 -0.15442 0.0911779 0.387547 -0.725857 0.22134 -1.03698 0.0274682 0.768349 -0.641631
1 0.0594596 -0.308772 0.54467 1.12504 -0.631533 0.328444 -0.935524 0.0377372 -1.01118 -0.327759 -1.20466 0.216955 -1.10955 -0.0410322 1.03384 -0.778841
544 0.111483 -0.0206632 0.354888 0.495054 -0.605947 0.269949 -0.613369 -0.212597 -0.547227 -0.015303 -0.724322 0.172873 -0.860313 -0.178889 0.777332 -0.463033
541 0.131191 -0.0781427 0.422367 0.680756 -0.758613 0.316015 -0.799178 -0.186289 -0.69216 -0.0181728 -0.908493 0.182627 -0.848691 -0.169603 0.820739 -0.506812
998 0.187489 0.110843 0.611007 0.168346 -0.695619 0.196552 -0.447019 -0.384816 -0.426877 0.057899 -0.460553 0.249313 -1.15761 -0.318433 0.921258 -0.535756
14 0.254476 -0.0634964 0.701088 0.586225 -0.838338 0.261337 -0.892865 -0.243278 -0.87691 -0.0689223 -0.964057 0.0252232 -1.1176 0.00546491 0.94191 -0.600123
5 0.0877201 -0.2365 0.331387 0.935774 -0.540992 0.148369 -0.881926 0.16989 -0.965751 -0.180872 -1.14083 0.0653734 -1.11758 0.0114087 0.931761 -0.652048
542 0.197316 -0.0618243 0.316419 0.626343 -0.478948 0.342092 -0.761655 -0.0213945 -0.530366 -0.0338864 -0.836633 0.168118 -0.808468 -0.101813 0.735575 -0.507188
417 0.375162 0.36989 0.0551102 0.383999 -0.155623 0.708093 -0.355204 0.000444667 0.305782 0.545644 -0.827213 0.249115 -1.29279 -0.0963572 0.712753 -0.76975
151 -0.201268 0.0738094 0.609562 0.786091 -1.15378 0.26682 -0.489205 -0.405909 -0.393678 0.0344782 -0.56633 0.534807 -0.814319 -0.920873 0.676577 -0.504874
751 -0.164058 0.0834661 0.465475 0.632198 -0.904113 0.155218 -0.318435 -0.324645 -0.342787 0.0415598 -0.463023 0.410648 -0.921849 -0.786364 0.645758 -0.438163
43 0.0324342 -0.0286565 0.366898 0.427697 -0.61704 0.0482775 -0.261229 -0.0422318 -0.377328 0.0657587 -0.539179 0.0730147 -0.925771 -0.415421 0.604295 -0.457355
855 0.083105 -0.0557635 0.316784 0.379346 -0.535857 0.168882 -0.506807 -0.184368 -0.528366 -0.083129 -0.572827 0.144999 -0.899961 -0.0440346 0.797749 -0.384608
23 0.229238 -0.069391 0.556171 0.722228 -0.617639 0.346189 -0.876101 -0.133349 -0.822252 -0.0839472 -1.00047 0.141077 -1.05509 0.113893 0.958114 -0.643038
385 0.105282 -0.0676989 0.448114 0.705541 -0.579423 0.346054 -0.664955 -0.142345 -0.624032 -0.123015 -0.826761 0.187187 -0.827013 -0.207093 0.801645 -0.51208
583 -0.00962823 -0.0397896 0.430965 0.184123 -0.656454 -0.208859 -0.203154 -0.0194727 -0.274075 0.185155 -0.494823 0.137418 -1.12934 -0.587149 0.640532 -0.503381
437 0.344708 -0.200947 0.0119197 0.408525 -0.852946 -0.0399282 -0.397437 0.00430912 -0.0928487 0.0768616 -0.555675 0.280728 -0.986968 -0.850057 0.904579 -0.175617
155 -0.194049 0.0398319 0.553616 0.68219 -0.975046 0.168917 -0.387793 -0.332644 -0.398724 0.030081 -0.498074 0.430255 -0.779273 -0.816139 0.648546 -0.469217
146 -0.206093 0.020168 0.557628 0.862042 -1.02102 0.341107 -0.459387 -0.361989 -0.442452 0.0556283 -0.552122 0.433656 -0.815668 -0.91489 0.677228 -0.552333
354 0.257179 0.163046 0.681135 -0.192765 -0.593903 0.0633298 -0.345848 -0.451757 -0.351913 0.000298491 -0.301364 0.0889901 -1.03778 -0.142815 0.866682 -0.459078
175 0.238133 0.146953 0.724955 -0.441363 -0.553482 -0.107467 -0.393045 -0.489162 -0.484342 0.0959315 -0.19868 0.136645 -1.29196 -0.190915 0.977481 -0.503183
501 0.174069 0.0454336 0.209782 0.447275 -0.690627 0.202737 -0.464626 -0.215315 -0.0618994 0.168348 -0.642178 0.260764 -0.942843 -0.527921 0.775832 -0.486766
372 -0.15945 0.0112425 0.52228 0.659695 -0.953505 0.145282 -0.447397 -0.30758 -0.483373 0.0244116 -0.625327 0.423322 -0.93169 -0.790148 0.827089 -0.529346
563 -0.177833 0.0323253 0.672655 0.764702 -1.09825 0.278289 -0.418878 -0.409235 -0.437601 0.00270194 -0.556581 0.401358 -0.849317 -0.870356 0.676795 -0.507953
367 -0.265165 0.0293249 0.57609 0.781204 -0.877886 0.213918 -0.415132 -0.330214 -0.404011 -0.0179988 -0.572621 0.407024 -0.806365 -0.866176 0.659355 -0.551434
248 -0.259421 0.200409 0.656248 0.911283 -1.23033 0.523675 -0.421537 -0.539764 -0.268132 0.0902392 -0.562399 0.574847 -0.863478 -1.08396 0.643444 -0.603473
285 0.338491 0.417407 0.0976219 0.424774 -0.224695 0.790451 -0.296524 -0.0969558 0.368614 0.495056 -0.704425 0.353624 -1.27267 -0.205277 0.749954 -0.76947
306 0.308775 0.264507 0.143851 0.339273 -0.385513 0.595932 -0.394999 -0.215239 0.111323 0.280389 -0.645985 0.282267 -1.09006 -0.134564 0.771078 -0.645058
410 0.444466 0.383093 0.151891 0.527318 -0.349923 0.752462 -0.590621 0.0774916 0.0271147 0.574819 -0.969526 0.228236 -1.46598 -0.00640344 0.780922 -0.89859
427 0.332222 0.0705511 0.0484338 0.430531 -0.573061 0.384435 -0.385326 -0.0920363 0.0413495 0.131153 -0.626813 0.251747 -1.03302 -0.411965 0.750567 -0.479421
535 0.243901 -0.0715951 0.24991 0.542475 -0.757205 0.201946 -0.590421 -0.172949 -0.296204 0.0251104 -0.709258 0.285392 -0.909333 -0.376444 0.770837 -0.506076
840 0.269292 -0.0271799 0.223359 0.336702 -0.691989 0.134025 -0.387395 -0.179079 -0.14155 -0.017965 -0.511213 0.261361 -1.05085 -0.53638 0.782749 -0.423596
532 0.243803 -0.00940361 0.162076 0.429814 -0.655347 0.203932 -0.314414 -0.150827 -0.05487 0.069154 -0.545364 0.295538 -0.99315 -0.48179 0.764388 -0.426766
671 0.239292 -0.0928471 0.0890735 0.458219 -0.640888 0.149904 -0.354484 -0.122351 -0.0169292 -0.00577303 -0.605711 0.287772 -0.976817 -0.700733 0.822766 -0.435756
881 0.168377 0.0204016 0.313475 0.202649 -0.698656 0.0649404 -0.602287 -0.398888 -0.188399 0.186332 -0.73532 0.205648 -0.901256 -0.452424 0.897465 -0.511081
768 0.0670841 0.0142039 0.190936 0.181779 -0.687232 -0.108233 -0.475628 -0.395883 -0.172504 0.186301 -0.628496 0.262548 -0.943149 -0.373917 0.916178 -0.416911
716 -0.045116 0.0862763 -0.06808 0.308912 -0.648437 -0.199511 -0.0630906 -0.296272 -0.273221 0.0912151 -0.256282 0.428397 -1.14219 -0.267493 0.917848 -0.32283
177 0.293408 0.222633 0.857299 -0.16389 -0.754384 0.162952 -0.443707 -0.50792 -0.484226 0.0709955 -0.186012 0.142419 -1.26721 -0.164237 0.97565 -0.52341
874 0.160786 0.171985 0.595956 -0.00658047 -0.681785 0.136466 -0.401304 -0.469941 -0.41817 0.085926 -0.272682 0.195403 -1.06754 -0.258755 0.938045 -0.436555
876 0.120822 0.11595 0.519651 0.16464 -0.784787 0.18436 -0.405135 -0.427282 -0.366832 0.066727 -0.436094 0.22599 -1.07962 -0.334348 0.907378 -0.46332
197 0.211619 0.113833 0.580765 -0.0318542 -0.718653 0.0684153 -0.393853 -0.472744 -0.442164 0.0307968 -0.335333 0.205471 -1.05889 -0.182814 0.919888 -0.445461
181 0.243037 0.20242 0.772118 -0.173612 -0.784605 0.0197644 -0.410763 -0.49121 -0.522731 0.0717234 -0.278695 0.179632 -1.21108 -0.207277 0.966143 -0.529058
344 0.234171 0.129408 0.724726 -0.114517 -0.718976 0.0429889 -0.424048 -0.503716 -0.527189 0.00501645 -0.273618 0.167941 -1.22237 -0.152907 1.0127 -0.59667
220 0.311929 -0.0709827 0.264538 0.41871 -0.776759 0.105143 -0.764057 -0.248526 -0.0911052 0.161981 -0.914871 0.192059 -0.927933 -0.487949 0.930794 -0.525823
903 0.162202 -0.0455938 0.388826 0.0793975 -0.607194 -0.0463994 -0.679362 -0.385108 -0.116875 0.240538 -0.779894 0.166804 -0.801188 -0.46451 0.846596 -0.483944
617 0.195703 -0.0305662 0.502693 0.0229234 -0.553229 -0.0181847 -0.857483 -0.40752 -0.247327 0.211625 -0.890293 0.0942584 -0.778877 -0.189204 0.911629 -0.568746
289 0.345071 0.303081 0.0186802 0.115102 0.0207859 0.529275 -0.227703 0.00839216 0.281785 0.505891 -0.680311 0.202341 -1.36493 -0.131047 0.824637 -0.795825
279 0.430481 0.386212 0.0719995 0.153785 -0.147327 0.604551 -0.431084 -0.132372 0.318321 0.613569 -0.768096 0.285453 -1.38152 -0.0636461 0.858645 -0.887076
927 0.278646 0.260394 0.0672644 0.281182 -0.195489 0.557467 -0.295216 -0.114749 0.182164 0.312771 -0.627602 0.265299 -1.11826 -0.145267 0.741893 -0.631948
104 0.0665356 0.0415904 0.255989 0.304888 -0.729124 -0.0361058 -0.379615 -0.172056 -0.324608 0.239127 -0.551508 0.212019 -1.05471 -0.543765 0.823059 -0.387253
217 -0.0586744 -0.0912062 0.360742 0.17542 -0.758062 -0.351392 -0.365539 -0.205029 -0.274739 0.190304 -0.668788 0.129797 -0.932349 -0.649056 0.752249 -0.484627
772 -0.0114977 0.0504907 0.401403 0.44924 -0.865011 0.0476042 -0.35893 -0.243953 -0.31192 0.131991 -0.560824 0.282285 -0.956918 -0.643024 0.760346 -0.486103
443 0.164411 -0.0594145 -0.143055 0.128657 -0.425918 0.00263279 -0.630366 -0.318257 -0.349385 0.27208 -0.601216 0.212129 -0.972219 -0.605234 1.28144 0.0161243
441 0.265506 -0.124169 -0.184642 0.207965 -0.316052 0.0786198 -0.669301 -0.210557 -0.474708 0.213973 -0.462305 0.251777 -0.916292 -0.626074 1.30895 0.116592
128 -0.459432 -0.0923564 0.600328 1.04965 -1.0754 0.215157 -0.576009 -0.337902 -0.615488 -0.13562 -0.69693 0.784605 -0.822471 -1.43689 0.743733 -0.602483
388 -0.016284 -0.058548 0.491828 0.718812 -0.793574 0.255273 -0.676097 -0.189527 -0.602466 -0.133239 -0.791164 0.269936 -0.820126 -0.363687 0.714008 -0.519498
854 0.202753 0.00461361 0.360529 0.471027 -0.531988 0.331193 -0.642526 -0.177893 -0.490077 0.0278932 -0.704728 0.14372 -0.998598 -0.0261625 0.837063 -0.549878
389 0.177882 0.104894 0.296272 0.590964 -0.670493 0.620074 -0.475672 -0.414578 -0.351661 -0.172559 -0.62642 0.18151 -0.862571 -0.26687 0.828694 -0.392973
268 -0.057916 0.0668449 0.49544 0.630359 -0.82844 0.314272 -0.471647 -0.34979 -0.235347 0.0837668 -0.460791 0.391522 -0.765832 -0.709451 0.587102 -0.460722
402 -0.232237 0.0540235 0.664245 0.808694 -1.25201 0.224562 -0.492711 -0.384645 -0.416769 0.0381667 -0.610797 0.508176 -0.845101 -1.01691 0.66671 -0.547372
567 -0.136923 0.0572364 0.504041 0.593568 -0.933353 0.0881988 -0.36105 -0.292153 -0.312225 0.0183044 -0.441334 0.414348 -0.729417 -0.836699 0.558869 -0.461
355 0.23024 0.193355 0.337778 0.412591 -0.72577 0.622156 -0.357251 -0.442214 -0.229344 -0.111246 -0.415002 0.184307 -0.919296 -0.28973 0.834422 -0.351114
319 0.313296 0.282489 0.325897 0.684012 -0.958938 1.09751 -0.313926 -0.587332 -0.193817 -0.281816 -0.465927 0.205953 -1.00679 -0.431771 0.947584 -0.332746
313 0.369533 0.36155 0.35423 0.401243 -0.80975 1.03784 -0.341271 -0.738463 -0.212509 -0.135236 -0.530376 0.137244 -1.06474 -0.225577 1.00697 -0.335223
445 0.0862142 -0.0467669 -0.0420359 0.316179 -0.419812 0.0778368 -0.458695 -0.196429 -0.428712 0.112883 -0.454366 0.289756 -0.889405 -0.587182 1.11397 -0.0438599
651 -0.0561586 0.0962719 -0.381264 0.443762 -0.686609 -0.23738 -0.101114 -0.331986 -0.324003 0.173226 -0.180143 0.583671 -1.20793 -0.155835 1.15942 -0.216497
163 -0.152688 0.0354105 0.454365 0.523997 -0.75771 0.0651219 -0.24542 -0.262386 -0.368864 0.021297 -0.382499 0.35412 -0.748139 -0.748265 0.572055 -0.435441
149 -0.16432 0.0334842 0.505061 0.606047 -0.938367 0.155856 -0.43603 -0.371452 -0.341477 0.0363969 -0.466704 0.453482 -0.770707 -0.938829 0.684275 -0.403443
943 0.0533152 0.0544109 0.144431 0.369905 -0.62482 0.122024 -0.259431 -0.312887 -0.362769 0.070675 -0.425313 0.41173 -1.15778 -0.383509 0.995935 -0.408378
241 0.117913 -0.0591049 0.35276 0.223537 -0.73114 0.027907 -0.621341 -0.373498 -0.256523 0.133594 -0.74493 0.182208 -0.785045 -0.429457 0.846174 -0.429304
641 0.175086 -0.12382 0.349643 -0.00336087 -0.708456 -0.141141 -0.894958 -0.490113 -0.163389 0.302512 -0.942447 0.125141 -0.749833 -0.535297 0.958868 -0.437071
210 0.188327 -0.0587619 0.422592 -0.113375 -0.806067 -0.343 -1.0169 -0.696275 0.0968303 0.505967 -1.14441 0.234014 -0.802072 -0.480323 1.01013 -0.683768
514 0.548098 -0.0857118 0.0176591 0.647307 -0.93509 0.564233 -0.39006 -0.194093 0.069071 -0.0836857 -0.621889 0.232656 -1.03888 -0.688178 0.87678 -0.407139
896 0.223297 -0.0330533 0.175625 0.462725 -0.710554 0.199298 -0.413988 -0.132209 -0.134116 0.0113482 -0.587128 0.237449 -1.00939 -0.614871 0.851631 -0.480425
531 0.220317 -0.0966364 0.0368374 0.497018 -0.627048 0.202759 -0.513137 -0.148516 -0.223448 0.0570475 -0.57441 0.243932 -0.947994 -0.508572 0.886437 -0.242433
436 0.196983 0.00578128 -0.357934 0.343861 -0.405344 0.216459 -0.571533 -0.299672 -0.424089 0.260157 -0.407026 0.348611 -1.03867 -0.771996 1.4667 0.223071
609 0.248777 0.0109226 -0.143764 0.262907 -0.463995 0.287357 -0.452562 -0.328046 -0.386175 0.137354 -0.444399 0.275933 -1.02069 -0.485266 1.28314 0.0246585
440 0.175867 0.00885922 -0.285625 0.211701 -0.337389 0.11819 -0.513642 -0.261223 -0.429807 0.217864 -0.403723 0.273142 -1.03609 -0.612701 1.33944 0.0881663
390 0.141385 -0.107509 0.239838 0.548424 -0.438657 0.218972 -0.698439 -0.121348 -0.614051 -0.025865 -0.700329 0.118874 -0.741299 -0.0924296 0.842554 -0.365793
24 0.123337 -0.225129 0.577285 0.813427 -0.69141 0.350869 -1.00912 -0.129802 -0.893179 -0.153669 -1.15514 0.103257 -0.905031 0.00480893 0.944493 -0.665681
701 0.191472 0.0405014 0.617601 0.0823272 -0.521269 0.118481 -0.44084 -0.32421 -0.477687 -0.0628781 -0.372541 0.125947 -1.01099 -0.0776595 0.795741 -0.509321
859 0.247281 0.150136 0.861886 -0.14177 -0.641109 0.0445335 -0.234683 -0.443093 -0.508589 -0.0788873 -0.162951 0.111322 -1.36655 -0.229597 0.88816 -0.543257
966 0.147914 0.179754 0.403647 0.323186 -0.675022 0.371193 -0.248164 -0.422127 -0.315446 -0.0530992 -0.364713 0.205695 -1.04088 -0.275638 0.84082 -0.393678
928 0.209664 0.114965 0.53187 0.212439 -0.606435 0.25924 -0.519941 -0.281378 -0.494246 0.0198687 -0.60864 0.169343 -1.18633 -0.155966 0.936497 -0.630197
19 0.299632 0.136692 0.990801 -0.0626528 -0.877004 0.0441645 -0.555613 -0.536763 -0.701525 0.0162791 -0.330661 0.181675 -1.24515 -0.0803303 1.07702 -0.599021
438 0.308857 0.194522 0.654552 -0.144754 -0.671909 0.229359 -0.332642 -0.520538 -0.463089 -0.120961 -0.252575 0.122405 -1.20837 -0.156788 1.03191 -0.442734
774 0.20655 0.196861 0.269392 0.605351 -0.784606 0.75077 -0.284821 -0.54621 -0.251377 -0.204397 -0.506007 0.275035 -1.03303 -0.403251 0.85663 -0.344875
758 0.226543 -0.057916 0.110421 0.447621 -0.574839 0.251266 -0.381813 -0.156042 -0.0590994 -0.0141189 -0.585847 0.284691 -1.03305 -0.605911 0.889184 -0.455651
666 0.297141 -0.106211 0.0142859 0.399984 -0.594668 0.181583 -0.421424 -0.0358973 0.00979014 0.0907486 -0.63331 0.305737 -0.953348 -0.670329 0.795563 -0.421838
105 0.0181522 0.0269451 0.400555 0.395181 -0.721718 0.0341378 -0.363886 -0.155646 -0.342092 0.113174 -0.603257 0.186371 -1.03376 -0.52759 0.70899 -0.493423
893 -0.0395559 -0.0140702 0.371444 0.344029 -0.72936 -0.0353854 -0.300422 -0.166605 -0.310437 0.0988912 -0.576306 0.204219 -1.02961 -0.633583 0.730532 -0.545127
123 0.0394055 -0.035326 0.288563 0.361905 -0.660486 -0.0195637 -0.329695 -0.101312 -0.213797 0.113441 -0.556025 0.187783 -0.930745 -0.618396 0.633215 -0.433849
770 0.192573 -0.0749359 0.331204 0.0643384 -0.606063 -0.0437943 -0.655531 -0.362631 -0.0826278 0.150762 -0.837828 0.176703 -0.859779 -0.501239 0.930086 -0.532529
933 0.142849 -0.0564112 0.332672 0.19901 -0.664838 0.015502 -0.59743 -0.387212 -0.196833 0.15321 -0.854485 0.223521 -1.01021 -0.571079 0.987202 -0.576001
974 0.180471 -0.0573751 0.355995 0.175571 -0.729904 0.0921251 -0.713195 -0.421839 -0.175935 0.172935 -0.861832 0.2268 -0.887188 -0.559893 0.996102 -0.452644
914 0.137119 -0.0324798 0.423694 0.246918 -0.778314 0.0149787 -0.805373 -0.427188 -0.15745 0.205535 -0.966738 0.199659 -0.786721 -0.47214 0.934848 -0.47842
762 0.142078 -0.0879583 0.160126 0.116754 -0.534048 -0.0275496 -0.597654 -0.36408 -0.137933 0.227884 -0.77473 0.194256 -0.811511 -0.557694 0.976355 -0.323729
891 0.18701 0.0198273 0.0123212 0.216088 -0.463611 0.107657 -0.490562 -0.247418 -0.415028 0.12736 -0.459788 0.263025 -1.12471 -0.539454 1.21802 -0.168767
449 0.200444 -0.0133478 -0.0515801 0.289617 -0.407562 0.106548 -0.520841 -0.220364 -0.366098 0.175376 -0.49728 0.261267 -0.943341 -0.506027 1.11109 -0.100232
446 0.142121 -0.00725794 0.27658 0.197479 -0.762386 -0.000162164 -0.68776 -0.414542 -0.160362 0.204138 -0.824903 0.202721 -0.857034 -0.473939 0.987209 -0.40155
866 0.100781 0.0536995 0.279702 0.227045 -0.754188 0.059197 -0.539392 -0.485685 -0.227603 0.149461 -0.602623 0.227315 -0.932664 -0.361482 0.926742 -0.44387
825 -0.187962 0.112904 -0.122274 0.543088 -0.973687 -0.273026 -0.0522471 -0.524305 -0.455373 0.0390788 -0.160791 0.69643 -1.32806 -0.217072 1.09673 -0.405062
905 -0.116401 0.152818 -0.247435 0.493284 -0.89102 -0.201284 0.0129889 -0.503029 -0.488592 0.0124619 -0.120799 0.648052 -1.22887 -0.236685 1.09642 -0.227244
728 -0.189778 0.0988344 -0.225851 0.425875 -0.830702 -0.290165 0.0736376 -0.404914 -0.426233 0.0204328 -0.105588 0.606844 -1.264 -0.194284 1.05705 -0.29995
906 -0.0287806 0.122575 -0.126053 0.397843 -0.728063 -0.103611 -0.0361324 -0.369107 -0.344629 0.0327824 -0.255705 0.441999 -1.12635 -0.225232 0.972226 -0.287992
952 0.229272 0.283838 0.116508 0.361201 -0.379024 0.532147 -0.319358 -0.141757 0.0308368 0.316552 -0.611618 0.335635 -1.27542 -0.193919 0.915857 -0.668019
252 -0.13234 0.0133891 0.618586 0.845533 -1.05777 0.228258 -0.594611 -0.275828 -0.54294 0.0074624 -0.670159 0.360894 -0.768024 -0.721676 0.629947 -0.587715
118 -0.0501407 -0.0100713 0.413191 0.295595 -0.697342 -0.123202 -0.17061 -0.0359688 -0.2779 0.124006 -0.491991 0.123445 -0.938489 -0.606531 0.489364 -0.419964
93 0.00985702 0.0755036 0.481304 0.457839 -0.822869 0.0953726 -0.228667 -0.128869 -0.261178 0.203889 -0.592544 0.177747 -1.10056 -0.704343 0.60932 -0.545764
744 -0.118943 0.0575306 0.41409 0.438473 -0.719608 0.0937012 -0.354562 -0.232138 -0.314865 0.0642687 -0.43537 0.343721 -0.806605 -0.659211 0.657958 -0.417924
405 0.0929716 0.126939 0.615609 0.0668198 -0.715824 0.049512 -0.310215 -0.476702 -0.386739 0.0175169 -0.246236 0.278355 -1.00799 -0.336529 0.764679 -0.42295
875 0.223636 0.146572 0.784906 -0.0647375 -0.725222 0.0213243 -0.306883 -0.425455 -0.454473 0.00923517 -0.195418 0.144244 -1.20397 -0.286409 0.919464 -0.477794
688 0.284147 0.156099 0.8166 -0.261252 -0.553959 0.00639521 -0.403726 -0.386225 -0.57019 -0.00711024 -0.230019 0.139795 -1.25508 -0.0749341 0.935224 -0.616366
245 0.0750055 -0.0640881 0.446051 0.221421 -0.834191 -0.0237619 -0.712864 -0.476318 -0.217788 0.199228 -0.870638 0.257866 -0.789831 -0.620639 0.92744 -0.463806
956 0.132905 -0.0670326 0.351372 0.0232743 -0.683789 -0.141356 -0.789111 -0.472667 -0.0611222 0.212162 -0.892392 0.160363 -0.703367 -0.57087 0.881649 -0.461791
636 0.117586 -0.118897 0.459891 -0.0947509 -0.836095 -0.34126 -0.959345 -0.615902 -0.105848 0.349111 -1.12098 0.182474 -0.798756 -0.554703 1.00933 -0.52087
496 0.419773 0.328793 0.0912934 0.391188 -0.366169 0.690612 -0.492431 -0.165032 0.170637 0.45695 -0.888648 0.318993 -1.31468 -0.00992069 0.907823 -0.838463
298 0.205708 0.230684 -0.0287954 0.298489 -0.315902 0.423909 -0.263632 -0.166176 0.0853625 0.305294 -0.548082 0.308762 -1.13649 -0.0991121 0.808103 -0.579647
836 0.0399111 0.0176399 0.325166 0.302786 -0.596599 0.0299118 -0.201569 -0.145912 -0.196271 0.123636 -0.486661 0.18378 -1.03891 -0.58465 0.706638 -0.493201
87 0.0273892 0.0367152 0.478491 0.543555 -0.871649 -0.136718 -0.167841 0.0473292 -0.446954 0.245602 -0.594734 0.103244 -1.17959 -0.650085 0.526339 -0.533095
132 -0.354873 0.00588501 0.740167 0.883335 -1.34667 0.18157 -0.64896 -0.558207 -0.471043 0.0900748 -0.718469 0.63513 -0.847667 -1.35333 0.808976 -0.540128
106 -0.168971 0.0633317 0.614754 0.705463 -1.09914 0.187582 -0.377606 -0.301947 -0.386059 0.0617993 -0.529439 0.440606 -0.802018 -0.903589 0.576607 -0.475681
608 0.186349 0.0282321 0.0446711 0.182304 -0.432927 0.0642503 -0.461228 -0.24772 -0.347309 0.125409 -0.391273 0.264579 -0.968132 -0.460749 1.04307 -0.120864
603 0.195226 0.0847589 0.108247 0.328047 -0.507334 0.22484 -0.503034 -0.236206 -0.259441 0.197782 -0.579126 0.265963 -0.957706 -0.452513 0.994911 -0.264451
500 0.317714 0.240279 0.097869 0.355858 -0.356769 0.466403 -0.438791 -0.177395 0.00924344 0.35372 -0.735984 0.273704 -1.21756 -0.284417 0.89338 -0.664936
301 0.240963 0.253751 0.0729465 0.235208 -0.227862 0.470149 -0.372776 -0.117505 0.118154 0.356316 -0.608659 0.247028 -1.14602 -0.26916 0.830298 -0.601722
318 0.382301 0.470675 0.0966782 0.512309 -0.55079 0.904393 -0.421871 -0.299825 0.19598 0.471054 -0.781439 0.313064 -1.27328 -0.105465 0.833089 -0.779473
76 0.0527875 -0.0381224 0.318391 0.524468 -0.496535 0.257006 -0.587547 -0.151175 -0.455063 -0.031046 -0.736673 0.148108 -0.797862 -0.159199 0.791008 -0.485062
918 0.188646 0.0115079 0.176667 0.332427 -0.581812 0.241339 -0.312831 -0.238022 -0.113434 0.0497421 -0.53699 0.24856 -0.925039 -0.47462 0.737012 -0.439283
274 0.555525 -0.12711 -0.0545105 0.549942 -0.676565 0.335745 -0.593472 0.0595874 0.135759 0.0792339 -0.711747 0.311104 -1.01082 -0.585079 0.827413 -0.434081
511 0.264431 0.0822246 0.097982 0.349197 -0.449906 0.344648 -0.353923 -0.140932 0.068364 0.247805 -0.604953 0.28912 -0.996138 -0.293148 0.770025 -0.549128
315 0.21551 0.336037 0.28893 0.602109 -0.93133 0.965768 -0.286823 -0.695499 -0.195463 -0.18589 -0.536483 0.28045 -1.09653 -0.396177 0.948343 -0.409678
618 0.201062 0.126424 0.366523 0.495588 -0.808571 0.488718 -0.556449 -0.482182 -0.312249 -0.0477965 -0.645984 0.17171 -0.92505 -0.254163 0.882986 -0.435142
785 0.159572 0.00257306 0.195301 0.356151 -0.645351 0.163169 -0.278452 -0.0995517 -0.160993 -0.0187673 -0.502033 0.213847 -0.987674 -0.510926 0.742274 -0.41195
314 0.350185 0.359766 0.282422 0.551663 -0.863378 1.13124 -0.23947 -0.649993 -0.195807 -0.238447 -0.483202 0.0989026 -1.21213 -0.335842 0.99076 -0.334809
843 0.0102107 0.0256824 0.444892 0.476199 -0.873104 0.0512954 -0.326085 -0.257005 -0.398529 0.13112 -0.519141 0.289305 -1.10854 -0.66246 0.769545 -0.463729
85 0.12092 0.0907831 0.33467 0.468668 -0.706171 0.0622014 -0.212041 0.0592779 -0.303814 0.208806 -0.527979 -0.0568777 -1.07302 -0.656463 0.587883 -0.434915
536 0.354743 0.450476 0.20828 0.559735 -0.731051 1.18337 -0.33508 -0.558107 -0.0800419 -0.107167 -0.560262 0.139452 -1.20368 -0.245033 0.957432 -0.503338
611 0.217059 0.150451 0.382466 0.573968 -0.890932 0.614527 -0.490406 -0.515606 -0.353524 -0.0616159 -0.63914 0.264523 -1.06589 -0.389724 0.986066 -0.459204
884 0.126807 0.111446 0.259729 0.589453 -0.767024 0.566478 -0.334948 -0.363068 -0.246871 -0.104446 -0.49636 0.273303 -0.92394 -0.487695 0.7855 -0.388228
569 0.143666 0.169838 0.318615 0.50121 -0.672697 0.590993 -0.322791 -0.400789 -0.221197 -0.0591193 -0.497164 0.271897 -0.903267 -0.369125 0.696988 -0.400028
931 0.0548127 0.0176447 0.347497 0.375029 -0.637054 0.124542 -0.35218 -0.21598 -0.307281 0.0692531 -0.555635 0.261937 -1.13445 -0.555549 0.840688 -0.477727
119 -0.102434 0.0164903 0.442213 0.446987 -0.794355 -0.0162386 -0.311649 -0.127798 -0.274492 0.0835696 -0.520996 0.265627 -0.934745 -0.774233 0.632758 -0.509968
847 0.0116725 0.144338 0.0179062 0.331541 -0.747624 -0.142258 -0.116594 -0.427587 -0.400714 0.0424024 -0.142356 0.484299 -1.20937 -0.151567 0.954959 -0.33385
683 0.219001 0.150262 0.809401 -0.163119 -0.864262 -0.113949 -0.507596 -0.652571 -0.495936 0.0921763 -0.277156 0.2647 -1.14619 -0.205571 1.01019 -0.538356
190 0.270146 0.172262 0.814096 -0.163862 -0.680805 0.058492 -0.467768 -0.4879 -0.49851 0.0804165 -0.292128 0.216054 -1.16567 -0.0138727 0.948185 -0.558792
999 0.170885 0.0874003 0.346897 0.452507 -0.711649 0.440158 -0.479173 -0.327158 -0.301825 -0.00986117 -0.657685 0.223118 -1.11057 -0.39354 0.954844 -0.512784
42 0.135676 0.0157643 0.425052 0.573567 -0.654153 0.297121 -0.696309 -0.168457 -0.484011 0.0263598 -0.766718 0.166809 -0.802999 -0.12047 0.783574 -0.504423
224 0.162686 -0.0241816 0.470701 0.0956514 -0.781818 -0.0983936 -0.892801 -0.514409 -0.0122345 0.365697 -1.03795 0.161077 -0.724369 -0.507645 0.903434 -0.555069
964 0.101254 -0.0429046 0.483058 0.150586 -0.705931 -0.0304388 -0.652509 -0.378978 -0.189477 0.211853 -0.794564 0.209551 -0.862152 -0.496945 0.840451 -0.521405
813 0.134479 -0.036223 0.365673 0.166649 -0.791377 -0.0737585 -0.729481 -0.506715 -0.142358 0.248802 -0.839862 0.244001 -0.689906 -0.496197 0.846594 -0.488316
767 0.146278 -0.0531875 0.312753 0.125819 -0.648088 0.0240872 -0.563338 -0.370374 -0.138447 0.128226 -0.694912 0.167369 -0.785685 -0.438716 0.78615 -0.398126
778 0.25999 0.216274 0.171504 0.429455 -0.549623 0.789932 -0.263661 -0.44771 -0.182712 -0.170937 -0.438424 0.176032 -0.963883 -0.264323 0.800993 -0.327329
206 0.103391 0.123588 0.547095 0.0558964 -0.620307 0.0615729 -0.397132 -0.405706 -0.380224 0.0765973 -0.34064 0.220298 -0.900131 -0.301517 0.773754 -0.400574
191 0.359627 0.11828 0.653604 -0.00693199 -0.811982 0.231425 -0.613868 -0.620856 -0.355331 0.101367 -0.488329 0.142794 -0.962452 -0.102303 0.908894 -0.411099
187 0.2511 0.193556 0.694238 0.0536833 -0.777145 0.238505 -0.467275 -0.5731 -0.444657 0.00926468 -0.33862 0.226624 -1.11812 -0.148427 0.974829 -0.472464
297 0.290163 0.2131 0.0958034 0.237286 -0.268753 0.480477 -0.392034 -0.0998126 0.0463459 0.296797 -0.607931 0.279141 -1.19787 -0.249422 0.851487 -0.582958
282 0.453808 0.285325 0.144608 0.276269 -0.107586 0.642411 -0.463147 0.0579162 0.112375 0.510557 -0.771714 0.276034 -1.40221 -0.0359355 0.917932 -0.844415
415 0.383385 0.26204 0.217475 0.352709 -0.304087 0.584559 -0.441814 -0.0335791 0.0212253 0.348177 -0.738179 0.227817 -1.22116 -0.00414497 0.875177 -0.745868
17 0.211965 -0.138578 0.394306 0.848228 -0.605353 0.433374 -0.937085 0.0153467 -0.905952 -0.158471 -1.0001 0.0259078 -1.0114 -0.0734135 0.964066 -0.541555
39 0.110069 -0.0610797 0.361681 0.611191 -0.626595 0.241131 -0.677552 -0.146365 -0.685105 -0.104377 -0.725795 0.152048 -0.794864 -0.0460091 0.798505 -0.504516
78 0.138843 -0.0469199 0.332404 0.481001 -0.501517 0.248621 -0.571718 -0.117765 -0.490523 -0.0665615 -0.659795 0.132622 -0.718533 -0.170783 0.709312 -0.439922
317 0.301569 0.371942 0.270996 0.521857 -0.800258 1.08849 -0.332534 -0.67046 -0.197089 -0.251141 -0.541631 0.101234 -1.08391 -0.259891 0.989925 -0.345513
376 -0.12093 0.0336192 0.479246 0.528903 -0.857587 0.27236 -0.415513 -0.40994 -0.317188 -0.0385541 -0.507235 0.378412 -0.697021 -0.728836 0.561218 -0.440504
366 -0.297142 0.000460406 0.553085 0.755032 -1.18336 0.0824763 -0.492975 -0.405571 -0.409248 0.0409934 -0.632969 0.574312 -0.794349 -0.91036 0.708293 -0.478386
138 -0.341704 0.0836555 0.595424 0.953919 -1.10916 0.333307 -0.446696 -0.371447 -0.412002 -0.0160553 -0.514339 0.572979 -0.768592 -1.0775 0.672206 -0.590643
739 -0.165528 0.000394307 0.548924 0.694347 -1.03057 0.161992 -0.425176 -0.336673 -0.458225 -0.0116873 -0.494254 0.422068 -0.889171 -0.908492 0.721414 -0.512089
82 -0.334986 0.0949313 0.729929 0.986139 -1.21476 0.309672 -0.518764 -0.382711 -0.45042 -0.0178633 -0.643865 0.607553 -0.963821 -1.20413 0.667952 -0.667088
140 -0.239717 -0.0121388 0.591927 0.791281 -1.10956 0.144982 -0.595702 -0.461209 -0.458455 0.0120826 -0.609918 0.555314 -0.80348 -1.16661 0.750713 -0.524646
633 0.191757 -0.0204826 -0.100078 0.261546 -0.382591 0.143916 -0.402325 -0.18758 -0.161855 0.0966676 -0.477136 0.240479 -0.901306 -0.519223 0.968677 -0.133297
553 0.234184 0.179074 0.281724 0.415231 -0.788905 0.588451 -0.25704 -0.448661 -0.233364 -0.0621427 -0.415068 0.136731 -0.980263 -0.346872 0.766222 -0.297445
479 0.27974 0.179576 0.33096 0.347524 -0.771378 0.636049 -0.573776 -0.588628 -0.217061 -0.0483235 -0.663323 0.155944 -0.859114 -0.253274 0.89536 -0.424187
8 0.4078 0.432396 0.43703 0.578486 -0.836239 1.30287 -0.406384 -0.661568 -0.258054 -0.285792 -0.564648 0.192437 -1.24476 -0.162998 1.03787 -0.581757
340 0.358764 0.268137 0.896456 -0.19839 -0.701085 0.407379 -0.360794 -0.682201 -0.581256 -0.137576 -0.220058 0.101025 -1.33564 -0.0460781 1.09764 -0.576681
776 0.272989 -0.0729747 0.117136 0.45774 -0.592797 0.394711 -0.294583 -0.154387 -0.0907886 -0.176148 -0.503493 0.268884 -0.916826 -0.476709 0.70325 -0.394926
851 0.316187 0.0364778 0.303502 0.302206 -0.777227 0.259257 -0.49329 -0.292003 -0.17162 -0.00585923 -0.58704 0.202885 -0.97334 -0.478207 0.888504 -0.442433
680 0.334832 0.100441 1.15595 -0.373108 -0.627829 -0.0696844 -0.471098 -0.506079 -0.688641 -0.132653 -0.200384 0.162419 -1.436 -0.0566032 1.08612 -0.739394
357 0.12933 0.126106 0.512354 0.159842 -0.619687 0.148112 -0.378208 -0.388336 -0.3917 0.0480512 -0.35811 0.207646 -1.00385 -0.296 0.83652 -0.45915
135 -0.323462 0.0607683 0.844458 0.953198 -1.45524 0.196749 -0.522425 -0.555982 -0.576609 -0.0215243 -0.591398 0.681362 -0.957309 -1.26561 0.741019 -0.657031
133 -0.267663 0.0499675 0.641203 0.991219 -1.29941 0.281288 -0.420218 -0.51337 -0.509807 -0.0227257 -0.503709 0.653031 -1.01159 -1.10469 0.828587 -0.585761
107 0.0501997 0.0681515 0.318836 0.397748 -0.673915 0.0592037 -0.335802 -0.0906296 -0.205358 0.206015 -0.585128 0.17299 -0.979856 -0.5434 0.686442 -0.529186
115 0.028325 0.0500368 0.260639 0.303009 -0.703846 -0.0939391 -0.15564 -0.124161 -0.243753 0.158012 -0.469397 0.275678 -1.07124 -0.520675 0.684229 -0.419732
400 -0.0604765 -0.0462888 0.377844 0.313332 -0.789412 -0.204788 -0.284206 -0.128778 -0.251608 0.233376 -0.586014 0.240103 -0.971477 -0.738403 0.593026 -0.483027
586 0.0450294 0.0659963 0.332922 0.32659 -0.553969 0.0627265 -0.256125 -0.14097 -0.267419 0.170689 -0.569783 0.181692 -1.15291 -0.476814 0.714249 -0.540834
96 -0.0674743 -0.0116419 0.299382 0.390945 -0.789831 -0.172342 -0.259594 -0.137813 -0.35117 0.196248 -0.498442 0.258037 -1.06857 -0.617679 0.769115 -0.466742
977 0.131315 0.146047 0.264192 0.519876 -0.819077 0.443378 -0.460807 -0.471177 -0.312102 -0.0479994 -0.596331 0.239812 -1.07046 -0.436281 0.980639 -0.439464
612 0.166142 0.214537 0.412985 0.628798 -0.896682 0.70906 -0.449728 -0.53525 -0.324472 -0.111617 -0.590109 0.250215 -0.969896 -0.358524 0.855173 -0.438392
907 -0.0425278 0.093929 0.0191206 0.536975 -0.927281 -0.0446663 -0.201728 -0.3862 -0.445121 0.0227556 -0.297225 0.489619 -1.11358 -0.208731 0.956961 -0.30789
330 0.0863784 0.197401 0.204854 0.464891 -0.728575 0.500145 -0.227161 -0.447792 -0.249284 -0.0510433 -0.422355 0.227353 -0.875875 -0.320109 0.762663 -0.336901
312 0.376075 0.392661 0.378647 0.636296 -1.03582 1.26814 -0.276763 -0.839557 -0.310364 -0.375595 -0.43413 0.176434 -1.23175 -0.383686 1.08846 -0.40358
137 -0.359744 0.0249815 0.613 0.927369 -1.22762 0.204798 -0.469175 -0.438959 -0.600688 -0.0790108 -0.518212 0.634883 -0.894655 -0.939654 0.702787 -0.568635
480 0.104624 0.164035 0.296766 0.61869 -0.840562 0.610214 -0.360288 -0.447884 -0.19998 -0.0308282 -0.487851 0.259659 -0.921887 -0.430533 0.74991 -0.407588
478 0.193582 0.196175 0.308259 0.49392 -0.766518 0.57531 -0.363694 -0.436494 -0.227227 -0.0114644 -0.592103 0.20964 -1.05974 -0.328677 0.935422 -0.44923
482 0.229304 0.209336 0.257431 0.535374 -0.718483 0.723369 -0.303728 -0.46113 -0.177514 -0.139434 -0.503087 0.172785 -0.906096 -0.29709 0.76931 -0.347734
380 0.230267 -0.0696551 0.461383 0.808413 -0.633099 0.427067 -0.834333 -0.0331375 -0.645608 -0.0204306 -0.934157 0.229952 -1.02995 -0.0596026 0.836229 -0.652995
939 0.230074 0.0193112 0.401218 0.526136 -0.571679 0.353951 -0.629839 -0.12037 -0.406115 0.0802032 -0.800117 0.17585 -1.00357 -0.165492 0.86381 -0.572493
41 0.229427 0.0337617 0.403194 0.486723 -0.569199 0.358982 -0.704056 -0.163839 -0.468883 0.0264524 -0.743004 0.147838 -0.842734 -0.0524556 0.805236 -0.562803
10 0.0653594 -0.239114 0.621612 0.867846 -0.664989 0.279232 -0.943891 -0.0443889 -1.04258 -0.255775 -1.05843 0.150908 -1.04774 0.0265812 0.943968 -0.675655
31 0.203341 -0.0617643 0.35193 0.609116 -0.766214 0.185974 -0.758724 -0.289286 -0.578518 0.0419341 -0.783133 0.181137 -0.819356 -0.239087 0.887935 -0.370824
183 0.314503 0.263247 0.783849 -0.132414 -0.760701 0.0732158 -0.438685 -0.531298 -0.426933 0.138259 -0.236799 0.252819 -1.2791 -0.0630907 0.956612 -0.572101
346 0.260133 0.174059 0.623791 -0.00534069 -0.672888 0.149127 -0.4617 -0.49652 -0.386088 0.0638572 -0.391183 0.196403 -1.18251 -0.202553 0.958329 -0.536601
620 0.134498 -0.00812595 0.164787 0.482767 -0.565956 0.170106 -0.549118 -0.190186 -0.572773 -0.000288165 -0.545058 0.154524 -0.857137 -0.190383 0.883677 -0.279724
791 -0.0238241 -0.0257109 0.363177 0.359164 -0.68378 -0.0191904 -0.273599 -0.150055 -0.281127 0.107886 -0.514481 0.239483 -0.970166 -0.595867 0.670738 -0.458205
529 0.241791 -0.104851 0.119832 0.420241 -0.788258 0.15166 -0.340746 -0.178047 -0.121757 0.00621755 -0.518845 0.292501 -0.947186 -0.628727 0.809046 -0.370156
833 0.0119174 0.095096 0.129847 0.426928 -0.694287 0.128529 -0.149448 -0.351531 -0.233357 0.0312974 -0.261779 0.387473 -1.02719 -0.319225 0.809789 -0.36339
493 -0.18354 0.0191305 0.424588 0.624921 -0.861732 0.18364 -0.337381 -0.319819 -0.302193 -0.0290596 -0.460754 0.463594 -0.808626 -0.846526 0.589334 -0.510861
495 -0.177511 -0.0068842 0.514544 0.606496 -0.859571 0.132049 -0.330196 -0.339742 -0.335959 -0.0192255 -0.474033 0.402148 -0.805417 -0.79945 0.594823 -0.456299
172 0.133 0.203188 0.900033 -0.153386 -0.674057 -0.0083652 -0.239213 -0.476264 -0.490454 0.0015215 -0.036604 0.22326 -1.31515 -0.297495 0.900691 -0.450678
909 0.222892 0.166353 0.886203 -0.171819 -0.687137 -0.0209888 -0.334002 -0.476053 -0.564543 0.000661993 -0.166739 0.218385 -1.4468 -0.134565 1.01903 -0.566442
697 0.226919 0.129263 0.70924 0.0333578 -0.699905 0.0969135 -0.457536 -0.37859 -0.470146 0.0286952 -0.331745 0.163521 -1.22659 -0.146724 0.9081 -0.569249
790 -0.130431 -0.0539485 0.439356 0.356262 -0.677405 -0.231875 -0.178972 -0.0579482 -0.234634 0.150575 -0.510009 0.149934 -1.03422 -0.897864 0.544096 -0.603908
983 0.20666 0.0811253 0.557798 0.186113 -0.696693 0.12662 -0.541781 -0.401241 -0.416124 0.0467114 -0.513026 0.230149 -1.14705 -0.33397 0.949747 -0.557523
910 0.142498 0.0973992 0.477476 0.217605 -0.633751 0.0949404 -0.375643 -0.329945 -0.342975 0.0840636 -0.41266 0.230189 -1.09958 -0.386699 0.856136 -0.466353
702 0.201478 -0.00100202 0.482973 0.102109 -0.709607 0.0762942 -0.679269 -0.422364 -0.259402 0.191939 -0.714232 0.18907 -0.875675 -0.346958 0.86293 -0.490721
562 -0.0666154 -0.00953594 0.448159 0.428569 -0.887222 -0.0595911 -0.246859 -0.160808 -0.331021 0.13503 -0.495749 0.21353 -1.05971 -0.717755 0.640738 -0.411944
46 0.012206 0.00780928 0.34304 0.465977 -0.70871 0.0940531 -0.365154 -0.15924 -0.360731 0.0470771 -0.558628 0.165809 -0.901552 -0.407474 0.693177 -0.462162
189 0.205011 0.218583 0.807853 -0.114215 -0.781062 0.0523207 -0.365211 -0.525553 -0.482043 0.0720412 -0.171226 0.243893 -1.08643 -0.136647 0.943415 -0.487494
572 0.318879 0.308499 0.142461 0.380468 -0.443241 0.65771 -0.473839 -0.193754 0.12894 0.410143 -0.767135 0.277341 -1.14431 -0.236328 0.786822 -0.618886
92 -0.0325783 0.0321312 0.468704 0.310159 -0.846403 -0.0943937 -0.229503 -0.108821 -0.260386 0.219994 -0.536224 0.0873312 -1.06303 -0.666647 0.629441 -0.553436
242 0.192123 -0.0243948 0.386324 0.292148 -0.802088 0.13134 -0.739855 -0.425759 -0.261995 0.181038 -0.784401 0.177492 -0.78373 -0.399955 0.898465 -0.473366
229 0.125293 -0.114753 0.511501 0.114065 -0.929456 -0.136899 -0.837472 -0.534184 -0.208762 0.195494 -0.956551 0.215819 -0.678145 -0.599269 0.910185 -0.525961
162 -0.10266 0.0392285 0.463311 0.472492 -0.836025 0.113878 -0.437423 -0.413502 -0.314947 0.0634604 -0.482607 0.372109 -0.691218 -0.772999 0.638197 -0.429257
216 0.218718 -0.0428796 0.50939 0.057383 -0.906447 0.0154048 -0.889187 -0.613091 -0.102788 0.212906 -1.0607 0.161694 -0.830462 -0.544965 1.00759 -0.581783
801 0.0781101 -0.0374411 0.346889 0.15933 -0.65221 0.0362403 -0.668077 -0.432824 -0.047058 0.13269 -0.806929 0.226876 -0.773121 -0.542421 0.802852 -0.447284
584 0.0378223 0.0525858 0.439268 0.276637 -0.656509 0.00647127 -0.275453 -0.199994 -0.270664 0.0968628 -0.548603 0.127335 -1.05146 -0.507094 0.643428 -0.444975
545 -0.0643993 -0.0640514 0.478978 0.425109 -0.707102 -0.194859 -0.181543 0.0689169 -0.441582 0.115241 -0.622626 0.089881 -1.11689 -0.62551 0.561499 -0.549511
397 -0.0916401 -0.0109714 0.400955 0.443896 -0.783965 -0.115809 -0.125201 -0.0527649 -0.21055 0.128601 -0.514607 0.208144 -0.941401 -0.79312 0.496839 -0.57535
102 -0.00667834 -0.0358404 0.390157 0.313478 -0.769068 -0.157021 -0.160725 -0.0613452 -0.254067 0.230157 -0.521067 0.119547 -1.04337 -0.645406 0.620658 -0.458522
726 0.354002 0.410838 0.237465 0.583744 -0.872132 1.21786 -0.286802 -0.799993 -0.203472 -0.283161 -0.461237 0.234826 -1.27183 -0.207527 1.14132 -0.443812
817 0.313681 0.273821 0.331359 0.564429 -0.850363 0.803792 -0.500458 -0.513818 -0.189083 0.0939762 -0.66309 0.217518 -1.14572 -0.341138 0.956391 -0.50652
819 0.209354 0.139211 0.374726 0.412124 -0.843597 0.380684 -0.440144 -0.435353 -0.26208 0.0833919 -0.586091 0.210012 -0.961525 -0.374361 0.8487 -0.458194
370 -0.204947 0.0144566 0.451797 0.681045 -0.907568 0.182448 -0.370447 -0.310751 -0.383025 -0.0166567 -0.518457 0.432464 -0.72488 -0.783142 0.601475 -0.485522
68 0.0902261 -0.163267 0.433726 0.590686 -0.500133 0.236603 -0.699819 -0.0854442 -0.63591 -0.122538 -0.82567 0.0920681 -0.786142 -0.0640679 0.743555 -0.507031
71 0.0800311 0.0128314 0.408256 0.533413 -0.696741 0.286024 -0.585181 -0.288294 -0.543691 -0.0437039 -0.613074 0.210275 -0.764617 -0.229001 0.707282 -0.422716
253 -0.264444 -0.0114083 0.658149 0.7921 -1.1141 0.182573 -0.397147 -0.441519 -0.467614 -0.0382277 -0.502675 0.525032 -0.831673 -1.06233 0.630228 -0.550224
148 -0.293218 0.00755713 0.563835 0.759684 -1.0085 0.176072 -0.426324 -0.349914 -0.417396 -0.00323 -0.585639 0.489984 -0.806987 -1.10136 0.56576 -0.49305
761 0.140062 0.0593626 -0.0910592 0.164153 -0.341845 0.0957834 -0.454134 -0.28409 -0.244638 0.245882 -0.492849 0.288935 -0.970541 -0.601847 1.14841 -0.144182
821 0.169574 0.228786 0.391558 0.288754 -0.68557 0.58119 -0.242035 -0.518164 -0.211005 -0.142289 -0.346154 0.160577 -0.901039 -0.276608 0.784012 -0.365013
323 0.263449 0.286975 0.360662 0.527959 -0.833216 0.957116 -0.317041 -0.569454 -0.206186 -0.172238 -0.52745 0.191647 -1.01363 -0.242914 0.894466 -0.356089
631 0.197052 0.0450586 -0.21347 0.270678 -0.546545 0.0780506 -0.429628 -0.370891 -0.397805 0.239369 -0.369205 0.344441 -1.08989 -0.499466 1.32056 0.00655744
452 0.203075 -0.00640437 -0.0975437 0.26884 -0.464697 0.171381 -0.509004 -0.265021 -0.379949 0.202217 -0.530958 0.268935 -1.07765 -0.572406 1.16847 -0.121652
653 0.180629 0.00687225 -0.0719081 0.142832 -0.483706 0.0499604 -0.499665 -0.348246 -0.318725 0.265494 -0.479297 0.268513 -1.04138 -0.634239 1.22965 -0.108162
591 0.245981 -0.00946561 -0.354534 0.206453 -0.363497 0.0638936 -0.707006 -0.323311 -0.446821 0.434452 -0.534394 0.274542 -1.02236 -0.743637 1.45097 0.255724
892 0.0342134 -0.0541327 -0.151109 0.21069 -0.384938 -0.00688989 -0.360305 -0.233261 -0.291636 0.152719 -0.384118 0.330185 -0.861411 -0.743926 0.988149 -0.0325654
375 -0.235045 -0.012575 0.523647 0.638155 -0.899325 0.126848 -0.377632 -0.256871 -0.359164 0.0036207 -0.489166 0.483489 -0.750269 -0.937511 0.616777 -0.500826
37 0.178651 -0.0291573 0.4206 0.609267 -0.646392 0.333456 -0.727023 -0.141635 -0.640538 0.0455038 -0.806544 0.144467 -0.880933 -0.0666009 0.815919 -0.544036
580 -0.0156351 0.0565318 0.49831 0.192814 -0.673369 -0.139943 -0.0135262 -0.141156 -0.382047 0.0557023 -0.351171 0.123764 -1.24655 -0.642431 0.606542 -0.503566
154 -0.0385101 0.0332934 0.396133 0.399752 -0.770205 0.0524889 -0.262991 -0.28173 -0.284122 0.0836926 -0.429042 0.226836 -0.974037 -0.678651 0.648406 -0.447844
765 0.0426814 -0.044255 0.404506 0.31183 -0.677819 -0.0371778 -0.250265 -0.0835979 -0.284389 0.102833 -0.648153 0.141035 -1.03749 -0.575728 0.607076 -0.567443
60 0.174859 -0.0443877 0.402608 0.655197 -0.624059 0.468804 -0.723409 -0.184299 -0.615801 -0.0656375 -0.855169 0.183425 -0.860739 -0.0940726 0.815723 -0.466228
20 0.20867 -0.131873 0.3974 0.713912 -0.411509 0.383724 -0.941897 0.0233226 -0.750488 -0.0726172 -1.11426 0.130073 -0.994371 -0.0266402 0.938549 -0.687059
917 0.138648 0.0140444 0.388704 0.581227 -0.619121 0.353622 -0.545918 -0.1534 -0.496246 -0.0786802 -0.706788 0.119462 -0.749986 -0.186282 0.719439 -0.475142
826 -0.100077 0.107483 0.0854852 0.456831 -0.881553 -0.00712577 -0.18367 -0.445915 -0.420584 0.0459236 -0.204953 0.552343 -1.17131 -0.411104 1.03475 -0.315929
715 -0.0394761 0.0565261 -0.0515181 0.282739 -0.567348 -0.0699183 -0.201032 -0.290832 -0.33778 0.0629312 -0.32605 0.389308 -1.08371 -0.391598 0.968609 -0.264017
504 0.36198 0.310769 0.0312222 0.286096 -0.26671 0.520425 -0.446222 -0.0986455 0.169274 0.439565 -0.720562 0.271426 -1.18585 -0.140094 0.810201 -0.672031
430 0.246927 0.184122 0.0767617 0.307313 -0.213196 0.436969 -0.399756 -0.0356313 0.0985977 0.333959 -0.709867 0.251814 -1.1088 -0.1578 0.773582 -0.66093
598 0.272683 0.0819378 -0.0424894 0.251242 -0.523627 0.255898 -0.446868 -0.327052 -0.238488 0.201126 -0.510836 0.233198 -1.02347 -0.457178 1.03013 -0.131526
456 0.242743 0.0968406 -0.0257936 0.294067 -0.556785 0.333805 -0.389367 -0.307882 -0.204631 0.151246 -0.434142 0.226038 -0.963629 -0.393226 0.988917 -0.170266
476 0.17005 0.238544 0.322306 0.651637 -0.814472 0.794743 -0.376497 -0.490718 -0.233263 -0.151998 -0.525362 0.213361 -0.879947 -0.352674 0.751521 -0.392789
321 0.309196 0.366147 0.356728 0.535053 -0.979604 1.04474 -0.329181 -0.701684 -0.200988 -0.184619 -0.580727 0.20463 -1.07975 -0.304911 0.929977 -0.455598
57 0.243402 -0.0414546 0.398377 0.744602 -0.633291 0.512129 -0.785306 -0.154357 -0.674175 -0.0190172 -0.927902 0.140855 -0.978515 0.0402319 0.958657 -0.622474
809 0.0898374 -0.0853765 0.262887 0.652028 -0.535537 0.340561 -0.648907 -0.0981672 -0.693738 -0.124043 -0.807143 0.164779 -0.890144 0.0196589 0.813236 -0.526484
218 0.34866 -0.0094686 0.440406 -0.0282129 -0.790038 0.121227 -0.911272 -0.678129 -0.0300645 0.300753 -1.06679 0.130977 -0.787895 -0.424402 1.03795 -0.528816
226 0.258019 -0.0223976 0.617637 -0.18803 -0.770502 -0.191936 -0.945882 -0.582491 -0.134155 0.281512 -0.9315 0.122659 -0.798801 -0.427031 1.04278 -0.572962
178 0.244401 0.15244 0.813143 -0.185028 -0.642451 0.0443135 -0.45202 -0.453428 -0.576819 -0.0155191 -0.322651 0.17588 -1.17929 -0.0687412 0.964669 -0.55167
533 0.281209 -0.154315 0.0707191 0.474386 -0.712716 0.137956 -0.351595 -0.0859327 -0.0441156 -0.0620315 -0.565046 0.271705 -0.892421 -0.654098 0.713617 -0.413359
786 0.00724911 5.033e-05 0.202342 0.251917 -0.503125 -0.0802669 -0.105583 -0.0625118 -0.19535 0.0871454 -0.485752 0.164156 -0.976973 -0.575858 0.608757 -0.413217
676 0.224584 -0.0864505 0.164213 0.485441 -0.739656 0.272306 -0.326657 -0.142955 -0.167852 -0.0659946 -0.520937 0.325563 -0.921059 -0.620154 0.751096 -0.42225
675 0.284042 -0.0848452 0.0444657 0.406734 -0.6438 0.167876 -0.394806 -0.0919761 -0.108337 -0.0489462 -0.554299 0.24188 -0.900243 -0.589205 0.777274 -0.389745
522 0.253624 -0.175909 -0.0432954 0.487334 -0.694483 0.184573 -0.33329 -0.125659 -0.0512728 -0.0397926 -0.518519 0.371809 -0.947631 -0.721816 0.901059 -0.2836
232 0.174871 -0.11024 0.486819 0.26428 -0.852906 -0.0160722 -0.901277 -0.508198 -0.328528 0.23697 -1.03342 0.18402 -0.767113 -0.431029 0.937548 -0.471412
643 -0.00423245 0.0519348 0.0422596 0.316329 -0.725651 -0.121202 -0.329133 -0.40667 -0.313951 0.10517 -0.465743 0.328641 -0.858925 -0.241555 0.856019 -0.320018
654 0.0909034 0.0850338 -0.00613558 0.433337 -0.731726 0.090978 -0.349409 -0.424962 -0.343359 0.165811 -0.369694 0.408495 -1.0979 -0.410272 1.09337 -0.282923
750 -0.11942 0.140617 0.0965147 0.56748 -0.874703 0.106092 -0.157391 -0.455828 -0.398921 -0.00387911 -0.23593 0.498915 -0.965392 -0.436183 0.859102 -0.259608
624 0.0802047 -0.0394355 0.46662 0.576634 -0.561367 0.264485 -0.614514 -0.160024 -0.602422 -0.0772964 -0.702829 0.143412 -0.723382 -0.160837 0.7204 -0.505242
383 0.179462 -0.0457796 0.424771 0.632114 -0.578962 0.343276 -0.839176 -0.124684 -0.526635 0.0465394 -0.970579 0.129246 -0.893591 -0.054854 0.902292 -0.614602
