1000 32
956 0.0177459 0.0928879 0.139831 -0.0893161 -0.037951 0.282556 -0.0815897 -0.00341249 -0.285628 0.167712 -0.0508979 0.0333388 -0.00664897 0.494753 -0.418961 -0.0648874 -0.36007 -0.000228668 -0.178006 0.203776 -0.225563 0.155017 0.125387 -0.0212682 0.344743 0.274666 -0.565632 0.316803 0.226863 0.626793 -0.936321 -0.186425
881 0.0529554 0.0980554 0.231883 -0.0298415 -0.0362925 0.261762 -0.0944578 -0.0112854 -0.23444 0.195831 -0.018183 -0.0633102 -0.0462466 0.475553 -0.403873 -0.0436498 -0.356284 -0.0326735 -0.216518 0.197625 -0.210052 0.17999 0.104294 0.0114224 0.256572 0.321596 -0.574675 0.287663 0.189862 0.614462 -0.909305 -0.156297
418 0.22956 0.0026913 0.315947 0.136891 0.146391 0.367327 -0.263053 -0.231324 -0.22041 0.373565 0.106776 -0.185436 -0.143832 0.472026 -0.359996 0.165393 -0.280456 -0.0536275 -0.440083 0.184879 -0.10237 0.125028 0.0916387 0.0197567 -0.00612341 0.36141 -0.60868 0.0215819 0.0330165 0.677663 -0.943367 -0.235619
953 0.214023 -0.0310774 0.238933 0.00876048 0.129292 0.430221 -0.278025 -0.266693 -0.261119 0.343511 0.082171 -0.105867 -0.0817688 0.482979 -0.356133 0.143308 -0.27603 -0.0779176 -0.36805 0.195959 -0.116202 0.0922492 0.0428971 -0.0096698 0.13339 0.358885 -0.630564 0.0786364 0.0712893 0.675065 -0.978407 -0.268698
306 0.219197 -0.0208198 0.241425 0.0607658 0.192835 0.514204 -0.330941 -0.275093 -0.273667 0.384562 0.107002 -0.0808174 -0.115796 0.403316 -0.236988 0.132501 -0.242567 -0.100102 -0.345457 0.207586 -0.0950181 0.133567 0.0167531 0.0367528 0.123596 0.365271 -0.592994 0.0727367 0.025517 0.565048 -0.944463 -0.230975
272 0.40345 -0.0906307 0.690746 0.477942 0.159863 0.492928 -0.226375 -0.459625 -0.229499 0.510139 0.134196 -0.334848 -0.230306 0.425941 -0.370968 0.332017 -0.31087 -0.134484 -0.588345 0.0804371 0.0271416 0.332952 0.202613 0.203183 -0.271865 0.518698 -0.887767 -0.0747864 -0.139486 0.885204 -1.29708 -0.177108
279 0.277597 -0.0130362 0.463122 0.31951 0.152994 0.280605 -0.257243 -0.220013 -0.174329 0.43792 0.185002 -0.257364 -0.200752 0.473742 -0.369425 0.228369 -0.225684 -0.0277073 -0.547521 0.139933 -0.0704457 0.115075 0.108746 0.0212852 -0.139773 0.431408 -0.699438 -0.081361 0.0175088 0.681897 -0.956103 -0.204831
276 0.285068 -0.0366658 0.550501 0.368075 0.192631 0.366959 -0.255516 -0.336703 -0.171612 0.492751 0.135689 -0.330423 -0.188902 0.424417 -0.24871 0.248702 -0.273126 -0.111375 -0.546191 0.141215 -0.0118611 0.238886 0.154059 0.134589 -0.116536 0.510785 -0.726066 -0.0568144 -0.025596 0.703576 -1.10281 -0.205818
536 0.0859682 -0.0356094 -0.0153317 0.0307502 0.407009 0.72917 -0.50475 -0.227517 -0.349462 0.454706 0.204142 0.0387277 -0.104278 0.380995 0.0745789 -0.0982342 -0.208486 -0.265986 -0.259416 0.405985 -0.287815 0.22529 -0.185131 -0.0461665 0.58628 0.488199 -0.634501 0.229249 0.094548 0.38288 -1.10895 -0.295006
131 0.131341 0.0149412 0.0190536 -0.175928 0.564065 1.0209 -0.683312 -0.42685 -0.504189 0.5852 0.215317 0.106998 -0.124235 0.382651 0.19952 -0.0133359 -0.220625 -0.360598 -0.224356 0.493252 -0.292551 0.334852 -0.251325 0.0343483 0.765237 0.555076 -0.716633 0.286061 0.134985 0.32571 -1.28689 -0.317487
271 0.399413 -0.071688 0.602579 0.542518 0.376776 0.470794 -0.364982 -0.454397 -0.190872 0.596665 0.294662 -0.418543 -0.298034 0.414908 -0.216437 0.323691 -0.186603 -0.1753 -0.696689 0.189431 -0.00877567 0.202302 0.0749614 0.146623 -0.235422 0.61131 -0.922665 -0.206055 -0.111291 0.748367 -1.16751 -0.282787
307 0.0895899 -0.0400168 -0.00814303 0.0263866 0.0627739 0.192372 -0.209152 -0.054942 -0.159928 0.194954 0.092453 -0.00414127 -0.0260375 0.425239 -0.288537 0.0473897 -0.286703 -0.0686035 -0.309362 0.214466 -0.183906 0.096625 0.00760599 -0.112283 0.205802 0.327666 -0.574442 0.124905 0.108163 0.595797 -0.972258 -0.327943
19 0.0242205 -0.150973 -0.28736 0.136152 -0.0325908 0.154779 -0.378758 0.150116 -0.126943 0.166372 0.186567 0.0718112 0.107909 0.471997 -0.252971 -0.0853523 -0.397354 -0.0746765 -0.360979 0.147227 -0.258626 0.152793 -0.0174775 -0.329079 0.122046 0.31476 -0.47084 0.162388 0.0533202 0.648374 -1.17439 -0.448031
878 0.0512178 -0.0204757 -0.0780537 0.0177066 -0.0172011 0.161836 -0.170347 0.0324904 -0.163272 0.142046 0.0637622 0.0569855 0.0469002 0.465243 -0.308989 0.000681747 -0.379912 -0.0678362 -0.29896 0.232737 -0.224369 0.150022 0.0265995 -0.16065 0.233789 0.297898 -0.568372 0.194622 0.147034 0.623771 -1.05451 -0.318487
681 -0.0624406 -0.0730449 -0.353082 0.23253 -0.149655 0.0352112 -0.318682 0.339139 -0.111806 0.136588 0.117577 0.100989 0.206562 0.46263 -0.238697 -0.0964004 -0.511108 -0.0718588 -0.316144 0.131842 -0.365259 0.343534 0.0673334 -0.36394 0.120715 0.310033 -0.627966 0.298291 0.26101 0.657358 -1.34265 -0.388871
335 0.124969 -0.0244035 -0.00177328 -0.140991 0.169703 0.514936 -0.344239 -0.17718 -0.323298 0.271273 0.0791318 0.062349 -0.0285395 0.443777 -0.257196 0.0180186 -0.317059 -0.11683 -0.252667 0.285791 -0.194692 0.107697 -0.0629307 -0.0922138 0.379049 0.351026 -0.605989 0.184752 0.122719 0.571771 -1.00831 -0.302968
197 -0.0218581 -0.0484112 -0.253836 0.131707 -0.082455 0.0479097 -0.23654 0.198882 -0.104685 0.127981 0.0928073 0.0748374 0.129201 0.427598 -0.265045 -0.0911067 -0.403555 -0.0752182 -0.283085 0.167679 -0.323242 0.233931 0.0621195 -0.256825 0.128448 0.236523 -0.519937 0.208603 0.202372 0.55739 -1.05782 -0.350961
168 -0.0102343 -0.180161 -0.439933 0.312379 -0.0832322 0.302921 -0.542264 0.395286 -0.279137 0.243444 0.240565 0.146714 0.19692 0.498313 -0.168037 -0.24806 -0.494989 -0.0850008 -0.246854 0.127434 -0.473813 0.363246 0.00921636 -0.442252 0.105431 0.370749 -0.48761 0.308774 0.143682 0.571219 -1.29182 -0.371438
182 0.0113099 -0.0348924 -0.139439 0.111097 -0.0569641 0.107296 -0.235283 0.131548 -0.166038 0.168969 0.0928882 0.0315843 0.0956754 0.475235 -0.330534 -0.0503013 -0.407284 -0.0540568 -0.324056 0.155956 -0.308033 0.208806 0.10331 -0.211322 0.155929 0.281198 -0.518813 0.225023 0.174764 0.658903 -1.13159 -0.334382
790 0.0963219 0.0410942 -0.0533091 -0.317456 0.158295 0.140643 -0.245401 -0.0493881 -0.24626 0.239328 0.0388112 0.0331871 -0.0220903 0.519371 -0.427458 0.238527 -0.15446 0.073925 -0.324655 0.228458 -0.1906 -0.261903 -0.000185995 -0.1861 0.339548 0.20131 -0.620639 0.0576398 0.495534 0.368388 -0.732927 -0.231745
367 0.325749 0.0642871 0.0358072 -0.443835 0.281117 0.485977 -0.530764 -0.375613 -0.392365 0.540129 0.0979203 0.0597342 -0.0595075 0.56482 -0.51314 0.2008 -0.104943 -0.0677678 -0.538532 0.229404 -0.280041 -0.167236 0.11792 -0.110828 0.275981 -0.0221129 -0.471832 0.0339032 0.259894 0.550438 -0.714601 -0.422903
563 0.274592 0.118502 0.00401563 -0.363482 0.290607 0.439405 -0.470067 -0.36151 -0.36506 0.494153 0.101847 0.0600209 -0.0472299 0.550761 -0.464844 0.152205 -0.13834 -0.102869 -0.495266 0.223719 -0.333784 -0.0488806 0.0978519 -0.0563763 0.317489 0.00186432 -0.495243 0.0662553 0.277985 0.551847 -0.789034 -0.400639
863 0.0275084 -0.0278242 -0.101937 0.000705072 0.0255873 0.1872 -0.236283 0.0236504 -0.170613 0.173447 0.0988944 0.0480418 0.0190378 0.474935 -0.309976 0.0187512 -0.325732 -0.0704773 -0.313627 0.219035 -0.254082 0.108974 0.0305251 -0.156091 0.233433 0.292763 -0.545539 0.168133 0.168445 0.608139 -1.02094 -0.349023
202 0.0417161 -0.0505363 -0.0666111 0.00467565 0.00051308 0.162628 -0.201451 0.0275447 -0.142707 0.129972 0.0764714 0.0475459 0.00203681 0.474507 -0.353631 0.0163888 -0.321619 -0.0541156 -0.327983 0.22937 -0.234365 0.0954542 0.0190118 -0.176271 0.243942 0.291775 -0.559567 0.15678 0.10416 0.659362 -1.00146 -0.374602
126 0.00863126 -0.0288589 -0.530567 0.192065 -0.0570643 0.0756594 -0.544976 0.345709 -0.206115 0.282247 0.271209 0.150163 0.225648 0.570043 -0.348547 -0.18397 -0.424963 -0.0653389 -0.465649 0.112444 -0.540104 0.318333 0.0883212 -0.49706 -0.00394631 0.134439 -0.448741 0.182025 0.279768 0.665684 -1.25867 -0.524422
173 -0.0403218 -0.0269553 -0.295574 0.10699 -0.109533 -0.0653679 -0.24491 0.27429 -0.09496 0.110074 0.0933583 0.0546158 0.126305 0.531416 -0.360236 0.0357926 -0.360411 0.0123468 -0.358827 0.119944 -0.322685 0.0653232 0.0886274 -0.349951 0.117037 0.283192 -0.598571 0.157634 0.341017 0.562543 -1.06529 -0.364854
680 0.0858552 -0.168906 -0.240142 0.0998999 -0.114972 0.170207 -0.391149 0.234422 -0.176388 0.157245 0.171238 0.0574466 0.112905 0.483602 -0.331025 -0.0675379 -0.416389 -0.0618226 -0.305388 0.0903294 -0.246862 0.142121 0.0201967 -0.351533 0.10433 0.291155 -0.405053 0.17609 0.00240187 0.644727 -1.07367 -0.370307
200 0.0554143 -0.0628461 -0.0758792 0.0558627 0.00130445 0.113584 -0.210776 0.0428474 -0.135831 0.115918 0.0796632 0.0323153 0.00155857 0.415383 -0.284311 0.0027894 -0.277126 -0.0637788 -0.29361 0.183726 -0.180438 0.0645181 0.00284011 -0.179365 0.157277 0.280309 -0.502669 0.115452 0.104363 0.572319 -0.918096 -0.308777
177 -0.0209072 -0.0494907 -0.2894 0.194822 -0.0806052 0.00962339 -0.276767 0.219464 -0.0886731 0.159366 0.172752 0.0896257 0.144026 0.478893 -0.290085 -0.0771613 -0.39084 -0.0889134 -0.345973 0.1162 -0.335402 0.250346 0.0571799 -0.310923 0.0899875 0.241437 -0.600166 0.188051 0.219689 0.625994 -1.20611 -0.380975
498 0.306999 -0.0513362 0.356434 0.0647608 0.195621 0.509849 -0.317797 -0.371532 -0.286673 0.433429 0.089898 -0.140777 -0.11394 0.452098 -0.349926 0.210873 -0.28229 -0.0991725 -0.436106 0.14227 -0.0580444 0.129397 0.118541 0.0731943 -0.00222663 0.345979 -0.641096 -0.0120083 0.0241313 0.683146 -1.04058 -0.239072
417 0.275571 -0.0117851 0.33503 0.0895507 0.222658 0.436147 -0.326913 -0.337754 -0.275311 0.452219 0.123674 -0.194434 -0.130411 0.458033 -0.308938 0.221139 -0.219184 -0.0803233 -0.469655 0.134964 -0.0721034 0.0912927 0.121808 0.0173539 -0.0430457 0.346011 -0.654852 -0.0186379 0.0908001 0.62582 -0.952264 -0.240655
818 0.130221 -0.00502696 0.0800144 -0.0824397 0.259597 0.605808 -0.388738 -0.236744 -0.352093 0.361889 0.113417 0.00237859 -0.101792 0.441781 -0.166745 0.00367874 -0.271352 -0.162015 -0.250989 0.324002 -0.219222 0.156805 -0.0815447 -0.0396748 0.440126 0.407155 -0.602121 0.183015 0.0687684 0.543219 -1.01031 -0.318912
338 0.113408 0.00922206 0.042343 -0.122686 0.218616 0.515923 -0.330803 -0.210106 -0.310804 0.289563 0.0930195 0.0431538 -0.0761188 0.383344 -0.156086 0.0238477 -0.234831 -0.130515 -0.235179 0.287039 -0.194448 0.0986108 -0.0966156 -0.0372931 0.389631 0.346579 -0.549969 0.175451 0.0857308 0.47179 -0.883481 -0.283318
308 0.120698 -0.0261222 0.0648116 -0.0454847 0.545752 1.14888 -0.661594 -0.336006 -0.611948 0.576642 0.211036 0.0931055 -0.215485 0.41563 0.115393 -0.209209 -0.228499 -0.298494 -0.124596 0.575272 -0.374225 0.291361 -0.326253 -0.0159666 0.794276 0.66844 -0.737833 0.361753 0.0457435 0.428668 -1.13707 -0.28553
328 0.197207 -0.0398164 0.0478053 -0.130591 0.27418 0.720341 -0.384121 -0.297439 -0.410294 0.350584 0.0747248 0.0620869 -0.0411795 0.327179 -0.0793374 -0.0140677 -0.228379 -0.188369 -0.157221 0.26896 -0.173167 0.218878 -0.071558 0.0079948 0.397793 0.297091 -0.554539 0.199314 0.0180873 0.401641 -0.914817 -0.21845
171 0.0872604 0.0478052 -0.102208 -0.15421 0.455438 0.847512 -0.611691 -0.249092 -0.493677 0.529878 0.1793 0.0695272 -0.0488821 0.430931 -0.0207923 -0.128743 -0.227384 -0.210228 -0.27447 0.430151 -0.400563 0.238796 -0.137473 -0.0870103 0.610315 0.367133 -0.635352 0.262175 0.220186 0.378167 -1.00571 -0.328816
824 0.0892289 -0.0433991 0.0235954 -0.139697 0.209401 0.464321 -0.306291 -0.19552 -0.276173 0.278678 0.0671727 0.0167708 -0.0600749 0.339415 -0.119427 0.0220264 -0.227221 -0.113095 -0.231605 0.280617 -0.13553 0.0914127 -0.0819964 -0.0329 0.350751 0.316675 -0.481874 0.143808 0.0507666 0.430012 -0.809024 -0.262294
227 0.0789888 0.054552 0.222111 -0.132996 -0.0152567 0.503509 -0.196811 -0.0327508 -0.402725 0.249491 -0.0508305 0.00762064 -0.0227221 0.544404 -0.449321 -0.0714292 -0.406337 -0.0151166 -0.186529 0.240843 -0.229335 0.158193 0.121391 -0.00794346 0.346136 0.352857 -0.542877 0.336073 0.162065 0.700616 -1.00656 -0.156524
879 0.0583561 0.0525961 0.109926 -0.150369 -0.0235547 0.371577 -0.177053 -0.00317073 -0.33948 0.178003 -0.0261505 0.0362986 -0.00915458 0.535192 -0.437136 -0.0215738 -0.341716 0.0238803 -0.207766 0.233375 -0.200837 0.0907378 0.0871604 -0.0561966 0.307701 0.313232 -0.525114 0.263354 0.218004 0.608806 -0.906041 -0.163449
856 0.0355496 -0.00997554 -0.0899512 -0.228895 -0.00431103 0.0309514 -0.10904 0.113929 -0.19838 0.0769339 -0.0149868 0.0566145 -0.00697836 0.591428 -0.508531 0.307699 -0.229942 0.116548 -0.275043 0.202861 -0.141144 -0.326491 0.00048599 -0.235401 0.31669 0.326335 -0.678103 0.0529281 0.54126 0.482311 -0.90135 -0.155788
545 0.12352 -0.118762 -0.0852074 -0.285951 0.0563988 0.268597 -0.282897 0.0390953 -0.280806 0.151568 0.0510176 0.0181345 -0.0391421 0.585037 -0.489457 0.270856 -0.220453 0.10065 -0.254883 0.258701 -0.0716923 -0.398327 -0.103563 -0.285461 0.289226 0.392111 -0.560462 0.0156512 0.320692 0.548832 -0.821692 -0.233931
98 0.0697537 -0.0204334 -0.0646792 -0.231497 0.0645854 0.131643 -0.196055 -0.00588966 -0.229197 0.141791 0.0347057 0.0161729 0.00556411 0.551497 -0.417128 0.259518 -0.246655 0.0613884 -0.274672 0.220843 -0.114229 -0.226161 -0.0583443 -0.211324 0.281927 0.346649 -0.615947 0.0693767 0.396478 0.506272 -0.880096 -0.221644
86 0.143925 -0.0534258 -0.0930764 -0.427656 0.135963 0.158536 -0.282554 0.0328548 -0.30175 0.209281 0.0262349 0.0493232 -0.0114631 0.632249 -0.471767 0.472919 -0.174139 0.187063 -0.347689 0.249414 -0.100799 -0.515166 -0.0864985 -0.27243 0.341921 0.398551 -0.725481 -0.0538136 0.654052 0.390062 -0.85046 -0.158563
751 0.202109 0.0590616 0.0308721 -0.294113 0.211092 0.430065 -0.346776 -0.253989 -0.31776 0.366951 0.0569953 0.0625784 0.00258143 0.502791 -0.427477 0.161147 -0.19695 -0.0485234 -0.395081 0.176243 -0.248062 -0.0119885 0.0834334 -0.0427505 0.289116 0.078058 -0.524012 0.0813515 0.258466 0.514961 -0.843416 -0.302455
139 0.287004 0.161355 0.0249448 -0.452657 0.464889 0.648634 -0.628094 -0.419265 -0.44818 0.656676 0.163237 0.0607388 -0.0479327 0.568321 -0.449325 0.174244 -0.113138 -0.105012 -0.557384 0.24383 -0.38003 0.0118287 0.0971332 -0.0132739 0.406133 0.00584354 -0.569819 0.0665002 0.377151 0.47621 -0.868793 -0.408014
319 0.106135 -0.00839001 -0.00168494 -0.127269 0.403881 0.850373 -0.544773 -0.290614 -0.434682 0.486507 0.164885 0.0646723 -0.0831661 0.381277 0.0376787 -0.0823315 -0.210708 -0.251076 -0.197084 0.424975 -0.261153 0.223762 -0.214039 -0.0205677 0.624257 0.456577 -0.613063 0.263877 0.0891545 0.350078 -1.00514 -0.297692
477 0.131388 -0.00973987 -0.0465571 -0.111923 0.33102 0.634947 -0.448668 -0.197896 -0.355562 0.367073 0.139572 0.0699506 -0.0699924 0.349439 -0.0580676 0.00363681 -0.184101 -0.141533 -0.191141 0.341644 -0.240878 0.0719808 -0.178219 -0.0815135 0.470574 0.349371 -0.50602 0.154142 0.142237 0.363959 -0.852578 -0.234875
115 0.0537134 0.0676451 -0.0816973 -0.241336 0.0627247 0.0686408 -0.0837787 -0.0348747 -0.189608 0.130656 -0.0168355 0.0414688 -0.0029805 0.508844 -0.402811 0.216699 -0.243657 0.0492884 -0.30181 0.228055 -0.148295 -0.201889 -0.0156447 -0.145543 0.317644 0.261411 -0.626487 0.090533 0.434781 0.492729 -0.847498 -0.254471
79 0.171933 -0.000111814 -0.170799 -0.554647 0.105494 0.163765 -0.229245 0.0553992 -0.436593 0.217378 -0.0270937 0.0424225 0.0351685 0.755827 -0.641796 0.563906 -0.208513 0.243833 -0.377618 0.225082 -0.0901215 -0.662011 -0.0501104 -0.383519 0.35215 0.366689 -0.830723 -0.0487719 0.91718 0.416226 -0.951355 -0.143735
88 -0.079172 0.187793 0.245459 -0.103594 -0.215699 0.326803 -0.0610814 0.188312 -0.446141 0.235395 -0.118093 0.0339294 0.0449206 0.696299 -0.557048 -0.178352 -0.491353 0.139135 -0.114935 0.228885 -0.361118 0.292198 0.26882 -0.0307515 0.443254 0.38092 -0.646952 0.553812 0.462157 0.658772 -1.04803 -0.014226
636 -0.134042 0.202083 0.296094 -0.0909853 -0.24958 0.302347 0.0467248 0.253437 -0.440752 0.138572 -0.145187 0.0293813 0.0367289 0.636532 -0.567016 -0.246412 -0.467116 0.15538 -0.0289606 0.218005 -0.360572 0.302411 0.281432 0.0370494 0.454341 0.358888 -0.594201 0.591393 0.443927 0.637249 -0.947388 0.0552866
170 -0.172746 0.171388 0.277722 0.064776 -0.360089 0.287616 -0.0142819 0.365455 -0.404625 0.16131 -0.111823 0.0174195 0.0494244 0.681234 -0.534176 -0.342274 -0.621717 0.118805 -0.0375016 0.216137 -0.414828 0.482968 0.352014 -0.00104093 0.346401 0.452629 -0.561327 0.623261 0.371502 0.717453 -1.13631 -0.0104426
235 0.0211772 0.0523895 0.103992 -0.0437331 -0.0808662 0.263913 -0.120564 0.0567231 -0.296515 0.170321 -0.0441525 0.0292823 0.00103782 0.504396 -0.389702 -0.0743407 -0.361533 0.0243132 -0.18533 0.208411 -0.238258 0.176691 0.136292 -0.0862244 0.27496 0.322719 -0.510743 0.309292 0.219898 0.592747 -0.924539 -0.165769
239 0.00856704 0.0690772 0.122179 -0.0913777 -0.0639916 0.278192 -0.0935631 0.0395004 -0.295613 0.167109 -0.0253902 0.0211628 0.010058 0.550627 -0.417489 -0.0267842 -0.360417 0.00542898 -0.200339 0.21933 -0.227153 0.135612 0.114736 -0.0269956 0.33458 0.325217 -0.565527 0.312984 0.243428 0.619591 -0.993679 -0.153057
209 -0.116518 0.184885 0.245586 0.0830889 -0.247556 0.336659 -0.0413959 0.261731 -0.398413 0.187075 -0.088871 0.0269357 0.05024 0.603749 -0.452984 -0.276153 -0.490326 0.0639891 -0.0314212 0.206233 -0.366763 0.397712 0.248197 0.0208874 0.381315 0.428051 -0.591777 0.582398 0.367541 0.632988 -1.06759 0.0134231
226 0.00737018 0.123192 0.225144 -0.0523122 -0.132498 0.4512 -0.159209 0.107184 -0.385045 0.24439 -0.0524005 0.000778443 0.0148512 0.56207 -0.459548 -0.212293 -0.444829 0.0312881 -0.104847 0.199376 -0.290669 0.298787 0.208203 0.0100996 0.345322 0.341878 -0.497315 0.45132 0.236911 0.630133 -0.979846 -0.0900685
910 -0.0208262 -0.0266379 -0.154242 0.0799186 -0.0207415 0.061115 -0.178603 0.0833639 -0.107162 0.0994337 0.0956819 0.0262677 0.0617673 0.414909 -0.307197 0.012113 -0.346734 -0.0823847 -0.319872 0.162433 -0.197486 0.104471 0.0451836 -0.192885 0.171992 0.306675 -0.581492 0.175571 0.15079 0.598687 -1.05311 -0.346273
346 0.0359231 -0.0545638 -0.213005 0.110012 -0.00357063 0.20757 -0.333739 0.123748 -0.186552 0.218318 0.166235 0.0377961 0.0753704 0.459266 -0.312942 -0.0365603 -0.358289 -0.0653849 -0.334651 0.152896 -0.298442 0.12903 0.0465171 -0.260031 0.10755 0.309536 -0.524625 0.185147 0.141663 0.616542 -1.0734 -0.375453
703 0.0670166 0.00939004 -0.151473 -0.0629876 0.0807804 0.236381 -0.315654 -0.0184203 -0.23044 0.239997 0.103982 0.0523471 0.0407685 0.485784 -0.368404 0.0176823 -0.281543 -0.0638336 -0.326058 0.2056 -0.275578 0.0541492 0.0451548 -0.168333 0.217137 0.213696 -0.487016 0.169541 0.181222 0.587239 -0.973017 -0.345175
145 0.177158 0.197684 -0.0121462 -0.381081 0.293547 0.367759 -0.442279 -0.27609 -0.370082 0.484419 0.0936011 0.0496761 0.0156596 0.58256 -0.543497 0.110779 -0.143871 -0.0592744 -0.497786 0.163747 -0.375491 0.0222378 0.192607 -0.0148999 0.286076 -0.0816565 -0.480904 0.147831 0.39724 0.532936 -0.778086 -0.374575
249 0.272734 0.262089 -0.0638403 -0.483284 0.376549 0.456727 -0.635383 -0.418841 -0.420863 0.651339 0.146224 0.0756315 0.00693904 0.709879 -0.632759 0.181412 -0.116919 -0.0793209 -0.729328 0.199927 -0.483397 -0.0518876 0.259302 -0.0839357 0.306235 -0.168489 -0.537047 0.0765236 0.450282 0.613931 -0.873652 -0.516237
773 0.187506 0.0752571 0.0246888 -0.270965 0.207113 0.39613 -0.368583 -0.249836 -0.312068 0.367487 0.078885 0.0405512 -0.0329625 0.496232 -0.408748 0.0945752 -0.21603 -0.0725409 -0.401028 0.21661 -0.243353 -0.00142829 0.0836042 -0.0638496 0.272556 0.140683 -0.500959 0.101753 0.21486 0.550334 -0.829395 -0.342593
749 0.236911 0.114244 -0.00647745 -0.333705 0.275774 0.452652 -0.466276 -0.304322 -0.376992 0.43995 0.117289 0.0415389 -0.0202965 0.502128 -0.480143 0.0952207 -0.126903 -0.0359236 -0.480064 0.20032 -0.28171 -0.0679053 0.115671 -0.065755 0.269899 0.031331 -0.446975 0.0631495 0.209735 0.538741 -0.723302 -0.36746
256 0.218689 0.0401257 0.103891 -0.337466 0.224623 0.490029 -0.391121 -0.364447 -0.342101 0.41091 0.0536158 0.0178344 -0.0282012 0.478306 -0.385222 0.138265 -0.233534 -0.105715 -0.423911 0.228308 -0.178554 0.0152581 0.0769408 -0.0265316 0.2731 0.124571 -0.512224 0.0922091 0.187539 0.577641 -0.87422 -0.336319
595 0.361205 -0.10754 0.118494 -0.3172 -0.0483701 0.712379 -0.181844 -0.290341 -0.458555 0.167849 -0.177953 0.208927 0.0351231 0.409237 -0.508159 0.0781458 -0.388775 -0.16025 -0.0546265 0.101347 -0.0631706 0.233885 0.109573 0.042857 0.276773 0.107013 -0.556131 0.218614 -0.0504895 0.735071 -1.09324 -0.113684
629 0.323177 -0.0732225 0.17795 -0.306939 -0.00229251 0.739739 -0.198985 -0.306285 -0.460693 0.18358 -0.158256 0.160082 0.0313743 0.393922 -0.456395 0.0487283 -0.385333 -0.145498 -0.0414499 0.113806 -0.0603313 0.226605 0.0964272 0.0591847 0.273174 0.10816 -0.48609 0.21713 -0.0413375 0.682658 -1.01555 -0.11548
626 0.374392 -0.0686721 0.141349 -0.357133 -0.0592228 0.788716 -0.107385 -0.34989 -0.50764 0.118726 -0.224928 0.232052 0.0840582 0.358779 -0.482335 0.06511 -0.465125 -0.199995 0.023496 0.0692432 -0.0319249 0.375861 0.131999 0.120086 0.287245 0.0049671 -0.61184 0.274609 -0.0191367 0.747846 -1.19156 -0.0673963
453 0.259115 -0.0683729 0.172863 -0.300741 0.0180219 0.642686 -0.161395 -0.327187 -0.371759 0.187855 -0.121916 0.116967 0.0151509 0.376898 -0.375549 0.0967987 -0.374619 -0.177587 -0.0965008 0.147759 -0.0325875 0.206305 0.0823274 0.0929841 0.318918 0.158348 -0.53304 0.187494 -0.052438 0.649321 -1.01664 -0.132546
436 0.481361 -0.043325 0.151556 -0.543768 -0.0590009 0.900335 -0.105584 -0.533604 -0.534072 0.190142 -0.300737 0.340571 0.117052 0.409139 -0.576541 0.148876 -0.401165 -0.259299 0.0195806 -0.0383605 -0.0816563 0.409762 0.259115 0.203013 0.350898 -0.189827 -0.643506 0.285078 0.00415083 0.755894 -1.29142 -0.0726912
447 0.330866 -0.052901 0.148346 -0.320678 0.0305881 0.671136 -0.174047 -0.354079 -0.41611 0.183067 -0.135514 0.130987 0.0313418 0.408174 -0.465445 0.1184 -0.399604 -0.16249 -0.141839 0.13032 -0.0534673 0.218173 0.0727182 0.061106 0.30379 0.143592 -0.59019 0.2119 -0.0297824 0.716082 -1.12047 -0.178493
719 0.0446706 0.115995 -0.0247527 -0.0826395 0.0516214 0.142993 -0.028124 -0.218474 -0.152796 0.00497361 -0.0478969 0.00550381 -0.0601018 0.450179 -0.390091 0.0285829 -0.377476 -0.100959 -0.283366 0.352711 -0.173973 0.0623514 -0.0628163 -0.0816831 0.371903 0.323077 -0.658983 0.251999 0.132223 0.798513 -1.04995 -0.461932
907 0.0126475 0.144225 -0.0573426 -0.114667 0.0756131 0.117202 0.0233919 -0.25567 -0.102428 -0.00613955 -0.0474828 -0.00378585 -0.0535528 0.366066 -0.345389 -0.0230332 -0.298738 -0.114032 -0.264807 0.361429 -0.173773 0.0621448 -0.0840928 -0.044003 0.375526 0.282898 -0.593228 0.213489 0.0917253 0.726361 -0.926777 -0.491008
707 -0.0879328 0.339196 -0.165388 -0.102992 0.0817643 -0.128251 0.207497 -0.419594 -0.0071548 -0.221671 -0.111 -0.110741 -0.092069 0.325326 -0.394469 -0.119013 -0.366013 -0.108943 -0.289136 0.559025 -0.15815 -0.0352244 -0.188071 -0.0786999 0.427102 0.299113 -0.576576 0.293596 0.101791 0.911146 -0.850968 -0.794804
735 0.00367988 0.151506 -0.0261258 -0.0595641 0.0117392 0.0956686 0.0422899 -0.1774 -0.120306 -0.0290475 -0.0468597 -0.0607551 -0.0633822 0.435308 -0.373368 -0.031539 -0.350447 -0.048072 -0.266497 0.367946 -0.169168 0.0391992 -0.0340169 -0.0606437 0.370933 0.333521 -0.611314 0.253348 0.14892 0.734723 -0.949691 -0.484542
221 -0.00055948 0.105794 0.134595 -0.0610514 -0.064007 0.334492 -0.136306 0.0557834 -0.324985 0.200592 -0.0563571 0.0306381 -0.00559409 0.541315 -0.41015 -0.113707 -0.389062 -0.00146408 -0.17384 0.218877 -0.280188 0.237435 0.159107 -0.0432739 0.334617 0.343667 -0.55353 0.371948 0.247643 0.666353 -1.02012 -0.184132
969 0.0551021 0.0697235 0.147785 -0.0971319 0.0369192 0.316608 -0.178359 -0.0931419 -0.286155 0.231352 -0.010621 0.0207699 -0.014752 0.538714 -0.436708 0.0040546 -0.355334 -0.0347041 -0.302128 0.25731 -0.2068 0.142404 0.107404 -0.0318807 0.339351 0.300952 -0.625729 0.2574 0.194913 0.66929 -0.993948 -0.233031
395 0.0669533 0.145683 0.193615 -0.203392 0.0228656 0.362268 -0.224142 -0.0797116 -0.384748 0.346929 -0.0204322 0.0264148 -0.0115852 0.625192 -0.534755 0.0100515 -0.347706 0.0223277 -0.335161 0.241173 -0.332687 0.142236 0.204395 -0.026116 0.344803 0.216113 -0.622582 0.3305 0.362346 0.67624 -1.02286 -0.246565
801 0.0367323 0.0550899 0.10565 -0.100526 -0.0193771 0.264596 -0.125258 -0.0500748 -0.217554 0.141138 -0.0339668 0.00938921 -0.00964493 0.465024 -0.374777 -0.00335093 -0.331002 -0.0323265 -0.215192 0.208123 -0.193943 0.107762 0.0764448 -0.0158939 0.308867 0.266586 -0.533691 0.257176 0.173087 0.610598 -0.914408 -0.223747
215 -0.0610272 0.16638 0.291852 -0.132623 -0.151729 0.383321 -0.0651092 0.105015 -0.420953 0.21798 -0.106136 0.0105987 -0.0136309 0.604751 -0.523657 -0.17786 -0.428363 0.0596129 -0.106711 0.231655 -0.323907 0.28896 0.223528 0.0352102 0.472905 0.335569 -0.571858 0.525922 0.330564 0.649714 -0.981877 -0.0612976
214 -0.105288 0.229369 0.204131 0.00818531 -0.174701 0.196176 -0.0236681 0.168891 -0.298104 0.109498 -0.0865993 -0.0307442 -0.0103694 0.599729 -0.516789 -0.23566 -0.449132 0.0396551 -0.1013 0.242322 -0.32479 0.275075 0.180757 0.0121074 0.397243 0.308633 -0.528668 0.49066 0.322588 0.681124 -0.978969 -0.160501
223 -0.016527 0.145844 0.199563 -0.0865975 -0.144425 0.247647 -0.0359856 0.159156 -0.303841 0.138964 -0.0847985 0.021239 -0.00684573 0.552187 -0.498468 -0.128293 -0.385834 0.0991985 -0.0929419 0.220656 -0.281096 0.133328 0.158327 -0.0268113 0.349617 0.341429 -0.531323 0.40127 0.3213 0.585917 -0.87829 -0.0749571
646 0.0441683 0.0328088 0.161297 -0.103844 -0.0203855 0.307498 -0.112561 0.00748819 -0.280527 0.199093 -0.00667926 0.00640448 -0.0476465 0.50421 -0.446593 0.0208623 -0.31673 0.0408879 -0.198145 0.215016 -0.197503 0.0633968 0.0923123 -0.0620685 0.321316 0.323358 -0.585734 0.246755 0.242963 0.576679 -0.873447 -0.141905
503 0.165011 -0.0571394 0.30983 -0.0347761 0.111496 0.343907 -0.197502 -0.298783 -0.181829 0.306095 0.0554443 -0.110291 -0.0810869 0.422036 -0.309504 0.248066 -0.312129 -0.0739889 -0.39731 0.194955 -0.0291546 0.0925655 0.0840391 0.0511805 0.148983 0.373204 -0.639765 0.0547993 0.00444239 0.676803 -1.01251 -0.25082
381 0.0347721 -0.261257 0.384919 -0.414142 -0.00079137 0.306647 -0.0930232 -0.349672 -0.0708892 0.154406 -0.0522528 -0.055906 -0.0558321 0.371932 -0.206369 0.314693 -0.449581 -0.154416 -0.309272 0.273536 0.217285 0.052709 0.0473702 0.135369 0.390204 0.436705 -0.48358 0.0746985 -0.152128 0.697686 -1.06902 -0.281927
665 0.0295714 -0.21193 0.294139 -0.319475 0.0299622 0.207637 -0.0971581 -0.310784 -0.0109081 0.125058 -0.0549232 -0.0381115 -0.031907 0.39483 -0.176885 0.312661 -0.410608 -0.157702 -0.360843 0.261101 0.165793 0.0524967 0.0759189 0.106878 0.362791 0.453302 -0.574751 0.0884737 -0.0622071 0.639262 -1.11855 -0.279641
515 0.068244 -0.229494 0.384975 -0.430439 0.00971349 0.327662 -0.153508 -0.39061 -0.0757139 0.207013 -0.0614574 -0.0456782 -0.0453565 0.396218 -0.224867 0.382459 -0.453272 -0.140069 -0.368596 0.277851 0.20334 0.0657229 0.0896257 0.153211 0.369766 0.420134 -0.543074 0.0828627 -0.0836732 0.673881 -1.14344 -0.274706
938 0.0859047 -0.0431628 0.0261229 -0.188539 0.0482618 0.211701 -0.198375 -0.10626 -0.181723 0.135953 0.0231456 -0.000441602 -0.0267366 0.463415 -0.36649 0.200146 -0.265704 -0.0322255 -0.291232 0.256247 -0.0874779 -0.120422 -0.0353191 -0.110941 0.297881 0.316639 -0.570303 0.0874681 0.212798 0.560475 -0.941438 -0.287053
786 0.0128434 -0.0624029 0.00366066 -0.227505 0.00519491 0.113065 -0.105223 -0.0153913 -0.158638 0.0921206 -0.00207204 -0.00303444 -0.000748523 0.432559 -0.312959 0.211924 -0.256122 0.00141245 -0.271835 0.227343 -0.0891288 -0.174474 -0.0345168 -0.11588 0.313948 0.308548 -0.568348 0.0800836 0.295496 0.494561 -0.843215 -0.248294
806 0.13178 -0.0296659 0.0347958 -0.142728 0.0982903 0.268637 -0.215397 -0.114584 -0.245978 0.198998 0.0314645 0.000549949 -0.0405433 0.50467 -0.407068 0.152765 -0.251859 -0.0115254 -0.309719 0.253156 -0.129974 -0.089044 -0.0116845 -0.116128 0.295383 0.324556 -0.597558 0.10795 0.217949 0.595624 -0.941394 -0.280941
461 0.133498 -0.0921031 0.00649024 -0.274992 0.0388782 0.261231 -0.205723 -0.0223963 -0.300214 0.143607 0.00993019 0.0326112 -0.0221789 0.538895 -0.451139 0.255478 -0.234958 0.0802853 -0.251879 0.200184 -0.0891384 -0.274668 -0.039878 -0.215109 0.299105 0.349295 -0.558838 0.0518672 0.300072 0.522413 -0.810017 -0.211605
373 0.220429 0.103813 0.0367609 -0.319629 0.203454 0.387298 -0.371411 -0.289193 -0.322439 0.436851 0.0570921 0.0424703 -0.000701827 0.484388 -0.435557 0.107211 -0.158202 -0.0598974 -0.461228 0.157794 -0.252019 0.00183486 0.142609 -0.045226 0.232951 -0.00298323 -0.451376 0.0955351 0.279488 0.541843 -0.735051 -0.336819
130 0.312395 0.129471 0.0562746 -0.700026 0.332629 0.393053 -0.574899 -0.582693 -0.332976 0.656211 0.112195 0.0207592 0.00120644 0.662498 -0.613223 0.309774 -0.146875 -0.119382 -0.843136 0.20146 -0.297943 -0.124115 0.252537 -0.00113696 0.294902 -0.1749 -0.509665 -0.00144602 0.336954 0.737472 -0.930281 -0.5862
962 0.238791 0.067032 0.0233654 -0.339437 0.208693 0.483996 -0.436006 -0.302037 -0.385813 0.397099 0.0469572 0.0546066 -0.000858977 0.550689 -0.471179 0.127206 -0.246256 -0.0796813 -0.440472 0.243458 -0.274005 -0.0157666 0.08878 -0.0997765 0.296061 0.113112 -0.549395 0.132528 0.23501 0.639105 -0.951183 -0.376682
93 0.128998 0.02456 -0.034682 -0.24016 0.100732 0.164245 -0.218303 -0.00615686 -0.268152 0.221826 0.0257604 0.0337975 -0.00702222 0.573466 -0.432743 0.308432 -0.211121 0.0956904 -0.343135 0.20193 -0.164417 -0.27296 -0.00222805 -0.210149 0.247583 0.29612 -0.633682 0.0334014 0.485042 0.466858 -0.883445 -0.212886
841 0.137517 -0.0329185 -0.0107438 -0.232612 0.0912809 0.307138 -0.254349 -0.0997081 -0.304753 0.18104 0.0271154 0.0394021 0.000323358 0.547561 -0.421359 0.226405 -0.288199 0.00336345 -0.295622 0.262201 -0.129974 -0.152074 -0.056575 -0.135446 0.338002 0.320743 -0.69797 0.0804823 0.330283 0.561691 -1.0014 -0.264572
789 0.113789 -0.115086 -0.110984 -0.355119 0.044069 0.18814 -0.257744 0.086678 -0.293834 0.188191 0.0308002 0.0701792 -0.0154139 0.637804 -0.579378 0.31677 -0.219428 0.169815 -0.324368 0.199153 -0.153011 -0.44958 -0.0636195 -0.316839 0.329789 0.343707 -0.671373 -0.0069208 0.494131 0.542053 -0.876681 -0.25289
894 0.112344 -0.0421047 0.0126999 -0.186826 0.0830741 0.253827 -0.199695 -0.0920452 -0.251806 0.198428 0.0193188 0.0168559 -0.0426859 0.507198 -0.395965 0.1768 -0.269074 -0.0112048 -0.297489 0.228733 -0.143768 -0.123295 -0.0416442 -0.123992 0.290951 0.304857 -0.635438 0.104536 0.272821 0.553387 -0.909608 -0.255017
583 -0.00866443 -0.0257002 -0.106964 -0.138557 -0.0193635 0.023594 -0.097828 0.0828414 -0.136547 0.0640117 0.0276925 0.0581956 0.00899943 0.50644 -0.405601 0.225107 -0.24648 0.0515861 -0.260106 0.227176 -0.147843 -0.193157 -0.0700358 -0.207664 0.292424 0.331368 -0.662939 0.0770137 0.3994 0.506338 -0.886796 -0.222499
69 0.251653 -0.0522613 0.239972 0.0447533 0.153493 0.42848 -0.291829 -0.264518 -0.266242 0.324681 0.107311 -0.120796 -0.128486 0.352646 -0.297526 0.122052 -0.190084 -0.0586378 -0.36951 0.160206 -0.0602744 0.0433116 0.010965 -0.00200336 0.0297175 0.311905 -0.504197 0.0130443 -0.0650994 0.577681 -0.759541 -0.234024
1 0.556158 -0.395857 0.166956 -0.543215 0.163768 0.953982 -0.697846 -0.429159 -0.529619 0.355581 0.142613 -0.0179124 -0.215082 0.694749 -0.751276 0.140751 -0.35431 0.0570765 -0.397667 0.392875 0.0287955 -0.441488 -0.233173 -0.259059 0.262775 0.516654 -0.278464 -0.0879815 -0.492665 1.04664 -0.859238 -0.591743
38 0.335595 -0.155768 0.0687872 -0.254321 0.138386 0.63248 -0.402358 -0.316515 -0.401825 0.199269 0.0516434 -0.00163963 -0.104816 0.459763 -0.466714 0.0422326 -0.275105 -0.00464985 -0.241036 0.284333 -0.0393134 -0.198279 -0.152683 -0.165979 0.248165 0.351438 -0.316665 0.044533 -0.203099 0.734657 -0.745822 -0.42266
0 0.543082 -0.419012 -0.0705089 -0.29235 0.095474 0.921619 -0.671716 -0.074115 -0.546345 0.24518 0.174718 0.0327519 -0.214873 0.692581 -0.757457 0.00110961 -0.324287 0.0796806 -0.335667 0.292632 -0.0588991 -0.538166 -0.327227 -0.455917 0.169741 0.512667 -0.187558 -0.0609105 -0.468212 1.0665 -0.930293 -0.563722
25 0.481749 -0.29084 0.0778586 -0.374401 0.117761 0.828727 -0.571605 -0.205163 -0.53783 0.324721 0.0794192 -0.0225458 -0.159382 0.642954 -0.619758 0.151184 -0.274537 0.076096 -0.284299 0.275234 -0.0354694 -0.402567 -0.17029 -0.26546 0.210291 0.488628 -0.375425 -0.0405672 -0.143354 0.818783 -0.816466 -0.354425
854 0.312198 -0.150664 0.0440984 -0.165033 0.133791 0.551711 -0.412222 -0.143471 -0.37313 0.270815 0.0741755 0.00605365 -0.0793754 0.472283 -0.406639 0.0652547 -0.252407 -0.032908 -0.288774 0.233634 -0.104532 -0.132699 -0.0849355 -0.177058 0.187787 0.348168 -0.410982 0.0572802 -0.080881 0.671916 -0.80902 -0.318914
539 0.393097 -0.249859 0.0840558 -0.318301 0.157068 0.775576 -0.492539 -0.252462 -0.45363 0.324575 0.0903232 0.0310695 -0.144483 0.539357 -0.527868 0.0860242 -0.280586 -0.0194766 -0.266477 0.287419 -0.0608691 -0.244195 -0.155513 -0.18754 0.261936 0.395204 -0.374492 0.0318872 -0.216004 0.789027 -0.864105 -0.330002
849 0.141897 -0.00718477 -0.0414385 -0.102817 0.304499 0.625951 -0.434309 -0.223177 -0.364996 0.354846 0.131212 0.0528005 -0.0586067 0.380296 -0.102724 -0.0530813 -0.204723 -0.186475 -0.23347 0.333044 -0.244021 0.128089 -0.143792 -0.0621447 0.463967 0.362089 -0.52885 0.17979 0.0609977 0.440065 -0.911037 -0.285099
470 0.124205 0.0378098 -0.0219012 -0.167583 0.422926 0.825635 -0.550578 -0.285651 -0.474628 0.486736 0.172255 0.054781 -0.117911 0.409386 -0.0538304 -0.0914789 -0.181554 -0.190636 -0.233943 0.39203 -0.306489 0.143487 -0.189816 -0.0180367 0.580463 0.381159 -0.576891 0.222059 0.102385 0.403319 -0.921609 -0.295074
311 0.117215 -0.0139042 -0.101472 -0.0671123 0.559216 0.992671 -0.718994 -0.310738 -0.52177 0.573195 0.276182 0.0917735 -0.100353 0.422887 0.146354 -0.147161 -0.210234 -0.279515 -0.23136 0.508892 -0.367251 0.233228 -0.3246 -0.077099 0.732142 0.560938 -0.736934 0.274134 0.133967 0.34696 -1.13532 -0.399968
191 -0.0290857 -0.0448045 -0.131075 0.100087 -0.0342535 0.178378 -0.227408 0.140679 -0.162108 0.121965 0.108055 0.0660258 0.0355515 0.441384 -0.246843 -0.0780892 -0.332051 -0.0734046 -0.250463 0.214001 -0.256658 0.200761 0.00471126 -0.198339 0.231578 0.322574 -0.52793 0.226932 0.128965 0.53967 -0.976192 -0.285754
14 0.426023 -0.304676 -0.00175699 -0.323015 0.104862 0.939767 -0.665629 -0.124959 -0.625793 0.362659 0.112136 0.0292895 -0.128993 0.640136 -0.559807 -0.0104868 -0.362818 0.0420183 -0.200733 0.29305 -0.120988 -0.267131 -0.19234 -0.321647 0.208033 0.488923 -0.360972 0.0932944 -0.152635 0.813885 -0.929968 -0.346721
87 0.158318 -0.0205806 -0.0894136 -0.436928 0.15243 0.251247 -0.3449 -0.0533565 -0.361118 0.260167 0.0196247 0.0508887 0.000263015 0.670412 -0.495512 0.373258 -0.201296 0.116883 -0.351824 0.245515 -0.110977 -0.406752 -0.0355213 -0.262352 0.316379 0.326271 -0.723111 0.0079627 0.637248 0.446853 -0.880744 -0.222565
562 0.103765 0.0242042 -0.0623612 -0.26628 0.131989 0.207925 -0.233393 -0.0739164 -0.256998 0.215693 0.0475716 0.0323377 -0.0327997 0.561472 -0.413457 0.256308 -0.23649 0.0483526 -0.331015 0.250078 -0.159356 -0.238993 -0.00235502 -0.181574 0.305683 0.285176 -0.644018 0.0693151 0.463964 0.48442 -0.899079 -0.241407
80 0.0381736 0.0168399 -0.224891 -0.526107 0.133658 0.0893673 -0.277141 0.0474849 -0.317735 0.216113 0.0115917 0.0889536 0.00179176 0.707075 -0.485483 0.48613 -0.197348 0.190719 -0.402723 0.268594 -0.152369 -0.572412 -0.089374 -0.3461 0.40571 0.373692 -0.823091 -0.0106172 0.862636 0.421446 -0.991115 -0.255543
47 0.277936 -0.112986 0.0691219 -0.281161 0.157235 0.594827 -0.384301 -0.219705 -0.368722 0.294887 0.0673044 0.0238869 -0.0870393 0.46334 -0.37002 0.112532 -0.20979 -0.0079578 -0.251593 0.211866 -0.0794854 -0.165822 -0.0812764 -0.11999 0.240026 0.277058 -0.385511 0.0380356 -0.014498 0.585905 -0.754166 -0.261016
610 0.155161 0.0356399 0.00787891 -0.172618 0.322868 0.694975 -0.474192 -0.308591 -0.409088 0.347041 0.120515 0.061344 -0.0714955 0.425747 -0.124147 0.0137147 -0.273577 -0.186457 -0.231837 0.398144 -0.22527 0.102532 -0.178274 -0.0724369 0.485978 0.436901 -0.632019 0.226705 0.0937384 0.511986 -0.981242 -0.389099
858 0.127174 -0.00194728 -0.0211517 -0.196926 0.261378 0.562532 -0.384709 -0.229475 -0.368749 0.290518 0.111849 0.0723855 -0.0680473 0.448379 -0.164239 0.0791375 -0.262001 -0.132855 -0.235981 0.343359 -0.202582 0.056684 -0.148448 -0.0886538 0.473157 0.426837 -0.624591 0.175844 0.17563 0.497869 -0.969436 -0.307557
775 0.139875 0.0624985 -0.0574981 -0.194049 0.31724 0.563791 -0.435225 -0.262718 -0.354033 0.374764 0.116186 0.0648525 -0.0395153 0.400425 -0.148674 0.0112683 -0.166837 -0.154558 -0.286911 0.314013 -0.265054 0.071535 -0.071688 -0.0739268 0.405909 0.251953 -0.477954 0.142822 0.140235 0.409063 -0.802648 -0.328617
731 -0.059193 0.159401 -0.0520682 -0.0541313 -0.0261502 0.00798696 0.104104 -0.120932 -0.0784777 -0.0861779 -0.0719623 -0.0467087 -0.0127265 0.392972 -0.355539 -0.0846598 -0.327933 -0.0608159 -0.205068 0.343723 -0.175866 0.0615297 -0.0507264 -0.0661241 0.36074 0.292226 -0.552368 0.284586 0.15084 0.68855 -0.850006 -0.453001
547 -0.0155967 0.185456 -0.128545 -0.0610835 0.00478438 0.00222234 0.0393143 -0.2021 -0.0956128 -0.0685957 -0.0720369 -0.04099 -0.0477994 0.379619 -0.383432 -0.0779641 -0.359052 -0.0549945 -0.242328 0.380807 -0.164091 0.0319232 -0.103636 -0.10798 0.308398 0.312713 -0.547008 0.270777 0.148986 0.779316 -0.865357 -0.523918
708 -0.129431 0.33772 -0.225997 -0.0588823 0.0261687 -0.186656 0.259462 -0.273054 -0.0063367 -0.269613 -0.141628 -0.0440064 -0.0734689 0.352969 -0.342018 -0.0564948 -0.35985 -0.098004 -0.237862 0.54132 -0.166467 -0.0224659 -0.202316 -0.102404 0.483011 0.364865 -0.695083 0.318268 0.264242 0.831837 -0.922144 -0.714425
937 0.0422719 0.069475 -0.0542175 -0.122207 0.0733215 0.231292 -0.125159 -0.166884 -0.22863 0.0896968 -0.00462806 -0.0140776 -0.0522961 0.43947 -0.359204 0.0130455 -0.327742 -0.0654501 -0.280393 0.330991 -0.178036 0.0454229 -0.0496943 -0.101985 0.38486 0.345237 -0.586775 0.20222 0.164862 0.670323 -0.959179 -0.400017
717 -0.0214003 0.172355 -0.0164215 -0.0459332 -0.0161815 0.0863974 0.0602576 -0.14449 -0.154683 -0.0399379 -0.0533388 -0.0491854 -0.0313876 0.419484 -0.344886 -0.109821 -0.405501 -0.030834 -0.205362 0.378098 -0.176494 0.0951068 -0.0369579 -0.0767862 0.353894 0.348075 -0.533335 0.294608 0.152121 0.716074 -0.902911 -0.445896
174 0.00709057 0.178932 -0.190046 -0.0481731 -0.0205544 0.0503359 0.0340557 -0.187414 -0.146095 -0.0821751 -0.0385226 -0.00555458 -0.0517021 0.391093 -0.368263 -0.142252 -0.390212 -0.085406 -0.222235 0.423602 -0.208097 0.0800153 -0.105419 -0.165695 0.322112 0.328626 -0.506505 0.296463 0.0627843 0.835471 -0.904553 -0.604783
316 0.0843848 0.0450758 -0.0304217 -0.0850037 0.423389 0.838557 -0.524375 -0.313361 -0.404927 0.438183 0.205903 0.107451 -0.111958 0.351303 0.134863 -0.1142 -0.176499 -0.293063 -0.141818 0.45774 -0.283532 0.239906 -0.275427 -0.031739 0.668946 0.486773 -0.641285 0.294105 0.0571347 0.334391 -0.989776 -0.327419
318 0.277763 -0.0338022 0.310067 0.142687 0.276335 0.548371 -0.365861 -0.350901 -0.301162 0.436577 0.15918 -0.149015 -0.189245 0.445034 -0.264155 0.161733 -0.253683 -0.121336 -0.417205 0.268174 -0.105932 0.13646 -0.0106795 0.0467575 0.140665 0.453156 -0.717832 0.0178291 -0.023358 0.64715 -1.03484 -0.286032
475 0.147597 -0.000667985 0.0134794 -0.0742869 0.321152 0.666184 -0.44602 -0.253322 -0.375517 0.401833 0.160009 0.034895 -0.0904861 0.393682 -0.0642175 -0.00977249 -0.209434 -0.163814 -0.248188 0.342126 -0.22729 0.139373 -0.153436 -0.051195 0.425313 0.414153 -0.570239 0.171022 0.0820206 0.444773 -0.928931 -0.279948
726 0.113771 0.0668749 -0.0510175 -0.0198323 0.551307 0.970432 -0.616018 -0.352709 -0.520456 0.470176 0.24202 0.0238268 -0.175781 0.372032 0.158725 -0.159345 -0.212124 -0.298243 -0.196595 0.543002 -0.345106 0.285937 -0.374949 -0.0391093 0.704519 0.581182 -0.702712 0.27531 0.0573362 0.403513 -1.10786 -0.365571
819 0.166821 -0.0127112 0.0515924 -0.186867 0.220254 0.613924 -0.405415 -0.223628 -0.402338 0.335272 0.0895704 0.0266213 -0.0619221 0.457666 -0.250407 0.0281919 -0.27278 -0.107394 -0.222158 0.328238 -0.187159 0.0773009 -0.0947486 -0.0789047 0.422495 0.370271 -0.586025 0.173459 0.158999 0.508784 -0.941217 -0.276066
817 0.189968 -0.033989 0.0694736 -0.193009 0.271555 0.696738 -0.430644 -0.269159 -0.398039 0.386178 0.0929143 0.0271082 -0.0858355 0.474473 -0.242745 0.0547311 -0.295183 -0.138511 -0.272588 0.354991 -0.206861 0.112096 -0.106053 -0.054803 0.44924 0.398159 -0.642462 0.193787 0.0743426 0.610729 -1.07755 -0.329046
15 0.104627 0.0614117 0.319701 -0.181466 -0.130918 0.656824 -0.286618 0.120146 -0.566575 0.269489 -0.070247 -0.0224764 -0.0469007 0.645166 -0.59309 -0.184147 -0.446985 0.184773 -0.0659659 0.195071 -0.273196 0.125403 0.161508 -0.0771778 0.350229 0.457181 -0.464381 0.400722 0.245698 0.657681 -0.852267 -0.0228543
211 -0.00103362 0.177063 0.340781 -0.0215528 -0.175158 0.46421 -0.0458493 0.150724 -0.46578 0.203668 -0.128214 -0.00888483 -0.0191391 0.540871 -0.498926 -0.233381 -0.462917 0.0708752 -0.0195085 0.186379 -0.285044 0.401414 0.265723 0.0828113 0.324689 0.347523 -0.529996 0.517605 0.281636 0.676648 -0.978802 0.0363129
128 0.339495 0.231329 0.0441023 -0.693548 0.331022 0.500125 -0.561531 -0.543364 -0.486335 0.650858 0.0590887 0.102455 0.03198 0.71762 -0.751291 0.231819 -0.131612 -0.0657283 -0.690749 0.189042 -0.421991 -0.069186 0.2981 -0.0334757 0.368143 -0.256253 -0.567179 0.0827805 0.383232 0.715308 -0.877587 -0.540008
379 0.0712054 0.0313021 -0.0353756 -0.226794 0.125579 0.165404 -0.232296 -0.103217 -0.213404 0.196414 0.0506818 0.0319117 0.00651148 0.465524 -0.359186 0.177858 -0.148402 -0.0141179 -0.329296 0.185618 -0.186115 -0.145048 0.0119094 -0.128508 0.269785 0.155855 -0.520484 0.0611322 0.330074 0.429974 -0.743149 -0.277443
83 0.0655452 -0.0188471 -0.165226 -0.416775 -0.00308591 0.0845327 -0.22012 0.0886433 -0.299051 0.0771534 -0.021498 0.00508123 -0.01364 0.657871 -0.576133 0.417398 -0.256242 0.240004 -0.324315 0.216044 -0.0612781 -0.592976 -0.105453 -0.357351 0.239738 0.403121 -0.686809 -0.0034016 0.722001 0.488326 -0.837923 -0.253282
90 0.0298403 -0.0957669 -0.12524 -0.21285 -0.0199415 0.0464022 -0.137083 0.126728 -0.19722 0.0888078 0.0140041 0.0329146 0.0138676 0.570238 -0.47659 0.267544 -0.2515 0.0884775 -0.294155 0.179088 -0.132939 -0.318862 -0.0345729 -0.297756 0.272829 0.356812 -0.647109 0.0440458 0.458834 0.494257 -0.880657 -0.200639
175 -0.0881201 -0.106078 -0.281075 0.209304 -0.155411 -0.0687025 -0.220141 0.338812 -0.038346 0.069194 0.120878 0.0897053 0.120256 0.522954 -0.350421 -0.0349499 -0.456404 -0.0595488 -0.366851 0.142565 -0.331946 0.196545 0.0533096 -0.356723 0.117875 0.290461 -0.584165 0.224727 0.214154 0.640907 -1.18107 -0.366734
7 0.0261166 -0.184691 -0.480441 0.211196 -0.102046 0.172964 -0.484798 0.346089 -0.214696 0.137949 0.212154 0.070879 0.141632 0.502364 -0.308067 -0.152403 -0.476376 -0.0525577 -0.348303 0.147889 -0.325558 0.135321 -0.0406019 -0.518654 0.0300753 0.341729 -0.397486 0.219166 0.0906205 0.692935 -1.2239 -0.500892
270 0.104378 -0.00228843 -0.0950928 -0.0701602 0.0782206 0.306045 -0.327984 -0.031398 -0.244988 0.242643 0.11089 0.0453193 0.0378985 0.45677 -0.338735 0.0102356 -0.300889 -0.0695773 -0.318058 0.200148 -0.247537 0.0693389 0.0419342 -0.185035 0.219626 0.204465 -0.491569 0.133642 0.132218 0.565444 -0.920346 -0.346783
342 0.114063 -0.140185 -0.216498 0.0459282 0.000111023 0.345 -0.402819 0.10279 -0.259789 0.181981 0.148259 0.0191532 0.0528604 0.483004 -0.321073 -0.0355766 -0.372865 -0.0505872 -0.298659 0.166488 -0.26346 0.059722 -0.047324 -0.320295 0.190126 0.339436 -0.47871 0.168963 0.0709447 0.641888 -1.05908 -0.399886
972 0.0734488 -0.0362965 -0.0924373 -0.00524162 0.0484341 0.286971 -0.293576 -0.0121848 -0.229773 0.179448 0.103704 0.0229135 0.00280665 0.476019 -0.285588 0.00278766 -0.345972 -0.0846094 -0.302599 0.226133 -0.241761 0.110881 -0.0336876 -0.174101 0.290419 0.34734 -0.563679 0.176148 0.136338 0.595036 -1.06185 -0.344562
793 0.0411849 0.0427595 0.103164 -0.124047 -0.0260885 0.27631 -0.115958 0.0248305 -0.282991 0.13754 -0.022003 0.0303176 -0.015524 0.475291 -0.395203 -0.0291558 -0.310229 0.00499166 -0.186615 0.217687 -0.209459 0.0728829 0.0754827 -0.0515778 0.350929 0.31184 -0.551261 0.267715 0.225826 0.547618 -0.856811 -0.160659
84 0.0351696 -0.0147648 -0.0810592 -0.370593 0.0281732 0.134256 -0.203958 0.205369 -0.378905 0.198271 0.000947962 0.0715705 -0.0111795 0.688426 -0.549917 0.360126 -0.244534 0.237547 -0.304814 0.195128 -0.155282 -0.423085 -0.0265729 -0.293654 0.376205 0.376632 -0.783257 0.0624466 0.781632 0.399142 -0.884852 -0.0932533
105 0.161179 -0.0404516 -0.018987 -0.28204 0.084212 0.285818 -0.270811 -0.0317065 -0.342495 0.21756 0.024761 0.0456574 -0.0178943 0.553817 -0.45051 0.22027 -0.280506 0.0731137 -0.305452 0.239858 -0.147761 -0.206547 -0.0577299 -0.207615 0.292992 0.352283 -0.590212 0.0660818 0.35765 0.540941 -0.885875 -0.23932
81 0.311702 0.183861 -0.0816246 -0.595386 0.465358 0.541376 -0.663433 -0.479741 -0.521474 0.697851 0.109341 0.0498339 0.0382169 0.703696 -0.662977 0.203414 -0.116207 -0.0983074 -0.74631 0.250537 -0.461089 -0.119072 0.205539 -0.1127 0.35924 -0.164553 -0.564119 0.0500824 0.453434 0.625951 -0.851148 -0.520351
364 0.256189 0.216642 -0.0707638 -0.417133 0.32369 0.315983 -0.501077 -0.371572 -0.342574 0.577631 0.12955 0.0591911 0.0480718 0.586703 -0.504432 0.190997 -0.102118 -0.118986 -0.670545 0.158682 -0.423625 -0.0436549 0.221351 -0.0958999 0.273888 -0.182738 -0.532891 0.0700016 0.437552 0.552865 -0.809922 -0.456249
132 0.244683 0.315711 -0.00250199 -0.546974 0.45426 0.401338 -0.543541 -0.414068 -0.446045 0.674917 0.121039 0.0897229 0.0103257 0.723077 -0.671911 0.220305 -0.0794505 -0.0894477 -0.708365 0.24888 -0.519222 -0.0327544 0.314764 -0.0216051 0.431049 -0.24153 -0.666038 0.126161 0.605585 0.568427 -0.888016 -0.461137
987 0.154496 0.0674729 -0.00449395 -0.278593 0.210753 0.328158 -0.309646 -0.236172 -0.27352 0.330265 0.0671565 0.0402666 -0.0362291 0.450765 -0.402993 0.12329 -0.147795 -0.039466 -0.34516 0.194847 -0.209307 -0.0397511 0.0500968 -0.0534452 0.304859 0.0912518 -0.478078 0.0852624 0.249944 0.478894 -0.716153 -0.291907
348 0.000729486 -0.0099558 -0.166079 0.0636775 -0.033288 0.125409 -0.195989 0.105775 -0.121125 0.116477 0.0525119 0.0355848 0.0456117 0.395682 -0.276089 -0.0494776 -0.351453 -0.0680843 -0.247702 0.199721 -0.260436 0.167476 0.0355557 -0.186843 0.195679 0.293281 -0.52199 0.207122 0.176893 0.581792 -0.998321 -0.317946
189 0.00115366 -0.010867 -0.246695 0.133199 -0.0737021 0.00201416 -0.24662 0.175549 -0.0984514 0.151632 0.0955412 0.0752621 0.149545 0.449706 -0.313775 -0.0725471 -0.401854 -0.0507894 -0.356635 0.153631 -0.344132 0.230257 0.106702 -0.283854 0.127722 0.216078 -0.530151 0.229526 0.22317 0.628629 -1.12004 -0.418579
740 0.192434 0.0882712 -0.0129587 -0.283314 0.200927 0.370753 -0.417208 -0.255347 -0.307422 0.420111 0.0746116 0.0410777 -0.0177997 0.532191 -0.409943 0.083227 -0.161712 -0.0763748 -0.460121 0.216913 -0.324098 -0.00205396 0.100004 -0.109226 0.302575 0.04991 -0.47939 0.123119 0.248247 0.540367 -0.808129 -0.366815
152 0.237647 0.157999 -0.00599071 -0.383719 0.272242 0.464871 -0.499061 -0.364576 -0.372868 0.490875 0.0703382 0.0522653 7.84907e-05 0.520868 -0.456308 0.126948 -0.125485 -0.0691642 -0.48696 0.207162 -0.328699 -0.0309868 0.140537 -0.0614879 0.277107 -0.0618713 -0.441161 0.070707 0.279077 0.502454 -0.719784 -0.402441
127 0.306767 0.273548 -0.0457887 -0.561199 0.441625 0.512881 -0.690343 -0.560821 -0.459253 0.745559 0.144664 0.101383 0.033836 0.71989 -0.663221 0.173941 -0.100524 -0.117526 -0.809356 0.266852 -0.532891 0.0235348 0.302346 -0.043265 0.392647 -0.260791 -0.578903 0.0813468 0.425688 0.645365 -0.9211 -0.613138
257 0.172519 0.0463755 0.0375455 -0.189669 0.173651 0.333641 -0.368901 -0.21436 -0.29222 0.36264 0.0691899 0.0071575 -0.00201869 0.473412 -0.375728 0.110034 -0.224124 -0.0771531 -0.414963 0.195072 -0.211289 0.025124 0.0886585 -0.0665345 0.211819 0.151941 -0.515963 0.0948395 0.205253 0.538129 -0.819561 -0.354178
931 0.0934299 0.000409132 -0.00401678 -0.157129 0.0885409 0.235909 -0.219106 -0.0427359 -0.248934 0.216102 0.0463289 -0.00163285 -0.0194866 0.525778 -0.381528 0.162602 -0.287666 0.00402722 -0.328982 0.230125 -0.182482 -0.106109 0.00825807 -0.16011 0.328985 0.330565 -0.645395 0.112154 0.332659 0.562625 -0.968308 -0.286181
99 0.106702 0.0255083 0.00365665 -0.222377 0.118733 0.216858 -0.21023 -0.111452 -0.251149 0.242652 0.0244957 -0.0123431 -0.00557398 0.551109 -0.410254 0.28282 -0.245342 0.0293599 -0.388561 0.220816 -0.143499 -0.170074 0.00937618 -0.134548 0.260536 0.294644 -0.712219 0.0403891 0.441574 0.510608 -0.948088 -0.262548
108 0.0818677 0.0740437 -0.0658498 -0.244468 0.0521409 0.170027 -0.125791 -0.118108 -0.239717 0.10895 -0.0199354 0.0199439 0.00984054 0.478173 -0.398075 0.175933 -0.302007 0.0310513 -0.27097 0.278486 -0.127648 -0.133719 -0.0373165 -0.13875 0.305046 0.288819 -0.630045 0.118209 0.381627 0.568925 -0.910597 -0.299139
109 0.141553 0.0390056 -0.0228094 -0.290401 0.152305 0.314089 -0.310957 -0.126078 -0.360087 0.322873 0.0466154 0.0322256 -0.00240866 0.541742 -0.432455 0.198591 -0.225689 0.0193121 -0.389247 0.219799 -0.179938 -0.13813 0.0479559 -0.151252 0.281859 0.222702 -0.593103 0.0696764 0.428119 0.513061 -0.891714 -0.271683
822 0.0915774 -0.00557827 -0.0114989 -0.186502 0.111601 0.324666 -0.22671 -0.0940431 -0.247147 0.205707 0.0437325 0.0184736 -0.0276074 0.429942 -0.297793 0.138213 -0.222617 -0.01508 -0.239277 0.242272 -0.161091 -0.0420825 -0.0300483 -0.088792 0.328154 0.290425 -0.56242 0.129653 0.242684 0.49599 -0.8739 -0.266113
94 0.0702477 0.000854966 -0.0329773 -0.208459 0.0429061 0.132087 -0.18108 0.0221555 -0.240844 0.154627 0.00317274 0.0133087 0.0100561 0.500685 -0.391908 0.217234 -0.251273 0.0566277 -0.292143 0.18452 -0.132594 -0.186825 0.00985643 -0.161141 0.224833 0.308346 -0.598192 0.0721101 0.428217 0.488567 -0.857032 -0.221643
686 0.052381 -0.0520748 -0.0928015 -0.0800188 0.0150617 0.159379 -0.216045 0.0698965 -0.212156 0.161944 0.0311239 0.0204673 0.0428604 0.502319 -0.353527 0.136881 -0.302685 0.00474511 -0.293132 0.184913 -0.185397 -0.0458924 0.0204481 -0.21685 0.230471 0.285742 -0.57861 0.110971 0.318175 0.553451 -0.987459 -0.276648
578 -0.0158417 0.00585395 -0.193939 -0.268433 0.0983737 0.0799402 -0.197337 0.109168 -0.21546 0.0957791 0.0660088 0.0680807 -0.0147564 0.548773 -0.35595 0.2925 -0.199447 0.061598 -0.263068 0.287647 -0.178209 -0.382554 -0.132073 -0.294653 0.418893 0.378277 -0.765559 0.0551477 0.617872 0.408547 -0.920939 -0.224759
400 0.0658538 0.0934591 -0.00978204 -0.280967 0.0710968 0.166529 -0.193666 -0.0699053 -0.26348 0.227128 0.0126413 0.0173243 -6.77635e-05 0.573496 -0.509283 0.227919 -0.234019 0.0574782 -0.351286 0.218141 -0.224853 -0.151425 0.0601191 -0.149663 0.295437 0.196063 -0.668576 0.103268 0.511396 0.5182 -0.865739 -0.248991
129 0.19015 0.355542 -0.082454 -0.670043 0.428588 0.221726 -0.482151 -0.515998 -0.30571 0.637093 0.102814 0.121779 0.0234182 0.717966 -0.671001 0.259568 -0.0552035 -0.1007 -0.806226 0.264861 -0.534704 -0.0783627 0.308175 -0.0378879 0.465358 -0.294612 -0.681849 0.100973 0.646255 0.663417 -0.911921 -0.623178
816 0.0507949 0.0634299 0.126204 -0.0810004 0.0456175 0.39676 -0.196317 -0.0521162 -0.300629 0.200307 -0.000629348 0.0418351 -0.0481175 0.453703 -0.306309 -0.0459866 -0.294419 -0.0481411 -0.19675 0.236377 -0.217739 0.168525 0.031229 0.00223239 0.361756 0.332384 -0.558683 0.267969 0.146441 0.570522 -0.925151 -0.191637
479 0.13417 0.00483348 0.0361977 -0.147262 0.240271 0.658624 -0.360582 -0.204615 -0.37885 0.335365 0.0907891 0.0647492 -0.0754947 0.371967 -0.125376 -0.0496414 -0.246049 -0.141043 -0.157035 0.317605 -0.20881 0.170569 -0.102761 -0.0069425 0.472567 0.382885 -0.517833 0.248554 0.0872035 0.457804 -0.890657 -0.266649
309 0.0674971 0.064878 -0.0821605 -0.0642511 0.601023 1.06859 -0.719655 -0.297104 -0.568011 0.584587 0.298503 0.112818 -0.137772 0.434424 0.224951 -0.089417 -0.171062 -0.328844 -0.17832 0.562035 -0.411896 0.250505 -0.357445 -0.0634653 0.799605 0.664945 -0.864019 0.342597 0.255285 0.2886 -1.21625 -0.294013
476 0.131332 0.00116355 0.0303207 -0.146903 0.3255 0.692065 -0.477269 -0.248577 -0.392291 0.430496 0.154172 0.0694845 -0.082057 0.38418 -0.0825238 -0.0239542 -0.215704 -0.177521 -0.236336 0.351803 -0.267731 0.125125 -0.114941 -0.0402456 0.476426 0.370589 -0.55608 0.224901 0.128569 0.400373 -0.923097 -0.288066
612 0.153481 0.0439415 -0.00638659 -0.19484 0.324824 0.675163 -0.524048 -0.291752 -0.403502 0.439447 0.153424 0.0717517 -0.0604592 0.441664 -0.177822 -0.00495044 -0.205233 -0.163135 -0.29822 0.353086 -0.285643 0.0912781 -0.0802663 -0.0566342 0.485469 0.30377 -0.557054 0.188441 0.0991826 0.492584 -0.909892 -0.367529
385 0.456526 -0.208755 0.122025 -0.345408 0.194467 0.865795 -0.559756 -0.313677 -0.514621 0.375941 0.118423 0.0213857 -0.130046 0.552231 -0.552511 0.0778943 -0.273324 -0.0314323 -0.31185 0.27394 -0.0736431 -0.22398 -0.14228 -0.198316 0.235525 0.33633 -0.345237 0.0148865 -0.231497 0.794064 -0.825497 -0.389341
53 0.522935 -0.339732 0.0809876 -0.397198 0.171412 0.940492 -0.65692 -0.25403 -0.532466 0.373764 0.175973 0.0391998 -0.168962 0.654412 -0.66532 0.0984237 -0.305206 0.0233925 -0.359261 0.294931 -0.0409233 -0.369141 -0.228734 -0.3181 0.199798 0.422586 -0.27524 -0.0724927 -0.38844 0.911064 -0.870244 -0.456105
463 0.411287 -0.221017 0.0953919 -0.275683 0.189515 0.789902 -0.473534 -0.256934 -0.480005 0.325568 0.096454 -0.0110997 -0.142804 0.532332 -0.497637 0.105715 -0.279519 -0.0188389 -0.268262 0.288336 -0.0746073 -0.218323 -0.143037 -0.185032 0.259538 0.357647 -0.406211 0.0436901 -0.189527 0.754302 -0.867856 -0.326271
380 0.475827 -0.224798 0.0911022 -0.338139 0.254765 0.945628 -0.611337 -0.325128 -0.5629 0.432265 0.139887 0.0180835 -0.171339 0.572697 -0.534257 0.0768293 -0.281476 -0.0493402 -0.34299 0.304981 -0.0749904 -0.258247 -0.15187 -0.190198 0.289755 0.380478 -0.373596 -0.00186132 -0.238033 0.812986 -0.875601 -0.375689
939 0.359728 -0.225917 0.170575 -0.218012 0.143754 0.690731 -0.408378 -0.272452 -0.38922 0.332764 0.0771666 -0.0556988 -0.162608 0.513485 -0.513402 0.104717 -0.241734 -0.0133584 -0.311732 0.230767 -0.0329209 -0.166722 -0.111841 -0.141778 0.214494 0.421174 -0.41918 -0.0138026 -0.199135 0.781763 -0.852594 -0.308428
74 0.155473 -0.00847304 0.0955453 -0.192045 0.0423961 0.474912 -0.291873 -0.113999 -0.359739 0.246538 0.029661 0.0107322 -0.0435939 0.495312 -0.432202 0.00942942 -0.315982 0.0112201 -0.241637 0.215151 -0.174445 0.0156353 0.0262272 -0.0828348 0.290611 0.296044 -0.446425 0.185665 0.10663 0.607416 -0.851971 -0.226638
702 0.0476443 0.0329655 0.0128553 -0.0883692 -0.0302418 0.262116 -0.162192 0.0253729 -0.281962 0.149079 -0.00701331 0.0285815 -0.00275156 0.489296 -0.392997 -0.0250547 -0.346136 -0.000147139 -0.234593 0.232499 -0.220489 0.0946753 0.049715 -0.116682 0.287918 0.316825 -0.537729 0.258884 0.185574 0.601535 -0.925116 -0.234183
339 -0.0297216 -0.110422 -0.373303 0.295248 -0.183491 0.066999 -0.379876 0.40769 -0.154108 0.106007 0.183556 0.0839806 0.149492 0.523816 -0.303059 -0.130221 -0.477205 -0.0650767 -0.344891 0.115324 -0.394781 0.279112 0.0764293 -0.449356 0.0241862 0.354608 -0.565852 0.219898 0.174037 0.658986 -1.27914 -0.387152
184 0.0329988 -0.144401 -0.252724 0.111744 -0.0923679 0.110282 -0.349519 0.165785 -0.100971 0.102264 0.161897 0.0467726 0.0752092 0.465899 -0.308977 -0.0757767 -0.363547 -0.0680939 -0.349278 0.157031 -0.249234 0.11834 0.00557012 -0.33765 0.0939882 0.263808 -0.408439 0.132544 0.0146681 0.643192 -1.00366 -0.402925
341 0.0149366 -0.215433 -0.308918 0.149838 -0.118488 0.164901 -0.402558 0.238878 -0.136276 0.111009 0.184647 0.0663026 0.127022 0.467726 -0.218536 -0.0444422 -0.452866 -0.0916676 -0.33557 0.103976 -0.21363 0.154831 0.00809177 -0.384382 0.0826721 0.351275 -0.464653 0.158516 0.0246933 0.599111 -1.15091 -0.383175
550 0.349547 -0.144918 0.0971527 -0.305002 0.181291 0.727065 -0.518216 -0.265671 -0.446788 0.349499 0.0773672 0.00880252 -0.130016 0.531979 -0.445909 0.0748605 -0.290616 -0.0420362 -0.305272 0.282079 -0.111554 -0.144388 -0.109368 -0.152336 0.304345 0.358929 -0.421373 0.080915 -0.0963344 0.718465 -0.89904 -0.367082
5 0.510714 -0.378071 0.0800886 -0.486357 0.0630863 0.903795 -0.615312 -0.224666 -0.544432 0.224044 0.0537666 0.0304784 -0.212056 0.698957 -0.762994 0.0994612 -0.37412 0.0763681 -0.272566 0.378322 0.0374295 -0.493296 -0.268122 -0.316291 0.295472 0.546651 -0.303521 -0.00815881 -0.353939 1.02205 -0.892435 -0.461996
56 0.49183 -0.325268 0.135342 -0.363737 0.140383 0.941549 -0.590193 -0.254719 -0.548332 0.328519 0.121174 0.0405467 -0.156749 0.544216 -0.588555 0.0589575 -0.293579 -0.00663357 -0.241331 0.298933 -0.0144963 -0.29735 -0.198478 -0.231885 0.217599 0.412073 -0.270611 -0.0198761 -0.339135 0.822215 -0.78409 -0.393141
538 0.506365 -0.245087 0.0938774 -0.39411 0.217243 0.899523 -0.609426 -0.335745 -0.546124 0.358695 0.128676 0.0253689 -0.189769 0.579443 -0.577506 0.0625632 -0.261132 0.00367828 -0.284584 0.298453 -0.0507363 -0.323174 -0.199912 -0.247553 0.246136 0.36031 -0.302626 -0.0144544 -0.308585 0.809088 -0.752189 -0.412164
695 -0.0548333 0.156143 -0.163359 -0.0563483 0.0289481 0.00817617 0.121361 -0.284757 -0.0625346 -0.170537 -0.0566721 -0.0591862 -0.0691097 0.342498 -0.27255 -0.146708 -0.39829 -0.140757 -0.201009 0.492751 -0.12346 0.0223238 -0.208569 -0.126235 0.443004 0.397121 -0.572483 0.306561 0.0146819 0.831196 -0.953618 -0.674827
718 -0.0388552 0.140678 -0.0656497 -0.00794072 -0.0212069 -0.0509173 0.0919772 -0.161061 -0.0401058 -0.107645 -0.0474088 -0.036763 -0.0388949 0.393347 -0.355651 -0.0316177 -0.382393 -0.0986771 -0.24465 0.368038 -0.143546 0.063704 -0.069608 -0.0961934 0.367731 0.347097 -0.647773 0.275258 0.148356 0.79832 -1.02402 -0.520674
705 -0.0327339 0.292919 -0.214097 -0.0663183 -0.0239924 -0.12561 0.27184 -0.332445 -0.0543201 -0.350883 -0.171129 -0.0812638 -0.0843673 0.387272 -0.48493 -0.0924245 -0.439547 -0.0460789 -0.20739 0.546674 -0.0987971 -0.0757625 -0.259072 -0.138152 0.419949 0.429838 -0.6535 0.313029 0.151637 1.04142 -0.970227 -0.809917
714 -0.00532892 0.149347 -0.0845448 -0.0772837 0.0436921 0.0545149 0.0250017 -0.211573 -0.111229 -0.0217662 -0.0276682 -0.0168221 -0.0641892 0.410141 -0.371073 -0.00561714 -0.338236 -0.079198 -0.272102 0.360432 -0.152875 0.047194 -0.0676244 -0.10208 0.377569 0.331033 -0.599137 0.240431 0.164842 0.767968 -0.97394 -0.53144
828 0.124859 0.0977759 0.0279197 -0.0458878 0.101974 0.197465 -0.0836302 -0.238491 -0.179033 0.122595 0.030457 -0.06937 -0.0729554 0.383386 -0.324757 0.0258972 -0.283408 -0.0853846 -0.291277 0.285755 -0.119558 0.01259 -0.0511885 -0.0620699 0.207454 0.282225 -0.527428 0.122672 0.0517229 0.679748 -0.847446 -0.419773
791 0.0948572 0.000774238 -0.0518959 -0.275544 0.0612358 0.117564 -0.172001 0.00528084 -0.231351 0.160586 0.0098229 0.055509 0.00470379 0.572407 -0.456978 0.277078 -0.262751 0.0559458 -0.287196 0.221155 -0.125392 -0.217418 0.00999178 -0.174838 0.321853 0.295929 -0.688094 0.0962041 0.456456 0.499936 -0.904791 -0.222191
154 0.149688 0.125233 -0.0139589 -0.314533 0.21511 0.26695 -0.316112 -0.179722 -0.319158 0.341914 0.0483782 0.0300983 -0.0192921 0.467229 -0.386528 0.203017 -0.129502 -0.0190821 -0.381135 0.171486 -0.241721 -0.118861 0.0714625 -0.0904633 0.277774 0.0956402 -0.529571 0.0685006 0.416936 0.4041 -0.764704 -0.269588
586 0.0823905 0.0280085 -0.0272964 -0.193085 0.0683093 0.155243 -0.171207 -0.0638695 -0.201156 0.143985 0.024701 0.0273863 -0.0329983 0.492956 -0.383156 0.191143 -0.258837 0.0168981 -0.313964 0.256719 -0.154624 -0.162071 -0.0337182 -0.150901 0.310555 0.283365 -0.626681 0.111516 0.332183 0.546649 -0.895581 -0.259909
4 0.6445 -0.392686 0.119515 -0.447422 0.175009 1.0802 -0.626027 -0.335837 -0.602133 0.358196 0.0675294 0.0461741 -0.198202 0.702822 -0.766742 0.118216 -0.30885 0.00622074 -0.315042 0.301868 0.00686541 -0.423705 -0.184155 -0.255301 0.288331 0.38628 -0.312153 -0.0200351 -0.418196 1.04214 -1.03461 -0.426472
544 0.371385 -0.164734 0.107709 -0.26578 0.146294 0.725626 -0.436874 -0.281205 -0.436014 0.322796 0.0586114 0.0142983 -0.117699 0.504819 -0.466545 0.070559 -0.277393 -0.0527761 -0.260506 0.268912 -0.0610678 -0.111021 -0.0802967 -0.111412 0.261302 0.338177 -0.396312 0.0597574 -0.153279 0.732752 -0.888306 -0.304762
31 0.393265 -0.154596 0.0978583 -0.302254 0.137865 0.743993 -0.399274 -0.300388 -0.455819 0.290587 0.0473745 0.0229981 -0.120633 0.473656 -0.478472 0.0540531 -0.278077 -0.0450987 -0.230018 0.223455 -0.0553317 -0.155991 -0.112544 -0.109599 0.233162 0.281383 -0.359938 0.0759417 -0.144229 0.767349 -0.852585 -0.321176
383 0.383543 -0.210503 0.17785 -0.27814 0.125442 0.829273 -0.469217 -0.227891 -0.469868 0.303491 0.0739676 -0.00505792 -0.154326 0.507425 -0.522381 0.0456436 -0.282964 -0.000162624 -0.203371 0.258582 -0.0261133 -0.216292 -0.138431 -0.15798 0.225292 0.394739 -0.309275 0.0479407 -0.242459 0.742412 -0.764409 -0.311307
542 0.295899 -0.188705 0.134791 -0.237081 0.107704 0.635353 -0.385483 -0.243448 -0.352571 0.272094 0.0398715 0.00403662 -0.128569 0.451504 -0.367854 0.0704177 -0.244043 -0.060321 -0.242489 0.23677 -0.00251385 -0.13596 -0.0933893 -0.122342 0.216778 0.349871 -0.341491 0.0289275 -0.172271 0.64209 -0.75369 -0.275049
26 0.48466 -0.272325 0.257693 -0.228978 0.194222 0.845387 -0.508792 -0.331662 -0.475382 0.376649 0.122996 -0.0714844 -0.179213 0.514925 -0.486009 0.14748 -0.252276 -0.0526757 -0.315979 0.241563 0.0297546 -0.200823 -0.136564 -0.109991 0.131323 0.435124 -0.393103 -0.0529747 -0.281015 0.782725 -0.869891 -0.323492
393 0.334006 -0.162492 0.146102 -0.259374 0.161233 0.717608 -0.414479 -0.256812 -0.429289 0.333672 0.0687289 -0.0079345 -0.118754 0.45687 -0.422167 0.0509654 -0.248166 -0.040167 -0.224759 0.202808 -0.0477925 -0.128847 -0.0974946 -0.106653 0.208086 0.312296 -0.3345 0.0653078 -0.132413 0.653371 -0.765122 -0.255186
625 0.34579 -0.159319 0.104871 -0.285701 0.13654 0.74851 -0.438688 -0.238449 -0.453637 0.299143 0.0561283 0.0307169 -0.0963885 0.463531 -0.421651 0.0491562 -0.252518 -0.0378267 -0.216744 0.234 -0.0964666 -0.102079 -0.100476 -0.104654 0.237607 0.299676 -0.356854 0.0713285 -0.106408 0.656632 -0.733217 -0.272116
213 -0.00641527 0.178983 0.284625 -0.202477 -0.0589889 0.475512 -0.14901 0.0342628 -0.46901 0.263389 -0.0702879 0.0374309 -0.0149408 0.613725 -0.530107 -0.151832 -0.375069 0.0283243 -0.123827 0.238074 -0.313664 0.251916 0.185881 0.06388 0.473581 0.297215 -0.548395 0.459958 0.333637 0.674809 -0.95025 -0.089181
902 0.104002 0.0434918 0.157051 -0.141148 0.0173143 0.40892 -0.200926 -0.0999025 -0.321177 0.236891 -0.00793096 0.0267168 -0.0189495 0.51049 -0.444361 -0.0189578 -0.34565 -0.018415 -0.239172 0.231932 -0.214186 0.131653 0.0786453 -0.0228409 0.326104 0.290404 -0.5743 0.263155 0.147503 0.654831 -0.965801 -0.216849
747 0.01791 0.179869 0.228825 -0.162653 -0.0317534 0.381295 -0.196022 0.0212495 -0.399365 0.258581 -0.035415 0.0160197 -0.0231535 0.632694 -0.578537 -0.164696 -0.338415 0.0385044 -0.191504 0.229765 -0.335874 0.194947 0.17378 0.0152004 0.371743 0.225184 -0.477403 0.405628 0.282198 0.631165 -0.859158 -0.13838
117 0.137071 0.0431614 -0.0309997 -0.282017 0.131402 0.250878 -0.236965 -0.106736 -0.280025 0.260835 0.0241502 0.0378079 -0.00372855 0.501607 -0.413533 0.203015 -0.21333 0.0372575 -0.31379 0.199479 -0.151016 -0.130846 0.0224995 -0.127979 0.257883 0.228744 -0.539687 0.0883282 0.358383 0.466114 -0.79734 -0.227147
144 0.228962 0.15606 -0.0146496 -0.410149 0.362961 0.471044 -0.501522 -0.340454 -0.393354 0.517225 0.0963907 0.0569239 -0.0261687 0.550314 -0.462511 0.15253 -0.104158 -0.0711794 -0.491102 0.212521 -0.324482 -0.0566445 0.101657 -0.0597592 0.358836 0.0089391 -0.543823 0.0727761 0.38865 0.480574 -0.787263 -0.356794
408 0.210099 0.0922935 0.0302973 -0.343657 0.253481 0.478514 -0.421767 -0.300253 -0.391232 0.429665 0.0651779 0.0399323 -0.026122 0.495615 -0.42332 0.118585 -0.187456 -0.0873423 -0.384507 0.198587 -0.275973 0.0197742 0.114564 -0.0219911 0.308506 0.0651942 -0.516672 0.123226 0.255452 0.55003 -0.798741 -0.320552
884 0.139108 -0.013022 -0.000837521 -0.117887 0.261733 0.587066 -0.395178 -0.20914 -0.32052 0.341904 0.114867 0.0397973 -0.0692657 0.356353 -0.0911968 -0.0135547 -0.2303 -0.152324 -0.228506 0.323337 -0.220946 0.126798 -0.135606 -0.0435436 0.436513 0.375986 -0.528438 0.186785 0.0821934 0.453041 -0.881643 -0.295619
513 -0.0107611 -0.291824 0.389947 -0.480804 0.0149577 0.234248 -0.131132 -0.385908 -0.0242037 0.140813 -0.065679 -0.0805108 -0.0462319 0.352076 -0.116041 0.375075 -0.461997 -0.18579 -0.367863 0.309816 0.262553 0.11622 0.0964124 0.178573 0.43807 0.45363 -0.502063 0.105157 -0.145546 0.66564 -1.18144 -0.314712
50 0.0338819 -0.276357 0.451067 -0.689321 0.0104291 0.232033 -0.0444691 -0.652145 0.0501461 0.0859516 -0.204446 -0.0579581 0.00457984 0.367123 -0.187231 0.464554 -0.534508 -0.232647 -0.388069 0.374447 0.353238 0.10448 0.126823 0.288535 0.501361 0.392493 -0.434689 0.0723954 -0.231634 0.79117 -1.23483 -0.453516
369 0.0672517 -0.13304 0.219817 -0.350957 0.0786339 0.297651 -0.194305 -0.349557 -0.0879436 0.19142 -0.00611941 -0.0190527 -0.0338067 0.342702 -0.147477 0.224622 -0.34451 -0.175114 -0.289818 0.247579 0.0562594 0.0973487 0.0412521 0.114182 0.399585 0.320642 -0.458972 0.106563 -0.0655696 0.527882 -0.968385 -0.306126
664 0.0108098 -0.190485 0.213774 -0.280654 0.0214009 0.294466 -0.171661 -0.249283 -0.0981348 0.156479 0.0124539 -0.0305646 -0.0210854 0.436915 -0.160533 0.212248 -0.400801 -0.147024 -0.32471 0.288978 0.0555759 0.0918849 0.0135705 0.0467196 0.424498 0.456769 -0.558357 0.147116 -0.0394281 0.623649 -1.1354 -0.312115
554 0.0733181 -0.0803281 0.144871 -0.261377 0.0983235 0.328959 -0.188007 -0.338568 -0.180067 0.153499 -0.0198971 -0.007995 -0.0315006 0.360514 -0.152831 0.153934 -0.352772 -0.153469 -0.264224 0.304803 0.0144305 0.0907027 -0.0401761 0.0226239 0.418585 0.386085 -0.542241 0.167743 0.00512053 0.609509 -0.995671 -0.32552
537 0.278785 0.109275 0.0204736 -0.444056 0.265861 0.532777 -0.495349 -0.355572 -0.440851 0.508815 0.0743608 0.0720938 0.00215688 0.586691 -0.546523 0.159429 -0.169224 -0.0539873 -0.491008 0.19258 -0.278133 -0.0534638 0.144068 -0.0890549 0.269379 -0.0101109 -0.508859 0.0980785 0.266938 0.599604 -0.852139 -0.380046
376 0.173642 0.0628243 0.0784651 -0.283726 0.202653 0.478163 -0.355447 -0.242607 -0.348258 0.370628 0.0463974 0.0324363 -0.0139518 0.467051 -0.366784 0.0679409 -0.186804 -0.0791682 -0.340014 0.228741 -0.237868 0.0411336 0.0712495 -0.0403471 0.331315 0.127437 -0.454729 0.159903 0.182909 0.493438 -0.791604 -0.271777
813 0.04677 0.081415 0.135186 -0.11272 -0.033694 0.329176 -0.150005 -0.0306237 -0.292289 0.189966 -0.0314815 0.0263148 -0.0232873 0.521909 -0.427818 -0.044203 -0.358259 -0.0113762 -0.257661 0.265952 -0.242238 0.129437 0.108881 -0.0240357 0.377895 0.327441 -0.603171 0.299955 0.203068 0.658015 -0.99847 -0.231296
210 -0.0740761 0.214795 0.310335 -0.0709641 -0.193745 0.3646 0.00850186 0.147351 -0.427303 0.182002 -0.131671 0.000883187 0.00620386 0.597707 -0.518794 -0.226687 -0.455989 0.0732033 -0.0875428 0.2217 -0.329608 0.353999 0.291187 0.0661317 0.428107 0.341201 -0.558705 0.544022 0.35609 0.692483 -0.980526 -0.0479852
913 0.0660638 0.0529471 0.159693 -0.115396 -0.0356295 0.3664 -0.182556 -0.00108417 -0.318887 0.180263 -0.00984805 -0.0115329 -0.0537531 0.499176 -0.434208 -0.0653192 -0.324425 -0.0101552 -0.148387 0.214512 -0.210053 0.15591 0.0915 -0.0288554 0.315587 0.288693 -0.473379 0.287883 0.155995 0.614965 -0.8648 -0.176212
51 0.519371 -0.295107 0.113563 -0.293775 0.164142 0.856409 -0.556594 -0.267874 -0.526088 0.299668 0.128006 0.0329472 -0.169432 0.555782 -0.573106 0.073408 -0.301842 -0.0137887 -0.25798 0.258566 -0.0296356 -0.312326 -0.197461 -0.237628 0.192619 0.399289 -0.296935 -0.0348493 -0.358753 0.866282 -0.853512 -0.377346
320 0.147394 -0.0410423 -0.0194551 -0.109009 0.400146 0.886772 -0.591159 -0.280071 -0.479252 0.429452 0.204267 0.112185 -0.114609 0.368126 0.03851 -0.106542 -0.206508 -0.244554 -0.15079 0.423271 -0.239137 0.189712 -0.249643 -0.0812693 0.572961 0.45959 -0.556506 0.207339 -0.0341053 0.381039 -0.931095 -0.32447
58 0.379835 -0.291743 0.0530648 -0.266615 0.136316 0.849925 -0.586154 -0.176329 -0.506099 0.300287 0.137663 0.0401398 -0.13587 0.546748 -0.47662 0.0167082 -0.330931 -0.0078562 -0.244845 0.283317 -0.0888124 -0.181557 -0.179579 -0.254863 0.218748 0.432591 -0.314216 0.0286372 -0.299398 0.761428 -0.852096 -0.353696
52 0.457465 -0.351438 0.0727128 -0.327145 0.0979483 0.800794 -0.580021 -0.143511 -0.518316 0.293644 0.134353 0.0195582 -0.13508 0.627995 -0.632117 0.11937 -0.335142 0.0710713 -0.306296 0.227464 -0.0325451 -0.323674 -0.1627 -0.331627 0.156453 0.45932 -0.327939 -0.0477354 -0.265436 0.878061 -0.909113 -0.400421
811 0.303144 -0.152473 0.0714353 -0.231437 0.131555 0.590729 -0.384384 -0.200944 -0.391613 0.272803 0.0865088 0.0297535 -0.098749 0.473857 -0.436993 0.0707786 -0.251337 -0.00259591 -0.26088 0.247158 -0.0859275 -0.126152 -0.0955931 -0.140671 0.244718 0.320149 -0.370329 0.0399953 -0.0987051 0.642043 -0.774545 -0.326744
748 0.311978 -0.10327 0.0522905 -0.251406 0.109857 0.610262 -0.366399 -0.261579 -0.408312 0.212033 0.0588715 -0.00135006 -0.110374 0.472849 -0.466147 0.0295498 -0.291489 -0.0503593 -0.249142 0.285334 -0.097781 -0.105568 -0.1213 -0.166109 0.274687 0.340381 -0.396668 0.101419 -0.119624 0.757259 -0.86124 -0.382883
482 0.142231 -0.0228415 -0.0122064 -0.133867 0.340388 0.737597 -0.500087 -0.257764 -0.420333 0.401445 0.14377 0.0492524 -0.0831057 0.394164 -0.0625669 -0.00864595 -0.188191 -0.187351 -0.238861 0.34967 -0.22997 0.0995198 -0.151577 -0.0626498 0.452515 0.40377 -0.560708 0.175911 0.0971516 0.407258 -0.928071 -0.288074
11 0.113516 -0.00989488 -0.108187 -0.100309 0.510613 0.953064 -0.647015 -0.297785 -0.463578 0.465095 0.233657 0.0742765 -0.156117 0.418655 0.123887 -0.0982368 -0.207224 -0.289888 -0.225308 0.521325 -0.314713 0.177501 -0.35442 -0.0742184 0.744029 0.606767 -0.660861 0.278689 0.0477615 0.413013 -1.11002 -0.398768
389 0.200784 -0.0320653 0.0138529 -0.230682 0.259246 0.637797 -0.434351 -0.226432 -0.38072 0.336822 0.104211 0.0332957 -0.101525 0.417976 -0.222422 0.0421612 -0.210237 -0.0916755 -0.230679 0.290859 -0.158045 -0.0198154 -0.128124 -0.0975929 0.376694 0.315479 -0.477279 0.119059 0.0733356 0.489109 -0.809931 -0.279904
618 0.205086 -0.0185239 0.0699224 -0.176539 0.20141 0.634495 -0.39958 -0.240651 -0.379837 0.347919 0.101378 0.0278219 -0.072931 0.429039 -0.249669 0.026884 -0.263008 -0.0943087 -0.2436 0.292694 -0.185842 0.0413013 -0.0799942 -0.0589622 0.348717 0.335231 -0.501177 0.154074 0.0709985 0.528158 -0.877263 -0.268396
899 0.130413 -0.029346 -0.0193599 -0.196714 0.192289 0.474241 -0.364313 -0.166563 -0.30018 0.260097 0.0955648 0.0265395 -0.0782445 0.460641 -0.28216 0.083155 -0.241815 -0.0984268 -0.260789 0.322957 -0.179341 -0.0421708 -0.103917 -0.111974 0.395358 0.368898 -0.562871 0.132018 0.173341 0.528954 -0.920182 -0.300682
412 0.0662003 0.0264803 -0.060711 -0.151827 0.0526838 0.0805707 -0.137006 -0.0226089 -0.161021 0.0724807 -0.00688291 -0.0176008 -0.062892 0.491425 -0.453892 0.201443 -0.261485 0.0370431 -0.289445 0.253965 -0.101057 -0.248143 -0.0433712 -0.187662 0.252565 0.322222 -0.624803 0.0591741 0.354156 0.562402 -0.814173 -0.299391
805 0.106124 -0.0229398 -0.0113041 -0.246234 0.0461744 0.165603 -0.193023 -0.0354603 -0.255863 0.181408 0.004621 0.027998 -0.00876014 0.561187 -0.451982 0.217522 -0.252997 0.0592992 -0.28594 0.21766 -0.146441 -0.18939 -0.0090405 -0.154805 0.308103 0.332075 -0.645772 0.104252 0.385966 0.513421 -0.889294 -0.233155
136 0.110463 0.0419739 -0.148522 -0.448091 0.114835 0.0706306 -0.263281 0.0204809 -0.298311 0.198809 0.0126908 0.0746079 0.0145845 0.704451 -0.569181 0.459351 -0.186876 0.170751 -0.369506 0.240954 -0.161779 -0.465542 -0.00183228 -0.296652 0.362382 0.290039 -0.78384 0.0097107 0.771584 0.435243 -0.900221 -0.229763
998 0.100522 -0.0188728 -0.106761 -0.0261903 0.0577365 0.349106 -0.35628 -0.0303604 -0.284946 0.251177 0.0973697 0.0385369 0.0351509 0.503158 -0.355033 0.0224515 -0.388053 -0.071179 -0.3433 0.2332 -0.256776 0.0926305 0.0122084 -0.209659 0.244956 0.333756 -0.608706 0.194622 0.172682 0.663588 -1.1169 -0.367165
172 -0.0431922 -0.0520715 -0.347691 0.247236 -0.106854 -0.063994 -0.235268 0.278921 -0.052945 0.0760526 0.169263 0.0935025 0.131828 0.499047 -0.271042 -0.0496764 -0.414021 -0.105538 -0.377299 0.125869 -0.31769 0.206564 0.063113 -0.348537 0.0964471 0.284117 -0.606375 0.180782 0.213715 0.630393 -1.22842 -0.417007
325 0.187035 -0.012803 0.0453845 -0.163253 0.345505 0.818964 -0.502461 -0.321421 -0.452833 0.445485 0.131104 0.0538514 -0.122857 0.385326 -0.078655 -0.0277715 -0.203537 -0.176467 -0.215234 0.34359 -0.202814 0.145653 -0.147632 -0.0146344 0.494706 0.416454 -0.545713 0.198384 0.0565232 0.407897 -0.931054 -0.294951
623 0.347595 -0.155464 0.12527 -0.263213 0.204043 0.836054 -0.533298 -0.302417 -0.477088 0.39251 0.11025 -0.000697284 -0.121331 0.506377 -0.386505 0.0481245 -0.24414 -0.0711213 -0.272704 0.296767 -0.116657 -0.0906649 -0.129522 -0.115777 0.280292 0.387226 -0.426054 0.0673738 -0.108806 0.654363 -0.845308 -0.3259
6 0.536461 -0.351399 0.0799874 -0.382082 0.109239 1.1003 -0.712513 -0.228345 -0.654435 0.340999 0.121709 0.0448744 -0.142387 0.655393 -0.658079 0.00734521 -0.358966 0.0233915 -0.279611 0.342215 -0.0974141 -0.263677 -0.233604 -0.322197 0.261578 0.465925 -0.380459 0.0273772 -0.368098 0.939822 -0.901145 -0.431673
548 0.410991 -0.223893 0.113725 -0.337374 0.161323 0.835062 -0.554546 -0.289581 -0.484553 0.363754 0.0861417 0.0235445 -0.125142 0.526456 -0.512766 0.0889459 -0.258118 -0.027746 -0.289991 0.267719 -0.0654449 -0.194073 -0.116105 -0.178115 0.220438 0.349746 -0.359578 0.0390662 -0.185978 0.755602 -0.797654 -0.346278
388 0.36423 -0.153876 0.137182 -0.305917 0.152239 0.706049 -0.465455 -0.286081 -0.43465 0.324561 0.0806197 0.00813336 -0.138794 0.509439 -0.469312 0.0881403 -0.212072 -0.0299069 -0.267645 0.224985 -0.0568595 -0.180042 -0.1025 -0.11835 0.213089 0.310465 -0.325132 0.0401316 -0.140037 0.707175 -0.739741 -0.321597
930 0.000746494 0.0692662 -0.0786898 -0.245764 0.0392015 0.0212931 -0.131177 0.0660505 -0.192301 0.152925 -0.0109292 0.0047838 -0.0239076 0.602533 -0.430702 0.258233 -0.243698 0.0864438 -0.297314 0.221224 -0.187768 -0.255469 0.00323091 -0.179739 0.374225 0.321555 -0.718797 0.102939 0.575502 0.464378 -0.93313 -0.245528
994 0.0664205 0.0136059 0.0760618 -0.131059 0.00841475 0.251779 -0.148806 -0.0483373 -0.231188 0.158551 0.00944026 0.00658255 -0.0283636 0.520237 -0.404785 0.0401612 -0.315863 -0.0514977 -0.279639 0.26991 -0.200247 0.0623847 0.0379952 -0.0695813 0.362824 0.317712 -0.623011 0.236014 0.188702 0.659642 -1.00162 -0.282131
900 0.0532756 0.0569306 0.103672 -0.0961078 -0.0288641 0.248765 -0.111772 0.000872596 -0.236228 0.176466 -0.0322073 -0.00552365 -0.0225806 0.526594 -0.441036 -0.0194963 -0.357621 -0.0428627 -0.245819 0.264997 -0.243375 0.120895 0.0660258 -0.0683263 0.350496 0.30738 -0.638868 0.279557 0.211607 0.665496 -1.02123 -0.262001
446 0.107446 0.0413501 0.197122 -0.14982 -0.0444379 0.526244 -0.173874 -0.0912781 -0.385848 0.209535 -0.0886506 0.0312195 0.00167495 0.487126 -0.413276 -0.0512328 -0.367567 -0.0397768 -0.119574 0.192276 -0.164478 0.217011 0.128022 0.0327295 0.321186 0.292789 -0.522241 0.330569 0.114518 0.619234 -0.959772 -0.101637
912 -0.0314965 0.105872 0.0878066 -0.00322014 -0.0779344 0.200802 -0.108658 0.0760258 -0.241396 0.127707 -0.0318633 -0.00352217 0.00536637 0.506354 -0.400668 -0.0979609 -0.387167 -0.0164832 -0.190729 0.241599 -0.266927 0.215758 0.141001 -0.0567105 0.345284 0.303635 -0.582771 0.362352 0.23842 0.652124 -1.01888 -0.201179
178 0.0343672 -0.145312 -0.31573 0.132279 -0.112911 0.141881 -0.367962 0.257859 -0.149983 0.127939 0.170243 0.0821882 0.0932943 0.501892 -0.371901 -0.0906006 -0.383986 -0.0561018 -0.365212 0.138138 -0.281716 0.104337 -0.00699889 -0.414882 0.0336853 0.293735 -0.438871 0.133196 0.0628002 0.656185 -1.01439 -0.447174
971 0.0161337 -0.0485904 -0.1504 0.0511644 -0.0485273 0.0396913 -0.165728 0.120479 -0.0806907 0.059165 0.0887504 0.0380496 0.0365938 0.457141 -0.340553 -0.00430304 -0.330737 -0.0734235 -0.32191 0.187125 -0.224907 0.0610167 -0.00814168 -0.227007 0.220466 0.295219 -0.565102 0.171027 0.126306 0.623417 -1.01657 -0.350224
467 0.0651072 -0.0137821 -0.0621403 -0.143906 0.483926 0.904005 -0.607968 -0.281342 -0.466248 0.423191 0.215748 0.0815607 -0.121507 0.394185 0.15768 -0.0464812 -0.237353 -0.263465 -0.152229 0.524882 -0.29195 0.211249 -0.352464 -0.054263 0.725072 0.592539 -0.703871 0.273519 0.120772 0.358842 -1.08762 -0.321065
333 0.15535 -0.0273988 0.0310349 -0.124675 0.306357 0.641585 -0.416206 -0.244247 -0.364954 0.355952 0.115232 0.0539465 -0.0952199 0.356359 -0.0978163 -0.0136507 -0.188964 -0.1479 -0.221026 0.334601 -0.209883 0.1101 -0.122064 -0.043553 0.436789 0.364369 -0.516283 0.181846 0.0589949 0.397954 -0.851486 -0.27738
742 0.175717 0.0363429 0.0308111 -0.214506 0.263906 0.599233 -0.426529 -0.261036 -0.364644 0.401645 0.0942343 0.0415505 -0.0442415 0.438772 -0.25079 0.0476166 -0.176816 -0.138217 -0.32753 0.26182 -0.242772 0.0403166 -0.0316841 -0.0633239 0.354992 0.233083 -0.511942 0.151152 0.143374 0.508799 -0.860419 -0.336629
254 0.309042 -0.0542921 0.146758 -0.323141 0.0316406 0.606002 -0.23414 -0.305275 -0.417189 0.216643 -0.076103 0.10715 0.0106104 0.436578 -0.467177 0.133508 -0.344001 -0.130443 -0.186063 0.146609 -0.0601272 0.140899 0.0842721 0.0291919 0.281724 0.130271 -0.55925 0.151162 0.0088628 0.677116 -1.00133 -0.196465
603 0.258919 -0.0471731 0.121849 -0.22465 0.0656554 0.557766 -0.251545 -0.276684 -0.369533 0.245526 -0.0419191 0.0506528 -0.0233882 0.431306 -0.419675 0.0935401 -0.319791 -0.105641 -0.226476 0.208506 -0.0879095 0.0937029 0.0307567 -0.0210238 0.257345 0.226056 -0.560024 0.14254 0.00249826 0.690435 -0.973415 -0.247392
606 0.21198 -0.0878169 0.0857833 -0.205642 -0.084085 0.408212 -0.0374939 -0.201581 -0.257504 0.0652385 -0.129109 0.169739 0.0574826 0.302194 -0.364389 0.0864927 -0.321124 -0.148307 -0.0598416 0.0639898 -0.0660436 0.255982 0.0908333 0.0454068 0.229436 0.058029 -0.505262 0.19468 -0.0268271 0.602119 -0.953378 -0.0978923
925 0.30506 -0.0967619 0.135038 -0.281433 0.0222913 0.647683 -0.25214 -0.313775 -0.435949 0.223397 -0.0923294 0.105954 -0.0101298 0.413026 -0.456003 0.0967576 -0.32472 -0.1172 -0.14563 0.170405 -0.0524186 0.133512 0.0561982 0.00503894 0.274113 0.178083 -0.528878 0.151244 -0.0180538 0.691669 -0.982819 -0.183608
452 0.270448 -0.0416632 0.121404 -0.237627 0.0248435 0.571725 -0.174073 -0.330948 -0.368804 0.199014 -0.0828233 0.0964034 -0.0121356 0.417832 -0.445433 0.119495 -0.362382 -0.138985 -0.190288 0.181545 -0.0693444 0.173669 0.0491848 0.025199 0.277292 0.201942 -0.613403 0.167168 -0.00439399 0.697146 -1.05745 -0.219403
432 0.499197 -0.252983 0.208898 -0.429011 -0.124548 0.99974 -0.0534175 -0.442154 -0.555721 0.0726647 -0.317179 0.360083 0.130197 0.348011 -0.473355 0.177651 -0.531466 -0.327392 0.149138 -0.02775 0.0723245 0.539276 0.150017 0.207211 0.390299 -0.0154967 -0.705156 0.269704 -0.211553 0.796302 -1.50454 0.0404957
437 0.0790347 -0.262899 0.382584 -0.575232 -0.0390643 0.314789 -0.0562469 -0.462037 -0.0649628 0.10131 -0.173631 0.0387147 0.045028 0.338049 -0.200154 0.452165 -0.45583 -0.195781 -0.258597 0.202416 0.271148 0.143678 0.151472 0.248321 0.436393 0.286688 -0.514926 0.0842788 -0.103076 0.641485 -1.20049 -0.20147
92 0.0170102 -0.0141005 -0.101239 -0.222807 0.0294874 -0.0265379 -0.0978295 0.105457 -0.146841 0.0914646 0.0352113 0.058246 0.014519 0.541739 -0.45741 0.299748 -0.200479 0.110361 -0.30508 0.190964 -0.147796 -0.324305 -0.0223065 -0.227463 0.30964 0.300706 -0.662481 0.0508077 0.531952 0.447316 -0.858416 -0.191448
107 0.168593 -0.0150816 0.00951395 -0.230289 0.11988 0.329726 -0.274803 -0.117243 -0.296909 0.259836 0.0323547 0.0412681 -0.00169547 0.51845 -0.399426 0.175481 -0.249876 0.0124613 -0.311453 0.214572 -0.165083 -0.106117 0.0245761 -0.138042 0.254667 0.274832 -0.566091 0.0844979 0.301887 0.524605 -0.861175 -0.246444
125 0.310617 0.347915 -0.173064 -0.614691 0.450179 0.440937 -0.628532 -0.458851 -0.477374 0.697743 0.105273 0.204587 0.0620465 0.721514 -0.703253 0.208413 -0.0697242 -0.129926 -0.706469 0.173562 -0.589614 0.0226334 0.290698 -0.0899425 0.394183 -0.387514 -0.640364 0.131383 0.620288 0.634433 -1.03503 -0.563641
468 0.140979 0.0253347 -0.0566227 -0.159864 0.462723 1.01268 -0.549958 -0.420242 -0.527014 0.39436 0.15464 0.0954552 -0.114964 0.345885 0.0842386 -0.110669 -0.269166 -0.313354 -0.118686 0.554429 -0.238099 0.211171 -0.344743 -0.0292227 0.71824 0.571916 -0.665501 0.324165 0.00977663 0.475925 -1.09167 -0.405625
650 0.146449 0.0415965 0.04998 -0.159966 0.242998 0.707406 -0.429133 -0.255299 -0.417743 0.359254 0.0840638 0.0673707 -0.0788721 0.442503 -0.159074 -0.0425203 -0.275756 -0.132473 -0.187898 0.343648 -0.268466 0.163405 -0.0839477 -0.0344276 0.462196 0.384576 -0.571707 0.255603 0.121515 0.492156 -0.970187 -0.253303
710 -0.0532372 0.171503 -0.106575 -0.0251951 0.0161663 -0.0238329 0.0836776 -0.168275 -0.0299865 -0.0792347 -0.0452872 -0.0493756 -0.0598922 0.363161 -0.324913 -0.0459095 -0.333992 -0.103055 -0.238469 0.389304 -0.154388 0.0568536 -0.1335 -0.0851078 0.33769 0.364055 -0.625432 0.260439 0.131372 0.812293 -0.987362 -0.570682
845 -0.0616288 0.19302 -0.0854569 0.0336979 0.0349191 -0.0469754 0.113814 -0.186413 -0.0322006 -0.094056 -0.033118 -0.0968886 -0.071807 0.389716 -0.357222 -0.0281574 -0.378318 -0.100931 -0.308941 0.411395 -0.160951 0.037434 -0.131146 -0.0945105 0.360908 0.416758 -0.69216 0.261812 0.13522 0.848749 -1.04969 -0.568028
889 0.164942 0.0350164 0.241333 0.133895 0.155864 0.275544 -0.170306 -0.280868 -0.152191 0.28267 0.0972603 -0.184878 -0.130095 0.376655 -0.272847 0.149956 -0.24244 -0.0949043 -0.4089 0.237191 -0.108732 0.0916498 -0.00394309 0.0276038 0.0962798 0.37582 -0.657532 0.0262888 0.0193955 0.666741 -0.907129 -0.327346
959 0.0402595 0.116256 -0.0104344 -0.0445938 0.0604272 0.124873 -0.043756 -0.191804 -0.125546 0.0553958 0.0216264 -0.033847 -0.0737527 0.420569 -0.353268 0.0263802 -0.332741 -0.0922868 -0.307257 0.356247 -0.17378 0.0717258 -0.0420558 -0.0534161 0.320204 0.363213 -0.65845 0.205163 0.121763 0.773097 -1.03924 -0.447518
825 0.00327071 0.279399 -0.0728967 -0.0468111 0.0519984 0.0400029 0.093229 -0.33211 -0.112594 -0.0686578 -0.0384021 -0.0956427 -0.0782216 0.371479 -0.351073 -0.0890838 -0.326846 -0.11313 -0.260844 0.44696 -0.187299 0.0592207 -0.0941536 -0.0371872 0.341296 0.279511 -0.562645 0.260267 0.140816 0.852419 -0.917243 -0.647865
643 -0.0413917 0.176797 -0.018602 -0.0374698 -0.0388129 0.0547744 0.0679229 -0.113993 -0.120895 -0.0265406 -0.065327 -0.0221155 -0.0633878 0.411964 -0.394318 -0.0761995 -0.381781 -0.0244124 -0.207909 0.336747 -0.182687 0.0809548 -0.00304087 -0.0417948 0.360275 0.349035 -0.557466 0.287074 0.156397 0.705465 -0.892743 -0.42121
711 0.0619103 0.201067 -0.0865914 -0.12728 -0.0358238 0.107898 0.220955 -0.343661 -0.121787 -0.165425 -0.164666 0.0348305 -0.0314441 0.285076 -0.364184 -0.0886215 -0.363704 -0.148021 -0.117514 0.38727 -0.0970836 0.151752 -0.123087 -0.0114644 0.394201 0.237403 -0.58805 0.292836 0.0448086 0.829842 -0.916813 -0.498187
370 0.232728 0.120075 0.00827891 -0.42705 0.276618 0.457215 -0.461403 -0.35573 -0.403928 0.457475 0.0386331 0.0543733 -0.00646396 0.553385 -0.482372 0.147842 -0.141291 -0.0790677 -0.490492 0.209342 -0.307022 -0.0528198 0.12664 -0.0406545 0.318643 0.00139387 -0.499428 0.0921833 0.32408 0.541423 -0.809327 -0.394372
465 0.282528 0.0168514 0.0716827 -0.293788 0.237678 0.48446 -0.395466 -0.296266 -0.372245 0.411203 0.0798422 0.0223241 -0.0373108 0.524614 -0.462783 0.120478 -0.193632 -0.0748123 -0.398881 0.251361 -0.217338 -0.062243 0.0594993 -0.0757614 0.309078 0.134668 -0.525089 0.0775381 0.152689 0.606774 -0.844733 -0.375526
566 0.27785 0.129986 0.0476851 -0.361724 0.332833 0.460232 -0.486463 -0.400699 -0.394522 0.524086 0.123906 0.0554269 -0.00634739 0.578864 -0.501531 0.178063 -0.110878 -0.0901816 -0.545982 0.232836 -0.316361 -0.0329459 0.142258 -0.035027 0.311474 0.0173031 -0.590021 0.081981 0.305484 0.557629 -0.830444 -0.410933
151 0.299018 0.171738 0.0407101 -0.401374 0.342906 0.447351 -0.502387 -0.403853 -0.395413 0.57037 0.0844053 0.0601585 0.0011263 0.576108 -0.498205 0.177596 -0.078208 -0.0807545 -0.54469 0.199894 -0.328092 -0.026327 0.160584 -0.0535514 0.27618 -0.0843286 -0.502343 0.0341104 0.345409 0.51124 -0.740119 -0.412447
371 0.216442 0.093767 0.0523931 -0.340379 0.21728 0.428659 -0.397728 -0.348415 -0.356948 0.423361 0.0572525 0.0302266 -0.0312962 0.508613 -0.438075 0.112396 -0.179032 -0.0901858 -0.442442 0.233565 -0.249376 0.0039338 0.110869 -0.0598364 0.268033 0.0584824 -0.498051 0.0826449 0.205297 0.6053 -0.828598 -0.374475
517 0.0201562 -0.225652 0.341092 -0.456245 0.0359311 0.255305 -0.0990243 -0.420487 -0.0283802 0.157079 -0.0961838 -0.0591232 -0.0297517 0.359024 -0.148664 0.327363 -0.442549 -0.165564 -0.327266 0.314145 0.207116 0.120408 0.0906955 0.177557 0.421119 0.429214 -0.516328 0.100826 -0.0745142 0.665989 -1.12192 -0.318556
310 0.081857 -0.0545285 -0.159251 -0.0596047 0.436876 1.02457 -0.682467 -0.299926 -0.528502 0.467928 0.233529 0.176829 -0.0450648 0.334983 0.199526 -0.202758 -0.293734 -0.36502 -0.0706197 0.474632 -0.371633 0.39704 -0.2958 -0.0787009 0.694738 0.578147 -0.762292 0.391956 0.0271356 0.386226 -1.2726 -0.384695
321 0.153564 -0.0511102 -0.0778433 -0.144201 0.437893 0.842221 -0.553513 -0.294539 -0.450525 0.452501 0.186323 0.0646145 -0.10188 0.366885 0.0156544 -0.0827675 -0.170738 -0.237573 -0.192652 0.452339 -0.27986 0.125725 -0.26042 -0.0786871 0.622805 0.438093 -0.580314 0.200623 0.0951744 0.37167 -0.948319 -0.282481
555 0.158947 0.0173196 0.00279064 -0.14592 0.340064 0.644705 -0.469997 -0.288012 -0.390796 0.409646 0.133292 0.039354 -0.062365 0.371589 -0.108577 0.0212498 -0.190981 -0.178765 -0.248429 0.292526 -0.242601 0.116237 -0.0812672 -0.0399817 0.389561 0.307145 -0.539784 0.175907 0.117618 0.418768 -0.897912 -0.286515
322 0.184633 -0.00679249 -0.0350366 -0.178904 0.384572 0.881316 -0.550358 -0.325505 -0.48448 0.461739 0.147184 0.0621925 -0.104034 0.412159 -0.0690057 -0.0457676 -0.238909 -0.206868 -0.233902 0.441408 -0.273057 0.16176 -0.20966 -0.0576007 0.563042 0.465757 -0.597842 0.238079 0.106465 0.450302 -1.01708 -0.335411
474 0.18005 -0.00999668 0.0679503 -0.134995 0.311546 0.810607 -0.486898 -0.299893 -0.467184 0.435232 0.143791 0.0521354 -0.114566 0.387801 -0.0855746 -0.017003 -0.259498 -0.192891 -0.20094 0.368018 -0.231123 0.155307 -0.151582 -0.041077 0.480135 0.432396 -0.592939 0.220887 0.0512149 0.500481 -0.995292 -0.281009
428 0.174634 -0.0347466 0.175073 -0.0257785 0.144654 0.431513 -0.301958 -0.239413 -0.294589 0.332138 0.0814461 -0.0585629 -0.0666048 0.466073 -0.334957 0.123641 -0.296918 -0.0771271 -0.377749 0.220481 -0.127825 0.0910392 0.0193957 -0.0106013 0.188389 0.373187 -0.635371 0.0861614 0.059416 0.646846 -0.990897 -0.280306
951 0.156741 -0.00356652 0.153938 0.0407869 0.134775 0.257281 -0.155332 -0.258781 -0.158513 0.233389 0.0828808 -0.123152 -0.117148 0.40906 -0.321931 0.113056 -0.225082 -0.0999066 -0.377615 0.234695 -0.101022 0.0261209 -0.00914278 -0.0200885 0.174193 0.376662 -0.613358 0.0473006 0.0342536 0.655657 -0.899189 -0.341682
496 0.362727 -0.109495 0.462104 0.229426 0.203353 0.52467 -0.341021 -0.345398 -0.247506 0.498209 0.150289 -0.286626 -0.209231 0.49244 -0.404032 0.227904 -0.232724 -0.0893825 -0.545875 0.164529 -0.0211541 0.0835387 0.0512099 0.0389952 -0.108959 0.482169 -0.638661 -0.0934744 -0.132506 0.783511 -0.992001 -0.260389
697 0.106486 -0.0920775 -0.108006 0.0113257 0.0174416 0.20029 -0.273883 0.0233573 -0.17556 0.157343 0.0808182 0.00841854 0.0364452 0.450939 -0.367475 0.0112058 -0.358324 -0.0514463 -0.349224 0.211981 -0.21163 0.0587067 -0.00515991 -0.232772 0.188236 0.322106 -0.492523 0.134492 0.0338608 0.674051 -0.977472 -0.39654
350 0.0900684 -0.0697761 -0.143447 0.00176246 -0.0121011 0.249907 -0.306832 0.0181717 -0.218087 0.17739 0.0748344 0.0432238 0.04141 0.468363 -0.362292 -0.0377111 -0.363346 -0.0469139 -0.287365 0.214199 -0.230415 0.075784 0.00233562 -0.228263 0.198848 0.279679 -0.510957 0.169698 0.0855894 0.64629 -1.01537 -0.384256
207 -0.0649787 0.251393 0.485377 -0.107563 -0.210009 0.599749 -0.110737 0.232906 -0.589649 0.314697 -0.164965 0.0248571 -0.0420027 0.70515 -0.617802 -0.372667 -0.5032 0.156527 0.0193906 0.227563 -0.444728 0.397013 0.361618 0.149582 0.531558 0.389652 -0.510371 0.676122 0.369973 0.684596 -0.986984 0.139388
245 0.0625028 0.097692 0.167226 -0.128855 -0.00869418 0.326413 -0.128185 -0.0666703 -0.314878 0.192915 -0.0447059 0.000672799 0.00237472 0.51199 -0.450506 -0.0452895 -0.333959 -0.0269935 -0.215175 0.226506 -0.209714 0.171006 0.129421 -0.00191252 0.339302 0.246288 -0.526347 0.313742 0.217754 0.626716 -0.925272 -0.177775
153 0.286885 0.16253 0.00360523 -0.437095 0.347229 0.511874 -0.555693 -0.419318 -0.433195 0.595482 0.096157 0.0648794 -0.013666 0.488697 -0.446326 0.170707 -0.0975656 -0.0927017 -0.554434 0.178174 -0.334645 -0.0296516 0.164194 -0.0167832 0.282735 -0.0899662 -0.462265 0.0529192 0.317247 0.494004 -0.703131 -0.390759
365 0.296491 0.172072 0.0329084 -0.52748 0.358981 0.523424 -0.568431 -0.447149 -0.441998 0.611176 0.0676116 0.0677821 0.0218771 0.614455 -0.543482 0.168267 -0.129297 -0.0777668 -0.591 0.217528 -0.372909 -0.0309813 0.196985 -0.0079723 0.315091 -0.139916 -0.52613 0.0630038 0.375254 0.589374 -0.841941 -0.468354
741 0.226035 0.103926 0.0210913 -0.307659 0.25664 0.462649 -0.405299 -0.30736 -0.369894 0.428415 0.0759988 0.0429883 -0.0186207 0.500213 -0.459347 0.105043 -0.136836 -0.0987172 -0.467863 0.2201 -0.288438 -0.0194456 0.0788893 -0.0666942 0.292325 0.0330481 -0.505287 0.075926 0.212233 0.58832 -0.793633 -0.382326
657 0.179551 0.16604 -0.0174646 -0.292009 0.26908 0.377183 -0.348714 -0.335921 -0.333257 0.362398 0.0492125 0.00700464 -0.0224349 0.476731 -0.458005 0.0853807 -0.174269 -0.0567945 -0.450762 0.241488 -0.277061 -0.0166269 0.0906591 -0.073902 0.281101 0.0129291 -0.483335 0.0920337 0.219216 0.571394 -0.747167 -0.445585
846 -0.0673183 0.221479 0.0271904 -0.00188188 -0.0417276 0.0276446 0.135851 -0.160215 -0.118374 -0.0758249 -0.0911977 -0.0602545 -0.0399954 0.417761 -0.385572 -0.102599 -0.427304 -0.0498344 -0.204876 0.40789 -0.171023 0.11574 -0.0334615 -0.0178159 0.357157 0.370338 -0.608858 0.318828 0.162591 0.806665 -1.00038 -0.472741
915 0.136036 0.0190165 0.182924 -0.0997403 0.0332538 0.423413 -0.210848 -0.111822 -0.351635 0.279278 0.00502535 -0.00912675 -0.0519327 0.527169 -0.435102 0.0109169 -0.332267 -0.0252017 -0.285385 0.216104 -0.201515 0.10855 0.094752 -0.0168974 0.296519 0.314545 -0.578872 0.234585 0.142649 0.669679 -0.986443 -0.231654
571 0.280201 -0.00218761 0.367156 0.145253 0.187643 0.394804 -0.290717 -0.297841 -0.252218 0.422525 0.113028 -0.154798 -0.173908 0.480737 -0.413282 0.205636 -0.234857 -0.0642773 -0.536207 0.173271 -0.114801 0.103431 0.118347 0.0516852 0.00966459 0.366475 -0.72515 -0.00647945 0.0277243 0.731734 -1.03118 -0.282219
484 0.156901 0.0145164 0.00277683 -0.156396 0.331214 0.686176 -0.471726 -0.253999 -0.398457 0.383275 0.14084 0.062045 -0.09364 0.373865 -0.108372 -0.0172934 -0.205795 -0.178555 -0.241068 0.317304 -0.231078 0.108595 -0.136677 -0.0397173 0.462552 0.363982 -0.540642 0.181583 0.0872974 0.44363 -0.911872 -0.272554
485 0.151257 -0.0201137 0.0085439 -0.11409 0.311272 0.724933 -0.442288 -0.24622 -0.387242 0.386083 0.145489 0.0445236 -0.107356 0.350231 -0.0547652 -0.0624685 -0.198777 -0.186952 -0.191917 0.367635 -0.255623 0.13529 -0.18312 -0.0265797 0.527786 0.412742 -0.586861 0.190708 0.0780814 0.415514 -0.903702 -0.260891
410 0.376684 -0.0352128 0.587627 0.374232 0.384116 0.61814 -0.478415 -0.41612 -0.313981 0.662066 0.278063 -0.373857 -0.257828 0.510636 -0.299116 0.357445 -0.244146 -0.100315 -0.650052 0.196016 -0.0556525 0.133419 0.0616784 0.118862 -0.190566 0.571817 -0.928921 -0.153147 0.0194748 0.735674 -1.14466 -0.205669
415 0.300342 -0.0574869 0.331563 0.137315 0.231521 0.489781 -0.352084 -0.331827 -0.278842 0.448839 0.154355 -0.175612 -0.151416 0.434186 -0.318949 0.189897 -0.241156 -0.0993599 -0.468008 0.176154 -0.0830613 0.0875877 0.050716 -0.00248011 0.00305923 0.43749 -0.662989 -0.0327454 -0.00211076 0.676024 -0.998454 -0.242307
507 0.182705 -0.0334482 0.243517 0.0880021 0.157256 0.35028 -0.221608 -0.233305 -0.212295 0.324019 0.0858112 -0.11065 -0.0989269 0.434016 -0.322005 0.147482 -0.244562 -0.0872566 -0.412078 0.20534 -0.11433 0.076582 0.0431118 -0.0121154 0.110241 0.37482 -0.637671 0.0508402 0.045123 0.651629 -0.968222 -0.26542
990 0.217441 -0.00713235 0.213704 -0.0192487 0.164566 0.380861 -0.259169 -0.270294 -0.237316 0.344947 0.0866107 -0.0828781 -0.0798605 0.456415 -0.371503 0.173511 -0.254645 -0.0819019 -0.418658 0.23461 -0.139766 0.049564 0.0519322 0.00831969 0.180755 0.347164 -0.667275 0.066177 0.0827962 0.645743 -1.00093 -0.292436
560 0.240649 0.100002 0.0612285 -0.314567 0.284254 0.434944 -0.453232 -0.346649 -0.362238 0.484171 0.10034 0.00264317 -0.0277842 0.581889 -0.47829 0.17513 -0.174908 -0.0791247 -0.513867 0.22934 -0.275163 -0.0598463 0.133662 -0.0501577 0.285094 0.0792767 -0.625525 0.0789629 0.301038 0.586068 -0.888342 -0.376951
160 0.215019 0.111821 0.0457162 -0.405196 0.253916 0.414364 -0.437779 -0.348594 -0.376559 0.466298 0.075758 0.0178942 -0.00551118 0.505312 -0.469684 0.156096 -0.162935 -0.0757488 -0.488347 0.217599 -0.251762 -0.040523 0.140098 -0.0378488 0.269549 0.0141008 -0.512046 0.088441 0.316813 0.52014 -0.781157 -0.368972
443 0.320355 -0.104992 0.133705 -0.289306 -0.0105451 0.669174 -0.182175 -0.2782 -0.444866 0.17105 -0.111875 0.141787 0.0106445 0.444878 -0.450489 0.107541 -0.352842 -0.136019 -0.111629 0.100652 -0.0683162 0.180207 0.0911052 0.0370307 0.296381 0.133263 -0.576267 0.203922 -0.000393096 0.685395 -1.08938 -0.144664
441 0.302494 -0.109942 0.123351 -0.301092 -0.0688469 0.629577 -0.0979227 -0.282935 -0.378433 0.110659 -0.168334 0.176309 0.0434203 0.363846 -0.432002 0.120619 -0.377778 -0.141542 -0.0477983 0.0925866 -0.0223287 0.22632 0.120782 0.0660025 0.265089 0.0976217 -0.510809 0.188962 -0.0872759 0.691518 -1.08764 -0.0951461
600 0.254248 -0.078195 0.126318 -0.257568 -0.0332277 0.503873 -0.0634598 -0.267795 -0.333468 0.0935128 -0.146862 0.144407 0.0309231 0.378399 -0.429289 0.161976 -0.368539 -0.130864 -0.0993289 0.0895243 -0.0214987 0.217358 0.0900878 0.063654 0.275008 0.11175 -0.583898 0.182967 0.0344211 0.675034 -1.07883 -0.121426
353 0.0737323 -0.0289188 -0.0897806 -0.0154159 -0.0246373 0.224832 -0.204746 -0.012186 -0.183551 0.132254 0.0559753 0.0669003 0.0503078 0.439354 -0.329254 0.00567214 -0.334409 -0.0908518 -0.272332 0.170366 -0.190152 0.133435 0.0562809 -0.161101 0.21305 0.254851 -0.543897 0.192521 0.131896 0.618454 -1.04198 -0.29918
343 0.0820724 -0.028602 -0.140123 -0.00853294 0.0196711 0.119226 -0.312954 -0.0208122 -0.149182 0.244374 0.121996 0.0232351 0.0881336 0.454324 -0.339081 0.0273011 -0.281483 -0.0587911 -0.412221 0.122172 -0.259738 0.104172 0.0783018 -0.227468 0.059029 0.167816 -0.463338 0.0965766 0.1882 0.592585 -0.94884 -0.386427
62 0.330366 -0.169136 0.0914836 -0.275376 0.141032 0.643364 -0.467861 -0.230828 -0.416644 0.322157 0.0938341 0.00966123 -0.0793644 0.506999 -0.470496 0.0792337 -0.246636 0.000730478 -0.295973 0.25853 -0.0952744 -0.159554 -0.0656972 -0.148369 0.214049 0.327237 -0.38337 0.0269657 -0.104493 0.658507 -0.809989 -0.32973
855 0.289912 -0.140376 0.0345408 -0.187189 0.121898 0.573857 -0.402808 -0.196452 -0.364885 0.274239 0.0822522 -0.00448123 -0.0833652 0.424686 -0.374583 0.0225317 -0.226551 -0.0318279 -0.232494 0.240759 -0.108591 -0.109457 -0.0796295 -0.128293 0.209191 0.301957 -0.359754 0.0656891 -0.0957559 0.621383 -0.73015 -0.297985
23 0.50222 -0.291888 0.0634575 -0.225388 0.0893004 0.820915 -0.575007 -0.244362 -0.477804 0.298266 0.142301 -0.0205903 -0.137638 0.56227 -0.61313 0.0451971 -0.319569 0.0146986 -0.337777 0.274084 -0.0343403 -0.23124 -0.166365 -0.276875 0.110856 0.432712 -0.315596 -0.0590687 -0.376191 0.902717 -0.815764 -0.451763
283 0.302267 -0.0166694 0.411828 0.206927 0.258018 0.338183 -0.269278 -0.352967 -0.225309 0.444564 0.181099 -0.214819 -0.165197 0.440621 -0.304984 0.242036 -0.181752 -0.0846294 -0.565972 0.172937 -0.0833759 0.102903 0.100494 0.0528086 -0.0381722 0.4117 -0.767792 -0.0696811 0.00697133 0.648283 -0.973641 -0.278678
17 0.535959 -0.338045 0.20324 -0.460378 0.155746 0.957871 -0.546593 -0.329492 -0.569963 0.301294 0.0334848 0.020397 -0.206059 0.625876 -0.667215 0.141848 -0.319841 0.0203189 -0.27972 0.307541 0.0739697 -0.412034 -0.187601 -0.203243 0.264008 0.464029 -0.273328 -0.0179474 -0.341962 0.911571 -0.939852 -0.375964
746 0.207542 -0.070766 0.0368349 -0.17225 0.270339 0.646734 -0.394974 -0.260525 -0.340596 0.328318 0.0780795 0.0369584 -0.0794181 0.37349 -0.150709 0.021634 -0.232023 -0.154418 -0.221089 0.286355 -0.158172 0.0596461 -0.112991 -0.0441073 0.410106 0.334264 -0.464007 0.149877 0.0307628 0.443095 -0.866015 -0.260645
890 0.208098 -0.0395216 0.0886915 -0.131644 0.311822 0.705523 -0.438606 -0.29286 -0.409413 0.393776 0.117204 0.0253871 -0.101543 0.40188 -0.1708 0.0164177 -0.221493 -0.166686 -0.246541 0.286636 -0.191532 0.134025 -0.0689397 -0.00977123 0.413268 0.354141 -0.55049 0.163418 0.0481183 0.46946 -0.937891 -0.248746
317 0.138273 -0.0280626 -0.0022557 -0.107027 0.426529 0.867273 -0.543499 -0.288929 -0.450817 0.447436 0.156005 0.0568254 -0.100202 0.363027 0.0369917 -0.0848128 -0.238469 -0.249403 -0.199583 0.43405 -0.26494 0.193331 -0.202083 -0.00243416 0.624369 0.458204 -0.587887 0.23894 0.0676686 0.355948 -1.03383 -0.291023
313 0.0830289 0.0244886 0.0439436 -0.115575 0.394505 0.935711 -0.565694 -0.245658 -0.51214 0.495673 0.150651 0.108645 -0.105114 0.388833 0.0818331 -0.126649 -0.229065 -0.243635 -0.120326 0.379454 -0.319006 0.346911 -0.181032 0.0361578 0.655061 0.437388 -0.658868 0.305975 0.124431 0.354492 -1.08945 -0.191806
282 0.321788 -0.0968326 0.272917 0.11812 0.239764 0.506993 -0.386951 -0.299471 -0.31521 0.449841 0.179063 -0.16178 -0.160976 0.48979 -0.335242 0.177977 -0.232151 -0.112369 -0.479363 0.212484 -0.071827 0.0401448 0.00784092 -0.0325879 0.0249468 0.42859 -0.647322 -0.0496826 -0.0104041 0.703921 -1.0365 -0.280105
297 0.252004 -0.0523558 0.233675 0.0318832 0.159788 0.397026 -0.282696 -0.263113 -0.24101 0.334159 0.101916 -0.105387 -0.110863 0.438132 -0.337947 0.18664 -0.223381 -0.0984761 -0.372813 0.1844 -0.0977955 0.0600073 0.0494291 0.00472218 0.0782825 0.31895 -0.585121 0.0107869 -0.00326215 0.61579 -0.903953 -0.243802
425 0.263392 -0.0102044 0.272455 0.063393 0.218021 0.396804 -0.33241 -0.293265 -0.253392 0.391743 0.145267 -0.134286 -0.139371 0.445564 -0.324394 0.202708 -0.196016 -0.0833855 -0.459355 0.177472 -0.119848 0.0376351 0.0394657 0.0183828 0.0363335 0.346405 -0.634599 -0.0209443 0.0284417 0.636894 -0.93188 -0.272075
886 0.213133 -0.0169463 0.238255 0.0315599 0.15769 0.411501 -0.270446 -0.286378 -0.258363 0.336486 0.0755405 -0.113517 -0.0976908 0.447394 -0.345585 0.12814 -0.293579 -0.0700411 -0.393042 0.221276 -0.127714 0.083613 0.0716417 0.0174749 0.128655 0.363987 -0.657468 0.0611691 0.0698524 0.679308 -1.00205 -0.279757
753 0.160546 -0.159219 0.30059 -0.390448 0.0966416 0.444774 -0.241086 -0.386621 -0.226521 0.266169 -0.0162785 -0.0260994 -0.0725408 0.432029 -0.322106 0.261805 -0.388182 -0.113889 -0.36432 0.2787 0.0674285 0.0250503 0.0515125 0.0766441 0.340565 0.368185 -0.514282 0.0643856 -0.0820055 0.720063 -1.05186 -0.309832
274 0.0971849 -0.417788 0.629806 -0.507401 -0.0319034 0.31165 -0.0923489 -0.5281 -0.00680615 0.161123 -0.132947 -0.138085 -0.0615104 0.367264 -0.157894 0.543878 -0.540381 -0.212558 -0.386648 0.2987 0.436301 0.0960452 0.155403 0.297059 0.343246 0.541945 -0.511182 -0.00701777 -0.317207 0.789956 -1.25478 -0.255556
